<?xml version="1.0"?>
<opencv_storage>
<opencv_ml_ann_mlp>
  <format>3</format>
  <layer_sizes>
    29 100 100 100 10</layer_sizes>
  <activation_function>SIGMOID_SYM</activation_function>
  <f_param1>6.6666666666666663e-01</f_param1>
  <f_param2>1.7159000000000000e+00</f_param2>
  <min_val>-9.4999999999999996e-01</min_val>
  <max_val>9.4999999999999996e-01</max_val>
  <min_val1>-9.7999999999999998e-01</min_val1>
  <max_val1>9.7999999999999998e-01</max_val1>
  <training_params>
    <train_method>BACKPROP</train_method>
    <dw_scale>1.0000000000000000e-03</dw_scale>
    <moment_scale>0.</moment_scale>
    <term_criteria>
      <iterations>1000</iterations></term_criteria></training_params>
  <input_scale>
    1. -2. 3.7696149412444919e+00 -2.3510563238730531e+00
    1.0241100216661762e+01 -2.6401554598432697e+00
    8.0242097505348937e+00 -1.9238725639900305e+00
    8.9332945761775218e+00 -1.9673818545856754e+00
    8.3229267045702535e+00 -1.1484931718008702e+00
    1.7510076857778731e+01 -1.4142816807657963e+00
    3.1013028570241705e+01 -1.6985623431510857e+00
    4.2344622800676248e+01 -1.7682046615146312e+00
    5.1093341972527320e+01 -1.8154437000409842e+00
    6.2671356146589630e+01 -1.8619231511423657e+00
    6.9489132479645278e+01 -1.8776695100492635e+00
    8.0497391913877962e+01 -1.9288824549057864e+00
    7.4699813009859710e+01 -1.6682759806828131e+00
    1.0636606053918307e+02 -2.1204535212675042e+00
    9.0787822825067906e+01 -1.5886916671310143e+00
    1.2198458918321575e+02 -1.8984003526509077e+00
    1.1948688190540183e+02 -1.6084424587913912e+00
    1.5969776437686474e+02 -2.0070241070098085e+00
    1.6593678763644564e+02 -1.7973979591223679e+00
    2.0118055210420476e+02 -1.9951937608958457e+00
    2.0640337150844431e+02 -1.7645156712004997e+00
    2.2715086104867393e+02 -1.8862034974838560e+00
    2.3509979784066221e+02 -1.7248509226234769e+00
    2.9547859904612966e+02 -1.9068160615942833e+00
    2.6902548510824414e+02 -1.6369715199538515e+00
    2.9052697457353389e+02 -1.7226248509196929e+00
    3.4690082490843497e+02 -1.7389247068865774e+00
    3.2344076415944130e+02 -1.5913760017500687e+00</input_scale>
  <output_scale>
    5.2631578947368418e-01 4.9999999999999994e-01 5.2631578947368418e-01
    4.9999999999999994e-01 5.2631578947368418e-01 4.9999999999999994e-01
    5.2631578947368418e-01 4.9999999999999994e-01 5.2631578947368418e-01
    4.9999999999999994e-01 5.2631578947368418e-01 4.9999999999999994e-01
    5.2631578947368418e-01 4.9999999999999994e-01 5.2631578947368418e-01
    4.9999999999999994e-01 5.2631578947368418e-01 4.9999999999999994e-01
    5.2631578947368418e-01 4.9999999999999994e-01</output_scale>
  <inv_output_scale>
    1.8999999999999999e+00 -9.4999999999999996e-01
    1.8999999999999999e+00 -9.4999999999999996e-01
    1.8999999999999999e+00 -9.4999999999999996e-01
    1.8999999999999999e+00 -9.4999999999999996e-01
    1.8999999999999999e+00 -9.4999999999999996e-01
    1.8999999999999999e+00 -9.4999999999999996e-01
    1.8999999999999999e+00 -9.4999999999999996e-01
    1.8999999999999999e+00 -9.4999999999999996e-01
    1.8999999999999999e+00 -9.4999999999999996e-01
    1.8999999999999999e+00 -9.4999999999999996e-01</inv_output_scale>
  <weights>
    <_>
      -5.2982824678020235e-02 -5.2279698024913654e-02
      3.9336175969526120e-02 -3.6509622240002801e-02
      1.7505165009740257e-02 5.4416333079242860e-02
      5.8178105421765582e-02 -4.3638041559225342e-02
      -4.9883657115028110e-02 -3.1127462723946606e-03
      -1.4666329182064881e-02 -3.4147038120339437e-02
      4.5111381570145416e-02 4.8820162433999614e-02
      -4.5429959508082131e-02 4.9478480241037452e-02
      -4.0594589507541898e-02 1.8375603644527935e-02
      -5.5872890484395435e-02 -3.4230730379500938e-02
      -2.0058588997975205e-02 4.9761906448787523e-02
      1.5967058527210375e-02 3.6540517582050007e-02
      1.9249621332573134e-02 -9.5252095756664084e-03
      -2.8944271435175167e-02 5.7480582691289146e-02
      -6.5702887682962979e-02 5.2626432810338464e-02
      -2.7837163167993551e-02 2.5485935351764168e-02
      6.2318195344372343e-02 -1.3547315446277925e-02
      -2.6514682897564208e-02 -3.7468206222509862e-02
      -5.9591322222386264e-02 2.1581430952087596e-04
      -4.3972030623290928e-02 1.6300718409899967e-02
      3.6322736738051177e-02 -5.0884846599739644e-02
      4.7131122061006267e-02 -4.9939629329465364e-02
      3.9016121225456661e-02 5.0462822788745219e-02
      1.0826426748939298e-02 5.4399683508486715e-02
      1.8351738301167739e-02 2.2420251162232514e-02
      -7.8611851444699860e-03 -7.0140999327571230e-02
      6.6947822533326914e-02 -3.8606725763648757e-02
      6.0762391995243720e-02 7.1945217545846346e-02
      9.7325195495374418e-03 -2.1607756848591080e-03
      -2.5109047145697526e-02 2.6008911317219309e-02
      3.3778374529302602e-02 -1.3156227623972092e-02
      2.9101766201320257e-02 -2.1552400494151875e-02
      -4.6920851485025381e-02 -6.4965281185520890e-02
      -5.3497629255779840e-02 -2.6838737720555787e-02
      -4.1417917784196519e-02 -3.9349214264705487e-02
      2.1147804130439478e-02 7.3033785893724529e-02
      5.5788591327226716e-02 -2.0197913576705404e-02
      -5.5570564530094554e-02 7.2045739678218798e-02
      3.7857606949819080e-02 -4.6309237371573893e-03
      -8.2679557536717123e-03 4.1238559542180010e-02
      2.6293891874177286e-02 -5.6558489652001526e-02
      -3.3858455788350034e-02 2.9850960887899586e-02
      -1.1996291190313575e-02 -1.6185875930408808e-02
      6.0646229890198829e-03 -2.5699406331558712e-02
      -8.6641001560388349e-04 -3.1293069575135224e-02
      -3.7692082907251651e-02 -6.8480712845350898e-03
      -6.4181404075954754e-02 -2.7229207165882903e-02
      5.3285461262174490e-02 3.2357391669583818e-02
      2.5746401944359881e-02 -6.1523888006156470e-02
      -4.4030893097309537e-02 3.6349751277434270e-02
      -7.1041117569461432e-01 1.8202595039089597e-01
      -9.4403645033073458e-01 4.5981875511649389e-01
      -3.1335032524367334e-01 -8.4869743223987382e-02
      2.2312764451488584e-01 -1.1607258004956542e-01
      -1.0644407121158479e+00 2.8472039455223991e-01
      -1.2612870468268799e-02 -2.9160899086774755e-01
      4.0406972410876187e-02 2.0110735916345365e-01
      -1.2612308270862413e-01 -2.1541130843050790e-01
      -6.9620808317902805e-01 -1.5958050559588477e-01
      -2.5603303832957308e-02 1.2950243898672645e-01
      -1.8501494688903275e-01 -1.9846443038801984e-02
      2.8423706259364120e-03 -2.0936149707234902e-01
      -3.5326078062429017e-02 1.2401229507375831e-01
      1.8778235748802768e-01 2.5209370026774247e-01
      -1.4217755703902299e-01 -1.6186278851253005e-01
      -1.0039351372521405e-01 1.8408234590940051e-01
      -1.5913948990450937e-02 7.4029448192177522e-02
      -7.3164593673341827e-02 -6.0414506480492625e-02
      1.6315892875451057e-01 1.3301920192364591e-01
      1.3710276922316250e-01 -1.9068507348476527e-01
      8.0131502845557215e-02 2.4326119164420681e-01
      4.1914933854913217e-01 2.6520271099096269e-03
      1.8071731735473309e-01 1.0737209391867074e-01
      -1.0094670428518797e-01 -1.9171079804776772e-01
      -6.8441878147579238e-02 2.9575432693720560e-01
      6.2501431238200322e-01 1.4936498782721455e-01
      -5.6812018063923296e-02 2.0676984184741481e-01
      5.3884584292487221e-02 1.4917390109271406e-01
      1.1085427348378223e-01 5.3084756147908481e-02
      2.0567988152875114e-01 3.1783873461345862e-03
      4.4127435248778785e-01 9.3740028524844643e-03
      9.3118615743784980e-02 -1.2292844174624241e-01
      -9.5523767814680402e-02 4.6583647793967980e-01
      -1.8615581345188267e-01 7.2509237470855192e-01
      -8.5095547476633782e-02 -1.1916443216768286e-02
      -3.7070345702687598e-03 -9.3568067512672590e-03
      -1.4173380579786229e-01 -3.5007398461065425e-01
      -1.5396736369225805e-01 -2.3063782077687393e-02
      3.8604124407770313e-03 1.7419607944236082e-01
      1.1627253400453373e-01 -9.2996875832029910e-02
      -4.9294069709709115e-01 1.7857581578348155e-02
      -1.0529819084925600e-01 -3.4211235427998604e-01
      2.0982403249100598e-01 5.0295330380150431e-02
      5.1334195606462729e-01 1.5546744549839567e-01
      -3.0359027680459495e-02 1.7437545638781193e-01
      -8.0346484627253731e-02 4.3742708768552946e-01
      -2.8815022310531924e-01 5.7538786410218222e-02
      -1.5819743580871737e-01 -1.8526412657193611e-01
      -1.3528146495434637e-01 9.6715228714365387e-02
      2.3893219534509660e-01 1.3809213311534693e-01
      4.4286347413356110e-02 -1.2761608595794885e-01
      2.0762612291561874e-01 -2.8324271159229675e-01
      2.5939086125179073e-01 -1.3891100542407034e-01
      9.2094244573526690e-02 8.5335912609958806e-02
      -7.8411513836413804e-01 -5.6035288788422725e-02
      4.3344124629198827e-01 1.4632230919467085e-01
      -8.1133386004735519e-02 2.3041833388325553e-03
      1.9747905274457866e-01 1.3277827212191012e-01
      6.0503136809116498e-01 9.8180105034549506e-02
      -8.0344788084674143e-02 6.0447784272573378e-02
      -3.1673421079371218e-02 1.4821816723413875e-01
      8.5934704593855604e-02 -2.1721383490375820e-01
      -6.2647832117150234e-02 2.0309582829924111e-01
      2.3909034304520849e-02 -1.5277401746326999e-01
      8.9982618751510118e-02 -1.6347644030268529e-01
      2.2160185343960716e-02 4.4169997925869377e-02
      3.9453801394767445e-02 -1.0228818340782726e-01
      1.7399055767516972e-01 2.9815433479067466e-01
      7.3470938716153233e-02 1.8041152484412640e-01
      2.0250994066819114e-01 2.9046612758101126e-02
      2.8040182625410237e-01 4.8654262721360558e-01
      4.5337621575610981e-03 -1.8631776433950148e-01
      -2.1317686748496906e-02 -6.4547933547161929e-02
      -1.2958850030920485e-01 3.8187744553808446e-02
      6.7626529370706137e-02 -4.3368208449542250e-01
      -1.1688733146368617e-01 2.4031319070707883e-02
      -2.0796705987464201e-01 3.7384485479766409e-02
      1.8222379428151136e-01 -3.5485827775160399e-02
      -2.6671303251620149e-01 2.2350007947933570e-01
      1.8788222695625004e-01 -1.9430706943124706e-01
      1.4340390259117847e-01 9.1363335638426114e-03
      7.1496606883933791e-02 -4.1344345665264404e-02
      1.8995468166254989e-01 1.8163685477579561e-01
      -3.4289801735619818e-01 -4.0207676089289868e-01
      -1.4951661252589368e-01 -1.9824223763816529e-01
      -6.2357186802635123e-01 2.9581771890804648e-01
      3.5214123886459338e-03 -6.5633057129255157e-02
      4.1180840958694248e-01 -1.1307645794196386e-01
      2.4970690697291995e-01 2.4156239957720210e-01
      7.3488635487568885e-02 -2.0122907291842154e-01
      -9.3618093631481353e-02 -2.4387144311864645e-02
      -3.9066831512229123e-02 -4.0841562913799784e-01
      2.1769866010750744e-01 -2.3106282064338191e-01
      -2.8803267296866503e-01 3.0191731785328335e-01
      1.6602442754881045e-02 -3.1367183787728287e-01
      1.9229970057514409e-01 9.2697755426185455e-02
      -2.0208211866909170e-02 2.0322604987604320e-01
      -5.3236209709187843e-01 -1.4049877174318406e-01
      -3.9084854480908648e-01 -2.3901945125633278e-01
      1.1743905627472892e-01 -4.8739494272126628e-02
      -1.4959349060838475e-01 7.4561843857207530e-02
      1.0144816486049042e-01 5.5307232557600994e-01
      6.2945876159141290e-01 7.6909167618102514e-02
      -6.6516483405468674e-02 -7.0132959962787386e-02
      -9.5989172703675973e-01 -8.3332869267693829e-02
      2.0865111574285292e-01 -2.2276153413074373e-02
      4.8969189743465598e-02 2.2690490463952542e-01
      -9.0545562937807661e-02 5.5433345708548826e-02
      -5.0352504059674130e-01 -1.5588868840470027e-01
      -2.9226884716143592e-01 -6.9560058471258734e-02
      2.7336728600167250e-02 -3.4191183093231978e-02
      1.1808458023483796e-01 9.6037046247469879e-03
      -4.2202478211778707e-02 3.1684232723166693e-02
      -4.8016889979057974e-02 1.6404130179193369e-01
      -1.6713119276549751e-01 1.4679737478206282e-02
      1.4140441365884465e-01 -1.2089299023455236e-01
      1.7710567746634712e-01 -1.0667452341164756e-01
      3.1892326030311634e-02 -2.4457353262955847e-01
      1.2666097759912034e-02 2.6417442345413833e-01
      -7.8200538638572681e-02 -2.5162756397867991e-01
      -3.5158377025293541e-01 -5.8469591347278971e-01
      -2.2498232185847913e-01 -1.6644254605445605e-01
      2.1546930132380379e-01 1.0708386408023923e-01
      -3.8929892512262379e-02 6.3348407467807594e-02
      -1.6273278401678545e-01 3.3900640477758238e-02
      -4.1597689680830041e-01 1.2661170876156663e-01
      6.2585622889982734e-02 -1.4711624482308991e-01
      -9.9137621612032129e-02 8.4039647454580660e-02
      -4.2372572321734714e-01 1.8572865807770077e-02
      4.7183276210773528e-01 -6.1319893015190884e-02
      -2.9513734125651137e-01 4.0317555378658824e-02
      1.6982553027004685e-01 -3.5697974464350482e-02
      1.4047329442464943e-01 6.0415034223295506e-02
      1.9772751761300819e-01 -3.7124705195363927e-01
      -1.3242698707292930e-01 -2.3482691079189287e-02
      -9.9013174755693745e-01 -3.2467359605681097e-02
      -4.9981209317978142e-01 3.0732674711995709e-03
      -1.3893580179274206e-01 3.7077731104203399e-02
      -2.1211238477542774e-01 -7.3811486896566122e-02
      7.9529400135454287e-02 7.3979879156654701e-02
      -6.5034719989533044e-02 -4.0500376447741002e-02
      -9.7268074019633610e-02 -3.7476558334619708e-01
      -2.4625322565591100e-02 -8.6242771400578663e-02
      -9.3347686433836952e-01 -4.9746324376855000e-02
      -4.6476613200984146e-01 6.6782872997277365e-02
      4.7763784660245716e-02 -2.8600568962063300e-01
      -7.9685731202805990e-02 2.8603779694773217e-02
      1.8539893598376159e-02 9.0038574042222388e-02
      -1.1640445645068720e-01 -6.9679283645430953e-03
      2.1640648263224573e-02 1.8557064400437456e-01
      -1.6810198326377808e+00 1.7317411216988890e-01
      -6.9601861806816656e-01 -6.4639195888988610e-01
      -2.6684729054743639e-01 2.2473440071000195e-01
      2.1808902580118894e-01 -9.8932819627486415e-02
      -4.4472643271195500e-01 1.8157012928179775e-01
      -4.2658715187917730e-02 9.2768133995361297e-04
      1.8893175952324665e-01 -1.1759900632204369e-01
      -1.5667575125027974e-01 -4.0646661351283059e-01
      -8.9195003838217057e-01 -1.2426518365561633e-01
      -1.1093386270502241e-01 2.8547417069482806e-01
      -1.6414780879590671e-01 3.2064487279186610e-01
      1.3805886843550089e-01 -2.7362695564684814e-01
      3.1766092746615709e-01 3.0658377910967871e-01
      3.6855333450219907e-01 1.0554108133254793e-01
      4.0026676544538883e-02 -1.5276493174172670e-01
      2.3862092877037777e-01 -8.6984478660024719e-02
      2.0620762251589239e-01 3.4549516384876250e-01
      8.5208864304126677e-02 1.0288125168474173e-02
      1.8360679935608801e-01 7.5789448309451321e-02
      3.5516858453956773e-01 -1.1231561988370166e-01
      5.9153782297033733e-02 5.2644822512688461e-01
      1.3473466850524787e-01 -1.3532266998909315e-01
      3.8072275335240886e-02 -2.2965740880192212e-01
      -1.1563875213049950e-01 -4.6282882189613801e-02
      1.5176227719499505e-01 8.3391895529741589e-01
      5.6408441989528346e-01 1.6461916745866489e-03
      -4.1361486029385741e-01 1.0802403906390308e-01
      1.2732627409000050e-01 2.5654104029770775e-01
      2.9769525124408863e-01 -2.2400632199750287e-03
      3.4050277266951015e-04 3.4872692671345612e-01
      3.5525355776363912e-02 5.3065377075186260e-01
      2.4545750050642533e-02 -5.0557186745407538e-04
      1.9820981444694932e-01 9.2624540220566043e-02
      -2.5522910902024787e-01 6.6894727491373052e-01
      -1.5762783541249067e-01 -2.8453951601179178e-01
      8.5558699475035221e-02 -3.2762237931539334e-01
      7.1699922760562196e-02 -2.7135853630202383e-01
      2.4128048093768198e-01 -1.6852661318738954e-01
      6.8338718118300640e-02 2.4888257869971256e-01
      2.0461060487402878e-02 -2.7115849522642804e-01
      -1.1816755153561788e-01 -6.4112041230744876e-02
      -4.0227837400980612e-02 2.1250998834871185e-01
      -1.7978831505246268e-01 2.3281008442574869e-01
      3.2063906703999023e-01 -4.0241468489560818e-02
      1.5773595487693405e-03 -3.3612963880352131e-01
      -2.5587376866330314e-01 9.7002095420196527e-02
      -1.3928912469893920e-01 1.4459036302062306e-01
      -4.3646016063702825e-01 -2.0960580470465957e-02
      5.1910240970231414e-01 -4.1252287851341168e-01
      -1.1220209978129304e-01 -1.7256038379963293e-01
      1.8859587104477391e-01 -2.9868267144913729e-01
      -6.8983168656331417e-01 1.0140730518165957e-02
      1.4424333950034166e-01 -1.4938304888576207e-01
      4.2481804715477939e-01 -8.4803021644822216e-03
      -1.1190363319451793e-01 -1.7969932761692753e-01
      -1.8314459089860510e-01 -2.7544418318312822e-02
      -4.0582884933055685e-01 1.3572758453936604e-01
      6.4765158828977390e-02 2.9985879798382059e-01
      -1.4031255650932464e-03 5.8157802951933422e-02
      -9.1355966381813147e-02 1.5945499197079818e-01
      -9.6725961938237431e-02 1.7592071024388631e-01
      3.8747116913695624e-02 -2.5639184170974727e-01
      3.2689109460194754e-01 1.3381317069934081e-02
      1.4370084171844649e-01 -1.3893308303070639e-01
      -1.6059400048353339e-01 -1.7365170932497331e-01
      1.9303200044478444e-01 1.7271847743621555e-01
      -2.6200095302605600e-02 -3.9475486516510894e-01
      1.8918269298211463e-01 8.5732854486726559e-02
      -3.1932689419567978e-02 2.4598131133694526e-01
      -8.0902800255086518e-02 2.0666315701311039e-01
      3.7271729101842385e-02 2.4122732345193795e-01
      4.1270775226409201e-01 -3.2308825779680683e-01
      -7.8272791757532795e-02 -1.8725168472072301e-01
      2.7566925335763404e-01 -1.9181187229090388e-02
      1.3431084898128151e-01 2.5704070432535187e-01
      6.1040279454887381e-01 -1.0105321137770615e-01
      -9.9380222529861867e-02 4.9262166344510840e-02
      5.2574518668566883e-02 -3.5460786594465443e-01
      4.9750627636810602e-01 6.5649610177982903e-02
      1.3521796990739637e-01 -1.2438150965231091e-01
      2.0879034734974797e-01 -7.6894935449076968e-02
      -1.3799966760503210e-01 2.0971822594978248e-01
      1.4218120404354834e-01 4.7900472605997557e-02
      -9.2421799351727896e-02 -1.4163946180569700e-02
      1.9032518646046728e-02 -5.2621029613898196e-02
      -6.2839194211015015e-01 -2.4020005305469819e-01
      3.1489903881908990e-02 1.8915882797257619e-01
      -1.8892365461267333e-01 7.9819047370130639e-02
      2.0663818429424374e-01 3.2150460814313490e-02
      -4.1630922419054320e-02 1.5065968175671970e-01
      -3.6701463616141128e-01 -9.9461539838920851e-02
      -1.6736530342036102e-01 -3.3811679858616028e-01
      5.4536617869586035e-01 -1.4296669492461464e-01
      4.2836894398466108e-01 2.3577043518753667e-02
      2.7408184425816894e-02 5.6656914728909280e-01
      5.7662624565077087e-03 2.6828974382176629e-01
      -2.4420779411016605e-01 -1.5991486983800490e-01
      -9.3422378821103902e-01 -8.3889358035534448e-02
      -1.1105843788820519e-01 -2.9039679040030097e-01
      2.8124638873710556e-01 -1.6220211886910610e-01
      -1.6416251028052414e-02 -1.8593586230743644e-01
      1.1293021216938544e-01 8.1132899869169883e-02
      6.9576614195097836e-02 -2.1659997862030655e-01
      7.9252450967775348e-02 -2.1939707120999968e-01
      -1.4256791637098448e-01 -1.5772180960867157e-02
      6.3096750253478218e-01 1.7456579499885433e-01
      -5.1172225256489880e-02 1.3789004344236538e-01
      -2.0104145037441939e-02 1.6739595594999163e-01
      -2.4017514472592753e-02 -1.1759497998129893e-01
      -2.1775152958740077e-01 -2.3779118715612706e-02
      -8.0479714397469593e-02 2.4904980303275928e-01
      1.0716877269136157e-01 -4.2153284240906219e-01
      2.1170343685013474e-01 -2.5047880678222604e-03
      -2.5157694755311780e-02 4.2352039785298091e-02
      6.6004046141863643e-02 -8.1019230619893245e-02
      -4.2456597240957898e-02 1.6438619527720674e-01
      3.4371671534340981e-01 -1.4899170423111438e-01
      1.7378989659298472e-01 2.1575713995196655e-01
      -1.3480901129739378e-01 2.4140690011960819e-01
      2.0683545368396061e-02 1.9910651684310099e-01
      -1.6310210964500379e-03 3.2070960250253838e-01
      4.7206733185051211e-02 -1.8563803533536358e-01
      1.4244273462089174e-01 1.4912051130413570e-01
      -9.8268438514899678e-02 7.3216530528812857e-02
      3.1290987310163873e-02 -7.7260187058266247e-02
      4.3097860520119230e-01 -7.9330913000087905e-02
      5.6302684116906941e-02 3.0826531677956120e-01
      1.3557027611263736e-01 -1.0475954785822102e-01
      6.0029864405769275e-02 1.7938217136292633e-01
      1.8308847892436375e-01 -3.8088687861358045e-01
      4.7172600941074061e-01 -6.8167743778017056e-02
      9.3402258958100906e-02 3.5112094764856910e-02
      3.6487700337010120e-01 -7.8283241175837556e-02
      -3.5732392403415231e-01 -2.6751541497767911e-01
      -4.3284636526252744e-03 -1.1024813666938525e-01
      -7.9799744731428235e-01 -2.0100926667446511e-01
      -1.3638153445861403e-01 1.8664154839824260e-01
      -2.1210283695655377e-02 -1.3875766381045890e-01
      2.1194202101836898e-01 3.7786045693684156e-01
      4.3241412694698167e-01 -1.2679449494281572e-01
      -1.0606222304381188e-01 -1.3590492359647696e-01
      -1.6341703520586387e-01 -3.7489111400949632e-01
      4.7825773415845729e-01 -2.9530364289947364e-01
      1.3883676760894656e-01 2.6742533705548599e-01
      -1.6533361159217336e-01 3.1406240797238133e-01
      2.2234438780791252e-01 8.4728717844022111e-02
      -1.8264231803890466e-01 8.9349432362864217e-02
      -5.0735877418427014e-02 8.4666521503219100e-02
      -8.0901269706700718e-01 -1.8142006210621284e-01
      -1.5826548056313755e-01 1.9521343387124529e-01
      2.4017338248081210e-01 7.2757128706922719e-02
      7.0142651989656926e-02 3.5301153795398316e-01
      7.9452150893496998e-01 -2.4297247000514299e-01
      1.3595548686185710e-01 -8.7200201674892230e-02
      -2.4719383783022236e-01 1.8397311411303260e-01
      7.2255519177749350e-01 8.0728519531293702e-02
      -1.9953488767395236e-01 3.1964069216735037e-02
      -6.9763673336311879e-02 1.8076669841531770e-01
      -5.8199506860041983e-01 -7.1752340579827753e-02
      -1.8330425151469637e-01 -7.1175567285253719e-02
      -9.3093449463186179e-02 7.7931463576540808e-02
      2.0700511486501505e-01 -1.2494508753635061e-01
      -1.7000422454743647e-02 6.4693696146944604e-02
      -1.2357133858158677e-01 -4.9757257174336308e-02
      1.0479038764671052e-01 -1.6624471836837520e-01
      1.9800962053596741e-01 3.9787404904587383e-02
      -9.6310974300072058e-02 -2.2750368055357997e-01
      2.7347378772524950e-01 1.8052389298290278e-01
      9.3649607716991719e-03 1.3424068766998462e-01
      -1.0290512427011111e-01 -4.4081865802362404e-02
      2.6587311164145994e-01 9.5232120892380298e-03
      4.3741654818790132e-01 -4.9347741837414021e-02
      1.9655551370592588e-02 1.3343665779023453e-01
      7.7730488608326292e-02 -2.2280164832453347e-01
      7.2852013379859998e-02 5.3751632636813207e-01
      -6.8291257712390668e-02 7.9408699655429280e-02
      -9.9139118270956908e-02 1.9450247014881700e-01
      3.1224290952767836e-01 -1.9702958923120983e-01
      7.6236094939395538e-02 2.9814837065396982e-01
      1.7487778729393119e-01 -1.3568755542790456e-01
      2.6243975530208846e-01 -8.6167464928529086e-02
      -1.8613838193682994e-02 1.3483073717867719e-01
      3.0814442384138252e-01 9.0646599219179752e-02
      -2.7424463536633087e-01 -5.1658571777070256e-03
      -1.2679009645311495e-01 -2.8551208522761436e-02
      -1.6941389123846162e-01 -1.6501104220364776e-01
      5.5046729832514935e-02 6.6684344703884360e-02
      -2.4521437862118542e-01 -1.2358914246916815e-01
      2.0920123351761186e-01 -3.9637568078145474e-02
      1.3448770536584886e-01 2.9423158270979008e-02
      -1.6785531984856983e-01 -4.7787967149876404e-03
      -1.7524025724013276e-01 -2.5814094169236451e-01
      1.3876982432900495e-01 -4.6130208465526007e-01
      1.1086192545146413e-01 1.9957487374696758e-01
      3.1709595025922736e-02 7.4915552676643071e-01
      3.2996137464791042e-01 2.0039950832666964e-01
      -9.5457853021080993e-02 3.8166453089584433e-02
      -7.1792365168455619e-01 -1.3147342159449757e-01
      -3.5416574242867321e-01 4.6541352807897896e-02
      3.9576157152310040e-02 9.5270719665159168e-02
      -1.5731377119487830e-01 5.5435859088130819e-02
      7.1156142821890322e-01 -1.4082534196703236e-01
      1.0035266900763384e+00 7.5827107205623856e-02
      -1.4716405082377507e-01 1.4730205849995603e-01
      5.0876127392069329e-02 -6.1458159562640578e-02
      6.3624851477597844e-01 1.5249524421776417e-01
      3.2813582416061464e-02 -1.1502091130721059e-01
      -3.1881604181289797e-02 -6.8844855124260321e-02
      -6.2783378403205425e-01 9.8583033062955530e-02
      -7.4122625558520408e-02 1.0925937263477371e-01
      -4.9513281039962234e-02 2.8490209339979779e-02
      4.7919146435345818e-02 -6.5804554706821033e-02
      2.6094890497017315e-01 -4.9149718262406467e-02
      -1.3352112286500206e-01 -1.9846617069348474e-01
      9.0532710526933041e-02 -1.2471733045258257e-01
      2.9860910141292518e-01 -1.2092762229501725e-02
      -2.4677421003383479e-02 -1.7548728669928038e-01
      1.2569255942541860e-01 1.8048653420470645e-01
      1.2045976679032032e-01 3.7702656282170643e-01
      1.1133353494871079e-01 -8.8599182302403115e-02
      3.6120215926574099e-02 3.8918415954401195e-02
      3.8438773211017085e-01 -9.6630037262139923e-02
      7.3591327270851343e-03 -1.2308183254111123e-02
      -5.4291804198356157e-02 -5.5662211080113030e-02
      1.3844123999777888e-01 5.6183841378708854e-01
      -4.3713219245836266e-01 1.4838917253243253e-02
      -9.3832729252732297e-02 5.8083317039713235e-02
      -4.8618069447670886e-02 4.2633381128385592e-02
      -3.2164723783338151e-01 6.2721080882151753e-02
      1.2443196964689907e-01 -7.0258505309695962e-02
      2.9002782095030649e-01 2.6993400814123819e-01
      5.5672625513985538e-02 -1.2338371172226037e-01
      -2.2719878501706492e-03 5.5574662219181732e-02
      -3.4343132638085205e-01 -2.0017159213457131e-01
      -2.0674136768959983e-01 -1.8685100773640981e-01
      -3.4683865049808421e-01 -2.0602032391456249e-01
      -3.7123620534091760e-02 -1.7949512593853648e-01
      7.1477125781175821e-03 1.0684320969287088e-01
      9.4029811841062058e-02 7.7608448044653167e-02
      6.0561546179585916e-02 -5.5701437536782965e-02
      9.0299720392978348e-03 -1.0868886423227581e-02
      -6.5273208984841444e-02 -5.6307585894061596e-01
      -1.1526161737937124e-01 -1.3290461572990966e-01
      -3.1400143942133746e-01 6.1747807314510413e-02
      -7.1938363121006238e-02 3.1905345026503312e-01
      1.2191430061415112e-01 5.6332730532826183e-02
      7.3004871170758379e-02 1.0680018122206533e-01
      -1.2352929268141633e-01 1.9337996775109043e-02
      2.6348199839052083e-01 -1.6066775731378882e-01
      2.0961697931451984e-01 -4.9131973658154096e-02
      7.5071580675048238e-02 1.8999376346249597e-01
      -4.6971912547888667e-01 1.1255557128251349e-01
      5.4653248048095271e-01 -9.1770162203243050e-02
      1.6519767288911533e-01 1.1023022289465745e-01
      9.5213468484209404e-02 2.4645948643543125e-01
      1.3118614448552129e-01 -1.0463069403673095e-01
      -1.8099350346159412e-01 9.5525493923335147e-02
      -6.8889839800530081e-02 -5.2115047358605386e-02
      -4.6423681637567715e-01 -1.2119034051780407e-01
      -1.3903384061187182e-01 1.0607715415294837e-01
      -2.0620002106648671e-02 9.3561373871573122e-02
      1.5157349373835766e-01 7.6990439199991947e-02
      -1.0041084438224901e-01 1.7605329527621377e-02
      -1.1951418129815049e-01 -1.4963056983645276e-01
      4.4698997263972168e-02 -1.4331973202232373e-01
      3.0396061660956247e-01 2.6695780070639462e-02
      -5.1588456439097700e-02 -1.6633990709563940e-02
      1.4230528673727585e-01 2.8848759827009608e-03
      1.4361065368553663e-01 1.5572170542790750e-01
      -9.7074763819336163e-03 -2.2921673690019345e-01
      -1.7950543038000660e-01 2.1313773424809796e-02
      4.3989550076166206e-01 -4.0558703636973364e-02
      -2.4326221592360198e-02 -1.0393929056434786e-01
      -6.1815859630636088e-03 -7.9183043968236819e-02
      1.3111977509467374e-01 5.6531116381088053e-01
      3.3383313807794295e-02 2.9730928977711728e-02
      -1.6052735286459016e-01 1.3857049187664630e-01
      1.9878053581727217e-01 4.5062000217417257e-03
      1.4947727511893052e-01 1.1415221152888512e-01
      -1.2535190037249402e-01 9.9161449384038342e-02
      3.1822398007662839e-01 2.6323202807183987e-02
      -2.5042990794012800e-03 -6.3313549928060795e-03
      2.6310589296598735e-01 7.3788541258893239e-02
      -3.4390557937337557e-01 -2.3416522622256680e-01
      -2.2277891020178817e-01 4.3350043939882538e-02
      -5.7898265028940889e-02 -1.3849256280541458e-01
      4.6006623669223180e-02 -3.5713992798507366e-01
      9.2693679239961191e-02 -7.4288587433774214e-02
      5.4006473917460454e-02 -1.1328467737157925e-01
      2.5533766470122964e-02 3.9190442998272075e-02
      -7.7349063622414366e-02 3.9988308017560613e-02
      -2.1998392902480307e-01 -6.4456030852980586e-02
      1.0272534517436159e-01 -2.8775228328523628e-01
      1.6839899183199475e-01 2.7050546088005761e-01
      -2.5818978851939154e-02 7.2490955921460698e-01
      1.7396557707188293e-01 1.0790955265439085e-01
      -1.4108138573809126e-01 5.6221172537831966e-02
      -3.4009096595481270e-01 -8.0347133862403691e-02
      1.9913681680489628e-01 7.3030394775350033e-02
      1.2736960442156919e-01 6.8742231639774318e-02
      1.9843520179403714e-02 -6.4455760390021349e-02
      8.5897138040888665e-02 -1.3536609333144056e-01
      5.9830080096840188e-01 -1.1832261449116091e-01
      1.3042902994254157e-01 -1.1915579071543374e-01
      -7.2658920428841020e-02 3.3856635896054151e-02
      9.2674529931493152e-02 -8.3944354180914088e-02
      7.7581641268439860e-02 1.1181115073846802e-01
      -3.4130210999036459e-02 -4.8968195190597967e-02
      -4.8300504877151462e-01 -5.8155664425342334e-02
      3.5758717969508656e-02 9.9135349988305976e-02
      -3.5598818900608065e-02 -1.0687612857060363e-02
      -2.1174247386966517e-04 -3.7635663607487468e-01
      3.0901985750413441e-01 -5.8256298416124661e-02
      4.7938797477320376e-02 7.7251464080186183e-02
      -1.4021249880281505e-02 5.7386065334531847e-02
      -5.0485395288210215e-02 8.2484930572932297e-02
      2.4310656329391195e-01 9.3208238350047795e-02
      -5.8250942657774127e-02 -1.8410223898699962e-02
      1.1628070688833107e-01 -8.1209936562806756e-02
      -6.8706127263122668e-02 6.2855639466334171e-02
      4.5332466643853445e-02 3.0767188571995008e-01
      2.1454160819863494e-01 6.4975213626289139e-03
      4.5410388057033665e-02 2.1587915661794790e-01
      -8.5672156605744523e-02 3.3758682415435885e-02
      -3.1741961071427301e-02 6.7441018136263575e-01
      4.4038301699077791e-02 3.9336819877866691e-02
      -5.7887494823974346e-03 1.0580531848254505e-01
      -6.8618765619401926e-03 -7.5420676840102105e-02
      -3.3530582945882785e-02 5.1799106602041275e-02
      2.3158395946137078e-01 -9.2372918082038111e-02
      6.8011476527061895e-02 9.8453443651114178e-02
      -1.0055813229412496e-02 -3.8636995957767898e-03
      8.4203263813758585e-03 1.8686237022722302e-01
      -2.7836660701711105e-02 9.6775178223935832e-02
      1.1859862267295493e-01 -1.3345474609529523e-01
      -2.0447938387102479e-01 -1.8022323121363387e-01
      1.3278931609841080e-01 2.9644521495654975e-02
      2.1900134133777135e-01 9.3452342804736854e-02
      1.1667274860301979e-01 1.1447365466187988e-01
      2.2855870266510867e-01 -4.4962684221667222e-02
      -1.4782237077873273e-01 -1.4431758569934702e-01
      -1.0976523995153040e-01 -7.5409654283192365e-02
      7.3352328063041400e-02 -2.5109818521694027e-01
      -3.8725755405047901e-01 1.5814034019131870e-01
      4.7125935393719752e-02 8.0851554679680515e-01
      7.0764802747906558e-02 -2.9854694457886688e-02
      -7.9199880483449475e-02 9.5972134301639492e-02
      -1.1299701519257438e-01 -6.8283871419690154e-02
      1.2884005009793803e-01 8.7689630014150560e-02
      1.5225228803008660e-02 6.8279671687518417e-02
      -1.5747222454415025e-01 -9.6829173845657465e-02
      -4.0793715905650735e-01 4.0977705535263875e-01
      -4.8067441598931071e-01 -6.9320864026645085e-02
      1.4987942343064173e-01 -1.2131368378256286e-02
      -4.0051561008049756e-03 -1.0878551903471946e-01
      1.0118367092938027e-01 2.4739407348563048e-02
      4.2376280803681152e-02 3.3507767290101004e-01
      -1.2893450845841731e-01 1.2890439615598567e-01
      -2.3949151932223886e-01 -1.8499528032635251e-01
      -1.0090801698147926e-01 -1.1783491299192078e-01
      -1.9797384093945686e-01 -3.9526947949002834e-02
      1.4447177346695780e-02 1.3635999251044620e-01
      8.4329541779907216e-02 -1.6369191320995008e-01
      -5.1586354161509501e-02 8.8718055090521206e-02
      1.1111901778916324e-01 7.4856614219483602e-03
      5.0120417372337765e-02 1.7253205994925203e-01
      7.7736838461854099e-02 -5.4374968281642420e-02
      1.3662458539059502e-01 -7.3849097873499067e-02
      -6.5702502057450193e-02 3.7099615381122725e-01
      5.4399055938588708e-02 -1.2783890909208770e-01
      -3.9987762108915703e-01 -1.2717399981102480e-02
      2.7018554262374395e-01 -1.6927299804015028e-01
      -7.4141870255088477e-02 9.7404782304051543e-02
      -1.2377175854872592e-01 1.1742280023656255e-02
      3.3310255853293669e-02 -5.0571070149200821e-02
      1.3921390540710077e-01 3.9874216153482578e-02
      1.9177861182004327e-01 1.1729223732969514e-01
      4.9660226210898849e-03 3.0457229240142113e-02
      1.9838621342857876e-01 5.5296257626587388e-02
      -4.6789382706421100e-02 -1.6077255957232678e-01
      5.1634269579589588e-02 -1.2039502549223939e-01
      1.8002269417085476e-01 7.3393283705907933e-02
      8.9926151262132974e-03 1.0146685752309703e-01
      -3.1771047426124804e-01 -3.0577987079680435e-01
      -5.5227929631371270e-02 8.9982391368235159e-02
      -3.6621389862135728e-01 -8.8076795826429771e-02
      -2.8495051290673445e-01 6.8083924912757901e-02
      -5.0585565524560305e-01 -1.0007072686518738e-01
      -1.0023954700358441e-02 -4.7260282516838281e-02
      2.0637467110358826e-02 5.9908879275822807e-02
      -1.5347515494632727e-01 -1.1490779612454077e-01
      -3.4207694714194561e-02 -3.4585089223523241e-01
      3.1474343497971645e-03 -1.3271265053280976e-01
      2.1492332625493063e-01 3.4095144482386146e-02
      -2.6267146105841715e-01 2.6152127480444826e-01
      6.3459094566426552e-02 1.4274476081745333e-01
      -1.9011106554406998e-01 -3.5162891624931705e-02
      3.9894896566216101e-02 -4.2323243832047844e-02
      -4.8678263668890087e-01 3.1174736254733753e-02
      7.4094946420491914e-02 2.1664918313656423e-01
      -1.0321383187389814e-01 5.3929864235174055e-02
      2.2523171842645578e-01 -2.2426291117660474e-01
      9.8492070046050516e-04 1.7236937887366695e-02
      -1.0558901556843263e-01 -4.4641096804938225e-02
      -2.3498929752823799e-01 -2.1491351188179106e-01
      2.8333888096644816e-01 1.6542008485110746e-01
      7.3960320238566718e-02 1.1622937884110851e-01
      -2.4299868956546791e-01 -2.0112201255840059e-01
      -2.3315865035842184e-01 1.1649913233611947e-01
      -1.0907012353969342e-01 -4.0745675697697541e-02
      2.7431934028261360e-02 8.6715060252630545e-03
      1.0965174682986952e-03 -3.7349803915884122e-01
      1.0527237106731251e-01 -1.9846115395894058e-02
      1.5434056569264265e-01 -5.1491903661812624e-02
      2.4788146664565108e-02 -1.9180103912919452e-03
      3.8865699310525671e-02 -9.9157907378390905e-02
      2.1113408324765257e-01 6.1242250866269743e-03
      2.1523988596757280e-03 -6.2640036841281499e-02
      4.9555167506384751e-02 2.6689363216823014e-01
      6.5062369728881006e-02 2.7879807343419622e-02
      -1.9044097793943229e-01 -1.2787530255885757e-01
      1.8163033234180737e-01 -1.9378781463227240e-01
      1.8431857256809414e-01 1.3335282033527085e-01
      9.6765282467641531e-02 -1.9766968736030965e-01
      -7.1996697025699039e-02 -4.9444881485084753e-02
      -2.1077719075313783e-01 5.2637841332128614e-02
      1.1725384998611744e-01 4.5380242639223925e-02
      -7.6966537266737425e-02 8.9205191514901389e-02
      -3.1863426299493414e-01 -1.5746804850421484e-01
      1.8655146413618443e-02 4.1370573462314660e-02
      2.9991542120065957e-02 2.5665473161873753e-01
      1.6617114848582912e-01 -3.4076160355126519e-03
      -1.6652455170271724e-01 -6.2104457035372727e-02
      3.6581884055987340e-01 1.3275073062871703e-01
      7.9752693321732751e-02 -2.9401064301957186e-01
      4.3177341187033928e-03 -2.5541168238983714e-01
      4.6507541225196203e-03 5.0825937626469760e-02
      1.9397375003498710e-02 -2.4752554273958317e-02
      1.0419220806218694e-01 8.0028599474585238e-02
      1.5144362559586591e-01 -7.3313285687038751e-02
      -1.7810765798724423e-03 -1.7040028600095372e-01
      2.8183513903791774e-02 -2.5789158924406630e-01
      -1.1701223459829993e-01 3.8447398658269599e-02
      -9.9129256733272997e-02 -3.9528953365253666e-02
      -1.1293167243700745e-01 -1.0372023324760729e-01
      1.4693996702204422e-02 1.5855295083570803e-01
      1.1089698945947528e-01 1.1553878223723960e-02
      1.5610510925179724e-01 1.7522920140229385e-02
      -1.1542178359409809e-01 -1.8773843755301045e-01
      -2.1927540019570815e-01 7.0505902048747210e-02
      2.6452587553234286e-01 2.1245729996758345e-01
      4.8433588062728586e-02 2.2010054882000271e-01
      -1.1671994417256989e-01 5.1262361514384722e-02
      -1.2703717386756128e-01 3.9216945627338844e-02
      1.5365816966556324e-02 5.5117901917631842e-02
      -1.7805962409903614e-01 -8.6057544843358827e-02
      5.8835427718827195e-02 -1.1907129720101788e-01
      -1.9193386894431236e-01 8.1454584911507699e-02
      -4.7390523939643830e-01 -7.4822213771265328e-02
      -1.9166483087760620e-02 -9.2648981916671716e-02
      1.3505924282201581e-01 2.0210506338518633e-03
      6.7168882081401738e-04 1.0062150392505625e-01
      1.4498079735763503e-01 -8.1441421607332636e-03
      -1.5769314321730887e-01 2.7669056257587563e-02
      -1.5051686238017581e-01 -7.0961443981615802e-02
      8.0541164412025024e-02 7.3346294627448336e-02
      -3.8973698226832382e-01 9.2821067209919467e-03
      -3.0819718611471637e-02 -9.6856575405401046e-02
      3.5193292579630851e-02 1.6158568034248519e-01
      -5.7757963777084038e-02 -2.8156295068825225e-02
      -7.6876151402777385e-02 -4.9523495236857806e-01
      -2.7574648920977146e-01 4.3882457216361415e-02
      1.2753364729871558e-01 -2.8287980893571749e-02
      1.6263649840667485e-01 -9.3545804563023804e-02
      1.5466370047621275e-01 4.0134280455927740e-01
      1.4459298329871725e-01 4.0352124474927351e-02
      9.5281944884601830e-02 5.8323689628406849e-03
      -2.7956073077833004e-03 7.3716722563783046e-02
      -2.1693140777723441e-02 8.4989501970575268e-02
      4.0070181770711290e-02 3.2439785574381103e-01
      -5.3909513308437029e-03 2.1232451096489951e-02
      -1.3310464862863655e-01 1.9066015180863938e-01
      8.2865300609143447e-02 -8.1070714327095200e-02
      -2.1124639637154166e-01 1.0860100577666884e-01
      -3.8933154719847457e-02 6.7456089640800451e-02
      3.9775448644955769e-01 -8.3818985087097980e-02
      3.1748309957861647e-02 -2.1331383684947530e-01
      -4.6203484574853437e-01 -4.2997199447768961e-02
      8.7860778014627133e-02 -2.8281446505644586e-01
      -1.0353985599582258e-01 3.1767515136776898e-02
      9.1360305707245459e-02 9.1475935386259796e-02
      -3.6217903783367526e-02 -1.6631945785626295e-01
      -1.3413741230070292e-01 4.9898707665862213e-02
      2.1025919096576341e-02 -7.7965221551396763e-02
      1.2258342692579560e-01 -3.5710590317053414e-01
      6.3331906080426992e-02 2.1039433240755923e-01
      4.5951892679985035e-02 -1.9620107101154835e-01
      4.0504728148755241e-02 -9.7851676151167299e-02
      5.8531859864163394e-01 5.4461820343093707e-02
      -9.7261121534294545e-02 -1.1232508473236942e-01
      -1.9003900194004697e-01 5.1164489620687793e-02
      -2.5175897764835378e-02 -1.3636908265722442e-01
      3.1734307964163877e-01 1.6724385889431485e-02
      1.8325994237984511e-01 -9.5920372436452128e-02
      -5.2301414609800023e-01 -1.7557622009443112e-03
      -1.1024865170827386e-01 -9.8028702396468340e-02
      1.3994756602985126e-01 5.7948171029592196e-02
      -2.0362565398184391e-02 -1.0269861610867174e-01
      -3.0522920254721303e-01 -2.0848207495645095e-02
      -1.5129074991818120e-01 1.0184295348065944e-01
      1.0050352986945154e-02 9.1142897621096966e-02
      2.8249511432741421e-02 7.2569862854780467e-02
      -4.9979670695861567e-02 2.1951873174268957e-02
      1.4033702712054655e-01 1.5043393801957147e-01
      -9.8798756041755656e-02 5.1522040892118690e-02
      5.0387760532839547e-02 1.8075726854296981e-02
      9.0031331897254763e-02 1.2740932904631866e-01
      4.0012375166307457e-02 -5.8074726907943457e-02
      1.8725243075621040e-01 -1.5756559701764400e-02
      1.1079400376368998e-02 -1.2911084015192037e-01
      -3.1239830450232209e-01 3.8009455923197405e-02
      5.2785016104699559e-02 -8.9064604844680040e-02
      6.8944883115485536e-02 -1.5057623174097744e-03
      -2.1675810702880008e-02 -7.3994319922784699e-02
      1.3105895098505144e-01 2.3809887921587963e-01
      -5.4148377195906171e-02 5.7735473513971035e-02
      -2.9602491181804030e-01 1.2153631068917110e-01
      1.9045144396719205e-01 6.5905523092158511e-02
      4.0464574253303826e-02 3.6254483343694320e-02
      -7.4527648402559682e-02 9.1146084122221679e-02
      1.0391030296745962e-01 -3.9986168714651577e-02
      1.5415981672345200e-01 -7.6018448710666195e-02
      2.5754500366656879e-01 1.1353763192149259e-01
      -5.9041407547598068e-01 1.8405137248407719e-01
      -1.3035403192004211e-01 6.0490559250283613e-02
      -2.0846514625477516e-01 -1.6471549074571962e-02
      5.5240847907212037e-02 -1.8276234578582695e-01
      3.0360311071016222e-01 -9.8796768686872549e-04
      -6.4250822463369578e-02 -7.2631078640316954e-02
      7.3459172322653032e-02 -1.7748810967855186e-01
      -1.5433132337423131e-01 -1.3938997846870299e-02
      -1.7411693758214272e-01 -2.7033060415516780e-01
      -8.9385143021452340e-02 -1.0229469006654392e-01
      -4.9749123528831485e-01 2.8612125471489053e-01
      5.7507667517410745e-02 9.6327424794245040e-02
      1.5725175721840540e-01 1.1682290788883075e-01
      -1.8837550294600697e-01 7.9356284923523451e-02
      1.1623411946897405e-01 -1.1574006721003699e-01
      2.3243391841147121e-01 -2.1514767618924426e-02
      4.3114238219139109e-02 -1.1193268947498525e-02
      -2.2432959293763705e-01 2.4790619998912872e-02
      -4.3653820432976009e-01 1.6797236026489684e-01
      2.5023884371135163e-01 -1.2788561078077171e-01
      1.8931985865779863e-01 1.2095034196183411e-02
      -3.1283558094084957e-01 1.0533328375223062e-01
      2.8500422191435637e-01 -4.6939324592762358e-02
      -1.6481945806537493e-01 8.4837484197262156e-02
      5.3908878124711443e-02 7.8251224917865916e-02
      -8.5104810430011157e-01 -2.3456529130267889e-01
      -1.0233820981848149e-01 8.0246840920615223e-02
      -1.6522411480479338e-01 -3.0578045463199435e-02
      2.1689801211442139e-01 -3.6191438569747811e-02
      5.5441237784706332e-02 9.7466480026875468e-02
      9.0113062533653497e-03 -3.9642045950127935e-02
      4.7137088952426479e-02 -1.2957176626395284e-01
      -2.2504634732025117e-02 8.4626800977999433e-02
      -3.0303490265635599e-02 -3.0676925612872226e-02
      8.6486064024821563e-02 -6.4210978538691760e-02
      2.6824317326093451e-02 2.5637716996481502e-01
      4.4637855981534094e-02 -1.9603319742155611e-03
      1.7322134630117458e-02 4.3508592691103892e-01
      1.3815760792501580e-01 -6.0768240603066188e-02
      7.6520998330162474e-02 -1.4755491706078334e-02
      4.3214881816482420e-02 2.8737858561978163e-02
      -2.3617408028115773e-02 6.6364411095213283e-01
      1.0599820590176046e-01 7.1409301802517783e-02
      -1.6448164699003431e-01 2.0668118806695809e-01
      2.3694433588645675e-01 -5.9243767014909507e-02
      3.5676801872690583e-01 1.5942923985057375e-01
      6.2256994065791903e-02 -4.6220374183888670e-02
      1.3590099386120408e-01 -5.7565858288846944e-02
      -3.0249741949926263e-02 1.1781540453140274e-01
      1.7602365310680126e-01 1.5303271136313190e-01
      -1.5268683999075486e-01 9.3151576184201130e-03
      -1.9056014202216828e-01 -1.4970727280806564e-01
      -2.8026226095377371e-01 -3.7265431446802146e-02
      2.0033392162043667e-02 1.0026150721863107e-02
      -1.7583408103975284e-01 2.3331182451662848e-02
      1.7481027329756832e-01 -5.2446877417133490e-02
      1.8460553805942237e-01 1.6406218770970388e-01
      -1.0335420038344503e-01 1.2561111659935995e-01
      -1.2617847371587446e-01 -3.9266983260229676e-02
      -4.5270795261882671e-02 -1.3808528383191215e-01
      2.4157355135863012e-01 2.4964888225405099e-01
      -5.6961086124825797e-02 2.6770076900579493e-01
      1.5844462566629655e-01 7.1987842097335678e-02
      -1.7573135749859148e-01 -7.8919969148827374e-02
      -4.1688791982106932e-01 -6.7639736741485434e-02
      -8.7192356734642332e-02 1.0934598603204125e-01
      1.5023393907395330e-01 9.6687346342532982e-02
      -2.6626639568259408e-01 -1.2051966134042504e-02
      -8.5373577990513858e-02 -1.3349285851555701e-01
      -2.0165411903496408e-01 -1.4206985943434702e-02
      9.4784949943490612e-02 -2.2482990335414971e-02
      -7.1034777078879827e-02 5.2206131089493998e-02
      4.5530792624249550e-01 6.7437037766711297e-02
      9.1126237509911348e-02 5.4455631832699594e-02
      5.1272202861222159e-02 -1.2741683010023205e-02
      -5.4871552307075459e-02 -1.1935206851416195e-01
      3.5532591460606951e-02 6.0782117671767950e-02
      -6.5259719009434669e-02 1.2699291733807992e-02
      8.9068299238296469e-02 -7.8213515465815509e-02
      5.2196857268757356e-02 4.2963728976919812e-03
      7.7015757291684708e-02 1.2904012972055273e-01
      1.1272760676120502e-01 8.6535702425926175e-02
      9.4191582093966872e-02 1.8126020752389047e-02
      -9.0498033131400826e-02 1.5051768025699669e-01
      -1.0692862958148433e-01 5.9794505846120699e-02
      5.2649266698326603e-03 2.1202162359631668e-01
      5.7890013822115664e-02 6.6082591855881792e-02
      -9.3563611036821093e-02 5.8623637189915985e-02
      2.1117281467088858e-01 -8.7352108550093840e-04
      -3.4707023701542959e-02 -1.0032691088891281e-02
      -2.1123275064479399e-01 -2.1924790272006351e-02
      -3.6681813217049303e-02 -1.2148178829491453e-01
      3.0990962172205344e-01 7.9656786812881700e-02
      -1.4930150560750782e-01 -3.0858130898180271e-02
      1.4878815509089988e-01 3.7295039540500556e-02
      6.5631431601044926e-02 -5.8085000361274154e-02
      -2.0708644841773582e-01 8.1929892382651220e-02
      1.0943740717587568e-01 3.3336914849782781e-02
      5.1408826648812682e-02 -3.5156026260281643e-02
      3.2948819794014317e-02 1.1419924930634598e-01
      -1.1650310175679317e-01 -7.3876488885917552e-02
      -7.1511043391263268e-02 1.2882073965507626e-02
      9.1473998601579801e-02 -2.0834268102229911e-01
      -2.4464071625765287e-02 -2.3153325817901336e-02
      -7.2365924333108678e-02 -9.5037023765283876e-03
      -9.2755217697478867e-02 1.8313503252634741e-01
      5.2013225434205529e-02 -1.4749758599030237e-02
      -9.7369465141953881e-02 -9.0195131083536009e-02
      -1.2755193295764090e-02 -4.5545943767691275e-03
      -5.8295553332210572e-02 1.4690535341064231e-01
      4.3038137285309108e-01 1.8839328995337658e-02
      2.2853536004445456e-03 2.5979137255308116e-01
      -6.5604428329852110e-02 -1.1060637227458085e-01
      -5.2589513013088666e-02 6.9492615545199130e-02
      -2.0137337233704766e-01 -3.8755822700450811e-02
      7.7414815601220016e-02 2.3319840432071059e-03
      3.1596774166027214e-02 2.2159136152984721e-01
      -1.3042510351527592e-01 -5.6847479675973207e-02
      -3.2833849391921971e-01 2.7410854886456987e-01
      2.1416233031172635e-01 -5.9644283561456270e-02
      1.4603165564772264e-01 -1.7682485919582119e-01
      -1.4434882452701270e-02 -1.8005824059559514e-02
      2.9362368940529352e-02 -1.5746267044704643e-01
      -6.2797183537506934e-02 -1.8858801501793563e-02
      -8.9162443643526892e-02 8.7079648310059335e-02
      -5.9528805542875740e-01 -7.6335775103175740e-02
      6.0589950160582100e-02 -2.0841816158064335e-02
      -4.2518743606372568e-02 -6.7430963451938594e-02
      1.2056414675168844e-01 -2.4849157610908429e-01
      3.3806051449228552e-01 9.3259379497606359e-03
      -1.6259927284959338e-01 7.6146810441761970e-02
      -8.6912425059640225e-02 -5.3075588333520989e-02
      1.0214557752687523e-01 2.3932490659466239e-02
      1.3420737969449437e-01 -1.0460660917527116e-01
      8.4682922599981905e-02 -7.7123869133102527e-02
      -1.1485943080623903e-01 3.1376426778241473e-01
      7.0544372160101315e-02 -1.1966393817286812e-01
      -6.9994810479478170e-02 8.7115549312829967e-03
      1.8693814540162085e-01 -3.6284456362332469e-02
      5.3073047233976600e-02 1.3736916794792936e-01
      5.0159554839353915e-02 -3.1339780211060680e-02
      7.4599732730302265e-02 6.5945077068645941e-01
      4.2820651668842380e-01 4.7895275506659153e-02
      -7.9462258175226910e-02 1.1318047664329298e-01
      4.7010834351140479e-02 -5.7457669913828786e-02
      3.3826246357040879e-01 1.2889060723081056e-01
      2.0735213421259832e-01 -8.8074340229556902e-02
      -9.3286329216504663e-02 1.1566425098975956e-01
      4.7666399156916062e-02 1.0393225714540273e-01
      6.2389125581377601e-03 4.1190581259366726e-02
      -1.8959515847148958e-01 -1.4628298001606610e-01
      -8.8330565813948755e-02 -2.0123228053202596e-01
      -1.7240845157648524e-01 -2.4251549715087581e-01
      -9.1665365942951701e-02 1.5678279986146532e-01
      -3.0412489026054379e-01 -6.4771027594589262e-02
      2.1329216441206425e-01 -4.2833324728052978e-02
      1.9989971786717017e-01 2.2978673292079754e-03
      -6.9529146736488467e-02 3.5242768377254395e-02
      -1.0406242003862343e-01 -9.8961321321744712e-03
      1.2393366612491054e-01 -1.7265940825907017e-01
      3.3336642125142735e-01 1.7793660152707343e-02
      -1.2060119660855635e-01 1.7685187390628734e-01
      1.0389528059382100e-01 1.4788052861287410e-01
      -1.5785366337427903e-01 7.8558626117632202e-02
      -6.1744241099384478e-02 -8.5830310243677932e-02
      -1.2884565917433941e-01 5.9242788878485060e-02
      1.1351957711245154e-01 -5.0806803036489039e-02
      -2.1019463037843203e-01 5.2549544880079589e-02
      7.3516561158025281e-02 5.7655414354003613e-02
      2.0955579756061449e-01 -1.6798792047696916e-02
      1.3479738122991611e-01 -1.5397419610134533e-01
      3.1030249935648228e-02 3.7224745507265018e-02
      1.6324125933532918e-01 5.6148778133622124e-02
      9.4873674826722095e-03 -2.8892015920228359e-02
      -5.7904850931574089e-02 6.2744098335725928e-04
      -7.6253720047566820e-01 7.5389265594601731e-03
      -1.1002824312952315e-01 -1.3290604174975148e-02
      1.8962823285846950e-02 9.2274873577080446e-02
      8.4192825129043899e-02 -8.7202880463214102e-02
      -5.5353092384956039e-02 1.4535362932368973e-01
      -2.8256210749800687e-02 3.2470937358561332e-02
      -3.5563542934629364e-02 -6.2023983671438826e-02
      9.6623628089428509e-02 1.1216082947650710e-01
      6.8548841184105050e-02 1.4933583342301693e-01
      1.3099453378822912e-01 -5.9664835454667546e-02
      -2.0591165754693078e-01 -2.4898820487586824e-02
      1.5016085182133740e-01 1.2928417722293423e-01
      -1.3880192809886815e-01 -9.7990339766984447e-03
      -7.0251027196306964e-02 -7.3652389805144228e-02
      1.7273519480751534e-01 1.1036428685364044e-01
      -4.5331321923792307e-02 -1.1149491174934874e-01
      3.1763848643377272e-02 9.5688051041859656e-01
      2.0698655701694640e-01 1.6865058585588436e-01
      -9.3905456462923476e-02 8.2745663068403877e-02
      5.5554175164738942e-02 1.0628981752475365e-01
      1.6349503379764074e-01 1.5982875470397194e-02
      1.2647492709660477e-01 2.5779478182289613e-04
      -5.0145135065813438e-02 1.5920263108094859e-01
      1.1974313874696293e-01 1.3987541343136337e-01
      -9.8448098223503505e-02 5.4779506703309701e-02
      -5.1281327315593365e-02 -1.0515677877014384e-01
      3.6688380574324157e-02 -1.8472774465276218e-01
      -1.6065609384543700e-01 4.4374098470076395e-02
      -5.1639713353897866e-02 1.8638867352647379e-01
      -4.1485865410394979e-02 -3.2023710903696212e-02
      1.7651062826071270e-01 -1.1163129166979634e-01
      1.6008638948218643e-01 -1.1349879545365679e-01
      6.1530948715932926e-02 1.6203563461735446e-02
      5.4543153618968422e-02 -7.1300726033496992e-02
      -7.2366734994049678e-02 -2.4122137178975094e-02
      -6.3125920672198986e-03 8.3175073031182614e-03
      -1.0854272010115924e-01 9.4240651863604225e-03
      2.1165946524900336e-03 9.7886723240701703e-02
      -1.2081561092390167e-01 -7.3219298399609070e-02
      -1.2409873065388967e-01 -4.7872108815644838e-03
      -3.8788902293986843e-01 -6.6570766814937038e-02
      -9.7224277701265738e-02 4.3048215935823315e-02
      2.1017892642257732e-01 1.5101115428626802e-01
      -4.3694824403745564e-01 2.9625750473140872e-01
      1.4507081919385192e-01 -8.6316585336649210e-02
      5.1043409457116842e-02 7.4812181895488189e-02
      -1.6232832262942070e-02 2.2659438927302816e-01
      -3.0613468304605501e-01 -1.4497020929724791e-01
      -1.4735121788367475e-01 -7.9626395235735628e-02
      -7.0623239891245540e-02 8.2256625186450955e-03
      -4.0753532621072441e-01 2.2261593878509494e-02
      -1.0862992039561409e-01 -1.7180610351172027e-01
      -9.2347065136421207e-03 -2.2361971134389889e-02
      -7.0488308851905613e-03 -3.5483730833455858e-02
      2.0448191791350659e-01 1.4476017471997565e-01
      -3.6155413083985927e-02 -5.4036153016844876e-02
      -6.9101150874459935e-02 -1.3256408320663662e-01
      5.5448046951804719e-02 2.7086946412414419e-02
      -2.0532960710061610e-01 -1.7403095195655618e-01
      1.5087765151445087e-02 9.7031773822016526e-03
      4.9557380099060556e-02 -2.6280795620187303e-01
      -6.1137199834009658e-03 -1.9367471041740444e-01
      -7.7177173494897958e-02 -2.9349710705792004e-01
      -1.1774685892570379e-01 -2.8523890446682687e-02
      1.2490941852619601e-01 3.8055988335419670e-02
      6.8628306038070255e-02 -2.7789124984954672e-01
      1.3816144305407088e-01 3.4729841056832522e-01
      2.3138393230364315e-01 2.1487483326715703e-01
      3.1695030171203252e-02 8.7766107950649458e-02
      1.3980841180637177e-01 -3.9133563819177479e-02
      1.7532379048371075e-01 4.2541120616252030e-02
      5.7519544726053591e-02 5.1793329235889134e-02
      -6.5350473223513769e-02 -1.0747136232793801e-01
      -2.2471041112121212e-02 1.2420115708145449e-01
      -1.2855177613608347e-02 1.0196550068520244e-01
      -7.8443731473128900e-02 1.0396752449486062e-01
      -1.2187463848203021e-01 -1.3722314849660933e-01
      4.1220721029201085e-01 -2.0425545262736330e-01
      2.0796709503339034e-01 -1.3207720034587950e-01
      -2.2258619131237978e-01 -1.1677235204629736e-02
      1.4161296016092090e-01 -1.9889012563989669e-01
      1.7694574163128124e-01 2.2222752557576553e-02
      -5.2562592761069081e-02 1.1278266291235992e-01
      -7.7994345685305722e-02 -7.2950611647905547e-02
      -2.4083124229723363e-02 -5.4856082940127456e-02
      -4.0509834577478365e-04 2.4798204632168995e-02
      8.9435757476162364e-02 -1.4852057062537208e-01
      1.5286710942012329e-02 -1.7414067467997657e-01
      -8.0286848295963484e-02 -4.0882971055668973e-02
      -1.4329017976670824e-01 -1.0230112156761179e-01
      2.2294315634577971e-01 6.8593743151171227e-02
      6.1860544119372619e-02 -2.0875126227280081e-02
      4.1611924772431315e-02 -4.1057322544662815e-02
      -3.2488501076948062e-01 5.1570589494317323e-02
      -2.0702240669433278e-01 -2.2711468967280845e-03
      3.0431294393902832e-02 -6.9923547450140955e-02
      -8.1295384302401810e-02 -1.5505155360642302e-02
      1.0485682933407812e-01 2.1819134767362112e-02
      2.6785255095109321e-02 2.3776383366733009e-01
      -1.0900313647829013e-01 -3.0360408903469326e-02
      -3.2903220955868900e-01 -1.1280863519658622e-01
      -1.3777327446583973e-01 -7.8685415801935443e-02
      -4.8701159718467425e-02 3.4969764821295782e-02
      1.4945646163495416e-01 4.3780386897963368e-02
      5.6700627184686374e-02 3.0977475194325647e-02
      2.0957499715840548e-02 -9.0411765519735812e-03
      5.0938787038825900e-02 -1.0802180560141383e-01
      3.3497238362383179e-03 6.1950296570261305e-02
      -7.0546437269270582e-02 1.4294023461689715e-02
      5.3732827897672177e-02 -6.1405937833899631e-02
      -5.4719958177511185e-02 2.0132262968070855e-01
      -4.8286024562830675e-02 3.6452585658502637e-02
      -1.2649049680664590e-01 9.4471709376721447e-02
      1.7318579596974065e-01 3.5195187073875610e-02
      7.1410407408524723e-02 1.4439833571667554e-01
      -6.1327293706766525e-02 -1.3062690306249450e-01
      -8.6410390808843704e-02 1.0213073060680392e-01
      1.9341716673376141e-01 8.7772372874390700e-02
      1.0207744008481906e-01 -3.6383658409642271e-02
      1.0302613440056581e-01 -3.9067863211616143e-02
      2.3559962332394008e-01 5.8045248581241007e-02
      -5.2494074120736388e-02 -1.0254906808277840e-01
      -4.3683968805487854e-02 -1.5230045967540382e-01
      2.4978534208918957e-01 1.0970265258534001e-02
      3.5883908691614086e-01 -3.4433122428252062e-02
      -3.1105843330899263e-01 1.2425430538342434e-01
      3.2351307377074645e-02 -4.4172375282132111e-03
      -2.0988876805942264e-01 -1.0300386053155264e-01
      -1.3775179514691388e-01 3.7438783703754780e-02
      -2.0260155744524044e-01 -5.5415547745372190e-02
      -7.2764879220312620e-02 1.1333363520696931e-02
      1.0494182384457852e-01 1.5566187826082772e-01
      6.9803380346612889e-02 -4.8401458835824474e-02
      -1.5321919642257104e-01 -8.8355608653956488e-02
      -3.4792205209173352e-02 -6.5442687866388058e-02
      -9.9833767727663114e-03 1.3850320900229340e-01
      -6.7262669092871666e-02 -1.8386150586603286e-01
      1.1629980137060361e-02 -7.9475892405668963e-02
      4.7064947000177701e-02 -1.2494984076665908e-01
      -9.4152078377339965e-02 3.1215331885410997e-02
      -2.0449643782846777e-01 -5.3522591041054335e-02
      -1.4202710542350577e-01 2.9341132126444597e-01
      1.4306128228992498e-01 5.9621266074573659e-02
      -3.5015646164178005e-01 3.4607281745935309e-01
      1.1704600501892705e-01 -1.3153460913063471e-02
      -2.2802729002024562e-02 -2.6094406756991529e-02
      -2.3772249629083437e-02 1.1131119015213128e-01
      3.9802169625441662e-02 -1.2800717644177612e-01
      -3.7304538648422992e-03 -6.3549290742175968e-02
      -1.4740164354349028e-01 1.2944984009569821e-01
      -4.2787305310144957e-01 -4.8250204824792496e-02
      1.2424697392212742e-02 -1.2513450983066277e-01
      -1.1269134672688491e-01 -4.4509221002985572e-02
      1.2333965139252391e-01 1.9854254192288531e-01
      4.9171462321594049e-02 1.5086315589888707e-01
      -2.2828330174181377e-01 1.1444360292616572e-01
      -3.5700698161605503e-02 -1.2769656340350885e-01
      9.5590751648796046e-02 7.2980280381633747e-02
      -6.3562827694898585e-02 -3.8120117783817472e-03
      1.3077030139849824e-01 -9.3475984551910807e-02
      -6.7475936676298892e-02 1.6085539316152109e-01
      -1.0426802939201088e-01 -7.8277468956857235e-02
      -8.7465712298063172e-02 -2.1430761252503205e-01
      -2.4477909213525512e-02 2.2823441296141153e-02
      1.1300263946615151e-01 4.5373832894287452e-02
      7.5175519413797839e-02 -3.0055627315245283e-02
      -1.2051445779131173e-01 2.9535203849317315e-01
      1.1737701174838799e-01 9.9837934573707154e-02
      -2.0914502269714870e-02 -1.5661135726583893e-02
      7.1267847952175736e-02 -7.0079367341330939e-03
      2.3809389326469685e-01 4.6224675612099413e-02
      4.9936252435526983e-02 1.8598255834283411e-02
      -4.3886642885247809e-02 -4.9185330217708607e-02
      3.1299121008629194e-02 9.8620620162212819e-02
      1.1609594195143481e-01 -8.3388436305212692e-03
      -2.7099930408516859e-01 -2.7775355455093476e-01
      1.9208946658175695e-03 2.5203178222886351e-02
      -7.9031129323700933e-02 -1.9765348050625381e-01
      5.1457013071394352e-02 -2.7302138381102934e-02
      -2.4381011292619309e-01 4.8584552864490184e-02
      1.7968759122560213e-01 -1.1460359937045629e-01
      -1.2243024179600805e-01 -3.1028672590409097e-02
      9.1190552133280766e-03 1.2883503265780766e-01
      -6.6899102654095516e-02 -2.6959093363920831e-02
      -2.4362087339503482e-02 -1.7586283115434698e-01
      2.1187315090070846e-01 4.2959566526765219e-02
      -5.7732997031476149e-02 3.7647505252992641e-01
      1.0207039439585719e-01 3.2853382582684401e-02
      -1.0510278920536567e-01 -8.0991030376480561e-02
      -6.5970129910120842e-02 -1.1943801850905721e-01
      1.1111741430733834e-02 6.8753356486701403e-02
      -7.0448296031576568e-02 -6.0876458840839941e-02
      -1.5147637301641606e-01 -3.0742722305524225e-03
      -9.8513728589015970e-02 -2.3626904793369893e-01
      -1.5995374535185417e-01 -1.4107813382156550e-02
      8.0238570229460959e-02 -2.5138100658864274e-03
      -2.3227484190773185e-02 -3.8575485130734243e-02
      7.1805627144770789e-02 5.3693523526031829e-02
      1.3963184789446617e-01 2.8791481514217410e-01
      -3.0939279785604679e-02 1.7145330837776439e-02
      -2.0445403395065695e-01 6.0446520340160605e-02
      -3.9590502252372206e-02 -5.5422798083836367e-03
      -6.9195688778577999e-02 -7.2023439071322179e-02
      9.7194542936546502e-02 -1.1986452291388983e-01
      1.4565783558399886e-01 -6.1479529423063402e-02
      2.7599710999746181e-02 5.1861032095730335e-03
      1.2434816368356726e-01 5.8471386021899691e-02
      6.5424672539883114e-02 -1.6449302478947506e-02
      8.9050175230502890e-02 1.1889079317999620e-02
      -3.5185086302654163e-02 1.6897756676374484e-02
      -8.6813405486652409e-02 2.4038296927839090e-01
      9.6259068212441498e-02 -1.1498107623201065e-01
      -2.4391788232705108e-01 -6.5780242329328970e-02
      -3.7985567993938936e-02 6.5037331133609419e-02
      -3.5426087094415103e-02 2.0738908590884950e-01
      -1.2624088222861748e-01 -1.9263466126891712e-02
      2.8434815079714407e-02 2.9972773121366825e-01
      1.7966830553996913e-01 9.6415735927231627e-02
      -9.5998908581693548e-02 -2.7358706914794447e-04
      5.2526303712789275e-02 7.2677268868765979e-02
      -2.4363646396513533e-02 -2.2802068330710509e-02
      4.1902028478356543e-02 -5.4180705063132370e-02
      -8.2444283992012174e-02 2.9421832269100590e-01
      1.5372924664879214e-01 -2.0781034042789116e-02
      -6.2506316824026097e-03 -2.2896197123955603e-02
      -1.4699078643790645e-01 -1.7697254105383112e-01
      -4.8022684413000595e-02 -1.0702242519999168e-01
      -1.9681513794919597e-01 -2.1793146792842374e-01
      -1.8778253616251891e-01 -6.3678924574068763e-02
      -7.8224438612936348e-02 -7.7380539060802306e-02
      -2.2048299202800239e-01 1.0553036189588416e-01
      8.3495705888517360e-02 -3.8329224107170351e-02
      -9.0723937769787953e-03 -5.0411311541384167e-02
      -5.6459401669279798e-02 -6.3223045745292916e-02
      -9.4280377325955761e-02 1.9317576252277116e-01
      -1.3311993888767806e-01 -3.6167102498924370e-03
      -1.1202332516696850e-01 -1.3802394469423998e-01
      8.8595065519133029e-02 -2.1193919339772949e-01
      -4.8207529588026349e-02 2.8513697361679233e-02
      -1.6234668816860295e-01 1.7122227352335508e-02
      6.7397445991560362e-02 -7.6037383851533358e-02
      -5.4729927204074366e-02 2.2888089981866036e-01
      -1.1548104792839196e-01 3.1034860011334764e-02
      -1.4142110402514663e-01 2.8297878704837004e-01
      -1.3355178982643443e-02 -1.2746964178864084e-01
      8.9915194568043980e-03 -5.7629043610382874e-02
      -4.8521551588733558e-02 -4.5959701104681366e-02
      1.9843926756297359e-01 2.8303919001094628e-02
      -9.0018019511650088e-02 -8.2934044700065795e-03
      -7.4525751911982407e-02 5.2577920534521939e-03
      1.7824046950492261e-02 -5.2046841588060160e-02
      -5.1752007441525343e-03 -3.1612369611468301e-02
      -1.0466707457509673e-01 -3.5950928852963637e-02
      9.3968372680546516e-02 -2.8534971850121138e-01
      9.6191578383399326e-02 1.3213582449402528e-01
      -3.1597698335388745e-02 -1.6473283362234539e-02
      -7.2771696368593430e-03 -6.4300418527631367e-02
      9.2152880586939434e-02 9.9026227107886000e-02
      -1.6466835131175903e-02 -5.9731682638344552e-02
      3.9704316789776338e-02 2.6304605583594657e-02
      6.3213408925815687e-02 7.8309535536409073e-03
      -4.9092929696251890e-02 -4.8518622811165799e-02
      -2.0290803007367908e-01 -2.5229572706352488e-01
      -7.8306242020989042e-02 -1.9311369202069405e-02
      1.3928278529056423e-01 4.0472518909180161e-02
      -1.0766235716512598e-02 -1.0373326733723673e-02
      6.6638217733880775e-02 1.3436565781822668e-01
      6.6800885678397190e-02 1.4578550962888923e-01
      -9.6686574689051133e-02 2.6018451033505877e-02
      4.5239693958886169e-02 -4.3215683497443161e-02
      2.2965017808531590e-01 1.4720609715818025e-01
      8.2313270031014088e-02 -2.0993445236894986e-02
      -3.2509736727104790e-02 -4.0660652137800624e-02
      4.6989848379725238e-02 -9.1042045257860971e-02
      1.3755765812212248e-01 6.4687271413079478e-02
      1.1511797892316672e-01 -1.4148629710180624e-01
      -5.9604328332322556e-02 -5.9087057862020398e-02
      -1.0663909941211983e-01 -2.6766104265657836e-01
      -6.5307511312332020e-02 1.8181737237973356e-02
      -1.8490101512916485e-02 1.2387547167103029e-01
      4.1369467615971775e-03 4.0480700028187502e-02
      1.2110680245450570e-01 -1.4473183921261079e-01
      -6.0363652937902246e-02 5.0291485069091570e-02
      5.3905800944919896e-02 1.9533879210596750e-01
      7.1447946302219942e-02 -1.4364059757521540e-02
      5.2956007043697031e-02 8.7995904245596307e-02
      -6.1095798388900238e-02 1.0234220481666466e-01
      9.2181197017372027e-02 -1.3253591003149950e-01
      -1.0311783758209159e-01 2.5652401253434050e-02
      -2.3841606795698173e-01 2.6174886705754477e-02
      -2.8275279364573143e-02 8.5250415774128480e-02
      4.8783775205525140e-02 -4.8234646866211248e-02
      -3.2021484620938033e-02 -3.7127319571346476e-02
      -2.0693006006731682e-01 -9.6622685687538998e-02
      4.2713165385887297e-01 -2.1785921474565997e-02
      5.4898478792799896e-02 8.7574494133618078e-02
      6.9190872238380219e-02 -1.5455311675780095e-01
      8.2220134491665348e-02 1.0296992280499416e-01
      -9.8738849858994837e-02 2.5482210189849176e-02
      -2.2476605010933171e-05 -5.8681458220685379e-02
      -5.9699745975997582e-03 -2.0368417189704075e-02
      -3.6100724124505948e-02 -2.0963862202851059e-02
      -1.0106665921457292e-01 1.1643461516535617e-02
      1.5831332549974622e-01 -9.1942667834337584e-03
      1.1839116511706712e-02 -4.9539058620928951e-02
      -1.0911484913302660e-02 -1.0047117404491958e-01
      -2.4083208651320447e-02 -1.3196565000422375e-01
      2.7315429043512571e-02 5.5351772498538915e-03
      7.9640287537854904e-02 3.0032669585546491e-02
      -2.7499266167353265e-02 3.3890640242374370e-02
      3.5585556228730462e-02 -1.7923869687889524e-01
      8.6069484852865752e-02 -3.2524284758379228e-02
      -1.6516183570202375e-01 9.6426500366971618e-02
      1.6190479895303733e-01 -5.2247855678726578e-02
      1.3296969401876174e-01 9.8099273332642886e-02
      -4.1147585033195259e-02 5.3497088964355788e-02
      3.5271295996670060e-02 1.9789148677577306e-01
      1.1361979813705687e-01 7.5958436188801423e-02
      1.4552348974071480e-01 1.0537597810883392e-01
      3.1292235729112383e-02 -4.3886614574196042e-02
      1.3158995366235060e-01 -3.2905368859907323e-02
      8.3387013658192580e-02 -7.1335994516186760e-02
      -1.1300884257494597e-02 3.4221535209593430e-02
      3.8995441268099236e-02 -3.5978707177684921e-02
      2.7666061080813470e-01 3.4579073263858645e-02
      -4.2954890342329949e-01 4.9921450598108243e-02
      -3.6968134489135773e-02 -1.4066132486224908e-01
      -3.6720723613222445e-01 7.6438183954061142e-02
      -2.7784287619721126e-01 7.3213721700835952e-03
      -8.8887460428499158e-03 6.4877446698514127e-02
      -7.3965617597145220e-02 1.9449192956135333e-01
      1.9560759236069433e-01 1.5285064519388197e-01
      -1.7177172254522996e-01 1.9497629310001275e-03
      -9.5942283484389379e-02 2.0826089200369091e-01
      -1.2582587530197845e-01 -6.6562635618131374e-02
      -8.8197184149650235e-02 8.8638601227474426e-02
      -1.4804935852676421e-01 1.2026077570308927e-01
      1.0616160830716802e-01 3.1537921550184667e-01
      2.2639546321552712e-02 -3.6010163893398645e-02
      -2.4087071386206338e-01 -1.3172956572172170e-01
      -1.9745369045505975e-01 -2.2790520304201249e-02
      -3.2336086395465952e-02 9.0222904283376010e-02
      1.5406580363169506e-01 -1.5799413980970400e-02
      -3.7823699901919938e-01 2.1671288707661535e-01
      7.7387291149597109e-02 2.4670581188366947e-02
      -1.0098524030311856e-01 -3.8904259862596172e-02
      3.8979040197885395e-02 1.1386794903659639e-01
      1.8959098448763093e-02 5.6459650787882183e-02
      -2.9655134640851757e-02 -4.0645586636509481e-02
      -2.9892804480651437e-02 1.3506969889564208e-01
      9.6644812595500243e-02 -9.3751777416075835e-02
      6.6706759361675749e-02 -3.5338716293755415e-02
      -4.1707403982930935e-02 6.0913481167285670e-02
      1.4017904470151329e-01 -2.6697054892691635e-01
      3.1505673096706643e-01 4.4349484375948378e-02
      -3.2582853358039454e-02 -2.2800195328868851e-02
      -7.3400488848450879e-02 -6.9833876772863415e-02
      1.8550212706941896e-01 9.4220503691820959e-02
      -2.1304132405377052e-01 -6.9387683748869000e-02
      6.0340973896170373e-02 -6.6203103697562743e-02
      7.2643266379557481e-02 7.4122209247019344e-02
      -8.7399503297527867e-02 -7.0095566930509418e-02
      9.8174616731045633e-02 -2.4966989055965433e-01
      6.4719348675014193e-02 -3.2147483022418225e-02
      1.7447315877746856e-02 -8.5480142809443091e-02
      1.2142405949771617e-01 -4.4572344766211282e-02
      9.1601335091070366e-02 7.0677051527500215e-02
      1.0194445738888408e-01 2.0062948725281603e-02
      -2.3226008181442343e-02 1.1741195759722024e-01
      6.2501930207395279e-02 -9.4593309084208987e-02
      3.0795402984126158e-01 1.0180625043690394e-01
      -5.0851815500574708e-02 6.8953778540296662e-02
      2.4416982324091718e-01 -1.5554221248324723e-01
      2.8417594948390173e-02 -1.7758927096223870e-02
      2.6682228465007868e-01 4.3315720872663666e-02
      -2.4242868743655810e-01 1.4605587532619627e-01
      -2.3411240491522569e-02 1.2106631130577601e-01
      2.4629819575450893e-01 -5.6085811171948008e-01
      -5.5374454983971241e-03 -2.0516164472182993e-01
      -1.1060182803551795e-01 4.4471677841146834e-02
      4.2349701678773374e-02 -5.6226289722086917e-02
      -3.8927535955001057e-02 3.9101983421459909e-02
      -1.2229182451610543e-01 7.8621264413053851e-02
      1.6141210863228686e-02 3.6383155871993554e-02
      1.7055469677801066e-01 7.0138876252892899e-03
      2.2423177930877491e-01 1.2087418886315189e-01
      8.7142177796552381e-02 1.8171737526320525e-01
      4.1338910009279861e-02 -7.9802752617834774e-02
      3.9162734183569373e-02 -7.0703145886986785e-02
      -7.2199498300737380e-02 -2.5061102064318424e-04
      2.9115454658791001e-01 5.5713767008897297e-02
      3.1259974235341340e-02 6.5694882635408902e-02
      4.8681886790804870e-03 -4.2049489619806105e-02
      2.8702060380275218e-03 -1.7734223188267739e-01
      1.3715019035147766e-01 1.9787958705191282e-02
      1.7387928413453376e-02 -1.2809873537282715e-01
      8.5598261826672108e-03 -2.3196683222226111e-01
      2.5887149069419618e-01 5.4665232392551694e-02
      1.0278615141766195e-01 6.1903550876457970e-02
      2.0567781601410286e-02 -2.1781431793570078e-02
      5.8358654262266507e-01 4.9653140414157818e-02
      2.5034739042569705e-02 9.4648889714545881e-02
      -6.9900906357811994e-03 5.4542290572758015e-02
      1.3518600977349779e-01 -4.8489241239682228e-02
      -6.3322978741200117e-02 6.4891522986373518e-02
      1.4361897804871990e-01 1.9487285035911944e-02
      -5.7494142474592357e-02 -7.1081857538647278e-02
      3.9677342492312626e-02 1.6718684150341495e-01
      -2.3441450049407106e-02 2.1071821288568260e-01
      1.1911869030393370e-01 6.3266060959578348e-03
      3.0734259529382506e-02 -3.2199331372206687e-02
      -4.7529613799558917e-02 1.3600523185657440e-01
      -6.7781214705907866e-02 1.8672714247742625e-02
      -1.3581520978605068e-02 -1.4076352031732074e-02
      -5.2747903478544668e-02 9.4847827647012578e-02
      3.0839391224790368e-02 -3.2737318369963554e-02
      -1.8413610520500188e-02 4.4579458118732768e-01
      1.2079359910447506e-01 -4.4075077332483149e-02
      -2.3305319226021897e-02 1.8223623305934217e-01
      3.2961319999476664e-02 2.1229219464479490e-02
      -2.0195781856349557e-02 1.5126799925470846e-01
      -1.0898694117892388e-01 1.1738033057899973e-01
      3.9495714254016517e-01 1.9854268584898072e-01
      5.3466928894133528e-02 7.0051121935046923e-03
      2.6135434648441797e-01 -1.7299801693188654e-01
      -4.6881864370356990e-01 -4.6325802392424712e-03
      4.0683588593509130e-02 -4.1209312781715426e-02
      -1.8533542076576787e-01 1.2605754416899781e-01
      -3.6460085836167326e-02 1.6467489777002803e-01
      8.3977988042551799e-02 -5.1761955256548718e-02
      1.3425352454445910e-01 6.1966618602464829e-02
      2.8619344943299090e-02 1.5019248409377307e-02
      1.7107334081085390e-02 -2.0073637210693523e-01
      -8.9521357242424715e-02 9.6014555463975873e-02
      2.4224259746042015e-01 5.1986944384183553e-02
      1.1950311507052265e-01 9.3418575512351401e-02
      4.0904658615951536e-02 1.5547385646504583e-01
      7.8222730005501548e-02 4.1673708251208313e-01
      6.2889856328655017e-03 -4.6035474448662947e-04
      -2.3303240281968292e-02 -1.8301105104648993e-01
      -4.1596141440170387e-01 -1.7822948409088618e-01
      -1.3866698011800124e-01 9.9450413520384903e-02
      9.2725128032724743e-02 -3.6044904099985252e-02
      -1.1932372368868839e-01 4.0832011787316708e-01
      -4.6085103643567896e-02 -1.0188769627232586e-01
      4.7040249622994100e-02 -6.0916027568133156e-02
      -1.5995791583474026e-01 -8.0029749181282847e-02
      -2.4764267309690478e-02 -8.3300926507885606e-02
      -4.9306494513526783e-02 -5.4664552528223852e-02
      -2.2722389579514248e-02 6.6951997397462659e-02
      7.7667351400778958e-03 -1.2110814371058995e-01
      -1.2529756771951253e-01 -8.0477931316039364e-02
      -2.9195804951736983e-02 -3.7999221061043781e-02
      3.2269549771800840e-03 -1.3211676841416911e-01
      2.8581562172868571e-04 5.6111499198053617e-02
      -1.2401048759107589e-01 1.6748521746884241e-02
      -5.7943777283524768e-02 -1.1114586094236054e-01
      5.8770581963581821e-02 2.4394382939727500e-02
      -6.4676360987718007e-02 -7.1700839279386669e-02
      1.2575125683856864e-01 -1.1486514206074103e-01
      -1.1786310649903670e-01 4.2580229435849277e-02
      4.9231375418394674e-02 -8.0075658146759279e-02
      -2.1411251129685202e-01 1.0826948433814353e-01
      1.4791382755383370e-01 -1.8327157040452596e-02
      1.2185230958719317e-01 1.3140500546707931e-01
      1.6020908680087145e-01 3.8981283154558413e-02
      -4.2319802163895845e-02 -1.3563505073136392e-01
      2.0575180239778873e-01 1.6181997741334928e-01
      4.0538841339653138e-02 1.2894001329544061e-01
      1.2592994878739738e-01 -9.1553664734772180e-02
      5.2615358688233554e-02 2.5912432722857925e-02
      2.2289753184677846e-01 -3.8984517479443613e-02
      6.1080126671645895e-03 -2.5287773395862960e-02
      1.1041300466601131e-01 2.5729074621624735e-04
      8.9709418209477282e-02 6.9652306758210603e-02
      -3.1876340448040125e-01 -1.4294694865620519e-01
      8.8965627336343556e-02 -6.3221037297830046e-02
      -1.7449420737647600e-01 9.9948525808044322e-02
      -1.4903598043316180e-01 8.0786714895328848e-02
      -1.3297668936386497e-01 1.0693739852813272e-01
      1.7130633114232996e-01 -2.5832481048316935e-01
      1.0273660305328437e-01 5.6784412113299411e-02
      -1.1028390079724949e-01 -8.5843851756802037e-02
      -1.9621783894396869e-02 -5.6726412155675747e-02
      4.0355574794232726e-02 3.0737776005870809e-02
      -2.1053075703516281e-02 1.2027533681305956e-01
      -1.0181728921103568e-01 1.4886992562978141e-01
      2.0430495414015812e-01 2.5891243953242293e-01
      4.7480390396473834e-03 -6.5668465583609906e-03
      6.6703503987023419e-02 -1.6790447658717286e-01
      -2.6744678173587172e-01 4.3828520859618428e-02
      2.6475821475800802e-02 4.3989261162563624e-02
      -2.8583076295486426e-01 -2.1580311338432655e-02
      -4.2444829214481908e-02 -3.1849749469455813e-01
      -2.1183011037765247e-03 -4.5609038161793271e-02
      2.9173666675123645e-02 -5.1659952302234004e-02
      -1.3597591403538090e-01 -2.9682650177653647e-01
      2.1648039834706867e-01 7.0656333881136221e-02
      -9.2069241109170238e-02 1.2079551150589807e-01
      8.8142518345851587e-02 4.1186944472106565e-02
      2.0689312554714509e-01 -4.6666245716629640e-02
      -1.8371326898859169e-01 3.7642170497335634e-02
      1.6829795500500930e-02 1.0090220497063405e-01
      2.6398585976730664e-02 -4.3030168888384379e-01
      3.5445053793520082e-01 4.6527662316457698e-02
      8.4491664708759920e-02 -3.4478287807493867e-02
      -4.7146847135968291e-02 -9.6064836892918587e-02
      3.7270755656874717e-02 8.2977117545347756e-02
      2.3655640481874526e-01 -3.8140961766502980e-02
      6.8900345524520439e-03 1.1436284943399594e-02
      -3.7719138715155524e-02 -1.7965775915849261e-01
      1.1901134503490565e-01 4.8362179135559645e-02
      -2.9927038445867771e-01 1.3224405537053757e-01
      7.5972674207131066e-02 2.6862769233067994e-02
      -6.7828091676624042e-02 5.3147570854917260e-02
      1.0507268194832766e-02 1.5266672984700247e-01
      3.9714327391126725e-03 3.0063224828194168e-01
      2.0146236204346374e-01 8.2352972970341082e-02
      4.9295283944899043e-02 4.1447797118553273e-02
      -7.8619954027746172e-02 -2.3087759813916468e-02
      6.6094295221095414e-03 1.6589987273254211e-01
      7.8642858129666093e-02 -1.0421441448474689e-01
      2.1475002238858232e-01 3.2442466336320630e-01
      8.4627187751878039e-03 -1.2775212022649909e-01
      1.6803456594148686e-01 3.6012545187250340e-02
      -3.8648096021234847e-02 -1.0848208458843074e-01
      3.7968771527469546e-02 -1.7986290638155480e-01
      -3.6893553394591344e-01 -2.2635862492412509e-01
      -1.5526902840382070e-01 1.8559200681002921e-01
      -2.2141254059924903e-01 9.5470817911565309e-02
      -1.4651185786213067e-01 2.8172107157085496e-01
      1.2818166098467199e-01 -8.8197024287014467e-02
      -7.4130868482870968e-02 -1.4255151920393855e-01
      3.0549338715557647e-02 6.4430464150198694e-02
      2.3144145526495033e-01 9.0657177978638717e-02
      9.1233202080025180e-02 1.7139536540441105e-01
      -1.1871908881592126e-01 9.0629699033566588e-02
      2.0297408858276113e-02 1.1556912238310735e-01
      -2.5655328573142490e-02 8.3267318314136276e-03
      -1.5206553992155186e-01 -6.7973628249943824e-02
      -1.4268475362649061e-01 -2.5398019492357510e-01
      6.2421136424294942e-02 1.1456589943791394e-01
      5.4085668366823847e-01 1.8468162198984960e-02
      2.3573075016117016e-02 -3.5382283986538299e-01
      3.3837486921943433e-01 5.8335613274885356e-03
      -8.2106153139414648e-02 4.9010375581922238e-03
      -1.8907407489859316e+00 5.4690063705799014e-02
      2.8347957940348595e-01 -8.0982275771234777e-02
      -3.0771880797996878e-02 -1.1012518194259695e-01
      -7.2423719941948378e-02 2.2153528430509252e-02
      -4.4475132844817211e-01 -5.7552177457328095e-02
      3.9346436547268895e-02 1.0272268410159461e-02
      -2.6483981548711216e-02 2.8441058972795918e-02
      1.4603903012959909e-02 8.9819354156817216e-02
      2.6991753794383143e-02 -1.2501662107909938e-02
      -1.0225832882847190e-02 2.0524409083999964e-02
      1.3693702673562706e-02 2.1727958071343933e-02
      -5.3399261639500234e-02 -2.5643217615615513e-02
      3.1981789896165106e-03 -1.5044371683489446e-02
      -8.2975133247626565e-02 -2.2053571385995851e-02
      1.3277224746797956e-03 1.1302756371129009e-01
      1.3985512438200989e-01 -2.2033763525828750e-02
      1.9187393400270331e-02 3.0100831538402179e-01
      -7.2334432262407655e-02 7.3818143540732684e-02
      -2.0455945769093643e-02 -4.9691817530379163e-02
      7.8312268983928516e-03 -3.3530256056502776e-02
      -2.4820569044850534e-02 -6.1256931205951526e-01
      -3.6636739813961561e-01 1.9453871363284993e-02
      -1.7119368607202592e-01 2.2058971220104709e-02
      4.3954770735699027e-02 3.1966432153409566e-02
      4.9595377812951136e-01 -2.3189619011355151e-02
      5.9811058194889299e-02 1.0006868419477062e-01
      -1.2094203684505965e-01 2.3041820107631514e-01
      -2.1569663961892575e-02 -9.2889301846263688e-04
      1.0017212890306083e-02 -9.3810315704829627e-03
      -5.3102308747608538e-02 7.6268081391134987e-02
      -1.0833981464346507e-02 -5.5884391491755600e-02
      4.0953470130478020e-01 -1.4547900736136266e-01
      6.3945192204200141e-02 -9.5691342419939929e-02
      1.6871263425255505e-02 3.9215324429718541e-02
      -9.8681166225718792e-02 5.2241603133973439e-03
      -3.8998530914908562e-02 3.0550383639291908e-02
      1.9198003293169424e-01 9.4195146600984950e-02
      5.3365555934577237e-02 -1.7327230305422301e-02
      6.0444108292831197e-03 -7.4434000967211946e-03
      3.3504599856059203e-01 -9.1477673259495323e-02
      6.5541563357519414e-02 -1.6837475796029097e-01
      -4.8631970035986391e-02 -1.0878631245317387e-01
      8.5032117089559628e-02 -4.7234713222984316e-02
      -6.0627350828199695e-04 -9.0071328824490853e-03
      -1.6105302788392145e-01 -7.5284302909690709e-02
      -1.5852491686497071e-02 -1.2106582435089468e-01</_>
    <_>
      2.1388123775701998e-01 5.3881361736865543e-02
      1.6792668476943579e-01 2.2583796866791275e-01
      -2.7944721258300987e-02 1.5928990844981328e-01
      1.9158347215289970e-01 2.6712876882250824e-01
      6.7713643558733397e-02 1.8974812385930989e-02
      5.6434090314037309e-02 1.3879215530933800e-01
      2.2256397435794140e-01 -3.7030033387509237e-01
      2.6369675515338581e-01 8.5917058484534889e-02
      2.4526783230573962e-01 3.7975158015879543e-02
      1.2571950759492040e-01 -2.4327568210081796e-01
      -1.2341072210391159e-01 1.0365349004349665e-01
      -4.4261697759224433e-01 -1.3296567220211447e-01
      2.0827558083486550e-01 -1.4654181793228424e-01
      -2.8089907320324233e-02 3.1086617968836860e-01
      3.8689768137103175e-02 2.1524200049875408e-01
      9.3718977746972149e-03 -1.1815060080084218e-01
      6.2997100944122988e-02 1.0556114767662840e-01
      1.3847364442024243e-01 -1.4272159486445915e-01
      2.7047839809194774e-01 -1.7561885863676890e-01
      2.7854427604092441e-01 -1.8020103192678866e-01
      -2.2369237512198958e-01 -2.9464973122279531e-01
      2.5933231065067514e-01 -3.0134944571405142e-01
      1.0114510794464719e-01 2.0222179736718301e-01
      -2.5489166603653326e-02 -5.3210023546812632e-02
      -1.3748886527505499e-03 2.3395638904736732e-01
      -1.7889015715248408e-01 -9.5750943313018519e-02
      -9.3712028770273400e-03 9.3794152293752833e-02
      -4.7211465840578330e-02 -1.0296901677738685e-01
      1.9832539604458660e-01 -1.6456121669898346e-01
      -1.4096359120022156e-01 4.5488946576477667e-02
      -4.8445625700723577e-01 -1.8382412325193401e-02
      -1.6817877589338395e-01 -3.1332187081760998e-01
      -4.3207996627531003e-01 8.4984529053001343e-02
      -1.8051885061356865e-01 4.6245730547536440e-01
      -3.8584221899438553e-02 1.8489142233369110e-01
      -1.6068617998458787e-01 3.5339381101042777e-01
      -2.3025695485269046e-01 -2.5563417319745090e-02
      5.9026657634025943e-03 -7.1531476879760980e-01
      -7.1528042844152886e-02 9.1384643555146444e-02
      1.8305587861133472e-02 4.8539769325878238e-02
      -1.6189356641299410e-01 1.9183618005911024e-01
      -1.0222466003215285e-02 8.9524001230877198e-03
      1.7622338525223602e-01 1.3447715120406395e-01
      -5.8270473287525625e-02 2.5243217849809368e-01
      1.7874854578306049e-01 3.3916888699982835e-02
      4.1221027125981344e-02 3.3760446985135306e-01
      -1.4132210993343580e-01 -5.0288941446250096e-02
      -2.6253170742027654e-01 1.8727755024910167e-01
      -3.5205296812664343e-02 -3.3611548924379808e-01
      7.2726720184840291e-02 -1.5001732937540074e-01
      4.0621156182557754e-03 4.3457895189583894e-03
      2.6088921630817628e-02 -3.3096451629832956e-03
      -5.5276956514786570e-02 -5.1651141557510745e-03
      -5.9417395914908133e-02 4.2489372706708869e-02
      6.3284038046328553e-02 -1.1351191185721827e-02
      -9.1722136329088030e-02 3.7996064136486062e-02
      2.3966170475853189e-02 1.4036990894480542e-01
      2.1414560526821273e-02 1.2661839568760063e-04
      8.2846186265714966e-02 -4.0082660356464836e-02
      -2.3370509980303576e-02 1.4054886916415430e-02
      -1.1555000104807788e-02 -4.5417757561779300e-02
      -9.4367072208077607e-02 -4.4092629465365086e-03
      -7.8994955938718019e-03 2.5161425722278571e-02
      -1.0878427014372298e-01 -5.4593869422060667e-02
      3.0421476663076923e-02 -2.3231660975669588e-02
      3.0369889060128993e-03 -1.6344536548362004e-01
      3.9330038642663356e-03 1.9632431924468684e-02
      2.5876912523535692e-02 -2.5890972328241547e-02
      1.0689971415622228e-01 -1.9802422398761527e-02
      -2.7742824008863319e-02 -6.8148575241097062e-02
      4.8926965167507743e-03 6.2774351439183765e-02
      1.3688969344714569e-01 -1.0160319045934733e-02
      -3.1276455146442479e-03 9.0543874638939301e-02
      6.5728793231742682e-04 -9.0092780739650657e-03
      1.0491045386957538e-02 3.6174911242753110e-03
      -2.2138357314463043e-02 3.1428394938399690e-02
      -1.2168412422758287e-02 -1.1989452076449764e-02
      -1.5705188293712924e-02 8.4849671579139488e-03
      -4.4808356474024313e-02 8.8447595520269769e-03
      -3.7456950849942890e-02 -2.6103143683248800e-02
      4.6058815258167761e-02 -5.6796504147066815e-02
      -6.1430942913439628e-03 4.2741353411918620e-02
      1.9841693211456669e-02 4.6041395807037519e-02
      9.5777278814484695e-02 -2.6608059732403169e-02
      -7.0058880568089510e-02 8.8819578278387639e-03
      -4.0506857081335307e-02 -2.6724133885368860e-03
      -7.4974175163546779e-03 5.2356983517515129e-03
      1.7668439805789124e-02 4.5933911575637337e-02
      -2.4485192991070378e-02 4.9986234071301282e-02
      1.1276582234573253e-02 8.2134494707398809e-02
      -9.8916829789774999e-04 2.6927146365695070e-02
      -4.2524624008599965e-02 2.7179452482510993e-02
      -1.1280237355555287e-01 1.6359652317180933e-02
      -4.2472897643789243e-03 6.8363785709316130e-02
      1.2027814863618647e-05 5.2687353197165089e-02
      -4.0999845272444893e-02 1.8062675317836278e-02
      -5.1978330748030065e-03 -2.2208047542895910e-02
      -2.2135583445725648e-02 1.9017631136735491e-02
      6.7580835324272436e-03 2.0749635850145557e-02
      -1.8455595785553558e-02 -3.0185102335740840e-02
      2.0884326282790486e-01 -8.0011161120561503e-02
      1.7139292897686834e-01 9.2546188889907038e-02
      -3.6750118315586267e-01 3.5548805897952912e-01
      -1.3216686342217712e-01 -1.1215352658542687e-02
      2.7757871862799094e-01 -1.4063008916795053e-01
      -3.4704662209079862e-02 1.4785643328305598e-01
      2.0686729428146980e-01 1.1495956891768248e-01
      2.9548497563642223e-01 8.8104164555096065e-02
      1.3705118388356574e-01 1.0448497705308102e-01
      1.1065354140609324e-02 -1.7606836531772441e-01
      6.0457248217313457e-02 -1.1948504895910022e-02
      -1.6474188584630492e-01 -3.6087997120833898e-01
      -3.6882130554427768e-03 -7.5127065534068102e-02
      -1.0399894259961701e-01 -1.7837839209517328e-02
      1.4929221160350190e-01 -2.4587803301445658e-02
      2.0051669752195259e-01 -1.2879203450659205e-01
      5.2851698063870328e-02 9.2126205183105672e-02
      5.7823644406888697e-02 -8.4224242977469804e-02
      5.2620194692435097e-02 -9.8529019152359745e-02
      5.3992566897770815e-02 -1.3817175660903699e-01
      -6.6790386089142464e-02 1.7169625161842905e-01
      4.6750523528973152e-02 -1.6691143742054902e-02
      8.1620553433543422e-02 -6.8792746213373307e-02
      2.0701353502877945e-01 -3.3728935830407197e-01
      -7.6585701320566711e-03 1.8021028983419377e-01
      -1.3637834049421949e-03 1.0657206707171789e-01
      1.8827129302720805e-01 -3.3276705414072148e-02
      1.3927832816167274e-01 -1.8997418868520370e-03
      4.8513338808730362e-03 4.4040560252836237e-02
      1.8326784894220607e-01 -2.6873430592664296e-02
      -9.9930244042809493e-02 -2.1751196317305724e-02
      6.7594839166133014e-02 -3.0306292376947739e-02
      -3.6326012627336035e-01 -9.4874713712105499e-02
      6.4452185231000367e-02 2.5504660539720675e-01
      5.0780477783724286e-03 3.1380343928246540e-01
      -1.9851259098720225e-01 4.4491315666405774e-02
      -4.4481949825053990e-02 7.9447031313964661e-02
      4.7270911048498468e-03 -1.5291574358183616e-01
      -2.1151187572346252e-02 9.2096581592496715e-02
      -1.5278675407808953e-01 2.5420478057326643e-02
      7.8799466154637857e-02 2.3983515864200974e-01
      9.5776552238192897e-02 -7.7172275325123066e-02
      1.3304325403293821e-01 2.3750394625455992e-01
      4.8458962022972799e-02 1.6993879034571277e-01
      -1.4273115695514815e-02 4.4884634454564920e-01
      -1.1651369624070447e-01 9.6567219458555106e-02
      -1.4192742624905180e-01 1.9917945998197353e-01
      -7.8955646376771479e-02 9.9334435670270348e-03
      -3.2554957908341953e-02 -9.5832696279116919e-02
      3.8355951678866935e-03 7.1722628272080674e-02
      -6.4313527335807433e-02 3.6311573571556392e-02
      -1.4285566409934084e-02 -7.9369321927366093e-02
      -1.6701211149684411e-01 -1.2714813438560683e-02
      2.9756187870932160e-01 1.2749026596526403e-01
      1.8337906021539174e-01 1.3783448603627987e-01
      -4.7405093768523324e-02 1.2839258547389501e-01
      1.5271921473888600e-01 -1.0798031412181704e-01
      -4.6871347475053060e-02 -8.9483252326093179e-02
      7.1545515278564481e-02 -6.2407136212651974e-02
      2.0668659346648297e-01 -2.0467680639393335e-01
      1.1102275083161552e-01 -1.6495977327146635e-01
      -3.0718986709082946e-01 4.3136838241869910e-02
      5.5034062989209230e-02 -5.4634632023670138e-02
      1.8559769051809710e-01 -7.3050689112638498e-02
      -6.9277492849254635e-02 1.4768026601509193e-02
      -1.0084505192730532e-01 2.1585994571267597e-01
      -1.0905043175045898e-01 -1.9569280475803175e-01
      5.3148404105207693e-02 -1.4524524617883508e-01
      7.6796304338874258e-02 3.1577257129073590e-02
      -5.8250754637591030e-02 -3.2895328141931091e-01
      -2.7441872098817988e-02 -4.5368599476046967e-01
      -2.6371052341775175e-03 -9.8862612481157366e-03
      -9.0085818145610716e-02 3.8177829280374217e-03
      -5.8001592052271726e-02 -5.2119463104111981e-02
      2.0415602028859767e-01 2.4612763609296964e-03
      -1.6225366572681449e-01 1.9483183686472384e-02
      3.0208411889618810e-02 1.7262236053964908e-01
      -1.9557649705341337e-01 -1.5221239295719266e-01
      3.6783500654032089e-02 -4.6349001571243525e-02
      -6.3296237625733567e-02 -4.1732731899538703e-02
      -1.0647107636626905e-01 8.2450324448873291e-02
      -2.9626236441712439e-01 -1.6635013545839100e-01
      1.4268312608971658e-02 1.1155101298414322e-01
      -2.4197989114702501e-01 -2.8731427595762197e-02
      2.3264789834075589e-01 2.7476522579900226e-01
      1.2203390301405494e-01 -4.7852322350265701e-02
      -9.2640009657966819e-03 7.8379893050795901e-02
      -3.4432859468442667e-01 -8.9020555607423099e-02
      1.3052892803341540e-01 -1.4279531545282307e-02
      5.5612434322744375e-02 5.2658306147511874e-03
      -1.3460337225914068e-01 -1.8717844152277171e-02
      1.7473016279731034e-02 1.0767037942977552e-01
      2.0437067516375843e-01 -5.2302265162182796e-02
      -8.5404017692823256e-02 6.5000298548193419e-02
      -1.0330207165363352e-01 -3.8816874875645432e-02
      -3.9293083428119692e-02 2.6543260311564218e-02
      9.2690128616920289e-02 -1.1377439763053424e-01
      -1.6728016644105823e-02 1.8097602351712452e-02
      -8.8092059177184170e-02 -4.2570536178312857e-02
      5.4144430642359791e-02 2.8238289112328462e-02
      -3.3345600087927929e-01 1.5078231029405428e-01
      -1.5618123038707268e-01 6.0325152481922530e-02
      -9.2988016408274407e-02 -2.2686094112936328e-01
      7.7574443099538232e-02 -9.8060577329705828e-02
      1.0561753349859264e-01 1.7733098131565403e-01
      -5.5833459116443544e-02 -8.7702757337140183e-02
      -2.9443005154021411e-02 3.8227451821370932e-02
      -1.0246899467018873e-01 -1.4105044333213101e-01
      -4.6037443748216007e-02 -1.1924216842785690e-01
      5.1150819503870452e-02 -8.1489462941298940e-02
      1.0275009699074071e-01 -6.9517020374823685e-02
      9.5476058330674116e-02 9.2356095381696354e-02
      -2.7401285822352223e-01 6.6129731412450835e-02
      1.3705779478631852e-01 8.8600866308660570e-03
      -5.9760159481262010e-02 -1.5537955554197691e-01
      -2.0919037935950519e-01 1.1333575417157914e-01
      -7.9043100532788416e-02 -2.0793190095773487e-01
      -1.0541757410497579e-01 6.1339687873220437e-02
      -8.0380626730010354e-02 4.3338244919068694e-02
      4.0481406811759831e-02 -1.3167430074741190e-01
      2.6525382058734615e-02 -2.0493124431077750e-01
      -1.1510796932900499e-01 6.6133492650096368e-02
      5.3134753912303288e-02 -6.3883158477218815e-02
      -1.3085608091095427e-01 3.2729409750817701e-02
      1.3885163006315218e-02 -1.7931677482628097e-01
      1.7799759635334807e-02 -4.2807410716013204e-02
      2.9596885174877723e-02 3.2122345679645274e-02
      -1.4857942649884179e-01 3.7487482676186248e-02
      -1.1191278837810067e-02 4.1467812989364299e-02
      -2.0881621633940514e-01 -7.5330642216930088e-02
      -3.1317221731605470e-02 -1.1147222156672579e-01
      -1.3177694769059903e-01 3.8880671271376725e-02
      2.1732945971463757e-01 4.8721162147783763e-02
      -1.4719224238808362e-01 -7.0326722728551283e-01
      1.3283820264687782e-01 8.7729816339983058e-02
      4.1900082917934525e-02 -7.5419043819093576e-02
      1.5571860897940909e-01 -3.8296301846369889e-02
      -1.5226911798306617e-01 -6.0635655216462865e-02
      3.0815656692759978e-02 3.7455903650906804e-03
      3.5032175059251164e-01 -3.2086521506683965e-02
      -8.7473653253214115e-02 -1.0510175539135735e-01
      -1.2488400625211935e-01 1.9241139388185766e-01
      2.9837826981026805e-01 -2.6010698222600537e-01
      5.5295531135617866e-02 -1.5946021079723752e-01
      -3.5994730850798760e-02 6.7388550487089936e-03
      -4.1881981637521493e-02 -2.3779004427557501e-01
      1.7822830951365340e-01 -1.0000308786587717e-01
      2.4161124067434558e-01 1.1065814643638398e-01
      1.2016120051163398e-02 -3.0327000841325724e-02
      -2.7050687337018039e-03 4.7707755223895532e-03
      1.1544408703298636e-01 -4.4601090881904115e-02
      3.7177816218904348e-02 1.9093176372614828e-02
      -7.2648779150158826e-02 5.0760876112685649e-02
      5.1451124988947182e-02 8.5412797308993330e-02
      7.4379344370207490e-02 -1.4427788491818217e-02
      -1.2005336631357649e-02 -8.3686022118050207e-03
      3.1671015812748143e-02 8.2295218353288749e-02
      2.0436414631843400e-02 3.3871046936375347e-02
      7.9912354002375403e-03 2.1471420302463917e-02
      -4.0109965730476690e-02 8.0372955097284898e-02
      -2.8332575959342122e-02 3.2036377389100992e-02
      -9.9774403771304795e-02 -4.1447096582906406e-02
      8.8498818278421765e-02 -4.8022110493860404e-02
      -2.7790084986652863e-02 7.6151324113888391e-02
      3.3891405299832748e-02 6.7327238915971333e-03
      5.5296501978008339e-02 2.3280836019979927e-02
      4.0424047091545720e-02 2.4921401709178469e-02
      3.8013169800500575e-02 -4.1730696022266811e-02
      5.4815229133652749e-02 -3.3865274630112331e-02
      3.5617055922945777e-02 -7.3576010569274208e-02
      5.8884406157395874e-02 -5.1016037531677480e-02
      8.2513131861691014e-02 2.1459313982436633e-02
      8.7955735415245814e-03 9.4897627058025777e-02
      4.9208967438579797e-02 3.9877259864097903e-02
      -2.9622971579047117e-02 6.5303904376119493e-02
      2.5082120669400205e-02 -7.4344897148635944e-02
      -1.3219434434533757e-02 -5.6982435284920224e-02
      -4.2372782072956569e-02 1.0969158218775837e-03
      7.7157865259275038e-02 -1.0550227486124998e-01
      -4.7372904837055434e-03 6.1495967873109937e-02
      -4.7671855998758832e-02 -6.0742312832072987e-02
      -2.8828281241793392e-02 6.6410102984041305e-02
      -5.2738196578728941e-02 7.8071338491170405e-03
      3.1353034639203747e-02 1.1819807516956899e-02
      7.2762330243671533e-03 -1.0964920802324708e-02
      1.3489043775261236e-02 8.2654471230959231e-02
      -5.3438624501872305e-02 -1.3490014575203152e-02
      -1.6764761165359982e-02 4.1529983955349903e-02
      7.5255669000569986e-03 6.7837363553877553e-02
      -4.8940108659611757e-02 1.5723487530740717e-02
      1.7777548150709054e-02 -7.8413347425937266e-02
      5.3125954505921632e-03 -3.8017051203841912e-02
      -1.4956985033913839e-01 5.4580893416373892e-02
      3.4917139785229905e-03 -1.8622614787693462e-02
      6.8790053731914699e-02 2.6681270568725685e-02
      -2.0556747651952468e-02 -1.3949405325764110e-02
      -1.9203871831852300e-02 5.9538481737629149e-03
      -3.7697088706758905e-02 5.5764107221894864e-02
      6.2178896573063108e-02 -1.9300121344203627e-02
      -5.7203609027178574e-02 -4.8079288023449109e-02
      -9.0900806502365344e-02 1.0363295411886869e-01
      -3.8489626220659968e-02 -3.3068718056269972e-02
      1.3522636210691583e-01 -9.2549270253227858e-02
      9.7097040504150085e-03 7.2638629225893672e-03
      -9.3721073514718423e-02 8.3311926433715947e-02
      2.8631463950608258e-02 -7.3634546582509426e-03
      -2.5671799361324524e-02 -4.3423905709422804e-02
      -8.5598639408665730e-02 -6.8597353193602384e-02
      2.3464397328962119e-02 -3.8569004988356297e-02
      3.6368417470829605e-02 -3.0954248960236401e-02
      -4.9209059598370214e-02 4.8820057366482032e-02
      -3.0594978276094000e-02 8.0984521147576330e-02
      -2.8164709217557614e-02 4.4430822696301650e-02
      -4.3131287835090182e-02 -2.2651040603656442e-02
      -3.2255262385215255e-02 5.4209288560960554e-03
      -1.1448658442817239e-01 -3.0583620884632706e-02
      -8.3597870779786740e-02 6.9855513941418732e-03
      -6.2421506036543388e-02 3.6257178286308950e-02
      3.0772480402945782e-02 9.2123909954807362e-02
      -8.3680499329661547e-03 -1.5001852095677779e-02
      -9.9108680061283427e-02 -5.7100334383704099e-02
      6.1433737485658800e-02 -8.6652293141779829e-02
      -1.0981689349219899e-02 -1.4012400684199903e-02
      -1.1945965496833387e-01 8.1981594136691774e-02
      5.3243783190112588e-02 -6.0223553291582597e-02
      -3.8300016698194730e-02 5.4295738818355414e-02
