<?xml version="1.0"?>
<opencv_storage>
<opencv_ml_svm>
  <format>3</format>
  <svmType>C_SVC</svmType>
  <kernel>
    <type>LINEAR</type></kernel>
  <C>1.</C>
  <term_criteria><iterations>1000</iterations></term_criteria>
  <var_count>19</var_count>
  <class_count>6</class_count>
  <class_labels type_id="opencv-matrix">
    <rows>6</rows>
    <cols>1</cols>
    <dt>i</dt>
    <data>
      1 2 3 5 6 7</data></class_labels>
  <sv_total>15</sv_total>
  <support_vectors>
    <_>
      -6.19530678e-04 8.69000053e+00 4.15099983e+01 -1.71700001e+01
      2.52997589e+00 -4.49000025e+00 -2.33699989e+01 -2.78000021e+00
      -1.06000006e+00 0. 6.71309365e+27 8.71914077e+27 3.86689596e+25
      -120. 4.96195095e+26 0. 0. 0. 0.</_>
    <_>
      -8.02981853e-03 -5.24999714e+00 1.61999893e+00 1.84999990e+00
      9.01998901e+00 2.32999992e+00 -8.80999947e+00 -1.50000006e-01
      4.99999747e-02 0. 6.71309365e+27 8.71914077e+27 3.86689596e+25
      -97. 2.05739433e+26 0. 0. 0. 0.</_>
    <_>
      -1.92701817e-02 5.46000004e+00 3.74399986e+01 -9.14000034e+00
      6.28999329e+00 -1.21800003e+01 -2.50799980e+01 -2.44000006e+00
      5.99999875e-02 0. 6.71309365e+27 8.71914077e+27 3.86689596e+25
      -53. 1.57330159e+26 3.01421261e+01 8.52154130e+29 0.
      2.39079361e+29</_>
    <_>
      2.91001797e-03 -1.09999981e+01 2.15999985e+01 -5.89999914e-01
      -4.29000854e+00 4.40000010e+00 -1.07800007e+01 0. 2.59999990e-01
      0. 6.71309365e+27 8.71914077e+27 3.86689596e+25 -2.48400002e+01
      1.08920876e+26 5.42558289e+01 2.55646254e+30 0. 5.37928544e+29</_>
    <_>
      1.90899372e-02 -3.61799965e+01 8.93799973e+01 -2.45799999e+01
      -4.63999939e+00 5.21000004e+00 -2.09999704e+00 -3.01599998e+01
      8.89999986e-01 0. 6.71309365e+27 8.71914077e+27 3.86689596e+25
      -1.82000008e+01 3.50967273e+26 1.74824326e+02 8.23748997e+30 0.
      1.73332535e+30</_>
    <_>
      -3.20298672e-02 -8.19998741e-01 2.99990177e-02 6.34999990e+00
      5.87000275e+00 3.40000010e+00 -1.47700005e+01 -1.50000006e-01
      -3.00000012e-01 0. -1.60029999e+02 1.66399994e+01 -51. -63. -61.
      0. 0. 0. 0.</_>
    <_>
      -3.46801281e-02 6.90999889e+00 3.65299988e+01 -6.26000023e+00
      4.87000275e+00 -1.14099998e+01 -2.84399986e+01 -2.44000006e+00
      -2.10000008e-01 0. 4.21399994e+01 -12. -14. -27. -14.
      3.01421261e+01 8.52154130e+29 0. 2.39079361e+29</_>
    <_>
      -9.93001461e-03 -1.04899979e+01 2.07999992e+01 1.18000007e+00
      -4.73000336e+00 5.03000021e+00 -1.29400005e+01 0. 5.79999983e-01
      0. -17. 1.57600002e+01 1.54799995e+01 -6.84000015e+00
      1.77199993e+01 5.42558289e+01 2.55646254e+30 0. 5.37928544e+29</_>
    <_>
      -2.01302767e-02 -3.60999985e+01 8.55699997e+01 -1.74600010e+01
      -4.14998627e+00 7.49000025e+00 -1.01799984e+01 -3.01599998e+01
      1.26999998e+00 0. 5.33300018e+01 7.14100037e+01 5.52400017e+01
      3.97999992e+01 4.98800011e+01 1.74824326e+02 8.23748997e+30 0.
      1.73332535e+30</_>
    <_>
      -1.84103251e-02 7.00999737e+00 3.61599998e+01 -1.08500004e+01
      2.02999878e+00 -1.37200003e+01 -1.81300011e+01 -2.44000006e+00
      -5.19999981e-01 0. 1.76169998e+02 -3.26399994e+01 25. 24. 35.
      3.01421261e+01 8.52154130e+29 0. 2.39079361e+29</_>
    <_>
      -1.43003464e-03 -1.20599995e+01 2.05100002e+01 -1.34999990e+00
      -5.55001068e+00 3.66000009e+00 -6.40000105e+00 0. 2.70000011e-01
      0. 6.11699982e+01 4.44000006e+00 4.24799995e+01 3.21599998e+01
      5.47200012e+01 5.42558289e+01 2.55646254e+30 0. 5.37928544e+29</_>
    <_>
      1.27297640e-02 -1.51100006e+01 4.46300011e+01 -1.53199997e+01
      -7.12998962e+00 -1.03000009e+00 4.75999975e+00 -1.31900005e+01
      5.79999983e-01 0. 1.56169998e+02 2.67700005e+01 8.02399979e+01
      9.08000031e+01 9.02399979e+01 1.02483231e+02 4.82887345e+30 0.
      1.01608727e+30</_>
    <_>
      1.35500431e-02 -1.72599983e+01 -3.63000011e+00 6.03999996e+00
      -6.62000275e+00 1.16800003e+01 6.99999857e+00 2.20000005e+00 0. 0.
      -47. 3.77599983e+01 3.34799995e+01 1.21599998e+01 3.97200012e+01
      4.82274017e+01 2.55646254e+30 0. 5.37928544e+29</_>
    <_>
      1.64202452e-02 -2.02899971e+01 -5.54999971e+00 -6.89999938e-01
      -2.41999054e+00 1.39600000e+01 2.22399998e+01 -9.10000038e+00
      3.99999976e-01 0. -71. 3.94300003e+01 3.63600006e+01
      4.93600006e+01 3.63600006e+01 4.82274017e+01 2.84051387e+30 0.
      5.37928544e+29</_>
    <_>
      -7.42995739e-03 2.03999996e+00 -3.85999966e+00 -5.28999996e+00
      8.87001801e+00 -4.92999983e+00 1.07900009e+01 -7.88999987e+00
      -2.59999990e-01 0. 12. 1.68000007e+00 0. 2.23199997e+01
      -2.24000001e+00 0. 0. 0. 0.</_></support_vectors>
  <uncompressed_sv_total>208</uncompressed_sv_total>
  <uncompressed_support_vectors>
    <_>
      1.52101004e+00 1.36400003e+01 4.48999977e+00 1.10000002e+00
      7.17799988e+01 5.99999987e-02 8.75000000e+00 0. 0. 1.46028475e-19
      1.11884897e+27 1.08989260e+27 4.29655107e+24 1.44374049e-19
      1.21023196e+25 1.00284252e+01 2.84051383e+29 1.80372252e+28
      5.97698403e+28</_>
    <_>
      1.51760995e+00 1.38900003e+01 3.59999990e+00 1.36000001e+00
      7.27300034e+01 4.79999989e-01 7.82999992e+00 0. 0. 1.46028475e-19
      1.11884897e+27 1.08989260e+27 4.29655107e+24 1.44374049e-19
      1.21023196e+25 1.00284252e+01 2.84051383e+29 1.80372252e+28
      5.97698403e+28</_>
    <_>
      1.51618004e+00 1.35299997e+01 3.54999995e+00 1.53999996e+00
      7.29899979e+01 3.89999986e-01 7.78000021e+00 0. 0. 1.46028475e-19
      1.11884897e+27 1.08989260e+27 4.29655107e+24 1.44374049e-19
      1.21023196e+25 1.00284252e+01 2.84051383e+29 1.80372252e+28
      5.97698403e+28</_>
    <_>
      1.51766002e+00 1.32100000e+01 3.69000006e+00 1.28999996e+00
      7.26100006e+01 5.69999993e-01 8.22000027e+00 0. 0. 1.46028475e-19
      1.11884897e+27 1.08989260e+27 4.29655107e+24 1.44374049e-19
      1.21023196e+25 1.00284252e+01 2.84051383e+29 1.80372252e+28
      5.97698403e+28</_>
    <_>
      1.51742005e+00 1.32700005e+01 3.61999989e+00 1.24000001e+00
      7.30800018e+01 5.50000012e-01 8.06999969e+00 0. 0. 1.46028475e-19
      1.11884897e+27 1.08989260e+27 4.29655107e+24 1.44374049e-19
      1.21023196e+25 1.00284252e+01 2.84051383e+29 1.80372252e+28
      5.97698403e+28</_>
    <_>
      1.51595998e+00 1.27900000e+01 3.60999990e+00 1.62000000e+00
      7.29700012e+01 6.39999986e-01 8.06999969e+00 0. 2.59999990e-01
      1.46028475e-19 1.11884897e+27 1.08989260e+27 4.29655107e+24
      1.44374049e-19 1.21023196e+25 1.00284252e+01 2.84051383e+29
      1.80372252e+28 5.97698403e+28</_>
    <_>
      1.51742995e+00 1.33000002e+01 3.59999990e+00 1.13999999e+00
      7.30899963e+01 5.79999983e-01 8.17000008e+00 0. 0. 1.46028475e-19
      2.59999990e-01 1.08989260e+27 4.29655107e+24 1.44374049e-19
      1.21023196e+25 1.00284252e+01 2.84051383e+29 1.80372252e+28
      5.97698403e+28</_>
    <_>
      1.51756001e+00 1.31499996e+01 3.60999990e+00 1.04999995e+00
      7.32399979e+01 5.69999993e-01 8.23999977e+00 0. 0. 1.46028475e-19
      6. 1.08989260e+27 4.29655107e+24 1.44374049e-19 1.21023196e+25
      1.00284252e+01 2.84051383e+29 1.80372252e+28 5.97698403e+28</_>
    <_>
      1.51918006e+00 1.40400000e+01 3.57999992e+00 1.37000000e+00
      7.20800018e+01 5.60000002e-01 8.30000019e+00 0. 0. 1.46028475e-19
      6. 6. 4.29655107e+24 1.44374049e-19 1.21023196e+25 1.00284252e+01
      2.84051383e+29 1.80372252e+28 5.97698403e+28</_>
    <_>
      1.51754999e+00 13. 3.59999990e+00 1.36000001e+00 7.29899979e+01
      5.69999993e-01 8.39999962e+00 0. 1.09999999e-01 1.46028475e-19 6.
      6. 6. 1.44374049e-19 1.21023196e+25 1.00284252e+01 2.84051383e+29
      1.80372252e+28 5.97698403e+28</_>
    <_>
      1.51571000e+00 1.27200003e+01 3.46000004e+00 1.55999994e+00
      7.31999969e+01 6.70000017e-01 8.09000015e+00 0. 2.39999995e-01
      1.46028475e-19 6. 6. 6. 1.44374049e-19 1.21023196e+25
      1.00284252e+01 2.84051383e+29 1.80372252e+28 5.97698403e+28</_>
    <_>
      1.51762998e+00 1.28000002e+01 3.66000009e+00 1.26999998e+00
      7.30100021e+01 6.00000024e-01 8.56000042e+00 0. 0. 1.46028475e-19
      24. 6. 6. 1.44374049e-19 1.21023196e+25 1.00284252e+01
      2.84051383e+29 1.80372252e+28 5.97698403e+28</_>
    <_>
      1.51589000e+00 1.28800001e+01 3.43000007e+00 1.39999998e+00
      7.32799988e+01 6.89999998e-01 8.05000019e+00 0. 2.39999995e-01
      1.46028475e-19 24. 6. 6. 1.44374049e-19 1.21023196e+25
      1.00284252e+01 2.84051383e+29 1.80372252e+28 5.97698403e+28</_>
    <_>
      1.51748002e+00 1.28599997e+01 3.55999994e+00 1.26999998e+00
      7.32099991e+01 5.40000021e-01 8.38000011e+00 0. 1.70000002e-01
      1.46028475e-19 24. 6. 6. 1.44374049e-19 1.21023196e+25
      1.00284252e+01 2.84051383e+29 1.80372252e+28 5.97698403e+28</_>
    <_>
      1.51762998e+00 1.26099997e+01 3.58999991e+00 1.30999994e+00
      7.32900009e+01 5.79999983e-01 8.50000000e+00 0. 0. 1.46028475e-19
      17. 6. 6. 1.44374049e-19 1.21023196e+25 1.00284252e+01
      2.84051383e+29 1.80372252e+28 5.97698403e+28</_>
    <_>
      1.51760995e+00 1.28100004e+01 3.53999996e+00 1.23000002e+00
      7.32399979e+01 5.79999983e-01 8.39000034e+00 0. 0. 1.46028475e-19
      7. 6. 6. 1.44374049e-19 1.21023196e+25 1.00284252e+01
      2.84051383e+29 1.80372252e+28 5.97698403e+28</_>
    <_>
      1.51784003e+00 1.26800003e+01 3.67000008e+00 1.15999997e+00
      7.31100006e+01 6.10000014e-01 8.69999981e+00 0. 0. 1.46028475e-19
      7. 7. 6. 1.44374049e-19 1.21023196e+25 1.00284252e+01
      2.84051383e+29 1.80372252e+28 5.97698403e+28</_>
    <_>
      1.52196002e+00 1.43599997e+01 3.84999990e+00 8.89999986e-01
      7.13600006e+01 1.50000006e-01 9.14999962e+00 0. 0. 1.46028475e-19
      7. 7. 6. 1.44374049e-19 1.21023196e+25 1.00284252e+01
      2.84051383e+29 1.80372252e+28 5.97698403e+28</_>
    <_>
      1.51910996e+00 1.38999996e+01 3.73000002e+00 1.17999995e+00
      7.21200027e+01 5.99999987e-02 8.89000034e+00 0. 0. 1.46028475e-19
      7. 7. 6. 1.44374049e-19 1.21023196e+25 1.00284252e+01
      2.84051383e+29 1.80372252e+28 5.97698403e+28</_>
    <_>
      1.51734996e+00 1.30200005e+01 3.53999996e+00 1.69000006e+00
      7.27300034e+01 5.40000021e-01 8.43999958e+00 0. 7.00000003e-02
      1.46028475e-19 7. 7. 6. 1.44374049e-19 1.21023196e+25
      1.00284252e+01 2.84051383e+29 1.80372252e+28 5.97698403e+28</_>
    <_>
      1.51750004e+00 1.28199997e+01 3.54999995e+00 1.49000001e+00
      7.27500000e+01 5.40000021e-01 8.52000046e+00 0. 1.89999998e-01
      1.46028475e-19 7. 7. 6. 1.44374049e-19 1.21023196e+25
      1.00284252e+01 2.84051383e+29 1.80372252e+28 5.97698403e+28</_>
    <_>
      1.51966000e+00 1.47700005e+01 3.75000000e+00 2.89999992e-01
      7.20199966e+01 2.99999993e-02 9. 0. 0. 1.46028475e-19
      1.89999998e-01 7. 6. 1.44374049e-19 1.21023196e+25 1.00284252e+01
      2.84051383e+29 1.80372252e+28 5.97698403e+28</_>
    <_>
      1.51735997e+00 1.27799997e+01 3.61999989e+00 1.28999996e+00
      7.27900009e+01 5.89999974e-01 8.69999981e+00 0. 0. 1.46028475e-19
      9. 7. 6. 1.44374049e-19 1.21023196e+25 1.00284252e+01
      2.84051383e+29 1.80372252e+28 5.97698403e+28</_>
    <_>
      1.51751006e+00 1.28100004e+01 3.56999993e+00 1.35000002e+00
      7.30199966e+01 6.20000005e-01 8.59000015e+00 0. 0. 1.46028475e-19
      9. 7. 6. 1.44374049e-19 1.21023196e+25 1.00284252e+01
      2.84051383e+29 1.80372252e+28 5.97698403e+28</_>
    <_>
      1.51719999e+00 1.33800001e+01 3.50000000e+00 1.14999998e+00
      7.28499985e+01 5.00000000e-01 8.43000031e+00 0. 0. 1.46028475e-19
      0. 7. 6. 1.44374049e-19 1.21023196e+25 1.00284252e+01
      2.84051383e+29 1.80372252e+28 5.97698403e+28</_>
    <_>
      1.51763999e+00 1.29799995e+01 3.53999996e+00 1.21000004e+00 73.
      6.49999976e-01 8.52999973e+00 0. 0. 1.46028475e-19 0. 7. 6.
      1.44374049e-19 1.21023196e+25 1.00284252e+01 2.84051383e+29
      1.80372252e+28 5.97698403e+28</_>
    <_>
      1.51793003e+00 1.32100000e+01 3.48000002e+00 1.40999997e+00
      7.26399994e+01 5.89999974e-01 8.43000031e+00 0. 0. 1.46028475e-19
      0. 7. 6. 1.44374049e-19 1.21023196e+25 1.00284252e+01
      2.84051383e+29 1.80372252e+28 5.97698403e+28</_>
    <_>
      1.51721001e+00 1.28699999e+01 3.48000002e+00 1.33000004e+00
      7.30400009e+01 5.60000002e-01 8.43000031e+00 0. 0. 1.46028475e-19
      0. 7. 6. 1.44374049e-19 1.21023196e+25 1.00284252e+01
      2.84051383e+29 1.80372252e+28 5.97698403e+28</_>
    <_>
      1.51768005e+00 1.25600004e+01 3.51999998e+00 1.42999995e+00
      7.31500015e+01 5.69999993e-01 8.53999996e+00 0. 0. 1.46028475e-19
      0. 7. 6. 1.44374049e-19 1.21023196e+25 1.00284252e+01
      2.84051383e+29 1.80372252e+28 5.97698403e+28</_>
    <_>
      1.51784003e+00 1.30799999e+01 3.49000001e+00 1.27999997e+00
      7.28600006e+01 6.00000024e-01 8.48999977e+00 0. 0. 1.46028475e-19
      0. 7. 6. 1.44374049e-19 1.21023196e+25 1.00284252e+01
      2.84051383e+29 1.80372252e+28 5.97698403e+28</_>
    <_>
      1.51768005e+00 1.26499996e+01 3.55999994e+00 1.29999995e+00
      7.30800018e+01 6.10000014e-01 8.68999958e+00 0. 1.40000001e-01
      1.46028475e-19 0. 7. 6. 1.44374049e-19 1.21023196e+25
      1.00284252e+01 2.84051383e+29 1.80372252e+28 5.97698403e+28</_>
    <_>
      1.51747000e+00 1.28400002e+01 3.50000000e+00 1.13999999e+00
      7.32699966e+01 5.60000002e-01 8.55000019e+00 0. 0. 1.46028475e-19
      4. 7. 6. 1.44374049e-19 1.21023196e+25 1.00284252e+01
      2.84051383e+29 1.80372252e+28 5.97698403e+28</_>
    <_>
      1.51775002e+00 1.28500004e+01 3.48000002e+00 1.23000002e+00
      7.29700012e+01 6.10000014e-01 8.56000042e+00 9.00000036e-02
      2.19999999e-01 1.46028475e-19 4. 7. 6. 1.44374049e-19
      1.21023196e+25 1.00284252e+01 2.84051383e+29 1.80372252e+28
      5.97698403e+28</_>
    <_>
      1.51752996e+00 1.25699997e+01 3.47000003e+00 1.38000000e+00
      7.33899994e+01 6.00000024e-01 8.55000019e+00 0. 5.99999987e-02
      1.46028475e-19 22. 7. 6. 1.44374049e-19 1.21023196e+25
      1.00284252e+01 2.84051383e+29 1.80372252e+28 5.97698403e+28</_>
    <_>
      1.51783001e+00 1.26899996e+01 3.53999996e+00 1.34000003e+00
      7.29499969e+01 5.69999993e-01 8.75000000e+00 0. 0. 1.46028475e-19
      22. 7. 22. 1.44374049e-19 1.21023196e+25 1.00284252e+01
      2.84051383e+29 1.80372252e+28 5.97698403e+28</_>
    <_>
      1.51566994e+00 1.32900000e+01 3.45000005e+00 1.21000004e+00
      7.27399979e+01 5.60000002e-01 8.56999969e+00 0. 0. 1.46028475e-19
      22. 7. 22. 1.44374049e-19 1.21023196e+25 1.00284252e+01
      2.84051383e+29 1.80372252e+28 5.97698403e+28</_>
    <_>
      1.51909006e+00 1.38900003e+01 3.52999997e+00 1.32000005e+00
      7.18099976e+01 5.09999990e-01 8.77999973e+00 1.09999999e-01 0.
      1.46028475e-19 2. 7. 22. 1.44374049e-19 1.21023196e+25
      1.00284252e+01 2.84051383e+29 1.80372252e+28 5.97698403e+28</_>
    <_>
      1.51796997e+00 1.27399998e+01 3.48000002e+00 1.35000002e+00
      7.29599991e+01 6.39999986e-01 8.68000031e+00 0. 0. 1.46028475e-19
      0. 7. 2. 1.44374049e-19 1.21023196e+25 1.00284252e+01
      2.84051383e+29 1.80372252e+28 5.97698403e+28</_>
    <_>
      1.52213001e+00 1.42100000e+01 3.81999993e+00 4.69999999e-01
      7.17699966e+01 1.09999999e-01 9.56999969e+00 0. 0. 1.46028475e-19
      0. 7. 2. 1.44374049e-19 1.21023196e+25 1.00284252e+01
      2.84051383e+29 1.80372252e+28 5.97698403e+28</_>
    <_>
      1.52213001e+00 1.42100000e+01 3.81999993e+00 4.69999999e-01
      7.17699966e+01 1.09999999e-01 9.56999969e+00 0. 0. 1.46028475e-19
      0. 7. 2. 1.44374049e-19 1.21023196e+25 1.00284252e+01
      2.84051383e+29 1.80372252e+28 5.97698403e+28</_>
    <_>
      1.51793003e+00 1.27900000e+01 3.50000000e+00 1.12000000e+00
      7.30299988e+01 6.39999986e-01 8.77000046e+00 0. 0. 1.46028475e-19
      0. 0. 2. 2. 1.21023196e+25 1.00284252e+01 2.84051383e+29
      1.80372252e+28 5.97698403e+28</_>
    <_>
      1.51754999e+00 1.27100000e+01 3.42000008e+00 1.20000005e+00
      7.31999969e+01 5.89999974e-01 8.64000034e+00 0. 0. 1.46028475e-19
      0. 0. 0. 2. 2. 1.00284252e+01 2.84051383e+29 1.80372252e+28
      5.97698403e+28</_>
    <_>
      1.51778996e+00 1.32100000e+01 3.39000010e+00 1.33000004e+00
      7.27600021e+01 5.89999974e-01 8.59000015e+00 0. 0. 1.46028475e-19
      0. 0. 2. 2. 2. 1.00284252e+01 2.84051383e+29 1.80372252e+28
      5.97698403e+28</_>
    <_>
      1.52209997e+00 1.37299995e+01 3.83999991e+00 7.20000029e-01
      7.17600021e+01 1.70000002e-01 9.73999977e+00 0. 0. 1.46028475e-19
      0. 0. 2. 2. 2. 1.00284252e+01 2.84051383e+29 1.80372252e+28
      5.97698403e+28</_>
    <_>
      1.51786005e+00 1.27299995e+01 3.43000007e+00 1.19000006e+00
      7.29499969e+01 6.20000005e-01 8.76000023e+00 0. 3.00000012e-01
      1.46028475e-19 0. 2. 2. 2. 2. 1.00284252e+01 2.84051383e+29
      1.80372252e+28 5.97698403e+28</_>
    <_>
      1.51900005e+00 1.34899998e+01 3.48000002e+00 1.35000002e+00
      7.19499969e+01 5.50000012e-01 9. 0. 0. 1.46028475e-19 0.
      3.00000012e-01 2. 2. 2. 1.00284252e+01 2.84051383e+29
      1.80372252e+28 5.97698403e+28</_>
    <_>
      1.51868999e+00 1.31899996e+01 3.36999989e+00 1.17999995e+00
      7.27200012e+01 5.69999993e-01 8.82999992e+00 0. 1.59999996e-01
      1.46028475e-19 2. 3.00000012e-01 2. 2. 2. 1.00284252e+01
      2.84051383e+29 1.80372252e+28 5.97698403e+28</_>
    <_>
      1.52666998e+00 1.39899998e+01 3.70000005e+00 7.09999979e-01
      7.15699997e+01 1.99999996e-02 9.81999969e+00 0. 1.00000001e-01
      1.46028475e-19 2. 3.00000012e-01 2. 2. 2. 1.00284252e+01
      2.84051383e+29 1.80372252e+28 5.97698403e+28</_>
    <_>
      1.52223003e+00 1.32100000e+01 3.76999998e+00 7.90000021e-01
      7.19899979e+01 1.29999995e-01 1.00200005e+01 0. 0. 1.46028475e-19
      2. 3.00000012e-01 2. 2. 2. 1.00284252e+01 2.84051383e+29
      1.80372252e+28 5.97698403e+28</_>
    <_>
      1.51898003e+00 1.35799999e+01 3.34999990e+00 1.23000002e+00
      7.20800018e+01 5.89999974e-01 8.90999985e+00 0. 0. 1.46028475e-19
      2. 3.00000012e-01 2. 2. 2. 1.00284252e+01 2.84051383e+29
      1.80372252e+28 5.97698403e+28</_>
    <_>
      1.52320004e+00 1.37200003e+01 3.72000003e+00 5.09999990e-01
      7.17500000e+01 9.00000036e-02 1.00600004e+01 0. 1.59999996e-01
      1.46028475e-19 2. 3.00000012e-01 2. 2. 2. 1.00284252e+01
      2.84051383e+29 1.80372252e+28 5.97698403e+28</_>
    <_>
      1.51926005e+00 1.31999998e+01 3.32999992e+00 1.27999997e+00
      7.23600006e+01 6.00000024e-01 9.14000034e+00 0. 1.09999999e-01
      1.46028475e-19 2. 3.00000012e-01 2. 2. 2. 1.00284252e+01
      2.84051383e+29 1.80372252e+28 5.97698403e+28</_>
    <_>
      1.51808000e+00 1.34300003e+01 2.86999989e+00 1.19000006e+00
      7.28399963e+01 5.50000012e-01 9.02999973e+00 0. 0. 1.46028475e-19
      2. 3.00000012e-01 2. 2. 2. 1.00284252e+01 2.84051383e+29
      1.80372252e+28 5.97698403e+28</_>
    <_>
      1.51837003e+00 1.31400003e+01 2.83999991e+00 1.27999997e+00
      7.28499985e+01 5.50000012e-01 9.06999969e+00 0. 0. 1.46028475e-19
      2. 3.00000012e-01 2. 2. 2. 1.00284252e+01 2.84051383e+29
      1.80372252e+28 5.97698403e+28</_>
    <_>
      1.51777995e+00 1.32100000e+01 2.80999994e+00 1.28999996e+00
      7.29800034e+01 5.09999990e-01 9.02000046e+00 0. 9.00000036e-02
      1.46028475e-19 2. 3.00000012e-01 2. 2. 2. 1.00284252e+01
      2.84051383e+29 1.80372252e+28 5.97698403e+28</_>
    <_>
      1.51768994e+00 1.24499998e+01 2.71000004e+00 1.28999996e+00
      7.36999969e+01 5.60000002e-01 9.06000042e+00 0. 2.39999995e-01
      1.46028475e-19 2. 2. 2. 2. 2. 1.00284252e+01 2.84051383e+29
      1.80372252e+28 5.97698403e+28</_>
    <_>
      1.51215005e+00 1.29899998e+01 3.47000003e+00 1.12000000e+00
      7.29800034e+01 6.20000005e-01 8.35000038e+00 0. 3.10000002e-01
      1.46028475e-19 2. 2. 2. 2. 2. 1.00284252e+01 2.84051383e+29
      1.80372252e+28 5.97698403e+28</_>
    <_>
      1.51823997e+00 1.28699999e+01 3.48000002e+00 1.28999996e+00
      7.29499969e+01 6.00000024e-01 8.43000031e+00 0. 0. 1.46028475e-19
      31. 2. 2. 2. 2. 1.00284252e+01 2.84051383e+29 1.80372252e+28
      5.97698403e+28</_>
    <_>
      1.51753998e+00 1.34799995e+01 3.74000001e+00 1.16999996e+00
      7.29899979e+01 5.89999974e-01 8.02999973e+00 0. 0. 1.46028475e-19
      1. 2. 2. 2. 2. 1.00284252e+01 2.84051383e+29 1.80372252e+28
      5.97698403e+28</_>
    <_>
      1.51753998e+00 1.33900003e+01 3.66000009e+00 1.19000006e+00
      7.27900009e+01 5.69999993e-01 8.27000046e+00 0. 1.09999999e-01
      1.46028475e-19 2. 2. 2. 2. 2. 1.00284252e+01 2.84051383e+29
      1.80372252e+28 5.97698403e+28</_>
    <_>
      1.51905000e+00 1.36000004e+01 3.61999989e+00 1.11000001e+00
      7.26399994e+01 1.40000001e-01 8.76000023e+00 0. 0. 1.46028475e-19
      11. 2. 2. 2. 2. 1.00284252e+01 2.84051383e+29 1.80372252e+28
      5.97698403e+28</_>
    <_>
      1.51977003e+00 1.38100004e+01 3.57999992e+00 1.32000005e+00
      7.17200012e+01 1.19999997e-01 8.67000008e+00 6.89999998e-01 0.
      1.46028475e-19 2. 2. 2. 2. 2. 1.00284252e+01 2.84051383e+29
      1.80372252e+28 5.97698403e+28</_>
    <_>
      1.52172005e+00 1.35100002e+01 3.85999990e+00 8.79999995e-01
      7.17900009e+01 2.30000004e-01 9.53999996e+00 0. 1.09999999e-01
      1.46028475e-19 2. 2. 2. 2. 2. 1.00284252e+01 2.84051383e+29
      1.80372252e+28 5.97698403e+28</_>
    <_>
      1.52226996e+00 1.41700001e+01 3.80999994e+00 7.79999971e-01
      7.13499985e+01 0. 9.68999958e+00 0. 0. 1.46028475e-19
      1.09999999e-01 2. 2. 2. 2. 1.00284252e+01 2.84051383e+29
      1.80372252e+28 5.97698403e+28</_>
    <_>
      1.52172005e+00 1.34799995e+01 3.74000001e+00 8.99999976e-01
      7.20100021e+01 1.80000007e-01 9.60999966e+00 0. 7.00000003e-02
      1.46028475e-19 1.09999999e-01 2. 2. 2. 2. 1.00284252e+01
      2.84051383e+29 1.80372252e+28 5.97698403e+28</_>
    <_>
      1.52099001e+00 1.36899996e+01 3.58999991e+00 1.12000000e+00
      7.19599991e+01 9.00000036e-02 9.39999962e+00 0. 0. 1.46028475e-19
      7. 2. 2. 2. 2. 1.00284252e+01 2.84051383e+29 1.80372252e+28
      5.97698403e+28</_>
    <_>
      1.52152002e+00 1.30500002e+01 3.65000010e+00 8.70000005e-01
      7.22200012e+01 1.89999998e-01 9.85000038e+00 0. 1.70000002e-01
      1.46028475e-19 2. 2. 2. 2. 2. 1.00284252e+01 2.84051383e+29
      1.80372252e+28 5.97698403e+28</_>
    <_>
      1.52152002e+00 1.30500002e+01 3.65000010e+00 8.70000005e-01
      7.23199997e+01 1.89999998e-01 9.85000038e+00 0. 1.70000002e-01
      1.46028475e-19 2. 2. 2. 2. 2. 1.00284252e+01 2.84051383e+29
      1.80372252e+28 5.97698403e+28</_>
    <_>
      1.52152002e+00 1.31199999e+01 3.57999992e+00 8.99999976e-01
      7.21999969e+01 2.30000004e-01 9.81999969e+00 0. 1.59999996e-01
      1.46028475e-19 2. 2. 2. 2. 2. 1.00284252e+01 2.84051383e+29
      1.80372252e+28 5.97698403e+28</_>
    <_>
      1.52300000e+00 1.33100004e+01 3.57999992e+00 8.19999993e-01
      7.19899979e+01 1.19999997e-01 1.01700001e+01 0. 2.99999993e-02
      1.46028475e-19 2. 2. 2. 2. 2. 1.00284252e+01 2.84051383e+29
      1.80372252e+28 5.97698403e+28</_>
    <_>
      1.51574004e+00 1.48599997e+01 3.67000008e+00 1.74000001e+00
      7.18700027e+01 1.59999996e-01 7.36000013e+00 0. 1.19999997e-01
      1.46028475e-19 2. 2. 2. 2. 2. 1.00284252e+01 2.84051383e+29
      1.80372252e+28 5.97698403e+28</_>
    <_>
      1.51847994e+00 1.36400003e+01 3.86999989e+00 1.26999998e+00
      7.19599991e+01 5.40000021e-01 8.31999969e+00 0. 3.19999993e-01
      1.46028475e-19 2. 2. 2. 2. 2. 1.00284252e+01 2.84051383e+29
      1.80372252e+28 5.97698403e+28</_>
    <_>
      1.51593006e+00 1.30900002e+01 3.58999991e+00 1.51999998e+00
      7.30999985e+01 6.70000017e-01 7.82999992e+00 0. 0. 1.46028475e-19
      32. 2. 2. 2. 2. 1.00284252e+01 2.84051383e+29 1.80372252e+28
      5.97698403e+28</_>
    <_>
      1.51630998e+00 1.33400002e+01 3.56999993e+00 1.57000005e+00
      7.28700027e+01 6.10000014e-01 7.88999987e+00 0. 0. 1.46028475e-19
      2. 2. 2. 2. 2. 1.00284252e+01 2.84051383e+29 1.80372252e+28
      5.97698403e+28</_>
    <_>
      1.51595998e+00 1.30200005e+01 3.55999994e+00 1.53999996e+00
      7.31100006e+01 7.20000029e-01 7.90000010e+00 0. 0. 1.46028475e-19
      2. 2. 2. 2. 2. 1.00284252e+01 2.84051383e+29 1.80372252e+28
      5.97698403e+28</_>
    <_>
      1.51590002e+00 1.30200005e+01 3.57999992e+00 1.50999999e+00
      7.31200027e+01 6.89999998e-01 7.96000004e+00 0. 0. 1.46028475e-19
      2. 2. 2. 2. 2. 1.00284252e+01 2.84051383e+29 1.80372252e+28
      5.97698403e+28</_>
    <_>
      1.51645005e+00 1.34399996e+01 3.60999990e+00 1.53999996e+00
      7.23899994e+01 6.60000026e-01 8.02999973e+00 0. 0. 1.46028475e-19
      2. 2. 2. 2. 2. 1.00284252e+01 2.84051383e+29 1.80372252e+28
      5.97698403e+28</_>
    <_>
      1.51627004e+00 13. 3.57999992e+00 1.53999996e+00 7.28300018e+01
      6.10000014e-01 8.03999996e+00 0. 0. 1.46028475e-19 0. 2. 2. 2. 2.
      1.00284252e+01 2.84051383e+29 1.80372252e+28 5.97698403e+28</_>
    <_>
      1.51612997e+00 1.39200001e+01 3.51999998e+00 1.25000000e+00
      7.28799973e+01 3.70000005e-01 7.94000006e+00 0. 1.40000001e-01
      1.46028475e-19 2. 2. 2. 2. 2. 1.00284252e+01 2.84051383e+29
      1.80372252e+28 5.97698403e+28</_>
    <_>
      1.51590002e+00 1.28199997e+01 3.51999998e+00 1.89999998e+00
      7.28600006e+01 6.89999998e-01 7.96999979e+00 0. 0. 1.46028475e-19
      1.40000001e-01 2. 2. 2. 2. 1.00284252e+01 2.84051383e+29
      1.80372252e+28 5.97698403e+28</_>
    <_>
      1.51592004e+00 1.28599997e+01 3.51999998e+00 2.11999989e+00
      7.26600037e+01 6.89999998e-01 7.96999979e+00 0. 0. 1.46028475e-19
      4. 2. 2. 2. 2. 1.00284252e+01 2.84051383e+29 1.80372252e+28
      5.97698403e+28</_>
    <_>
      1.51593006e+00 1.32500000e+01 3.45000005e+00 1.42999995e+00
      7.31699982e+01 6.10000014e-01 7.86000013e+00 0. 0. 1.46028475e-19
      4. 2. 2. 2. 2. 1.00284252e+01 2.84051383e+29 1.80372252e+28
      5.97698403e+28</_>
    <_>
      1.51645994e+00 1.34099998e+01 3.54999995e+00 1.25000000e+00
      7.28099976e+01 6.80000007e-01 8.10000038e+00 0. 0. 1.46028475e-19
      4. 4. 2. 2. 2. 1.00284252e+01 2.84051383e+29 1.80372252e+28
      5.97698403e+28</_>
    <_>
      1.51593995e+00 1.30900002e+01 3.51999998e+00 1.54999995e+00
      7.28700027e+01 6.80000007e-01 8.05000019e+00 0. 9.00000036e-02
      1.46028475e-19 2. 4. 2. 2. 2. 1.00284252e+01 2.84051383e+29
      1.80372252e+28 5.97698403e+28</_>
    <_>
      1.51408994e+00 1.42500000e+01 3.08999991e+00 2.07999992e+00
      7.22799988e+01 1.10000002e+00 7.07999992e+00 0. 0. 1.46028475e-19
      9. 4. 2. 2. 2. 1.00284252e+01 2.84051383e+29 1.80372252e+28
      5.97698403e+28</_>
    <_>
      1.51625001e+00 1.33599997e+01 3.57999992e+00 1.49000001e+00
      7.27200012e+01 4.49999988e-01 8.21000004e+00 0. 0. 1.46028475e-19
      9. 4. 2. 2. 2. 1.00284252e+01 2.84051383e+29 1.80372252e+28
      5.97698403e+28</_>
    <_>
      1.51568997e+00 1.32399998e+01 3.49000001e+00 1.47000003e+00
      7.32500000e+01 3.79999995e-01 8.02999973e+00 0. 0. 1.46028475e-19
      9. 4. 2. 2. 2. 1.00284252e+01 2.84051383e+29 1.80372252e+28
      5.97698403e+28</_>
    <_>
      1.51645005e+00 1.33999996e+01 3.49000001e+00 1.51999998e+00
      7.26500015e+01 6.70000017e-01 8.07999992e+00 0. 1.00000001e-01
      1.46028475e-19 9. 4. 2. 2. 2. 1.00284252e+01 2.84051383e+29
      1.80372252e+28 5.97698403e+28</_>
    <_>
      1.51618004e+00 1.30100002e+01 3.50000000e+00 1.48000002e+00
      7.28899994e+01 6.00000024e-01 8.11999989e+00 0. 0. 1.46028475e-19
      1. 4. 2. 2. 2. 1.00284252e+01 2.84051383e+29 1.80372252e+28
      5.97698403e+28</_>
    <_>
      1.51639998e+00 1.25500002e+01 3.48000002e+00 1.87000000e+00
      7.32300034e+01 6.29999995e-01 8.07999992e+00 0. 9.00000036e-02
      1.46028475e-19 1. 2. 2. 2. 2. 1.00284252e+01 2.84051383e+29
      1.80372252e+28 5.97698403e+28</_>
    <_>
      1.51840997e+00 1.29300003e+01 3.74000001e+00 1.11000001e+00
      7.22799988e+01 6.39999986e-01 8.96000004e+00 0. 2.19999999e-01
      1.46028475e-19 2. 2. 2. 2. 2. 1.00284252e+01 2.84051383e+29
      1.80372252e+28 5.97698403e+28</_>
    <_>
      1.51604998e+00 1.28999996e+01 3.44000006e+00 1.45000005e+00
      7.30599976e+01 4.39999998e-01 8.27000046e+00 0. 0. 1.46028475e-19
      22. 2. 2. 2. 2. 1.00284252e+01 2.84051383e+29 1.80372252e+28
      5.97698403e+28</_>
    <_>
      1.51587999e+00 1.31199999e+01 3.41000009e+00 1.58000004e+00
      7.32600021e+01 7.00000003e-02 8.39000034e+00 0. 1.89999998e-01
      1.46028475e-19 2. 2. 2. 2. 2. 1.00284252e+01 2.84051383e+29
      1.80372252e+28 5.97698403e+28</_>
    <_>
      1.51590002e+00 1.32399998e+01 3.33999991e+00 1.47000003e+00
      7.30999985e+01 3.89999986e-01 8.22000027e+00 0. 0. 1.46028475e-19
      1.89999998e-01 2. 2. 2. 2. 1.00284252e+01 2.84051383e+29
      1.80372252e+28 5.97698403e+28</_>
    <_>
      1.51628995e+00 1.27100000e+01 3.32999992e+00 1.49000001e+00
      7.32799988e+01 6.70000017e-01 8.23999977e+00 0. 0. 1.46028475e-19
      9. 2. 2. 2. 2. 1.00284252e+01 2.84051383e+29 1.80372252e+28
      5.97698403e+28</_>
    <_>
      1.51859999e+00 1.33599997e+01 3.43000007e+00 1.42999995e+00
      7.22600021e+01 5.09999990e-01 8.60000038e+00 0. 0. 1.46028475e-19
      9. 2. 9. 2. 2. 1.00284252e+01 2.84051383e+29 1.80372252e+28
      5.97698403e+28</_>
    <_>
      1.51840997e+00 1.30200005e+01 3.61999989e+00 1.05999994e+00
      7.23399963e+01 6.39999986e-01 9.13000011e+00 0. 1.50000006e-01
      1.46028475e-19 2. 2. 9. 2. 2. 1.00284252e+01 2.84051383e+29
      1.80372252e+28 5.97698403e+28</_>
    <_>
      1.51742995e+00 1.21999998e+01 3.25000000e+00 1.15999997e+00
      7.35500031e+01 6.20000005e-01 8.89999962e+00 0. 2.39999995e-01
      1.46028475e-19 2. 2. 2. 2. 2. 1.00284252e+01 2.84051383e+29
      1.80372252e+28 5.97698403e+28</_>
    <_>
      1.51689005e+00 1.26700001e+01 2.88000011e+00 1.71000004e+00
      7.32099991e+01 7.30000019e-01 8.53999996e+00 0. 0. 1.46028475e-19
      2. 2. 2. 2. 2. 1.00284252e+01 2.84051383e+29 1.80372252e+28
      5.97698403e+28</_>
    <_>
      1.51811004e+00 1.29600000e+01 2.96000004e+00 1.42999995e+00
      7.29199982e+01 6.00000024e-01 8.78999996e+00 1.40000001e-01 0.
      1.46028475e-19 2. 2. 2. 2. 2. 1.00284252e+01 2.84051383e+29
      1.80372252e+28 5.97698403e+28</_>
    <_>
      1.51654994e+00 1.27500000e+01 2.84999990e+00 1.44000006e+00
      7.32699966e+01 5.69999993e-01 8.78999996e+00 1.09999999e-01
      2.19999999e-01 1.46028475e-19 2. 2. 2. 2. 2. 1.00284252e+01
      2.84051383e+29 1.80372252e+28 5.97698403e+28</_>
    <_>
      1.51730001e+00 1.23500004e+01 2.72000003e+00 1.63000000e+00
      7.28700027e+01 6.99999988e-01 9.22999954e+00 0. 0. 1.46028475e-19
      1. 2.19999999e-01 2. 2. 2. 1.00284252e+01 2.84051383e+29
      1.80372252e+28 5.97698403e+28</_>
    <_>
      1.51820004e+00 1.26199999e+01 2.75999999e+00 8.29999983e-01
      7.38099976e+01 3.49999994e-01 9.42000008e+00 0. 2.00000003e-01
      1.46028475e-19 2.19999999e-01 2.19999999e-01 2. 2. 2.
      1.00284252e+01 2.84051383e+29 1.80372252e+28 5.97698403e+28</_>
    <_>
      1.52725005e+00 1.38000002e+01 3.15000010e+00 6.60000026e-01
      7.05699997e+01 7.99999982e-02 1.16400003e+01 0. 0. 1.46028475e-19
      2.19999999e-01 2.19999999e-01 2. 2. 2. 1.00284252e+01
      2.84051383e+29 1.80372252e+28 5.97698403e+28</_>
    <_>
      1.52409995e+00 1.38299999e+01 2.90000010e+00 1.16999996e+00
      7.11500015e+01 7.99999982e-02 1.07900000e+01 0. 0. 1.46028475e-19
      2.19999999e-01 2.19999999e-01 2.19999999e-01 2. 2. 1.00284252e+01
      2.84051383e+29 1.80372252e+28 5.97698403e+28</_>
    <_>
      1.52474999e+00 1.14499998e+01 0. 1.88000000e+00 7.21900024e+01
      8.10000002e-01 1.32399998e+01 0. 3.40000004e-01 1.46028475e-19
      2.19999999e-01 2.19999999e-01 2.19999999e-01 2. 2. 1.00284252e+01
      2.84051383e+29 1.80372252e+28 5.97698403e+28</_>
    <_>
      1.53125000e+00 1.07299995e+01 0. 2.09999990e+00 6.98099976e+01
      5.79999983e-01 1.33000002e+01 3.15000010e+00 2.80000001e-01
      1.46028475e-19 22. 2.19999999e-01 2.19999999e-01 2. 2.
      1.00284252e+01 2.84051383e+29 1.80372252e+28 5.97698403e+28</_>
    <_>
      1.53392994e+00 1.23000002e+01 0. 1. 7.01600037e+01 1.19999997e-01
      1.61900005e+01 0. 2.39999995e-01 1.46028475e-19 2.80000001e-01
      2.19999999e-01 22. 2. 2. 1.00284252e+01 2.84051383e+29
      1.80372252e+28 5.97698403e+28</_>
    <_>
      1.52222002e+00 1.44300003e+01 0. 1. 7.26699982e+01 1.00000001e-01
      1.15200005e+01 0. 7.99999982e-02 1.46028475e-19 2.80000001e-01
      2.19999999e-01 22. 2. 2. 1.00284252e+01 2.84051383e+29
      1.80372252e+28 5.97698403e+28</_>
    <_>
      1.51818001e+00 1.37200003e+01 0. 5.60000002e-01 7.44499969e+01 0.
      1.09899998e+01 0. 0. 1.46028475e-19 2.80000001e-01 2.19999999e-01
      2.80000001e-01 2. 22. 1.00284252e+01 2.84051383e+29 1.80372252e+28
      5.97698403e+28</_>
    <_>
      1.52664006e+00 1.12299995e+01 0. 7.69999981e-01 7.32099991e+01 0.
      1.46800003e+01 0. 0. 1.46028475e-19 2.80000001e-01 2.19999999e-01
      2.80000001e-01 2. 22. 1.00284252e+01 2.84051383e+29 1.80372252e+28
      5.97698403e+28</_>
    <_>
      1.52739000e+00 1.10200005e+01 0. 7.50000000e-01 7.30800018e+01 0.
      1.49600000e+01 0. 0. 1.46028475e-19 2.80000001e-01 2.19999999e-01
      2.80000001e-01 2. 22. 1.00284252e+01 2.84051383e+29 1.80372252e+28
      5.97698403e+28</_>
    <_>
      1.52777004e+00 1.26400003e+01 0. 6.70000017e-01 7.20199966e+01
      5.99999987e-02 1.43999996e+01 0. 0. 1.46028475e-19 2.80000001e-01
      2.19999999e-01 22. 2. 22. 1.00284252e+01 2.84051383e+29
      1.80372252e+28 5.97698403e+28</_>
    <_>
      1.51891994e+00 1.34600000e+01 3.82999992e+00 1.25999999e+00
      7.25500031e+01 5.69999993e-01 8.21000004e+00 0. 1.40000001e-01
      1.46028475e-19 2. 2.19999999e-01 22. 2. 22. 1.00284252e+01
      2.84051383e+29 1.80372252e+28 5.97698403e+28</_>
    <_>
      1.51847005e+00 1.31000004e+01 3.97000003e+00 1.19000006e+00
      7.24400024e+01 6.00000024e-01 8.43000031e+00 0. 0. 1.46028475e-19
      1.40000001e-01 2.19999999e-01 2. 2. 22. 1.00284252e+01
      2.84051383e+29 1.80372252e+28 5.97698403e+28</_>
    <_>
      1.51846004e+00 1.34099998e+01 3.89000010e+00 1.33000004e+00
      7.23799973e+01 5.09999990e-01 8.27999973e+00 0. 0. 1.46028475e-19
      4. 2.19999999e-01 2. 2. 22. 1.00284252e+01 2.84051383e+29
      1.80372252e+28 5.97698403e+28</_>
    <_>
      1.51829004e+00 1.32399998e+01 3.90000010e+00 1.40999997e+00
      7.23300018e+01 5.50000012e-01 8.31000042e+00 0. 1.00000001e-01
      1.46028475e-19 4. 2.19999999e-01 2. 2. 22. 1.00284252e+01
      2.84051383e+29 1.80372252e+28 5.97698403e+28</_>
    <_>
      1.51707995e+00 1.37200003e+01 3.68000007e+00 1.80999994e+00
      7.20599976e+01 6.39999986e-01 7.88000011e+00 0. 0. 1.46028475e-19
      4. 2.19999999e-01 2. 2. 22. 1.00284252e+01 2.84051383e+29
      1.80372252e+28 5.97698403e+28</_>
    <_>
      1.51672995e+00 1.33000002e+01 3.64000010e+00 1.52999997e+00
      7.25299988e+01 6.49999976e-01 8.02999973e+00 0. 2.89999992e-01
      1.46028475e-19 4. 2. 2. 2. 22. 1.00284252e+01 2.84051383e+29
      1.80372252e+28 5.97698403e+28</_>
    <_>
      1.51652002e+00 1.35600004e+01 3.56999993e+00 1.47000003e+00
      7.24499969e+01 6.39999986e-01 7.96000004e+00 0. 0. 1.46028475e-19
      4. 2. 2. 2. 22. 1.00284252e+01 2.84051383e+29 1.80372252e+28
      5.97698403e+28</_>
    <_>
      1.51844001e+00 1.32500000e+01 3.75999999e+00 1.32000005e+00
      7.24000015e+01 5.79999983e-01 8.42000008e+00 0. 0. 1.46028475e-19
      4. 2. 2. 2. 2. 1.00284252e+01 2.84051383e+29 1.80372252e+28
      5.97698403e+28</_>
    <_>
      1.51663005e+00 1.29300003e+01 3.53999996e+00 1.62000000e+00
      7.29599991e+01 6.39999986e-01 8.02999973e+00 0. 2.09999993e-01
      1.46028475e-19 2. 2. 2. 2. 2. 1.00284252e+01 2.84051383e+29
      1.80372252e+28 5.97698403e+28</_>
    <_>
      1.51687002e+00 1.32299995e+01 3.53999996e+00 1.48000002e+00
      7.28399963e+01 5.60000002e-01 8.10000038e+00 0. 0. 1.46028475e-19
      21. 2. 2. 2. 2. 1.00284252e+01 2.84051383e+29 1.80372252e+28
      5.97698403e+28</_>
    <_>
      1.51707006e+00 1.34799995e+01 3.48000002e+00 1.71000004e+00
      7.25199966e+01 6.20000005e-01 7.98999977e+00 0. 0. 1.46028475e-19
      1. 2. 2. 2. 2. 1.00284252e+01 2.84051383e+29 1.80372252e+28
      5.97698403e+28</_>
    <_>
      1.52177000e+00 1.31999998e+01 3.68000007e+00 1.14999998e+00
      7.27500000e+01 5.40000021e-01 8.52000046e+00 0. 0. 1.46028475e-19
      1. 1. 2. 2. 2. 1.00284252e+01 2.84051383e+29 1.80372252e+28
      5.97698403e+28</_>
    <_>
      1.51872003e+00 1.29300003e+01 3.66000009e+00 1.55999994e+00
      7.25100021e+01 5.79999983e-01 8.55000019e+00 0. 1.19999997e-01
      1.46028475e-19 2. 1. 2. 2. 2. 1.00284252e+01 2.84051383e+29
      1.80372252e+28 5.97698403e+28</_>
    <_>
      1.51666999e+00 1.29399996e+01 3.60999990e+00 1.25999999e+00
      7.27500000e+01 5.60000002e-01 8.60000038e+00 0. 0. 1.46028475e-19
      12. 1. 2. 2. 2. 1.00284252e+01 2.84051383e+29 1.80372252e+28
      5.97698403e+28</_>
    <_>
      1.52081001e+00 1.37799997e+01 2.27999997e+00 1.42999995e+00
      7.19899979e+01 4.90000010e-01 9.85000038e+00 0. 1.70000002e-01
      1.46028475e-19 2. 1. 2. 2. 2. 1.00284252e+01 2.84051383e+29
      1.80372252e+28 5.97698403e+28</_>
    <_>
      1.52067995e+00 1.35500002e+01 2.08999991e+00 1.66999996e+00
      7.21800003e+01 5.29999971e-01 9.56999969e+00 2.70000011e-01
      1.70000002e-01 1.46028475e-19 2. 1. 2. 2. 2. 1.00284252e+01
      2.84051383e+29 1.80372252e+28 5.97698403e+28</_>
    <_>
      1.52020001e+00 1.39799995e+01 1.35000002e+00 1.63000000e+00
      7.17600021e+01 3.89999986e-01 1.05600004e+01 0. 1.80000007e-01
      1.46028475e-19 7. 1. 2. 2. 2. 1.00284252e+01 2.84051383e+29
      1.80372252e+28 5.97698403e+28</_>
    <_>
      1.52177000e+00 1.37500000e+01 1.00999999e+00 1.36000001e+00
      7.21900024e+01 3.30000013e-01 1.11400003e+01 0. 0. 1.46028475e-19
      7. 1. 7. 2. 2. 1.00284252e+01 2.84051383e+29 1.80372252e+28
      5.97698403e+28</_>
    <_>
      1.52613997e+00 1.36999998e+01 0. 1.36000001e+00 7.12399979e+01
      1.89999998e-01 1.34399996e+01 0. 1.00000001e-01 1.46028475e-19 7.
      1. 7. 2. 7. 1.00284252e+01 2.84051383e+29 1.80372252e+28
      5.97698403e+28</_>
    <_>
      1.51812994e+00 1.34300003e+01 3.98000002e+00 1.17999995e+00
      7.24899979e+01 5.79999983e-01 8.14999962e+00 0. 0. 1.46028475e-19
      7. 1. 7. 7. 7. 1.00284252e+01 2.84051383e+29 1.80372252e+28
      5.97698403e+28</_>
    <_>
      1.51800001e+00 1.37100000e+01 3.93000007e+00 1.53999996e+00
      7.18099976e+01 5.40000021e-01 8.21000004e+00 0. 1.50000006e-01
      1.46028475e-19 7. 1. 7. 7. 7. 1.00284252e+01 2.84051383e+29
      1.80372252e+28 5.97698403e+28</_>
    <_>
      1.51811004e+00 1.33299999e+01 3.84999990e+00 1.25000000e+00
      7.27799988e+01 5.19999981e-01 8.11999989e+00 0. 0. 1.46028475e-19
      7. 1. 7. 7. 7. 1.00284252e+01 2.84051383e+29 1.80372252e+28
      5.97698403e+28</_>
    <_>
      1.51788998e+00 1.31899996e+01 3.90000010e+00 1.29999995e+00
      7.23300018e+01 5.50000012e-01 8.43999958e+00 0. 2.80000001e-01
      1.46028475e-19 7. 1. 7. 7. 7. 1.00284252e+01 2.84051383e+29
      1.80372252e+28 5.97698403e+28</_>
    <_>
      1.51805997e+00 13. 3.79999995e+00 1.08000004e+00 7.30699997e+01
      5.60000002e-01 8.38000011e+00 0. 1.19999997e-01 1.46028475e-19 7.
      1. 7. 7. 7. 1.00284252e+01 2.84051383e+29 1.80372252e+28
      5.97698403e+28</_>
    <_>
      1.51710999e+00 1.28900003e+01 3.61999989e+00 1.57000005e+00
      7.29599991e+01 6.10000014e-01 8.10999966e+00 0. 0. 1.46028475e-19
      7. 1. 7. 7. 7. 1.00284252e+01 2.84051383e+29 1.80372252e+28
      5.97698403e+28</_>
    <_>
      1.51673996e+00 1.27900000e+01 3.51999998e+00 1.53999996e+00
      7.33600006e+01 6.60000026e-01 7.90000010e+00 0. 0. 1.46028475e-19
      7. 1. 7. 7. 7. 1.00284252e+01 2.84051383e+29 1.80372252e+28
      5.97698403e+28</_>
    <_>
      1.51673996e+00 1.28699999e+01 3.55999994e+00 1.63999999e+00
      7.31399994e+01 6.49999976e-01 7.98999977e+00 0. 0. 1.46028475e-19
      7. 1. 7. 7. 7. 1.00284252e+01 2.84051383e+29 1.80372252e+28
      5.97698403e+28</_>
    <_>
      1.51768994e+00 1.36499996e+01 3.66000009e+00 1.11000001e+00
      7.27699966e+01 1.09999999e-01 8.60000038e+00 0. 0. 1.46028475e-19
      35. 2.50000000e-01 5. 7. 7. 1.00284252e+01 2.84051383e+29
      1.80372252e+28 5.97698403e+28</_>
    <_>
      1.51610005e+00 1.33299999e+01 3.52999997e+00 1.34000003e+00
      7.26699982e+01 5.60000002e-01 8.32999992e+00 0. 0. 1.46028475e-19
      35. 2.50000000e-01 5. 7. 7. 1.00284252e+01 2.84051383e+29
      1.80372252e+28 5.97698403e+28</_>
    <_>
      1.51670003e+00 1.32399998e+01 3.56999993e+00 1.38000000e+00
      7.26999969e+01 5.60000002e-01 8.43999958e+00 0. 1.00000001e-01
      1.46028475e-19 5. 2.50000000e-01 5. 7. 7. 1.00284252e+01
      2.84051383e+29 1.80372252e+28 5.97698403e+28</_>
    <_>
      1.51643002e+00 1.21599998e+01 3.51999998e+00 1.35000002e+00
      7.28899994e+01 5.69999993e-01 8.52999973e+00 0. 0. 1.46028475e-19
      5. 2.50000000e-01 5. 7. 7. 1.00284252e+01 2.84051383e+29
      1.80372252e+28 5.97698403e+28</_>
    <_>
      1.51664996e+00 1.31400003e+01 3.45000005e+00 1.75999999e+00
      7.24800034e+01 6.00000024e-01 8.38000011e+00 0. 1.70000002e-01
      1.46028475e-19 5. 5. 5. 7. 7. 1.00284252e+01 2.84051383e+29
      1.80372252e+28 5.97698403e+28</_>
    <_>
      1.52127004e+00 1.43199997e+01 3.90000010e+00 8.29999983e-01
      7.15000000e+01 0. 9.48999977e+00 0. 0. 1.46028475e-19 5.
      1.70000002e-01 5. 7. 5. 1.00284252e+01 2.84051383e+29
      1.80372252e+28 5.97698403e+28</_>
    <_>
      1.51778996e+00 1.36400003e+01 3.65000010e+00 6.49999976e-01 73.
      5.99999987e-02 8.93000031e+00 0. 0. 1.46028475e-19 1.70000002e-01
      1.70000002e-01 5. 5. 5. 1.00284252e+01 2.84051383e+29
      1.80372252e+28 5.97698403e+28</_>
    <_>
      1.51610005e+00 1.34200001e+01 3.40000010e+00 1.22000003e+00
      7.26900024e+01 5.89999974e-01 8.31999969e+00 0. 0. 1.46028475e-19
      17. 1.70000002e-01 5. 5. 5. 1.00284252e+01 2.84051383e+29
      1.80372252e+28 5.97698403e+28</_>
    <_>
      1.51694000e+00 1.28599997e+01 3.57999992e+00 1.30999994e+00
      7.26100006e+01 6.10000014e-01 8.78999996e+00 0. 0. 1.46028475e-19
      17. 1.70000002e-01 5. 5. 5. 1.00284252e+01 2.84051383e+29
      1.80372252e+28 5.97698403e+28</_>
    <_>
      1.51645994e+00 1.30400000e+01 3.40000010e+00 1.25999999e+00
      7.30100021e+01 5.19999981e-01 8.57999992e+00 0. 0. 1.46028475e-19
      17. 1.70000002e-01 5. 5. 5. 1.00284252e+01 2.84051383e+29
      1.80372252e+28 5.97698403e+28</_>
    <_>
      1.51654994e+00 1.34099998e+01 3.39000010e+00 1.27999997e+00
      7.26399994e+01 5.19999981e-01 8.64999962e+00 0. 0. 1.46028475e-19
      17. 1.70000002e-01 5. 5. 5. 1.00284252e+01 2.84051383e+29
      1.80372252e+28 5.97698403e+28</_>
    <_>
      1.52120996e+00 1.40299997e+01 3.75999999e+00 5.79999983e-01
      7.17900009e+01 1.09999999e-01 9.64999962e+00 0. 0. 1.46028475e-19
      17. 1.70000002e-01 5. 5. 5. 1.00284252e+01 2.84051383e+29
      1.80372252e+28 5.97698403e+28</_>
    <_>
      1.51776004e+00 1.35299997e+01 3.41000009e+00 1.51999998e+00
      7.20400009e+01 5.79999983e-01 8.78999996e+00 0. 0. 1.46028475e-19
      17. 1.70000002e-01 5. 5. 5. 1.00284252e+01 2.84051383e+29
      1.80372252e+28 5.97698403e+28</_>
    <_>
      1.51795995e+00 1.35000000e+01 3.35999990e+00 1.63000000e+00
      7.19400024e+01 5.69999993e-01 8.81000042e+00 0. 9.00000036e-02
      1.46028475e-19 17. 5. 5. 5. 5. 1.00284252e+01 2.84051383e+29
      1.80372252e+28 5.97698403e+28</_>
    <_>
      1.51831996e+00 1.33299999e+01 3.33999991e+00 1.53999996e+00
      7.21399994e+01 5.60000002e-01 8.98999977e+00 0. 0. 1.46028475e-19
      17. 5. 5. 5. 5. 1.00284252e+01 2.84051383e+29 1.80372252e+28
      5.97698403e+28</_>
    <_>
      1.51934004e+00 1.36400003e+01 3.53999996e+00 7.50000000e-01
      7.26500015e+01 1.59999996e-01 8.89000034e+00 1.50000006e-01
      2.39999995e-01 1.46028475e-19 17. 5. 5. 5. 5. 1.00284252e+01
      2.84051383e+29 1.80372252e+28 5.97698403e+28</_>
    <_>
      1.52210999e+00 1.41899996e+01 3.77999997e+00 9.10000026e-01
      7.13600006e+01 2.30000004e-01 9.14000034e+00 0. 3.70000005e-01
      1.46028475e-19 4. 5. 5. 5. 5. 1.00284252e+01 2.84051383e+29
      1.80372252e+28 5.97698403e+28</_>
    <_>
      1.51514006e+00 1.40100002e+01 2.68000007e+00 3.50000000e+00
      6.98899994e+01 1.67999995e+00 5.86999989e+00 2.20000005e+00 0.
      1.46028475e-19 4. 5. 4. 5. 5. 1.00284252e+01 2.84051383e+29
      1.80372252e+28 5.97698403e+28</_>
    <_>
      1.51915002e+00 1.27299995e+01 1.85000002e+00 1.86000001e+00
      7.26900024e+01 6.00000024e-01 1.00900002e+01 0. 0. 1.46028475e-19
      4. 5. 4. 4. 5. 1.00284252e+01 2.84051383e+29 1.80372252e+28
      5.97698403e+28</_>
    <_>
      1.52171004e+00 1.15600004e+01 1.88000000e+00 1.55999994e+00
      7.28600006e+01 4.69999999e-01 1.14099998e+01 0. 0. 1.46028475e-19
      4. 5. 4. 4. 5. 1.00284252e+01 2.84051383e+29 1.80372252e+28
      5.97698403e+28</_>
    <_>
      1.52151000e+00 1.10299997e+01 1.71000004e+00 1.55999994e+00
      7.34400024e+01 5.79999983e-01 1.16199999e+01 0. 0. 1.46028475e-19
      4. 5. 4. 4. 5. 1.00284252e+01 2.84051383e+29 1.80372252e+28
      5.97698403e+28</_>
    <_>
      1.51969004e+00 1.26400003e+01 0. 1.64999998e+00 7.37500000e+01
      3.79999995e-01 1.15299997e+01 0. 0. 1.46028475e-19 0. 5. 4. 4. 4.
      1.00284252e+01 2.84051383e+29 1.80372252e+28 5.97698403e+28</_>
    <_>
      1.51665998e+00 1.28599997e+01 0. 1.83000004e+00 7.38799973e+01
      9.70000029e-01 1.01700001e+01 0. 0. 1.46028475e-19 0. 5. 4. 4. 4.
      1.00284252e+01 2.84051383e+29 1.80372252e+28 5.97698403e+28</_>
    <_>
      1.51994002e+00 1.32700005e+01 0. 1.75999999e+00 7.30299988e+01
      4.69999999e-01 1.13199997e+01 0. 0. 1.46028475e-19 0. 5. 4. 4. 4.
      1.00284252e+01 2.84051383e+29 1.80372252e+28 5.97698403e+28</_>
    <_>
      1.52368999e+00 1.34399996e+01 0. 1.58000004e+00 7.22200012e+01
      3.19999993e-01 1.22399998e+01 0. 0. 1.46028475e-19 0. 5. 4. 4. 4.
      1.00284252e+01 2.84051383e+29 1.80372252e+28 5.97698403e+28</_>
    <_>
      1.51315999e+00 1.30200005e+01 0. 3.03999996e+00 7.04800034e+01
      6.21000004e+00 6.96000004e+00 0. 0. 1.46028475e-19 0. 0. 4. 4. 4.
      4. 2.84051383e+29 1.80372252e+28 5.97698403e+28</_>
    <_>
      1.51321006e+00 13. 0. 3.01999998e+00 7.06999969e+01 6.21000004e+00
      6.92999983e+00 0. 0. 1.46028475e-19 0. 0. 4. 4. 0. 4.
      2.84051383e+29 1.80372252e+28 4.</_>
    <_>
      1.52042997e+00 1.33800001e+01 0. 1.39999998e+00 7.22500000e+01
      3.30000013e-01 1.25000000e+01 0. 0. 1.46028475e-19 0. 0. 0. 4. 0.
      4. 4. 1.80372252e+28 4.</_>
    <_>
      1.52058005e+00 1.28500004e+01 1.61000001e+00 2.17000008e+00
      7.21800003e+01 7.59999990e-01 9.69999981e+00 2.39999995e-01
      5.09999990e-01 1.46028475e-19 0. 0. 0. 4. 0. 4. 4. 1.80372252e+28
      4.</_>
    <_>
      1.52119005e+00 1.29700003e+01 3.30000013e-01 1.50999999e+00
      7.33899994e+01 1.29999995e-01 1.12700005e+01 0. 2.80000001e-01
      1.46028475e-19 0. 0. 0. 4. 0. 4. 4. 1.80372252e+28 4.</_>
    <_>
      1.51905000e+00 14. 2.39000010e+00 1.55999994e+00 7.23700027e+01 0.
      9.56999969e+00 0. 0. 1.46028475e-19 7. 0. 2.80000001e-01 4. 0. 4.
      4. 1.80372252e+28 4.</_>
    <_>
      1.51936996e+00 1.37900000e+01 2.41000009e+00 1.19000006e+00
      7.27600021e+01 0. 9.77000046e+00 0. 0. 1.46028475e-19 7.
      2.80000001e-01 2.80000001e-01 4. 0. 4. 4. 1.80372252e+28 4.</_>
    <_>
      1.51829004e+00 1.44600000e+01 2.24000001e+00 1.62000000e+00
      7.23799973e+01 0. 9.26000023e+00 0. 0. 1.46028475e-19 7.
      2.80000001e-01 2.80000001e-01 4. 0. 4. 4. 1.80372252e+28 4.</_>
    <_>
      1.51852000e+00 1.40900002e+01 2.19000006e+00 1.65999997e+00
      7.26699982e+01 0. 9.31999969e+00 0. 0. 1.46028475e-19 7.
      2.80000001e-01 2.80000001e-01 4. 0. 4. 4. 1.80372252e+28 4.</_>
    <_>
      1.51299000e+00 1.43999996e+01 1.74000001e+00 1.53999996e+00
      7.45500031e+01 0. 7.59000015e+00 0. 0. 1.46028475e-19 7.
      2.80000001e-01 2.80000001e-01 4. 0. 4. 4. 1.80372252e+28 4.</_>
    <_>
      1.51888001e+00 1.49899998e+01 7.79999971e-01 1.74000001e+00
      7.25000000e+01 0. 9.94999981e+00 0. 0. 1.46028475e-19 7.
      2.80000001e-01 2.80000001e-01 4. 0. 4. 4. 1.80372252e+28 4.</_>
    <_>
      1.51916003e+00 1.41499996e+01 0. 2.08999991e+00 7.27399979e+01 0.
      1.08800001e+01 0. 0. 1.46028475e-19 7. 2.80000001e-01
      2.80000001e-01 2.80000001e-01 0. 4. 4. 1.80372252e+28 4.</_>
    <_>
      1.51969004e+00 1.45600004e+01 0. 5.60000002e-01 7.34800034e+01 0.
      1.12200003e+01 0. 0. 1.46028475e-19 7. 2.80000001e-01
      2.80000001e-01 2.80000001e-01 0. 4. 4. 1.80372252e+28 4.</_>
    <_>
      1.51115000e+00 1.73799992e+01 0. 3.40000004e-01 7.54100037e+01 0.
      6.65000010e+00 0. 0. 1.46028475e-19 7. 2.80000001e-01
      2.80000001e-01 2.80000001e-01 2.80000001e-01 4. 4. 1.80372252e+28
      4.</_>
    <_>
      1.51130998e+00 1.36899996e+01 3.20000005e+00 1.80999994e+00
      7.28099976e+01 1.75999999e+00 5.42999983e+00 1.19000006e+00 0.
      1.46028475e-19 7. 2.80000001e-01 2.80000001e-01 2.80000001e-01
      2.80000001e-01 4. 4. 1.80372252e+28 4.</_>
    <_>
      1.51838005e+00 1.43199997e+01 3.25999999e+00 2.22000003e+00
      7.12500000e+01 1.46000004e+00 5.78999996e+00 1.63000000e+00 0.
      1.46028475e-19 7. 2.80000001e-01 2.80000001e-01 2.80000001e-01
      2.80000001e-01 4. 4. 1.80372252e+28 4.</_>
    <_>
      1.52314997e+00 1.34399996e+01 3.33999991e+00 1.23000002e+00
      7.23799973e+01 6.00000024e-01 8.82999992e+00 0. 0. 1.46028475e-19
      7. 0. 2.80000001e-01 2.80000001e-01 2.80000001e-01 4. 4.
      1.80372252e+28 4.</_>
    <_>
      1.52247000e+00 1.48599997e+01 2.20000005e+00 2.05999994e+00
      7.02600021e+01 7.59999990e-01 9.76000023e+00 0. 0. 1.46028475e-19
      7. 0. 2.80000001e-01 2.80000001e-01 2.80000001e-01 4. 4.
      1.80372252e+28 4.</_>
    <_>
      1.52365005e+00 1.57900000e+01 1.83000004e+00 1.30999994e+00
      7.04300003e+01 3.10000002e-01 8.60999966e+00 1.67999995e+00 0.
      1.46028475e-19 7. 0. 2.80000001e-01 2.80000001e-01 2.80000001e-01
      4. 4. 1.80372252e+28 4.</_>
    <_>
      1.51612997e+00 1.38800001e+01 1.77999997e+00 1.78999996e+00
      7.30999985e+01 0. 8.67000008e+00 7.59999990e-01 0. 1.46028475e-19
      7. 0. 2.80000001e-01 2.80000001e-01 2.80000001e-01 4. 4.
      1.80372252e+28 4.</_>
    <_>
      1.51602006e+00 1.48500004e+01 0. 2.38000011e+00 7.32799988e+01 0.
      8.76000023e+00 6.39999986e-01 9.00000036e-02 1.46028475e-19 0. 0.
      2.80000001e-01 2.80000001e-01 2.80000001e-01 4. 4. 1.80372252e+28
      4.</_>
    <_>
      1.51622999e+00 1.41999998e+01 0. 2.78999996e+00 7.34599991e+01
      3.99999991e-02 9.03999996e+00 4.00000006e-01 9.00000036e-02
      1.46028475e-19 0. 0. 2.80000001e-01 2.80000001e-01 2.80000001e-01
      4. 4. 1.80372252e+28 4.</_>
    <_>
      1.51718998e+00 1.47500000e+01 0. 2. 7.30199966e+01 0.
      8.52999973e+00 1.59000003e+00 7.99999982e-02 1.46028475e-19 9. 0.
      2.80000001e-01 2.80000001e-01 2.80000001e-01 4. 4. 1.80372252e+28
      4.</_>
    <_>
      1.51682997e+00 1.45600004e+01 0. 1.98000002e+00 7.32900009e+01 0.
      8.52000046e+00 1.57000005e+00 7.00000003e-02 1.46028475e-19 9. 0.
      2.80000001e-01 2.80000001e-01 2.80000001e-01 4. 4. 1.80372252e+28
      4.</_>
    <_>
      1.51545000e+00 1.41400003e+01 0. 2.68000007e+00 7.33899994e+01
      7.99999982e-02 9.06999969e+00 6.10000014e-01 5.00000007e-02
      1.46028475e-19 9. 0. 2.80000001e-01 2.80000001e-01 2.80000001e-01
      4. 4. 1.80372252e+28 4.</_>
    <_>
      1.51556003e+00 1.38699999e+01 0. 2.53999996e+00 7.32300034e+01
      1.40000001e-01 9.40999985e+00 8.10000002e-01 9.99999978e-03
      1.46028475e-19 9. 0. 2.80000001e-01 2.80000001e-01 2.80000001e-01
      4. 4. 1.80372252e+28 4.</_>
    <_>
      1.51726997e+00 1.46999998e+01 0. 2.33999991e+00 7.32799988e+01 0.
      8.94999981e+00 6.60000026e-01 0. 1.46028475e-19 9. 9.99999978e-03
      2.80000001e-01 2.80000001e-01 2.80000001e-01 4. 4. 1.80372252e+28
      4.</_>
    <_>
      1.51531005e+00 1.43800001e+01 0. 2.66000009e+00 7.30999985e+01
      3.99999991e-02 9.07999992e+00 6.39999986e-01 0. 1.46028475e-19 1.
      9.99999978e-03 2.80000001e-01 2.80000001e-01 2.80000001e-01 4. 4.
      1.80372252e+28 4.</_>
    <_>
      1.51609004e+00 1.50100002e+01 0. 2.50999999e+00 7.30500031e+01
      5.00000007e-02 8.82999992e+00 5.29999971e-01 0. 1.46028475e-19 1.
      9.99999978e-03 2.80000001e-01 2.80000001e-01 2.80000001e-01 4. 4.
      1.80372252e+28 4.</_>
    <_>
      1.51507998e+00 1.51499996e+01 0. 2.25000000e+00 7.35000000e+01 0.
      8.34000015e+00 6.29999995e-01 0. 1.46028475e-19 1. 0.
      2.80000001e-01 1. 2.80000001e-01 4. 4. 1.80372252e+28 4.</_>
    <_>
      1.51653004e+00 1.19499998e+01 0. 1.19000006e+00 7.51800003e+01
      2.70000005e+00 8.93000031e+00 0. 0. 1.46028475e-19 1. 0.
      2.80000001e-01 1. 2.80000001e-01 4. 4. 1.80372252e+28 4.</_>
    <_>
      1.51514006e+00 1.48500004e+01 0. 2.42000008e+00 7.37200012e+01 0.
      8.39000034e+00 5.60000002e-01 0. 1.46028475e-19 0. 0. 1. 1.
      2.80000001e-01 4. 4. 1.80372252e+28 4.</_>
    <_>
      1.51657999e+00 1.48000002e+01 0. 1.99000001e+00 7.31100006e+01 0.
      8.27999973e+00 1.71000004e+00 0. 1.46028475e-19 0. 0. 1. 1.
      2.80000001e-01 4. 4. 1.80372252e+28 4.</_>
    <_>
      1.51617002e+00 1.49499998e+01 0. 2.26999998e+00 7.33000031e+01 0.
      8.71000004e+00 6.70000017e-01 0. 1.46028475e-19 0. 0. 1. 1.
      2.80000001e-01 4. 4. 1.80372252e+28 4.</_>
    <_>
      1.51732004e+00 1.49499998e+01 0. 1.79999995e+00 7.29899979e+01 0.
      8.60999966e+00 1.54999995e+00 0. 1.46028475e-19 0. 0. 1. 1.
      2.80000001e-01 4. 4. 1.80372252e+28 4.</_>
    <_>
      1.51645005e+00 1.49399996e+01 0. 1.87000000e+00 7.31100006e+01 0.
      8.67000008e+00 1.38000000e+00 0. 1.46028475e-19 0. 0. 1. 1.
      2.80000001e-01 4. 4. 1.80372252e+28 4.</_>
    <_>
      1.51830995e+00 1.43900003e+01 0. 1.82000005e+00 7.28600006e+01
      1.40999997e+00 6.46999979e+00 2.88000011e+00 0. 1.46028475e-19 1.
      0. 1. 1. 2.80000001e-01 4. 4. 1.80372252e+28 4.</_>
    <_>
      1.51639998e+00 1.43699999e+01 0. 2.74000001e+00 7.28499985e+01 0.
      9.44999981e+00 5.40000021e-01 0. 1.46028475e-19 1. 0. 1. 1.
      2.80000001e-01 4. 4. 1.80372252e+28 4.</_>
    <_>
      1.51622999e+00 1.41400003e+01 0. 2.88000011e+00 7.26100006e+01
      7.99999982e-02 9.18000031e+00 1.05999994e+00 0. 1.46028475e-19 1.
      0. 1. 1. 2.80000001e-01 4. 4. 1.80372252e+28 4.</_>
    <_>
      1.51684999e+00 1.49200001e+01 0. 1.99000001e+00 7.30599976e+01 0.
      8.39999962e+00 1.59000003e+00 0. 1.46028475e-19 1. 0. 1. 1.
      2.80000001e-01 4. 4. 1.80372252e+28 4.</_>
    <_>
      1.52065003e+00 1.43599997e+01 0. 2.01999998e+00 7.34199982e+01 0.
      8.43999958e+00 1.63999999e+00 0. 1.46028475e-19 0. 0. 1. 1.
      2.80000001e-01 4. 4. 1.80372252e+28 4.</_>
    <_>
      1.51651001e+00 1.43800001e+01 0. 1.94000006e+00 7.36100006e+01 0.
      8.47999954e+00 1.57000005e+00 0. 1.46028475e-19 0. 0. 1. 1.
      2.80000001e-01 4. 4. 1.80372252e+28 4.</_>
    <_>
      1.51710999e+00 1.42299995e+01 0. 2.07999992e+00 7.33600006e+01 0.
      8.61999989e+00 1.66999996e+00 0. 1.46028475e-19 0. 0. 1. 1.
      2.80000001e-01 4. 4. 1.80372252e+28 4.</_></uncompressed_support_vectors>
  <decision_functions>
    <_>
      <sv_count>1</sv_count>
      <rho>1.</rho>
      <alpha>
        1.</alpha>
      <index>
        0</index></_>
    <_>
      <sv_count>1</sv_count>
      <rho>-1.</rho>
      <alpha>
        1.</alpha>
      <index>
        1</index></_>
    <_>
      <sv_count>1</sv_count>
      <rho>-1.</rho>
      <alpha>
        1.</alpha>
      <index>
        2</index></_>
    <_>
      <sv_count>1</sv_count>
      <rho>-1.</rho>
      <alpha>
        1.</alpha>
      <index>
        3</index></_>
    <_>
      <sv_count>1</sv_count>
      <rho>-1.</rho>
      <alpha>
        1.</alpha>
      <index>
        4</index></_>
    <_>
      <sv_count>1</sv_count>
      <rho>-1.</rho>
      <alpha>
        1.</alpha>
      <index>
        5</index></_>
    <_>
      <sv_count>1</sv_count>
      <rho>-1.</rho>
      <alpha>
        1.</alpha>
      <index>
        6</index></_>
    <_>
      <sv_count>1</sv_count>
      <rho>-1.</rho>
      <alpha>
        1.</alpha>
      <index>
        7</index></_>
    <_>
      <sv_count>1</sv_count>
      <rho>-1.</rho>
      <alpha>
        1.</alpha>
      <index>
        8</index></_>
    <_>
      <sv_count>1</sv_count>
      <rho>-1.</rho>
      <alpha>
        1.</alpha>
      <index>
        9</index></_>
    <_>
      <sv_count>1</sv_count>
      <rho>-1.</rho>
      <alpha>
        1.</alpha>
      <index>
        10</index></_>
    <_>
      <sv_count>1</sv_count>
      <rho>1.</rho>
      <alpha>
        1.</alpha>
      <index>
        11</index></_>
    <_>
      <sv_count>1</sv_count>
      <rho>-1.</rho>
      <alpha>
        1.</alpha>
      <index>
        12</index></_>
    <_>
      <sv_count>1</sv_count>
      <rho>1.</rho>
      <alpha>
        1.</alpha>
      <index>
        13</index></_>
    <_>
      <sv_count>1</sv_count>
      <rho>1.</rho>
      <alpha>
        1.</alpha>
      <index>
        14</index></_></decision_functions></opencv_ml_svm>
</opencv_storage>
