<?xml version="1.0"?>
<opencv_storage>
<opencv_ml_ann_mlp>
  <format>3</format>
  <layer_sizes>
    19 100 100 100 10</layer_sizes>
  <activation_function>SIGMOID_SYM</activation_function>
  <f_param1>6.6666666666666663e-01</f_param1>
  <f_param2>1.7159000000000000e+00</f_param2>
  <min_val>-9.4999999999999996e-01</min_val>
  <max_val>9.4999999999999996e-01</max_val>
  <min_val1>-9.7999999999999998e-01</min_val1>
  <max_val1>9.7999999999999998e-01</max_val1>
  <training_params>
    <train_method>BACKPROP</train_method>
    <dw_scale>1.0000000000000000e-03</dw_scale>
    <moment_scale>0.</moment_scale>
    <term_criteria>
      <iterations>500</iterations></term_criteria></training_params>
  <input_scale>
    1. -2. 4.3669284910100572e+00 -2.8721729849844198e+00
    1.0007395702987935e+01 -2.6019251005378212e+00
    8.7173513757717735e+00 -2.2047260160171858e+00
    9.1847208954027124e+00 -2.1023833347081675e+00
    8.3942504514359211e+00 -1.2214913874752107e+00
    1.7441639224291080e+01 -1.4600067686711844e+00
    3.2733794388362476e+01 -1.8886191982869818e+00
    4.2066178065434656e+01 -1.8044764519016476e+00
    5.4679687846290605e+01 -2.0481679317011845e+00
    6.2355263853120732e+01 -1.9023853717895880e+00
    7.5015744527707639e+01 -2.1380226733948446e+00
    8.0511808823880372e+01 -1.9845585358026818e+00
    7.8682820291371598e+01 -1.8528981985285897e+00
    1.0779856483753515e+02 -2.2166915732466621e+00
    9.4979424341916243e+01 -1.7533271145820848e+00
    1.2286555015806627e+02 -1.9745342931118113e+00
    1.2523142165909752e+02 -1.7783114445012651e+00
    1.6249804079690176e+02 -2.1135812396738580e+00</input_scale>
  <output_scale>
    5.2631578947368418e-01 4.9999999999999994e-01 5.2631578947368418e-01
    4.9999999999999994e-01 5.2631578947368418e-01 4.9999999999999994e-01
    5.2631578947368418e-01 4.9999999999999994e-01 5.2631578947368418e-01
    4.9999999999999994e-01 5.2631578947368418e-01 4.9999999999999994e-01
    5.2631578947368418e-01 4.9999999999999994e-01 5.2631578947368418e-01
    4.9999999999999994e-01 5.2631578947368418e-01 4.9999999999999994e-01
    5.2631578947368418e-01 4.9999999999999994e-01</output_scale>
  <inv_output_scale>
    1.8999999999999999e+00 -9.4999999999999996e-01
    1.8999999999999999e+00 -9.4999999999999996e-01
    1.8999999999999999e+00 -9.4999999999999996e-01
    1.8999999999999999e+00 -9.4999999999999996e-01
    1.8999999999999999e+00 -9.4999999999999996e-01
    1.8999999999999999e+00 -9.4999999999999996e-01
    1.8999999999999999e+00 -9.4999999999999996e-01
    1.8999999999999999e+00 -9.4999999999999996e-01
    1.8999999999999999e+00 -9.4999999999999996e-01
    1.8999999999999999e+00 -9.4999999999999996e-01</inv_output_scale>
  <weights>
    <_>
      -8.5151453084512774e-02 5.1105702281021029e-02
      -9.0417060044156991e-02 5.9340028229589760e-02
      -9.4961789959090118e-02 5.4044030004972446e-02
      2.6088545135658767e-02 5.0322522767863836e-02
      -6.2470031890959218e-02 8.0057607543741555e-02
      5.8912642384791249e-02 5.4224128901823376e-02
      -7.9642766019585143e-02 9.7716002521208892e-02
      -8.5106944912930041e-02 -1.9658836790470976e-02
      3.1299004302821939e-02 3.5567625035468503e-03
      7.3790168935351994e-02 5.6847055027048884e-02
      5.1445202716620092e-02 -6.9686154648284038e-02
      -7.0907783831018950e-02 -2.4178219150151045e-02
      -6.4621354425354383e-02 -7.6924569192700770e-02
      -6.3164422309967480e-02 -9.3799923178375044e-02
      -4.0813828403485096e-02 5.7876697027407546e-02
      -3.0069184394714229e-02 5.4695146675656522e-05
      -7.3826337826576105e-02 2.4971859293706312e-02
      -2.8060562854650722e-02 -5.0904769850824781e-02
      3.2028201955376326e-02 2.3387292288719125e-02
      -3.3855203794342731e-02 -4.8150232435065977e-02
      2.2075404090656021e-02 -8.4980913266494373e-02
      -9.6997472821043138e-02 2.2316128552806376e-03
      5.5474787663914588e-02 -4.2138118172378128e-02
      -8.8960300509884765e-02 1.6002932863934619e-02
      8.1287039566425218e-02 -1.3386968229646192e-02
      7.5661223373504491e-02 -4.1979277770153776e-02
      -7.4546219463866520e-03 2.5534542659832449e-02
      -9.7694719292053145e-02 8.5423076909338674e-02
      -5.4046248208967328e-02 -7.0932155918293271e-02
      -8.3174417017368690e-02 -5.4780723403319315e-03
      5.8572456603520867e-02 -3.2135074788053282e-02
      9.7786714001757979e-02 6.3389078153651399e-02
      8.9060914214900241e-02 -1.1945622352474580e-02
      5.6635585164858344e-02 7.6425458330676372e-03
      7.3359689479319326e-02 1.6579264643087725e-02
      -9.6667162894555139e-02 8.6019870419150782e-02
      2.8564186367027091e-02 -7.9501641410204549e-02
      2.5820045835357342e-02 -1.1597831550849322e-02
      9.9907568819461043e-02 3.9338924253189661e-02
      9.9050890244670162e-02 2.7322629724949466e-02
      -3.0759226659038741e-02 9.1900406590027420e-02
      -1.9076326461888674e-02 -7.4915048628769160e-02
      1.5315722595577947e-02 7.0812603512460326e-02
      5.9057290544438723e-03 -3.4533077061451214e-02
      1.2566184799044186e-02 -4.1603450113964976e-02
      5.3998234456382271e-02 9.1415882585024782e-02
      2.2012317006565845e-02 4.2298231782311166e-02
      9.6042328630218152e-02 -1.5893225732484518e-02
      -6.7965100530895925e-02 9.0891205436189185e-02
      9.6805771522125272e-02 -8.1721808975944610e-02
      -1.0693880432708009e+00 1.1943520629851556e-01
      -1.8638673837983677e-01 -1.5004348507585988e-01
      -2.3636145941075218e-01 1.5403438958436869e-01
      3.7400660476406895e-02 1.7221186123688453e-01
      2.6429629504643132e-01 1.6727950492628654e-03
      -6.1985996826148776e-02 7.7298985965041894e-02
      -2.4985479057650717e-01 1.5378363588395041e-01
      -1.2089064418259603e-01 8.4381538358605332e-02
      5.9999860686734463e-02 1.6961337216509606e-01
      1.2185559230476943e-01 -4.8738287731838727e-02
      3.5746689099414453e-01 -1.1098019471641950e-01
      -1.5001740079809983e-01 2.3612163105987788e-01
      -1.5772849813053536e-01 -2.2071330529073394e-01
      5.0716314862741694e-03 6.8745691047099365e-03
      1.0347466534101588e+00 -2.3808652245420445e-01
      -1.8408136505316516e-01 2.3210313583929640e-01
      2.1408339965625883e-01 9.7520251795776544e-02
      2.0423247412290113e-01 8.0371663937373689e-02
      6.2004849158505758e-02 4.0512104775712536e-02
      -1.8854478287026188e-01 -3.7463417361076811e-03
      -2.2497020234513063e-01 3.7759259557040133e-02
      -3.3518801042387053e-02 1.0389855699671527e-01
      -2.4623167314585234e-02 7.8914760210640381e-02
      1.2674761154020245e-01 1.9082295595067628e-01
      1.7998843742242818e-01 6.6540110020730667e-02
      -2.2650511282019510e-02 -5.3295464013934542e-02
      3.8090838881369621e-01 -1.3638068250099679e-02
      1.1293169061364088e-01 1.0478607193703543e-01
      2.2202360353219985e-01 3.3094040367328958e-01
      -4.1396350001329282e-02 -3.8568607821490730e-01
      1.6976538166077704e-01 -1.6135954152421339e-01
      -8.4280915402772147e-02 3.7948387182335658e-01
      -1.9555011778059805e-01 -3.0252584390442244e-01
      2.5035488301467429e-01 -1.1227883636973665e-01
      -3.2262250142387516e-01 -1.6028884790332473e-01
      1.8679049775254317e-01 2.0746055455415907e-01
      -2.8773871721113398e-02 -2.9546398060673823e-01
      -3.6656420211348170e-02 2.6417402685776570e-01
      2.8961581799200511e-02 -1.7306912758886042e-01
      -1.0348921664025534e-01 -1.9407861960179271e-01
      2.2022578785734999e-02 -1.5201836267789118e-01
      1.3698517784759992e-01 -3.9717724549048102e-02
      2.1663704314019017e-01 7.1571513384269481e-02
      5.4783272895799637e-02 1.0712912686219198e-01
      -2.6500694549830689e-01 -1.7676496679381154e-01
      3.1232657122379798e-01 -1.3595710211359674e-01
      -3.4664635635432683e-01 1.2341451369380219e-01
      -1.3445764055399127e-02 -5.7401725413555531e-02
      -3.0943580755401429e-01 -1.9307984604362741e-01
      5.4148465238025734e-03 -3.1843346825981272e-01
      1.0995772794612543e-01 -3.4398041433845516e-01
      8.2164739798818623e-02 -5.2964087686403705e-02
      1.3464607347187522e-02 1.6308073742291485e-02
      2.4522145155818301e-01 -5.5085782878990283e-02
      -1.8924643064371333e-01 7.2746592939654103e-02
      1.1967361221672151e-01 -1.4705606747832486e-01
      -1.1426356051010611e-01 -1.0144215677176495e-01
      -2.7062908146454751e-01 1.7834134493541770e-01
      6.1174513557714007e-02 2.9292868925350785e-01
      -2.1661369095657590e-01 2.5936489198626200e-01
      3.0104498505103322e-01 2.4256542280442603e-01
      1.4756854550974305e-01 -1.6135164232418664e-01
      7.1311038419824196e-02 1.1367677985918782e-01
      -4.5136587926183670e-02 -6.2704104657432785e-02
      -1.4290053301184627e-01 -1.1850495752465996e-01
      6.6011820300688031e-03 -3.5705072158497125e-01
      -6.9209260066816713e-02 1.1852552233088214e-01
      1.9941772555558754e-01 1.6070320375891352e-02
      2.2698256577996664e-02 5.0150536751308442e-02
      -8.2414476320730609e-02 -9.7782000663756558e-02
      1.5341173755570081e-01 -2.5934334766699024e-01
      2.6340785657060347e-03 1.9927450766756938e-01
      1.4914485585156931e-01 3.0396593503961761e-01
      -4.7777125908013751e-02 -1.3432245508829896e-01
      -9.0712201503542186e-02 7.0086300296589202e-02
      2.1056940267890133e-02 -9.1025175208393580e-02
      7.4425689097001058e-01 -7.2940060199606638e-02
      7.3563661277465928e-02 -2.3256144353485517e-01
      -2.1612139781709776e-02 3.7668804090545344e-01
      1.3704522574164907e-01 2.8604645827493873e-02
      2.1102718636923093e-01 1.2351202993227096e-01
      2.1330778490684263e-01 -3.1804829177853489e-02
      -9.0241636105165945e-02 -3.1224119299842290e-01
      -8.5667989059848113e-02 -6.4769450375362650e-02
      -7.1298327653441462e-02 -1.4697050671586076e-01
      -7.8168541362694952e-02 -6.0600261588611079e-02
      1.8576730746299505e-01 -6.0468651936632548e-02
      -1.2637348294139575e-01 1.8989047091697284e-02
      1.0743693567396480e-01 1.9107074387750035e-02
      -2.4945424753176748e-01 -1.5968282022282276e-01
      5.4001630300317752e-02 2.5770764584593786e-01
      4.2495094466882855e-01 7.6383302046772378e-02
      -1.4127576734315697e-01 8.7776853268389368e-02
      -1.5267424201737437e-01 1.8026086587932741e-01
      -1.7627078086456127e-01 -1.0679603883797043e-01
      -2.0353111939250140e-01 -1.0763137768596104e-01
      -3.7635421901055732e-02 1.0210002344288301e-03
      8.4463899571957629e-02 -1.3089536732672244e-01
      5.8804625163518448e-02 -1.5262492013068632e-01
      -1.0692807199126286e-01 -3.1015146566151680e-01
      -5.1650984062303951e-01 -6.7154967742172167e-01
      1.0222484915172414e-01 -4.8347160720404486e-02
      4.0054767032986715e-04 8.3111174238555879e-02
      4.0092039729294632e-01 1.5103385213778286e-01
      1.2085307471496599e-01 -2.2182367294406324e-02
      1.8749675229112290e-03 2.1434293878046493e-01
      -2.9291121582598151e-01 7.1266557965146957e-02
      -1.5625938999722247e-01 2.3384346005958284e-01
      5.7003396815142278e-02 1.5672880878584067e-01
      -2.6499271133599862e-02 -1.6726410632870845e-01
      -7.7034333563190449e-02 -1.0160622470063151e-02
      -1.9561144537099232e-01 1.4827076463368868e-01
      -1.7734496862750337e-01 -2.6439277627648627e-01
      3.2015877080212911e-02 -2.1050173350687845e-01
      -3.3433923042617975e-01 -2.4775472631067715e-02
      1.0807936981639210e-02 -2.3278255822435043e-01
      1.5055813233155421e-01 3.1758899999030699e-01
      1.6206097922493193e-01 1.0702729606067245e-01
      2.4838111219098968e-02 6.3549915140722127e-02
      -5.6420291567180529e-02 -1.4587905995639444e-01
      -6.5994858464383938e-02 4.1951293941024700e-03
      -1.3627533918048682e-01 1.0803672791819738e-01
      -1.2426195126423370e-01 3.6454261005635485e-01
      -7.9057495146158771e-02 1.5693169444429098e-01
      1.4344878169908118e-01 1.9182720961665325e-01
      2.9376685662970836e-01 4.3373512634855740e-02
      8.2495881472667509e-01 -3.9346559347493079e-02
      1.3005825179770095e-01 3.9581442526511572e-02
      1.3743503234832449e-02 -2.0205101288697422e-01
      -2.9427537033950835e-01 3.1498002248466961e-01
      -3.0175931885304739e-02 -3.1932709761844436e-01
      9.4503267830437767e-04 -1.2037564166124232e-01
      3.6930213670901268e-02 1.2966276802061338e-01
      4.6320669624453914e-02 3.5298049959945905e-02
      6.6687604336840872e-02 3.3284077881381895e-03
      -2.2387259000759496e-02 2.6864164656152978e-01
      1.6209796148393732e-01 2.7628885124720443e-01
      1.3256880422738784e-01 -1.6143232430732601e-01
      5.2343174745045282e-02 3.0992814738682432e-02
      -1.9319919569515204e-02 -1.5267937643984006e-01
      -5.8438399028121299e-02 -1.6485215426314656e-01
      7.2908701736157183e-02 1.7921248499425235e-01
      -1.7927080428582184e-01 1.2485127552024619e-01
      1.1569991254763341e-01 2.5650239787195683e-01
      -5.2676649644182519e-02 1.4367685489805110e-01
      -1.1971400151344917e-01 -1.2388853401063747e-01
      2.2925960300928677e-01 9.7741797600092467e-02
      2.3108612661755295e-03 1.1181016700362102e-01
      1.3055851528795576e-01 2.1685949056807080e-01
      -8.5381526262821722e-02 1.8880798750211963e-01
      -4.6177853486810028e-01 3.3467611795119773e-01
      -1.8364331904395134e-01 -1.6366437379655968e-01
      -1.0118118711999509e-01 -2.3070892327807162e-02
      -4.2926445293468077e-02 4.6567770147530697e-02
      2.0373858998880837e-02 -4.7933947580743506e-02
      -3.0540391232888996e-02 -2.5586695988850012e-02
      -1.4125715876549394e-01 -5.2657328671424773e-02
      -3.7624566127424952e-01 -1.6266622461710328e-01
      4.8176251407834228e-02 1.8734604081966363e-01
      9.7307789222587648e-02 -1.1149923710179578e-01
      -2.1147334419591168e-02 7.3184852483281146e-02
      1.0411922717051871e-01 -2.1566456059029685e-02
      -1.5267186687515047e-01 -1.6066035565059558e-01
      2.8201794535735480e-01 -7.5289692506604250e-02
      5.1470814046149371e-01 -1.6394507770588834e-01
      1.2968602976710383e-01 3.1966298719154068e-01
      6.9451485381503517e-02 5.2317844815524359e-02
      2.2748116197550375e-01 1.1330135876590945e-01
      3.6180050473358885e-02 -8.2873377067514103e-02
      -1.1138334918006333e-01 -5.7850447313005453e-04
      7.0296700704809367e-02 3.3783306823804635e-02
      8.9001549937000546e-02 4.7087111758183635e-02
      1.1545400420817549e-01 4.9878569796497702e-01
      -1.0618390229785668e-01 -1.7734310783762816e-01
      1.0097869190231736e-01 -6.7513347057863382e-02
      -2.1012426164682613e-01 1.5830292935672122e-01
      -1.6750363098383986e-01 -6.0675278383444810e-02
      7.1625452469944603e-02 9.7677241493747735e-02
      6.1151122845618043e-02 1.9239403362466256e-01
      4.4316033461404489e-02 -3.0409203082160191e-01
      2.8204489725017590e-01 -2.1061652467855596e-01
      -1.6003983183179743e-01 -1.9468313857514762e-02
      1.0047455868577079e-01 -2.8547943538277204e-01
      -2.0425073888023648e-01 -1.5559201187911540e-02
      -8.5735951862520685e-02 2.7687641520762218e-03
      -4.0103986203762459e-02 -1.0806621640693465e-01
      5.3068731894638421e-01 9.6845036002934544e-03
      1.5335419474503134e-02 1.5323142649526433e-01
      6.6069273447923252e-02 1.0121680261044770e-01
      -2.1087411504216791e-01 4.7105386638651277e-02
      6.6099840043113103e-02 -2.2614131252057353e-02
      3.3205629270562746e-02 -1.8044185193504588e-02
      1.4182642274440257e-01 2.6448934450182882e-01
      -2.4268746307744324e-01 1.1960833125684266e-01
      -2.3319539645721024e-01 -1.8790053685554139e-01
      4.2262141463128629e-02 -2.0482773054282252e-01
      -2.3733174014453694e-02 -1.1805913965645842e-01
      6.9984964192142674e-02 -2.7363643380228708e-01
      1.1721838998116130e-01 -1.1278458181622208e-02
      -1.3775395744735844e-01 -8.1144289752328791e-02
      1.6453111654023328e-01 -6.9556250211368897e-01
      1.1116036589910436e-01 -2.5534389217936398e-01
      -5.3330839769254478e-02 -1.2237749024775629e-01
      1.7814769959384497e-01 -6.2009263873154537e-02
      -4.9816433439895495e-02 2.0103812753254857e-01
      -2.5810969085595697e-01 1.3288584913504592e-01
      -9.7726027873196147e-02 -9.6846402701337375e-02
      -1.8137629066377525e-01 5.3774327137276881e-02
      -1.0253220569139021e-01 1.3568176391589357e-01
      -2.4669151500983871e-01 5.9630491533985391e-02
      8.1376735693194160e-02 5.3974567891822964e-02
      8.6348989651640645e-02 -4.6127675069271894e-02
      -7.0922915814066699e-03 2.6526462319249898e-02
      -1.7753710303490211e-01 3.5908038519720541e-02
      4.1856995566734517e-01 5.0241885359693414e-02
      8.5119722570247788e-02 6.5491512891354464e-01
      -1.5637141816256106e-01 -1.8021955611908169e-02
      3.8643107558266021e-01 5.8495237725368849e-03
      1.0918192828660229e-01 2.1286864747048570e-01
      4.1039392771648080e-02 1.6967149558946121e-01
      -2.0425231261673168e-02 -2.8775071648437911e-01
      -1.2008249774227789e-01 -1.5124683428175442e-01
      -8.5241339530012811e-02 3.5724844454966731e-01
      5.2668269502968115e-02 4.8236749208706409e-02
      -2.8691295850615983e-02 -3.1411638259648400e-01
      1.8133330741714160e-01 5.1780494049468171e-03
      8.6449416141693558e-01 -1.6707090987936163e-01
      6.0479419045216976e-02 1.1637785244914270e-01
      2.8308163043942253e-01 2.0601190233530522e-01
      -1.0517853735400530e-01 -7.2739346257439941e-02
      6.8826598970091635e-02 2.7983978156071698e-01
      1.0829911284369220e-01 5.8126416719786456e-01
      7.1045060116206593e-02 5.1268562487395853e-03
      -4.2917371040198424e-02 -6.3904670420709353e-02
      -3.2126135412130957e-01 1.7339678558112487e-01
      1.7775508302866430e-01 -1.3303245144407944e-01
      4.4110464874011163e-01 9.7108453462844510e-02
      7.7548212914395440e-02 2.7467508681917929e-01
      -3.4005087921700573e-02 1.2239729790880818e-01
      -1.4131801049864115e-01 1.2425816031301774e-01
      2.1241593739517217e-01 -4.9549623669477329e-03
      1.9113249836272092e-01 -1.9622055435797276e-02
      8.0664847798817760e-02 4.1445259371815346e-01
      6.0630577433466892e-02 5.0526530915857459e-02
      -2.6039835248703314e-01 1.1825000346862077e-01
      -1.2526217831877937e-01 4.2003489478819989e-02
      5.0866423527510390e-02 -6.9436824315440515e-02
      1.2248367081632180e-01 2.3656067814796174e-02
      -1.1658988889087225e-01 1.5728562655849188e-01
      5.3740585432521804e-02 1.2397901503250808e-01
      2.1274019532155677e-01 -1.2604422616906741e+00
      -1.1174181671114652e-01 1.0082739472645429e-01
      1.3481157293193066e-01 -2.1997867594668225e-02
      9.5884893852449485e-02 3.0820655617339779e-02
      6.1161205396313048e-02 -2.0668309924737521e-01
      -6.5143761142343118e-02 -2.5881190187704251e-01
      1.5864830276168376e-02 -1.7625687694176748e-01
      -1.1402043533618814e-01 3.7543224961060756e-01
      3.0666909294141807e-02 2.6762928120550944e-01
      -1.2504243140708386e-02 2.1759656378173081e-01
      -2.8291380901120707e-02 2.6106080208800026e-02
      4.2343901517016008e-01 2.5957880081041655e-02
      -1.0820092779877021e-01 1.4774759380553432e-01
      -2.4804883257548035e-01 -8.7540533154280859e-03
      5.6831936502309377e-01 7.0999998415547785e-02
      7.5462896373239038e-02 2.4676270594592048e-01
      4.9842573993644057e-02 5.5423378787212187e-02
      1.8391162972507799e-01 7.2867684381133890e-02
      -2.6823042122182408e-02 -3.2124244047657527e-02
      -2.6176071450051717e-02 -2.5606964850934927e-01
      2.1184310058625011e-01 -1.0094008562363538e-01
      4.7955705686717968e-02 -4.3181025505542842e-02
      1.6587965531009580e-01 1.6298749674252133e-01
      -1.3484283100761693e-01 -1.0257985012731653e-01
      1.3950405820384856e-01 -1.6027711711092123e-02
      -5.1171851811921383e-03 1.1040048677844988e-01
      1.6395607362239653e-01 -7.8438560144816552e-03
      -1.0355705539307512e-01 1.6427675545159087e-01
      1.3282274573701144e-01 3.4131610590187700e-03
      -7.5658038540514796e-02 5.1990335703308153e-02
      2.2716599410283109e-01 4.3987948558249196e-02
      6.5645478686245151e-02 1.1058423433062180e-01
      5.5874276662568674e-02 -1.0049547277759949e-01
      1.8574268471123548e-01 -7.0688429679026291e-02
      -6.9942718524564906e-02 -6.3083539104274319e-02
      1.0613902701242914e-02 -1.6234551622897449e-02
      2.8881251115811285e-01 -2.5800984950344114e-01
      -4.9532623612589081e-02 -2.6156796162373178e-03
      3.3532327912989122e-02 1.8116457407197670e-01
      3.8825250045105557e-02 -5.6751947257368492e-02
      -6.9814714274272554e-03 6.2226379910087726e-02
      4.0926339143055124e-01 -1.3545688029618233e-01
      -1.3803732257459955e-01 4.0759754101111878e-02
      -1.2581636392672585e-01 -3.6410953401230288e-02
      -1.8491545476236054e-01 -1.5036971710800037e-01
      2.1986376549615483e-01 7.9766797713197446e-02
      1.1240168598395311e-01 -9.0235827479440856e-03
      1.4950562756323871e-01 -2.9634210750281220e-01
      1.0781712275239769e-01 -2.7047808775831167e-01
      -1.5011860212485742e-01 -1.2956000930941919e-01
      -2.3563994304571054e-01 -1.0027949100570412e+00
      -1.4335225518813688e-01 -7.9094134572499891e-02
      -2.4897187925446665e-02 -2.9873997335770784e-03
      4.1764052766993287e-01 1.5913478989461369e-01
      4.2146545368425402e-02 -6.7934876106438748e-03
      -1.2493625186659975e-01 -2.3789322862224901e-01
      -1.5967382184683528e-02 -1.9947707224047942e-01
      -2.0012060359958517e-01 5.4352777248134065e-01
      5.1844413803756574e-02 1.1288501759665896e-02
      6.5969226188676358e-02 8.2068203542325704e-02
      4.1760966617947821e-02 -8.7766491468841884e-02
      1.4835349451330110e-01 -4.2106676472273855e-02
      -1.0435923179519842e-01 -2.6286109241445671e-02
      -1.2020753887588312e-01 -6.1365958967226769e-02
      -1.7908983308820303e-02 5.6060878202948153e-02
      2.9111565507300829e-02 4.6811842687507876e-01
      -1.1778462207233413e-01 1.5307381062320341e-01
      -8.3935153933561921e-03 3.9144554320274326e-02
      1.7620791555027014e-02 9.5691764060037349e-02
      -1.4910066684608717e-01 -5.7248513301567175e-02
      -4.1340599811746329e-02 -2.4099396471624263e-01
      4.7134393202367432e-02 3.5247007527479307e-02
      8.0465466003452474e-02 2.1918054867778261e-01
      -9.4480326920360819e-02 -5.5843922983648583e-02
      4.7864044419167015e-02 -6.7123554399047561e-02
      -5.8543021686851743e-02 1.4706566987876343e-01
      4.4585610200828135e-01 -1.3469290502822590e-01
      4.5097327576186903e-02 1.0380015299818350e-02
      1.0954052084915478e-01 5.0771630834685715e-02
      1.1364596075402809e-01 -1.5805288693336886e-01
      1.5071197922815741e-01 -4.2748228567599397e-02
      -4.8459202365588726e-02 4.1518430872850415e-01
      1.1625324307284481e-01 -1.1340985961587090e-01
      5.0965832943724206e-02 1.3701290768865748e-01
      -3.5198570867689877e-02 6.7534278110885689e-03
      1.6873992719691983e-01 -4.8204980702730015e-02
      5.4703959283441045e-02 -1.4369258708369012e-01
      5.5774160626377405e-02 1.6912432978937314e-01
      4.4256839580732406e-02 -3.6930914876132551e-02
      -1.7476329763957434e-02 -6.4328957505114109e-03
      1.1307378623836374e-01 9.2534866314548492e-02
      3.3660661238349759e-01 -1.1552910538183342e-01
      5.8163964931498948e-04 2.4487030885152795e-02
      -5.9964423110826781e-02 9.1554441927939503e-02
      -1.3790501666411210e-03 -1.3624535889976735e-01
      7.8756059615364443e-02 -6.8507534026088631e-03
      6.8326211769490608e-02 3.2841363020505152e-02
      1.8093985243638908e-01 -5.0169301244403691e-02
      -1.2286027346437636e-01 -1.3229313453586516e-01
      -2.1200977551826836e-01 -7.7403180187450307e-02
      -9.1774163745146936e-02 -4.1626668495308145e-01
      -4.6767397726840389e-02 7.2724537893125954e-02
      -1.0320137433158300e-01 1.1326264740206815e-02
      2.4953669510776982e-01 1.0173216122777584e-01
      -6.1543937428149065e-02 -8.3902231169431116e-02
      -1.1192232447319945e-02 -1.1339073061805077e-02
      1.2969707207643197e-01 -1.2445311890371945e-01
      8.6476054972347907e-02 1.6726844605653921e-01
      -3.3882247919191442e-02 1.2571715417548068e-01
      6.1905211628666787e-02 2.1748289887595362e-02
      1.3215596002201558e-02 -1.2310541444274417e-01
      2.2942377662493646e-01 -1.7652569521093323e-01
      -8.8489550686974186e-02 9.4716663196367873e-02
      1.9474598730463515e-02 -5.2097513854084350e-02
      -3.3761527954571380e-01 1.8632130739594027e-01
      -1.5585312960368125e-01 6.3606872269219261e-01
      7.6657208899696960e-02 -7.4194638262443057e-04
      -1.3628514026015215e-01 -2.4011341352975002e-02
      1.2248374538580482e-01 1.4193122301547548e-01
      5.7907197908488132e-02 -1.3506395216921677e-01
      -9.8939435617288685e-02 -2.4858028721186212e-01
      8.1659390609390967e-02 5.4194187064231882e-02
      -8.5748663379054763e-02 2.7137240158051179e-01
      -9.9512857002379648e-02 1.5623204414056263e-01
      -4.9092571273889357e-02 5.0573976993765979e-02
      1.9266615643941873e-01 6.6520297621768393e-02
      7.1659336491574421e-01 -9.6498681644039352e-02
      4.8473273739929233e-02 -1.5581584694010869e-01
      -9.7380638500138977e-02 -1.6696387384434769e-01
      3.3625723642723218e-02 2.5244516292632907e-01
      4.2915453020727690e-02 -5.5416641112327636e-01
      1.0238808862969380e-01 4.4097487363906485e-01
      -1.0792978733536690e-01 -7.0409353804786148e-02
      1.7102747368582799e-01 -1.8722016185195062e-01
      -3.7480572573387279e-02 -1.5041507419119027e-01
      2.4167579448964288e-01 4.3273932036990849e-02
      3.2190152461923410e-01 -8.9915216972383485e-02
      1.1648184290618258e-01 -8.4835515536943421e-02
      9.0018163481599245e-02 -2.3448062300824010e-02
      -7.8641675739316255e-02 3.2085223353944183e-02
      1.8743565648199514e-01 2.8117813280205895e-02
      -1.4322283130459160e-01 6.1880528813182248e-02
      -9.4210466643273080e-02 -1.0711003695850510e-01
      -9.6588684915699691e-02 5.6303339762899961e-04
      1.6785780425810926e-01 -1.3177612412510761e-01
      1.8496612040907937e-01 1.3704934398548904e-01
      1.7997321242135889e-01 1.9331701272415383e-01
      2.3758561060102261e-02 -1.4418756795766402e-01
      -1.4171794083988709e-01 -1.9167980881287711e-01
      2.1950757774190626e-02 -1.5655329157827898e-03
      -2.9857529948244138e-01 -5.5891986777980052e-01
      9.0117944960550912e-03 -1.4647613976077578e-01
      -6.2694660894519319e-02 1.8142899347540434e-01
      4.3588786509736172e-01 1.0915310882111008e-01
      3.1332388501324582e-02 1.3847551685127152e-01
      -8.4311436764088449e-02 -1.1030277027427048e-01
      9.9842914763633578e-03 -8.8116801477973322e-03
      -1.3283758535463039e-01 3.9042791812893057e-01
      8.5893596747282613e-02 3.8149396472924327e-02
      -1.3161979427107864e-01 4.3471228947134781e-02
      -4.8885244062299736e-02 7.5025951125445745e-02
      2.6816597319324825e-01 -9.4435166285569874e-02
      -1.2294386773074319e-01 7.0068368642798987e-02
      -5.9919415296232771e-02 -1.3669868910993355e-01
      3.1851378868615260e-01 -1.1856101431510548e-01
      1.2143794473639254e-01 6.0526761934848372e-01
      1.0473432284952414e-01 -1.5490917990977604e-02
      1.2109066164369459e-01 -1.1395459818729508e-02
      -8.1163327271152996e-02 -1.4766234606900150e-01
      3.8035455433594295e-02 -7.4940267018779441e-02
      1.2593524401549416e-01 -2.4482783081311476e-02
      3.1924924786269726e-03 -4.4958299159992748e-02
      -7.9415315555709243e-02 2.3801322921858273e-01
      5.2726583482607794e-02 5.0349351435849406e-02
      1.9727574138563014e-01 -1.7481402796307452e-01
      4.0790587255487190e-02 3.4527762433909502e-02
      3.7908982651116618e-01 -7.6311299673746544e-02
      8.3902686811327162e-02 -3.9431086956002351e-02
      3.2354128943773335e-03 7.7311782214000174e-02
      -6.7613234712833814e-02 -1.9409208510586604e-01
      -5.3457931287830662e-02 -3.2743033604016669e-01
      2.2477027910767059e-02 4.1599093679443711e-01
      -9.8451365011025943e-02 -1.8796060486035004e-01
      -6.7395499444528717e-02 3.6430011510733239e-02
      -3.0164234331344675e-02 -9.1566805053623579e-02
      7.3246873770786106e-02 -9.4945671288769809e-02
      2.2308118434995067e-01 -5.7249453734389576e-02
      -9.0901403054380617e-02 -8.7182514496773098e-02
      -3.8330392646840038e-02 1.9532498715784438e-01
      -1.3645429315740187e-01 -1.2013804859437105e-01
      2.5104874586160192e-01 -8.9017183543655953e-02
      8.9832338977904359e-03 -8.1360540117335775e-02
      1.3229523297377660e-01 3.9509918631261527e-02
      -8.3830063546195488e-02 -7.7439516752220688e-02
      4.3430813736585082e-03 2.2738493039428749e-03
      1.9039021059539146e-01 -2.5298235184143522e-02
      -9.1446163556813564e-02 4.8088869430042789e-03
      1.7748331280471263e-01 8.1901669373682484e-02
      -2.4797290870534970e-02 -2.2230766708866762e-01
      -2.3184932947037617e-02 -1.7947638063151833e-01
      -1.4573813991365395e-01 -4.3811437017371702e-01
      -5.7165172788511721e-02 -9.0309464550761789e-02
      -8.0712078067007240e-02 7.7372039948977608e-02
      1.9776707540091501e-01 1.7625302840924081e-01
      6.5411081477545624e-02 -3.0672708542657922e-02
      -1.5155280841086147e-01 -1.3405840613627737e-01
      -4.9190739381318083e-04 -6.1957138113939478e-02
      -3.4643001099969449e-02 2.5562553766556317e-01
      -1.2504956186079147e-01 -7.7879830913720388e-02
      4.3217817757665700e-02 1.1070874714919407e-01
      7.0881736529048401e-03 -4.7586090342698825e-02
      2.7895729509192208e-01 -7.3721801559565397e-02
      -2.6897485616357322e-02 2.9897643770088474e-02
      -1.9696977580313516e-01 1.5795119034832827e-01
      -1.5100577350315292e-01 1.4046807323971927e-01
      -4.9536864511452380e-02 5.3826186284127164e-01
      7.2836773576209504e-02 -2.5377086269343478e-02
      8.3649091876562942e-02 1.1021244319673743e-01
      1.9098566484875776e-01 -7.0946614697756441e-03
      -2.5648749078376325e-02 1.0382037733421213e-02
      9.5758684648035872e-02 -7.9027346664035811e-02
      5.2807706478622846e-02 7.5307459375339725e-02
      -5.1346074068988681e-02 7.1665796026158191e-02
      1.9198227510574910e-02 1.5014295224021587e-01
      9.6724932054604973e-02 -1.1669976130012599e-01
      8.7303552229268097e-02 -3.3868354391720819e-02
      -3.0565184830361254e-02 -4.1737856789048643e-02
      1.1149658546010659e-01 1.2273306233661530e-01
      1.4174654606100265e-01 -8.2120089996389048e-02
      -2.6854932710236066e-02 1.1402288391437200e-01
      5.1432147604562467e-02 -3.2106226599467358e-01
      1.0298837580443271e-01 3.2192446905191013e-01
      -1.0066396420609933e-01 1.7083449841362441e-01
      1.0550667789466685e-01 1.1913985114052547e-01
      6.5720612907003567e-02 -3.8524209184606591e-02
      1.8567292285240641e-01 -7.1892945044781761e-02
      1.6282900923217536e-01 4.6591240961962391e-02
      6.9378776818903004e-02 5.7107645376614447e-02
      -1.5873934009213092e-01 -5.9440294821878979e-02
      1.0070874426734477e-01 -9.6906094496493247e-02
      5.6384059810482619e-02 -8.8778291091936884e-02
      1.8366218127925360e-01 -9.7291523508971633e-02
      -1.4693996825584016e-01 3.4082936559912884e-03
      4.1307960622924307e-02 6.7335718404709505e-03
      2.9124312398268591e-02 -7.7516758976397010e-02
      1.1404187816617795e-01 -4.8844257195394024e-03
      2.5587318154619735e-02 5.4202312449276452e-02
      -5.5010640149606412e-03 -1.8280951665912332e-01
      -4.9416944166700019e-02 -1.7359874646524109e-01
      -3.8735304567275197e-02 1.9613723578849290e-01
      -2.2710790509433151e-01 -5.4009695861185036e-01
      4.4684166859195823e-02 -4.2310066945982022e-02
      1.2063494432185347e-01 1.5270255208871691e-01
      -1.7688847015680145e-02 1.8010027586918403e-01
      1.4589573650776094e-01 -9.3812981300868525e-03
      -4.2124250352205635e-02 -5.3704768601053506e-02
      -9.2336779188557219e-02 4.3253289015313182e-03
      3.3278984161273784e-02 4.8283442831818450e-02
      -1.4261040328950206e-01 3.0294536308422586e-02
      1.6006928744523286e-01 -8.1562632497277198e-03
      7.4926346466877417e-02 3.6749373928842057e-03
      -1.7171507957366983e-02 4.3895832828249971e-02
      -1.3781688373937764e-01 1.2040023814252825e-01
      -4.6419955254737008e-02 2.7108984677251750e-02
      2.5281809002617167e-01 7.2965914625513634e-02
      -1.5435558769004049e-01 2.0092003041568043e-01
      7.4976690207120569e-02 4.6911267083415600e-02
      -2.9384655041620838e-02 1.2339418526247906e-01
      -6.3807627733835623e-02 7.2113697617360820e-02
      1.4413180014074622e-01 -9.3151080428588856e-02
      8.7490114818051468e-02 -7.6438754973389275e-03
      1.1975660883711504e-01 -1.2943158741002456e-01
      -1.0318659288298111e-01 1.1627664454709509e-01
      -1.9125203039915581e-01 3.5122020142321859e-02
      9.9612480287241054e-02 -2.1550420535454887e-01
      1.7308653166655150e-01 1.8253195713644918e-01
      2.2107504695246402e-01 -9.4146701123036816e-02
      4.2874059357181943e-02 9.0107097167255332e-02
      1.1835514507937679e-01 2.7227943911844094e-01
      -1.6892219538624328e-01 4.1284040737398171e-02
      -1.2403151250387340e-01 1.9220008988028453e-01
      -4.5189502791244049e-02 1.0606748519561959e-01
      6.2712143287917535e-02 4.0385498171921545e-02
      2.2007391002724624e-02 1.0198227402757523e-01
      -1.1965621058419518e-01 -1.8501713860766664e-01
      1.3665008827205363e-01 6.1848797521374052e-02
      5.1183722639018447e-01 -4.1225095511692136e-02
      4.4458452488904378e-02 5.8809975755759858e-02
      -8.1207327135073226e-02 4.1076134914920306e-02
      1.4256317143875191e-01 -5.2150418955735675e-02
      1.8334394423703639e-02 6.7614605275902670e-03
      1.7509595952923862e-01 -2.0957574525722878e-02
      -2.0127850758945862e-01 -6.5903852248042419e-02
      -7.9944270612427440e-02 -6.3739679535738426e-03
      -1.3798990878351611e-01 -1.8222783944385840e-02
      -7.1754532767552795e-02 1.2174407744948598e-01
      1.1614131545338960e-01 1.8260455594752223e-01
      -6.8218733348829746e-02 7.4095288849878621e-02
      1.3700086878023392e-02 -3.4736787251276866e-02
      -1.1847640036514770e-01 -1.4299291339774109e-01
      -1.2680398076202859e-01 -9.3460932230243751e-02
      -3.8336045259579864e-02 9.7976166506472770e-02
      -8.3676854514521268e-02 -4.4748695228765650e-02
      1.8263381529921374e-01 1.6328451872327676e-02
      2.1952177568548984e-03 -1.4810686659766856e-01
      9.8836279163675295e-02 1.7435184598696831e-02
      -3.6038788492407686e-02 5.0874430402079202e-02
      2.8549849173808504e-02 2.3876907082890306e-01
      3.7778934831344729e-02 1.2038768951798839e-01
      4.1430856769875797e-02 -1.3997665376629737e-01
      1.7512525199599316e-01 -9.0710797655832051e-02
      1.3917000189234288e-01 3.7803676232421347e-02
      -6.6387101735477808e-02 1.3896755418307510e-02
      9.1217774434730406e-02 -5.8494493683790789e-02
      1.9400771441258119e-01 8.5459557583573882e-03
      1.2700200549338095e-01 1.7044325654677511e-01
      -5.4113655921105147e-02 2.3352316960758436e-02
      -7.5259637395276913e-02 -9.4892034355742713e-02
      -5.7287850452678472e-02 9.7680041613048260e-02
      -1.7210027512758023e-02 7.4869052328504881e-02
      -9.9081540028006954e-02 -1.5145192850280254e-01
      -3.9112895396898875e-03 -8.1124304749803117e-02
      -2.0904634018643429e-03 -8.6054385528515076e-02
      -1.3012635226774402e-01 -5.0700404464629333e-02
      2.7936339539658586e-02 -6.0806911374599870e-02
      4.0975757789180826e-02 4.5459579565089552e-02
      3.4110664859444911e-01 1.1656684029051047e-01
      6.5833105497976857e-02 2.9762092475136295e-02
      2.1225530927199650e-02 5.7285784702439037e-02
      -1.5459501670002287e-04 -1.8289860751803150e-01
      -2.2148226080163428e-02 -3.8332394259303931e-02
      -9.7262287985545329e-02 3.0419225734100896e-01
      3.7369659908722428e-03 1.2901686018602048e-02
      1.4131225690478097e-01 -1.2531367285099523e-01
      1.3000304991858491e-01 1.0369485432178698e-01
      3.3301766426621311e-02 2.0552488726074278e-02
      -1.5780924501996085e-01 -1.1827267935681528e-01
      -8.7182622412756827e-03 -8.3746456694508822e-02
      -7.2257163397450017e-02 2.4353566635729939e-03
      1.0557011950177779e-01 -7.0717726912245371e-02
      6.1039453375424831e-02 -6.5464531461080624e-02
      1.5275873921479607e-01 -3.1445089393524285e-02
      -2.7908707812227797e-02 6.7372213339451162e-02
      -9.5266296284568786e-02 -1.4312830435932736e-01
      -3.0902209039818978e-02 -7.9453851460706090e-02
      1.1964882873136183e-01 -9.0529535845349340e-02
      5.2941759787791934e-02 1.5571493641044271e-01
      5.8366114010941418e-02 -2.2108456257459516e-01
      -1.8740164227139830e-01 1.4125839579053234e-02
      -8.0129260717021131e-02 -7.6712251046245378e-02
      1.4447074902721355e-01 2.0614586462761342e-01
      8.7799831640885131e-02 -4.9244934361460817e-02
      1.2061056300881135e-03 8.5506467520977167e-02
      -1.0326586726045257e-01 1.4077290545944521e-01
      -1.7564448863378720e-01 -9.9954146592640514e-02
      3.6075511152417222e-02 1.0280584387854827e-02
      1.3591567259352563e-01 -2.9431791147758062e-02
      1.0022785841261311e-01 3.6599822446663141e-03
      4.8409347638623784e-02 -1.9391620420731906e-02
      1.3347540339731015e-01 -4.5767462538722777e-02
      -6.0985113313488312e-02 -1.1785770103589135e-01
      -4.3806459015654130e-02 -5.6481317510545241e-02
      -1.2412350568597139e-01 -1.4390082285055844e-01
      1.3213026506843889e-01 3.7381606593627097e-02
      1.5128214202112458e-01 -6.7832336517387404e-02
      1.4644047907157925e-01 3.3672810137831227e-01
      -9.2266932163498516e-02 -9.5153385898071232e-03
      -1.3288818856511524e-02 -1.8676813182019339e-01
      5.5150639785255792e-02 -7.2057999790991617e-02
      1.2203392333302820e-01 -6.0809803602454401e-02
      -5.3901661034968879e-02 -3.3668003914733850e-03
      -1.1374318715385121e-01 5.3837861907960784e-02
      -6.6957833880986001e-02 -8.4896380661849569e-02
      -8.4033413299142420e-02 8.1510359591413839e-02
      -1.2074569932447542e-01 3.1677242408191517e-02
      -3.1275505203789390e-02 -8.5754835229033530e-02
      -3.1207760483185365e-01 7.4877780447387479e-02
      3.0644051145138688e-02 1.1014864852251569e-01
      -8.6082969765359247e-03 -1.6045168158734971e-01
      -8.8087647312564327e-02 9.9330009485171233e-02
      -1.0322632866893432e-01 -2.1963584292384103e-01
      -1.4060712009437573e-01 -1.0811389519280457e-02
      -4.7285370348407500e-04 -9.8395109995046779e-03
      1.3316870055990565e-01 -6.1087593874556291e-02
      4.6313164650618098e-02 8.4794777772583374e-02
      5.6215734408580360e-02 5.0310272816656364e-02
      2.4616466083097474e-01 6.4345000685205210e-03
      7.7178531779129200e-02 7.7700533199455551e-03
      -1.2245107235006766e-01 1.1360610166683406e-01
      1.0875922726847122e-01 -6.7985439212982113e-02
      -1.0054792593924955e-01 -1.0037968473803097e-01
      -9.3405733731983340e-02 2.6752906845615970e-03
      -1.0184649214554981e-01 8.6003842129220003e-03
      1.3675351404899472e-01 4.1714274535160016e-02
      1.7123700214752516e-01 -5.6571225942586719e-04
      -4.3181028112237174e-02 9.4187014573464733e-02
      1.8461154076356061e-02 -5.7284420053515278e-02
      -2.3740630374084599e-02 -6.0922384351384300e-02
      -4.3351036655984020e-02 2.6371142475717726e-02
      4.6409539231229362e-02 3.3436581449504843e-02
      -6.1287328558480937e-02 1.3871952371332644e-01
      -7.7884690670693091e-02 -7.7055178391125731e-02
      -2.5357840699815237e-02 7.4130743091430787e-03
      1.7563489208006727e-01 1.5077456951330417e-01
      -7.9598373319284890e-02 9.5674945134597303e-02
      -6.7292116589112674e-02 1.0384979115707955e-01
      -1.3956152975961728e-01 8.3877552192395163e-02
      -5.5660028533968807e-02 1.1373594084467367e-01
      9.6016683847877232e-02 1.1732311748342165e-01
      8.7411419516615102e-02 -5.8505394214945432e-02
      -5.4979403730543594e-02 1.1146406865774916e-01
      -2.4517514613156453e-02 -1.1318861961296979e-01
      -6.4599503973194944e-02 -8.4795977023845281e-02
      -4.5880029844822309e-03 -6.5736414329377796e-02
      4.3343319123564678e-02 1.8465934629335119e-02
      5.4246134050947123e-02 2.1188207609988810e-01
      7.0853222048553877e-02 -1.5133014366890446e-01
      -7.4461217794039289e-02 -1.0538359233409596e-01
      8.7010169825681119e-02 6.3760013048063419e-02
      -1.7494345891889315e-01 1.5553551002564023e-01
      1.0735687833298587e-02 -8.3136312186661114e-03
      -1.4653242263519461e-01 8.9285693311323161e-02
      -3.4048064441638139e-02 2.2691940430043570e-03
      -3.0218032149713697e-03 5.1750285517059937e-02
      2.1943804896404493e-02 2.0036596615320909e-01
      9.1421250309952684e-02 2.7074627763635846e-02
      4.8325941635728281e-01 2.0660369730130823e-01
      1.1805736512020994e-01 -6.6180543553418847e-02
      1.2156463906389358e-03 -9.3543725755881546e-02
      1.1052966889765004e-02 1.0419802588489435e-01
      -1.0958387932879510e-01 -1.2399850479554211e-01
      -9.8836519490685032e-02 2.0724029435216443e-01
      -6.1629034362222293e-02 -1.9691868122419090e-01
      -1.5464381454618195e-03 -9.4008747428422135e-02
      9.2184444066235761e-03 8.5035919213062305e-02
      4.3547115103261966e-02 1.4085799921673006e-01
      1.5726580579630128e-01 -2.9946703497572419e-02
      -2.2334184137660505e-02 -7.0796975627328035e-02
      -1.6909105754417783e-01 -1.1428745125866664e-01
      -1.0306362890274133e-01 6.7883269850680966e-02
      4.0933927083386353e-05 7.6819033160254952e-03
      1.7379852850981539e-01 -1.3818518745752620e-01
      8.9675840420634548e-02 7.2340187664520675e-02
      -1.5788132683106040e-01 -1.1638428016330943e-01
      8.4266245928876854e-02 -1.0782075701882174e-01
      -8.3647661956673725e-02 7.6083242433385503e-02
      -1.4728919127670370e-01 1.0079758756965337e-01
      1.1989962970234978e-01 -3.5625149598141843e-02
      -6.1049776580203087e-02 -1.6558456972087857e-01
      -8.0586781636409477e-02 4.8670094207579184e-03
      -2.2799049212545330e-01 -3.1406458118578329e-01
      -2.2242858888209729e-02 8.9230522112672284e-03
      3.3733200421935304e-02 -5.3059626195806550e-02
      2.8165408040659445e-01 4.7592294719617179e-02
      5.8129602808597684e-02 1.1513846229959355e-02
      3.2298818517953686e-03 -1.8336019922090063e-01
      -8.1653897188684765e-02 -7.4928850808522407e-02
      2.2604055162794103e-03 3.2963354456493171e-01
      5.7694091352199377e-02 1.3040947094577679e-01
      -1.8744893640167067e-02 6.4239836105038375e-02
      -6.6512003307258150e-02 4.2135022799595863e-02
      1.9815705412399912e-01 4.8947664557045335e-02
      -4.6642328434188154e-02 1.1951392368968274e-01
      -9.3376906214158978e-02 5.5357404427717798e-02
      3.7151083994320216e-01 -4.9077318374356367e-02
      -8.0117995874427583e-02 5.8923880929480477e-01
      -4.9725576104846046e-03 1.2165081784388035e-01
      8.5570297588893549e-02 -1.4583153703950319e-01
      3.4887634990015813e-02 -7.4716205831842644e-02
      4.5930915810496453e-04 6.0525872098238349e-02
      -1.6116713714926609e-02 -1.0011693860686653e-01
      6.1293929045180287e-02 -1.2958772047535227e-01
      -8.0127277767426300e-02 -2.9405919329076693e-03
      -1.1327138743516646e-01 3.1428541095305400e-02
      -2.5846310180354423e-02 -2.5567161132870153e-01
      -1.2207043933742126e-02 4.4949115976792464e-02
      9.4055572601201703e-02 -1.1897141857307166e-01
      6.6885676258887652e-02 1.0956951946213338e-01
      -1.5195866864651093e-02 3.3262757739669696e-01
      5.2877943098206315e-02 -2.4237794605704360e-01
      -2.2707900609273746e-02 -5.7955831798918063e-03
      -9.4271442200130964e-02 1.3018496652184133e-01
      -5.0512747394365592e-02 -7.9869973606176009e-02
      4.1506679398032625e-02 3.0507467711135841e-02
      -2.0280585536285742e-01 1.1053247218392140e-01
      6.4932278080567533e-03 6.0358828959503757e-02
      9.4002026237219441e-02 -1.1978051911460263e-01
      -2.9966926260323015e-02 1.3052316000401726e-01
      -1.3271580688227050e-01 4.3098859846392661e-02
      -1.1048121755817045e-01 -2.0978199712789875e-02
      1.0531451184419481e-01 5.0164567907864770e-02
      1.0797920628445544e-03 -1.6786251060915550e-01
      1.5854968446357118e-01 -1.5791799786068070e-02
      -9.5334229173785728e-02 -3.8356391383750410e-02
      -1.2826391830638804e-02 -4.9000967812850869e-02
      3.2138858566059296e-02 -9.1459753377291328e-02
      -5.9592933463155515e-02 -2.5197992945137634e-02
      1.8737741737739183e-01 -1.5879048432362700e-01
      1.4978273903153475e-03 -9.9999238387293396e-02
      -6.3803047089206880e-02 -2.9025273483406178e-01
      -9.0323130817742611e-02 -2.7166647529857296e-01
      -5.6470531299608759e-02 1.2801328809827740e-02
      1.1105257262332809e-02 1.0320788211604738e-01
      3.2795446968729193e-02 -5.8424149611236653e-02
      1.4525616939516017e-02 1.8123265706470406e-02
      -1.5405177039860818e-01 -1.0885530551129047e-01
      -3.7981985005395590e-02 1.2674630035001416e-01
      -1.3759205288561363e-01 5.3293241110484023e-02
      1.7659993256599765e-01 -1.5573458468259088e-02
      2.5957932611840120e-02 -8.5771572178724914e-02
      8.5178931684343109e-02 1.2135425545898806e-01
      1.0158700506100181e-01 2.5062608343154654e-03
      -1.1815851213876334e-02 -4.8726269511816425e-02
      1.0541562486497613e-01 2.0976966000434940e-02
      5.0575452804444765e-01 2.4465623333194537e-02
      1.6276793626017198e-02 3.9368111134312844e-01
      -5.7039891832955929e-02 1.5403610445173968e-01
      7.1111182842423154e-02 6.1290191847855162e-02
      1.5190563662290332e-03 -1.1183580249918529e-01
      7.9767794583276347e-02 -3.9751854047998691e-02
      1.2798117375115806e-01 5.1215652881611180e-02
      4.1751948408135973e-02 9.2732245177700012e-02
      -3.6428538755286018e-02 2.3303586228336692e-01
      -6.2258244017515812e-02 6.5689502565871194e-02
      -2.1697673647757248e-02 -1.3001155525788230e-01
      6.6967993444796162e-02 -1.6185625377299256e-02
      9.0890675589733849e-02 4.1489357630162274e-02
      -4.7402621656049755e-02 -1.2105344317076227e-02
      9.8163049807670575e-03 1.3124807424150992e-01
      2.1446085999710679e-02 -2.8560783439961584e-02
      -2.0148843580218657e-02 -4.5780244903106506e-03
      4.0099265071934353e-03 1.6571432598548641e-01
      -1.3531758074836139e-02 3.9051646626084124e-02
      -3.2827027321575261e-02 5.3028116222979427e-02
      -7.5732883854700127e-03 -1.3735281387495479e-01
      8.6452659448682828e-02 -5.0440210529691311e-02
      2.2401275881818711e-01 -1.5177368849824993e-01
      6.0520569658993092e-02 1.7402076062249122e-01
      -1.6912671710191399e-01 -2.1028929783915387e-03
      -1.0572014060273263e-01 5.4680107686490273e-02
      1.0604117551977875e-01 5.8710183950387060e-02
      8.4691735757302419e-02 5.2206780160093981e-02
      8.8977113211463607e-02 4.6990498062380232e-02
      -5.1511976690289465e-02 -5.4653870660998846e-02
      -1.7435322832369818e-01 -1.4510340775397560e-03
      -4.2310084342176806e-02 -1.1888001465347754e-01
      -4.7634460812601941e-02 5.9243547369067555e-02
      8.5971962087392037e-02 -5.7776578002910736e-02
      1.0568134444074616e-01 -1.4519331467339841e-01
      -1.8726810608006092e-01 -9.5169776372783316e-02
      -2.0738160338200426e-01 -3.8218785324046389e-01
      -1.2185750237200174e-01 -9.2972168098971547e-02
      9.1105552300047063e-02 1.1814543753455206e-01
      1.5879006671886917e-01 5.6868826884940568e-03
      -9.1961094770393992e-02 1.2214901541228394e-02
      -1.8238427705054178e-01 -2.8316651943907582e-02
      -6.5383060569759413e-02 1.2179670052825464e-01
      -4.5950070566624776e-03 1.1160165436250404e-02
      1.0147749010139245e-01 -1.8770385523951581e-02
      4.4995679396956582e-02 1.1509841331151938e-01
      -4.6349304571382359e-02 -4.0763542995630717e-02
      7.3438127681494075e-02 -4.9488862418412792e-02
      -4.5124140005236756e-02 -4.2973735688767957e-03
      -1.4141718390201424e-01 1.9695361261381941e-01
      2.4097095218615258e-01 -7.0839320624474747e-02
      -6.8876065733215475e-03 7.0025772177153145e-01
      3.8748971808266780e-02 1.3317269941455429e-01
      1.2534991186511213e-01 2.7276779008254495e-02
      1.5337303022253793e-01 -3.9640100539466719e-02
      -2.6607781321893533e-02 -1.7951194535310466e-01
      1.2480848120319307e-01 -1.3182678506815934e-01
      -9.0514064317164203e-02 -3.2269266393735840e-02
      -5.1208883253533385e-02 1.5272087205377044e-01
      -1.9352525569635165e-01 -3.5177409681748831e-02
      1.3765544248716943e-01 -2.1803772864982798e-01
      3.2572575971184244e-02 4.3713749495963489e-02
      1.2571953883894679e-01 2.1195404107719081e-02
      -3.0928923752495979e-02 -3.9686576766393760e-03
      9.1814277856494278e-02 2.3762486757541187e-01
      -1.2122922050285667e-01 2.2425238639158301e-03
      3.8558761126278047e-02 8.6442629243966077e-03
      4.2967782294232801e-02 2.5823430487560051e-01
      7.2558324643999500e-02 7.2703566111695372e-02
      6.3173258183315317e-02 1.3504267512491552e-01
      -8.8251605383295822e-02 7.8679902372466581e-03
      -4.1981831190417131e-02 8.6276368275761392e-02
      2.4374009500197555e-01 5.1670450304812064e-02
      -7.7749625986707885e-02 2.3477877446833814e-02
      -4.6892069272159699e-02 1.0631343677082758e-01
      -9.9759368626421929e-02 4.0766398023465669e-02
      1.4694816174568803e-01 -1.1090002593392220e-01
      7.9013420399295695e-02 -1.2793153402640930e-01
      3.3458498303557092e-02 1.4938959331412441e-01
      -1.2668379344376163e-01 9.2181698705703613e-02
      -1.2235147608111160e-01 -2.0741128548851145e-01
      -5.6473540662947568e-02 -3.6268445962526364e-03
      1.7598691591719676e-02 1.6159545916473100e-01
      6.7325372216042192e-02 -2.7178832743104875e-01
      9.5258508425410171e-02 -1.0795987517978974e-02
      -6.2426355636157321e-03 7.8870814907586961e-02
      -1.3129490195821947e-01 -2.9551636975414142e-01
      6.4327448742674959e-02 3.3892228613528523e-02
      9.6187431193464318e-02 -1.7437294494956201e-01
      8.6384113515611413e-02 1.3711766913182291e-01
      -1.8519375556045565e-02 -3.7512483724942620e-03
      1.0235381646041813e-01 -7.4618965576323956e-02
      -9.2781361842540298e-03 -9.6297210744525727e-02
      -1.7027674057457326e-01 1.2541348767606106e-01
      1.0032907949606057e-01 -1.8627361514683985e-02
      -5.3274783133475272e-02 2.3023075571624359e-02
      2.5214480199032278e-02 3.3539318070791448e-02
      3.8207520784543821e-02 6.0587750922262429e-02
      1.0055226648343465e-01 2.1899763161033436e-02
      1.0410247592735065e-02 2.1370395103490872e-02
      -7.3281231889308698e-02 -3.9106136481018412e-02
      1.2005510235416904e-01 3.7555965197944530e-01
      -7.2307048617443290e-02 8.6278753973559108e-02
      1.3194677815386546e-01 -9.3128663630876962e-02
      -2.0716606741835893e-02 -6.4548735800474114e-02
      2.1132709592990337e-02 -1.4788309409158025e-02
      -6.7126890505806419e-02 -1.5822044667606103e-01
      -4.6495161696093780e-02 -1.2855514564644355e-01
      -6.9866157581308264e-02 7.8056214956352704e-02
      -6.3068848225428922e-02 7.2932284252911509e-03
      -7.4874072941253991e-03 -1.2458750141371434e-01
      -5.7163926410280438e-02 1.0948601064655857e-01
      -6.7032178257351346e-02 -6.3569310428035000e-02
      -1.2670255798118638e-01 1.2917006197979733e-01
      -2.5082934374855450e-02 3.0705971969318763e-01
      -5.9983809467735225e-02 -6.0531563757497783e-02
      9.6352081253526425e-03 7.5180825080120556e-02
      -2.7942195276325953e-03 2.9295291823892200e-01
      9.2055947413548403e-02 2.1571628576081442e-02
      1.5401575498635484e-01 1.0406107500320778e-01
      -8.1302327753451725e-02 -2.7393655111239874e-02
      1.0739648878510553e-02 7.8267438802138406e-02
      -9.1274175692743417e-02 3.4568635588105988e-02
      1.0876910225093320e-01 6.2910656434953388e-02
      -1.2864577867648519e-01 1.2733643240328812e-01
      -9.9063456189282736e-03 4.9825773582661603e-02
      -6.8283657177031859e-02 -7.5034488641894215e-02
      1.3472616663336923e-01 -1.0691836378633877e-01
      6.6993848028255892e-02 1.0639518250124616e-01
      2.3836775728693645e-02 -2.5842419304629535e-02
      -2.0999553738810564e-01 -1.2370390365112986e-01
      1.1406660133265049e-02 1.4051888722434257e-02
      1.0682764360750885e-02 1.1528744527031783e-01
      -5.9814742267782203e-02 -2.7620099732445536e-01
      -1.2487990115823941e-01 -1.1974749648410693e-01
      -6.5959395622415720e-02 -1.8596150852698151e-01
      -8.1035413099953713e-01 -5.4979714307565075e-01
      -1.2133787427630439e-01 -2.7872840959414440e-02
      -4.6978966573060707e-02 -3.1362786968665719e-04
      1.9176792908672904e-01 5.3132162566185664e-02
      -6.4734830197784093e-03 -2.6820850654404666e-02
      -1.0027142140184540e-01 -5.0414281721326948e-02
      -6.7105469469837614e-02 -2.7782000080263133e-03
      1.5417496861041173e-03 1.2618366378950094e-01
      8.2699979392088577e-02 1.1016945380724889e-01
      5.1001129719890473e-02 -3.3733224369408267e-02
      8.8736632222460421e-02 1.0399776359925729e-02
      1.6900614815713697e-01 -1.7188670255223842e-02
      -2.4178325331646242e-02 -1.1603473699127505e-02
      -1.2136679447165866e-02 6.2704364497524090e-02
      -4.6586711216904902e-01 -4.6837304999462710e-02
      -4.6102456402597046e-02 -5.1854647989817793e-01
      5.1948977038162050e-02 1.8449627241401416e-02
      1.7834270161187112e-02 6.3195782253403620e-03
      -2.6710299302165588e-02 3.6893220875717600e-02
      -2.5837688641563432e-02 -1.6551926747636062e-02
      -1.8054600929595321e-02 -1.2903439921399777e-02
      1.3903130737300453e-02 2.1302129902294333e-02
      1.0066123593719684e-02 -8.1646850053656905e-02
      4.0866821808530469e-02 -9.3552048135594670e-03
      5.4517270255898420e-02 -1.2146149395252499e-01
      7.1963432242002759e-02 -8.4319831734444104e-03
      1.4925431304844264e-01 -1.0438932717348744e-02
      2.1821487128127686e-02 1.1977407554959685e-02
      1.9234118207374327e-02 2.8729103852777238e-01
      -6.6058185590842063e-03 -2.3873878462866480e-01
      -2.0139616619257318e-02 -1.6370948687519835e-01
      -4.4744540700148827e-02 -9.3429834863132735e-02
      6.0543006825690901e-03 -4.6133981482916517e-02
      -3.7726507114568689e-04 -5.0263263707031200e-02
      -1.0637062659545569e-01 -4.1134072351204740e-02
      2.4480840127882812e-02 3.8011160982530393e-02
      9.1898283578008971e-02 -9.9405726822068344e-02
      -3.5956837530651653e-02 1.1086877586879010e-01
      -5.5843781040967537e-02 -4.5337673757619920e-02
      -1.9531816258570880e-02 1.3221463543717293e-02
      6.5668368857229778e-02 2.8936619334926604e-02
      1.4198067592818844e-01 -3.6912212754615759e-02
      7.0789345015133939e-02 -4.2091013690151238e-02
      -3.8193070112900622e-02 1.6813166838854091e-02
      -6.6104912604590227e-02 -9.6987175289207403e-02
      1.0976875933248027e-01 2.3694201655695562e-02
      -1.1006110034296791e-02 -3.4593524473803795e-02
      -1.7415379436011392e-02 -6.5947001283694462e-02
      -5.9596050958742798e-02 -3.1931410207608951e-02
      -4.4861217609210510e-02 -2.6338204557414890e-01</_>
    <_>
      6.6412823726834644e-02 -1.3038251667327244e-01
      -1.8494408342938704e-01 4.3792650259439361e-02
      -1.4690337507841592e-01 -1.7445506250576670e-01
      2.3777624100718518e-02 4.6176853941381579e-01
      5.6603322089380348e-02 -1.2863325184770014e-01
      3.4001969239954583e-01 1.2382782302763982e-01
      -1.3382915657994299e-01 -2.4708761582267030e-01
      -2.1610913322217172e-02 -1.8428458631715983e-01
      3.1804105835429747e-01 2.1453940264083690e-01
      -2.0300072881519055e-01 -1.7347759116821376e-01
      1.6052964924499525e-02 -1.2501132811479171e-01
      -2.6454720664504452e-02 2.4264916501884640e-01
      2.9301232278076933e-02 -2.2167859061096404e-01
      3.8711038042185904e-02 3.9057322921634802e-01
      6.9344761648805681e-02 3.8639797471936504e-01
      3.8149437683564533e-02 2.0322002086847694e-02
      -5.0011548774938595e-02 -3.4251840543823339e-02
      -3.3160684560030457e-01 2.2232631309218862e-01
      -8.2796972791423215e-02 -2.7131671188302936e-01
      2.1082408605354758e-01 -1.7069581363034508e-01
      5.2229471759658141e-04 4.7895557795488423e-02
      1.2652794556433183e-01 -2.4768620313122194e-01
      9.2858761119686870e-02 -3.0162570390436383e-01
      2.4716216274182728e-01 3.5767610062663718e-01
      1.9867878477714435e-01 7.2750743746703400e-02
      8.4571759925711101e-02 -1.1844436552386667e-01
      3.3236899486428473e-01 -2.1158998548239774e-01
      -1.0968494150907418e-01 2.6285452828107035e-02
      -1.6378684661900370e-01 -2.7464074112756642e-01
      4.6668772577282198e-02 2.2749470443101865e-02
      1.0256516834090995e-01 -2.2041295388798279e-01
      -8.2203325864116869e-02 -1.7161195802602891e-01
      3.4979258510599592e-01 -1.9725993571884431e-01
      -2.1917339599489365e-02 2.3717683287983751e-01
      1.9349465965481380e-01 4.1377549014658170e-02
      1.6076878271536205e-01 2.6928824859766531e-01
      -2.8745306089083361e-01 -1.1994565699342359e-01
      1.1349979802426786e-02 4.5113824896091489e-02
      -6.4492745336419393e-03 2.0902259459632197e-01
      2.3174620632567886e-01 2.4128904874640303e-01
      1.4497934311290026e-01 2.4080572069473788e-01
      -5.3708158648736390e-02 7.5462722226257953e-02
      -3.9912818768541747e-02 -2.5554887566902534e-02
      -4.4312365715247604e-01 -1.8067537371860404e-01
      1.4404722364998263e-01 2.0028816625616738e-01
      -8.2587423438088642e-02 -1.7450236004320979e-01
      -6.0812254529170356e-02 1.9502797052903559e-01
      -5.0848838751491703e-02 2.7350939960198084e-01
      -1.7924194545155661e-02 2.2989834707478027e-01
      -8.2926861109373390e-02 2.6549637498276057e-02
      2.5084346619183373e-01 1.6658689329360862e-01
      -1.5134997053573190e-01 -5.1778679464025614e-03
      -2.3521660769251176e-01 -2.9101080791125680e-02
      8.2663480579580853e-02 -4.7303969687464802e-02
      -9.1051665713693580e-02 -2.4256932572027361e-02
      2.9707911899671480e-02 -4.9814587700696751e-02
      4.4216777881718579e-02 2.4863349614669458e-01
      2.2229020570419888e-01 1.1247150295983431e-01
      1.2437351484228809e-01 1.8117537057867603e-01
      2.9047248744547647e-02 9.4896540004326985e-02
      -4.6236137654331252e-03 4.4504098441246294e-03
      1.3416151358499112e-01 7.3593980834853606e-02
      3.8735073086209562e-02 -1.9157789824440644e-01
      -3.9076103400642395e-02 -1.1270262720282886e-01
      -5.1581035564191337e-02 6.7003960939780338e-02
      -1.1610206386798377e-01 6.3394531507694626e-02
      6.1151637221611647e-02 -1.0966514074584389e-01
      -9.5590223782331285e-02 -1.5159013205914099e-01
      7.0982328235028175e-02 3.6408719928627736e-01
      -6.1452041766859540e-02 6.4156377829880526e-02
      2.2010644347422365e-01 -2.9716593261577617e-01
      1.4797258950796208e-01 4.0366434989942701e-01
      1.4931686896063334e-01 -8.1757962983427399e-02
      2.2326842821348650e-04 -3.7984859562484583e-02
      2.4656503856330361e-01 1.8916489891812244e-01
      -9.3223982947394729e-02 -2.4509693633957647e-01
      1.3468585983369996e-01 1.7537223725322310e-01
      8.4721882588930736e-02 -1.2621788866998462e-01
      1.9268105525338072e-01 -1.1364219361097377e-01
      2.1038263178271596e-01 -4.3843272195264887e-01
      1.4112119047864699e-01 -7.6081854818933731e-02
      2.6738387777984422e-02 3.2207141817505408e-03
      4.2183864634472261e-02 -1.7261726926212823e-01
      -1.9899952671751187e-01 2.3164400599698876e-01
      1.3804673540694945e-01 9.1680843111286488e-03
      8.7119784370808181e-02 -3.9696121605387485e-01
      -1.3663626127506762e-01 1.8120045169084098e-01
      -2.3438221598601675e-01 1.1608412717010752e-01
      -6.7181008761266578e-02 1.7316284675190918e-02
      2.0548226148708448e-02 4.4616858692738563e-02
      1.0670434327662256e-02 1.8789288141798707e-01
      3.9364351842306078e-02 -5.9729121278224467e-02
      -2.2243985000966485e-01 -1.4520014667865377e-01
      -6.0571675445532114e-01 -2.1647030320367154e-02
      2.8578582864159988e-02 6.3307542752822257e-02
      -5.4953618704093661e-02 -4.0999694972460005e-02
      2.3516662148974571e-01 6.1622701169555177e-02
      1.6194258668557732e-01 -1.4423356749855365e-01
      -9.6254954304740646e-04 3.7972892372725872e-02
      6.2448650024335126e-02 2.1098374863034855e-01
      -1.9176132609732534e-02 2.1247729043277746e-02
      1.3194270453651251e-02 2.0908712613898879e-02
      4.8995327885306722e-02 -3.9957091557265415e-02
      -1.0561731911146198e-02 -3.7723237921609677e-02
      -7.5771255747855920e-03 1.9997695145064609e-02
      -1.5921222854761923e-02 -1.4298318873168930e-02
      3.7837866524335496e-02 4.0678798527306000e-02
      9.2964632786311559e-03 -2.8907274631870327e-02
      -4.2713187451019659e-02 -5.3684465409749527e-02
      -6.0657726801513843e-02 2.4869009349715392e-03
      -1.6570954554996676e-02 5.7199852970189055e-03
      -5.3903780258374848e-02 -5.7523110516816550e-02
      -8.1489700210684198e-03 4.9231578753267585e-02
      -9.4371949873437704e-03 -6.2129366164084557e-02
      -6.7653926800367668e-03 -7.4303305455274610e-02
      -2.8259986826821432e-02 -1.4354186093430992e-02
      5.1638411597361163e-02 -1.7515705724689069e-04
      6.7508133822659841e-02 -3.4357906270998974e-02
      8.3521596526178639e-03 2.1173804543142601e-02
      -1.6583223305804379e-02 1.0391320492627327e-02
      -5.8749185473828602e-03 5.5787841647369548e-03
      1.8379620821148913e-03 1.0685478362206033e-02
      5.3100543552037222e-02 -9.3574833771720350e-02
      1.0462184383119716e-02 -4.5156244061092358e-02
      -2.7020760360353377e-02 2.4825053238177033e-02
      -3.1353413580877058e-02 2.2540072856607640e-02
      -8.9371209443076888e-02 3.3326784057957679e-02
      4.3277743609545248e-02 2.0268217725851852e-02
      -7.5551869643253914e-03 2.7411692020006817e-02
      -2.5887814201700141e-02 -1.1307749615607711e-02
      -5.5777558003065678e-02 5.3923751728639925e-02
      -1.1088497675009494e-02 7.8493430301693853e-02
      -3.5897304412665441e-02 4.6211798857751521e-02
      -8.6501294726578862e-03 -4.2704225275231517e-02
      9.0774149581500738e-03 -4.7517769884019088e-02
      -4.2906330889548136e-02 -5.2437559268333142e-02
      3.4183459357534689e-02 -2.1082137964249879e-03
      -1.7571005154603487e-02 -5.2487119635922135e-03
      2.2380584175812866e-02 -3.9286331852236255e-02
      -2.8178106978021276e-02 1.6580795557389942e-02
      -6.3906428928344514e-02 -1.9299045336223061e-02
      4.0980789076550596e-02 -1.3457652122256136e-02
      -4.3951870085586889e-02 -1.5802722227749651e-02
      -4.1786989411723527e-02 9.9387970769517584e-03
      1.9295326983982952e-02 1.7800234446785587e-03
      5.8666111557564099e-02 6.0906675657058261e-03
      3.0212415413339987e-02 -1.5155304169619207e-02
      -6.2644491158948814e-03 -2.1084877878900104e-02
      1.6222809523907172e-02 -4.1247662640747890e-02
      3.1917138514479276e-02 -2.1469015950140183e-02
      5.5056147486941716e-02 2.4142164301340158e-02
      3.4205824228827446e-02 7.3527417010913953e-03
      -5.5686714291829011e-02 -1.2181721443050355e-02
      3.0699185243350947e-02 -4.2529106462052491e-02
      -3.6056719105713272e-02 -1.7026914533386367e-02
      -8.6326013661172500e-04 1.3711448596491069e-02
      1.9849600902318940e-02 4.4852094957780801e-02
      7.8021531507081660e-02 3.2905371201195036e-02
      -3.3822121659142321e-02 7.9421859585063169e-03
      -1.1847252928925120e-02 3.6929281063118935e-02
      -2.4838216470955479e-02 7.3922546099114764e-03
      4.5388166236752646e-02 -2.0909220161460670e-02
      -1.2715792825413222e-02 -1.0676233741645114e-02
      2.3910341370714926e-02 -5.9126321251186643e-02
      -3.0892042023262611e-03 4.4824209551987872e-03
      -2.7770259873880689e-02 -1.0477922079023087e-02
      -1.1932974261413026e-02 -1.6392731912796377e-02
      -5.0773741791808862e-03 -3.6575515081276072e-02
      3.2510870698814413e-02 4.1369814358622609e-02
      -4.8416141880779306e-02 -1.5239242284778472e-02
      -8.7955672310973503e-03 -1.1959301633408220e-02
      -4.7029785656380732e-02 4.3433317989607353e-02
      1.1081970620923602e-02 -1.7707722682342171e-02
      -2.4484844382375519e-02 -1.4509979074040578e-02
      2.1292509871742204e-02 -7.3315789271708662e-03
      -4.0273249788155323e-02 -3.1546649786129380e-02
      1.0819774226914559e-02 1.1150234641196417e-02
      -3.6879694291444318e-02 -3.1600573965307258e-02
      2.7106134856543312e-02 -2.3171058106881665e-02
      -3.8927959028914336e-03 -6.2017633233217200e-03
      -3.5947913959670772e-03 2.6586353690198891e-02
      -2.1991396603537435e-02 6.1265960601990563e-02
      1.0866822181972848e-02 -1.9205972652760930e-02
      -3.6741803848634284e-02 1.7875918738363274e-02
      3.4248728531759774e-02 -1.0827041463905777e-02
      1.4690013353422513e-03 -3.9729736515931688e-02
      1.6937559041585563e-02 1.1240088351997666e-02
      -8.1627448974995690e-03 -1.2907905178250641e-03
      7.7398245394033702e-04 -5.1174699480265512e-02
      1.1036063384926879e-02 -3.9641096513257645e-03
      2.0181299125958976e-02 2.8140006405004722e-03
      3.2631209613981214e-02 1.0952679131997167e-02
      -1.8695608213516190e-02 -2.0690191882925504e-02
      -2.0244261986588824e-01 -1.8074035535982559e-02
      -7.7516996210746777e-03 -3.0451988762083125e-02
      -1.2329796909755957e-02 4.0844482833743319e-03
      7.2143934710734324e-03 -4.1916918911428507e-02
      2.0057142383571491e-02 -3.6378853233988463e-02
      5.5158287326149882e-03 -8.6652323046846960e-03
      -1.7933028269476816e-02 4.2190061138843001e-02
      2.2194072187887538e-02 2.1734032842609004e-02
      4.3360474593864634e-02 3.0770100797360870e-02
      2.4190754176280707e-02 9.6442418595104103e-03
      2.4334852840066676e-03 -4.0247563993024336e-02
      -1.9852306884806718e-02 3.0629880328857948e-03
      1.5471961447833551e-02 3.3742055429802444e-03
      -2.4852956067727063e-02 2.5160065529766667e-02
      1.3428359620913070e-02 -1.2711397476974627e-03
      -5.7274228437540986e-02 -1.5959497397353013e-04
      -1.5687661027693575e-02 -2.7887025532785095e-03
      -1.0040287249802408e-02 -1.7417996758587247e-02
      2.8689509022599875e-03 -4.4217502058661130e-02
      -1.0014841146988562e-02 9.3978440056139770e-03
      -2.1052347131791237e-02 -5.6514530475670399e-02
      1.7018647769719751e-02 -5.5839839559286494e-02
      -3.3093179494779960e-02 9.9442984301240950e-03
      3.3128274092563782e-02 -1.1432838182908625e-02
      -1.1629720151001208e-02 -3.4514407332273053e-02
      1.1439718151690134e-02 6.2794691706880817e-02
      -2.3905458017719611e-02 -1.5132590763857515e-03
      2.6382909004117543e-02 -2.6620666980573027e-02
      2.4221589805539928e-02 5.1245476334270408e-02
      4.0672375678430295e-02 -3.8169596186899468e-02
      -8.4682604078722516e-03 -1.8971096374991045e-02
      3.2139913740128340e-02 4.0590468220894113e-02
      -3.3720796079559238e-02 -1.3037563328832187e-03
      -3.3226177774962798e-02 4.0236693021657922e-02
      7.1348729788275736e-02 -2.8855201599881187e-02
      3.0071194957519327e-02 -3.3776705905966584e-02
      -1.4857960156776602e-02 -2.2502121730010587e-02
      -1.5381931243610385e-02 -1.6637261616875974e-02
      3.5941176034138683e-03 1.8697576608266070e-02
      2.7198971562194953e-02 -2.8196232186454170e-02
      -3.2790192375846398e-02 -3.6279799966544039e-03
      2.3182033374405001e-02 -4.1021024281503678e-02
      4.5629784744980603e-03 -7.2000264886125764e-02
      2.0703135358477013e-02 4.3760879525530469e-02
      -5.7182604344212462e-02 -1.2020844708017972e-02
      -1.2379809229540311e-04 -2.0058232162486155e-02
      1.4508124868209297e-02 -2.4182397934953158e-02
      -1.6187800171124277e-02 1.8111955911395541e-02
      -1.4269458487600842e-02 -4.6484133617825850e-02
      1.3958159363673873e-02 -3.2955833482217957e-02
      -1.1265957679326054e-01 1.7914175479968059e-02
      6.1477464970569546e-03 -3.7781436149424058e-02
      1.5263668307401309e-02 1.6108811317514321e-02
      4.9687950506925913e-02 2.4718397626377078e-02
      -6.3687444174612045e-03 -5.8643840681297096e-03
      9.5112409189469834e-03 -6.5037895589176668e-03
      2.5942541954435572e-02 1.1764076925515763e-02
      9.2257113928006923e-03 -6.4840007007404069e-03
      5.4867416882592645e-03 -3.2674484737558046e-02
      -4.9848650230228400e-02 -1.6537159263240765e-02
      3.7219817087856440e-03 6.0041866315132711e-02
      -6.6454530537242817e-02 -5.8322598943726378e-02
      -6.2209199542019956e-02 -1.7843489318306767e-02
      -9.0607490602457232e-03 -2.1796804092225858e-02
      1.3043078342702386e-03 -1.2763683482213819e-02
      3.5580264963965269e-02 1.1561294290755279e-02
      -7.5871003979628238e-04 -4.1730046219122290e-02
      3.6543613583903296e-03 3.7787491612351314e-05
      -6.0231336257585338e-02 -2.1394535800762456e-02
      -5.7960218683446911e-02 -3.3981408287448396e-02
      -6.6285316300590770e-03 3.1816004496433688e-02
      -1.2335386604694781e-02 6.0851470844188238e-02
      1.2811803288707147e-02 4.6285654399136143e-02
      -5.3868760986899543e-03 -1.2997868138834860e-02
      -4.6035477476124305e-02 1.1569319400070161e-02
      -7.6452653044872055e-03 -7.5575009840518279e-02
      -9.0917513073557473e-04 4.8664024855736725e-02
      -2.2694283542205630e-02 -2.8782155948001049e-02
      -1.9034629088016539e-02 -6.7840204336226409e-02
      -3.0086450667802973e-02 6.7454619545891575e-02
      -2.8221790955862216e-02 4.1128691667827046e-02
      -5.0329210112830744e-03 3.0447557900433457e-02
      4.8315133714941130e-02 2.2866907585575580e-03
      5.9130667459235002e-02 -2.3237190375434320e-02
      -2.5514422910408147e-02 -3.9506432699348698e-02
      -1.2956626145441956e-02 -5.1147819855082377e-02
      8.1238880888390447e-03 4.2114091115720313e-03
      3.8332561612291254e-02 -5.2652298761662764e-03
      -4.6340581229353431e-02 3.0609839947819104e-02
      4.8252528390665884e-02 -4.5703505279705889e-02
      -7.5020150840967217e-03 -1.8365752594077377e-02
      2.7560547978557871e-02 -2.1598587745379691e-02
      1.9406186721941138e-02 2.0551359053849420e-02
      -6.8714497965250100e-03 -4.1601972001007889e-02
      5.1501534021475021e-03 3.0147392233307039e-02
      2.5162580817127821e-02 -4.3630160969705629e-02
      -1.7542244115993564e-02 2.6414953502258857e-02
      4.2538924271754715e-02 1.1075897273674671e-02
      3.1108195447469835e-03 -1.4581063395119191e-02
      7.8682113295364176e-02 2.2688134539017340e-02
      9.3736218548881908e-02 1.3863534775169804e-02
      -2.3137869547863580e-03 3.7675266810588671e-02
      -4.5854768015394842e-02 -3.2565567367752443e-02
      -1.3935351416946471e-02 2.9104244372199831e-02
      -6.6542440235190153e-02 2.0753246750538037e-02
      9.3720828935265430e-03 3.8249388561996750e-02
      4.0570314683708780e-02 -4.5977692999198579e-02
      -2.0871448288278711e-02 1.4034316117014908e-02
      -1.2414931999032821e-03 1.0241773151596115e-02
      2.2959620126667586e-02 2.8654312912021161e-02
      2.3212309210987273e-02 6.4722658924075555e-02
      -8.5266472467249180e-02 -7.4925012140963365e-02
      -6.5104964525901629e-02 -2.9606634784320410e-02
      -7.0019454592770258e-02 6.6046223163141998e-03
      -4.2868959298573761e-02 -3.8665704534868325e-02
      -1.3718907598423766e-02 4.1810360688644424e-02
      5.4636557948907039e-02 -8.9945224091116521e-02
      2.8549083512573830e-02 -1.0848803438844045e-02
      -8.0059548427380722e-02 -3.8109850124771610e-02
      -8.2627810328517903e-02 -1.4659702690237520e-02
      -4.2258472008676563e-03 -3.7247955548191845e-02
      -4.9145222588231549e-02 -2.9903615011823259e-02
      -1.1387369749200365e-02 1.3178036274476024e-01
      1.4565200279906067e-02 -1.0795000506806932e-01
      -3.8783877462747675e-02 -2.0231997323066239e-02
      -3.0532482950069760e-03 -2.4571402401121972e-02
      -3.2499071338398205e-03 9.7194338496570457e-02
      1.2030172038264258e-03 -4.9737720669518523e-02
      5.5795657654835296e-02 -6.6576194741797975e-02
      2.6221884427065870e-02 1.7933941888844349e-01
      -2.5514712157401850e-02 3.2794306071863198e-02
      4.6007998337297989e-02 9.4288834502129840e-02
      9.6964778949194062e-03 3.5361950552934324e-03
      -8.3062978480360691e-02 7.4271612298696449e-03
      4.6815005622014925e-02 -2.5884810213062409e-02
      -4.9830532325991092e-02 4.1784096946016633e-02
      1.8228801397602058e-02 3.4432610835993915e-02
      -2.3471806149498241e-02 -2.0714433675420672e-02
      4.1197596429381381e-02 3.6202453714282719e-02
      8.5895758620094118e-02 -4.6015723599819126e-02
      -4.2876938894320593e-02 -2.3852116062750700e-02
      6.1078246249182911e-03 -6.2742410832917803e-02
      1.2725745629080942e-02 -5.2040976431659329e-02
      -2.9928968250204580e-02 -3.1291441462083609e-03
      -9.5549333142471160e-02 4.2973712677582487e-02
      -5.8889369904763983e-02 1.6938400528994174e-02
      -6.8620994173668515e-02 -5.5600753557650184e-03
      -4.0827207804059580e-02 6.8211029385857033e-02
      -4.8197906834219262e-02 -6.6057882671891277e-02
      1.9351167504856573e-01 5.5315261007699713e-02
      3.1999935178851663e-01 6.1236623689372008e-02
      -1.7467627745048356e-02 -4.1430906350356428e-02
      1.5724007460695962e-02 6.6922258996562664e-02
      3.7853977610639696e-02 9.2997391208497926e-02
      -1.6272827116522148e-01 1.0964267230940673e-02
      -3.2195905098513423e-02 2.3790642830312087e-02
      8.5233671063803113e-02 -1.3326228069231330e-01
      -2.6200678198396134e-02 -9.3672796682074608e-03
      -9.2776447222312473e-04 -2.6727992933233240e-02
      9.8391849702665485e-03 -4.8551858826821191e-02
      -7.6232584200674452e-03 5.7047288669234558e-02
      -7.3627970919831295e-02 -5.6266206742716617e-03
      -1.7228540704546866e-02 -3.2576914947387153e-02
      -2.2603249005320306e-03 -3.3207629683602378e-02
      -1.4351101117678679e-02 5.5676507138620789e-02
      5.2181520605679141e-02 2.1493263634815123e-02
      2.0935170133960155e-02 -6.8210867465118952e-02
      3.3533833374530975e-02 -4.0274378458463513e-03
      -1.7707204268834670e-02 1.8676374284465114e-02
      -9.8927832886698767e-03 -4.4003816000551234e-02
      -1.7247717639770294e-03 6.6594686178626863e-02
      -3.0410785414708538e-02 4.5084878796242747e-02
      -1.0382585164601787e-02 4.7304675937200967e-02
      -6.4814957095865197e-02 -2.9532041769239188e-02
      -1.3715520887548415e-02 7.8241689662855770e-03
      2.5895825699555244e-02 -2.0888331720256153e-02
      6.8185020655171458e-02 6.0836533202264780e-02
      -6.5926234059044695e-03 -3.1172025810109159e-02
      -1.7524741840636009e-02 -4.0536064096448485e-02
      3.7259708894804247e-02 5.6264304103721956e-02
      -4.8280653697947602e-02 3.2229132426274211e-02
      1.7627364954321722e-02 2.8626701658543155e-02
      8.5492598429017491e-02 -4.5500578469751599e-02
      2.0418591598434330e-02 3.0310089607250117e-02
      -3.0858830681354893e-02 -1.6394124036962610e-02
      -5.6618324370839267e-02 -5.1227289336175978e-02
      4.0986576934924149e-02 -2.2326602880601770e-02
      1.2028515021652714e-02 -4.0028287695046759e-02
      -3.3337099143376875e-02 -3.1857395847947369e-02
      5.2494821007567707e-02 -2.3375157229101707e-02
      1.1045618209399659e-02 1.6182530832998664e-02
      -3.8287993364094448e-02 -7.8183005332059814e-03
      4.5525782550197916e-02 4.6990076847921039e-03
      -4.0225131566402242e-02 -4.1506763628740936e-02
      -2.3681631303988728e-02 6.7220702748682576e-03
      1.2605159596216187e-02 -5.6256833509536501e-03
      -2.8502793287089195e-02 -3.2245442965233087e-02
      5.8725693025239488e-03 2.3005506291326347e-02
      -1.6382366658642379e-02 -1.8577441358058427e-02
      9.8057632149663926e-02 2.0940796185020233e-02
      5.6791785353355308e-02 1.3117254644223562e-03
      -4.9527781363831638e-02 3.3008040004282181e-02
      -1.9592314502476903e-02 -1.5745442963493936e-02
      1.8825415352437806e-02 3.5933405942851708e-02
      -1.2256961959987352e-02 -5.5531831837703667e-03
      -2.8565113755485854e-02 6.2554315930097339e-03
      -1.6299042480499324e-02 -6.3985863591670453e-02
      1.2023825717775423e-02 -1.5406657473796612e-02
      -6.5055724445253330e-02 1.1854075848049110e-02
      -7.0798293237557264e-02 -1.8631287646707496e-02
      -5.2486063989663203e-03 6.5088705429481433e-02
      -2.9541034135245208e-02 -2.9190811884608682e-02
      5.5861048718514944e-03 -2.1723827263572675e-02
      -6.9086989686969460e-03 -8.0671981918138853e-03
      -1.1436820409769914e-02 -6.7798298943706177e-03
      6.8824311215309825e-02 1.3052742860141535e-02
      -3.9634529137437299e-02 -3.6097954686533880e-02
      2.3702777651418670e-03 -2.3003365913167251e-04
      -3.8182953104247359e-02 6.3060783587992095e-02
      -4.0428423267192141e-02 -3.3239940728272230e-02
      3.5329944833338098e-03 2.5257613823152482e-02
      -1.3413799544320945e-02 8.3951933121206607e-02
      -5.9474964179366168e-03 3.5997215515466995e-02
      -2.2609510208021769e-02 -2.0750534839713156e-03
      -5.5238784254141457e-02 2.3771729094765080e-02
      -6.7237908408419233e-03 -2.7200230777974552e-02
      2.3971745399243738e-02 3.8271899342583272e-02
      8.3582706401665579e-03 -2.1935240787044764e-02
      1.2638213258587831e-02 -2.8481362419713861e-02
      2.1625025256703335e-02 3.3288797583258305e-02
      8.3388235627979857e-03 7.1155211297832879e-02
      2.0411314487597598e-02 1.8369202259414383e-02
      4.8739698308931427e-02 -3.2791023276050442e-02
      4.6226498259727314e-02 -3.5591142259233861e-04
      -6.5427147153467799e-02 -3.9537466643345519e-03
      -4.2283532124542327e-02 -2.7632389416735775e-02
      3.7766016065310722e-02 -1.8353688857487109e-02
      4.4150296705542602e-02 1.6407172481113150e-02
      8.4969001376849988e-03 -6.1036986181847420e-02
      3.4853404331290513e-02 -2.9518591986433227e-02
      -1.3450388113475258e-02 8.3586239103616525e-02
      1.8673095411021450e-02 -5.9166124288029505e-03
      9.4309315827443771e-03 4.0089212524383354e-03
      -4.3369044923006979e-02 -5.3246407358368851e-02
      -2.2753531372694109e-02 7.2055926001549087e-02
      7.6465055474041954e-03 2.4721779775928026e-02
      -4.2530964007617543e-02 4.3759862976313214e-02
      4.7567748904564992e-02 5.9886704005252929e-02
      2.2314579940009682e-02 -7.8690420172863700e-03
      3.9205637687290587e-02 -2.1586469606385450e-03
      2.5573071011762691e-02 -2.0602511048930884e-02
      -1.6122511488027607e-02 6.9773303288306637e-02
      -3.0255755636936253e-02 -2.9559726157347123e-02
      4.0189476089550315e-03 4.2533149034474797e-02
      -2.7386930092278682e-02 3.3342788722565811e-02
      -1.2534026230095653e-02 2.1992180478776716e-02
      1.5559583076245732e-02 -1.7026907490455854e-02
      -5.9903766776078775e-02 -2.7436512109064948e-02
      -3.8976352690203195e-03 1.7268299755320873e-02
      4.9580477083944703e-02 -4.4314236671012608e-03
      -4.3680227239715382e-02 8.1608571633825337e-03
      4.2758230915001652e-02 2.7190452750329261e-02
      1.6142178353219634e-02 1.4330687321506816e-02
      3.4180682113864748e-02 -3.0212109059157062e-02
      -3.6804183999931558e-02 -5.8043783523812995e-02
      -4.5311404891960623e-02 -3.8761937702859517e-02
      -9.3608055431068909e-03 -3.5969833347911283e-02
      -2.8581543534651126e-03 1.0996714581476616e-02
      -3.3431742555575059e-02 1.5900606473133152e-02
      -3.4030855758244931e-02 1.3843282214719645e-02
      -8.3950277589166147e-03 -1.4634023429165956e-02
      1.5170782913481786e-02 -4.0559661662946105e-02
      7.8204831761071129e-03 -2.1079678856024381e-02
      8.6470964193785371e-03 2.8082580400958883e-02
      2.8620682545022338e-02 -1.0898092879210919e-03
      9.8944946742409081e-03 -2.3614608458419877e-02
      1.9858173044851962e-02 1.0226407945586033e-02
      -1.9757216839969775e-02 3.6639487460285232e-02
      1.7953944403194812e-03 -6.6992109175287307e-02
      3.0954680220920050e-03 5.4900280124874799e-03
      4.0430491973540436e-03 -1.2063344700632072e-02
      -5.0056461188259231e-02 6.8032176289529135e-03
      -1.0198096039103210e-02 4.2999256496127132e-02
      -2.5288006255578560e-02 -1.5706151553363374e-02
      2.0894665158390797e-03 3.0322574464894413e-02
      -4.0413047259768180e-02 2.6670203635367512e-02
      -2.9806888783710857e-02 5.4715215361625796e-02
      -3.2487497571456844e-02 3.7422636647959345e-03
      1.6790327792388180e-02 -1.1816067445543116e-02
      -4.6144561523793953e-02 2.8352640153175349e-02
      3.4287247162840748e-02 -1.5104725528651786e-04
      -1.0945256184441822e-03 -3.6424614993627149e-03
      -1.6506602406367154e-02 1.8086445691958174e-02
      1.9774924224474906e-03 -2.9086340452076927e-02
      2.9598519353242907e-02 -1.9433969279622151e-02
      -1.8232126489415773e-02 1.6478742351010517e-02
      -3.2928292568403073e-02 6.3141301758234758e-03
      -2.3869442133697603e-02 -3.4940002685745132e-02
      7.7384665152435504e-03 -9.0218402862285159e-04
      -1.1392098063910271e-03 -9.9012253604799719e-03
      7.2526798169477102e-02 -7.7812233131011382e-03
      1.8638527305555253e-02 2.0090344500402657e-03
      5.7224213709238733e-02 1.5050084623728798e-02
      -1.4465003046145862e-02 1.8818922372016586e-02
      -2.8609013441909952e-02 8.9941405659289698e-03
      -1.5757169296521411e-03 -3.2396677940444554e-02
      1.6930047728807879e-02 -1.3849543513222153e-02
      3.7615899514153818e-02 2.3801157686490271e-02
      1.5367862864876675e-02 1.8018026065860743e-03
      -2.5481059775530158e-02 6.0396714228152772e-02
      1.2407086374827401e-02 -4.3812303602005186e-02
      -3.3361377428931430e-02 3.0571418771505762e-02
      -8.7918949909811910e-03 -1.4064748216241960e-02
      -1.0354304393464183e-02 4.2946321749287378e-02
      4.2638434528104049e-02 -2.5886789212233620e-03
      -4.1771033836280169e-02 -2.1852353761674343e-02
      -8.4850469992053344e-03 2.4529384894877035e-02
      -1.4566999786992003e-02 -5.1797466594599197e-03
      -1.5106770416986038e-02 -1.4406867436815326e-02
      3.4989834760749537e-02 7.8228837859621488e-03
      8.1447935182773021e-03 -6.6289188206651417e-02
      -1.2162163131032326e-02 -4.3025155120212454e-02
      1.1707125739556869e-02 -1.0983478263787917e-02
      1.5176776203778298e-02 3.6696658792443597e-02
      4.1379793116066238e-02 -1.9683641027921656e-02
      1.6834281911845127e-02 5.5473361559325855e-02
      -4.9098827779552115e-02 -1.1366555693870047e-02
      1.6584733964578324e-02 -1.5513364994095122e-02
      -1.3775658821654447e-03 4.0752627808998418e-03
      -6.7541810829381864e-03 -7.5350024723768089e-02
      -2.1876798790078766e-02 -1.6264654805808958e-02
      -2.8619513024740518e-02 1.5898749339135501e-02
      -3.0187073698419564e-02 1.9733893740708346e-04
      -1.3094676501905340e-02 2.2737576905405031e-02
      3.3482146091491173e-02 4.8821386525612552e-04
      6.1161113937518448e-02 -3.2005512776033543e-02
      -2.2472947769732231e-03 1.2730856705581218e-03
      -2.8609433290559518e-02 1.0203281046215658e-03
      -8.5549546862403077e-03 1.0409352508043311e-01
      -1.7870661965826838e-02 -2.6068538327541605e-03
      -1.3864262658441005e-02 4.4328476741536168e-04
      -2.9404334441870102e-03 -4.6921502551493334e-02
      -2.7786295530011190e-02 -1.3398839879679736e-02
      3.0527780722414015e-02 3.6371831240431231e-02
      -4.6919097284510068e-02 2.9919712706001050e-02
      3.8570087767659633e-02 -5.7525935241130283e-02
      -1.8333360157323640e-02 -1.0866923431029005e-02
      -1.3187265405861161e-02 3.7225454752642115e-03
      1.5324237062298499e-02 -2.6410569502658457e-03
      -8.9027939330959573e-03 -8.7880816435922122e-03
      -1.6558991042046708e-01 3.4844017672688910e-03
      -1.1161885722580443e-02 -2.0438241435199664e-03
      5.8356824160441557e-03 -1.1630015260196452e-02
      8.6634165340102043e-03 -1.9175400593147901e-02
      1.2590182451856896e-02 -4.0907461357903314e-03
      -3.3855512045514137e-03 -2.1977870810687659e-02
      3.3360694179462136e-02 3.2040911513791674e-02
      -2.4684914598857494e-02 -5.3264918050762590e-02
      -9.2427310911551621e-03 1.1428974948020086e-04
      2.2285034984572759e-02 -5.8440335451713267e-02
      -2.4517739282627550e-02 1.8536821516995455e-02
      3.5691321468972435e-02 6.7400934142214097e-02
      -1.6662834124033084e-02 -6.2151651658733993e-02
      8.0047351461105032e-02 -4.1532358935393754e-02
      -2.9426527512890054e-02 -9.3044609378066287e-02
      1.0527627750278096e-02 -3.3437299486043209e-02
      -2.7366480962407968e-02 -4.1191403192556139e-02
      -2.6550613424294961e-02 -1.8573534540067677e-02
      -7.0149688474047400e-02 3.1192161730965464e-03
      -4.7257052246487637e-02 5.2663823804078851e-02
      -2.9823803210124407e-02 4.9983604860326256e-02
      1.2531103649255563e-02 -2.8219988157211301e-02
      3.9838955684198110e-02 -2.0825622857302207e-02
      9.0665647498982867e-03 9.3508869056631055e-02
      8.1834855182517985e-02 -5.9411026461414617e-03
      -6.8795121619727520e-02 -5.5057810798188285e-02
      -1.2546492221621553e-03 -4.2751335796265980e-03
      -2.4937937131045258e-02 3.8046207275244971e-02
      -3.2260486997726844e-02 -2.2195618437996063e-02
      -4.7829767951113461e-02 -1.2749893392132616e-01
      3.4162578841697981e-02 -1.7647854347247075e-03
      -3.9158542973753790e-02 -1.5829027817098940e-02
      6.1342804180417106e-02 3.6186787398167136e-02
      2.5107009745826154e-02 -1.9319253150165614e-02
      -2.5009946828437792e-02 5.0214561822458280e-02
      -1.6632085888347411e-02 2.2669221973505245e-02
      -4.5080404526172463e-03 -2.1635540557281455e-02
      -2.9182183943102971e-02 2.0577429400465683e-02
      -2.8958239301512319e-02 5.9818902599809758e-02
      -5.4696853965985087e-02 1.0236588821891301e-01
      2.1010557110870465e-02 -3.0980553028999869e-02
      -4.3649269409930934e-02 1.0468102741454037e-02
      3.4714968590709226e-03 3.3688529433416582e-02
      2.6046161790829452e-02 -9.2192876352019268e-02
      4.4507265054552103e-02 1.7134123428199005e-02
      3.5296845533765789e-02 -1.8805547621867633e-02
      -4.3107899999012871e-02 4.9191323838936742e-02
      -1.3008932165953680e-02 -1.1897854878540547e-02
      5.6836113494104272e-02 1.6285838879931177e-04
      -1.0660090316192454e-01 -3.0585167017576805e-02
      2.1314880569797651e-02 -4.5347320477481745e-02
      3.1792172047998765e-02 6.2992843329362114e-02
      -3.7344265726192170e-02 -3.1840272349378154e-02
      -3.4100244159157504e-03 1.2634730354513773e-03
      -1.5181302905922503e-02 1.3205436951315105e-03
      5.5723350275007799e-02 -3.4099552676861627e-02
      1.4944590157935794e-02 -1.1145470416117504e-02
      -1.1223883706414587e-02 1.4270590025711856e-02
      4.4493138609099550e-02 -1.9869730937514769e-02
      3.4478511983705259e-02 -8.1777077059945497e-02
      -2.6470797046786565e-02 -7.2725285326114483e-02
      3.8109040092696361e-02 -3.5436569779330740e-02
      -3.8451074173794071e-02 2.5709326635492379e-02
      1.9252490670913912e-02 5.1636372443022355e-02
      2.7416684317827518e-02 6.5764578047933939e-02
      2.9032916421362080e-03 4.0001155396017889e-03
      1.2048293444555951e-02 5.4993392704100585e-02
      -1.0115095532243058e-02 3.4087591975129540e-02
      6.4861986124240767e-02 -1.8988504773210801e-02
      4.9242465236306800e-02 1.3067852644728835e-03
      2.2767015377874265e-02 2.1239958483828039e-04
      2.6200735146429151e-04 -1.2914453118310291e-02
      -9.9791365410932115e-03 -8.7961211854418065e-03
      -1.3199734019655074e-03 -4.0687822207139804e-02
      -3.4294199567489851e-02 -1.2521158693933783e-02
      4.9345250242392349e-02 3.3293217661867644e-02
      4.8621027427227983e-03 -1.9305667181191446e-02
      -6.7950913590051941e-03 4.9742974346421803e-02
      -4.7245866061152136e-02 1.3701604649171212e-01
      8.1081142177462026e-02 3.0684502538943181e-02
      -1.8115673198646452e-02 -3.1646750198690364e-02
      -3.0796551332112321e-03 2.0870954626974005e-02
      -5.2432476295424732e-02 -3.1520860086213659e-02
      -2.8259637666059659e-02 3.4261420370425844e-02
      -2.3374745570819130e-02 -1.2726326797101622e-02
      2.0428913317454410e-02 8.6771553142628403e-03
      -9.3261972492089569e-03 -8.6514592442810785e-04
      2.0719052971112952e-02 4.1346015628601254e-02
      -5.9828585352193826e-02 2.6931966388600214e-03
      1.3954015922005385e-02 -5.2974682630519679e-03
      9.1041863681370835e-03 -3.9210504880211265e-02
      -2.0489559041012857e-02 1.8829586025899236e-02
      -3.1115119333853889e-03 -3.9766932488979917e-02
      4.1036749156417645e-03 2.6174769668781375e-02
      7.4290813737686642e-03 -6.6568241969197403e-02
      -2.3388416137307633e-02 -1.4720849667141015e-02
      5.6100792524466168e-02 -8.5535385845114456e-02
      -1.3164455450095779e-03 -8.6131490673597599e-02
      5.0492820404029045e-03 -2.8065969900148137e-04
      -6.1674761386356801e-03 3.5325057393775061e-02
      -1.2220233438338632e-01 3.6349391165020006e-02
      8.3683026363807634e-03 -3.5514223686535826e-02
      6.0857349337340376e-02 3.5591396896092163e-02
      -3.8705200649072000e-03 -7.5738332603568062e-02
      5.8037663300378621e-02 -4.4586837314391801e-02
      -6.8007514858725270e-03 7.3939225078066472e-03
      -3.9566066647907627e-02 1.6574009755711622e-02
      4.6024878470601605e-03 -1.5271889087237651e-02
      -5.1125084603146674e-03 1.2379537890418025e-02
      -4.5572771826458774e-02 -7.0348520341400964e-03
      3.9799498215054289e-02 3.7239402852288446e-02
      7.4585464442114167e-03 -2.9123398142473177e-02
      -1.0873161415973205e-04 -3.6115114676126873e-02
      2.2691453896409704e-02 -1.1443376675512637e-02
      8.8615674621161291e-03 -5.9947978372310869e-02
      4.2682581125603287e-03 4.3483454447977750e-04
      -3.6538570634531468e-02 -2.0280567005606924e-02
      -6.0331817310169136e-02 -3.0776205143685487e-03
      -5.9825555907502770e-02 1.4821409791510292e-02
      -3.3216281421592234e-02 3.9044852340950301e-02
      1.1435509192316298e-02 4.5510673168496642e-02
      1.3550680604136660e-02 4.1357071526447270e-02
      3.1741109888949348e-02 -1.6015941833608938e-02
      -1.4793482682373349e-02 2.7951346561626039e-02
      1.5438361577220821e-02 2.2326062000791409e-02
      -4.3538583909118952e-02 -7.6960794055258075e-02
      -1.9533200749374858e-02 -2.8476434876426985e-02
      -1.0172467583777092e-03 -2.2146613262326111e-02
      -2.7681600893889026e-02 -7.2232617485073300e-02
      -6.5249305871461397e-02 -4.9743382190686240e-02
      4.1338780019018126e-02 3.2282389679644127e-02
      -4.9733987839317151e-03 -2.4504908132302314e-02
      2.2336197130317790e-02 5.7432272836403987e-02
      4.9852258149969395e-02 -1.7506877347468908e-02
      -2.7656227650354862e-02 3.7369294318938310e-03
      1.2675019598142224e-02 -5.0860694114831066e-02
      9.4982741402985045e-06 1.4004511951690509e-03
      -1.3976303434430108e-03 1.6508417884500796e-02
      -2.5595297693741158e-02 1.4195719414325670e-02
      3.7706045602318113e-02 2.5895687013156393e-02
      -6.3898959997007565e-05 -1.3501050024312003e-02
      2.6925245477080813e-02 -2.4301917655968393e-02
      -3.0330788577658870e-02 6.5613223064105622e-02
      -5.5743913074295780e-03 -6.4537809497224347e-02
      3.1323293550501202e-02 9.0432777486256187e-03
      3.3963737475753916e-02 -4.2301583986558457e-02
      1.2924732704507004e-03 4.5531400616470222e-02
      8.5697103608438890e-03 2.6888933191260008e-02
      3.0480942698981734e-02 1.0067049184885116e-02
      -3.5579794188020486e-02 -2.8688070188389377e-02
      -4.1621583922558693e-02 -3.4028299193024962e-02
      4.2019148824983123e-02 3.3529979438345660e-02
      -2.9997179860105749e-02 -3.4000557575061381e-02
      -4.0103813588173214e-02 3.8224211909076218e-02
      -6.1890549218254912e-03 6.9369406556306745e-02
      5.8327624709198937e-02 -2.6363072994766323e-02
      -8.2841688934884707e-04 2.5113200090121197e-02
      3.1992856062200037e-02 1.0431551963123028e-02
      5.6301050112244275e-02 -3.6934127818098107e-02
      1.1136881501272591e-02 -1.0907380347042156e-01
      -5.4840795300528699e-04 -2.8069986909945856e-03
      4.1420149750710078e-04 -1.7767310995675526e-02
      -7.2963909713130220e-03 3.4236725384968886e-02
      2.9300129886353523e-02 1.5024403780959832e-02
      3.2681057258698278e-02 1.0553983571631996e-02
      1.8321566713003692e-02 -3.7186525185311646e-02
      -9.1255834785788748e-02 1.1814408795160177e-03
      -2.5620903445118543e-02 4.5972322027733423e-02
      -1.7147815970162083e-02 -1.5589643144136231e-02
      -4.0538803696560044e-02 1.1701962045662411e-02
      3.6012603745480140e-02 -4.8142454721642426e-03
      1.2023931892864922e-02 1.5501473268449298e-02
      7.5132653452375650e-04 -3.7600963243394410e-02
      -7.2638052481113578e-03 9.4616996672774686e-04
      -5.1940989819009497e-04 1.8978426130940498e-02
      3.3110647554450666e-02 -5.2345086005694305e-02
      1.5120154569378982e-02 1.4931897724520445e-02
      -5.0938731416589264e-02 2.9948033743455216e-02
      -9.1292529528838248e-02 1.2641103692889949e-02
      8.9678834227609430e-02 -1.8027270144006759e-02
      -2.4086113222131973e-03 2.7563441195488696e-02
      -4.3396512027390803e-02 -2.8949365539449195e-02
      2.5357642031326381e-03 5.3839084147611384e-03
      -1.9638848338002435e-02 5.3921116797644884e-03
      -9.4225328050945856e-02 -6.5834150201580927e-03
      -1.5701832140837080e-02 -9.7758950850604001e-02
      -1.9368820745337210e-02 5.0306347104031771e-02
      -2.7261750557566598e-02 1.3743007170158378e-02
      -1.1759677192255552e-01 1.8423423798908108e-02
      1.1898658816916234e-02 1.5894548226724793e-02
      -2.7409681211245943e-02 -3.4802315375147261e-02
      -5.9710767016707446e-03 -5.0681455987963966e-03
      7.1938596307181890e-03 5.2898643686597616e-03
      2.7122723322112928e-02 -8.0093717587698510e-02
      3.1554510204172111e-02 -1.1624671948204228e-02
      4.3977700153343700e-02 -9.5482212877724515e-02
      2.2194661578722998e-02 -6.1792953718253114e-02
      2.5677103506854787e-02 -3.1825946234066288e-02
      3.8218955917509206e-02 -1.9268605245138681e-02
      4.0577170984516728e-03 1.4219818165216145e-03
      -2.6159813669042581e-01 -1.7970185814095863e-02
      3.7890442181667670e-02 5.1333045154125928e-03
      1.1906997622377222e-02 -1.9823468682775094e-02
      4.8158822637811962e-03 -6.7645884354014627e-02
      5.1990728097037697e-02 2.2777028046342511e-02
      6.9503560959150853e-03 -1.4912921925581038e-02
      -3.6476305467212401e-02 1.4180698004938727e-02
      2.9990906428608282e-02 -1.3333164449541803e-02
      4.5286536577879316e-02 1.0220139185291579e-02
      1.5950602992070857e-02 4.3774274249128886e-02
      -1.8656280517600762e-02 2.5222032837848525e-02
      -1.5524491039895091e-01 -4.9587274531217466e-02
      -1.0002994774842820e-01 -1.7425914028888354e-02
      -6.4600875578551764e-02 9.1211502868139360e-05
      -1.2310136049616137e-02 4.4517331979787321e-02
      -5.2717147047094723e-02 3.4661790176089426e-02
      3.4039499182391263e-02 -5.2877421549106442e-02
      5.4587181276259576e-02 -2.6133610782452871e-02
      -1.0221704039743039e-01 -7.8197405078801338e-02
      -1.8909554212482006e-02 -4.4084435597237161e-02
      -1.5849567395014783e-02 -8.3313540470103253e-02
      -5.0568610534959410e-02 -3.4951545722227223e-02
      -4.3509894769990516e-02 8.1278347713063762e-02
      -3.3071242705113718e-02 -5.3742251119354725e-02
      -3.6233378567538763e-02 8.1954016660041370e-03
      3.7094594168375843e-02 -3.8440317811493760e-03
      8.2108263826578369e-03 8.7851402892229438e-02
      -3.6207796951235206e-03 -6.4167993234907642e-02
      3.6594554394098422e-02 -1.0369016128855471e-01
      3.4764464686133000e-02 1.8077131045823622e-01
      -9.9389898499804452e-02 5.5050724021624711e-02
      -1.8268932539893985e-02 6.4383207843269105e-02
      4.0137972739207523e-02 2.8241039657511411e-03
      -8.6773939979870499e-02 2.1292260934801740e-02
      5.8514836075927210e-02 -7.8345378191499837e-02
      6.2098952183202065e-03 -5.9453248490260249e-02
      -1.7803464874053788e-03 7.2047578411637447e-02
      -5.8806961072010139e-02 -4.7543265787080735e-02
      1.6187178780574123e-02 6.3967380419827108e-02
      3.8882618026639573e-02 -8.7552238899998830e-02
      1.9324374845178401e-02 -7.7860116692539299e-03
      8.1442282193267320e-03 -1.0794210577993955e-01
      -2.1733885549980889e-02 -3.1776046070250946e-02
      -1.1189005366688988e-02 1.8554668638779099e-02
      -8.5491953947986796e-02 3.3801433769092233e-02
      5.9475056315474485e-03 -3.9213614985004530e-02
      -8.6844921595937360e-02 -5.3052843001109219e-02
      2.0667092066361508e-03 4.9951289926286882e-03
      -7.0385086451017181e-02 -8.5733812596672690e-02
      2.7329149535336933e-01 5.5622269066576635e-02
      1.5282410790590314e-01 6.5942612423573785e-02
      -7.5940453933324589e-02 -4.1901914374373225e-02
      -8.4240002126639380e-04 2.7148909895936699e-02
      3.3874741350275565e-02 7.8208516160762798e-02
      -1.5464129464628187e-01 -4.3414825304409273e-02
      -7.2879224686983560e-02 3.9766109178002156e-02
      9.0200110759335581e-02 -1.1600660552786088e-01
      1.8308134842494383e-02 8.2634202415619914e-03
      1.5886257640487893e-02 -3.3412726926884288e-04
      -3.2523587539579307e-03 7.4422234848927751e-02
      4.9737374457570600e-02 1.5636569489098449e-02
      3.5494951897728222e-03 -6.3014647203124960e-03
      2.1889921302420748e-02 -2.9324575102600791e-02
      -4.2391183037767996e-02 -8.3421478827565912e-03
      1.8866958070247641e-02 1.1176258600506840e-02
      1.9731890616146889e-02 1.4073321047373546e-02
      4.2669810894692510e-02 4.3660857578581682e-03
      -1.1041030633590212e-02 -2.1187664685254518e-02
      -4.9873667905768687e-03 6.9957240177098735e-03
      2.0874610886554436e-02 1.3241839701346986e-02
      -7.3676720377997568e-03 6.0194099432089067e-02
      1.3388519571517007e-02 4.2539615532444126e-03
      8.8680366039146884e-03 1.3474225419355093e-02
      -1.4280744880997057e-03 -1.6220734569078271e-02
      -1.9774551566406968e-02 -1.1485124686861624e-02
      -2.6908180235638991e-02 3.3065029182223963e-03
      -2.9442359166556277e-02 -3.2578430563534239e-03
      3.1407935274082519e-02 -3.2658291784999273e-02
      3.4831555654393852e-02 -1.8281991382868627e-02
      -7.0650060246526480e-02 4.1630215725958861e-02
      1.6395671431113191e-02 -4.8340573565429827e-03
      3.3335758635337893e-02 -3.8376602473520628e-02
      1.4893138340582346e-02 -2.7297559954083017e-03
      4.8487603057099891e-02 -2.8323739574288593e-02
      1.1016918208041017e-02 -1.8949995550019600e-02
      3.6595914244077050e-02 3.1536886656980696e-03
      1.6542292597750960e-02 -1.7728992574337538e-02
      2.6141402409560168e-02 -1.4612142254089340e-02
      5.2183247437888997e-04 -1.8211165205577775e-02
      3.2422748810545382e-02 4.4755496127017978e-03
      -6.6378438672222038e-03 -4.3538282663524120e-03
