<?xml version="1.0"?>
<opencv_storage>
<opencv_ml_ann_mlp>
  <format>3</format>
  <layer_sizes>
    29 100 100 10</layer_sizes>
  <activation_function>SIGMOID_SYM</activation_function>
  <f_param1>6.6666666666666663e-01</f_param1>
  <f_param2>1.7159000000000000e+00</f_param2>
  <min_val>-9.4999999999999996e-01</min_val>
  <max_val>9.4999999999999996e-01</max_val>
  <min_val1>-9.7999999999999998e-01</min_val1>
  <max_val1>9.7999999999999998e-01</max_val1>
  <training_params>
    <train_method>BACKPROP</train_method>
    <dw_scale>1.0000000000000000e-03</dw_scale>
    <moment_scale>0.</moment_scale>
    <term_criteria>
      <iterations>300</iterations></term_criteria></training_params>
  <input_scale>
    1. -2. 4.3669280382522953e+00 -2.8721728380990781e+00
    1.0007395140933410e+01 -2.6019248412839771e+00
    8.7173537541554822e+00 -2.2047265267731397e+00
    9.1847218515081330e+00 -2.1023835493937835e+00
    8.3942494460448476e+00 -1.2214912979658838e+00
    1.7441631761742617e+01 -1.4600062832741652e+00
    3.2733809033548376e+01 -1.8886198367846596e+00
    4.2066175670960320e+01 -1.8044764717845396e+00
    5.4679686583487538e+01 -2.0481679999253561e+00
    6.2355274001657143e+01 -1.9023858669937486e+00
    7.5015743517359965e+01 -2.1380224951401918e+00
    8.0511790893824184e+01 -1.9845581727854198e+00
    7.8682816822381497e+01 -1.8528978535823901e+00
    1.0779852112105296e+02 -2.2166908670513776e+00
    9.4979402908541260e+01 -1.7533266892717059e+00
    1.2286547320819359e+02 -1.9745335727664755e+00
    1.2523144392981425e+02 -1.7783117988215824e+00
    1.6249808771112188e+02 -2.1135820439423703e+00
    1.7704283864660894e+02 -2.0206098324877724e+00
    2.0661904512873656e+02 -2.1277855691876058e+00
    2.1940091141254877e+02 -1.9764664133932590e+00
    2.2927670330568972e+02 -1.9679641559270977e+00
    2.4925544013083658e+02 -1.9286347792209120e+00
    2.9567617833472258e+02 -1.9642818864155651e+00
    2.8243719255838869e+02 -1.8114070415941257e+00
    2.8928101924115259e+02 -1.7652280317300086e+00
    3.6810080020416359e+02 -1.9447196340649229e+00
    3.2054129178103261e+02 -1.6222870645312581e+00</input_scale>
  <output_scale>
    5.2631578947368418e-01 4.9999999999999994e-01 5.2631578947368418e-01
    4.9999999999999994e-01 5.2631578947368418e-01 4.9999999999999994e-01
    5.2631578947368418e-01 4.9999999999999994e-01 5.2631578947368418e-01
    4.9999999999999994e-01 5.2631578947368418e-01 4.9999999999999994e-01
    5.2631578947368418e-01 4.9999999999999994e-01 5.2631578947368418e-01
    4.9999999999999994e-01 5.2631578947368418e-01 4.9999999999999994e-01
    5.2631578947368418e-01 4.9999999999999994e-01</output_scale>
  <inv_output_scale>
    1.8999999999999999e+00 -9.4999999999999996e-01
    1.8999999999999999e+00 -9.4999999999999996e-01
    1.8999999999999999e+00 -9.4999999999999996e-01
    1.8999999999999999e+00 -9.4999999999999996e-01
    1.8999999999999999e+00 -9.4999999999999996e-01
    1.8999999999999999e+00 -9.4999999999999996e-01
    1.8999999999999999e+00 -9.4999999999999996e-01
    1.8999999999999999e+00 -9.4999999999999996e-01
    1.8999999999999999e+00 -9.4999999999999996e-01
    1.8999999999999999e+00 -9.4999999999999996e-01</inv_output_scale>
  <weights>
    <_>
      -5.2982824678020235e-02 -5.2279698024913654e-02
      3.9336175969526120e-02 -3.6509622240002801e-02
      1.7505165009740257e-02 5.4416333079242860e-02
      5.8178105421765582e-02 -4.3638041559225342e-02
      -4.9883657115028110e-02 -3.1127462723946606e-03
      -1.4666329182064881e-02 -3.4147038120339437e-02
      4.5111381570145416e-02 4.8820162433999614e-02
      -4.5429959508082131e-02 4.9478480241037452e-02
      -4.0594589507541898e-02 1.8375603644527935e-02
      -5.5872890484395435e-02 -3.4230730379500938e-02
      -2.0058588997975205e-02 4.9761906448787523e-02
      1.5967058527210375e-02 3.6540517582050007e-02
      1.9249621332573134e-02 -9.5252095756664084e-03
      -2.8944271435175167e-02 5.7480582691289146e-02
      -6.5702887682962979e-02 5.2626432810338464e-02
      -2.7837163167993551e-02 2.5485935351764168e-02
      6.2318195344372343e-02 -1.3547315446277925e-02
      -2.6514682897564208e-02 -3.7468206222509862e-02
      -5.9591322222386264e-02 2.1581430952087596e-04
      -4.3972030623290928e-02 1.6300718409899967e-02
      3.6322736738051177e-02 -5.0884846599739644e-02
      4.7131122061006267e-02 -4.9939629329465364e-02
      3.9016121225456661e-02 5.0462822788745219e-02
      1.0826426748939298e-02 5.4399683508486715e-02
      1.8351738301167739e-02 2.2420251162232514e-02
      -7.8611851444699860e-03 -7.0140999327571230e-02
      6.6947822533326914e-02 -3.8606725763648757e-02
      6.0762391995243720e-02 7.1945217545846346e-02
      9.7325195495374418e-03 -2.1607756848591080e-03
      -2.5109047145697526e-02 2.6008911317219309e-02
      3.3778374529302602e-02 -1.3156227623972092e-02
      2.9101766201320257e-02 -2.1552400494151875e-02
      -4.6920851485025381e-02 -6.4965281185520890e-02
      -5.3497629255779840e-02 -2.6838737720555787e-02
      -4.1417917784196519e-02 -3.9349214264705487e-02
      2.1147804130439478e-02 7.3033785893724529e-02
      5.5788591327226716e-02 -2.0197913576705404e-02
      -5.5570564530094554e-02 7.2045739678218798e-02
      3.7857606949819080e-02 -4.6309237371573893e-03
      -8.2679557536717123e-03 4.1238559542180010e-02
      2.6293891874177286e-02 -5.6558489652001526e-02
      -3.3858455788350034e-02 2.9850960887899586e-02
      -1.1996291190313575e-02 -1.6185875930408808e-02
      6.0646229890198829e-03 -2.5699406331558712e-02
      -8.6641001560388349e-04 -3.1293069575135224e-02
      -3.7692082907251651e-02 -6.8480712845350898e-03
      -6.4181404075954754e-02 -2.7229207165882903e-02
      5.3285461262174490e-02 3.2357391669583818e-02
      2.5746401944359881e-02 -6.1523888006156470e-02
      -4.4030893097309537e-02 3.6349751277434270e-02
      -5.5034727444624988e-02 2.9224644597887851e-02
      -1.1929492920863418e+00 1.1823620938651024e-01
      -3.2308658056451327e-02 9.5103257387871523e-02
      8.8853515479248607e-02 6.3591108313086090e-03
      -4.9055397105167953e-01 1.4453798499408990e-01
      7.9823080687264916e-02 -1.0742561381737370e-01
      1.1986829187506413e-01 4.2727975348812799e-02
      -5.3886931361585927e-02 -1.4666565950748775e-01
      -1.0768573711556510e-01 -6.0432753787214938e-02
      -3.6335530914935084e-02 2.7965108364189395e-01
      -1.9962350734772447e-01 7.5375825395264842e-02
      8.7315076126715727e-02 -7.7092792167220731e-02
      4.3595145461059852e-02 1.3942150661047228e-01
      1.4666439469899942e-01 1.8370476691166190e-02
      -2.4473394725335253e-02 -1.0799015699736678e-01
      -1.9076103456463447e-01 -7.8850588151752624e-02
      1.3528957251866650e-01 -1.8873391349328771e-02
      -8.3950668221319542e-03 -9.0027063306087354e-02
      1.5482010736969404e-01 1.0520585199938404e-01
      2.0443837792356001e-01 -2.2299043767829374e-01
      9.1501567211250703e-02 2.5639741336955002e-01
      1.6406989664996982e-01 -3.5717868105338058e-02
      1.2581435456910256e-01 -5.2103415853302013e-02
      -1.8006432796560559e-01 1.3911928377355344e-02
      -9.6999771730265985e-02 3.4600336441898955e-01
      1.6637803790607905e-01 4.7412847794277464e-02
      -3.7452091816306626e-02 9.1585029818236838e-02
      -5.4748155909572632e-02 1.2125924858310473e-01
      2.4223675392731214e-01 -8.0545798979780467e-02
      9.7166537103539841e-02 -1.5396586963750836e-01
      1.0975454834878173e-01 1.3566751046571643e-01
      8.5898614802554146e-02 -8.9371076298848925e-02
      -1.2474272017449638e-01 2.0655263638800153e-01
      -1.9795800367567248e-01 2.3880597340449397e-01
      -9.8282815210363014e-02 -1.4903392977578186e-01
      -6.5919186319961673e-02 -1.5662586725023872e-01
      -7.6664695649013653e-02 -1.6735684060834433e-01
      -2.1294556399019890e-01 -2.1341010677982070e-02
      -1.4057089830811312e-01 8.5673059345521746e-02
      1.8074508921585389e-01 -1.0216732583317498e-01
      -2.0711796819520309e-01 -4.0025574000610652e-02
      -9.9780151430916536e-02 -3.0720236192923991e-02
      -7.7056553604360020e-02 6.1382112697481589e-02
      3.0353196282372957e-01 4.1270482387118848e-02
      -9.5657206642245321e-02 1.4454561998803694e-01
      -2.1942489156162268e-01 1.9880047675053206e-01
      -1.6394448839533279e-01 1.1722514932159440e-01
      -2.1976792119467434e-01 -9.5928746935488307e-02
      -3.9375420412912913e-02 -1.8559643703499965e-01
      4.8618695569079592e-02 1.0559857631478245e-01
      -7.9111547625168768e-02 -3.3991490454522544e-02
      2.3965965359071778e-01 -9.6067122519506221e-02
      1.4950162948104512e-01 -1.0485774545557086e-01
      -8.4079635701706634e-03 1.2896507526721654e-01
      -2.7429227571893522e-01 2.2490624901904625e-02
      1.3794729120877344e-01 -4.0392651024658013e-02
      -1.0148017141247673e-01 -5.4823841334301661e-02
      1.9339018548126211e-01 8.4332952200736361e-02
      1.0388751653648344e-01 4.0737331007476299e-02
      1.7931573062899359e-02 -2.6159543546075525e-02
      3.7336471982478671e-02 1.4301780639702149e-02
      3.4600603293426395e-02 -6.6616479475690049e-02
      6.9130859493889515e-02 1.4935240938095859e-01
      -1.3364769933315299e-01 -1.4553131122932000e-01
      -3.0370385147873116e-02 -6.4787242283625243e-02
      1.1961254018037578e-02 -5.8726286501644437e-02
      -5.0537143677615699e-02 -6.8169677461538472e-02
      -1.0253906918448841e-02 1.4689136323671143e-01
      -1.7191122259116429e-02 8.3546767841046726e-02
      8.5502365251658122e-02 -1.4481235301460905e-02
      1.2680690008239301e-01 1.0650731706083227e-01
      1.0331829473363878e-02 -4.2625668897882760e-02
      -3.9986225765078202e-02 -2.7008624438205320e-01
      -1.3512235610469527e-02 -3.0498810612123290e-03
      6.4737470410675943e-02 -2.0300425949658127e-01
      7.2132711208067260e-02 -3.3283064453281462e-02
      -1.1970538474213997e-01 -4.2833172723667323e-02
      3.9158702808266427e-01 -7.4797702279208464e-03
      -2.2123975756217068e-01 1.2622846816347730e-01
      1.0845890733407067e-01 -7.4685258371143357e-02
      -2.4484869590905036e-02 -1.9529419804498846e-01
      1.1902281359815577e-02 -5.2188129661348774e-02
      4.5741574779620472e-02 1.2101287501131112e-01
      -1.6463383976901261e-01 -1.1879632203642583e-01
      -6.7620768348676502e-02 -9.7334514252212900e-02
      -2.7383907151136731e-02 1.2898292529196928e-01
      -3.6840480366141362e-02 -2.5559950128451751e-02
      1.7316635099134436e-01 -6.3783826128606821e-02
      4.7211220032065772e-02 4.7972942286190326e-02
      9.3631056255274164e-03 -4.3549244170611796e-02
      2.6815423633754819e-03 1.3439162604000462e-01
      2.3585788737028515e-02 2.2042976543538823e-01
      7.0872050531884417e-02 -5.3004146481650950e-02
      -7.8168080550324610e-03 6.4167408280869934e-02
      4.6884208644210293e-02 -7.3149211560957744e-02
      5.6570190756915280e-02 -1.4746945291407124e-01
      8.5412265051808628e-02 7.9807626308842416e-02
      -4.9921563546701747e-01 -9.4130673319808872e-02
      -1.7095651725487779e-01 -2.6002892018102303e-01
      1.0665067240427714e-01 -6.1826845698653106e-02
      -8.7718293293170033e-02 -6.7967487726307307e-04
      -6.4753102101691870e-02 4.1228864966236387e-02
      2.9949668047932571e-01 1.5192898774952260e-01
      6.1389151444454296e-02 1.8558033055029788e-02
      -1.3731969512798003e-01 -1.9268904147097418e-01
      1.8926111899259218e-01 8.0376548157112121e-02
      -8.5955278693159998e-02 8.7361650967553384e-02
      -3.3227108359179615e-02 3.6887467529447366e-03
      -8.2418198946652491e-02 -3.6815574141274926e-02
      -1.5521994892354946e-01 3.0168929533218913e-01
      1.0075496102098754e-01 3.3755276659568526e-02
      6.1109347232894552e-02 1.0507220608995338e-01
      2.4330278018259953e-02 1.2665205424178604e-02
      -2.6841272494030994e-03 -5.5480880836664498e-02
      -6.8916710871749290e-02 -4.5327927388729462e-02
      5.1260798752080658e-02 -1.0759054595375216e-01
      2.0985989733221547e-01 -7.4561272735544415e-02
      8.6420605379923607e-03 -2.1023025558471498e-01
      1.9843106064277687e-02 1.3014544437235048e-01
      -2.8106949569897850e-02 -5.7911237654752180e-02
      -2.2825923378812774e-01 -1.2065996380030873e-01
      5.3356015434468954e-02 -1.6571165478746994e-01
      5.2007348927192242e-02 -1.1431655496507737e-01
      3.1607446864126379e-02 1.4531519543508906e-01
      -8.8634555588174888e-02 -1.4522378113148859e-01
      -2.3372788306189185e-01 -8.8423564788598349e-02
      4.3992425960506674e-03 -1.3327334250545439e-01
      -5.8050798571758669e-02 -3.5804568458053573e-03
      -1.0778245710972174e-01 1.1452727642320054e-02
      1.7537146803081147e-01 4.5278230879377587e-02
      -1.6098444486147934e-01 -2.0254476497358846e-02
      -2.6292581486089938e-02 4.2022617011603996e-04
      1.2116469712486469e-01 -3.7871480638753327e-02
      2.2716810654948036e-01 -8.1024577160349345e-02
      -2.8689152392982396e-02 -4.0798393176155003e-02
      7.1397480925215265e-02 5.8006474740966776e-03
      -1.7756700706355166e-01 8.5746656723244094e-02
      1.0316562143720611e-02 2.2416898466410311e-02
      -1.1140618388220579e-01 1.2611973231309040e-02
      -7.3733320778264416e-02 9.3961305582153973e-02
      -7.5569736879325708e-02 -7.6556123211842145e-02
      -6.4159854024463586e-02 -1.3501166122864922e-01
      1.8608810393398528e-01 8.6446955124520594e-02
      -5.7841005278130075e-01 -1.0057283407413468e-01
      -1.7787164833242156e-01 8.2085417983564796e-03
      -5.3117006798812323e-02 -9.5145798761125666e-02
      -1.2394211296624442e-01 -4.9745502665353603e-02
      -3.7655214539174786e-01 2.2156969344935140e-01
      -1.3243087762796568e-01 -1.7043199020094008e-01
      -4.7680647626933631e-03 6.4564841040026702e-02
      -1.8277621107728151e-01 5.7188136987072931e-02
      -4.7340354759933989e-01 -5.9524279697103596e-02
      -9.7686103850026101e-02 1.5630041699670633e-01
      4.5413455942107253e-03 -1.1134544150651197e-01
      7.3684103470906545e-03 7.4567298077295757e-02
      -2.6784180654626272e-01 1.6065223202020529e-01
      2.8945502772403146e-02 -8.7145664617404334e-02
      -7.1396133557787886e-02 -8.3532599117507003e-02
      -1.3740991052982857e-01 -7.8015290414290409e-02
      -5.5175096096081136e-02 -2.4894312770206381e-01
      -7.7059019268157329e-03 1.5402621527926275e-01
      3.9517342900952830e-02 -8.1979441159497471e-02
      1.6736217560271802e-01 1.2622671865393828e-01
      7.3170156222622990e-02 -2.2179408320024174e-01
      1.2308120335609020e-01 -8.2157353993818030e-02
      2.0084845866107648e-01 -5.7817496815067565e-02
      5.6406095875532303e-02 7.5196756004637877e-02
      1.9904900197589584e-01 2.8454318508590235e-02
      4.3930514855357719e-02 8.4113036070757718e-03
      2.4328014195816594e-02 -1.1851374709116334e-03
      1.3669808215126701e-02 3.9328048302366365e-02
      -1.8114102994705414e-01 -1.0316126151135389e-01
      -9.2757565851864815e-02 -2.7285527200884990e-01
      3.6867793599774122e-02 5.0226469708959137e-02
      2.4110536791587589e-01 4.5411101696841183e-01
      2.2456145923809837e-01 -7.9283545153186682e-02
      -1.5240478429156762e-01 1.0353786510435807e-01
      1.2816994076144292e-01 -7.6827403207043732e-03
      1.5814207732810609e-01 1.5990006458104580e-01
      -3.8862267438792043e-02 1.3844662467914035e-01
      5.2891924910161557e-02 1.4844963796020702e-01
      -1.4598047608427490e-02 1.1198471999700055e-01
      1.5505789769908002e-01 -1.5424890470773708e-01
      -9.6522997606071109e-02 7.2237836537212552e-02
      4.8749091505140034e-03 2.8918759117892479e-02
      -6.1862880770878786e-02 -9.3532507209802176e-02
      7.0845827021829039e-02 -1.4173306264763006e-03
      2.3225124420970217e-02 -1.4115208009203140e-01
      1.1222080397818806e-02 -8.0288523957163821e-02
      -8.5033931410216437e-02 -4.1388247498599824e-02
      7.5320937788325062e-02 -4.6585268750777876e-03
      5.0098768611193903e-02 2.8827715549497873e-01
      1.3640274519550282e-02 2.0368161804158583e-02
      6.4707114176105418e-02 -9.7331604263400720e-02
      2.7362050441515094e-02 -4.4225282263015336e-02
      -1.2822575981987400e-01 -5.3318217797817258e-02
      -1.9938369123986902e-02 -1.2964659975128301e-02
      -3.3523104976211182e-01 -5.1781831689567535e-02
      8.2360023760297718e-02 -2.7392575058441015e-01
      -1.1949485093135251e-01 -1.4689449707231006e-01
      -1.5082875188186043e-01 -1.2001836313519970e-01
      -7.1142327012667608e-02 -4.5886631295244319e-02
      5.3987414924736729e-02 -1.2887685757460941e-03
      1.6783824594594135e-01 2.0808444110966866e-02
      -1.5358534839379537e-01 -5.9395928572624282e-02
      3.9487503753869210e-02 1.0011530637628214e-02
      -2.3927100984016375e-01 8.5114677812542769e-02
      -9.9386928440666732e-03 8.9595569182601212e-02
      7.1493281946116996e-02 1.3552048262405253e-01
      3.7597697430698011e-02 4.3277047197680707e-01
      -3.9175166164804286e-03 1.0859614252887645e-01
      -4.8965281361085168e-02 7.9469254074535312e-02
      6.1226750060311440e-02 -7.0800597441426263e-02
      1.2464249758664095e-01 -2.2638910777515128e-01
      -3.7887670137805592e-02 -1.4700196991364151e-01
      -2.1000489422683327e-01 -3.9687947161208346e-02
      -4.8313496802214334e-03 -1.3381989162889410e-01
      4.6142046996129324e-02 1.4215968384463475e-03
      -1.7242100299031490e-02 1.9325550930795779e-01
      -4.1907470136970465e-02 1.6795562160709288e-01
      -5.5019672780833549e-02 -1.0390316015890910e-02
      3.4937301366885498e-01 -2.8698154399719661e-01
      -6.3397429385300380e-02 -3.9030075731731217e-01
      1.3561260060810437e-01 -2.1373682536439428e-03
      1.6767250209874532e-01 3.7976352768923721e-01
      3.8450990213257585e-01 -9.5795228814246958e-02
      -1.0776642898090574e-01 -6.6288261457172135e-02
      -3.5158472770016380e-02 -1.4958040411146889e-01
      -3.4105925782653072e-03 -7.8914003813422506e-02
      9.6964553835284233e-04 1.8503746270927567e-02
      -5.1060652778536060e-02 -1.6982441946335372e-01
      -5.6275682733809625e-02 1.7106914384092636e-01
      -1.5260307092909359e-01 -5.7660850661097163e-02
      8.4090506629369607e-02 1.7751497136758502e-02
      1.1152045515783715e-01 3.7938506947717138e-02
      -2.2382559117093026e-01 3.1484867652806975e-02
      8.6342131528151234e-02 4.5338048337154047e-02
      -8.2146452927932490e-02 1.8255384779855378e-02
      -9.2592162052926377e-03 -9.2201300917881174e-02
      -4.8774973953625372e-02 9.3065255663591043e-02
      -1.6434573367439734e-01 -8.6360516722752897e-02
      -9.2372206022589359e-02 -2.2827671352190612e-01
      1.6574505046493707e-01 3.9236592877897131e-02
      2.7388711515416952e-01 -1.2615870869656370e-01
      1.0428445059298073e-02 1.4793371764143412e-01
      -1.1228968716281017e-01 -7.9634076347103955e-02
      -1.0849018106556600e-01 -9.0866914873984628e-02
      -6.1820510755766300e-01 -1.6018292865664478e-02
      -1.4746763761743739e-01 -3.8754158903498676e-01
      7.8036098261440132e-02 -1.3334601758212966e-01
      3.0084693573751774e-02 -5.2147076727234946e-02
      3.6874507745000229e-02 7.3803646180844215e-02
      1.6195687909851791e-01 -1.4723595341613510e-01
      -6.8812826397978422e-02 -2.8785334442738048e-01
      -5.8949263046206575e-02 1.4747504382522576e-02
      3.3194459048067965e-01 1.2605470549312045e-01
      -5.1219999639994969e-02 -3.8700490577501571e-02
      1.9291084915371678e-02 7.2324082686725341e-02
      -2.7232999268588493e-02 -8.6822059498450774e-02
      -8.7724860735305263e-02 6.9138562054949659e-01
      6.9801355057382969e-02 1.0372186108647589e-01
      2.6436043774980086e-02 1.0331827778138748e-02
      1.6228397784017026e-01 -2.6954844628674715e-02
      -8.4156171451400044e-02 -1.4382766462004502e-03
      -3.2362379728908650e-03 -1.9097890088727802e-02
      -5.3854096199925805e-01 6.3664755203094850e-02
      1.7886580738438398e-01 -3.1896425220271349e-02
      9.8794966307833451e-02 8.1470607270167514e-02
      -1.4474006544399817e-01 2.2799272571537226e-02
      -1.0196595269604485e-01 1.5653341862019302e-01
      -3.3940769616550653e-02 1.2498272158090189e-01
      -3.5820841314779188e-02 -4.7820016018429432e-02
      1.1120244152937463e-01 -6.9640074562888274e-02
      9.3946579511533547e-03 7.4318364496591155e-02
      1.4599421692405384e-01 -5.0301503306320335e-02
      1.9758054363059185e-01 -8.1872908953760745e-02
      5.8417221275507719e-02 1.7640218281832165e-01
      2.7334984553328812e-01 -6.0461925454840935e-02
      -7.1428024321163602e-02 1.3966889483772049e-01
      4.2337932158286102e-04 -1.5768203848374468e-01
      1.2140149159754540e-01 -1.0604234113894656e-01
      -1.5787747925457483e-02 5.4048519426594796e-03
      2.1280721246441583e-01 -1.6645970900339124e-01
      -1.7272442973343374e-01 -3.0961235615248661e-02
      4.0026688463127916e-03 4.6756258163662967e-02
      -8.5654015324376012e-02 -1.7480776456364113e-02
      8.7935471754992278e-02 1.3533439643797140e-01
      -5.8468719436897770e-02 -5.7937558584744836e-02
      1.0248000212207956e-01 9.0628133438081224e-02
      1.6374894416306437e-01 -1.1819981269717514e-01
      1.0362061332579139e-01 4.6754033086924489e-02
      -8.2928905092903890e-02 1.1864496757433375e-01
      1.6328294983934299e-01 -1.0671106332867328e-01
      2.9792681022997719e-01 2.1150609774597741e-02
      -1.1077397799320453e-01 4.2970628344151714e-03
      5.6611155663760619e-02 -1.5557929442399995e-01
      -8.6123154487290868e-02 6.3209288599151061e-03
      -2.9655711800608147e-02 -1.3280566166743951e-02
      -2.8216084675583597e-01 -5.4934351684654326e-02
      -1.6910278787778721e-01 1.3686100721603112e-01
      -5.1058334666558298e-02 5.4972054557634063e-02
      -5.3325408917146593e-02 4.5846733773667159e-02
      3.0537108663352286e-01 -1.1200861880543991e-01
      1.5778926623711040e-02 -8.8839363238007923e-02
      -2.7709108387671011e-01 8.5652773605683880e-02
      3.5066298129466850e-01 6.5371907003691387e-02
      3.7703816672866645e-03 1.6574981100217631e-03
      -1.5150294307046499e-02 2.1571751679757356e-03
      -1.3611895593808404e-02 -1.9434346697525879e-02
      -6.8692889087243664e-02 4.0138371941259349e-01
      5.2926265100062915e-03 1.9863261858054187e-02
      7.0351165602661039e-02 1.3430244451754119e-02
      2.3395583256832685e-02 -2.0577657865545585e-03
      -5.3634257407562891e-02 -6.8938786421155834e-02
      2.9595458537247904e-02 -5.2952361925901546e-02
      -1.1931052855465422e-01 -5.6470523636681293e-02
      2.6119709410734944e-02 -1.2914181413104795e-02
      9.8800753981987177e-02 7.1670699006466151e-02
      1.1585351822737957e-02 -3.7376738681852650e-02
      -6.3740083066182507e-02 -2.8355487312980505e-02
      5.9863004046757366e-02 1.4671041344269925e-01
      3.4278605417765756e-01 7.3061692995406678e-03
      -1.3732735288143736e-02 -7.6717721867185593e-03
      6.8592892192231268e-03 -1.0874821080890161e-01
      4.5875588186443911e-02 3.6417697706089774e-01
      5.9395808407514288e-02 4.5153242028810797e-02
      -2.3572715428860986e-02 9.6695547959321518e-02
      2.6134974641241321e-01 -3.8405842540983705e-02
      -9.5516371237402420e-03 1.3867197426781583e-01
      4.0661573069044457e-02 -4.0969421214047050e-02
      7.2612914189675179e-02 2.5602979563243450e-02
      3.3416219465060827e-02 2.9297362586466726e-02
      5.6950706499110125e-02 3.6423606531967877e-02
      -1.3490126076172557e-01 1.6754903537868102e-02
      -1.2281858424448211e-02 -1.7227410654900892e-02
      -8.8538966015032153e-02 -7.7079512019587529e-02
      2.7681283104718263e-02 5.4323620796787958e-02
      -6.7481000500476673e-02 -7.5540522913262395e-02
      7.1465845354348023e-02 -4.6777114053211895e-02
      -4.6159634156094677e-03 -4.4326939753925591e-02
      -1.6312842977291464e-02 1.2174238166028707e-02
      -4.6884760042450860e-02 7.7036819659253811e-02
      -6.3373646872096262e-02 -1.1626726903379772e-01
      7.3818717164461548e-02 -1.5366627621344433e-02
      -9.6710733734172993e-03 1.6966962377232195e-01
      8.6027056680646405e-02 2.6616005486238214e-02
      -2.3399360369402433e-02 7.6288100209441115e-02
      -3.6161395472615293e-01 -5.2450002789693750e-02
      -1.2746116610778011e-01 -7.9075141390092960e-02
      -4.9809636476821413e-02 4.8706281123749126e-02
      -5.1208594339385571e-02 3.7331212999716382e-02
      4.0485279950543623e-01 -1.0041279504134840e-02
      2.5015233721707125e-01 3.9858669754933879e-02
      -1.2294039061966842e-01 4.1149189097258225e-02
      2.9319855634883280e-01 -1.2988371655132308e-02
      1.7235757672208911e-02 4.6116110348247606e-02
      7.3444548644634455e-03 -7.2011863256579878e-02
      -1.1679272426790650e-03 -1.4047054694754936e-02
      2.6091481293997458e-02 -2.8351348374442344e-02
      -4.3407140424326883e-02 2.5094038297035076e-01
      -1.9667472152310350e-02 -1.0191343875702022e-02
      -2.9804807587502213e-03 7.0443553281060847e-02
      1.0916037018344420e-01 -6.6496389825520433e-02
      -1.9337283215429812e-01 -2.0720132433731170e-01
      1.0531914016618765e-02 -5.5013408915784268e-02
      1.5416485262045260e-01 4.8808438556685908e-02
      -6.1021048340796330e-02 -9.8656173673706701e-02
      8.9062688487513725e-02 1.0562806846278010e-01
      -1.7390100122194167e-02 -3.7768050024259016e-02
      -8.4144160779329839e-03 -4.5889706825414302e-02
      2.3731389946897101e-02 1.5888334616547295e-01
      1.9264377245133887e-01 2.3952278092695439e-02
      3.3653098345896047e-02 1.2138665603797734e-01
      -3.9242102573390801e-02 -1.2747852375559171e-02
      1.4832288152093157e-01 4.0915167884644177e-01
      -1.4243772357543708e-01 -1.2188574171085253e-03
      3.3316281802709194e-02 -9.6864880387260792e-04
      1.5839756472760075e-01 -9.6789323017098250e-03
      -1.6239153231828779e-01 4.8841059159126822e-02
      5.6300971601835142e-02 -6.0259535998776072e-02
      1.6638545552089229e-01 1.3852289693780218e-02
      1.0279765191258679e-01 -9.7935232443000828e-02
      -3.3992377314484415e-02 1.8663236791775152e-02
      -1.3117512319476643e-01 -6.3603906604731419e-02
      -8.8670813484743191e-02 -9.4857569470807701e-02
      -6.1939013389176413e-03 7.2668455563698095e-02
      -4.9951392297798422e-02 -5.3878344309872808e-03
      9.8077880817559068e-02 1.1992673068172190e-01
      1.0035330333389482e-01 4.4115937697300309e-02
      2.3891102386079565e-02 -2.6051583712333862e-02
      6.5435652636975636e-02 8.6337746988336156e-02
      -1.1280874240465460e-02 2.2219599563023434e-01
      -2.6296277908691053e-02 -5.6735935241511895e-02
      -5.5579847299565104e-02 -1.8880674482650954e-02
      -8.6716214176874695e-02 1.4493931001284721e-01
      1.2519877625702192e-01 -8.7434696980585348e-03
      1.0888244337295178e-01 3.7102326241570852e-02
      -2.1167824634996016e-01 7.6882153986301771e-02
      -2.7865735417917720e-02 8.2357381395852663e-03
      1.0366773356289469e-01 9.6953385480989685e-03
      -2.7522032549447056e-02 1.0324876230216438e-01
      -3.0668481027842948e-01 -1.6583650017585640e-02
      2.6922688508436743e-01 -3.5847330611652531e-02
      8.1247792743504743e-02 8.7764352815771135e-02
      1.4277636366904348e-01 9.6613469542247823e-02
      2.2263790330449459e-01 -3.9396569819973942e-02
      -1.0046663228969076e-01 2.8148880157466045e-02
      1.5561768795676592e-02 -1.3476986456360157e-01
      -6.0202711734334009e-02 -5.6467592669520401e-02
      -7.5005855936311233e-02 2.8757601435167957e-01
      4.2632432962002913e-02 9.6140942508719143e-02
      -2.1248829682613195e-02 -8.3711523709876001e-02
      -4.8022025503218373e-02 1.0921213798413452e-03
      -4.2812832972594903e-02 -2.0978218477931876e-01
      3.5732431405155743e-03 8.5560090714177795e-03
      6.6520242408800081e-03 -5.1982325443714006e-02
      8.1347030432051312e-02 4.5749337227053460e-02
      2.7668534111716131e-02 3.2149196393952320e-02
      8.8955686971546905e-02 4.4301502837426558e-02
      1.9853400883161440e-02 -7.8233520470334258e-02
      -8.3664712096509608e-02 1.4196701426462277e-01
      2.3338975811315416e-01 1.2004715366418997e-02
      -8.8560673434347412e-02 -1.6900759395107873e-01
      -3.9842269670157603e-02 1.8525863443527971e-02
      1.0222314145889280e-01 2.3923316760502350e-01
      -1.9620898723410603e-02 -7.7551476099119887e-02
      -1.2297130836785294e-01 7.5017683083310166e-02
      1.7751776119856977e-01 2.3757653479254390e-02
      1.2468572277155360e-01 -2.5155574005939787e-02
      -1.3496620284340261e-01 2.9106873689815651e-02
      1.2807296248971647e-01 7.1995520203961758e-02
      1.9105709205668869e-02 -6.7159230300906786e-02
      9.6135645859013776e-03 1.5673977091956295e-02
      -1.5536608510587402e-01 -3.0803465075100650e-02
      -6.1048777197466132e-02 3.1841240415961522e-02
      -1.1007010651301974e-01 -5.8969559758186151e-02
      7.8958041358415026e-02 -1.3772539354718147e-01
      3.4649069359333907e-02 -8.7189099697731781e-02
      -4.8998709498062683e-02 -5.0002437490189060e-02
      8.0973943917749796e-03 -4.2862771763933216e-02
      8.8072202323160355e-03 2.4064230628291706e-02
      -4.0211056705402169e-02 2.3704819825440640e-01
      2.3942910412610790e-03 -1.7447141589914211e-02
      8.8527066743030847e-02 6.5012587382288434e-02
      6.1994640746424620e-02 1.4331642358579988e-01
      -2.8652284678327925e-02 -2.7389975305701995e-02
      -3.3547074662469333e-02 3.5633495932376739e-02
      -3.3092874700257002e-01 -4.0850027018758374e-02
      -1.0519389678638312e-01 1.3716860868741491e-02
      4.0632486595854465e-02 -2.0882198622774839e-03
      7.1043582427188487e-02 -5.7761694328619766e-02
      9.8679836250752218e-02 1.2492751314169759e-01
      2.4806415235568316e-01 -1.0988801627012715e-01
      2.5843277117154860e-02 -5.8943323674737022e-02
      -4.5951123893175960e-02 -5.1441946730824750e-02
      2.6456913967340812e-01 3.4200205757690498e-03
      3.5411588605367986e-02 1.9910961388452813e-02
      2.3567464350535392e-02 -6.9691733242049948e-03
      3.6894701085274616e-02 -8.8640064926332349e-02
      6.8973083061187587e-02 4.1200673441335450e-01
      -2.7496851594228232e-02 -5.2030146042285515e-02
      -2.5841473589013522e-02 -6.2599486693121029e-02
      1.8357736301734340e-01 -3.6823608715632845e-02
      -5.6676732754209367e-03 -1.1244152203003101e-01
      -1.6894663525611101e-02 3.4575606656993316e-02
      -1.4216685755452896e-01 7.2479050923086694e-02
      8.3339263149494205e-02 8.4822597863505100e-02
      -4.2587399623594535e-02 2.1683876190922123e-02
      7.4395874734764458e-02 -1.1064975186945650e-01
      -6.8990924128722347e-02 6.6248140661094204e-02
      1.0336068930080098e-02 2.0821598064888855e-01
      2.3720584121563870e-01 -1.9908115645759544e-02
      4.5185714746387176e-02 5.1663510798899526e-02
      -6.2576232241023752e-02 8.2987705561295796e-02
      5.4832404297562552e-02 3.0634251303475185e-01
      2.3873490290116536e-02 5.2078390739034357e-02
      7.6083733474186482e-02 3.6489266810716257e-02
      3.9587248912180510e-02 -6.3030993177042874e-02
      -1.1163701823038404e-01 5.5480456760485374e-02
      8.0745036200044779e-02 -1.0003384547886993e-01
      6.1717688363211072e-02 -1.5936268055668255e-02
      4.1307384545440806e-02 -4.4485206480857818e-02
      7.7529241547556263e-02 9.4229790400508301e-02
      -5.3480868051575106e-02 6.0373909067168913e-02
      1.0511974881061993e-01 -4.5068301954116603e-02
      -1.3017468394115272e-01 -2.8644609394599604e-02
      8.2834623518202352e-02 -1.3146226042116791e-02
      4.6900253031231460e-03 1.1336388068040462e-01
      9.0263099839298769e-02 6.2903985479067254e-02
      5.8546241421207242e-02 -7.4143885421827954e-02
      -6.4437807490996798e-02 -9.7183177536466880e-02
      -4.9359778188351772e-02 7.6460338879547687e-02
      4.3906387839368718e-02 -9.1243772911941787e-02
      -1.5825955171629333e-01 1.0709514545977462e-01
      -2.4466817852818123e-02 2.0492899117418761e-01
      3.6799577571998469e-02 -1.2147765988072547e-02
      -4.0546815106299150e-02 8.4797501324995084e-02
      -1.8888848602048491e-01 -3.0220196709181531e-02
      -1.2453274572124655e-01 9.4024125331418060e-02
      7.6582477954537575e-04 1.0620568428033883e-01
      -2.3169859832095043e-02 -9.5161620021288265e-02
      -2.9938615256404155e-01 1.5455978777283894e-01
      1.3948606952541537e-03 1.3652756445518045e-02
      6.5677612644421429e-02 8.3014480299207841e-02
      -2.4510485204484833e-01 -6.4972217774968699e-02
      1.2233010072981773e-01 1.3598628939636068e-01
      8.5566847280570582e-02 1.5182639096786099e-01
      -1.8690759661484736e-02 4.6821589370496020e-02
      -5.6874571039532230e-02 -5.5010963950493687e-02
      -7.4146176385916206e-03 4.7779948998896249e-01
      -1.4036567683878737e-01 6.9156077045256600e-02
      -2.0073438370013477e-02 1.3670615369441225e-01
      -1.3112461456856187e-02 -7.5258698653484779e-02
      5.1541799861673267e-02 -8.1935602863620463e-02
      1.2533381606246896e-01 1.3735398226366420e-02
      -1.4203750689153799e-01 3.0984475488848445e-02
      6.7460092554553319e-02 -1.6633471400053588e-03
      1.3121661086897538e-01 -6.6887633600905314e-02
      -2.4135524918491944e-03 1.3138712852304682e-01
      1.2237893130118220e-01 -1.0047432729457521e-01
      -1.6842073754571396e-01 9.7732484019709590e-02
      8.4528299115071898e-02 -1.1462441087621948e-01
      -2.6334981726554650e-02 -1.5789173318202362e-01
      -1.1110800956368556e-01 1.6333416871524391e-02
      1.6222777635609184e-01 -2.1797256654887291e-02
      1.9012138237231316e-01 2.3883134365577197e-02
      7.4643196826857036e-02 3.1207570901528668e-02
      4.5832094470699240e-02 5.1879882745237478e-02
      -4.4130853186883388e-02 5.5297707892923667e-02
      -2.5327357917828416e-02 -7.9121270464917959e-02
      -2.2467837703336685e-02 -3.9299981812930214e-02
      1.0407283191500155e-01 1.2101268064329195e-02
      -9.2441617162888120e-04 -4.2964106693971528e-02
      -1.2779041297185534e-01 -1.3328470322251509e-01
      -6.8335897295198858e-02 -1.3306820714466270e-02
      -2.1955967618785290e-02 4.3495924919140713e-02
      -8.0885925720360421e-02 -3.0750144766257984e-02
      -1.7272855543437330e-02 -1.1801762803565470e-01
      4.4264230395473243e-03 -5.4737773671935691e-02
      1.1421646393158198e-01 -2.4739526332137364e-02
      -5.9408774090797506e-02 -5.1256095767519175e-02
      -1.6968202531394781e-02 -9.7461138919301721e-02
      -6.9883251478933317e-02 -1.2035785845510612e-01
      1.9292649671842224e-01 -4.3871970791586140e-02
      -1.3982359415667531e-01 1.7495864603677225e-01
      -4.8631508519652297e-02 -6.7557140994901316e-02
      -8.8544970208355403e-02 2.4067675602272923e-05
      -1.7501010591484881e-01 -4.4858024731370266e-02
      -9.8609899859152347e-02 -1.6961600517606512e-01
      -6.3128511140526672e-02 1.3675670139044030e-01
      -1.2397172154584565e-01 9.3475218473771486e-03
      -2.3666772238963289e-02 5.3912366936253217e-02
      1.5202602533072274e-01 -5.5203775305082303e-02
      -5.5407331923817790e-02 -4.1046195626721585e-02
      -2.5257203356334595e-01 -1.0576069334763402e-01
      1.6821620511898205e-01 1.4835223477548631e-01
      -2.0031936419416745e-02 5.0933209953966246e-02
      -1.0120614228475962e-01 -7.0653830517021149e-02
      -3.3086441851837047e-02 7.1296129234806258e-02
      -4.4978787015133387e-02 1.2231553351149989e-01
      3.1320148805816656e-02 -1.9733995375441550e-02
      7.6025263469088316e-03 5.7224139825332053e-02
      -9.6940831050046760e-03 -3.3525289453232215e-02
      9.7039034853164396e-02 -1.2970564456167413e-01
      6.5233994008177545e-02 2.0232497166364015e-02
      -2.3331834303222815e-01 -8.3353427824852888e-02
      3.4704521949274189e-02 -2.7905923810209281e-02
      4.6665745990256427e-02 -6.8208322607988078e-02
      1.9207691624664031e-02 4.4980378790526285e-02
      4.3310748198055818e-02 2.9116200871377462e-02
      -7.5626875367510366e-02 7.0966175411911081e-02
      2.1598962282169001e-01 -1.0550389645079723e-01
      8.5456258667753471e-02 -3.6031699655437031e-02
      8.2049828819295539e-02 -9.6538411268309893e-02
      1.4588699721965625e-02 7.8197990360826100e-02
      -1.0813835449003111e-01 8.2236177853042144e-02
      5.5465289912441235e-02 3.1580921043598810e-02
      8.5493879676101947e-02 2.2264869449244048e-02
      -6.1474283820577798e-02 -3.8529089322715530e-02
      -8.9639465552753803e-02 -2.3763332960300296e-02
      5.0923746521869692e-02 7.3599488809270225e-02
      1.0527963290326359e-01 2.7827665745474805e-02
      -3.2662164729210831e-02 -1.2585520941676759e-01
      -3.6838571416407895e-02 9.8304654627558649e-03
      2.8519748499816529e-02 -7.1328354363915783e-02
      -1.2485977993332990e-01 -7.7478925765899320e-02
      3.7847128049479414e-02 1.8530310275141695e-02
      -3.4961385311886705e-03 -2.1514408930636199e-02
      7.4251043543336004e-02 -3.1778036109824430e-02
      3.9961775136357312e-02 -2.5358700531909022e-02
      5.0704566540964932e-02 -6.0747454213557976e-02
      1.7803812492898748e-02 -9.8891020224367493e-02
      -1.0731614271508599e-01 -5.3699239477310659e-02
      -4.4761387407522418e-03 1.8625485526491807e-03
      -6.7222885289833334e-02 1.3991457157913326e-01
      6.1903419969628878e-02 2.9357581123071200e-02
      6.4450241047281934e-02 4.5663638008298556e-02
      -6.9515270583459923e-02 -2.2351168282468640e-02
      -2.0227676722958939e-02 -1.2838298238473952e-01
      -8.0287568129466191e-02 8.0967852321000455e-02
      1.7811533308050998e-03 5.6332337699077396e-02
      -1.5564348150566187e-01 5.4701167362560303e-02
      -9.2697848302962290e-03 5.7310706467969076e-02
      -3.3531724624480098e-02 2.2904039237172371e-03
      2.3228081731390599e-01 -3.1280428257674422e-02
      1.6900026871505387e-02 1.1661496179386291e-02
      4.3089224662531539e-02 -6.1570007252097901e-02
      -1.0500665331564492e-01 1.8167313900808970e-02
      -7.6151549802367130e-02 -3.2606480024200628e-02
      -2.8644884573121743e-02 -4.3228877416282709e-02
      6.4329563830951217e-02 4.2935919561824458e-02
      9.6306413328083734e-03 -3.1971869716538774e-03
      1.0684354364052941e-01 -3.7992911904340806e-03
      4.5182919180766197e-03 4.6826923884335840e-02
      -5.5338173133699542e-02 -3.7913332896245676e-02
      -1.7103982973182449e-01 4.9455680583318992e-02
      -6.1426384310774088e-02 3.9561368586502263e-02
      -3.7342611940045248e-02 -4.9410419410148433e-02
      6.7422321000525171e-02 -6.9080109427137881e-03
      3.6664580842669131e-02 2.3592972936977014e-02
      -5.5942603865532473e-02 4.8763576366497127e-02
      -2.3777181667481703e-04 2.2046422404068535e-02
      7.0685566494910743e-02 1.3674261697232490e-01
      -2.0237395245104230e-02 2.8171211364496584e-02
      1.0050177149191031e-01 4.4318137346511238e-01
      8.1743918979223382e-02 4.8768073905256316e-02
      1.2444039075233291e-02 -1.0961573652572694e-02
      -7.5173562912796976e-02 5.3122395532561907e-02
      2.4059110938814431e-02 7.2945963752096360e-02
      4.4188195548836046e-02 6.5510676736917225e-02
      -3.0560084445229205e-02 7.7132675057832889e-02
      -6.5161458437079128e-02 8.3134715429425618e-02
      -5.3575165792505725e-03 -5.5440574316910646e-03
      -1.1277854050696277e-01 1.0695707003958921e-01
      -2.4656153632798123e-02 -6.0007002863178879e-02
      1.3343956795331027e-02 8.8203683646983274e-03
      -5.1981871259890507e-03 -6.6239955678665087e-03
      -1.1533139022522779e-01 -3.0238420420376402e-02
      -3.9931963691917658e-03 -3.3371111844067609e-03
      -1.7531452818532169e-02 -7.3403862289546859e-02
      2.8042379710328330e-02 -5.3809629808092653e-02
      -2.9770513864611391e-02 1.3594886208875911e-01
      -2.2440750959926457e-02 6.3349565931414595e-02
      2.7960144800096808e-02 -1.7944813737512026e-03
      6.1254477317216748e-02 7.9004190274224992e-02
      1.6089570344052437e-02 8.3315347179903992e-02
      9.2788101962979694e-03 -9.6421341372651279e-02
      1.9586576476053860e-01 -6.5749414079721832e-02
      -1.2034340551168741e-03 -8.4998908423122244e-02
      -7.7566709386317184e-02 -5.5620753363014898e-02
      -2.1258345229842077e-02 -3.4975924530908392e-02
      -1.0741596507495085e-01 -4.5094125459324980e-02
      2.0626395583391777e-01 1.3918961302668254e-02
      5.4281563405264459e-02 6.0170172669476605e-03
      -1.1753179099571739e-01 -1.9976852870053449e-02
      5.0435952941620066e-02 -1.9540904187930360e-02
      5.5445617422578544e-02 -7.7286192817701133e-02
      3.3192003222504124e-02 -1.2001489485663118e-02
      -7.0648589046865010e-02 4.3469485356715173e-02
      -4.2862178253661058e-02 -1.2578120539338125e-01
      1.0118883838797945e-02 2.3727052634381750e-02
      -5.9745365346976942e-02 5.6111074129595144e-02
      4.7399771312847408e-02 -3.0679729430873222e-02
      7.1394813464297199e-02 2.5841641098532209e-02
      -7.5151115710092239e-02 5.8413778087879627e-02
      -1.0268160453907755e-02 -5.4876013067896870e-02
      2.1349172590264458e-03 -2.2858952325374125e-02
      3.9292348871473121e-02 -4.9757201434416407e-02
      1.1885735097911218e-01 1.6474177742061748e-02
      -4.2364408221884031e-02 -3.3216502367645451e-02
      -1.0815971801394846e-01 4.1917474679307419e-03
      2.2412300242734726e-01 -7.6686127780668717e-02
      1.1664885709834439e-03 9.7239441301598083e-03
      2.9692318050742392e-02 -4.7958639931020855e-02
      8.7204270378169690e-02 1.8640213144292861e-01
      -1.2479236426049339e-01 2.6504018751152891e-02
      -8.2783290879318142e-02 -3.8321379157959627e-02
      1.9765032689147996e-01 9.5961431881788541e-03
      7.4658277163295067e-02 -3.7870655360871544e-02
      -1.1281010063613116e-01 -4.0915060028978802e-02
      -2.5641867419467074e-02 3.3646968452478679e-02
      8.8044878080400332e-02 1.0209095931738374e-02
      2.2603756271240505e-02 1.7632104497361994e-02
      -8.3492283350754898e-02 1.0062543272700958e-01
      -2.0214988599620971e-02 1.4598713182835604e-02
      -6.7882131934683107e-02 -1.5846416814632093e-02
      4.6631173910999781e-02 -8.9475805668895861e-02
      -6.3371221509610706e-02 4.9952530856551616e-02
      -1.6943325605113614e-02 -1.1700939588267970e-01
      -5.3994521569602015e-02 -6.9178332118458669e-02
      -3.8839568349465475e-02 1.4917101122071112e-02
      -6.9293474811362180e-02 1.0830049701083008e-01
      -6.3672299910220942e-02 5.9227794538583539e-02
      -1.6041407316744841e-01 7.6792144784365704e-02
      8.1168561643118017e-02 1.2593714608419662e-01
      3.4634660751686537e-02 2.7826434220394547e-02
      -4.8953326754680830e-02 -3.1407786416063829e-02
      -2.2217495652711280e-01 -6.7746465862770611e-02
      -6.9341091893580606e-02 3.0664546531479025e-02
      4.3139176715426712e-02 -4.3274324370250937e-02
      -3.4299827387326697e-02 4.1702157470851604e-02
      -3.7827230508855852e-01 -3.2429672118327098e-02
      2.0683826062731500e-01 -7.1650951607057520e-02
      7.4277120040960001e-02 5.9624180689734014e-03
      -1.8763251750612966e-01 2.4096127845948077e-02
      1.6930449471407605e-01 7.9086286738012851e-02
      -3.7291402402882201e-02 4.7248074072654633e-02
      9.2632118719534490e-03 -1.1296718490648765e-02
      -5.5776836461428142e-02 -1.2107594220085423e-01
      5.3497221992124958e-03 2.8476162838733116e-01
      -8.9437511497787212e-02 -4.0381911851623646e-02
      7.0083385557664926e-02 5.0569324131411193e-02
      3.3137421446070736e-02 8.8725676759112606e-03
      8.6514542541720987e-02 -1.1789879875111316e-01
      8.8001260124259698e-02 -3.9777696065841250e-02
      -1.3889827326424689e-01 4.8493688508926602e-02
      3.8128060300617356e-02 9.3092013268985738e-02
      4.0792986844049327e-02 -7.8535067065522643e-02
      7.6537144156259410e-02 1.4251920058097001e-01
      2.1943128519726688e-02 5.0249363502189615e-02
      -7.1435110286223402e-02 1.1769719186651768e-01
      6.4077570082741227e-03 -5.8910981550044220e-02
      1.6802028647274158e-02 -1.4103690179929515e-01
      3.2361828000529579e-02 -4.1995110889769802e-02
      6.5927772514158642e-02 4.6961370803343244e-01
      1.8703619592879953e-01 4.3347813905347754e-02
      -1.0723860528346259e-01 9.4624731900805767e-02
      1.5705533701212307e-01 1.4117084510704318e-02
      1.4032803938413982e-01 8.7031098625955330e-02
      -7.3061726698327195e-02 4.9902602434390833e-02
      8.0586802500506538e-02 3.9424440030319592e-02
      -3.2594404395261463e-02 1.1762378003166724e-01
      4.0535630123780170e-02 3.1184735764203476e-02
      -1.7358613371965945e-01 3.3266675113036964e-02
      -8.3743906102871760e-02 -6.9594367160089973e-02
      6.8923809172373202e-02 4.5229062976301681e-03
      1.0332760597774654e-01 5.2728212431543089e-02
      -5.0541209445818039e-02 -2.9060162899635943e-02
      5.5024455537894618e-02 -5.5399228404385277e-02
      6.2199792071144691e-02 4.3638410820133283e-02
      1.2017448278100694e-03 1.3130194919820828e-02
      -2.8954636431643446e-02 2.3755903416817100e-02
      -6.2928216135805459e-02 -9.8513239006318989e-02
      2.4356814267792853e-01 6.2532432624773676e-02
      7.4283008224481596e-03 1.0688495562158659e-01
      1.0155452711923377e-02 -1.1404432321789669e-01
      -5.0099267976083273e-02 -7.4730924346903177e-02
      -1.8803770636513212e-01 -1.6021443063756907e-01
      -1.0112281647793551e-01 -7.0382016340448605e-02
      1.1482858888832579e-02 6.4411810624013396e-02
      -2.4181125156041334e-02 -2.2967595499708528e-02
      -3.3211545446942908e-01 -2.2243340671057293e-02
      -3.9234226043631547e-02 -1.8456999084819025e-02
      6.6280353895474001e-02 -2.5508044829566498e-03
      -8.2825056495924934e-03 3.0514689950910081e-02
      4.2411983597522580e-02 6.0824888618999075e-02
      -2.6655070202699718e-02 -2.7718718987416381e-02
      7.1630056030625583e-02 3.1278627783445583e-02
      1.0474234282312606e-02 -1.0270924487530365e-01
      1.6081213692827407e-02 8.4456033079552795e-02
      -2.9407963915213997e-02 5.0727674094654784e-02
      8.8731809310497692e-02 1.5215021964749826e-02
      5.7824619734079930e-02 4.1721346193078941e-02
      -3.1996302047758336e-03 2.3255836422628073e-02
      6.2713298466848116e-02 5.4554428260055944e-02
      -5.0657668311834790e-02 -1.0916434784095842e-01
      -3.8052113186598888e-02 2.0050848842297207e-02
      -3.6126234397951103e-02 6.1915735802938908e-03
      4.1376569628682512e-03 1.4677830522607346e-01
      7.8538290283246187e-02 2.6078197301901564e-02
      -3.4183326155870163e-03 8.0255129862564695e-02
      1.4347408288145550e-02 1.7944017606154397e-02
      -3.5986741227235455e-02 -1.4605125078718290e-01
      -1.2357118772364173e-01 -1.2497401438383694e-03
      4.7822717089933145e-02 1.5986498205036223e-01
      1.9595668163179394e-01 7.5071478786040396e-02
      -1.6495561726427635e-01 -5.0361568167883612e-02
      1.4693570799352512e-01 -2.2206655104004863e-02
      1.2733899736802737e-01 -1.9360710296954055e-02
      -1.0021756918434399e-01 3.3081261053392302e-03
      -3.4738824453501488e-02 3.0635134533067800e-03
      2.3844917143687111e-02 2.4178332060761101e-02
      1.1100107023758771e-01 -1.1250166312479893e-02
      -1.3408269014322247e-01 -7.0188250252279066e-02
      -8.1642582356515073e-02 -6.1578061393658526e-02
      -1.6315023406057325e-01 -6.4282741821659883e-02
      4.3154723975373163e-02 2.3543724512551337e-02
      -9.4129537363203536e-02 -2.6539792566790184e-02
      -4.2472093846955689e-02 -4.9668495954249089e-02
      1.1622412388812720e-01 2.9260203236467244e-02
      1.1836884270119641e-02 -4.3446399042608448e-02
      -3.7795943894472474e-02 4.9287074036046520e-02
      -4.7601441004647214e-02 -2.4084425295894051e-03
      2.1497358242104697e-01 -1.9983790660596568e-02
      9.3992986021993602e-03 1.7053252332186335e-02
      -3.5311295173085476e-02 -1.1608318203783651e-02
      -2.0527790909253180e-02 8.4615328603935267e-04
      -1.6255226604682080e-01 -9.2494617343745048e-02
      1.2730540678090829e-02 -9.5605330331431787e-02
      4.1112814716528570e-02 1.2068136211304238e-01
      1.2091019462802555e-02 -6.1909010725664460e-02
      -6.5358705135336218e-02 1.9415071705170695e-02
      1.5673124415770517e-01 -6.4973559922086692e-03
      4.5007364599173261e-02 -1.1626717678503093e-01
      -1.3504204514860360e-01 -6.1861811516278759e-02
      1.1645268848785863e-02 -3.8606085813900924e-02
      -3.0958795403259437e-02 -1.5737629834739430e-02
      -4.0665740641557410e-02 3.4127754763160663e-02
      8.2098643233806442e-03 -3.7120241876681261e-02
      8.4623708460981495e-02 2.8959583475992107e-01
      1.5320240936407912e-02 -7.3526410116558805e-02
      5.6306087631860846e-02 2.1720596185226114e-02
      1.6677530678704702e-01 -5.4561628763125307e-02
      -9.6053216108022088e-02 -8.3916899614853144e-02
      -5.2561980252510083e-02 2.5810034886420412e-02
      -9.3669462719228297e-02 -3.7678507981314106e-02
      7.5921036756244994e-02 -2.5516840357612605e-02
      3.2632645575122854e-02 -6.3515911158181004e-02
      -5.4506862187950200e-02 7.2455702733064106e-02
      3.2141148582980408e-02 -5.5141791503633901e-02
      -6.2420047303025829e-03 -1.2581542924258553e-04
      1.4624012316148388e-01 -4.0907293228828925e-02
      2.2515326128205469e-02 -6.2715654183263081e-02
      4.4817771894983913e-02 -3.1045088693636581e-02
      1.2662798283232393e-01 2.4597847284956245e-01
      1.6835661486519590e-01 -5.6157194304568296e-04
      -5.4390836767207809e-02 1.9144917147992709e-02
      6.8334140625202124e-03 -3.8427251818805866e-02
      2.6142160498994472e-02 6.2555391792632045e-02
      5.8126218853660899e-02 -4.8549709177594970e-02
      -4.3392326520153290e-02 1.2904535253285367e-02
      6.5570270992001203e-02 5.6031798312686211e-02
      1.1714505897506586e-01 -9.2516805116957146e-02
      -3.5046546116989145e-02 -6.2338461358403402e-02
      -4.7327095910176940e-02 -8.1051436603693308e-02
      -7.1257277467632607e-02 -9.1799443815475147e-03
      -2.9448275216314976e-02 5.0665990187256794e-02
      1.6190124522337652e-02 -4.9643562801824359e-02
      7.1379655075174270e-02 -7.1091353541716903e-02
      1.0997585276703171e-01 5.4091642217975362e-03
      -1.3435723273697653e-02 -2.2585166179020259e-03
      -5.3758125492552288e-02 1.1455589725249027e-01
      4.4168308524204593e-02 -9.2668560043076706e-02
      2.0234942055549618e-01 -1.2987054945454782e-02
      -6.9171117641783797e-02 9.4922399468052709e-03
      1.7307297166121928e-02 -5.4384145976993916e-03
      -7.1168395802693754e-02 5.9009508484387393e-02
      -2.1156649180742718e-01 -1.7492097048050041e-02
      -5.5748883372952619e-02 -1.2798302792554245e-01
      1.1929335077998964e-02 -3.1730088663163077e-02
      -8.6906307883736628e-02 -1.1311984799779065e-02
      1.6499647815324398e-03 4.5547628742351041e-02
      1.9806358852857303e-01 -4.3344696797662438e-02
      4.7213647645182044e-02 -9.8645112801294704e-02
      -3.9269085685577459e-01 -3.6003942400384820e-02
      1.7786946529587197e-01 9.6827594676263368e-02
      -5.7954382401269627e-02 -5.1113020367773918e-02
      2.2447935412600529e-02 -7.3290524545787930e-03
      9.4561835219511781e-02 3.9600707045602014e-03
      -3.9186994227390616e-02 4.6247457591785629e-01
      6.2563083672939543e-02 5.0866537111632540e-02
      8.5146130032046657e-02 2.6830633272248803e-02
      4.5825691339128824e-02 7.1373267346539024e-02
      -1.5480230905612432e-02 -9.1678173221413292e-02
      -1.4899296996280825e-02 -1.0420622690549930e-01
      -2.1966127141421932e-01 7.6364393594769514e-02
      7.4894825422330488e-02 8.7285294217782472e-02
      1.1667139916501895e-01 -8.6887340095794033e-02
      -1.6060143408313138e-01 -5.8626220400846425e-02
      6.5031088093827613e-02 1.3612616713151918e-01
      -5.0131830335715742e-02 1.1865254256829363e-01
      1.9521637655706744e-01 -7.4594362550651758e-02
      1.3212496092673706e-01 -1.1307940400196861e-01
      -3.6254840607912162e-02 -1.7702195118046684e-02
      4.6237796730601265e-02 4.5603187608076895e-01
      8.2745527366831884e-02 7.6333148995327005e-02
      5.2030437402823034e-03 8.5521641049201833e-02
      3.9608183488361065e-02 5.5828827831631220e-02
      -4.4567056788763749e-02 7.4482500969604293e-02
      5.4881664251643134e-02 -4.7956327728274399e-02
      2.3417386978970042e-02 9.4732337025026023e-02
      1.0213247875666233e-01 7.4037586079655091e-02
      1.3858264286201094e-02 -4.9124978179947584e-02
      -2.2654597123579948e-01 -3.8230705617579692e-02
      2.6814916153576940e-02 -1.0118852149535089e-01
      -6.0235857977182769e-02 1.7566361456062218e-02
      -2.1581071172791722e-02 1.3039654355486097e-01
      1.5006939557797383e-02 -7.7233704784255208e-04
      1.0762902138925930e-01 -1.1038693092402940e-01
      3.7234791216034929e-02 -5.9407500921711265e-02
      1.1213334424536042e-01 3.4435259944290836e-02
      3.8266973375300814e-02 -9.3825284936035910e-02
      -2.9256130173334640e-02 -1.0042583911203802e-01
      6.6845636255573229e-02 1.8172095625876633e-03
      -9.5612643066209410e-02 4.2171073132458206e-04
      -2.2001666959122833e-02 4.0855140162180538e-02
      -5.9408466116153601e-02 -4.0471326999378734e-02
      -1.6437704536585585e-01 1.0457769254931911e-02
      -1.3337030164627423e-01 -1.0503562322526727e-01
      -6.4455939683047081e-02 7.0653028737859835e-02
      -8.1361185058809307e-02 7.1827565622565273e-02
      -5.0677083362426689e-01 3.0317782661763881e-02
      7.7404154756997245e-02 -1.7723174354248795e-02
      8.3194058800426324e-02 4.2291064341885662e-02
      -1.9308521340291575e-02 7.9362068169477482e-02
      1.3216619089094622e-01 -5.5637007543858037e-02
      -5.4228873334140101e-02 -2.6690972251990668e-02
      -7.9684659559167176e-02 -1.1018834574339892e-01
      -6.5306429285327844e-02 1.4533646921763595e-02
      -1.1469681696965987e-01 -8.0044509796460397e-02
      -1.1646460303918893e-02 6.3124497717795824e-02
      -8.0719426175585827e-03 -2.7960663965810695e-02
      1.3610788940849736e-01 7.4229132100783371e-02
      1.3940680411241479e-01 -2.5152547529190328e-02
      -8.0452156828423188e-03 -7.9015887481330038e-02
      -2.4295360743259442e-01 -5.4103926717590699e-02
      -5.4517682637831702e-02 -4.5394034080456724e-02
      -2.0769308399170943e-02 -2.7753492810262414e-02
      9.8733658849422798e-02 -3.3532959156534765e-02
      2.4025596505834440e-02 -1.6406296533435832e-01
      -1.6892435712102701e-02 4.8126953837219252e-02
      1.2538836402443340e-01 -7.5818038588629524e-02
      3.5356581906703211e-02 -5.3682063484294558e-02
      -7.1494345361771419e-02 -1.5781971037472212e-01
      9.2364869837294472e-02 1.0241955822242149e-01
      -2.4547435764680183e-02 1.2711046302901702e-01
      -4.3666827807740380e-02 3.9301132561197875e-02
      1.1322549150507828e-01 -2.2666318783613856e-02
      1.6648305871892979e-01 3.1861180435204099e-03
      -8.6823877053043369e-02 2.1706584946026959e-02
      -4.9863762469872702e-02 -4.4694058806065296e-03
      1.9267019263406491e-02 4.5052051520803715e-02
      -7.2825509481478862e-03 1.0210215124897348e-01
      -5.2980519229064361e-02 1.0849026931671447e-01
      -6.1259796166828771e-02 -1.0572500407483783e-01
      -4.2449584382819969e-02 -8.4689663824971589e-02
      1.5738977074949759e-01 -1.7309806108262816e-02
      -1.1287047512457130e-01 -3.2667652672726123e-02
      4.1058594917006114e-02 -1.2804798294097852e-01
      5.5207458941027146e-02 -1.9818085096785711e-02
      -7.0536669025513504e-02 -1.0412509736680274e-02
      -9.4705114681899266e-02 3.7641731244519874e-02
      -7.3420301104943034e-02 3.8697592341511624e-03
      -6.7327770114156887e-02 2.3455108614716343e-02
      4.3842364271545149e-02 6.0738667694190583e-02
      -1.0361005354428621e-01 -4.0312194716158267e-02
      -8.3641014007984037e-03 4.4112171298717494e-02
      -1.6180037010979476e-02 -1.9487515823443109e-02
      -1.3146314758605901e-01 -4.7525363879586342e-02
      -4.0069458619723011e-02 7.8165775017434158e-03
      -1.2036923383068425e-03 -6.3007559025035909e-02
      -2.9821254575084977e-01 9.6519576456583586e-02
      2.6645310286087989e-02 -3.5220246337430872e-02
      8.5089792369094919e-02 -8.7069986803773050e-02
      -1.0061523430408534e-01 -4.1789034270654384e-02
      1.2061117083224467e-01 2.7547799633035395e-03
      3.4741144861394277e-02 6.4929989913957556e-02
      -7.3168922999333127e-02 -5.4794271266443983e-02
      -2.1592755779281721e-02 -4.6800776496830086e-02
      -6.1587092189135294e-02 2.7731063277797857e-01
      -3.3096047810134969e-02 6.0545415118558411e-02
      3.1134186736406007e-02 1.1425130065279630e-01
      1.1019595678162522e-01 1.4549249954205066e-02
      7.4545961559473878e-02 -3.4761741474783066e-02
      4.4780804791954204e-02 -6.4225882334096929e-02
      -3.4227960770856330e-01 2.8779962939308491e-02
      2.7448244442142989e-02 3.3337452661758901e-02
      6.1982002719394906e-02 -7.5872268265873594e-02
      8.5854721415394401e-03 1.3539939302534762e-01
      -2.3474502486659139e-03 4.2047420041169022e-02
      -7.2700550638359299e-02 1.3142434183533527e-01
      -1.3218729239891590e-03 1.0262397682615483e-02
      5.7614406420491850e-02 -7.5033033847053857e-02
      -9.4880126339435947e-02 -7.9265513674361437e-02
      -1.1327541327907390e-02 6.7057965068956851e-02
      1.2601790665093837e-01 1.2784557825852567e-02
      1.9606685213861212e-02 -1.2852221156324308e-02
      1.9886966746695650e-01 -3.9752953842473605e-02
      8.6062683145172125e-02 7.0496059232565272e-02
      1.6422547099353968e-03 -1.1885547061055789e-01
      2.5776300406274218e-02 -3.3589911663395075e-02
      1.3643465983640157e-01 -2.4844197025560222e-02
      1.1246101986850007e-01 -8.6983017754515252e-02
      -1.0875713277231022e-01 -1.1762650422923637e-03
      5.3301441736444598e-02 -2.6884203982202017e-02
      -4.9099332064490346e-02 1.3111184512693991e-02
      4.7015597037301182e-02 2.2701174552684413e-03
      -1.6071308917545479e-01 -7.2575815826292800e-02
      1.8410774542074220e-02 -3.8734453921435902e-02
      1.1352863638291479e-01 6.0453244106810577e-02
      3.8073129448579622e-02 -3.0624161192380261e-02
      -1.2660023248746879e-01 -1.3230680425095100e-02
      1.9458915838146205e-02 -1.0192303830673084e-01
      -4.6408765957080697e-02 4.5719437931862984e-02
      2.6308031531736741e-02 -7.0036309463196056e-02
      -7.0202586408510056e-02 -1.5155187552972155e-02
      -1.3954823447882920e-02 -6.6215899259838937e-02
      3.0764880386061767e-02 2.4901163902627886e-02
      -1.2551167156780316e-01 -6.8414665066863181e-02
      -1.1301339201910428e-01 1.5674162016303647e-01
      -6.8087790051188687e-02 5.2210014137252597e-02
      -3.6446097435916225e-01 8.8606464619668340e-02
      1.6779300951159801e-01 4.9746857424991235e-02
      -1.5320833672543088e-02 4.4973690840982954e-02
      1.1887600244271719e-02 8.0104107862413190e-02
      1.5382692464450184e-01 4.2187240064332455e-03
      3.7369868373465773e-02 -1.9537138229965213e-02
      -9.9128955162331445e-02 -7.9242352969114555e-03
      -6.2432661155961029e-02 8.9947374651676865e-03
      -4.8182359316841655e-04 1.4277774836984747e-01
      -1.0083678143812355e-01 4.5402276804587111e-02
      1.1420115040947816e-01 1.0223343597878649e-02
      6.3303840306188158e-02 1.5089817923323662e-01
      -9.7083336046464921e-02 -4.5992573976894546e-02
      5.6587997282734788e-02 -9.5400915678899037e-02
      1.2588673453720778e-02 -3.2777352791203508e-02
      6.2116423598330854e-02 6.7574917886109462e-02
      7.0685719460197749e-02 -6.4036407018968705e-02
      1.8091616713479124e-02 9.2522158213873315e-02
      -1.0438658709667828e-02 -7.1755286593289933e-02
      -7.9486763861843866e-03 -3.3951190132674544e-02
      1.2446668293264716e-01 -5.8135524572394291e-03
      1.5340512883744340e-02 -1.5347133189717713e-01
      -4.4927305142151805e-02 -2.3395979638827762e-02
      -4.3437570613587197e-02 6.9348825562789873e-02
      1.6445397480761081e-01 6.0329393595446527e-02
      -1.0930243031536864e-01 -9.0256700231120413e-03
      1.2958972600573507e-01 5.9191304680988037e-02
      7.0492420341264142e-02 3.2041899294703267e-03
      -7.0929320955206890e-02 1.0095946926102627e-02
      -8.5527537628167279e-03 3.1155856791242571e-02
      5.2952490391140382e-02 5.8362912415108048e-02
      5.5151885977446878e-02 -1.0846830940576055e-02
      -7.1941211199282498e-02 -4.6715290996199255e-02
      -3.7816433935519693e-02 -8.4365781874254420e-02
      -1.1240042212962431e-01 -3.9922826176271131e-02
      7.2848267460550439e-02 -5.7474562323565327e-02
      -5.1544619913401479e-02 -2.6916377483415656e-02
      5.6902342670192424e-02 -7.8700664420856603e-02
      1.8244283007418590e-02 -6.2395674353929044e-02
      2.8457084810546863e-03 6.6013818981672634e-02
      -5.9697475446479402e-02 6.5117382444556879e-02
      -4.8218069962830026e-02 -6.1452129326385316e-02
      9.8373192713849880e-02 2.3178937193474847e-02
      -4.3524648326000170e-02 7.0427583569781488e-02
      -2.5991870295390681e-02 -4.6651272741644260e-02
      -7.2407599781831353e-02 -3.2528349908287256e-02
      -2.7300373932704758e-01 -9.1763329423691434e-02
      -1.0633790022481353e-01 -1.4655805494852581e-01
      -9.1465744793399334e-02 -2.2900398042052565e-02
      -3.1616275218106289e-02 -5.7493618929278706e-02
      -1.5288318516802915e-01 4.1178055313414438e-02
      -6.6642460577757051e-02 -2.8733462003094821e-02
      8.0494116014884390e-02 4.3628496652737582e-03
      -8.6590392958985976e-02 -6.7140522152580498e-02
      7.5562854166245766e-02 1.1833933130056014e-01
      7.5765969490281887e-02 1.2049336631442731e-01
      -1.6224792593590059e-03 2.2784080555369606e-02
      1.5326256720359454e-02 4.8715604998743403e-02
      -1.0068576991351524e-02 2.2149816124279634e-01
      -5.4769281721380653e-02 -3.3284641958813095e-02
      7.2166191841369520e-02 4.1895087352101595e-02
      9.7794784783857780e-02 -5.6048541049946353e-02
      3.4692263187399958e-02 -1.0343907992631846e-01
      1.1983973165230374e-01 3.3075522561528507e-02
      -1.7793312136434569e-01 -4.3804791461182532e-02
      5.2173798462040517e-02 -3.6963017485404072e-02
      6.7331724845888508e-02 1.2279103686298722e-02
      -1.0868970643839211e-01 1.0636186509519986e-01
      9.1468490978100989e-02 -8.6950525438024423e-02
      -5.9133129106948734e-02 4.8006013339067448e-02
      -1.1044306298731814e-01 4.9395149938828604e-02
      1.6432889851833134e-02 -1.7323370858187633e-02
      -6.5006942713214944e-02 -6.1554270166208147e-03
      7.4370084881144882e-02 -7.2575878416970634e-04
      9.5691309711088801e-02 4.5002968026659707e-02
      -4.0989805967658548e-02 2.6862479039360627e-02
      1.6918106329177737e-01 -2.8869884818195348e-03
      -3.9235161764382964e-02 2.3465150426382607e-02
      5.1197655634705797e-02 -7.3303468766342514e-02
      -2.5752539513505611e-02 7.6364636737501143e-02
      9.5084402593879971e-02 -3.5979910721811011e-02
      5.6701285942840664e-03 -1.1745608070365664e-01
      -7.3406673110874954e-02 -5.4873951623385958e-02
      -4.4257777269521577e-02 -1.5103726910215555e-02
      -2.7340448548874151e-02 -2.4234482144910433e-02
      1.1308875317746804e-02 -3.9164881708383913e-02
      -8.9319438790745845e-02 -1.0208246384971344e-01
      -4.1013272657859499e-02 4.5195342064518279e-02
      2.6207299978890503e-02 -2.6732616956813428e-02
      1.3572493175830709e-02 2.6912045976594964e-02
      -6.3973237020086157e-02 7.4044797421510397e-03
      -8.5405326670165579e-02 -1.6123149381149851e-02
      -1.4763643764953071e-02 -3.6385122037909057e-02
      -3.9589296659340495e-02 -8.0240574891411887e-03
      1.0012743185569385e-01 -8.8027844703298622e-02
      -4.6744603832868679e-02 7.8309465710040289e-03
      -1.1721093490825897e-01 8.4985857890718094e-02
      -9.9929549111152233e-03 -1.5740936758605506e-01
      -9.9540105064910317e-02 1.6265045968949207e-01
      -4.3815422552570246e-02 3.1921927489599766e-02
      -1.3743722572018643e-01 8.2099579148458196e-02
      1.0371231320271790e-01 -9.6183988704125339e-02
      -8.8686495762037246e-03 -5.0456615580756377e-02
      -1.7817315174475171e-02 1.3285664421052829e-02
      6.2376104782344920e-02 5.7350468059022795e-03
      -5.4001592676660735e-02 -1.7665075681329370e-02
      6.3201171815435268e-03 -2.8294097806145471e-02
      -4.1712951837460543e-02 2.1422298795323549e-02
      2.0162130786567957e-02 3.2496319387605846e-02
      -5.3910809883102123e-02 -4.9532518746103579e-02
      4.4387753778681503e-02 -1.2704465743400908e-01
      3.6882259487403521e-02 7.4086489885101622e-02
      -4.8808341412740507e-02 -1.0682656661906932e-01
      1.3149418770512235e-02 -4.3864580472629200e-02
      -1.1298656490918001e-01 5.4754493447420165e-02
      1.2228653096517793e-02 9.6169446976265751e-03
      2.7731773601759078e-02 4.0954869583515185e-03
      2.8193560559712401e-02 6.6508560042422300e-03
      -5.0314816959038493e-02 1.0960888476992189e-02
      -3.4540998666087473e-02 -1.7150388750384733e-02
      2.2395522878761974e-02 -1.6505991513767949e-02
      7.9688030276281241e-02 -1.1685155526454835e-01
      -4.6659997099077345e-02 5.9591463225813802e-03
      1.1009409542254535e-01 3.9195629151044832e-02
      1.1017641343305355e-01 1.0647617936183418e-01
      -6.5891853734404773e-02 -8.0022279736182943e-03
      1.9862633892884352e-01 1.0966401394035000e-02
      -2.7718537925033909e-03 1.0817117176588807e-01
      3.3028058229506600e-02 -7.6121507540398980e-02
      -4.1075458670330793e-02 1.0877512120935252e-02
      4.2402131962652280e-02 -7.5117270510468362e-02
      8.3553116837596850e-02 6.3028236327461379e-02
      -7.5140281324063377e-02 -5.7379614557630633e-03
      -6.0482695857200647e-02 -4.6054431787962348e-02
      -1.4538661547458329e-01 3.1774355586498904e-03
      -7.1513558571067778e-03 2.1182287440153116e-02
      -5.0499762928189550e-02 6.9624624770599053e-02
      -7.0296790614071940e-03 -6.0881777912267900e-03
      7.5969958148102937e-02 -1.1815485770305399e-01
      -5.5014724112435638e-02 3.4770774878053759e-02
      5.5668792044449959e-02 1.9168327837130475e-01
      1.3100740238350098e-02 -1.6118081074823577e-02
      -4.0540717489196153e-02 1.3183492751036462e-02
      -3.8709350530851921e-02 -9.9902543211728093e-03
      1.6863877317088747e-02 -8.7491383692029998e-03
      -1.8586555386383177e-02 5.7202719872231373e-03
      -3.2336351518455908e-01 6.6665520567017328e-02
      -4.9564045247197763e-02 -2.7813712789773067e-02
      -4.1036696520546022e-04 -3.9124292497531972e-02
      2.9516302435314903e-02 -6.1844396592545460e-02
      -3.1780497883862398e-02 3.9194959333984994e-02
      2.0121501168907951e-01 -6.6002161899072515e-02
      1.3236178238285155e-02 5.2368217872322938e-02
      -8.5754934843598252e-02 -7.4733120067657227e-02
      1.5514220224409516e-02 9.6084196798870439e-02
      -6.7360726217751729e-02 -4.0242397799308237e-02
      1.2975548170474173e-02 -6.3239483101371008e-02
      -3.4322032978798440e-02 9.9609621163375961e-03
      2.6230963707854726e-02 9.7671141195774594e-02
      -5.4995848641300964e-02 2.7100795803185061e-02
      3.4039664933270569e-02 -6.3333368035953779e-03
      1.0474442863446787e-01 -5.8295767377333843e-02
      1.0676670699978947e-02 -1.0348166221551841e-01
      -4.6218552066158028e-03 -5.3134802430105842e-02
      -1.2710735635659540e-01 3.3730756684268677e-02
      6.3347513803675773e-02 6.2418299549824245e-02
      -1.5693302860807692e-02 5.5826116744271397e-02
      5.5688921586281366e-02 1.2655553620199291e-02
      5.0042463784589243e-02 1.0105992793969818e-02
      -1.1319332916135900e-01 8.4010147167283816e-03
      7.2369755781889955e-03 -4.4532195815553767e-02
      4.4405540378003296e-02 -1.2344754960447825e-01
      -3.0595661285097622e-02 4.9243840105343301e-02
      1.1082914476056871e-01 8.3281252352295734e-02
      6.9616718090531132e-02 -1.4209354024836071e-02
      1.1591242213705390e-02 2.8701952043572065e-02
      2.3119993080466825e-01 -6.1241623248393606e-02
      -1.1054257468634485e-02 -2.1020952162816131e-02
      -3.2222117069728405e-03 -9.1712117219665726e-02
      1.1370065412247196e-03 -5.5826958752205119e-03
      8.9452981842003971e-03 -4.1646572466676197e-02
      1.0194887236283268e-01 -3.5149407673998143e-02
      -1.2302021976254329e-01 -1.0782976383215777e-01
      -1.8160798145128186e-02 -4.9986130409479308e-02
      6.4843755393698729e-02 -2.6373760715638107e-02
      -1.1203083914941445e-01 -1.8712657364461635e-02
      3.4795908866306985e-02 3.5478995496630077e-02
      -3.6083569390034417e-02 6.8506172101722551e-02
      1.8845199538430106e-02 5.4672782905581516e-02
      -6.7647621502605740e-02 1.9183036030978949e-02
      -3.9080984814058896e-02 1.0676883473952083e-01
      -6.2863827281170279e-02 -8.0798275898323363e-02
      -1.5310968266373961e-02 2.0412705549209192e-02
      -3.1025297965142366e-02 1.1592238774653632e-01
      8.4172130842636472e-02 8.8364136244676282e-03
      6.2514508937263666e-02 -8.5739567148629924e-03
      -1.5110151931905086e-01 -1.0754017724218320e-01
      -1.5055852051281912e-01 -1.1754240322287680e-01
      -4.1756027647728462e-02 3.3311083540242801e-03
      -8.1439327123256244e-02 -8.6497788896162144e-03
      -1.0264885607068226e-01 -3.6368756499443718e-02
      1.6520404895295802e-02 4.5719780862920688e-02
      -5.5869871278708072e-02 -2.7839459624879739e-02
      4.7170809524558502e-02 8.7289924351839299e-02
      -7.5723337268029092e-03 2.7677080764667905e-02
      3.6471972788861950e-03 -5.4866576331809011e-02
      6.3632246636192338e-02 4.7618920280063842e-02
      5.4998658214699507e-02 -2.8055206892342931e-02
      5.9219852350048778e-02 -1.8954766344506951e-01
      -3.6518174940102191e-02 2.1860285433845238e-02
      7.7687732653433664e-02 -8.7363090379585367e-02
      1.4277819209804718e-01 -1.3495920555506094e-02
      -2.6139406137471469e-02 -6.7341932582561381e-02
      -5.9008318749444025e-02 -4.1506780792167353e-02
      -1.4319003712673906e-01 2.0624444004021851e-02
      -9.4903284993630904e-02 -4.7604084476335585e-03
      3.1079669580229643e-02 -8.3478736674681045e-02
      4.4739867791063877e-02 -2.6225257639246536e-02
      -1.0220770355295629e-02 -6.8082267057747503e-02
      6.6644769128250320e-02 9.1404982401750920e-03
      1.6912081753690737e-02 -4.8274353585766240e-02
      -1.0622657065678895e-02 -7.9593375748906042e-02
      4.3899574488993162e-02 -1.5249994734122061e-02
      7.5650335471654437e-02 1.4857421886433733e-01
      -7.0132361513440655e-02 4.4595540820406863e-02
      4.0718461516761749e-02 6.9863067216548586e-02
      1.3521709448252470e-01 -3.9840115256498637e-02
      1.2508371594260315e-01 6.8322175510718078e-03
      -4.5770037880049977e-03 -1.4043024187655568e-02
      5.8422779294920395e-02 -3.6446450856271004e-02
      5.0913961492021133e-02 -3.8131196427967591e-02
      9.3881243071131951e-02 7.6968393447005914e-02
      -1.3088999734756576e-01 3.9832320589270713e-02
      3.9657582445735227e-03 -3.5565895935324339e-03
      -4.5849233303469877e-02 -6.1328017964296024e-02
      8.1754097078393605e-04 -7.3479372109341717e-02
      -4.0177165202994101e-02 6.9319012840182465e-02
      4.2411744872456338e-02 -5.3979038301109519e-02
      2.4622786602811964e-02 1.7476292164433273e-02
      -7.1922476546147154e-02 8.0388275788014316e-02
      8.0186433516273664e-02 1.1637946082164544e-01
      2.5788365662344451e-02 3.5651008951468229e-02
      1.2198398680668099e-02 -4.9393027337447061e-03
      5.6218157291205939e-02 7.0530505797538334e-02
      -5.7541461728790357e-02 4.8123859046486417e-02
      7.8590033325192252e-02 -5.6646562400373038e-02
      -9.3664398195352383e-02 4.2827017158974919e-02
      -5.4538074803693215e-02 -8.0188463394441162e-02
      3.8592995989785508e-02 2.3988346706641336e-02
      -7.8948715420997698e-02 -2.6543459226522754e-02
      1.3010827661144855e-01 2.0273549725839102e-02
      6.9845082639390668e-02 -3.4509304530099483e-02
      8.3693707283133466e-04 -6.2833905227503137e-02
      -4.1953680839057533e-01 -1.0331502825562126e-01
      1.5094914789885347e-01 7.3213055470967266e-03
      2.4123837980586413e-02 3.4867767131301824e-02
      1.2069429567262793e-01 4.1065036450158932e-03
      1.0185214374710898e-01 5.0527223971192012e-02
      4.9284604501662624e-02 1.6266388535556278e-01
      -1.7816407090220594e-02 -4.5310819448417229e-02
      5.1996440646902120e-02 2.8447628918006170e-02
      6.2267730680842896e-02 6.9098456009782136e-02
      8.9220739079199113e-02 -7.7642757509395796e-02
      -4.3721262256747377e-02 -5.0778284586622445e-02
      -2.1300450135101051e-01 9.6028604972038897e-02
      7.6944519072351210e-03 6.6531047909309818e-02
      1.0091562674545099e-01 1.7842090600144828e-02
      4.3586045115478422e-02 -2.0096120315046501e-02
      -5.1941918779117184e-02 6.0027108483980234e-02
      7.7594025945629270e-03 2.0358937728139548e-01
      8.9244104705663616e-02 -5.4959631756994485e-03
      -3.3170082098585463e-02 -7.2506182433983929e-03
      4.3193993464645175e-03 -6.1914949104978453e-02
      1.8327675803208088e-02 3.7115418206887330e-01
      9.6828593570924951e-02 -9.8704622459961800e-03
      1.1456724462163772e-02 9.5823126936962932e-02
      2.2602665425772442e-01 2.3466398037178596e-02
      -8.6971656293686347e-02 9.4143880601288213e-02
      -9.1538945595743702e-04 -2.0978231288311784e-02
      1.3694849649736038e-01 -5.1479227529846121e-02
      5.2258853268415006e-02 -2.7218004809572979e-02
      1.7116928911061043e-02 -1.0420505393289230e-01
      -2.9871096331154967e-01 -3.9693810929596292e-02
      -1.8541283160619447e-02 -4.0684141161582289e-02
      9.7678821849008932e-02 7.9447914081581680e-02
      -9.9030658870024282e-02 7.6808635303225223e-02
      7.9297530451359441e-02 -2.4781098038982395e-02
      6.3279696152886145e-02 -2.7017846443480126e-02
      2.3446938826014577e-02 1.4257761032063694e-02
      3.4242353251559297e-02 -7.7517742560773081e-02
      -3.7445947688382442e-02 6.6852699655760212e-02
      7.0230140050972778e-02 -1.7029712579752641e-02
      1.5387688524289625e-01 -2.1642873448355287e-02
      7.5839403146856508e-03 7.0110948316149641e-02
      8.5410501797643056e-03 2.0459052941699172e-02
      -1.8710172057538055e-02 3.5786840777446469e-02
      -1.7389378124199165e-01 -1.7739433683054104e-01
      -1.3780737496847248e-01 -1.1672233293848121e-01
      -1.9073015267935332e-02 5.7286601537782304e-02
      -8.2094674503710538e-02 -7.3953563895400989e-02
      1.2981067933258664e-01 6.8795796044762741e-02
      1.8920165984333401e-01 -8.6112333160145785e-02
      -2.9330301671991171e-02 8.2982437779321964e-03
      -3.0665936643429664e-01 -6.1090273294862954e-02
      1.4106296472315794e-01 1.2821176487026928e-02
      -2.4735465348508793e-02 -5.2816769258790031e-02
      1.2883833772578776e-02 -1.9516561421001742e-02
      5.1685417667031051e-03 -6.8269993872986517e-02
      -4.1079923869075843e-02 1.6067554793548613e-01
      3.1336161005066679e-04 -6.7632396436648375e-03
      -6.3809374573700117e-02 3.9779596581516793e-02
      1.1727992764982469e-01 1.0668372635113600e-03
      -6.2490375875609308e-02 -1.1493350123595045e-01
      2.9978299966082630e-02 -6.2333704884248130e-02
      -1.6987756479541805e-01 -5.0690112982079453e-03
      5.0601116588077928e-02 5.4472072930287904e-03
      7.7680309607217682e-02 -2.6842278810018085e-02
      -7.4115284008188537e-02 7.0101058342202408e-04
      6.7810347069921298e-02 -3.7920967460640079e-03
      -3.0145424733758461e-02 1.2897095833419495e-01
      2.1348202305010269e-01 1.4990493976196345e-02
      8.5767590810879521e-02 -5.6542952068594172e-02
      6.9653589865833185e-02 1.5980249999566307e-02
      2.5564617808094162e-02 4.3209643152375424e-02
      2.1655223589735778e-01 7.8119270812449709e-02
      2.8941693904229002e-02 7.7292977492096376e-02
      2.0965601604357034e-01 -7.6271410280830815e-02
      -1.3220973427269650e-01 7.0743916984834700e-03
      7.8562020270486602e-02 -8.8364197751045565e-02
      3.5608873532301168e-02 -2.4797035888054805e-02
      9.6556190172572443e-02 -5.5314214379499412e-02
      3.9466517551204727e-02 -2.1209149294425488e-02
      -2.3224063097585401e-01 -3.1709375403955659e-02
      7.4281418770716950e-02 -4.4115270829925807e-02
      -9.1048039094739439e-03 1.2186309453252624e-02
      -2.0263340481291109e-02 3.9575940826899032e-02
      3.0019343478822121e-02 3.2141276277494961e-02
      1.1634397877924259e-01 -1.1960280694135424e-01
      3.6649446516569553e-02 -6.5117734192795722e-03
      -3.7955530341250591e-02 -8.0383079550262276e-02
      -2.6574661640706352e-02 1.1600232778298183e-01
      4.9047547682662694e-02 2.2017861740492577e-02
      9.8444726577517516e-02 5.9141485815035803e-02
      -1.2832408633552291e-02 1.4351219786293717e-01
      1.1421715991474905e-01 2.7838847175105031e-02
      6.4230679851731698e-02 5.6675200362366847e-02
      -8.8963960329784514e-02 -1.4790524350513648e-01
      -7.6654552995461450e-02 -9.1582915892300346e-02
      -5.1125934872118417e-02 6.6261036008963922e-02
      5.7764099121396142e-02 2.4878183124707295e-02
      2.3334703793448916e-01 -6.9854637550400125e-02
      2.8663101485205133e-02 -5.4325791314344257e-02
      3.5110854452596693e-02 -7.9216249407817359e-03
      -2.7186316291483231e-01 -1.4287520710288029e-01
      9.0956291147073379e-04 -2.1845556627903235e-02
      -4.4602706821832747e-02 1.5914046027670312e-02
      1.4661923917699271e-01 1.0673519057071776e-01
      1.0141168721721350e-01 8.8975104212169909e-03
      -6.3020321964193007e-02 1.3622285263278558e-02
      6.8215158141576845e-02 -1.5735291411388727e-02
      -4.2393428978689689e-02 -4.2858199316094248e-02
      1.4829166985803133e-01 3.3945693225415660e-03
      -3.1070677708282701e-02 -1.2164180749170003e-01
      -2.5519385213504487e-02 -5.7561312483823776e-02
      -2.2073028763539854e-01 5.3866910120083031e-02
      1.3865975358548976e-02 5.3987617206356147e-03
      6.2798394038392588e-02 -2.4549602358606121e-02
      -9.1059211397920239e-02 -7.1921667738499964e-02
      1.1902202328768242e-02 3.4276119414484614e-02
      -9.8613637829933695e-02 1.4890564235176798e-01
      3.8329476782021893e-02 4.9028540120904983e-02
      -6.2197310871529680e-02 -5.5112831440292102e-02
      5.8181798173529427e-02 5.6002286106776010e-02
      1.0574858335446156e-01 3.8248035957001741e-01
      1.8068949637647549e-01 8.9521254990086410e-02
      4.0242253691507621e-02 -4.6134495677191766e-02
      9.6329538807263568e-02 -2.8078490150014360e-02
      -1.1532794428634917e-01 1.3741593911468294e-01
      9.7644212448102716e-02 -9.1525417369688444e-02
      4.8704154543998568e-02 -3.1231109838696619e-02
      -2.1021697790805548e-02 -9.3794278143980517e-02
      2.7380417459421179e-02 7.3563086210017828e-03
      -2.0557765121897714e-01 -7.3415488539431237e-02
      3.6398706073618767e-02 -3.0293990649658049e-02
      -6.4006347534411687e-02 3.9581319396391805e-02
      -1.6959629063366840e-02 6.7210000231629430e-02
      -7.1983520414757973e-02 6.1050739647583500e-02
      -8.9432910272837340e-02 -6.0506425692921043e-02
      -1.6114618520166983e-02 -6.5741818237255292e-02
      -2.4855697236998316e-02 -1.8030088456685196e-02
      4.1795373859627248e-02 6.6906515999192825e-02
      4.0184089068232121e-02 -5.2556759128785782e-02
      1.0621670054841711e-01 9.2651922549592258e-02
      -4.6076859167971940e-02 9.3914648148746033e-02
      8.4039698922809880e-02 -3.7880990277458049e-03
      -7.1886514567487151e-03 -2.0389544996387985e-02
      -2.1579854319083336e-01 -4.2099609495938689e-02
      -8.1138409609292656e-03 -1.7708361009223531e-01
      3.5296771153217693e-02 3.5154875189771201e-02
      8.4120852435139067e-03 -1.2531853744282584e-02
      -2.3173002934941717e-01 -2.7883101372583857e-02
      2.1861796257339684e-02 -8.2274293989677977e-02
      1.6755886165694055e-03 -8.9090769483337218e-02
      -5.0824567845971103e-01 1.7036181094703336e-02
      4.2341477856778331e-02 2.7190887165616837e-02
      -5.8339005509368123e-02 2.1241834098279670e-02
      -4.0420683491330482e-02 -3.5911548181486716e-02
      -6.2346200972974483e-02 -6.0887471858482582e-02
      -5.6307888046110158e-02 4.3345564741858222e-01
      -2.4420697396301903e-02 1.5332888972800968e-02
      4.1657340010515707e-02 2.1805580723641891e-02
      6.3595354224103201e-02 -9.3907258833907711e-03
      -3.5515910810405122e-03 -4.1286972473305594e-02
      4.3375093050122056e-02 -3.4612458087236987e-02
      -7.5421429578792290e-02 -1.2437974180947851e-02
      6.5074948916703207e-02 -3.8978978887292503e-03
      5.5703777840264548e-02 3.1788061045113715e-03
      3.0331392897661514e-03 9.3677163699139226e-02
      3.3387890739819140e-02 -4.3581803866314842e-02
      -2.0721231471455877e-02 8.4747324835030086e-02
      2.5158109102562422e-02 2.5696153019682251e-03
      1.0090470262831896e-02 -3.3729392265539920e-02
      -1.5635908867541803e-02 -1.0291439947597548e-02
      7.5519935081590661e-02 -1.0216536012022001e-01
      1.2921846929298583e-01 2.4357439697982639e-02
      -9.8774918860674039e-03 3.8660118385525091e-02
      4.1747899256385120e-02 -1.4460049333060995e-02
      1.0712418473124158e-01 -2.2633221857059023e-02
      -2.8185718460537628e-03 -1.8185314122098610e-02
      4.2304077564531258e-02 5.9435259260677012e-02
      2.4748114944126320e-02 -8.4176013139399420e-03
      -2.4322412352856398e-02 -5.8878965373953034e-02
      -4.2592063059131401e-02 -1.4726465827309583e-02
      -3.0250556642447541e-02 -5.0885798138135201e-02
      -4.6580666786762752e-02 -4.6729157264041837e-02
      5.7638933247192006e-02 -2.5574721654560987e-02
      -8.3297504375147616e-02 1.3546583880139327e-02
      6.7086605297788466e-03 1.4544815306717362e-02
      3.6251213000951688e-02 8.1424549715335658e-03
      1.2851194446017048e-02 5.4218851337671625e-02
      2.8124389994475026e-02 9.0216137027871235e-02
      5.1420686251968210e-02 -4.2133610641653619e-03
      3.2776434088053230e-01 2.2235732305115045e-02
      -4.7160785006579574e-02 7.1436235034500715e-03
      -7.0874662697847854e-02 -3.4306473651935912e-02
      -2.8168914077790642e-02 -2.6817141807787416e-02
      1.4379332569228647e-02 -5.7531503516745151e-02
      -2.1138077773714611e-02 -1.0738996443380661e-01
      -6.2781410493914530e-02 -8.3187945676355915e-02</_>
    <_>
      3.3854013742622637e-03 -1.5285575907989582e-03
      4.3987981068528810e-02 9.2300648056091320e-04
      3.2768131367941719e-03 2.0334316335524561e-02
      -1.9503868583497907e-02 -9.5213265988601265e-03
      9.2957740937639650e-03 1.2410467346709494e-02
      -2.4883811305854375e-02 1.2647161741234120e-02
      2.0627277845906337e-03 -8.0002943315461393e-03
      1.8384227696124938e-02 -5.9180972316958541e-02
      4.0163676610590372e-03 9.7273052925764651e-03
      4.1000013815698814e-03 -2.7429083733980217e-02
      -1.2314725803499224e-02 -4.2991987900498504e-02
      3.1558334225279552e-02 1.6953137490385576e-02
      1.1710624347170170e-02 4.5425745060740659e-02
      5.9182819316036799e-02 1.3457723658805237e-02
      -8.9222703721549990e-03 6.3187491682625135e-03
      4.9122773360410713e-03 -3.4333865674440994e-02
      1.8797553543254582e-02 1.9502692413579169e-02
      -1.4305096608433583e-02 -1.3641179678954991e-02
      3.5519529375701873e-02 -3.6917715246898302e-03
      1.8180767541311323e-02 5.0167998309981310e-02
      -2.2804386585392081e-02 -2.2768400398973845e-02
      1.6391237162813217e-02 -7.4944175639092073e-02
      5.2508930551861254e-04 5.5390200872216695e-03
      -2.7016860354956602e-02 -3.7820973125504247e-02
      -3.1251405974608452e-02 3.7947013719774811e-02
      -1.0594918350047812e-02 -3.0121718446756568e-03
      2.2498409196169307e-02 -3.0895223877595048e-02
      -2.7769388488409059e-02 4.2430239177993705e-02
      4.7619723660923706e-03 4.4279428600330836e-03
      -1.2876621560295197e-02 -1.7961125729185151e-02
      2.5842889463058138e-02 -3.3584898895172556e-02
      1.9649563890966698e-02 -6.3463667696020600e-03
      2.5981415938077400e-03 5.4730744485541154e-03
      5.8570726507779667e-03 1.4012445829981273e-02
      -1.9006227245191149e-02 -3.5569196852040921e-02
      -9.7919492423362998e-03 1.3752209484255847e-02
      -1.0405628924014388e-02 4.4724795383868518e-02
      -2.6258091522498282e-02 -1.0635661448766098e-03
      -5.8332135451302797e-03 1.9157012603178029e-02
      -2.3330579204704320e-02 3.2438263512949664e-02
      -8.4334408281158402e-03 -6.4351358571676960e-03
      9.0130833855245236e-03 -1.1210705815269872e-03
      5.7363956405736567e-03 2.7352257999593545e-02
      5.4016401331070718e-05 2.2516595425110666e-02
      6.7780385164856061e-03 -3.1007598280832164e-02
      -2.1426890882333929e-02 9.3254537664711791e-03
      -5.2504512686296053e-03 2.3362021160334371e-02
      4.4969236213893054e-03 4.5691123658634031e-03
      -8.3253390237211164e-03 4.9777017699031371e-03
      2.2102996399552734e-03 -9.0500433109531927e-03
      -3.4438938015161631e-02 1.4073937696733768e-02
      -8.2164232509097795e-03 6.4087761660641803e-03
      -1.6884385711349183e-02 -3.6670856400792977e-02
      -4.6217022576459016e-02 -6.9378706797537269e-03
      -1.1758292811903511e-03 7.8304616766323096e-03
      1.7345123415657818e-02 -2.2200520507931212e-02
      -1.1966025800428704e-02 -9.9481234374198240e-03
      -1.6484794915388734e-02 1.1888861471383429e-02
      2.0958644898944934e-02 -1.3934584568312335e-02
      -1.3874731406894497e-02 -1.3261527075040727e-02
      1.9356262925774015e-03 -3.3533159134111215e-02
      2.3471789346837878e-02 6.1726150826538415e-03
      -5.0512047222074277e-03 -3.3224154869116791e-02
      7.6714348874623167e-03 -1.4817554508202057e-02
      1.3875679237042545e-02 -4.5257621514239510e-02
      -4.0317996635181361e-02 -3.2494264868966276e-02
      -1.7454536431987390e-03 -5.1065716886853725e-03
      8.6747239467775666e-03 -3.7018264162064558e-02
      -7.4031286602213942e-03 6.2453595290390771e-03
      8.1892699777899869e-03 9.0377714725328462e-03
      -5.9797787356419344e-03 -4.9837966329766295e-02
      -1.1728613158486034e-02 1.8538987835012705e-03
      4.4403803781013676e-02 -1.4401680262687970e-03
      -2.3156359560069617e-02 -8.1340776839941391e-03
      1.7150494269341926e-02 -3.7117503398671325e-03
      -1.0257133479498966e-02 6.4734540592337351e-03
      2.9603985975938534e-02 -2.0683867054483253e-02
      2.2586897605087323e-03 -8.5384059237111586e-03
      -4.2047593178099391e-02 7.0656666084844885e-03
      -3.6475396889892181e-02 1.8316395198201711e-02
      3.0046901386557990e-03 -3.4042124199203196e-02
      -7.0990816114441272e-03 -1.4067030048536213e-02
      1.9977044352831607e-02 -2.2278813332267344e-02
      -2.2527203831929681e-02 2.9095189048841206e-02
      -2.5690172258847978e-02 1.1842619380754661e-02
      1.4152102406260901e-02 2.6866370578153644e-02
      8.8547388935562871e-03 -1.3424341942750259e-02
      -2.7719887124390136e-02 -1.6195747638662421e-02
      -2.0199726688056870e-02 5.3926851597532212e-04
      -1.5043154395210658e-03 -2.9269425130635421e-02
      7.4809706939685935e-03 -2.1634261195486389e-02
      1.8394935740976393e-02 9.1436586197715213e-03
      -5.1465972040202479e-02 2.3881825899740354e-02
      9.5666212529385379e-04 1.8608130120688925e-02
      2.7259805832414415e-03 1.8154613120029396e-02
      4.6431450080100523e-03 3.3449456681502211e-02
      -4.3723726792285400e-03 -7.2369340182067848e-04
      1.9569382167530366e-04 -1.0440411345208438e-02
      5.9503202562401951e-03 -2.1650759675015556e-02
      -3.1129602727204331e-02 -6.7028612312107850e-03
      -1.5792611870265266e-01 -7.3766614354911803e-02
      -1.5575546822969558e-01 6.1466091098753270e-02
      2.7459655466647314e-02 -2.0601575568170455e-01
      -1.9951853095262709e-01 2.2145398556546686e-01
      -4.4507150718839150e-02 -8.8610811668790382e-02
      1.5173860364579728e-01 -2.3403267063438060e-01
      -1.7473413126901863e-01 -8.0678378946962906e-02
      -2.4448533470461772e-01 2.8590445305302897e-01
      -3.6876436864779809e-02 1.0732594641623242e-01
      1.4672037854235456e-01 -5.6518392803727967e-02
      -9.9846927133396240e-02 2.0842976048172240e-01
      -4.1191245896884540e-02 1.6516773837584570e-01
      -3.7320757093248572e-02 3.0632780456970203e-02
      -5.5700800409950901e-02 -1.7123773467090794e-01
      -6.6780557089408846e-02 -7.3423060132587689e-02
      -1.8284282913047076e-01 -2.1446003056754290e-02
      1.6801163547651543e-01 -1.2892454440898643e-01
      1.4972301092503079e-01 -9.3369684861410354e-02
      -1.5401339304911008e-01 5.5955805219573065e-02
      -8.6937738551381386e-02 -6.6622697025758223e-02
      4.4302770719524036e-02 -4.8852751914892330e-03
      -7.7811214971217180e-02 4.4904786693074031e-02
      2.2450273435235127e-01 2.0156499429859975e-02
      2.7585213824923926e-01 1.7880475323580991e-01
      -1.7779149846775222e-01 -1.5841120802564873e-01
      5.6601871067031233e-02 2.3186149773618978e-01
      6.2298903015958328e-02 -1.2310575750179961e-01
      -3.3593622198498153e-03 1.7967130341959303e-01
      -1.6973033604263721e-01 -1.5701119523485602e-01
      -6.3860374063212821e-02 -7.3277673488269857e-02
      -2.2494671552663192e-01 3.1723531035482769e-02
      2.5041453317155949e-02 -1.3315011962319340e-02
      1.1182385007304632e-01 -1.0246399807668839e-01
      -1.2584763266830937e-01 -8.7300763311265600e-02
      -4.5574370906969516e-02 -3.3416166889008621e-02
      2.0727695674730476e-01 -1.7079953968288092e-01
      2.8000158940459613e-01 -5.6110264810522802e-02
      4.4798275521491369e-02 -8.3604908494558762e-04
      -1.5097519322165525e-02 -1.0217311140080333e-01
      -5.3195707320794754e-02 -2.9894088250808287e-01
      7.1970863726300294e-02 1.1593676296532324e-01
      -8.0823845457543023e-02 4.3482915411518891e-01
      -1.0054301199587241e-01 -2.9036229237734523e-02
      2.0311696460658010e-01 2.3098650202883783e-01
      1.3539087014134113e-01 3.2853724076634649e-01
      -7.4252891993325909e-02 2.2822547986440322e-01
      3.2036465424422900e-01 1.2433615571423781e-01
      -3.4999034861736444e-01 -2.0236167942043576e-01
      -5.6444644814436992e-02 -4.4013287033933070e-02
      -7.9332689163755049e-02 -2.5329619324960267e-01
      3.8972306465044626e-04 -3.3885950424891891e-02
      5.7516047344712664e-03 -2.4692483341671224e-02
      -2.1126002328120088e-02 -1.3440445327501938e-02
      -1.7525269484871524e-02 2.7900036876196202e-02
      -4.6336759591462114e-02 -2.7838768936252509e-02
      -1.5579559484126487e-02 -1.5625597149795244e-02
      2.9398086846067456e-02 -1.3586319557164814e-02
      3.8250893831428697e-03 4.6241645901475163e-02
      -2.4259426907105641e-02 -1.7746684337365478e-02
      -5.2882855666598304e-03 -3.6210254868194208e-02
      -4.8100398659013638e-02 9.2678838736964392e-03
      1.1498096178870619e-02 -1.7480693861771701e-02
      -1.9855130697168256e-02 1.0067066409258854e-02
      -8.7246912481105821e-03 -9.2799897742518699e-03
      -2.0340076450968702e-02 1.5743612209394992e-02
      -2.1966910569619979e-02 1.6629339417954359e-02
      5.2770365424234550e-02 -7.6341647394949155e-03
      1.9063796929767528e-02 -1.4478376176229060e-02
      2.3478604083796709e-02 9.7126692630166937e-03
      -2.5266894950271564e-02 -3.4428586371883663e-03
      1.0324683883708316e-02 -1.5824053180520548e-02
      2.6097173564969427e-02 8.9234214334677261e-03
      -4.0853287982733338e-03 -2.3981576915187319e-02
      4.8824136963416635e-02 1.1464926049914538e-02
      -3.2331129441573625e-02 -5.2546955586107086e-02
      -1.6865872121084646e-02 6.3973056638583006e-02
      -5.5209197918321143e-02 -1.7911984834659798e-02
      6.1273330271863630e-03 3.9937407503391233e-02
      1.2928760585795654e-02 -3.8351094520770825e-02
      -3.3042202567473068e-02 -1.1819035073983462e-02
      3.8923156249401313e-03 4.1909399941303230e-02
      -3.8239206503366749e-02 -9.2713324440600910e-03
      -2.2446725777712225e-02 7.9506896218361316e-03
      2.3188727403657499e-02 -3.1421840071913058e-02
      3.0484525122226627e-02 2.7298645245212817e-03
      -6.7753323723284342e-04 -5.8374663965870842e-02
      1.7829488689073289e-02 2.4487334735082598e-02
      -2.2626801811736559e-03 1.9331841520294817e-02
      4.1779721335342475e-02 -3.2004144180345306e-02
      5.3319237131024553e-03 9.8155162431739634e-03
      -4.5862039003692302e-03 7.4251117410544954e-03
      -7.4307846016499562e-04 1.8109810222424840e-03
      1.6787883572105242e-02 -3.2306638069417040e-02
      3.9098773244394723e-02 2.6617435840280538e-02
      1.0319444556716358e-03 -1.4248265343432688e-02
      -1.0347442680875719e-02 6.6159841181162278e-03
      1.1963309390319419e-02 1.3230932314634538e-02
      -1.7114468821416994e-02 -4.6590283295960017e-02
      -3.6154282951389526e-02 -1.2784656107502212e-02
      -3.7168262909035221e-03 2.3906399581329917e-03
      -3.8527983898234607e-02 -7.6810428150530491e-02
      5.8545645552841634e-02 -4.4528894143034410e-02
      -3.7363573966211129e-02 4.0612710385083593e-02
      3.6331775360612863e-02 -2.3585763587235013e-02
      -1.7131691033645539e-02 -6.5621382863207745e-04
      3.2739369415694920e-02 -8.9530558358620841e-03
      -2.9357912908648242e-04 -4.5646574570115308e-03
      -1.1116165285180970e-02 -7.1241368833461591e-02
      3.0396553156971637e-02 2.6103892466022318e-02
      -7.3942748204789419e-03 -8.1585778163064157e-02
      1.0403903038808294e-02 4.9981424085431693e-02
      -3.3183008905207562e-02 -1.0857584445740205e-02
      2.8590616248557806e-02 1.6176084336888305e-01
      -1.1566096043571835e-02 5.4687297444247183e-02
      -6.1057483838245788e-02 6.0735235107085381e-02
      5.5161877310133153e-02 -4.3309799995457171e-02
      1.6387438769892043e-02 -8.6328282576181831e-02
      -3.9587213172261035e-02 5.6851508413116675e-02
      2.6327330529602844e-02 3.5428538673526348e-02
      1.7542056058646706e-02 -1.4677862584688983e-02
      1.1063928918320406e-02 3.5819320899139077e-02
      1.5548777063509413e-02 -2.5536668210518434e-02
      -1.9587900495856316e-02 1.4321877589000024e-02
      1.2337794775681152e-01 -4.4133546362442488e-02
      -6.7797954070601046e-02 1.4038285364485861e-02
      8.8047974885013171e-03 -3.7628727899742587e-02
      -8.1954421426869498e-02 -2.8105179418468851e-02
      3.6468032964993293e-04 8.7874287518883015e-02
      3.1895549876692499e-02 -3.9025106734492674e-03
      -3.8877100040810707e-02 -4.1002375246720714e-02
      1.2599250305595501e-02 4.5265021217992932e-02
      2.5227246419622091e-03 1.3990440878329485e-02
      -3.8661898992870480e-02 8.0649118661373864e-02
      4.6590280313226198e-03 -2.3736244284691982e-02
      6.1543492415427805e-03 1.7172567976619150e-02
      -6.4519506108663568e-02 -7.2043795732043212e-02
      -1.0943661630134409e-02 5.7337647237092372e-02
      7.8579777359872760e-02 9.7768362359545932e-03
      5.3314940726126954e-03 -9.7278660620412807e-02
      6.2309794316945000e-02 -1.2553822650323459e-02
      2.0375408789756827e-02 -2.2124241291446890e-02
      -6.5171307937635148e-02 -2.5985072371643769e-02
      4.0148665607326897e-02 -3.5596787221467308e-02
      -4.7645737887385652e-03 -5.4300568654398730e-02
      1.0743958317184174e-02 2.5299481984838493e-03
      -3.3401586635348625e-02 -2.6586785587883214e-03
      4.5493826062181643e-02 4.0984545464303648e-02
      1.8669442174597404e-02 1.2499718385279490e-03
      -1.2675732088219651e-02 6.4074505436424428e-02
      -1.9803893443837439e-02 -5.1913344405513394e-02
      -4.1763530432222615e-03 -1.6738664022182867e-02
      -3.5817218240649991e-02 1.2277940890800932e-02
      -7.5240845947481217e-03 -1.3516957620178904e-02
      -3.7292650560222400e-02 7.7138934036679579e-03
      -2.0902404514875888e-02 7.5930379445747764e-03
      1.9311156608110690e-02 -4.0334773254251326e-02
      -1.8672599183782168e-02 -1.1868209663606051e-02
      -5.2459006645734756e-03 7.5643044607352702e-02
      1.1735314988478034e-02 1.6964901947252326e-02
      -7.7878368307883212e-03 2.9369741068459791e-02
      -3.2279393268203074e-02 4.0974165774944053e-02
      -1.5581857054080259e-02 -8.8912970969423268e-03
      -2.6937715955901748e-02 -3.7170218164403412e-02
      -1.6010935005086758e-02 -2.2064526428091737e-02
      1.2438511121162375e-02 -2.3543377377651095e-02
      -6.9081803366257905e-03 3.7498570910504299e-02
      -3.4088597327642006e-03 -7.7491605693723112e-03
      1.9054158520580258e-02 -2.1855991013925408e-02
      -2.0307265815188533e-02 2.6961936958688010e-02
      -2.8848868787785739e-02 -1.5515641772674248e-02
      1.6458949205054731e-02 -1.3926817067963346e-03
      -2.5140995753900653e-02 4.8033088443028692e-02
      -9.2021942181307100e-03 -1.1434187567928748e-02
      1.7333607881635908e-02 6.1222835001273949e-02
      2.5959000856048135e-02 -4.6505315155110451e-02
      3.7793798499661663e-03 -1.5113701036683443e-02
      -5.5610422390850083e-03 -1.7661467381391877e-03
      -8.0705447984194389e-03 -2.6444870462953667e-02
      1.5471838674737805e-02 -3.6378411802037401e-02
      -3.0935887786021150e-02 -2.0265058806532448e-03
      -2.9847446859767306e-02 2.0088413599816005e-02
      -2.7447972705899826e-02 5.8330019446082909e-03
      -2.1698944356325332e-02 -2.0549402655612323e-02
      6.8303518948042083e-03 -2.5775735778454874e-02
      9.0533200099226867e-04 1.7263468660605866e-02
      5.0655784378051849e-02 5.2685911796464440e-03
      8.0985661956772571e-03 -4.2677691853348840e-02
      -1.2314930473181849e-03 -1.8608648803728856e-02
      1.8168787917386672e-02 5.4103785199612836e-03
      1.0365359579780777e-02 -4.1975353478748603e-02
      -3.0849751389713187e-02 -1.4345906385302414e-02
      2.2383591322697537e-02 2.5312597879037634e-02
      -2.3342665599977393e-02 -1.2231470586975993e-02
      2.9237635920641290e-02 7.8680170886352794e-03
      -4.4947938523575729e-03 4.5303300958810425e-02
      3.1831399527764925e-02 1.1951796984338485e-02
      -1.5668506101767916e-02 -3.4992709547815991e-02
      -5.6803622330275104e-02 -4.6321514360989956e-03
      -1.8515910702840706e-02 -1.4825565724552943e-02
      -2.1871548706677704e-02 -1.1783071273385091e-02
      5.8452473530835932e-03 -3.6743300860924047e-02
      -1.2842891751608155e-02 -2.6814746939387110e-02
      -2.0379876794856252e-02 2.7207912247597691e-03
      -7.0293876738947072e-03 1.9044561128634434e-02
      5.2660459367602653e-03 4.9449678119466425e-03
      3.5805591487648010e-02 -4.5468379469104023e-02
      -3.1090146027306462e-02 -2.6952579034772407e-04
      -1.8104079360033526e-02 6.5705738744614283e-03
      -1.8743530406493427e-02 5.7948967704417667e-02
      2.2606234599095502e-02 8.3222909423164623e-03
      4.3059878634953922e-03 7.3881890036508524e-02
      -2.6728275040015372e-02 -9.3545713610913659e-03
      -1.9665193475014948e-02 5.1335857246059040e-02
      -3.0960764999355735e-02 1.6601612258693572e-02
      -2.3891216658389506e-02 1.5347243243401046e-02
      -1.0989424967761554e-02 6.4188653573829220e-03
      -1.7658048430788262e-02 -2.0405915424481520e-02
      2.5235679460021209e-02 2.2552452473431878e-02
      -3.5658430556596205e-02 -6.5776624200526899e-06
      -1.7199129190517373e-02 -7.1264084903120460e-03
      2.4631701419883707e-02 4.7532988184630278e-03
      -2.5660029095429544e-02 -2.4157973250144740e-03
      -3.3379265439224988e-02 2.4083071021938962e-02
      2.9003645342298344e-02 3.2784165943674677e-02
