<?xml version="1.0"?>
<opencv_storage>
<opencv_ml_ann_mlp>
  <format>3</format>
  <layer_sizes>
    29 100 100 100 10</layer_sizes>
  <activation_function>SIGMOID_SYM</activation_function>
  <f_param1>6.6666666666666663e-01</f_param1>
  <f_param2>1.7159000000000000e+00</f_param2>
  <min_val>-9.4999999999999996e-01</min_val>
  <max_val>9.4999999999999996e-01</max_val>
  <min_val1>-9.7999999999999998e-01</min_val1>
  <max_val1>9.7999999999999998e-01</max_val1>
  <training_params>
    <train_method>BACKPROP</train_method>
    <dw_scale>1.0000000000000000e-03</dw_scale>
    <moment_scale>0.</moment_scale>
    <term_criteria>
      <iterations>1000</iterations></term_criteria></training_params>
  <input_scale>
    1. -2. 4.3669280382522953e+00 -2.8721728380990781e+00
    1.0007395140933410e+01 -2.6019248412839771e+00
    8.7173537541554822e+00 -2.2047265267731397e+00
    9.1847218515081330e+00 -2.1023835493937835e+00
    8.3942494460448476e+00 -1.2214912979658838e+00
    1.7441631761742617e+01 -1.4600062832741652e+00
    3.2733809033548376e+01 -1.8886198367846596e+00
    4.2066175670960320e+01 -1.8044764717845396e+00
    5.4679686583487538e+01 -2.0481679999253561e+00
    6.2355274001657143e+01 -1.9023858669937486e+00
    7.5015743517359965e+01 -2.1380224951401918e+00
    8.0511790893824184e+01 -1.9845581727854198e+00
    7.8682816822381497e+01 -1.8528978535823901e+00
    1.0779852112105296e+02 -2.2166908670513776e+00
    9.4979402908541260e+01 -1.7533266892717059e+00
    1.2286547320819359e+02 -1.9745335727664755e+00
    1.2523144392981425e+02 -1.7783117988215824e+00
    1.6249808771112188e+02 -2.1135820439423703e+00
    1.7704283864660894e+02 -2.0206098324877724e+00
    2.0661904512873656e+02 -2.1277855691876058e+00
    2.1940091141254877e+02 -1.9764664133932590e+00
    2.2927670330568972e+02 -1.9679641559270977e+00
    2.4925544013083658e+02 -1.9286347792209120e+00
    2.9567617833472258e+02 -1.9642818864155651e+00
    2.8243719255838869e+02 -1.8114070415941257e+00
    2.8928101924115259e+02 -1.7652280317300086e+00
    3.6810080020416359e+02 -1.9447196340649229e+00
    3.2054129178103261e+02 -1.6222870645312581e+00</input_scale>
  <output_scale>
    5.2631578947368418e-01 4.9999999999999994e-01 5.2631578947368418e-01
    4.9999999999999994e-01 5.2631578947368418e-01 4.9999999999999994e-01
    5.2631578947368418e-01 4.9999999999999994e-01 5.2631578947368418e-01
    4.9999999999999994e-01 5.2631578947368418e-01 4.9999999999999994e-01
    5.2631578947368418e-01 4.9999999999999994e-01 5.2631578947368418e-01
    4.9999999999999994e-01 5.2631578947368418e-01 4.9999999999999994e-01
    5.2631578947368418e-01 4.9999999999999994e-01</output_scale>
  <inv_output_scale>
    1.8999999999999999e+00 -9.4999999999999996e-01
    1.8999999999999999e+00 -9.4999999999999996e-01
    1.8999999999999999e+00 -9.4999999999999996e-01
    1.8999999999999999e+00 -9.4999999999999996e-01
    1.8999999999999999e+00 -9.4999999999999996e-01
    1.8999999999999999e+00 -9.4999999999999996e-01
    1.8999999999999999e+00 -9.4999999999999996e-01
    1.8999999999999999e+00 -9.4999999999999996e-01
    1.8999999999999999e+00 -9.4999999999999996e-01
    1.8999999999999999e+00 -9.4999999999999996e-01</inv_output_scale>
  <weights>
    <_>
      -5.2982824678020235e-02 -5.2279698024913654e-02
      3.9336175969526120e-02 -3.6509622240002801e-02
      1.7505165009740257e-02 5.4416333079242860e-02
      5.8178105421765582e-02 -4.3638041559225342e-02
      -4.9883657115028110e-02 -3.1127462723946606e-03
      -1.4666329182064881e-02 -3.4147038120339437e-02
      4.5111381570145416e-02 4.8820162433999614e-02
      -4.5429959508082131e-02 4.9478480241037452e-02
      -4.0594589507541898e-02 1.8375603644527935e-02
      -5.5872890484395435e-02 -3.4230730379500938e-02
      -2.0058588997975205e-02 4.9761906448787523e-02
      1.5967058527210375e-02 3.6540517582050007e-02
      1.9249621332573134e-02 -9.5252095756664084e-03
      -2.8944271435175167e-02 5.7480582691289146e-02
      -6.5702887682962979e-02 5.2626432810338464e-02
      -2.7837163167993551e-02 2.5485935351764168e-02
      6.2318195344372343e-02 -1.3547315446277925e-02
      -2.6514682897564208e-02 -3.7468206222509862e-02
      -5.9591322222386264e-02 2.1581430952087596e-04
      -4.3972030623290928e-02 1.6300718409899967e-02
      3.6322736738051177e-02 -5.0884846599739644e-02
      4.7131122061006267e-02 -4.9939629329465364e-02
      3.9016121225456661e-02 5.0462822788745219e-02
      1.0826426748939298e-02 5.4399683508486715e-02
      1.8351738301167739e-02 2.2420251162232514e-02
      -7.8611851444699860e-03 -7.0140999327571230e-02
      6.6947822533326914e-02 -3.8606725763648757e-02
      6.0762391995243720e-02 7.1945217545846346e-02
      9.7325195495374418e-03 -2.1607756848591080e-03
      -2.5109047145697526e-02 2.6008911317219309e-02
      3.3778374529302602e-02 -1.3156227623972092e-02
      2.9101766201320257e-02 -2.1552400494151875e-02
      -4.6920851485025381e-02 -6.4965281185520890e-02
      -5.3497629255779840e-02 -2.6838737720555787e-02
      -4.1417917784196519e-02 -3.9349214264705487e-02
      2.1147804130439478e-02 7.3033785893724529e-02
      5.5788591327226716e-02 -2.0197913576705404e-02
      -5.5570564530094554e-02 7.2045739678218798e-02
      3.7857606949819080e-02 -4.6309237371573893e-03
      -8.2679557536717123e-03 4.1238559542180010e-02
      2.6293891874177286e-02 -5.6558489652001526e-02
      -3.3858455788350034e-02 2.9850960887899586e-02
      -1.1996291190313575e-02 -1.6185875930408808e-02
      6.0646229890198829e-03 -2.5699406331558712e-02
      -8.6641001560388349e-04 -3.1293069575135224e-02
      -3.7692082907251651e-02 -6.8480712845350898e-03
      -6.4181404075954754e-02 -2.7229207165882903e-02
      5.3285461262174490e-02 3.2357391669583818e-02
      2.5746401944359881e-02 -6.1523888006156470e-02
      -4.4030893097309537e-02 3.6349751277434270e-02
      -1.2649880431666967e+00 1.7483677036398779e-01
      -2.0912468458709599e-01 2.1368996562318296e-01
      -8.2505277810039926e-02 1.2051145323238349e-01
      1.4181249840372812e-01 -1.3438631788853492e-01
      -6.4888961141504031e-01 1.5158806164056246e-01
      -1.2773025124771278e-01 -7.9116726944302329e-02
      1.7027569819286537e-01 2.1413518879751442e-01
      -2.0447152770446633e-01 -3.2401972949602559e-01
      -1.5660483998915531e-01 -1.5918578393201566e-01
      -1.0664653218626449e-01 2.1883343276902903e-01
      -1.8683599508670765e-01 1.2300701953667431e-01
      5.0827773587167772e-02 -1.4774172862561386e-01
      6.3273282429747446e-02 1.2454391234514831e-01
      1.5096944685315988e-01 -8.1018508384477772e-02
      -8.5038441434788278e-03 -1.4744790596633567e-01
      4.8206224666832614e-01 1.3991667894951468e-01
      2.2717017778304172e-01 1.4594075441003329e-01
      -9.6835775514394817e-02 -2.7380508240809225e-02
      1.3710117902746524e-01 1.4417784563795022e-01
      2.0275706060802989e-01 -1.7660629181778484e-01
      4.4678914373320405e-01 3.5849399320728947e-01
      3.6248211285377069e-01 -1.8701873197513277e-02
      1.7103475605421600e-01 9.6010124333352764e-02
      -1.9277247512844606e-01 -9.0262859014102234e-02
      -9.9907457542145445e-02 6.7107440345273084e-01
      2.9981042947097530e-01 3.6185961572912151e-02
      -3.8197975000845916e-02 3.0586662283274962e-01
      6.1132039882630428e-03 2.2039267315845423e-01
      2.9680182341630301e-01 -5.0847976044701201e-03
      1.6357238509845806e-01 6.9816397822811779e-02
      4.9176845373524319e-01 5.2259361385489100e-01
      1.2719074626940299e-01 -1.9103778622754389e-01
      -5.2089992083093430e-02 3.1756425095580587e-01
      -2.9009119168526842e-01 9.3697505302504880e-01
      -3.4729862623248467e-02 -1.3876550567824367e-01
      -8.9915347341294069e-02 -2.4416866331020928e-01
      -9.5007257014226604e-02 -2.1281468712943022e-01
      -1.9503299441853683e-01 -1.1315719854182252e-01
      2.9043721000879187e-02 3.1218749694093395e-01
      2.0752752176580047e-01 -1.6192942628199572e-01
      -2.2789133890543964e-01 -1.3877928966827624e-01
      -8.2842448811249705e-02 -7.7606471462587256e-02
      1.7994104057496360e-01 2.3102774596582529e-01
      2.9265097328028161e-01 1.3464429215773299e-01
      -8.9361651494359026e-02 1.2921636255643554e-01
      -1.7789209322802521e-01 3.7688554051746287e-01
      -2.2650989348834558e-01 1.4053737845769376e-01
      -7.1799087152663588e-02 -2.8807414582216761e-02
      -9.0040532259278550e-02 -2.2190628265325327e-01
      -3.6959534011642143e-03 1.2857098548222901e-01
      3.8754912447249878e-01 -1.5188802194595055e-01
      -1.3904928638019454e-01 -3.3570785609275240e-02
      2.2822501270406897e-01 -1.8612586871552736e-01
      1.2419203954059152e-01 1.2505127002734592e-01
      -7.9458993594393801e-01 -4.6421196900337117e-03
      4.6866435856830191e-01 8.3428658773775938e-03
      -1.3614659293751302e-01 1.6887389335879761e-02
      2.6521396446832363e-01 1.6130814272810287e-01
      -8.0752194667662314e-02 1.5721316876471286e-01
      -2.1028375390910962e-02 3.4152197078910360e-02
      1.1559564524653655e-02 6.9837362939118741e-02
      9.5412161795751568e-03 3.8507752823492322e-02
      -7.4871089716508063e-02 2.1868056982411468e-01
      -2.9137047476424312e-02 -1.5178084010941897e-01
      4.9936392427633022e-02 -8.0839766943431188e-02
      7.8908408839737865e-01 6.6575773470337524e-02
      -8.9175587874481529e-02 -1.8025057689910423e-01
      9.2004804655107519e-02 2.2658980178924820e-01
      4.0134288320905286e-02 1.3382270142419481e-01
      1.4875577310463564e-01 7.2538637537633469e-02
      5.4735164135722147e-01 2.1816051856441718e-01
      -1.2531271641118577e-01 -1.8872187607845389e-01
      -8.8429468042899140e-02 -5.8742560802133260e-03
      -6.4652397770938869e-02 1.3412223763227652e-02
      1.6978190333441614e-03 -1.9564135645033320e-01
      -6.4057337673577696e-03 3.7328829096553544e-02
      -4.9654348488989648e-02 -5.0590101731423408e-03
      2.3426410554758081e-01 -8.9023810583310894e-02
      -6.8954683068391837e-02 1.7304125003614185e-01
      1.4693307963840033e-01 -2.2240430674126543e-01
      2.0797962638275369e-01 -2.1388240931630390e-01
      6.0074405416938377e-02 -8.2378783894556523e-03
      6.0495357648899817e-01 2.1803673181742877e-01
      -2.5397425771612009e-01 -3.7297778809887039e-01
      -7.6427667020193601e-02 -1.0847173719897818e-01
      -1.2450297793918041e-01 1.3395482350334970e-01
      -6.3646016997765079e-02 -2.2137846512036534e-02
      2.2883297723531976e-01 -4.2666855215210686e-02
      1.8836403758769610e-01 1.2205327078878099e-01
      7.6282829344046080e-02 -4.7713974049625824e-02
      -1.2713969472107672e-01 -1.1550351805402275e-02
      -1.1141767933046335e-02 -1.5614247666351783e-01
      2.1255101103400970e-01 -1.9646476708467975e-01
      -5.4639464734096178e-02 2.3557108142349811e-01
      4.7934991749665125e-02 3.0769727219374279e-02
      1.2262517322779491e-01 2.4588655003422204e-02
      -8.2378684971835398e-03 9.6246704278684994e-02
      -4.0311133297381771e-02 -1.2532765635899731e-01
      -1.9743882647688271e-01 -2.9179968253528216e-01
      2.3726430519971228e-01 -1.4364110344287686e-02
      -7.3060141962874081e-02 3.1042747472170746e-02
      -8.3474327070968031e-03 9.8823528969521138e-02
      3.7097622546463732e-01 2.1625505088715913e-01
      -6.2713011034412722e-02 -1.8980774348423490e-02
      -6.9937825430724054e-01 -1.7081706925354304e-01
      2.7661036324861349e-01 3.4089180972663287e-02
      7.3671650354586796e-02 1.7138553912542356e-01
      -8.6852891248121691e-02 -2.3169087846958068e-02
      -2.0779244193131832e-01 -5.8620168838767604e-02
      -2.4208118157343539e-01 1.2360862686998056e-02
      5.4919095253197922e-02 3.5645139353967042e-02
      6.0951342632768066e-02 1.4164697594086986e-01
      -4.3438452413798408e-02 -7.3398573121011168e-02
      3.1122991412648751e-02 -1.8325452920849975e-02
      -1.3214021629098538e-01 2.8345528083922645e-02
      1.2149914155198036e+00 -1.5329478661728363e-01
      2.0463650447566603e-01 -8.2255519957612822e-02
      7.0425119763256206e-03 -2.0048592175310420e-01
      3.7917238629872139e-02 1.7084797865816911e-01
      -5.6316114805808816e-02 -2.1091416674831101e-01
      -1.2359021074603761e-01 -1.7962281652756626e-01
      -8.6558219259045652e-02 -1.9019584004255508e-01
      1.1307093939971401e-01 -5.8271294841056717e-03
      -3.9309296264456853e-02 8.0850206297015267e-02
      -1.2678685040617668e-01 1.9565619067176596e-01
      -3.1842634280516496e-01 3.0866824879183984e-02
      8.1289082906844681e-02 -1.3395543685924152e-01
      -1.9964281204790796e-01 9.9468407649924664e-02
      -4.3857884149028681e-01 -6.9047081038542527e-02
      3.5128589110929115e-01 2.2717539254416139e-02
      -4.4859331043475303e-01 6.9184150516820531e-01
      1.1366828270598330e-01 -8.4407404410121289e-02
      2.9205364551279622e-01 3.4803430754827253e-02
      1.6041150187772998e-01 -4.1660157699755973e-01
      -5.3207364607304845e-02 -3.2938764444257605e-02
      -3.7155322532865370e-01 8.5759940645784693e-03
      -3.7491081504170909e-01 3.9702001069835909e-02
      -6.6850307336920045e-02 2.2405601624899879e-02
      -2.1423918303778497e-01 5.7356724389108157e-04
      1.5901760018876096e-02 2.5877251226942063e-02
      -1.1771384297012874e-01 -1.6431144958895796e-01
      -5.7272371364575775e-02 -1.4507728330117364e-01
      3.3161045067914806e-02 8.7049276166782194e-02
      -1.0295732565952602e+00 -1.3958985280326330e-01
      -3.5597443238310855e-01 7.3885729348411477e-02
      -5.8671513397569659e-02 -2.3923890285716015e-01
      -4.0700440848843146e-02 5.4115992998077164e-02
      1.5252686459022863e-01 1.5598677043335984e-01
      7.7446853099470650e-02 -1.7421634778583983e-01
      -1.2184246534066996e-02 8.3252797737720236e-02
      -5.4397848871754606e-01 1.2795855058468833e-01
      -2.0054623762837970e-01 -6.8068597297188574e-02
      -1.2944465267039701e-01 2.1873496318029081e-01
      7.7806022541434691e-02 -5.7818237780121837e-02
      -1.4710117138067588e-01 1.5370947539090291e-01
      -2.3803252122131840e-01 4.7731562818991324e-02
      5.5623848405187956e-02 -1.5447526937208375e-01
      -6.6875219051650586e-02 -7.9588786610794535e-02
      -2.3285359688392737e-01 -8.9426268497035277e-02
      -2.1778368055489220e-02 1.2039513423351268e-01
      -1.1155104480375054e-01 2.7542312615727460e-01
      1.7076840167953741e-01 -2.9753425896940539e-01
      1.5457146694294088e-01 3.7212794558612144e-01
      5.3122421310622281e-02 -3.3209430241429744e-01
      7.5723511794658582e-02 -1.6813463523101871e-01
      2.7652899304476830e-01 -1.7015636521781636e-02
      1.4776176345392477e-02 1.4334708229154183e-01
      1.5422800110345941e-01 7.5076536437200560e-03
      1.7386462909728784e-02 1.5074268196995338e-01
      2.0462278308005810e-01 -7.1504056040928854e-02
      -4.4266938126150117e-02 5.1836196089841559e-02
      -2.3753344742191612e-01 -4.9622286890274647e-02
      -1.5451333378967440e-02 -2.0814742623675492e-01
      2.0593931289555504e-02 9.2678650783418349e-03
      1.6558543009794865e-01 1.3740613744569796e+00
      4.2166106484931015e-01 -2.1639970608135386e-03
      -3.0506530425703010e-01 1.5593003766803807e-02
      2.1541906655404144e-01 1.4290366140859778e-01
      4.8258789439021765e-01 1.2504444474181001e-01
      5.9332244066137900e-02 3.0756373324860992e-01
      1.0662931110281458e-01 9.6180887132602844e-01
      -1.4060616758550561e-02 6.3495553534242771e-02
      3.6365401326283292e-01 1.4837209126180808e-02
      -1.8301085718249391e-01 6.7340008172451971e-01
      -1.3418559424195944e-01 -1.1723956107433428e-01
      4.0561845478866743e-01 -1.0760471769400876e-01
      -2.1289256702605557e-02 -1.4771937450063111e-01
      -2.5320696906156844e-02 -1.5935804242101265e-01
      1.1554336454465061e-01 1.9983115222507029e-02
      -1.6738509674972232e-01 -1.5338360043942906e-01
      6.3859741986683084e-03 5.9022206434637105e-02
      4.7073303412978051e-02 1.7381730950122815e-01
      3.6724390103049703e-02 2.4526113858722917e-01
      3.6872148084340756e-01 -4.6198221071685357e-02
      -2.9362093773383415e-02 -1.2070219053705700e-01
      -1.7683686497895601e-01 1.1322443330022158e-01
      -6.1857415503764543e-02 4.9302666149497229e-02
      -4.6746300814113079e-01 -3.1267731699508874e-02
      2.1568104698606408e-01 -3.0926921140352481e-01
      -8.4289347374931919e-02 -2.1120085094773711e-01
      -2.4244996560274043e-01 -1.8278584001677395e-01
      -3.7512894827579685e-01 -2.9370922724831487e-02
      1.4846893039491402e-01 -5.5701652925572602e-02
      3.9102584060377510e-01 -1.1493887848342273e-02
      -3.9790227897022562e-01 -4.9494710089755381e-02
      -1.0413532745070190e-03 9.7445847079105934e-04
      -3.1632294729635541e-01 1.3757984491951858e-01
      7.1544967702035556e-02 1.0331897002766573e-01
      -1.2528452422755218e-01 1.0641149679767255e-01
      -7.2835727842534809e-02 2.1696632864632165e-01
      -1.5442500034200837e-01 2.2642673383095671e-01
      7.3458568203848440e-02 -3.2800981605259943e-01
      2.7950966366740243e-01 1.4575096807663543e-01
      1.2645750349721893e-01 -2.9860105256415181e-01
      -1.2785656693070675e-02 -1.9864234499654715e-01
      1.2095458916409350e+00 1.2255574900334966e-01
      8.4038493014051183e-02 -2.0668247462908218e-01
      1.0981203356183492e-01 8.9270506980408434e-02
      -6.6993002427034556e-02 2.2695034414084542e-01
      1.3046049870729051e-01 1.6927743631888026e-01
      -4.2437472912955986e-02 1.5801720990235213e-01
      7.2604396091566448e-01 -2.7710871964816636e-01
      -9.3587994710633116e-02 -1.9890575601768065e-01
      1.2607378397210536e-01 -2.3551880043645567e-02
      1.3810505910758941e-01 3.3479152859409439e-01
      5.2486352181700568e-01 -9.3219178927585800e-02
      -2.3751984688947619e-01 8.0226694853240688e-02
      7.3453387518176150e-02 -1.8166348250378106e-01
      2.9066795148862351e-01 2.3109655825568350e-02
      1.4445090031402752e-01 -8.6515609839249746e-02
      4.2274868547045302e-01 2.6988105713241894e-01
      -7.9569352577706115e-02 1.3502070074776157e-01
      1.1467662359758504e-01 8.8012154301879322e-02
      -4.6218651266937735e-02 4.9514198069805976e-02
      -4.7270628259493241e-02 -1.3034309635181560e-01
      -5.0686635143384140e-01 -8.0363185623716762e-02
      -5.4700812831644227e-02 1.3201085575634092e-01
      3.3935241619546673e-03 -2.2102610220499426e-02
      1.8067086179993241e-01 7.6685473607313467e-02
      2.2510071221213384e-02 6.1964063107732580e-02
      -3.2903572294057054e-01 -9.3518696786665842e-02
      -8.7854077548151083e-02 -2.5207049878185606e-01
      4.0131397289094844e-01 -4.5333000936928873e-02
      4.9516816018429577e-01 -1.0737957212984348e-02
      -4.9714460338695546e-02 1.8296406032619472e-01
      -1.4686507354680589e-01 3.0194073778042624e-01
      -2.3867185901810667e-01 -7.5542755697382585e-02
      -7.4897642343798931e-01 9.0126592490961596e-03
      -2.1898111205977575e-01 -3.5446747098749820e-01
      1.7964187837866236e-01 -1.6340807482562730e-01
      1.7506636972024250e-01 -1.2975771575226666e-01
      -1.6226878511828968e-01 4.4894911850370214e-02
      2.6090653730029589e-01 -1.5988833602835109e-01
      1.2992650882626348e-02 -1.7679908160330951e-01
      -1.6102341657277841e-01 3.0733934654132752e-02
      3.5333352723411526e-01 1.5177881392551909e-01
      -1.5484019574473132e-01 9.2196901955456323e-02
      6.4920052082967819e-02 1.1348962469214577e-01
      -1.9259552430548252e-01 5.0297428220026832e-03
      -1.9066404699762848e-01 3.5437913507882689e-02
      -6.2142329500400648e-02 2.5723219914987777e-01
      9.6781887145663326e-02 -4.5521198193211165e-01
      1.8900985310464871e-01 9.7000733779353462e-02
      -9.8153839988180627e-02 -1.0384346847372140e-01
      1.1024212777377708e-01 -1.3466618020883278e-01
      3.6831166271688742e-01 1.4054724325803747e-01
      2.2591347351340646e-01 -1.8521239721621469e-01
      2.2980863802519672e-01 2.1600445959986331e-01
      -1.2235088944987724e-01 1.6032267538106462e-01
      4.5667069628932015e-02 1.3551919427514339e-01
      4.8955526981423074e-02 2.1887201803951634e-01
      4.0985317117023978e-01 -1.9369334187206746e-01
      1.3820952619730351e-02 3.6066263298172120e-02
      -1.1453530878631067e-02 9.4504871598972695e-02
      1.1478369874121219e-01 -1.0049890135412370e-01
      3.1558893371435709e-01 -1.2201421382748054e-01
      5.8684967080973177e-02 2.9085912579093476e-01
      1.8840352174410119e-01 -1.0457418826349761e-01
      -9.5863753650385408e-02 1.6783096769745756e-01
      1.6917511373423769e-01 -3.1684877828856728e-01
      5.7736133613917429e-01 -1.3251400665479182e-01
      -3.5133016986168185e-02 3.3492333478502646e-02
      7.2666785442487736e-01 -6.3314785311882546e-02
      -3.3194396800231030e-01 -3.3436808459871703e-01
      -6.4249261144473005e-02 -7.7462288290538292e-02
      -8.4221114036572875e-01 -8.7465981830407991e-02
      -1.0270849978944532e-01 1.3186016964969702e-01
      1.4487238556260645e-01 -1.0406601963145753e-01
      3.0194017466345552e-01 2.6587186373544525e-01
      3.4788511534076966e-01 -1.0712093295401129e-01
      -9.3796898451716695e-02 -6.7671634702696243e-02
      -9.7412309125273391e-02 -9.4681519132857050e-02
      4.4675232738136456e-01 -2.2338772818575892e-01
      3.1259108878356495e-01 2.0212444874808130e-01
      -1.8927720014101831e-01 2.5369401873490557e-02
      1.4643212571101258e-01 1.0953043827435099e-01
      -1.0105644068123858e-01 7.6298479260504384e-02
      -1.8328277001268201e-01 8.5967176568391243e-02
      -5.9272623608675812e-01 -2.1834682609426057e-01
      -9.3707101119314518e-02 8.5457616224666230e-02
      -5.1994881462925746e-02 8.1833862816644412e-02
      -1.0654756534879849e-01 4.1268719197609466e-02
      5.4430287975254965e-01 -1.1729955828277804e-01
      9.4769464564653502e-02 -9.0806496814658605e-02
      -4.1386024437258023e-01 1.3861894395738988e-01
      8.8994549037286252e-01 1.0192774874314174e-01
      -8.2724547841881740e-02 -2.4248716917500374e-02
      -2.4436855371849326e-02 -2.4920165994208553e-02
      -2.0599367819186884e-01 1.3450314035650729e-03
      -1.0881915150371264e-01 2.5890766002487759e-02
      -4.2093480138137393e-02 1.3864620455805376e-01
      1.6753666952582857e-01 -9.2082302329735549e-02
      5.2481329853576723e-02 1.5340856938574135e-01
      -8.5548575451069045e-02 -2.0401477872151028e-01
      1.9137203141906300e-01 -1.3901073855444840e-01
      1.0241323107634106e+00 -2.5778299806037738e-02
      2.9393641469216008e-02 -2.0405946944612730e-02
      1.4095054005982396e-01 1.4265751255021192e-01
      4.2601874513118095e-02 -1.0963076361429712e-01
      6.4113429607884923e-02 2.7569573399908722e-03
      2.5931186294271052e-01 1.6115571239261714e-01
      8.2055080276934889e-01 -1.7975890804314918e-02
      -3.0043991309155728e-02 7.1078153839782957e-02
      4.8572127724063946e-03 -1.2746390599790469e-01
      8.4842438778163581e-02 6.7037215418591656e-01
      1.2108138285046264e-02 2.8491922550566227e-02
      -1.6550225863143084e-01 1.7661078133109687e-01
      3.1118979211149300e-01 -8.6905211372126659e-02
      2.6095678503150536e-02 1.8157071981402464e-01
      8.4685977614536639e-02 -2.6507414549087071e-02
      3.1403935338316441e-01 5.0595331477719296e-01
      -3.3897964778991936e-02 8.8077829196464077e-02
      3.3861585029243269e-01 2.2678668667882283e-02
      -3.7356395725782815e-01 2.6496109728079548e-01
      -5.8909186815102939e-02 -9.5023676457234987e-02
      -1.6966588339874966e-01 -1.4911679485396792e-01
      4.4834625733629299e-02 6.7755462206030598e-02
      -3.4264289494496399e-02 -1.1128551578647175e-01
      1.7192794966279445e-01 2.9138214850474971e-02
      1.2975233707754838e-01 -3.8326543725322557e-02
      -9.3382529757874658e-02 -3.3973550887878595e-02
      -1.0381208985294049e-01 -2.0806987007326118e-02
      -2.1588010349780067e-02 -1.9184177435925717e-01
      4.4846434284508865e-02 1.2968732265278321e-01
      3.8460861403481240e-02 1.8961297591591456e-01
      1.2843126229005739e-01 2.7831457279542998e-01
      -5.2686042041370638e-02 7.8803986094396691e-02
      -2.1166882439007809e-01 -5.9036459643519446e-02
      -3.0599567310478865e-01 -8.1727982313074141e-02
      -6.9563057356452518e-02 3.0676366891033625e-02
      2.3924004012819650e-01 6.8629441998222795e-02
      7.7879149101456477e-02 -7.2503862944806499e-02
      5.2964371593114279e-01 1.0692658381094799e-01
      -1.2751121061660747e-01 1.0168688408138297e-01
      -9.7342837332347748e-02 -4.3871920288948568e-03
      6.3536285660301206e-01 1.1332636189320983e-01
      -5.0223404495873807e-02 -1.8065595824429106e-01
      -2.4768903530116057e-02 -7.6735520896615103e-02
      -2.1490162030639851e-01 8.1859409838799427e-02
      -3.9806797625154558e-02 1.3206224962511240e-01
      -1.0517567624341860e-02 5.2471126908043939e-02
      9.9819777548042346e-02 1.8506835272887986e-02
      1.6890396194250876e-01 -2.2293115219046859e-02
      -2.3208760035333589e-01 -4.2313888193522775e-01
      1.7268807132110192e-01 -1.2300496172493149e-01
      7.8966344526846788e-01 -1.2104159140549431e-02
      -8.1057828059609260e-02 -1.7157793354642989e-01
      1.5790538651075622e-01 1.5160935374998155e-01
      1.0889155572329114e-01 1.3112260746095819e-01
      1.2334175889371687e-01 -4.0035673923142175e-02
      -5.3337060544681660e-02 9.8140637241141859e-02
      6.5650343708750425e-01 -1.0557428275336475e-01
      -3.6347964309175369e-02 -4.9643290663845555e-02
      3.5686205857544074e-03 -6.1229204467634052e-02
      2.0591664858979886e-01 4.9122908026460671e-01
      -2.7076385557390725e-01 1.1953659523271659e-02
      -1.3153228128373365e-01 3.5392219172603628e-02
      9.5204983404707566e-02 2.0751733856781591e-03
      -2.3948754017567647e-01 5.8613130421411773e-02
      3.6227713807379908e-02 2.6566103735648553e-02
      4.0643653915620126e-01 4.0276919809311157e-01
      1.4864065393722880e-02 -2.1812515113725710e-02
      -6.3983443739297111e-02 3.4449169071527515e-02
      -2.9283792147057958e-01 -1.0931454298927520e-01
      -1.9738168557181962e-01 -1.8528291784566459e-01
      -1.4034455269779453e-01 -4.3262746224754380e-02
      -1.6028756355111148e-03 -9.7610530972509074e-02
      1.3447272760228063e-01 7.2631895620449152e-02
      2.0702495329688295e-01 -4.7054451609353710e-02
      -4.9132066995409658e-03 -3.4881379084883340e-02
      6.3239851152441587e-02 -1.8542255942191528e-03
      -9.5711523059749989e-02 -5.4996121436313453e-02
      -6.6984672761242522e-02 -6.6348649057891562e-02
      6.2227829159080789e-02 5.5514245865446517e-02
      -9.8644195408819579e-02 2.0369239763596866e-01
      1.0192488316691893e-01 7.6575982250495625e-02
      8.4570589625211273e-02 6.2529095665962139e-02
      2.6691111265596634e-01 2.5899652675123602e-02
      1.3841326361300749e-01 -1.6797545229403515e-01
      1.7980457651521503e-01 -4.3566598782282737e-02
      -1.7906933640080264e-01 1.2795535687499032e-01
      -1.2719401581560327e-01 -7.7037800996489058e-03
      3.6189611059378007e-01 2.1026424031819330e-02
      1.7096573957862155e-01 1.0803463261778763e-01
      1.4400536676172540e-01 5.9456547696042091e-02
      2.8144798979607694e-01 2.7466856562078035e-02
      -7.7155314710265571e-02 6.0829371248227376e-02
      -5.1288429995182874e-03 -1.3244625764884249e-01
      -2.1867856822949569e-01 -2.1356024705160310e-02
      -1.1009597891601126e-01 2.4233247823691403e-01
      3.0119792320341631e-02 2.0096344574638036e-01
      7.3362159693025161e-02 7.2511829813841619e-02
      -6.0102967989297464e-02 3.8218100608856415e-02
      -4.4991908545392312e-02 -4.1068170854348657e-01
      1.5653770154061161e-01 -4.1632487014068895e-02
      6.1316089796253492e-01 -5.2717326984502301e-02
      8.1834012621458230e-02 7.5602388736444828e-02
      5.1500066633137262e-02 1.9322517650497591e-02
      2.0805772503330949e-01 1.2373737430915319e-01
      5.9665381778365362e-02 -1.0598724673077804e-01
      -8.5645662653582685e-02 1.0619344347818475e-01
      8.1544407667969721e-01 -8.4987335716797036e-02
      -1.0172137655978497e-01 -1.7311275139666019e-01
      -5.3691901978789452e-02 -3.5597703892323029e-02
      1.4216411178754829e-01 6.4760036666861420e-01
      1.1115441814520712e-01 -3.6545144429766266e-02
      -2.1955822016199505e-01 4.1359454669908952e-02
      1.8160605234565114e-01 6.0542171056524222e-02
      1.5771052835936492e-01 -2.3839001389927367e-02
      -1.9488103156786737e-01 1.8382860943995705e-01
      3.4672695339995557e-01 4.1267433155950362e-01
      -1.5750799438847985e-03 -6.8980894864505093e-02
      -4.4631256497161473e-02 -2.0559627355201088e-02
      -3.8740379809311376e-01 -2.8335995840467915e-01
      -1.5084847741213592e-01 -1.6344974622776724e-02
      -2.9099630312629304e-03 -1.0237359243620271e-01
      1.3093299313359527e-01 -2.7696885766938256e-01
      7.3234424599485690e-02 -7.0355444401028713e-02
      -2.7954889648844964e-02 -7.1704666079679305e-02
      7.6288500125161647e-03 -3.3807114402759061e-02
      -1.1959775090247695e-02 -8.9462358984255891e-02
      -1.6192346856778175e-01 3.5714809297831732e-02
      8.6211742348570902e-02 3.4999387507768799e-02
      2.1126097651277143e-01 2.0811924237657650e-01
      9.3238216601529214e-03 2.3241817075167573e-01
      -3.0774459207682316e-02 1.0941172322840086e-01
      -8.9826793899202728e-02 1.1196768540557304e-01
      -4.7466626861782613e-01 -4.0604444485564314e-02
      -2.1432769620107012e-01 -6.1626638482456371e-02
      2.6309834665058325e-02 -1.8170755339899151e-02
      6.9591697034344049e-02 -6.6090138219499578e-02
      -1.5045617945642259e-01 4.6371618503253373e-02
      4.8086320059147730e-01 -8.2351566223755418e-02
      1.1332843641061612e-01 -8.9912841887890449e-02
      -1.1433647209169967e-01 -4.3332034886460848e-02
      9.1705893849656814e-02 4.2995321650448066e-02
      1.9639280189498860e-02 5.4571399399953771e-02
      -2.6967600968070063e-02 -4.3227795928692303e-02
      -1.3994081205762374e-01 -6.9209875616414673e-02
      4.5174342186930609e-02 1.5033052950986542e-01
      1.1206502685394392e-02 4.3656372659525149e-02
      3.6634805918715513e-02 -2.0830778151249527e-01
      2.2042144791889526e-01 -1.4108653968398697e-02
      -4.7350756449100015e-02 -1.3131653206357932e-01
      1.1495091180125883e-01 2.6535755474890840e-02
      3.0044808172718684e-01 2.5513117018817845e-02
      1.0684095825416438e-01 5.8100023206301969e-02
      -1.0311903260375743e-03 5.0979652278792739e-02
      1.5596341179336171e-01 -2.0376766054229689e-01
      -4.6795476512811504e-02 1.2515645971780665e-01
      -2.4961120521190459e-02 9.8029675153654600e-02
      9.6749342734072841e-01 -8.4435881015424680e-02
      -3.9021688437618350e-02 7.5793371717393407e-02
      1.3154156419692456e-02 5.3834267872394544e-02
      7.7959979657901621e-02 5.7738501180206281e-01
      7.5530359133682029e-02 -2.4794819575184703e-03
      -4.6959932071155480e-02 8.4511269158110899e-02
      -4.6972879935776018e-03 -1.5737301069920667e-01
      -1.2381250804413850e-01 6.3815078935162278e-02
      6.1457426051504491e-02 -2.6289020749966065e-02
      -3.3625478048948672e-02 6.3334295871063728e-01
      -3.2002572486248611e-02 3.2530962298267969e-02
      5.7614630414946499e-01 3.2748205133836111e-02
      5.0732406273575822e-02 -4.0956378492149906e-02
      1.1738419658358089e-01 -6.0053296492388768e-02
      -1.5110248821344185e-01 -1.0674350635411868e-01
      1.9998546731788944e-01 9.1017946285566906e-02
      7.3728087919682717e-02 1.0176133005359748e-01
      2.2423767561690314e-01 1.7765904717055154e-02
      1.9156884944829318e-02 -3.2211186379407099e-02
      -8.7468968992060039e-02 -1.9064939247518309e-01
      -9.6946652858396126e-02 4.9222292284328714e-02
      1.2474712881079358e-01 -1.1555011972330598e-01
      -3.5170999873490233e-01 1.2614611322147387e-01
      3.3562594531328253e-02 1.5069158843544261e-01
      3.7340519062484749e-02 -4.7727588527001824e-03
      -5.1831096644255177e-02 8.7348748791221731e-02
      -1.0854831895474756e-02 -5.9724491418473753e-02
      1.7039794082321250e-01 6.8425638514111611e-02
      -3.0766611643835960e-02 1.9796310543992352e-02
      -1.6455241402683390e-01 -5.8607840029319444e-02
      -6.8687565023276623e-02 1.4754289223765135e-01
      -1.9988814356879211e-01 4.6368579081020996e-02
      1.0992259730684070e-01 2.8005246805331924e-02
      1.0668739101327042e-02 -1.3710670714876252e-01
      -3.1371151453088560e-02 1.2546902282341432e-01
      1.3406522115550454e-01 3.1751438164809970e-01
      -7.8168190608575688e-02 4.9469329228095674e-02
      -2.6446848926330920e-02 -4.2703822982822694e-02
      -1.0922087429501166e-01 -1.0173154658508371e-01
      -1.1265184208581350e-01 4.2941025920525379e-02
      -2.6021623379062615e-02 -5.6642823776376569e-02
      2.1893228367770132e-01 -1.0941552382693470e-01
      2.8545420108008018e-02 -7.1485855944052795e-02
      1.4729487769382232e-01 3.0234622325243099e-02
      2.3766455457765151e-01 1.2831052821697350e-01
      8.4847785233756884e-02 -1.8435181727235257e-02
      9.3796191975620016e-02 -3.9937843220834789e-02
      -7.9443952555120854e-03 2.9228586577499133e-01
      9.9229922580500216e-02 -7.0693751440114014e-02
      -1.3201076753968943e-01 1.4774243133167300e-01
      2.8357474752376050e-01 -1.9680164075164944e-01
      -7.3263897505499970e-02 8.0069524100694164e-02
      -1.2679580193542059e-01 -2.2651528984942371e-02
      8.0276831413221422e-02 -2.5717407634016237e-01
      2.3597891518974224e-02 2.2726547519023536e-02
      1.5906164110706852e-01 7.6299608436514899e-02
      1.3733285340996985e-02 7.1525924437253779e-02
      -1.9800076504257191e-02 -1.6170651172405601e-03
      2.4124290843931410e-02 -1.1081734599760919e-01
      1.0572852276409959e-01 -1.0737401150641454e-01
      1.2594610569413228e-01 4.3118576089813121e-02
      -1.2622057126281200e-01 6.9856214350834500e-02
      -8.5033108272841315e-02 -3.6749760455438391e-01
      -3.2315266127767729e-02 -6.0027197503677160e-03
      -3.3788723656514846e-01 5.5056973966959903e-02
      -1.8753342268510487e-01 4.3498055387180205e-02
      -7.3551155349918466e-03 -1.1828922159434864e-01
      1.6273885432043795e-02 -6.0443987530097243e-03
      1.1373751652633561e-01 -1.3988435046775377e-02
      -1.3219041555156627e-01 -1.7805603972120054e-01
      -1.1540830092266337e-02 -1.3239476594134811e-01
      3.2453957762611806e-02 -1.0376243175952929e-01
      1.5107293035354347e-01 -3.6982229267568584e-02
      -1.9591034596567847e-01 2.6841680901433035e-01
      3.0072375412679462e-02 1.6167762498185395e-01
      -1.1650155724683917e-01 -7.5424922739970625e-03
      -1.3829179801814875e-01 2.5231665097587446e-03
      -2.7812693410064665e-01 -1.7300776085026034e-01
      -6.4014727581444400e-02 1.4089831382032095e-01
      6.7543335139965632e-02 4.0233841871986413e-02
      1.0892005782624005e-01 3.2648633393545429e-02
      5.1423833620943937e-02 6.0688176615774176e-03
      -1.0104484244053691e-01 -4.3800655428283694e-02
      -2.9029333984834371e-01 -1.2636373453881475e-01
      1.3474433047064815e-01 6.9077710643593665e-02
      2.0427482063514014e-02 1.0246984031218864e-01
      -1.2532344267618117e-01 -1.0252929365757629e-01
      2.7106955201042709e-04 9.3203485858811372e-02
      -2.1590648812025826e-02 -1.0590478773576653e-01
      5.6923409680192584e-02 -9.8478759080618525e-02
      -2.6141881010507965e-02 -2.8436800081221675e-01
      1.4041944346461270e-02 3.6915963557654627e-02
      7.6526532845314271e-02 -1.5381850958025689e-01
      -7.8398678599560338e-03 4.1007311948384688e-02
      1.9737997552297629e-01 -7.7980070430705178e-02
      3.0476649586978120e-03 -4.7244200301875684e-02
      -2.1538911063967246e-02 -9.5158571123944991e-02
      3.7750226969055584e-02 1.3493406505129069e-01
      2.3371220338204358e-02 1.8730117619234379e-03
      -1.2848192784275739e-01 3.0377362732385938e-02
      1.1724601920536402e-01 -1.3696334184159911e-01
      1.0843774637054185e-01 1.0817297542432010e-01
      1.2092963907519616e-01 -1.1136925199137153e-01
      -6.4206604398622080e-02 1.8834146026558055e-01
      -1.6286360155062299e-01 8.9156712561150847e-02
      1.4674481119239874e-01 -1.0885947575760745e-02
      -4.9379971944085554e-02 4.7811536944194225e-02
      -2.1308940455437789e-01 -1.2172293560725603e-01
      -4.2441349373010577e-02 8.8470132128360586e-03
      4.3322684181254137e-02 1.7876437466988496e-01
      9.8054880627912636e-02 -1.5128995226678956e-02
      4.7505460430320429e-01 -1.2376756726693717e-02
      9.8797806961457277e-02 1.2674324155937186e-01
      6.4315212040480851e-02 -7.8554452917564258e-02
      -1.9276165944831503e-03 -5.0665734919077825e-02
      -4.2991259446225553e-02 1.3700583726435496e-02
      -4.7743329409285176e-02 4.2415076303767771e-02
      7.5177863752369220e-02 1.0403531286475415e-02
      -5.2185163818309489e-02 -3.7007578190206281e-02
      9.4089704286352046e-04 -8.2348746692166172e-02
      7.1004058632954989e-02 -1.5146202328983990e-01
      -7.6256797912457694e-02 -8.4945003055878262e-03
      -7.7752150937867068e-02 2.4401535529824459e-04
      -1.0714895921108022e-01 8.5024768333983924e-02
      6.2120660377588031e-02 1.5286232955955509e-01
      1.0361621245127964e-01 1.3952466828765252e-03
      1.6503285372641389e-02 -4.4474252640486853e-03
      -8.1211759796285476e-02 -1.2671507094938503e-01
      -9.3510574721498041e-02 7.3282019101398074e-02
      1.0824466105383049e-02 1.7100109822804974e-01
      -1.0004136211330812e-01 1.5517176194234367e-02
      -4.0642071014944860e-02 1.2149544341713349e-01
      -7.3303095136666566e-02 6.6924323017263754e-02
      9.1502730960806244e-02 -3.0147424453926215e-02
      1.3339528626814190e-01 -4.5166439543799966e-02
      1.9963568645623729e-02 -1.2963075105999922e-01
      -1.4203783932423156e-01 1.4299627793257759e-02
      -1.9057074038774208e-01 -3.6877765475980109e-02
      3.1585242180545176e-02 9.3145638673717644e-03
      1.8737986817798089e-01 5.7802011802903487e-02
      -3.2921395852154332e-02 1.4305695678394113e-04
      2.3400354001758486e-01 -1.3321158779348008e-01
      -9.4435733432379834e-02 1.4127300789230687e-01
      -9.0839090775701209e-02 2.1832210134010214e-02
      -3.6758406078841743e-01 2.1349467666377155e-02
      -1.4487003369276830e-01 2.4691349567586673e-02
      -1.4117313695192849e-01 -4.9519027757222278e-02
      1.0965740844355122e-01 7.5559305223742809e-02
      -1.9208149980475465e-02 1.2964134456132071e-03
      -2.4600589550083876e-01 -4.3611708213674140e-02
      -3.6727335208554085e-01 2.0743882922828874e-02
      6.8830890603515840e-02 -5.5515724166177852e-02
      4.7209997651237552e-03 2.5434058469224450e-02
      1.5929085025142628e-01 4.5852228340275575e-01
      1.8197428899793935e-01 -2.3824160527741150e-02
      8.6903766720033485e-02 -4.8622342937505669e-02
      -1.9568861468971323e-02 1.0306592849312129e-01
      -1.9912587500592804e-01 1.1838125171997642e-02
      -3.3962133347776209e-02 3.5189044352481502e-01
      2.6032029600108975e-01 2.2762157355389848e-01
      -1.5814186503081118e-01 1.4044252222540002e-01
      1.4994563815118243e-02 -7.2835004454695693e-02
      9.6225860424783760e-02 1.2509267769050764e-01
      -6.2983904495779008e-02 4.3731803950034516e-02
      3.3779483067633170e-01 3.3164968216585405e-02
      2.0673906681150427e-02 -1.8220391535201502e-01
      -8.2637997566956597e-02 -5.3903572862080730e-02
      -4.3040490656290099e-03 -7.2210025673924871e-02
      9.1533398365593061e-03 -6.1515232092138369e-02
      7.9732317824238591e-02 -7.0933534133114356e-03
      -6.2936917927804523e-02 1.6467067741728092e-01
      -1.6639804258877993e-02 1.7108278557155804e-01
      2.8441552771469751e-02 -4.2975853007178405e-02
      1.3165674807473279e-01 1.5260585299007610e-02
      8.5283674509455121e-03 1.8945251084087475e-01
      8.0490768122328610e-02 -1.0261218634271412e-01
      1.2996661660165215e-01 -3.1833171322264166e-03
      3.8058470438195274e-01 -9.7806876222691644e-02
      -1.2137534107387837e-01 -1.0656151436542334e-01
      -6.7975187453780797e-02 -2.1062390478948831e-03
      -2.7249452223035629e-02 -2.0285755083200730e-02
      1.0098840508976799e-01 2.1802629387908758e-02
      9.2542592274806074e-02 -8.4501761174075735e-02
      -3.4339594588612782e-01 -6.2665809520278573e-02
      8.0987058695054612e-02 -5.4609962545044730e-02
      1.0036745402165298e-01 -2.8995131364708267e-02
      2.4745459444659626e-02 6.5308187996658855e-03
      -1.3034900379325795e-01 6.0272526886529058e-03
      -8.1931369603998383e-02 5.1128422725138602e-02
      1.1299821352555782e-01 4.0673727652335533e-02
      -1.0214111801746981e-01 1.6665308559557315e-01
      1.9321036475607890e-02 -3.1555798718354920e-02
      4.1941337148955073e-02 1.3609453981570710e-01
      -6.3404128498161919e-02 9.3304459570116086e-02
      3.8343559319754067e-01 -2.1534092757724702e-03
      -3.8894963795044458e-02 2.9904811845176540e-02
      1.0539999685242428e-02 -6.1726131278203866e-02
      1.2472807744181841e-01 -4.0292942875537835e-02
      -4.6789504704250910e-02 -3.6679083865365961e-02
      1.1486170283823528e-01 2.5971355489663628e-03
      4.1976023119379646e-01 -8.0462852133110913e-02
      3.5506100157800778e-02 2.2891055523156932e-03
      4.4686685789452597e-02 -5.8985247760453163e-02
      7.8933967181506109e-02 2.7422770394891294e-01
      -1.0071819685139276e-01 3.9521229550834029e-02
      -1.6180289540642634e-01 -3.7074571419932881e-02
      1.9872759919519931e-01 -1.0717691511610512e-02
      1.6156444261501024e-01 -2.7819553337077751e-02
      -1.3814354813760737e-01 6.8521881315873417e-02
      1.8516463812388417e-01 2.6027966078097931e-01
      1.4536640302964379e-01 1.2911150756098295e-02
      8.6689005730597762e-02 -2.5928098680282639e-02
      -1.9342725348277090e-01 6.9467936753771553e-02
      -2.2100193130898609e-02 8.1619794275596028e-02
      1.5880166586349681e-01 -1.3245459426954862e-03
      8.4102123484749228e-02 -9.0852156133891596e-02
      -1.5041431347630405e-01 6.2067222881522652e-02
      -2.8680454260341208e-02 -1.6500133026646394e-01
      -1.7109277913630559e-02 -8.9923409808599961e-02
      -5.8443622728339854e-02 -5.1381374829665621e-02
      -1.4122696402297252e-01 -7.0745008573439266e-02
      -6.5588045401698297e-02 1.3790348829847182e-01
      -1.8458417936026178e-01 2.1082288648261766e-01
      9.8826223069813118e-02 1.1662403703671720e-01
      6.3835331667903880e-02 1.8774644966339979e-01
      -8.0904625890288753e-02 -3.3048899980741807e-02
      5.2679397319541965e-02 -9.8561703926558705e-02
      1.9646323010099334e-01 1.8421867808234633e-02
      -1.8644828737060849e-02 -2.7674443952856342e-02
      -2.2490693542533199e-01 3.3128422845042332e-02
      -7.2094902690377577e-02 -9.2632718741447080e-03
      2.2137781732964404e-01 -1.0342535839520452e-01
      1.1155270798091042e-01 3.8896763456176355e-02
      -2.3347078423355028e-01 9.0186848396600544e-02
      3.5441183900803458e-01 7.5006153776499565e-02
      -8.6798596231033184e-02 5.9739741334871969e-02
      7.1887345541749401e-02 3.0765464813379131e-02
      -2.1766142901924182e-01 -9.7312861816223353e-02
      -3.4130202900968666e-02 1.4732876330714145e-01
      -1.6829259752954887e-01 4.4275622026915692e-02
      1.3839430840501357e-01 2.1389616165299063e-02
      -9.1781181558318221e-03 1.7354120843397552e-01
      5.9706873100977630e-02 -1.7884438268402472e-01
      2.0006746211149432e-01 -1.0301217085337498e-01
      3.4513285578974973e-01 8.8878752099161087e-02
      2.3920898061149293e-02 4.0227713833950678e-02
      4.9423177741727650e-02 1.9750740933794541e-02
      7.4942043629206492e-02 1.5846599395962904e-01
      1.4470222144043668e-01 3.5522906167743624e-02
      1.5241003774637640e-01 2.1888436318941532e-01
      4.0716935560856288e-02 -5.4704212184653683e-02
      1.3958215610790326e-02 -5.0885305423566701e-02
      -3.4026631018939012e-02 -5.3285197497071876e-02
      1.9234471369331471e-02 7.4877342025330607e-01
      1.8744883208222324e-01 3.8950438680396222e-02
      -1.9974704872405297e-01 1.7316650551952556e-01
      2.6559833232313762e-01 -2.3388346246472042e-02
      3.3118873226370721e-01 1.2176007233271473e-01
      -4.5410347935463100e-02 3.1448093194620684e-02
      2.0844791163995288e-01 4.0197146005905893e-01
      9.4908591787141190e-03 5.0354318590563114e-02
      3.3203864381420388e-02 9.4970707077687330e-02
      -3.6235331846144386e-01 5.0428965575927166e-02
      -1.3082279428901539e-01 -1.5439852541502089e-01
      -3.0445922728227909e-01 8.9311829595860627e-03
      1.0536802470496054e-01 3.9775386492874919e-03
      3.3845908809924101e-02 -2.3320089102348420e-02
      1.5686307588137380e-01 6.8208958642459752e-02
      1.7900074811975547e-01 7.5412093404448252e-02
      -4.6396291161449679e-02 2.1570897854386095e-02
      -5.9310152893490460e-02 -5.9410541298500888e-02
      -3.4085500980194389e-02 -1.1787318377353589e-01
      2.6611740746594881e-01 2.2796521361546232e-01
      2.6711331235614564e-04 8.0019867726032853e-02
      5.1096738703217924e-02 1.2156377021601751e-01
      -3.4665749877965411e-02 -2.9128088393241089e-02
      -1.0961188281560125e-01 -8.6046581370933434e-02
      -2.7753416755718180e-01 -4.1001411398335644e-02
      8.5623175346158417e-02 8.2019779107606466e-02
      -1.1467228402344067e-01 -3.9037437034900736e-02
      -1.6643193458755784e-02 2.0732735457694981e-02
      -3.6094742570290417e-01 -1.2320027312828719e-02
      1.1338097044457983e-01 -1.3450362083998137e-02
      -8.8533712357039343e-02 2.4210407093301394e-02
      2.9766295178943630e-01 2.4094749073271242e-02
      1.3277470221111072e-02 6.5890138968131506e-02
      1.1469169575477484e-01 6.5264852451541192e-02
      2.1733679304923939e-02 -1.2597587677044755e-01
      2.9489344712376052e-03 -1.8872785898580123e-03
      -3.6306180176473413e-02 3.5356048791369984e-02
      1.1000825277895687e-01 -2.7749097141645818e-01
      1.0372192781681504e-01 -2.0219196698061655e-03
      7.4313958050514859e-03 -1.3896006610955983e-02
      6.8925612469460495e-02 8.9280091825982053e-02
      1.3187831939235686e-01 4.8998066678430843e-03
      -4.2975455828558010e-02 4.5523626536393497e-02
      -1.0167608194919732e-01 8.0850910243684161e-03
      -2.6440534937401453e-02 1.7240334717053465e-01
      -2.7306057947642354e-03 4.3059546765064773e-02
      -2.0790224290522710e-01 3.5058780025373375e-02
      2.1024151821484363e-01 -8.3281792194896884e-03
      -2.4405324982807088e-02 1.7311843063800285e-02
      -1.5376043635965622e-01 9.3017866004488480e-03
      -3.7255034715010751e-02 1.4206794362318786e-01
      2.3277557112250144e-01 7.2605200983198198e-02
      -1.0668642256229929e-01 -5.3827564635605743e-02
      9.4915439629941881e-02 -1.5193415124146067e-02
      1.5143094033810217e-01 -4.3372402877182241e-02
      -1.2342856186307781e-01 6.0922165239961294e-02
      1.5637449231238895e-01 8.7225731033486603e-02
      7.0591341379014697e-02 -2.8180177033950475e-02
      1.1831324413803204e-01 7.4040901481937663e-02
      -9.5931802976910230e-02 -1.8270685941328932e-01
      -5.2230605578242967e-02 2.1495523844527822e-02
      1.1053672836501759e-02 -4.0976173311957763e-02
      -2.8946095741086586e-02 -2.8862237275190886e-02
      -4.2991605343857590e-02 2.0808900016350398e-02
      -9.9607337177248165e-02 4.8084004326600031e-02
      1.0308206847569044e-01 4.4627872994256218e-02
      -2.3042105675238067e-02 -4.4126217169407789e-02
      -1.3421195247747354e-02 -6.1944562684447785e-02
      1.5822316299360581e-02 3.0466502930128099e-02
      2.5614100411386920e-01 3.5625540848695215e-02
      -1.9719575588780836e-02 3.1944363191354061e-02
      -1.3850187696040017e-02 -3.4347386102478892e-03
      -5.0981730802571429e-02 3.8493575551966461e-02
      -2.5085687067020701e-01 -5.9741126278885434e-02
      8.0510941440772185e-02 -1.1844307896564129e-02
      4.4174086934578513e-02 1.6698837561305116e-01
      -2.5257090418470490e-01 -2.0436679553634512e-02
      -9.0391568588172780e-02 5.9522035354834489e-02
      1.8321397863750627e-01 6.1032766021789080e-04
      1.3686763408825656e-01 -1.0042704416691704e-01
      -4.5848725838606198e-03 -2.7773640644100958e-03
      4.5996563055392681e-03 -7.4301848441281487e-02
      -3.3831607909639613e-02 2.0325326556618766e-02
      -7.0608287002330697e-02 -5.9610809676156461e-03
      -3.2283949688307466e-02 -9.3384813610860151e-02
      3.2246923721138458e-02 -1.0316619431699366e-02
      -6.8408128210158792e-02 -7.5920806096344724e-03
      1.4753748313667092e-01 -3.0975224119633626e-01
      2.6505426480527577e-01 9.0279351618108364e-02
      -1.1372024030711553e-01 -2.6160281113963185e-01
      6.0847394578850897e-02 -1.4837432941804880e-02
      -1.7917769494476495e-02 -4.1667883489749827e-02
      1.2523423122860630e-01 -6.1529946877002866e-03
      2.7264103312615886e-02 -7.3621181704836322e-02
      -4.8855310751190942e-02 2.5957391350343434e-01
      1.6099734934836818e-01 -1.2047331274033111e-01
      -6.1133374422129572e-02 3.5025141240027126e-02
      2.4857360018905877e-01 -9.2774459513826346e-02
      3.7213131069227537e-02 5.8266968215994461e-02
      -2.4491164491985636e-02 -7.9731388724671046e-02
      9.7811717086198652e-02 4.9670723176899206e-01
      2.4292209028303707e-01 5.7757795710732932e-02
      -1.7244438887947433e-01 6.1426564168027817e-02
      1.3828546260780611e-01 -1.3679275646624779e-02
      1.1492268747333834e-01 5.1202046678432117e-02
      8.8440731493518415e-02 -5.4060660594553306e-02
      -3.9974365642910591e-02 3.8940531621688934e-01
      8.7150676596481902e-02 5.7949858032006737e-02
      2.7073413515018468e-01 8.1188355159308948e-03
      -1.7379168776766357e-01 -1.4540972869545268e-01
      -1.1230524883905799e-01 -2.0900906406721881e-01
      -2.9361131554077546e-01 -3.8282918010374395e-02
      -4.5764439704177491e-02 6.6865104084678537e-02
      -5.4995785217619053e-02 -1.0941752453445101e-01
      2.2764732418353259e-01 -2.1173053514356832e-02
      1.3887734170319060e-01 -3.9090487652011285e-02
      -6.6947293290716567e-02 1.5008107083085454e-04
      -1.0301257675849898e-01 6.7111881542087679e-02
      9.4349213584509192e-02 -9.5229720738592261e-02
      3.4685741528989827e-01 4.0399757728813900e-02
      -1.2930360197180771e-01 5.9431160529757998e-02
      6.7996785307250507e-02 2.0376087229324213e-01
      -1.3329353428053795e-01 1.0765938127036720e-01
      -3.5156570121062014e-01 -5.9209432863380429e-02
      -1.4457867677393535e-01 -8.8945350926801156e-02
      -5.9433898047215449e-03 -2.6462091966116499e-02
      3.9457975719491062e-03 4.0835170315632489e-02
      -9.6494950246902217e-02 4.6461035653733808e-02
      3.2529652867125669e-01 -3.1170311699334541e-02
      1.2388959809748842e-01 -1.0105050992721248e-01
      6.6194316158076402e-02 1.0642184645575512e-02
      2.5859089738705648e-01 8.4007916714518557e-02
      -7.7847675472307365e-02 9.2088317521266966e-03
      1.6398495570984897e-02 5.1492852699880430e-02
      -9.6486732017701651e-02 -1.3546171980063255e-02
      -1.0931245512844778e-01 2.4578928426446090e-02
      6.8559920743180375e-02 1.3412653484496756e-01
      1.2967540156869597e-01 1.3420311951667518e-01
      -5.1808711636193702e-02 2.1356468074033971e-01
      -5.4696970491737815e-02 -1.2640777662724664e-01
      1.8647202881780303e-02 -7.4382022002388873e-02
      -9.0401260438730036e-02 9.5421016171691062e-02
      5.2959071838698198e-02 9.0271564414442299e-02
      1.3404030391117991e-01 -6.4641290627669823e-02
      -1.4602550491462341e-01 -5.8248999855247063e-02
      1.9120478558999010e-01 1.4141724091432514e-01
      3.6078099086775967e-01 4.2246243439288789e-02
      -1.3554979168427562e-02 -8.5672376621578283e-02
      9.9244943058007670e-02 5.8344998608738027e-02
      -7.4170608771791505e-02 -1.4952991037374155e-02
      6.1599440073822516e-02 7.9542976351644179e-01
      2.0864903368107224e-01 1.1460079820179812e-01
      -7.2258902522722060e-02 8.8453147274543106e-02
      1.0789869435591505e-01 6.6896737878554671e-02
      3.1984977423275253e-02 5.3931442353825916e-02
      1.3820593632210834e-01 2.8440606654277913e-02
      1.9773177604919250e-02 5.1948394569409595e-01
      7.5467330572392452e-02 1.4289479138971825e-01
      1.6313695890222041e-01 -1.3172867251253738e-02
      -1.2718658658024698e-01 -1.7679206913782758e-01
      1.1799001370410771e-02 -1.1965814068462945e-01
      -4.6730151227054817e-01 1.3286230601108890e-02
      -4.6393679334192403e-02 1.4076919342390573e-01
      -3.0363574659099734e-02 -1.7299986264612790e-02
      2.0774004780525909e-01 -9.5132309791906497e-02
      1.2086038571832264e-01 -7.6128708015387098e-02
      2.5898749672536827e-02 -2.5294911495088841e-02
      2.5692887079483091e-02 -1.9232156315452786e-02
      1.9215442209510460e-02 -1.2141578994328096e-01
      9.7579257875753972e-02 6.1945698448915780e-02
      -9.0942341740545815e-02 2.6359543512739465e-02
      6.2123683220460038e-02 1.2700301545030304e-01
      -7.7515330369501437e-02 -7.4238896177062585e-02
      -3.1993915565455444e-01 2.1674667492764827e-03
      -4.1942972761850161e-02 -1.0812988891077528e-01
      -8.9657115714826666e-02 3.6495486342739858e-02
      -2.8688191117743922e-01 1.8354031308900609e-01
      -6.0126828307310004e-02 2.6902332698037705e-02
      2.3318329179632324e-01 -3.9856235676826432e-02
      9.2751786174434678e-02 9.2683697474389884e-02
      8.0104296339996786e-02 2.2714914612131423e-01
      1.8761245107806836e-02 -1.0543493080327397e-01
      -1.0352391944713722e-01 -7.3717858019127988e-02
      -9.0271977708619944e-02 -1.5985510570739159e-01
      -8.3501018023908080e-02 6.7096489550997146e-02
      -3.4097850527124468e-02 -6.2822797118346652e-02
      3.8290375292474491e-02 6.6472534903882038e-02
      -8.8673943596801585e-02 -7.7045988021344283e-02
      2.6225935798516453e-01 1.1700239023010195e-01
      6.4404490970581083e-02 2.4477176132559716e-02
      3.6704793496292261e-03 -8.6729046156147280e-02
      -2.8183305409354964e-01 -3.4118224458063375e-02
      -1.1197357572768814e-01 -4.2917719906703310e-02
      -6.6279747756626248e-02 3.4976418758338207e-02
      1.1490929715383097e-01 -2.2674520069993129e-01
      1.4009697610140552e-02 -2.0269919885651422e-01
      -2.6157137658471191e-01 -4.7650331474282938e-04
      -2.0979625715210279e-01 -6.9090071942636083e-02
      7.4726223842794870e-02 -7.4235453780454652e-02
      -5.6408743457157573e-02 -2.3182075887417228e-01
      1.2615348797973716e-01 4.1747452351464170e-01
      1.6134260159679409e-01 1.5584699987194900e-01
      -6.2683445457661705e-02 2.4060548111207447e-02
      5.5865595280082475e-02 4.1101910793431659e-02
      1.6991138091923853e-02 -4.8186775413729017e-02
      -1.3719925591577481e-01 1.5931882071310335e-01
      -2.6723454604673479e-02 2.1999765137495972e-01
      -2.9109792539015945e-02 5.6842887946663360e-02
      8.2832895698167028e-02 1.3538654123831856e-01
      1.2875463378570776e-01 1.2733760816827161e-01
      -1.3792128907218004e-01 -1.0180544376088900e-01
      3.8378753765502061e-01 -1.1938396088027790e-01
      2.9161409864291848e-01 -1.9773603067666487e-01
      -1.1036587966769790e-01 -2.8234897140573159e-02
      1.1412430246983507e-01 -8.9220602536100910e-02
      8.4366723249197237e-02 -1.0248099368056914e-01
      -8.8316716465280928e-02 1.2623637943500202e-02
      -6.3230201448583406e-02 4.2360890006926159e-02
      2.7737164222256055e-02 7.8861361463886642e-02
      1.2657638533289946e-02 2.7036189344850570e-02
      1.3962523528590695e-01 7.5762650265139023e-02
      -8.8069637680974838e-02 -1.3061368760663347e-01
      -3.5936623668956488e-02 4.5219575508682171e-02
      -9.8713210355801023e-02 -4.3014843844835712e-02
      -2.4330734604939946e-01 -5.8580729229116106e-02
      3.5808058256966674e-02 -2.1745694918573723e-02
      -2.1179248651811516e-01 -5.7898217966148635e-02
      -7.9794792916296264e-02 8.7844039163026050e-02
      -5.6007742994860765e-01 2.8162772936806080e-02
      5.8927446698366290e-02 -1.1076104436083094e-01
      6.1583447982131161e-02 -7.5151792110641977e-02
      1.9538093857296879e-01 4.0345304894182088e-02
      3.5330504423307291e-02 1.8862644433732503e-01
      -8.6299936772383914e-02 -4.1675237505760535e-02
      -6.5766750623578729e-02 -7.9666868776614830e-02
      -1.3907313738267094e-01 -2.2830714132443253e-02
      -3.9273897593066889e-02 1.3462849119345940e-01
      9.2669159047458247e-02 2.6764468133136904e-02
      6.3016894546975788e-02 8.3704776267662040e-02
      3.3346366295101418e-02 -1.3604586355183781e-01
      5.8221054802366883e-02 -9.7771480991158677e-02
      2.9519051692470781e-03 8.2057083077647364e-02
      -1.4410304376361665e-02 3.5350917201037994e-02
      9.6264533298619753e-02 -5.6954165229771682e-02
      -7.2665168813600842e-02 2.5787233101403595e-01
      1.0096267925469591e-02 5.2685097202237595e-02
      -8.5663813607341766e-02 4.4685806924254348e-02
      -6.7991031583082978e-02 4.3729354247399547e-04
      8.1934561786210766e-02 1.2669283946014342e-01
      -1.1197499959306910e-01 -5.0602484610801850e-02
      -4.8508045343175675e-02 1.8849956052761280e-01
      2.5346097015251662e-01 8.5393797800688964e-03
      2.6767554354003461e-02 -6.6431269827604056e-02
      7.8443987902836590e-02 -3.0047260838406590e-02
      2.8620494642319344e-01 4.9157840067162943e-02
      9.8795779901057798e-02 -1.7838683334964614e-01
      -7.1105206641245963e-02 4.2578187382488031e-01
      2.4626586526793290e-01 -2.3937213808372500e-02
      4.1244303403843019e-01 -7.4884037226948544e-02
      -1.0423379740547906e-01 2.7460856180646148e-01
      5.2156999754793432e-02 -1.5031877022705255e-02
      -2.2394114764435241e-01 3.6976805972669009e-02
      -1.4302630885855641e-01 5.1070376428692422e-03
      -9.6615195135521803e-02 -7.1436328567889035e-02
      -4.8521541486607749e-02 3.7140727357246134e-02
      1.4228041909063271e-01 9.9112379998752678e-02
      6.4713363770705190e-02 -3.7539486312585475e-02
      -1.0549048566309047e-01 -8.6426041313841157e-02
      1.1817979937194781e-01 -1.3851947473464571e-01
      -1.4907284910334229e-01 1.2559352890540679e-01
      -8.0621968588230022e-02 -1.0123226229920711e-01
      5.8947552940304604e-03 -3.3803689443604144e-02
      6.0124424233093623e-02 -8.0725203221220898e-02
      -1.9908372859111956e-01 8.0768083075900082e-02
      -3.2897598542375722e-01 -6.5517514565753845e-02
      -1.7689419429954475e-01 1.8120210596488692e-01
      -3.0278098698471317e-01 7.2170414758044393e-02
      -5.2443194744958378e-02 1.2293999218893910e-01
      1.1160735367328155e-01 3.9149979896815679e-02
      7.0179629400531282e-02 7.4022534288026381e-02
      -1.8796998663548625e-02 7.7242971973360122e-02
      1.9831549557825204e-01 -6.7885159669628728e-02
      4.6614864787927549e-02 -3.1061373215557839e-03
      -1.0935719702373919e-01 -3.2486894701331377e-02
      -1.1738124065558939e-01 8.4827843770728800e-03
      1.8036491076448637e-02 -3.2566659590763991e-02
      -1.5248796586157168e-01 1.9573764487263143e-02
      1.0140973878939630e-01 -3.4514885975535849e-02
      2.1123990204262999e-01 1.5969245692175055e-01
      -7.2692980074448063e-02 -8.7460167417285378e-02
      1.1090866576599238e-01 -8.1736262123061634e-02
      1.8418711509395436e-01 3.7141665589375695e-03
      6.9919402992224516e-02 9.3216626178257850e-02
      -1.5076136654756213e-03 -7.3742015406447772e-02
      4.5986541403614377e-02 1.0822735470856974e-01
      -1.1319404760379957e-02 -7.6946695978691693e-02
      -1.7582425741943516e-01 2.5713074344281106e-02
      2.4025525213275126e-01 -3.5232209357403642e-02
      4.8598376302383700e-02 -7.7620674778823336e-03
      -4.7020558889479550e-02 -5.1602971488780784e-02
      -8.5932840206331254e-02 3.3396169136063647e-01
      9.0259946247684936e-02 1.0891661505693165e-01
      -6.7350419458832106e-02 -4.2279328884900380e-02
      6.9455732926807873e-02 7.4671026609521282e-02
      1.1227235201389184e-01 -8.8820697746728794e-02
      -1.2459706955830611e-01 7.7108422312135327e-02
      -5.4027011742604387e-03 1.2947008938621135e-01
      5.5846543727901522e-02 4.6103527629527278e-03
      -4.3042923571663901e-02 4.0866616226526084e-02
      -1.1285117089789902e-01 -1.7480495585714667e-01
      7.9152926318440953e-03 -5.1242936038534269e-02
      8.9156529339444468e-04 -1.9939874026077990e-02
      8.3179987969260016e-02 -1.8603334601051127e-01
      -7.6825526844457370e-02 2.0242853737663647e-02
      3.9897697982123975e-02 -1.5074326238856788e-02
      -2.3827821622555818e-02 -6.8211063169711636e-02
      -8.0098510077497187e-02 3.4307660531165067e-02
      -5.3148840422158998e-02 1.7380197485670740e-02
      -1.0556503147918113e-01 4.0851139795067007e-02
      1.2304558058563066e-01 1.0847478698099999e-02
      -4.0483680596587648e-02 1.7939854006275974e-01
      -3.4392808244421633e-02 1.2090432172257819e-01
      -1.3583469014610258e-01 -1.7348985235213103e-02
      -8.2739178333252811e-02 -9.2055024836480426e-02
      -5.1016208988267371e-02 -8.0552816974769820e-02
      -1.0123640896183186e-01 -4.0226568894726838e-02
      -8.3498935496594970e-02 1.9298117328917182e-02
      -9.5034008468514897e-02 2.8004717281973471e-02
      -4.7797503355714621e-01 -4.3622373679032059e-02
      1.1505697031222502e-01 5.0352024100836475e-03
      -8.7192549260740382e-02 -5.1139370906448586e-02
      1.8711508257541395e-01 5.8697529729052511e-02
      1.2204371778820276e-01 2.7464087588477237e-01
      -2.6087026967929479e-02 3.3901569842922807e-02
      -2.2092134385056587e-02 5.5004382014435707e-02
      -3.7037103394807057e-02 -6.4055143444791372e-03
      -3.9989432653851201e-02 -2.1139105376520285e-02
      1.1935945671830973e-01 -7.7115845788633508e-02
      9.9511361147896257e-02 -5.0369280184822715e-02
      6.6981142448367028e-03 -4.7197174247812820e-02
      1.1564074392982079e-01 1.0081651163160867e-01
      9.5036540668598193e-02 -1.8257017960055524e-03
      1.5552533587454915e-02 -1.5227042075600730e-02
      -2.3830620361558304e-02 3.3021752976398616e-02
      -3.4869264955731658e-02 2.7809051015839070e-01
      2.5548489832925132e-02 -1.0827184397947612e-01
      -2.5631081349959428e-01 -5.3068703866283533e-02
      -1.6630437098989478e-01 5.7393694969994302e-02
      -3.8910153048699048e-02 1.9701769969355998e-01
      -1.2948219265148853e-01 -3.3086895536034173e-02
      4.6545886896962999e-02 2.8419271970956073e-01
      2.0211899666222718e-01 8.1034227092642755e-02
      -4.3702872326784145e-02 3.8497420107873937e-03
      6.4648037148369572e-02 3.1640965438367828e-02
      -4.4271038644319818e-02 -2.9014299087003113e-02
      8.8801120755396257e-02 -5.6206286072658929e-02
      -3.3541122585728070e-02 3.7595723667925862e-01
      1.0883941284391004e-01 -5.2197166273145346e-03
      7.5993197743794844e-02 -1.9056384193953921e-02
      2.0842707831266488e-02 -1.8019133911331484e-01
      -3.7879678940833730e-02 2.0079499939164368e-03
      1.6169293676876351e-02 -4.8700137042992850e-02
      -6.2425408645246337e-02 -5.5038571327353673e-02
      -1.1510740226431947e-01 -9.6820101448302900e-02
      -1.5756281466774863e-01 6.3720714954841204e-02
      9.1546351503563161e-02 -6.6300041218783551e-02
      -1.2580936640589074e-02 -3.9659698075601747e-02
      -7.0046691917395765e-02 -7.7544379982257938e-02
      2.0128099019682062e-02 2.3676373347385281e-02
      -1.5777177554911770e-01 3.3478925168351562e-02
      -4.7109284673970193e-02 3.8179965255513586e-02
      1.5872510181506380e-01 -1.5650465788509085e-01
      -6.5394910805313428e-02 2.4060256819934144e-02
      -1.7133597027415887e-01 2.8117479918550306e-02
      -2.5952926026608218e-03 -1.0296929192720249e-01
      -1.0668653219566618e-01 1.5847172628792752e-01
      -2.7537948240142340e-02 2.3832326210229706e-02
      -1.1196972254096800e-01 1.0549943840083931e-01
      -3.0393556460006094e-01 -1.5199486453053690e-01
      4.3211914320095517e-02 1.4013681899301217e-02
      -3.5079713643670934e-02 -3.6561663457254027e-02
      2.6148497929195302e-01 1.0534749072450469e-02
      -1.0335926890001741e-01 4.2984204388205459e-02
      6.8709904074057082e-02 -6.4619185669362519e-03
      -1.3481927261539803e-01 2.8882967316657578e-02
      1.8019331832113190e-02 -6.8700393821390926e-02
      -4.9810312419499306e-02 3.6205245921591038e-03
      7.4750259700705687e-02 -2.5515734233002435e-01
      1.2869625301075266e-01 1.2996839542938149e-01
      -3.5393815006976810e-02 -1.9467752958925783e-01
      9.5812089550191964e-02 -5.0166654443727920e-02
      1.4472408515322305e-01 8.7352001865564230e-02
      -1.6599047364843966e-02 8.0527022884711082e-03
      -1.4445187336041398e-02 3.4028344596687479e-02
      5.1604613800727422e-02 5.1249603102628459e-02
      -3.2327016562866108e-02 6.4968095305183212e-03
      -3.0235965010978044e-01 -1.1601106871653315e-02
      2.4911333257052307e-02 6.3794660743659894e-03
      4.2559780956532636e-02 4.0560700380015274e-02
      -8.3357169947056137e-02 3.8830499582700073e-02
      6.7661515089157589e-02 2.1699014552070145e-01
      1.7172455757307198e-01 1.5534818101188477e-01
      -1.1813031251646293e-01 -6.9827417278972136e-03
      9.3256134544394478e-02 -3.1859391542929265e-02
      1.6563642712321755e-01 1.0453191649035186e-01
      4.3470320623344896e-02 1.5233567760018508e-02
      -6.5616133647794117e-02 1.3938843175663643e-01
      5.9231579644869220e-02 -9.7534930863782801e-02
      3.1353901423316199e-01 4.5678118404313239e-02
      -5.0929382286074715e-02 -1.9867808843048337e-01
      -6.0662553355760603e-02 -7.9571058900837016e-02
      2.8354312207095510e-02 3.2660278059202311e-02
      -1.0311585927265672e-01 -3.5465674771117665e-02
      -3.2476735051256221e-02 1.0363696469716895e-01
      -4.6223772619991922e-02 5.1769298501568806e-02
      1.2388148663863527e-01 -1.1070069116748835e-01
      -1.0468631795887684e-01 5.7870018562439784e-03
      6.4194329216477747e-02 5.6777538750260398e-02
      4.5261781289466577e-02 1.5691189453486108e-02
      -3.7220934118627119e-02 8.3648683730506448e-02
      -2.1028530528013768e-02 9.8958043685096558e-02
      5.0150174553771909e-02 -8.9994069489421458e-02
      -2.0679249284979166e-02 5.1658053268364163e-03
      -2.8317518105732287e-01 2.5649459802505738e-02
      -3.6457028332131693e-02 -7.4384774137895848e-03
      7.6730158996963140e-03 -5.3521419734515741e-03
      -9.0968562759881411e-02 -7.2994764672651313e-02
      -7.6674522322771124e-02 6.6708109123514159e-02
      -2.6816795972233534e-02 -2.8994621096416026e-02
      2.9222710183199777e-02 5.5114385393366903e-02
      6.7117523464231086e-03 -1.4932786656262842e-01
      1.7563711354793013e-01 1.5792966103699260e-01
      -5.8717431128367942e-02 1.0399186277385685e-02
      3.6488055737298963e-02 -3.5404022158635029e-02
      -1.6680012201047975e-01 1.3864953776181065e-02
      -4.0630038706081090e-02 3.4520578879427818e-02
      -1.1744717104163241e-01 1.2501294016943823e-01
      1.6769624943496447e-01 9.1165541233097627e-02
      -2.5522880873875459e-02 1.3118707512254368e-01
      2.9678158587020831e-02 -2.1479462878082689e-01
      8.4011597088990350e-02 -7.6462794339887730e-02
      1.4828760893858203e-01 -7.4323055599303661e-03
      4.5643092659034004e-02 5.1851065033418672e-02
      3.6008582100526758e-02 4.8397521500852109e-02
      9.6787520997658697e-03 4.8842765795423952e-02
      1.9428863633221868e-01 -2.4792477712011368e-03
      2.5621755150507375e-01 2.1380639850905665e-02
      -3.9192645089404940e-02 -6.5741528220067250e-02
      7.0861531007034934e-02 5.8189333593516003e-02
      -1.2181477543024352e-01 4.3544197453667388e-02
      5.4944512057829742e-02 2.7191979509096076e-01
      1.8116746866236433e-01 7.5165263311071359e-02
      -7.8301133080798349e-02 8.2779253341020158e-04
      2.3548079604320837e-01 -3.6685491708164625e-02
      1.3668998099462984e-01 -4.6474386625304169e-02
      1.1298298719010978e-01 -1.2205583059245903e-01
      6.5556093249046293e-02 2.6341962539340812e-02
      1.1289104383707214e-01 -5.6351733720084854e-02
      3.0323153810086950e-01 -7.1310468163618940e-02
      -2.8989641140091688e-01 1.9421945841574517e-01
      -4.3643105910985615e-02 -1.2302690147694860e-01
      -2.0125733990046454e-01 2.0089454654001485e-02
      -2.6475187753322527e-01 3.8411005097091104e-02
      8.0382834977470331e-03 5.4198121550563258e-03
      -3.7962242937224236e-02 1.0917703517364312e-01
      1.1819836597453265e-01 8.9778009437089426e-02
      -1.1765989730168745e-01 -1.4394115900604382e-02
      -4.7423195689270649e-02 5.5465349125999406e-04
      -6.4755750421655212e-02 -1.2169112663984426e-01
      -8.2476400921184537e-02 1.1286081909315906e-01
      -1.6793463547664492e-01 1.3579136377849746e-01
      1.1378306903401515e-01 2.0816571372181333e-01
      1.0236896044428072e-01 1.0298694933440213e-02
      -9.1232115790103555e-02 -1.2159955804984653e-01
      -2.7134966678852862e-01 -6.9431246538655414e-02
      -1.1257125169915502e-01 5.5326007057027962e-02
      3.3340953688776216e-02 -1.6876875275153917e-02
      -4.4793341997597928e-02 -5.3591660896537004e-02
      -2.1970642788534117e-01 7.3364907485592379e-02
      -7.1177242021398093e-02 -3.4435033978685199e-02
      1.6455572234351557e-02 1.0575556091164016e-01
      1.0607992582639093e-02 4.9154636298619381e-02
      1.5197442554295712e-02 -6.3288752397297532e-02
      6.5494002291441436e-02 4.0281638354159800e-02
      -2.3585718789412419e-02 4.3625705617531775e-03
      9.6343193824067599e-02 -9.5689596690230478e-04
      7.3576029088326675e-03 1.0744833571518998e-01
      1.1050459066333349e-01 -5.7423369558747628e-01
      3.0037962846574690e-01 2.2598028583692562e-02
      -8.3602476554879318e-02 -8.8043620487141927e-02
      -1.2310589956509448e-02 -4.0913570188678319e-02
      7.2494980787327398e-02 6.9361782444535530e-02
      -1.3266673999355999e-01 -3.9773392033236156e-03
      3.3158002623611710e-02 -5.3723576863096686e-02
      7.1883161052417058e-02 -1.2794312499389655e-02
      -6.7256240277686646e-02 -9.9067030278498329e-03
      -6.1471396768324649e-01 -8.7076750442292766e-02
      1.5541799494548597e-01 -5.3242978864945376e-02
      -3.3250734749711415e-02 -8.3533289125268528e-02
      9.3092465145670794e-02 -9.8445903610490677e-03
      1.0188243290067668e-01 1.6507288675838502e-01
      2.7871315989923592e-02 1.8174558543277691e-02
      -9.4271045849298619e-03 7.7840118065404640e-02
      3.5077817298934041e-02 -3.6979596877214069e-02
      2.0606754298628757e-01 2.8924507094804805e-02
      -7.6926195739720690e-02 9.2705740157924127e-02
      3.1303189013921390e-01 -1.1539637228568678e-01
      5.1340806468961248e-02 -2.3577057902512376e-02
      2.4667237111770651e-01 5.0727882355326645e-02
      -1.5517176738280838e-01 2.4175344258102674e-01
      -2.0197786953366189e-03 3.3258120911178642e-02
      2.8028533701673725e-01 -1.0975548768531149e-01
      2.4453872694480461e-02 -1.8209462744819482e-01
      2.7443374178104441e-03 5.6820568505060016e-02
      4.9890890237539419e-02 -5.9577968421989827e-02
      -2.5496909188902909e-02 7.6380172838701951e-03
      -4.4532932341557238e-02 5.8472709560700067e-02
      5.6485150636494397e-02 6.9353796750725491e-02
      7.9945248927683343e-02 1.0286685059363093e-01
      8.0332368153430297e-02 1.0278182581178735e-01
      1.1488416105147840e-01 7.3554076315412553e-02
      -4.8771007733409068e-02 6.5988447402909350e-02
      7.4636564101632663e-02 -4.7537540815418687e-02
      5.8922800854900169e-04 2.5500708833904633e-02
      -2.4765012757498839e-01 -4.6436957034771395e-02
      1.0611077040930412e-02 5.4699532749306633e-02
      1.6022916162121748e-01 -6.3035724058544379e-02
      3.2437988449817240e-02 1.6513943633115300e-03
      -1.5471817368014076e-01 1.8235076709112754e-02
      8.7752733864087835e-03 -1.2850427994971728e-01
      1.8391864917887805e-02 -2.2768881371514924e-01
      2.5904533669829760e-01 5.9031228311954370e-02
      7.5532247019198653e-02 6.9936754674035831e-02
      1.2999569914509707e-01 6.6821132942533945e-02
      -2.9774769561885090e-02 4.5460222658590115e-02
      2.6142964178980384e-02 5.9949391595198430e-02
      -8.2130750179031636e-03 2.3157993424554487e-02
      1.6771375709048145e-01 -6.4126416844508302e-02
      -4.6905263614954651e-03 2.0642246757950819e-01
      1.2103582897970060e-01 -1.6569781520306165e-01
      -7.4834307399640190e-03 -1.4545344382927549e-02
      1.8667978440786812e-02 1.4510335577098066e-01
      -3.0542020122294809e-02 1.1849615776445604e-01
      1.0694766376975705e-01 -6.2640430437272493e-02
      2.5235888408362884e-03 1.5871625486228599e-02
      -1.3474012829507487e-02 1.5551862388253690e-01
      2.0432622021371610e-01 9.8575888489624147e-02
      6.7203378927358948e-02 2.5158791137174031e-03
      -4.4057011473015432e-02 1.4194130038401370e-01
      2.9744175173715907e-02 1.6301266535925158e-03
      -3.0159922190966169e-02 4.1910002791939216e-01
      1.0385383957861799e-01 1.9843654312446952e-02
      -2.0804838309017342e-02 7.7629562503154767e-02
      1.8491544669341003e-01 4.5695162595593142e-03
      1.0736589653423738e-01 1.0721789770181558e-01
      -2.7392881551085457e-03 5.2750471856534274e-02
      4.4253200438539386e-01 -2.7808179987693649e-01
      6.5824799728869954e-02 2.8412327342378751e-02
      2.1486317127553337e-01 -1.8583039231536194e-01
      -4.4586084579177587e-01 -7.1447766551241007e-02
      5.9760516190224315e-02 -3.7584067950987496e-02
      -2.4764710134491771e-01 1.0630579361929277e-01
      -1.4482416207439180e-01 1.7866851696744532e-01
      3.5157227317332645e-02 -2.1041920093215594e-02
      8.8453776650800009e-02 -3.9594566447072162e-02
      1.1489500584197270e-02 8.6990790380750832e-02
      3.0706694566631762e-02 -1.3132895250784982e-01
      -5.0486653378785454e-02 -3.3792496654847015e-02
      1.0576180659383645e-01 4.7287266684024026e-02
      2.4614738647848125e-01 1.0040140326851825e-01
      -2.8577013568408704e-02 1.6127780275175002e-02
      5.8920899141200071e-02 3.4110400007966640e-01
      -3.7065679983276883e-03 -2.9443038129603655e-02
      -1.4828626280126242e-01 -1.8824379947611630e-01
      -2.2788488867456239e-01 -6.6862043067361654e-02
      -1.3467932731591373e-01 6.5073635484508133e-02
      9.0484379143875776e-02 -7.4076634388374918e-02
      -1.3062747554025362e-02 6.5714322468972131e-02
      1.7679815908978941e-01 -6.5817967425984128e-02
      6.7467837586711960e-02 -2.8998306548717382e-02
      -5.6302799772437108e-02 -1.2130426956787331e-01
      2.2622488919010600e-02 -8.9906456601130322e-03
      -6.6054493580666035e-04 1.1155848141193600e-02
      2.8490577271160028e-02 4.1548586442986389e-02
      -2.1451766501047236e-02 -7.7479946869931690e-02
      -9.5768992202896544e-02 -9.0536957417100938e-02
      -1.4221987306842947e-02 4.2086720724441896e-03
      -4.7128997762539766e-02 -7.5154227383534625e-02
      -3.0488184178850495e-02 1.8617515309109969e-01
      -1.5489612935441941e-03 -1.0335034409537212e-01
      4.2207936556576293e-02 -4.5175732686405595e-02
      -9.2176145292674608e-02 -5.9709378694952826e-04
      2.9572216585384781e-02 1.1709743124394699e-02
      5.7252580822154037e-02 -1.0097376783985174e-01
      -1.0804275508228833e-01 -3.7580478229317114e-02
      1.4409169058796811e-01 -2.4712524001920751e-02
      3.3131846145624805e-01 1.2561894969087395e-01
      2.9340063689584583e-01 -3.2465406658903788e-02
      8.8461218631086469e-02 1.2604199343464251e-01
      4.7439498226787551e-02 5.2631243256657877e-02
      -8.6231469079414022e-02 4.5262050746817127e-02
      2.5682996999867486e-01 1.5178515063303635e-01
      -1.3104603617902933e-02 5.6581278463986029e-02
      2.2916224951864664e-01 -5.3589696505206091e-02
      4.9755325314997188e-03 -6.1610179768574871e-02
      1.3179786339319513e-01 -6.0218848175709987e-02
      -2.7811011579050113e-02 8.8496652841925760e-02
      1.1298880291748187e-01 -3.9514870422150170e-02
      4.0762428920855159e-01 -1.4790444231490530e-02
      -2.9867314123888655e-01 -2.3628512554215275e-01
      1.1056308794663516e-01 -5.2216283115619197e-02
      -2.6923692260093207e-01 1.0031840302298785e-01
      -1.3728685598471330e-01 4.3630674174887939e-02
      -4.6830461370836227e-02 6.1186171197816379e-02
      1.3218736614598298e-01 -8.8004470693614667e-02
      5.6239836813378741e-02 4.0144860793990066e-02
      -1.0420629200709740e-01 -1.5438305610424463e-01
      -4.5455761967997908e-03 -1.6311098929389544e-02
      1.1863459343511620e-01 7.2443448455828119e-02
      6.7173034740447737e-02 1.2590661459586658e-01
      -4.3982804310292632e-02 9.7111657371714163e-02
      1.4220141543291148e-01 1.5977049361804338e-01
      4.0259206031502653e-02 2.2965336876209337e-02
      -3.5894429347772694e-01 -1.3896209857527614e-01
      2.5679446448988147e-02 -7.6077638392355471e-02
      -8.9291067075770447e-02 7.4218227803124134e-02
      2.6080199375099589e-01 -1.5332961427848573e-02
      -1.1110525295762534e-01 -5.0050014727179980e-02
      -2.7326392851063308e-01 -1.0707780558903986e-01
      6.0728430398395102e-02 -4.0887545218070635e-02
      -1.3788731628738063e-01 -2.2158649973014499e-01
      4.2535128254174846e-02 9.1141419218510565e-03
      -5.5265504362331561e-02 1.2898547631555607e-01
      2.0530450819828513e-01 1.5317830106239433e-01
      2.6993389592214125e-02 -1.7781897225931390e-02
      -1.4206566536498885e-01 -7.3928178386658938e-02
      6.9599328813252634e-02 7.7298512791768942e-02
      4.0395408067916749e-02 -3.9774414852703222e-01
      2.3302619196356508e-01 1.0997611740179256e-01
      2.8159100960991352e-03 -1.2885926439134163e-01
      2.2407366545282744e-02 -1.7249853263968950e-02
      1.6684421362817523e-01 1.2091684661042321e-01
      1.7698888645296691e-02 -1.1947137968667013e-02
      3.2341248498078561e-02 -3.7166816103535366e-02
      -1.1404953875263514e-01 -7.3862805954450619e-02
      3.6447617028073073e-02 9.5133189676261803e-02
      -6.2719839751142079e-02 8.4037365154419799e-02
      -1.0129131075334628e-01 7.8465093401177952e-02
      -9.3692433110975276e-02 1.0550652129166742e-01
      1.1400716935521030e-02 1.0027313222896637e-01
      1.9207339967450575e-02 4.9717379372503451e-01
      2.4243566626413263e-01 1.4315909759015438e-01
      -3.8938979576511414e-02 -2.5353816216464545e-02
      3.4684185866220567e-02 -4.9695263124183389e-02
      -3.9083622194662361e-02 1.5706196663884267e-01
      1.5919517199721983e-01 -1.2531985155789535e-01
      2.7474289682803882e-01 2.1624594849361863e-02
      1.5962289656369786e-02 -7.3484336658048099e-02
      4.2469585096888068e-01 -2.3555036923437458e-03
      -1.8246807183674946e-01 -2.5356603501089187e-01
      4.8578070669017176e-02 -5.9751353185678806e-02
      -1.1686486154526687e-01 3.6687707027477659e-02
      -1.5604866516700028e-01 2.1469888235217535e-01
      -9.6935091637756862e-02 6.3146943292429397e-02
      -9.8262841495263389e-02 2.0035803932596592e-02
      4.4947860869014110e-02 -5.5762647554133619e-02
      -8.4408562040133847e-02 -3.9323522232880478e-02
      3.6218362071534983e-02 -9.2618321510065882e-02
      1.3454132377089298e-01 -5.4003086302201728e-02
      8.4190823742785525e-02 1.9088165247618655e-01
      -1.0008922955025054e-01 1.4531642855777774e-01
      1.0584809390557866e-01 8.7058243161812807e-02
      -3.2357698696456501e-02 -3.1526379125746115e-02
      -1.5652004803909411e-01 -1.0845888537523850e-01
      -1.4478182528832634e-01 -9.7652144475523214e-02
      -8.2644710009371208e-03 9.9244574190446064e-02
      1.0803022637723970e-01 -6.7871851498288987e-03
      -4.0127340963804548e-02 -3.1819493113488286e-02
      2.3742852641776777e-01 -2.6079124592721027e-02
      5.4670605567539970e-02 -3.9447533971325451e-02
      -1.4246010814734233e+00 2.1258013669570242e-02
      2.0873569243199736e-01 7.0739493323808134e-03
      -4.8806293046604360e-02 -2.6924901303690664e-02
      -1.8681760333268804e-02 -6.5525973311321914e-02
      -1.8049818218351871e-01 -3.2587934757256076e-02
      -1.3564155251528473e-02 7.5516995295240946e-02
      -7.1232817393714065e-02 8.2369260333514424e-02
      1.2581895169618332e-01 1.0736810812222636e-01
      1.0097874092780432e-01 7.8695457606388228e-02
      -2.2710419073940870e-02 -1.2448675914677307e-01
      9.5592038445230024e-02 -4.6520502800411714e-02
      1.4485018850895548e-01 2.5182359165650370e-02
      4.8436229430436711e-02 2.2888745307764625e-02
      -6.8899841606934638e-03 3.3403527131443782e-02
      1.6916111108735258e-02 1.2443653687761204e-01
      1.9118489464131977e-01 -3.5589590147254206e-02
      -7.4016001444775215e-02 8.1661554155294289e-02
      -2.5349785905658839e-01 -1.2765420255318129e-03
      -4.0730189762540676e-02 -3.9693513486013875e-02
      9.9842169709057297e-03 -3.1776607641039310e-02
      5.1145681738637851e-02 -7.3039316671554710e-01
      -3.3535194759494694e-02 4.1810639505312670e-03
      -1.9482814153775488e-01 1.2952929284998205e-01
      9.1211414386998917e-03 -5.0404100425322958e-03
      5.3845377627512991e-01 3.4164298368232614e-02
      1.7170341219736589e-02 4.2127623903720990e-02
      -1.6867714634078862e-01 7.7125611966918117e-01
      -7.0321606840168700e-03 -1.8246703775978955e-03
      -2.2943240053489200e-01 5.0128349691844331e-03
      -1.4868918137226843e-02 2.2725413927561267e-01
      -6.1038785027641346e-02 -1.0341211836121347e-01
      -3.4985315853279192e-01 -1.1667217246960646e-01
      1.1679389527342666e-01 -7.8007994694240759e-02
      -2.1715846151357077e-02 8.5382556085723574e-05
      2.5079975802543023e-02 3.6073287406184679e-02
      -2.3067116072001195e-02 1.0659098708637359e-02
      2.8687502187688511e-02 4.1935137104945897e-02
      1.6711308286895751e-02 1.4864654025091691e-02
      7.5897627501783846e-02 -1.0371844195508073e-02
      4.9153232914192851e-01 -7.7800863207496997e-03
      1.3440955529971559e-02 3.8966240875621221e-02
      -6.5993468739205668e-02 3.9260771381865893e-02
      -6.3235476993279721e-02 3.6012592339612188e-03
      2.3837018080557090e-01 -3.7849768365279216e-02
      -1.9534524901345923e-01 -1.1270458290252977e-01
      -1.7717550694639494e-02 -8.1220631511766922e-02</_>
    <_>
      9.3492417956552290e-02 1.8603106343723524e-01
      1.4545785448777887e-01 4.3824156355564747e-02
      -2.6277661102595840e-01 6.5309375839556083e-01
      2.2137076956626724e-02 2.6843245029379975e-01
      2.5443862758516800e-01 6.2483961705033661e-02
      1.3752037923747129e-01 2.4174382068683253e-01
      3.8039922885627520e-01 -5.8054829979221900e-02
      2.0919400150055245e-01 -9.5599997731239159e-02
      2.8501596435426640e-01 4.8089037706716145e-02
      2.7311765268292154e-01 -2.7021762096527707e-01
      -5.2387346537126789e-02 -2.8423482266864072e-02
      -4.9402563350417034e-01 -2.1314939414217621e-01
      1.1010821086284414e-01 -5.0044062343432394e-02
      -2.0555386239806467e-01 1.0440771880105436e-01
      2.2181618177423881e-01 -6.2333089046377757e-02
      1.2154059938489093e-03 -1.8270418389315893e-01
      8.8417893438688222e-02 1.6472459213842480e-01
      4.8251824012795007e-02 -1.9466175767093467e-02
      8.6273853968845654e-02 4.3729409833579341e-02
      1.4164028429457221e-01 -4.4981204050178192e-01
      -3.0963571774707721e-01 -1.6845209301873504e-01
      2.1182404197878774e-01 -2.5320102092539126e-01
      1.2357375196914656e-01 5.4015844834185513e-02
      2.3000631989459810e-02 -2.9941035851278364e-01
      -9.7962214209564857e-02 1.4259618944342067e-01
      -2.6310169984215465e-01 1.2226697040878871e-01
      1.0881363768655961e-01 1.8598917269835663e-01
      -9.3272244254744313e-02 -3.2026606240524363e-01
      1.7955357903595026e-01 -9.9055529239337664e-02
      -1.2808628522584983e-01 -1.3802677959190801e-01
      -1.0013659398168398e-01 -7.7088798367978606e-02
      -2.0717024930953148e-01 -8.7174381259937400e-02
      -2.9685483737852603e-01 3.0966949318327653e-02
      -9.2559908497647864e-02 -2.7275696322656442e-02
      -1.0107483904116015e-02 4.2163100490555427e-01
      -2.3693516818401941e-01 1.4343882486359819e-01
      -1.2174252415143384e-01 1.8831064047002727e-01
      -7.5614896244934782e-02 -1.6180064586413981e-01
      2.4842625970581074e-02 9.4480243744756359e-02
      1.3322472628326276e-01 8.9913222098266729e-02
      -2.5120988997330634e-01 3.6349080434041714e-01
      -2.9287875704917005e-02 5.4742314509669654e-02
      -1.3033687448135239e-01 2.6182347799199902e-02
      -1.2016053082307743e-02 3.2815106908904995e-01
      -1.6033467015298845e-02 9.1329474492286691e-02
      -9.9395837456445729e-02 2.1163270621736285e-01
      -3.6537918141061276e-01 -5.4345390741899834e-02
      -3.7561433803112179e-02 1.2927495867734273e-01
      -2.0835904679057840e-01 -1.2490011433591200e-01
      1.6858318515462933e-01 8.3474432395334669e-02
      1.6293054190924555e-02 -1.8004059173107267e-03
      1.7869582438687900e-02 -1.4620438994771445e-02
      -6.4957239625830665e-02 -5.4146771904858788e-02
      6.2417842904782684e-03 7.5588724683029143e-02
      4.0957833411796617e-02 -1.7444084190158351e-03
      -1.0936766773820145e-01 3.0848412547682197e-02
      3.9900021121483456e-02 2.4091173968567494e-02
      1.7593264049335110e-02 -7.6556155436317483e-03
      5.4382869553333733e-02 -7.6350120213787729e-03
      9.9092835940890415e-03 1.5975211852125526e-02
      -4.7924438310459451e-03 -2.7411865614040295e-02
      -8.0892563242116119e-02 -3.2203111799370125e-02
      -1.4259283416784599e-02 -8.7438270828659008e-03
      -1.9825044831998231e-02 1.1966214977402422e-02
      2.9725106266497114e-02 -1.0550536442463627e-02
      -2.8370895618191672e-03 -5.4264128919880451e-02
      3.9940678318216138e-03 2.2603747275733829e-02
      5.5916845582300666e-02 -4.1761962821910616e-02
      8.9886430167863740e-02 2.3056132687222417e-03
      1.1876846761774203e-03 -2.3180331511267551e-02
      2.0566915692652371e-02 -3.9701845261052738e-03
      9.1221696803143223e-02 -2.4482729419196620e-02
      -5.7715292104353090e-03 9.4313711434464653e-02
      1.3371058777928277e-02 -1.7549020226328059e-02
      4.2653593603188850e-02 4.6507148001502095e-02
      -4.4380735539412665e-02 -4.6209840813676781e-03
      9.9760104387358623e-03 -1.4995944761710664e-02
      -1.6884652170936289e-02 -3.7299737158649086e-02
      -2.6839779887836739e-02 -2.9245639880611671e-02
      -4.2732260019044337e-02 -2.4491404595299651e-03
      2.0557334143097031e-02 -3.9217314100944145e-02
      -3.7961775630691620e-02 1.8261465261249537e-02
      2.3643570136720984e-02 2.6136886001329903e-02
      3.1022859262093336e-02 4.8080522085665052e-02
      -3.1788847379087215e-02 9.1074465456389368e-03
      -2.2567603025768868e-02 3.6839633539238114e-03
      -4.0485210943599158e-02 9.7677030743312920e-03
      -1.6972069751847282e-02 -3.4006620469561148e-03
      -3.0663644049159420e-02 1.8765955751416045e-02
      1.4839454691091120e-02 4.9268494027458573e-02
      1.0661259373898719e-02 1.8448761176968020e-03
      -2.7087962572122450e-02 3.7925205240094679e-03
      -6.7622587221769573e-02 -9.5847984757770814e-04
      1.6571232561939910e-02 5.5130455518487151e-02
      3.7380847004848318e-02 1.1869950288098682e-01
      -4.1040601262389044e-02 4.5954536996692434e-02
      2.9902298857301033e-02 -5.4054074966366377e-04
      -7.8735198610520529e-02 3.3444223921484835e-02
      7.8343221286069770e-03 -3.0910192885653751e-03
      -2.7675559601627868e-02 -3.0300019596581521e-02
      4.6160154394971224e-02 -2.8070225970914742e-02
      4.3144385871580024e-02 6.4588744430072356e-02
      -1.3935711385758569e-02 2.3002799438676358e-01
      -9.1306245680245257e-02 -1.2341251323496692e-03
      1.0064909818963669e-01 -6.8366547248212881e-02
      -8.6856609500057091e-03 -2.0357068831483287e-02
      -1.0725157475499802e-02 2.2759147470747393e-02
      8.7516429612387162e-02 4.5886141482842334e-02
      5.4359445396201878e-03 -9.5231176665378312e-03
      -8.2881001567743320e-02 3.2303614471807691e-02
      1.0383322754752129e-02 -1.1701906750017831e-02
      4.5409073116768946e-03 2.4777815631219776e-02
      1.9392221096499428e-02 5.8989294291829364e-03
      -4.6159221752793037e-02 3.8534155316395035e-03
      3.4794164172319460e-02 -5.0243085311570651e-02
      9.1594276397112012e-02 -3.1957536541413249e-02
      7.6846803916245168e-02 1.4725237818289371e-02
      1.9289618215901454e-02 4.5678114025562669e-02
      -1.7768430057560829e-02 -8.7876835328543304e-02
      -2.1843989228127358e-02 1.4448962502298403e-02
      5.7548261596525853e-02 3.9339325371227342e-02
      -1.5357559593521775e-02 2.5837310773838627e-02
      3.6883545699260042e-02 2.6359402487627772e-02
      2.4693040632061729e-02 -3.0442078224415553e-02
      -9.8224636338843152e-02 2.1843414479524450e-02
      3.1194314022816874e-02 4.1028735872292936e-02
      2.4622360867639182e-02 -4.3564310268142364e-02
      8.7073779731609516e-03 4.4651925080262590e-02
      -1.3875373691190739e-03 -5.0297879536586711e-03
      3.9232423331902163e-03 -6.7060205108676382e-03
      -1.7628228625756900e-02 -6.0471636412824749e-02
      3.9308800849487811e-02 1.2175527546418555e-01
      -7.7701023548907205e-02 -1.0465380289669422e-02
      5.9866566179053039e-02 -1.5045690200160824e-02
      -3.9698277293942277e-02 -1.9832348188866727e-02
      -4.0555158671403198e-02 2.6673615240796610e-02
      1.1651112730900777e-02 7.7099680811513208e-02
      2.0373278164816048e-02 -7.6661437120148473e-02
      -3.0590746030354381e-02 5.8088209651765435e-02
      3.6172833774152258e-02 3.4207193964213976e-02
      4.6170362074759927e-02 1.1304684331738304e-02
      -2.2770348008843564e-02 7.8928914197249518e-03
      -9.8719336164276306e-02 2.7954841555262542e-02
      3.5942210331839898e-02 -1.0388575677820241e-02
      5.2222553144716306e-02 1.9471251770449108e-01
      -6.8383820931312178e-02 -1.5438951295029698e-02
      -7.5953545151199217e-02 6.8226559905232437e-02
      -4.5599656218357478e-03 4.0608474639164749e-03
      7.9005070890345187e-03 3.6575030822188610e-02
      -2.3212836696427711e-02 -1.0021765931637424e-02
      -6.4968013959694126e-03 1.4979083341569870e-02
      1.4087093170918909e-02 -2.2536696448934156e-02
      -6.1061017115197014e-02 2.7545240421209861e-02
      8.6333347203492155e-03 1.3584808548253545e-02
      -2.1351687671054189e-02 1.2988714899942253e-02
      3.1151139344268684e-02 6.7657792939851153e-03
      4.1800018242150364e-02 -5.7915853573257819e-02
      -7.0881540758079590e-03 4.5691972474351302e-03
      3.3579859977238002e-02 -1.8284710300967292e-02
      1.5080390973241695e-02 -5.8635712715152333e-02
      1.2685862039598844e-02 -3.2904188199003398e-02
      -3.4161219063277772e-02 -2.5625771990708916e-02
      6.4272276962706607e-03 -4.2543981198707802e-02
      1.6454101714640852e-02 -6.6351500594894960e-03
      -1.3951610984924803e-02 1.8266895262573961e-02
      -2.8345661887486953e-02 3.1597047911157382e-02
      -6.5486034068423489e-03 -3.2192571284562835e-02
      1.9165123376836624e-02 -2.1982291569591819e-02
      3.9417392077594413e-02 6.5614261515733129e-04
      1.0346629301634118e-03 -4.1876224849281496e-02
      -7.5919625041401644e-03 -7.0942416085520321e-02
      1.9340571643488805e-02 4.4351701930294002e-03
      5.1523227323564324e-03 -7.8084381053982138e-04
      -5.8124031167020463e-03 -2.8845178486112309e-02
      6.4866167430644370e-02 4.3289577786321072e-03
      -2.3720176901963454e-02 3.9821833105604301e-03
      1.9471870447151467e-02 3.2159425192614784e-02
      -1.1952777205218725e-02 -5.0523644251574363e-03
      8.5390501122687614e-03 -2.2812996598740886e-03
      -7.1451104201205283e-03 -8.1904752633896478e-03
      -2.1865909138594111e-02 2.3640966205108766e-02
      -6.6887744641660335e-02 -7.5935989750453362e-02
      -1.9123635782741476e-02 2.9782990399157900e-02
      -2.0101213284390726e-02 2.8704487270828236e-02
      3.6460704981848904e-02 7.2196900788444318e-02
      -1.3123761450744308e-02 -2.8665890671671964e-02
      -1.3051347990455179e-02 -8.1490143382824572e-03
      -6.8573227772672704e-02 2.5649932461297691e-03
      2.7805102155920181e-02 1.4755802365307926e-02
      -1.8474737326169624e-02 2.5032679785546973e-02
      -3.1016018476147870e-02 3.8468498633111394e-03
      2.2577878839797495e-02 1.6002077717358773e-02
      4.0917412149790534e-02 -4.5912600456068542e-02
      1.9544982128894973e-02 3.0017742868283546e-02
      -1.1052270424842577e-02 7.4550391060622168e-02
      -4.1043682537470365e-02 5.7064544379677989e-03
      -3.6339792360653662e-02 -1.1668875308348894e-02
      1.9800866841626880e-02 2.3044878882912088e-02
      -3.2048212362371230e-02 -4.0548142893094101e-02
      -9.3362998885625353e-03 8.2220736416291143e-03
      -1.9814032833659923e-01 -4.7487885467078168e-02
      -7.1972353968130579e-02 -5.5890365737906261e-02
      -4.1423528557697861e-02 -2.5516307206541172e-01
      5.5088675470323631e-02 -3.0262366878196872e-01
      -5.8413374821987156e-02 7.3894070707681198e-02
      3.5163569217384699e-02 -1.3088500342751208e-01
      -4.2601459972859915e-03 -2.0647610938240604e-01
      -8.1955195533097006e-02 -9.3262954957666649e-02
      -3.4412859740324195e-02 -6.8505114465014158e-02
      -3.3548171698994655e-03 -1.8399463047126091e-01
      1.6659529019053498e-01 -3.7639234799994821e-02
      1.7293482505609017e-01 1.2127823871146880e-01
      -1.2438308911529103e-01 -4.3229959872989179e-02
      2.3460858569395199e-01 -6.5328033268397215e-02
      -1.2618211725532502e-01 -5.7788077598712802e-02
      -8.9745719589733791e-02 2.1550447658541474e-01
      -1.4577937564599167e-01 -2.1687984133836843e-01
      -1.2799861160139289e-01 5.7407677237765763e-02
      -6.3971006102751027e-02 -2.9695236759616238e-02
      4.9293713738581636e-02 -5.6820341947416877e-02
      -6.5021898400256612e-03 -2.2755765265040293e-01
      -1.8380264705492999e-01 4.6407008619288551e-02
      2.1417031231024473e-02 -2.6256690897268281e-01
      -9.3575154767671073e-02 4.6751939835027817e-02
      1.3109093476826963e-01 -1.5500558557153599e-01
      1.4677327787508138e-01 -8.1040104919417599e-02
      1.2883956142729602e-01 9.6226730004530414e-02
      -3.4532719246805489e-02 7.7056857186180397e-02
      -3.7366837130121174e-04 9.2996556364064009e-02
      7.4120577972791618e-02 3.4858591833166180e-03
      -1.1192556536345658e-01 3.9866699490216116e-02
      -8.2762152629240915e-02 -6.8059787977037406e-02
      1.2407388088724566e-01 -1.6692726016808233e-02
      -2.0200709088800112e-01 -4.5020506244996145e-01
      2.2235090670335789e-01 1.4004595718378066e-01
      5.7555241174218376e-02 -6.3754966416613268e-02
      1.2534530031147664e-01 -7.1122077578826243e-02
      -1.6064089611629795e-01 -1.5502514336228243e-01
      1.0927227603079277e-01 -1.8732890517287434e-02
      5.1438785286983410e-02 -1.5377833687274556e-01
      2.7155011249325921e-02 -7.7797878113328639e-02
      9.8738671840867334e-02 -9.7987217043356972e-04
      3.7931273304189139e-01 -4.8600045126626440e-02
      5.7238156970696431e-02 -1.9758163437374890e-01
      -1.6025659892030367e-01 6.4187553025936622e-02
      -6.8313760669211618e-02 -1.7798759306882611e-01
      1.9094572540320615e-01 -5.1636467704682068e-02
      1.7010099645692003e-01 -4.2569503173084930e-02
      7.0173171854458871e-02 -9.9792297156710244e-02
      2.0781691524972598e-02 9.9995700829737022e-02
      6.9023131732111831e-02 6.2232369872663503e-03
      -3.9563695479693526e-03 -1.1827789687018669e-02
      -8.2819490168472121e-02 1.7147045211143273e-03
      -2.1259525197623447e-04 8.0434164770569680e-02
      6.7883014751131607e-02 1.6055718552589002e-02
      -4.7893668773566128e-02 2.2146814789639674e-02
      2.7115140937255734e-02 -4.4640661027665562e-02
      -1.1617800289183028e-02 -9.2756311415880532e-03
      3.1176761718807278e-02 -5.2214045753273975e-03
      -2.3551028422830151e-02 4.9863036168319871e-02
      -1.1108406549478057e-03 -2.7693539427904666e-02
      -6.2032415425590896e-02 -3.3758527146994552e-02
      3.7291638483342195e-02 -4.2259887876984585e-03
      -3.5591923512147537e-02 6.1423197564270109e-02
      3.1128969124380120e-02 -4.3556277456176726e-02
      2.0183539635706623e-02 3.1479023588199984e-02
      3.2750140218183045e-02 -1.9028302965975678e-02
      -1.5583658409481071e-03 -1.3690875251514455e-02
      3.5265687767922584e-02 2.3224811426090633e-02
      7.5568827117019292e-03 -1.5739351959488633e-02
      3.5141843792666334e-02 -4.7152840186249663e-02
      5.5603593978889490e-02 2.6728695947273749e-02
      8.2053182730690440e-04 9.4871190409089173e-02
      2.8187545431265351e-02 4.7233716905308115e-02
      1.2390084980020490e-04 3.8762435798990816e-02
      -2.0635858702071217e-02 -4.1505074937090602e-02
      -2.3993100922312972e-02 -1.2095903928346132e-02
      -9.1466465651133477e-02 -2.3897266641756384e-02
      3.9652769380772036e-02 -7.0562283644220833e-02
      -4.0745584045151440e-02 1.0920726223688839e-02
      3.6855017598360390e-05 -1.9548505922133721e-02
      -8.2121537559830704e-02 2.2265670306581810e-02
      -1.4913774687650242e-02 1.3509244637943381e-02
      3.4252453473900178e-02 8.1549732983197919e-03
      4.1278917998923775e-02 1.1177109830464271e-02
      3.9558220797608165e-02 3.6404856557359339e-02
      -2.4935892105973908e-02 3.7943763906250302e-02
      -4.1582773182576936e-02 7.0787675306467707e-02
      5.2953889977954485e-02 4.8464089834837645e-02
      -7.0261355772574183e-03 3.2086821397138011e-02
      -3.3170316544698188e-02 -2.4402883649722200e-02
      -3.7338529473387110e-02 -9.4650122110324936e-03
      -8.2937411494364177e-02 -2.7779008270971513e-02
      1.1237609041797381e-02 3.1874572581266067e-02
      4.8258553919875130e-02 1.3645090843462243e-01
      -1.0441230124522981e-02 -3.5061323866725308e-02
      2.6702104727224885e-02 -5.3386156732664431e-03
      -2.3914616469053004e-02 4.8759936637127375e-02
      1.0101605730905365e-02 3.2743964313048268e-02
      -4.7851562501006351e-03 -1.1302073207544750e-02
      -4.8268111267162232e-02 5.5809413477264480e-02
      -1.3226377904908588e-02 1.0778137625461055e-02
      3.0933115226921794e-02 -1.3632705393840711e-01
      7.1875414960686654e-02 1.0500078770467589e-02
      -6.7052705014576677e-02 7.0671459468172465e-02
      3.9330446196503603e-02 1.0693545751876008e-02
      1.5366655224865057e-02 -3.4005843721089155e-02
      -5.4748914492546159e-02 -3.9320431910495043e-02
      1.3685210197755074e-02 1.3495189257876206e-02
      4.9278843974588378e-02 -4.6526233407744172e-02
      -1.4644183468846161e-02 5.1429269013641414e-02
      -5.7756542337075174e-02 -4.5106427246629645e-02
      -1.5163563270660742e-02 -1.5810839136791124e-02
      1.5680288026243341e-02 -2.9387123487719341e-03
      -1.0016334840417361e-02 4.3966284462870243e-02
      -8.6101096737613805e-02 6.6855138458293212e-03
      -5.6530108280144188e-02 5.6663071090190462e-03
      -9.8483588272961289e-03 -2.8084666928263943e-02
      3.5103089309513835e-02 6.2142595922427032e-02
      4.1475047466289897e-02 -5.6595105416595001e-02
      -7.7831588197995266e-02 -8.6156319867145920e-02
      4.9555171693579515e-02 -6.1194538655864612e-02
      2.3416739474015551e-03 1.2158518369387521e-02
      -5.2290857676856990e-02 3.0503425060829703e-02
      6.3034234707345746e-02 1.2138130713130149e-02
      -1.4606815029424932e-02 -2.9677989256850358e-03
