<?xml version="1.0"?>
<opencv_storage>
<opencv_ml_ann_mlp>
  <format>3</format>
  <layer_sizes>
    29 100 100 10</layer_sizes>
  <activation_function>SIGMOID_SYM</activation_function>
  <f_param1>6.6666666666666663e-01</f_param1>
  <f_param2>1.7159000000000000e+00</f_param2>
  <min_val>-9.4999999999999996e-01</min_val>
  <max_val>9.4999999999999996e-01</max_val>
  <min_val1>-9.7999999999999998e-01</min_val1>
  <max_val1>9.7999999999999998e-01</max_val1>
  <training_params>
    <train_method>BACKPROP</train_method>
    <dw_scale>1.0000000000000000e-03</dw_scale>
    <moment_scale>0.</moment_scale>
    <term_criteria>
      <iterations>500</iterations></term_criteria></training_params>
  <input_scale>
    1. -2. 4.3669284910100572e+00 -2.8721729849844198e+00
    1.0007395702987935e+01 -2.6019251005378212e+00
    8.7173513757717735e+00 -2.2047260160171858e+00
    9.1847208954027124e+00 -2.1023833347081675e+00
    8.3942504514359211e+00 -1.2214913874752107e+00
    1.7441639224291080e+01 -1.4600067686711844e+00
    3.2733794388362476e+01 -1.8886191982869818e+00
    4.2066178065434656e+01 -1.8044764519016476e+00
    5.4679687846290605e+01 -2.0481679317011845e+00
    6.2355263853120732e+01 -1.9023853717895880e+00
    7.5015744527707639e+01 -2.1380226733948446e+00
    8.0511808823880372e+01 -1.9845585358026818e+00
    7.8682820291371598e+01 -1.8528981985285897e+00
    1.0779856483753515e+02 -2.2166915732466621e+00
    9.4979424341916243e+01 -1.7533271145820848e+00
    1.2286555015806627e+02 -1.9745342931118113e+00
    1.2523142165909752e+02 -1.7783114445012651e+00
    1.6249804079690176e+02 -2.1135812396738580e+00
    1.7704276563635733e+02 -2.0206090410234103e+00
    2.0661910497350149e+02 -2.1277859402316177e+00
    2.1940100562229222e+02 -1.9764673165555235e+00
    2.2927666689256998e+02 -1.9679638945513018e+00
    2.4925542547009030e+02 -1.9286345723469389e+00
    2.9567635335931470e+02 -1.9642828595418542e+00
    2.8243706513390629e+02 -1.8114067846341955e+00
    2.8928086889372520e+02 -1.7652272878350677e+00
    3.6810082207184996e+02 -1.9447188716370225e+00
    3.2054123988706829e+02 -1.6222871340696872e+00</input_scale>
  <output_scale>
    5.2631578947368418e-01 4.9999999999999994e-01 5.2631578947368418e-01
    4.9999999999999994e-01 5.2631578947368418e-01 4.9999999999999994e-01
    5.2631578947368418e-01 4.9999999999999994e-01 5.2631578947368418e-01
    4.9999999999999994e-01 5.2631578947368418e-01 4.9999999999999994e-01
    5.2631578947368418e-01 4.9999999999999994e-01 5.2631578947368418e-01
    4.9999999999999994e-01 5.2631578947368418e-01 4.9999999999999994e-01
    5.2631578947368418e-01 4.9999999999999994e-01</output_scale>
  <inv_output_scale>
    1.8999999999999999e+00 -9.4999999999999996e-01
    1.8999999999999999e+00 -9.4999999999999996e-01
    1.8999999999999999e+00 -9.4999999999999996e-01
    1.8999999999999999e+00 -9.4999999999999996e-01
    1.8999999999999999e+00 -9.4999999999999996e-01
    1.8999999999999999e+00 -9.4999999999999996e-01
    1.8999999999999999e+00 -9.4999999999999996e-01
    1.8999999999999999e+00 -9.4999999999999996e-01
    1.8999999999999999e+00 -9.4999999999999996e-01
    1.8999999999999999e+00 -9.4999999999999996e-01</inv_output_scale>
  <weights>
    <_>
      -5.2982824678020235e-02 -5.2279698024913654e-02
      3.9336175969526120e-02 -3.6509622240002801e-02
      1.7505165009740257e-02 5.4416333079242860e-02
      5.8178105421765582e-02 -4.3638041559225342e-02
      -4.9883657115028110e-02 -3.1127462723946606e-03
      -1.4666329182064881e-02 -3.4147038120339437e-02
      4.5111381570145416e-02 4.8820162433999614e-02
      -4.5429959508082131e-02 4.9478480241037452e-02
      -4.0594589507541898e-02 1.8375603644527935e-02
      -5.5872890484395435e-02 -3.4230730379500938e-02
      -2.0058588997975205e-02 4.9761906448787523e-02
      1.5967058527210375e-02 3.6540517582050007e-02
      1.9249621332573134e-02 -9.5252095756664084e-03
      -2.8944271435175167e-02 5.7480582691289146e-02
      -6.5702887682962979e-02 5.2626432810338464e-02
      -2.7837163167993551e-02 2.5485935351764168e-02
      6.2318195344372343e-02 -1.3547315446277925e-02
      -2.6514682897564208e-02 -3.7468206222509862e-02
      -5.9591322222386264e-02 2.1581430952087596e-04
      -4.3972030623290928e-02 1.6300718409899967e-02
      3.6322736738051177e-02 -5.0884846599739644e-02
      4.7131122061006267e-02 -4.9939629329465364e-02
      3.9016121225456661e-02 5.0462822788745219e-02
      1.0826426748939298e-02 5.4399683508486715e-02
      1.8351738301167739e-02 2.2420251162232514e-02
      -7.8611851444699860e-03 -7.0140999327571230e-02
      6.6947822533326914e-02 -3.8606725763648757e-02
      6.0762391995243720e-02 7.1945217545846346e-02
      9.7325195495374418e-03 -2.1607756848591080e-03
      -2.5109047145697526e-02 2.6008911317219309e-02
      3.3778374529302602e-02 -1.3156227623972092e-02
      2.9101766201320257e-02 -2.1552400494151875e-02
      -4.6920851485025381e-02 -6.4965281185520890e-02
      -5.3497629255779840e-02 -2.6838737720555787e-02
      -4.1417917784196519e-02 -3.9349214264705487e-02
      2.1147804130439478e-02 7.3033785893724529e-02
      5.5788591327226716e-02 -2.0197913576705404e-02
      -5.5570564530094554e-02 7.2045739678218798e-02
      3.7857606949819080e-02 -4.6309237371573893e-03
      -8.2679557536717123e-03 4.1238559542180010e-02
      2.6293891874177286e-02 -5.6558489652001526e-02
      -3.3858455788350034e-02 2.9850960887899586e-02
      -1.1996291190313575e-02 -1.6185875930408808e-02
      6.0646229890198829e-03 -2.5699406331558712e-02
      -8.6641001560388349e-04 -3.1293069575135224e-02
      -3.7692082907251651e-02 -6.8480712845350898e-03
      -6.4181404075954754e-02 -2.7229207165882903e-02
      5.3285461262174490e-02 3.2357391669583818e-02
      2.5746401944359881e-02 -6.1523888006156470e-02
      -4.4030893097309537e-02 3.6349751277434270e-02
      -6.7590268626995298e-02 2.7233458520691776e-02
      -1.2712655560835313e+00 1.3831412939289212e-01
      -1.7209548957609806e-02 1.0457950820103985e-01
      1.2308104761161295e-01 -6.1919408258083598e-02
      -6.2055668835713851e-01 1.4651642183045482e-01
      9.9743939683165903e-02 -5.4932544050257971e-02
      1.4768062745055341e-01 7.4063835025964045e-02
      -8.2812376305037252e-02 -1.6349363215469953e-01
      -1.3834081526710271e-01 -9.4274253806430064e-02
      -5.0792608472103422e-02 1.6499671604856606e-01
      -2.2582718158705198e-01 9.7075932564042067e-02
      1.0988199007490390e-01 -6.7937902195959840e-02
      7.3266041621921726e-02 1.4928054663472859e-01
      2.2415835876564283e-01 -5.2336487123139243e-02
      2.6219784154198764e-02 -1.1057648639796333e-01
      -2.7150718034341448e-01 -8.7381468002223114e-02
      1.4984085773815237e-01 1.0879852096628931e-02
      3.5263651167117396e-02 -1.0512020694480811e-01
      1.5985597993598777e-01 1.6748900981038170e-01
      2.3368006772546254e-01 -2.1607709867787744e-01
      6.9199405605946049e-02 3.7778950655853882e-01
      3.2592809060624239e-01 -4.9102669829785082e-02
      1.3571395995642363e-01 -5.5273947388394126e-02
      -1.9905785458616765e-01 7.9950432778153509e-03
      -1.0189033468113363e-01 4.5358661482329982e-01
      1.5614002377912328e-01 7.0854299196918158e-02
      -6.8609788524000528e-02 1.2511773664410317e-01
      -9.5046785860817537e-02 1.3083625124644493e-01
      3.8303856838825595e-01 -4.1156644077375404e-02
      9.2233589487641543e-02 -1.7322515968208468e-01
      1.3820172112783391e-01 1.9645240072568709e-01
      1.0534834021035418e-01 -5.3427534405049278e-02
      -1.0616581618652554e-01 1.4073996840173819e-01
      -3.0273057657635954e-01 2.8696007291247072e-01
      -1.0919207676968133e-01 -1.4471141283930125e-01
      -2.7251668975908590e-02 -1.9900222961357594e-01
      -4.7972824957973469e-02 -1.3344233424731489e-01
      -2.6012137754825576e-01 -8.3996638689090547e-02
      -1.2898658326152126e-01 6.0106326165995747e-02
      2.0215684485971555e-01 -1.2077368619364222e-01
      -2.0526314359431450e-01 -6.5746401692560227e-02
      -1.1335388477541689e-01 4.6126933195306877e-02
      -1.0864334398230088e-01 1.9139023247180583e-02
      4.1865432255449081e-01 3.8363546200059460e-02
      -1.3832190839760769e-01 2.4452066516621454e-01
      -2.6793135369933219e-01 1.9679721235644271e-01
      -1.9967278865657226e-01 1.2537200471563817e-01
      -3.6444335539120126e-01 -1.6067987652748461e-01
      -3.7528020726220218e-02 -1.8931139591316420e-01
      -7.0364294510910910e-03 1.4150703120944183e-01
      -8.9431996618080767e-02 -5.6943676876344017e-02
      2.8569280475527714e-01 -6.2357976095357856e-02
      1.0983028665468100e-01 -1.2167588810905708e-01
      1.7665545920416147e-02 1.2059011423124140e-01
      -4.8049073795121838e-01 9.7986576630566917e-03
      2.3985789045640524e-01 -3.1429816323897970e-02
      -7.8136541197174336e-02 -2.3995700249181559e-02
      2.0171166148475167e-01 8.4018455949040186e-02
      1.2170900625636978e-01 4.8050163435637748e-02
      2.9304879807126705e-02 -5.1586302556012445e-02
      -9.8573757232966802e-04 -6.0172524954657646e-03
      2.9282057292784731e-02 -4.9128933487622005e-02
      9.4352891079049830e-02 1.4275171931272160e-01
      -1.0101752006071099e-01 -1.3172808502780203e-01
      -1.7592620301320947e-02 -7.2770294543291300e-02
      -1.8151882399932415e-02 -5.3264598876589783e-02
      -7.3744006169005158e-02 -6.7310210328943951e-02
      7.5098675743738943e-04 1.3974463571452253e-01
      -4.5085485742754261e-03 1.5100677542764018e-01
      9.2836937927375740e-02 -3.1361657614840770e-02
      1.2425502895659402e-01 1.2329538999261946e-01
      1.2724287528828221e-01 -9.5701418164448715e-02
      -9.1734106830497816e-03 -2.4011033824851122e-01
      -1.9769633272948998e-02 -1.7201014381063442e-02
      -5.1137754854587861e-03 -3.7342608085677681e-01
      9.4794031865808190e-02 1.0288247515815099e-03
      -9.7749337628093430e-02 -2.4392742227562519e-02
      4.6802177212736334e-01 -4.3158075812576796e-03
      -2.5068932293671897e-01 1.4087270419382955e-01
      1.3219922222694191e-01 -1.1023191164850613e-01
      1.4855805026806213e-02 -1.9227330799959300e-01
      5.1360234837372037e-02 -5.3293118526315506e-02
      2.9546009881839846e-02 1.3956210114879647e-01
      -2.0753454893538117e-01 -9.5271392248041778e-02
      -5.6678015226765119e-02 -1.1903118768804752e-01
      4.8814661479219243e-02 1.2240188656416917e-01
      -5.8916253659891858e-02 -3.5979842496062620e-02
      1.5963880788605370e-01 -5.1103362777360641e-02
      6.6562229444348850e-02 6.7005503628031995e-02
      1.6629879618541805e-02 -6.4545560493838791e-02
      -4.6322757353294122e-02 1.0730534217517074e-01
      1.1773905077729180e-02 2.7440998967841718e-01
      5.0930589287846696e-02 -6.4705794736375305e-02
      7.0973854738833664e-02 8.6092556780735699e-02
      2.6091481340758168e-02 -3.6098421827554343e-03
      5.2182187440825811e-02 -1.2744821402039577e-01
      6.7864453688733298e-02 1.0165245981828146e-01
      -9.5222024259727256e-01 -1.9128063013638849e-01
      -1.8323242885675803e-01 -3.4791066219600969e-01
      1.1800552093970344e-01 -2.9503964281214667e-02
      -8.9137276715668748e-02 -2.2729844674617087e-02
      -2.0796136950115118e-01 9.3937297004826059e-02
      4.9938598417211166e-01 1.6121176408681051e-01
      5.5379693205027905e-02 -2.8203733903819678e-03
      -5.4555160717207574e-01 -2.2279766407653892e-01
      1.7773839340368597e-01 8.7605891097909033e-02
      -4.7468998581242643e-02 9.9264758202556425e-02
      -4.1279352148210116e-02 2.6755985436338256e-04
      -8.4439805388332415e-02 -3.9346610588561509e-02
      -1.6761561456580409e-01 3.9071738894488833e-01
      7.8696165758826750e-02 2.2700246561324439e-02
      5.6227152831196205e-02 1.2590407552703811e-01
      1.0156608666164110e-01 8.5704889279672979e-03
      1.6838627407946786e-02 -6.6537371918833091e-02
      -7.7245500820287735e-02 -5.4143972524904271e-02
      -8.6647227575390416e-03 -9.8530734526357966e-02
      2.3806582683624761e-01 -8.0887634297271985e-02
      8.8019605047669289e-03 -2.5046377262721842e-01
      3.9102438103789286e-02 1.1864727414431064e-01
      -2.4520114840957320e-02 -8.7527870208138667e-02
      -2.7689611554611143e-01 -8.5639004032582816e-02
      1.0443642825229332e-01 -2.0170083659933283e-01
      1.2201247374236186e-01 -3.5759635137824826e-02
      8.5091393089962077e-03 1.5174075636686590e-01
      -6.6473518272505833e-02 -2.9429866208765360e-01
      -2.9264656390006782e-01 -5.2620397281324935e-02
      4.4185454664732782e-02 -1.4100624550070021e-01
      -6.4077044307454020e-02 8.7167675762852993e-03
      -1.3651271796218045e-01 1.2310267786529555e-02
      2.1390181061210822e-01 -4.6707005473926900e-06
      -1.6248061844131931e-01 -1.4920650641306005e-02
      4.6669298836787068e-03 -1.8676858433344108e-02
      1.1866105619011019e-01 -2.1143317217629121e-02
      2.0911974882786011e-01 -5.5847510003424861e-02
      -2.0029203384391236e-02 -7.2998647140788783e-02
      6.7490543923453439e-02 8.1008480456341170e-03
      -2.0910896736575860e-01 7.6359518796051948e-02
      -1.0312012333100157e-02 5.2147660876600228e-02
      -1.1341681371607765e-01 2.8241359865629319e-02
      -5.5486480309550161e-02 7.3598226694562827e-02
      -1.0747924290398332e-01 -9.2492632722516885e-02
      -8.3456671635633528e-02 -6.9067880754981048e-02
      1.8285604921056373e-01 8.3287377833717161e-02
      -9.0131440289975462e-01 -8.3892843617466711e-02
      -2.2905432033074766e-01 5.8261233352500323e-02
      -5.6674924052142271e-02 -6.7259293846777701e-02
      -1.3757457051374303e-01 -3.9725659758561425e-02
      -9.1561456732403224e-01 2.3465221964510405e-01
      -1.1804722639213516e-01 -1.2762793909249881e-01
      -8.8561955444420686e-03 1.3348873631568894e-01
      -1.8320751977016439e-01 4.8398363179583244e-02
      -4.7407239917171273e-01 -5.6853427531233874e-02
      -1.5291697217117314e-01 1.5484863427606671e-01
      2.7983109001508525e-02 -1.0080764410407324e-01
      1.6248047662271980e-01 7.7789512664740518e-02
      -2.7461188597634384e-01 1.5941933049584517e-01
      4.1004946724519695e-02 -6.4320800873629638e-02
      -6.3274832007277210e-02 -8.9675401344937400e-02
      -1.3253082193338891e-01 -7.7056395561639540e-02
      -4.5196945790137250e-02 -3.1346386041128915e-01
      -5.1167891188300514e-02 1.4220463737377551e-01
      3.7065358022301639e-02 -8.8113890527623029e-02
      2.6742873947683166e-01 1.2934116244304089e-01
      1.4163311063723533e-01 -3.0979103129223745e-01
      1.2949384203492215e-01 -8.6317147336054278e-02
      1.0696303809447907e-01 -6.2825006590190344e-02
      3.0741079533118706e-02 7.3693709180231409e-02
      2.2026061089455048e-01 2.5976044939642298e-02
      8.8480527224598288e-02 2.9518261484829413e-02
      5.3458997531157897e-02 -4.5775525823514858e-02
      2.1480431250919838e-02 1.6513313980166547e-01
      -2.0318465695187568e-01 -9.9844852493671574e-02
      -7.9774373552553721e-02 -2.9896989443686550e-01
      5.1500869570230605e-03 4.9327338620719023e-02
      2.6787880349657262e-01 8.4301317765517281e-01
      2.3349525769919852e-01 -4.9686064038756729e-02
      -1.4333368774123947e-01 9.0761256379123564e-02
      1.3452910776329105e-01 3.8958663771461829e-04
      2.4340937998316312e-01 1.7102469163089001e-01
      -2.3804984009633840e-02 9.1550407683754831e-02
      6.0491106999428418e-02 1.3973368392775631e-01
      1.5426692565249811e-02 9.6805989506481213e-02
      1.3997680623970879e-01 -1.3586675721664768e-01
      -1.9365545538089071e-01 1.1090411638926298e-01
      -8.0256459018659236e-03 8.4765215524140666e-03
      -6.3763919908086483e-02 -9.1327955143127304e-02
      5.1191544338966145e-02 -2.8135770472919385e-02
      -1.1308812258616966e-02 -1.3872567147772372e-01
      -3.3779206340898132e-03 -7.1208795502392577e-02
      -6.7881544903248672e-02 -5.0181445340082627e-02
      2.2209926679311535e-02 -7.1942517529737801e-03
      4.1585891008825905e-02 3.8422337310673405e-01
      -4.6688380796025561e-03 7.1565248280954967e-03
      1.9390418256094497e-01 -7.7516868384135504e-02
      1.3154557174356049e-02 3.1467544293139672e-02
      -1.7111772995357460e-01 -3.4154953999816350e-02
      -2.1266090427371431e-02 -7.2002479472492399e-04
      -4.8728268475588316e-01 -2.4305419471658995e-02
      9.3242438889785215e-02 -2.7079563034485304e-01
      -9.6369667851610691e-02 -1.3099771857285211e-01
      -1.6449215107864798e-01 -1.0354194669520496e-01
      -2.3780232108196273e-01 -4.3398256923513567e-02
      -2.0569955103959817e-02 -1.5919137402880399e-02
      1.6745975377081232e-01 4.3789380447841392e-02
      -1.2914830460390211e-01 -1.6906286585302122e-02
      1.1799368424459394e-01 -1.1751505595981915e-02
      -2.6324065693380633e-01 9.7256942200778115e-02
      1.9540346799699772e-02 8.5013163333300931e-02
      6.9678008804776453e-02 1.2259797780258713e-01
      3.7170379542168751e-02 4.1807662312127092e-01
      -2.7784650257332125e-02 1.2053386218903955e-01
      -2.4601870865852977e-02 4.8783072471708377e-02
      9.1674808532219168e-02 -3.7547613057795547e-02
      8.0547718088345280e-02 -2.6336975181178868e-01
      -1.7421720552316271e-02 -1.6016886866390662e-01
      -4.3706003026473955e-01 -5.2137038689630669e-02
      -8.0446980726623114e-03 -1.4377769606827490e-01
      5.6736496095592046e-02 5.1053635532990770e-02
      -2.0776822245387738e-02 2.4142930992134853e-01
      -6.9631611242688025e-03 1.2987595844090549e-01
      -4.2650601273425516e-03 5.6806037862355253e-02
      4.0729269930464401e-01 -2.7049765746027893e-01
      -6.8048678707388136e-02 -5.2376282482974101e-01
      9.9854341790175744e-02 6.6514930097792354e-04
      2.0784548001864839e-01 4.1729870478707853e-01
      4.6517637474301310e-01 -1.0532525570756408e-01
      -1.3955332440587137e-01 -5.4502004238507193e-02
      -1.0957914375574496e-01 -1.4172653855393336e-01
      1.0509317675176913e-02 -6.8036439587821740e-02
      -1.7943613270543428e-03 8.3469620846470481e-04
      -2.5143357411787245e-02 -1.9538885537813858e-01
      -4.4459181392653320e-02 1.4140245959166767e-01
      -1.4408412169296170e-01 -3.1837478096268045e-02
      9.3103933642724040e-02 -2.3134875078920335e-02
      6.3966347571060039e-02 1.9913345858170162e-02
      -2.9760325837113605e-01 2.9999869227359473e-02
      7.9783042683451835e-02 2.0449361147381110e-02
      -7.6573003059241238e-02 -1.1242900417238775e-02
      -1.2350031666563326e-02 -9.7131682623119622e-02
      -2.7407299515245707e-02 8.2892486200749613e-02
      -1.7492238222225695e-01 -3.9014141623862936e-02
      -9.3282192835348637e-02 -2.1540250544253339e-01
      1.5535773607043168e-01 1.3860211878822687e-02
      3.0661581416344880e-01 -1.1928346039021093e-01
      -3.6640597762892450e-03 2.2171768625575600e-01
      -1.1935600802029266e-01 -9.9895960977364751e-02
      -8.8178927643201427e-02 -6.5852764923559348e-02
      -9.9259590514490859e-01 -3.4189565352827259e-02
      -1.7462995881779514e-01 -4.4264758041784935e-01
      7.8357800131329924e-02 -1.3112848237272604e-01
      -8.2173158135962713e-03 -4.2559591977939959e-02
      -8.4216392583137175e-03 9.5628373325795296e-02
      1.6797999234451066e-01 -1.3598941742540410e-01
      -6.0821861173715852e-02 -2.6988524476634074e-01
      -1.4991171745310200e-01 4.6299799886934112e-02
      3.7254463276680322e-01 1.1528134138519913e-01
      -7.9921793831217988e-02 -2.4548166231144208e-02
      1.9474541671983595e-02 5.2237105300039423e-02
      -4.3049957306494233e-02 -8.1936270853978602e-02
      -1.0246898683574861e-01 7.0225113748051793e-01
      4.9461852701188171e-02 1.3934402002374116e-01
      2.9452569422518129e-02 7.1240040620548818e-03
      1.9955341814642569e-01 -6.3924729813242891e-04
      -1.0483679197540693e-01 -3.3315915023873370e-02
      6.3078959662234554e-03 -4.6862851290309725e-02
      -6.7628483495713687e-01 3.5569220778732556e-02
      1.8641468304540043e-01 -6.6365141373487771e-02
      1.0928482876465304e-01 1.0533093687074241e-01
      -1.4172300144751573e-01 8.6407935233839092e-02
      -7.1086563832600203e-02 1.1066689830639893e-01
      -2.8379294386446281e-02 1.8960561721549324e-01
      1.3249337659337687e-01 -8.3254730203211044e-02
      1.2133828612986321e-01 -1.2117993136527917e-01
      -1.8487811737713418e-02 7.1413632269140340e-02
      1.9517035897148080e-01 6.7765345236332339e-03
      2.6170648550403741e-01 -1.0574632038168694e-01
      4.1651214380968707e-02 1.8514465715067835e-01
      3.1205775224603854e-01 -5.7349098444681688e-02
      -1.1774588195489791e-01 1.4396951291376817e-01
      -5.6656645455559131e-04 -1.6606442168125632e-01
      1.3609750458987993e-01 -1.2441543335347949e-01
      -7.6649139639617522e-03 -6.1377800687297951e-03
      1.9912333928713138e-01 -1.4370302357582321e-01
      -2.4156812155415222e-01 -4.9250261814294129e-02
      -2.7141236087010905e-02 3.2185943197462596e-02
      -1.6441743614185950e-01 -2.1360033582391205e-02
      9.2628288189473773e-02 9.3958627774958003e-02
      -4.6455456686136258e-02 -8.4952109912935669e-02
      1.0146235442146717e-01 8.6480064176836235e-02
      1.7036981809643947e-01 -1.2960770058964274e-01
      7.5613013666141080e-02 6.9831423690651012e-02
      -1.0576843239367055e-01 1.5796761919356508e-01
      1.6768616196306774e-01 -1.1601792154929479e-01
      3.9276840253210848e-01 4.4229278523185457e-03
      -1.3155438339431874e-01 8.1213144790306543e-02
      3.0081129357297978e-02 -1.6847920666790506e-01
      -8.4483721740244114e-02 2.7646817450641147e-02
      -1.0185961934354147e-01 -7.1018512467375177e-03
      -2.9636354471278559e-01 -1.1999650522537472e-01
      -1.7913150822048621e-01 1.4876503783432832e-01
      -6.5668783034605341e-02 6.5676099853779993e-02
      -4.7685089331339074e-02 6.2428541330640970e-02
      4.2519287501430625e-01 -1.1327312808217009e-01
      1.2138762081133790e-02 -1.2645146211061919e-01
      -4.6937372035793978e-01 1.0488687193038861e-01
      5.6213295127611262e-01 8.1719932325567499e-02
      4.1343603493041456e-03 -5.4676059389046922e-03
      -4.0668086307962127e-02 -1.9885962849023695e-02
      -2.6737626137646055e-02 -2.7867724454392125e-02
      -8.1247269999073890e-02 5.4092115478715774e-01
      1.1202272387659746e-02 2.1327872166999870e-02
      6.8859457400480245e-02 2.0692052475818536e-02
      6.6096165997281686e-02 -1.3625851922739565e-02
      -3.2190539249447016e-02 -7.0366900352142006e-02
      3.5444894159129374e-02 -6.5024254831019146e-02
      -2.2967238087188160e-01 -5.2553474706529844e-02
      1.7305628719394742e-02 8.1712429410214782e-03
      1.1164789434012647e-01 7.3160039147810385e-02
      2.7052484700438008e-02 -6.7791997252373545e-02
      -9.8508361645917447e-02 -2.6213646250011682e-03
      7.6532261294905576e-02 1.9465230609928239e-01
      4.6595144267286204e-01 -2.0271129987214764e-02
      1.6674578035270414e-02 -1.7227836944022499e-02
      2.9259279244673086e-02 -1.2862239502346892e-01
      6.1065777338135466e-02 5.2527146890281950e-01
      3.5936954514250836e-02 5.9630300987047621e-02
      -2.6837945423654756e-02 1.2936726833714196e-01
      4.2820097748124986e-01 -4.5895680674138822e-02
      1.7515522803689138e-03 1.6375693184914736e-01
      2.9788871867623763e-02 -3.9388208904559678e-02
      1.0360877674923259e-01 5.0569919420816400e-02
      3.6055059915861373e-02 6.0528913946048764e-02
      8.0408756365867390e-02 2.1967194476600428e-02
      -1.5081774703074943e-01 5.9861433476704598e-02
      6.7683266742504522e-03 -1.5549199111859945e-02
      -1.1366807842500802e-01 -1.0577934203980141e-01
      5.8669709321807102e-02 6.0515240925005147e-02
      -8.3956170541605521e-02 -7.0684870403645114e-02
      1.0055020359150285e-01 -7.0600434951471586e-02
      -1.3457735556489958e-02 -5.7170053635522688e-02
      -1.5614246070142661e-02 -2.7188713771420401e-03
      -4.8552345381395336e-02 2.2520421378060479e-01
      -7.1350445535755619e-02 -1.2251801055478825e-01
      1.0978767173114183e-01 -8.2436764382644908e-03
      -9.5048881195711806e-03 2.2561895790225239e-01
      8.6793841541992364e-02 4.2715457864632982e-02
      -1.9920827363339017e-02 7.2542369415950436e-02
      -7.2432550569115672e-01 -9.9377900393954083e-02
      -1.6950696977107338e-01 -8.3666324372576248e-02
      -7.9136412803828687e-02 4.6517062124723896e-02
      -8.7448554869198392e-02 6.6219701000908404e-02
      3.9944734910607393e-01 -1.0605678484895345e-02
      4.3257175592726854e-01 8.7410434366326131e-02
      -1.2228246512385434e-01 1.8977266715109957e-02
      1.2899864183291584e-01 3.9489411617685353e-03
      1.4532799051144177e-01 3.3378207277464808e-02
      -1.0795070364361635e-02 -1.1611149120565181e-01
      -3.5500718607094320e-02 -3.9098177108636972e-02
      8.2081514492953079e-03 -2.5743477755867307e-02
      -6.8464133366875457e-02 5.0478235879710720e-01
      1.2243746117441629e-02 2.0029171614635657e-02
      -1.8518979708496315e-02 8.9271091023773980e-02
      1.6339582794989041e-01 -6.7952149943359727e-02
      -1.9741393131114368e-01 -2.6552287983253614e-01
      -4.0982476295448100e-02 -8.6147432976230995e-02
      1.7830249031872408e-01 2.4970490934980563e-02
      -6.5996392419390051e-02 -1.2614843233238113e-01
      8.6742908465260199e-02 7.5791307141064343e-02
      3.7426030060682854e-02 -2.7681170870037526e-02
      -4.8416197975209657e-02 -3.1721845763762906e-02
      -2.7776610164686956e-03 1.9269692502213501e-01
      3.3369578184713683e-01 -2.7841754871740985e-02
      6.0051431836620296e-02 2.0213878711823466e-01
      -3.1834347932484901e-02 -1.2445551170653235e-02
      2.1709834399686045e-01 5.6234570019690311e-01
      -2.2032864648592035e-01 -1.3117759229992434e-02
      3.9674651047036363e-03 -3.0291630765225383e-02
      3.7293637766208237e-01 -1.4761194494567000e-02
      -1.2832267213465320e-01 5.9252920585019568e-02
      3.8944484503635753e-02 -4.2468102355969990e-02
      1.2914447497220197e-01 2.3845554506797734e-02
      8.6347780720939973e-02 -6.2577028249222885e-02
      -1.9530155094310997e-02 3.8386855063222550e-02
      -2.2523549442711244e-01 -1.1201175299563745e-03
      -7.3228815010948883e-02 -9.7515653875391337e-02
      -6.5744575978379169e-02 7.6527117394695518e-02
      -3.3254012478650931e-02 -3.0286706675812534e-02
      9.0469365150839059e-02 1.4377702011464275e-01
      9.7661151778231203e-02 1.5114825309005342e-02
      1.7044203402975121e-03 -2.5568965497799218e-02
      5.2888820993999143e-02 7.0688536881724065e-02
      -4.2757011291466848e-02 5.1215163863294044e-01
      1.3361523041236275e-02 -2.3980594515531924e-02
      -4.9132883808685199e-03 -2.8179671743561483e-02
      -6.9685225633689646e-02 1.4179958626194125e-01
      9.0064047183211843e-02 9.8287034992273984e-03
      9.9800840659023421e-02 9.2470084651333478e-03
      -4.5154134737386248e-01 1.3205138369234845e-01
      -6.6324812385942233e-02 -9.6894976141097856e-03
      1.0886029254081396e-01 -3.1976947042186975e-02
      -5.6323357118834960e-02 1.3450265512156839e-01
      -2.9868417341370479e-01 -2.9145150475875393e-02
      3.2786222367144685e-01 2.9797787717735025e-03
      8.2830122975353151e-02 8.2895024983538818e-02
      1.8556293808541954e-01 1.2322707894307038e-01
      2.9027919821992704e-01 -4.5903038862654857e-02
      -1.2127471367184003e-01 -4.0347834198796719e-03
      -1.6309239378968818e-02 -1.6088085664811605e-01
      -8.2596975693464511e-02 -6.0906100815850704e-02
      -1.0856164454899195e-01 4.8779632267187761e-01
      7.0446060486582307e-02 1.2881538841909526e-01
      -1.8649542810773523e-02 -8.3677416937545837e-02
      -4.8140846738715097e-02 1.5938436972528194e-02
      -6.5307367241494385e-02 -2.4337152004495860e-01
      -3.0631610215067863e-02 -2.1467673332541667e-02
      -6.6864007682044688e-02 -7.6717041845114353e-02
      5.5825871980001447e-02 3.8913601571666644e-02
      4.4920338092605386e-02 1.5147966601306779e-02
      1.2616303967750189e-01 5.9794313293521847e-02
      -1.0571412666775300e-02 -8.1133644247202236e-02
      -8.7008447554929966e-02 2.2033996819505039e-01
      3.1256160963042012e-01 -9.8801109025359116e-03
      -6.1955963922611754e-02 -2.8430378811540058e-01
      -4.5797109008249876e-02 1.8333571860471638e-02
      1.0701548185096360e-01 5.4581414385241711e-01
      1.7796646683071266e-02 -9.0623945729868302e-02
      -1.5726560544385398e-01 6.5671180960429246e-02
      3.3182459113018542e-01 2.5589516119220831e-02
      1.9551600190167998e-01 -1.9535576907100571e-02
      -1.4312334565628632e-01 3.7734869730618126e-02
      1.1844129601951577e-01 7.7508211556546580e-02
      1.4318778640167803e-02 -5.4413162118709286e-02
      2.4466348706424296e-02 2.2707603728748901e-02
      -3.0006049485120695e-01 -7.3354832178904325e-03
      -6.0303423303298277e-02 2.2384722499228328e-02
      -1.1429469887662216e-01 -4.9277692970730369e-02
      9.6236874645596340e-02 -1.6770795951050893e-01
      5.9571340975574677e-02 -7.2455931443005689e-02
      -5.4594434541717488e-02 -8.3535911300821677e-02
      -7.6256668767439211e-03 -3.9900734602444476e-02
      1.3089551941898614e-02 2.7348140107934179e-02
      -5.5411419873044196e-02 3.5718996044435353e-01
      3.4157246281669294e-02 6.4117329627400672e-03
      1.4737065538081240e-01 6.4032228574800704e-02
      8.2023806716126330e-02 1.4964131629406088e-01
      -6.8962622909506693e-02 -2.3886632377225634e-02
      -2.9082854700654703e-02 1.6782486475304951e-02
      -5.1578487209811119e-01 -4.6501142448023884e-02
      -1.2872873423451733e-01 3.7439822908197883e-04
      3.4297466218932912e-02 -3.0319801133845321e-02
      6.6867854824124023e-02 -4.7556028987579838e-02
      9.6377336243538961e-02 1.3300239602513128e-01
      4.3114842493559230e-01 -9.5619407654383107e-02
      3.6715199500865443e-02 -1.1102867427930604e-01
      1.7090702784934221e-02 -5.1509718059125131e-02
      2.4982840833669340e-01 2.5320146602573798e-02
      2.8047135188260925e-02 2.4259028144452111e-03
      -1.0359929548277242e-02 -2.2192229568995060e-02
      2.7979383627677965e-02 -1.0526728225986608e-01
      4.5178314191053039e-02 4.3813580264349899e-01
      -3.9994211173140877e-03 -4.1994109766416224e-02
      -2.7705043258817581e-02 -3.6024233426913244e-02
      2.7696168789405495e-01 -5.5330755194201220e-02
      8.2939290001550984e-03 -1.2137934695671609e-01
      -3.6937641029519588e-02 1.7848627271038964e-02
      -2.1057902744721607e-01 6.5637559985697369e-02
      8.6340740364961116e-02 1.0170608530980632e-01
      -4.0415336859917085e-02 -1.6463513307014278e-02
      1.1629653143715693e-01 -1.4616747703962779e-01
      -1.0355222740982606e-01 1.0394435024718829e-01
      -1.4042105915736992e-02 2.8228171742994224e-01
      2.6064137728261744e-01 -5.9912721011033690e-02
      8.9023740923297817e-02 5.9392902812058251e-02
      -4.4700608743005084e-02 6.6501165265067261e-02
      1.0147604467045418e-01 4.9791811209666287e-01
      1.4485772859984388e-02 7.5497040267540325e-02
      4.8208805739221802e-02 3.9979823105902743e-02
      8.3312917955105592e-02 -7.0629519986971506e-02
      -7.9832357794575079e-02 8.0814382760130490e-02
      6.3462794752175949e-02 -8.3766766563152059e-02
      5.1594229812770495e-02 3.9097188177472436e-03
      3.6543988465604166e-02 -8.8708504627363035e-04
      1.1636824091312836e-01 7.4618427210836821e-02
      -2.9837325372727878e-02 9.7027943374846590e-02
      1.2883311143436166e-01 -4.4736653491644719e-02
      -1.6430100979187465e-01 -3.3289337120993037e-02
      1.1944535177278831e-01 3.3908940413923059e-05
      1.3077886507291839e-03 1.2729881519852682e-01
      1.2354909504580573e-01 5.0052821989472066e-03
      3.5884406578035911e-02 -7.3512268497314126e-02
      -6.8395328168043695e-02 -1.2667926288407208e-01
      -6.5743149032991721e-02 1.0283623925027079e-01
      6.3645842837736347e-02 -9.0183603588205610e-02
      -3.2178054433684111e-01 1.1588455094920552e-01
      -2.2184825106306531e-02 2.5824562049411043e-01
      2.0287930025013636e-02 6.3701173160982750e-03
      -4.8550669860681024e-02 5.7224192565257938e-02
      -2.3091740300272903e-01 -3.6021476516048263e-02
      -1.2696308077517324e-01 1.2847504557529579e-01
      -3.9335095882803713e-02 8.8603323298556066e-02
      -2.5618075692087704e-02 -8.5772040325931553e-02
      -2.6237202320163699e-01 1.4987069890114924e-01
      -1.3997170630883518e-01 2.4141034232795601e-02
      6.7691416182339176e-02 6.2865307200599033e-02
      -2.6303461491655311e-01 -8.6371809672938976e-02
      1.6508632467778606e-01 1.6021211566322874e-01
      9.5008485757815203e-02 1.4966138779362387e-01
      -2.1229052003320217e-02 4.9588030979450186e-02
      -5.4305262509791542e-02 -7.2108464746787337e-02
      -1.5782053509284622e-02 3.9842379250456522e-01
      -1.1618801802792865e-01 7.2103048237077083e-02
      -1.7155096351430355e-02 1.4740326780863586e-01
      -3.6568661282761906e-02 -8.2599730194686791e-02
      1.0546552794105333e-02 -9.9096522579492766e-02
      1.3552467580058811e-01 2.1149916527988925e-02
      -1.1235082312906641e-01 3.1225271710701812e-02
      6.1664889398161553e-02 1.8588311959150131e-02
      1.5251190833300729e-01 -7.8020756237999880e-02
      -2.6520022367302186e-02 1.7903959946513318e-01
      1.1800843563623040e-01 -8.3820759122487820e-02
      -1.9125963242607688e-01 1.1367738732987255e-01
      1.7249482985299636e-01 -1.0675916728378901e-01
      -3.2133634219006772e-02 -2.2028947301002300e-01
      -1.0141303345056385e-01 8.8175745403550731e-03
      2.0075290086331288e-01 -1.0138903691650578e-01
      2.0387856860904172e-01 3.4035346551576792e-02
      6.4810043724218919e-02 4.2822427667643617e-02
      -1.7283333510064214e-01 5.8957626808537236e-02
      -5.0016429579533186e-02 7.6841942250922654e-02
      -2.5699916973255944e-02 -6.8331278549248656e-02
      -1.0472732042335221e-02 -1.2332520559137118e-02
      1.0066371335904058e-01 2.9134372585879347e-02
      1.0301876100969781e-02 -8.3865622845825022e-02
      -2.1697483278593591e-01 -1.4143670074878995e-01
      -7.3916975993863696e-02 -5.4974482582667841e-03
      -6.3667466470965980e-02 4.3162831731380899e-02
      -6.0864090765138011e-02 -1.6319396797253690e-02
      -1.1633995906937169e-02 -1.4040673316476276e-01
      1.8534888203466823e-02 -8.9021177707419324e-02
      1.0166389094666066e-01 -3.0044448468382823e-02
      -4.0205705160031184e-02 -5.5474318614748441e-02
      -1.2347311610489384e-02 -1.8046697383132199e-01
      -7.4855999708373894e-02 -1.2868313723790722e-01
      1.6691573847203758e-01 -4.1291981056051322e-02
      -1.2812923782437324e-01 2.4032961440362266e-01
      -3.2231630735850260e-02 -6.6201554350271627e-02
      -8.8754292631426618e-02 -2.3368929737467184e-03
      -9.6434214312159469e-02 -9.0073297551238954e-02
      -8.3176301935188615e-02 -2.3131054874473708e-01
      -9.8207382596023504e-02 1.6792939414265712e-01
      -1.2393697167206820e-01 2.4625149480826530e-03
      4.3673777640933463e-02 6.3241562483025440e-02
      1.4145171348004432e-01 -7.1451432738360229e-02
      -5.4091649216412456e-02 -6.1639661728691765e-02
      -3.9450111098266777e-01 -1.0996304404385691e-01
      1.1119765488819919e-01 1.4188607190392910e-01
      -2.7103017262735632e-02 6.8592715128163798e-02
      -6.4107867684879846e-02 -5.1796931006349134e-02
      -1.7317576382927156e-02 7.8350572323012416e-02
      -2.4101237126212920e-02 2.0782332135289388e-02
      1.1323801542806112e-02 -3.4600572936547773e-02
      1.0198305674172738e-02 4.6097622048928470e-02
      5.5741330079244991e-02 -2.5929067655391793e-02
      8.1233441609598445e-02 -2.2680943924776334e-01
      6.6246078648193110e-02 2.3527660470243274e-02
      -2.6667330362339903e-01 -8.0077657487866605e-02
      4.8560538195228556e-02 -3.9927544085204568e-02
      4.2389758769794082e-02 -5.2601646639857440e-02
      1.4942336953816344e-02 7.6092827534053886e-02
      6.1810911522208169e-02 2.1441778308468263e-02
      -7.4139004923211585e-02 1.5009665389794621e-01
      2.7062946582771635e-01 -9.9900799213718472e-02
      9.2440172515481644e-02 4.3390532596864588e-03
      7.5650047983562785e-02 -7.6995713744232946e-02
      9.0492853463198880e-02 5.6351837736059611e-02
      -1.4937085921070506e-01 8.7885585546150322e-02
      6.2934421254167483e-02 3.3006457923884666e-02
      7.0584825358476808e-02 2.3429734743619084e-02
      -1.2233829100010639e-01 -3.0995674517090375e-02
      -5.4826726064522824e-02 -5.0444111399163688e-02
      7.4510443150293384e-02 6.1327132868503061e-02
      1.1113882523345238e-01 6.6135562286012356e-03
      -4.4343539171329799e-02 -1.1588197757978269e-01
      3.9032940046380152e-02 1.7481896109033723e-02
      1.5402884564188545e-02 -7.8222865821799048e-02
      -1.8697735601211729e-01 -7.5880243503651273e-02
      1.8111417306531655e-02 1.4628601585606204e-02
      -1.4381984998672171e-02 -1.5936190744294757e-02
      6.9828723468704335e-02 -2.8493903293915539e-02
      4.6471876076927675e-02 -4.2194441043709667e-02
      1.4151466760152560e-02 -5.0197077584005267e-02
      1.0967509870987595e-02 -1.6489576531611580e-01
      -1.0697327977296406e-01 -7.0474228446123513e-02
      -6.2414480130036087e-02 1.2563327950893632e-02
      -1.0087844389119595e-01 2.0075102222994809e-01
      7.3833792090648429e-02 3.3734054412091999e-02
      6.6288012987762171e-02 6.8101672132003299e-02
      -2.4854897362191772e-01 -2.2509003637247883e-02
      -1.1513862897292639e-02 -1.5326183518534123e-01
      -7.0392855709073957e-02 9.2094723646608728e-02
      -3.0973199793781402e-02 7.9565540056020997e-02
      -1.0244822877960795e-01 3.2195593888451814e-02
      4.4607875871191360e-02 8.6848207745170422e-02
      -3.9505457704393433e-02 2.6990881131029893e-02
      3.2680815592036960e-01 -2.3449026274999760e-02
      8.3545477871408341e-02 1.6749462077235468e-02
      -5.8807337815698999e-03 -7.5532021482142706e-02
      -1.1223101463831740e-01 1.5045593397042373e-03
      -9.8701249800934962e-02 -2.6973465616195264e-02
      -4.8018487665676297e-02 -5.2221451885298434e-02
      9.8028316703087370e-02 7.3037159478279712e-02
      1.9429910857544945e-03 1.2278088132592102e-02
      1.2949718019988474e-01 1.6957822639927088e-03
      -1.3768187316793478e-02 4.2354519891457505e-02
      -5.2155569080834123e-02 -5.3384693308165219e-02
      -3.9197676524690100e-01 2.6270962157534879e-02
      -5.8605069116779068e-02 9.2231703643129714e-03
      -1.8908650604543557e-02 -3.1808876557860910e-02
      7.6859226206604264e-02 4.5027527951942453e-02
      4.8535239209407215e-02 2.5853208230188732e-02
      -6.5425629697439897e-02 4.3059957178836226e-02
      1.2747618378614550e-02 3.6235170896306689e-03
      4.5966232600035038e-02 2.5083833765842645e-01
      -6.6098407217056471e-03 2.9925870082360480e-02
      1.6194543955922827e-01 5.9346507002542848e-01
      4.4227272373593418e-03 5.9420407558587766e-03
      -9.1752349462726236e-03 -2.3821936574394974e-02
      -1.4314544647936905e-01 4.2613729998955616e-02
      5.8832660311171646e-02 7.1993903712283425e-02
      1.2293443293287055e-02 9.9490176377338632e-02
      -4.7105718474564059e-02 6.2495946033643286e-02
      -8.4377745002707075e-02 1.0345717166147204e-01
      -9.8333398131922618e-03 -5.4058797402331708e-02
      -1.8359923430511926e-01 8.8202941391210932e-02
      -4.5285681061948510e-02 -4.9672042096386960e-02
      -7.4949560088349706e-03 1.4367555403580767e-02
      7.2806737121034540e-03 -2.1263652193991772e-02
      -9.2367719103669435e-02 -6.8454630070757916e-02
      -8.0113339555763739e-03 -1.8230451771938192e-02
      -3.2750256888275639e-02 -4.8488386657540766e-02
      4.4325583953424577e-02 -3.5522391486115683e-02
      -3.2920299604226155e-02 2.4800032621090751e-01
      6.6086471156284136e-04 7.0884024386905567e-02
      -1.1969491708577897e-02 -3.8390496753143863e-02
      7.6971722391624073e-02 7.3622389347313952e-02
      5.9792578594460048e-03 5.5206387518276570e-02
      2.5958274033971478e-02 -1.1816379060833997e-01
      2.4356342956845517e-01 -1.2790116913138500e-02
      -6.9429200602669191e-03 -6.9621042904220873e-02
      -7.8401798691515964e-02 -8.4441079046222958e-02
      -3.5454974016244895e-02 -3.8953779526263263e-02
      -3.5033328218302157e-02 -3.4984489493597892e-02
      2.9586178195913232e-01 3.4739393471103594e-02
      5.8961543304251525e-02 -2.1104245772581912e-02
      -1.5599921454789606e-01 -5.2647028339901980e-02
      1.0682261893159059e-01 -1.6230710063059716e-02
      5.4854048923346707e-02 -9.0617942577863528e-02
      2.8657903195733952e-02 -8.7787266828255814e-03
      -7.3261256406104466e-02 5.6990630486747296e-02
      -5.2992751780246289e-02 -3.6740901019977242e-02
      2.2820423445445319e-02 2.2805741590277352e-02
      -6.9756999803181868e-02 8.1117666309935249e-02
      7.3743114749520708e-02 -3.8372108190229529e-02
      1.0985050917684948e-01 5.5444691800681040e-02
      -1.0563712605437717e-01 3.6359005865563399e-02
      -2.6339782573636519e-02 -4.9287240586719731e-02
      -1.6540836751661778e-02 -2.4962351508832841e-02
      4.3944037728797306e-02 -8.6532332090426239e-02
      1.4476863678272275e-01 -3.2208731568337276e-04
      -8.6423156362960316e-02 -1.7082319415118362e-02
      -1.5253054832854518e-01 9.6975286537910696e-02
      3.5491596756739058e-01 -1.2235853835108898e-01
      3.6007837613833207e-02 7.7162547681465563e-02
      4.9623042545480771e-02 -4.2756393263358332e-02
      1.0813627592009087e-01 1.8680277826013270e-01
      -1.2974239059528608e-01 4.4411907284527770e-02
      -8.3356093545566182e-02 -3.7301863784788322e-02
      2.8424648098852462e-01 2.6942730489274555e-03
      1.0336006097613229e-01 -3.6839992806438168e-02
      -1.0486272002321612e-01 -5.8676578187850000e-02
      -2.2714032804890920e-02 2.8828140405932488e-02
      1.1362072451318030e-01 3.3761253787881619e-02
      1.8144681537230416e-02 2.2626786222177224e-02
      -2.4840432383605771e-01 1.3887817910911171e-01
      8.1058090904935279e-03 -3.0077817610322894e-05
      -8.3735320084591183e-02 -1.3273384680786341e-02
      4.0633800855611725e-02 -8.7702825339572077e-02
      -7.1616953508158138e-02 8.7757188996990254e-02
      -6.3978377077389655e-03 -1.3445308269305375e-01
      -7.1214449475071148e-02 -7.5040904733236838e-02
      -6.1926127724083402e-02 -1.5985509272844065e-02
      -8.5644645668719058e-02 2.1053961079942723e-01
      -4.0734532306155244e-02 8.9805558290664403e-02
      -2.0558033410934543e-01 8.3621776486844851e-02
      9.2131451029860895e-02 1.8261462967860059e-01
      2.8276096813712421e-02 4.2067704618025711e-02
      -5.4607807979116275e-02 -4.3446256584823123e-02
      -4.1928254971390494e-01 -1.0438676883902372e-01
      -7.5549742353459251e-02 1.2540074406354279e-01
      4.5107248286626905e-02 -3.6971626343678829e-02
      -6.4752869718655737e-02 5.2423495274898459e-02
      -3.2369601447602681e-01 -2.0399194982047956e-02
      2.6814831547504564e-01 -5.6342251873717920e-02
      5.9170806663492830e-02 1.3996031742087287e-02
      -2.3375796855432929e-01 6.6134743671672547e-02
      2.4807052691574755e-01 8.0281373267546974e-02
      -5.3257958565035617e-02 3.1809611314733685e-02
      2.9860808263488495e-03 -2.0333091621571764e-02
      -5.5489629729328756e-02 -1.1085066199296553e-01
      -3.7806247775557574e-03 4.5818890173773574e-01
      -9.5394491057165826e-02 -8.5420092285914111e-03
      7.0748530560204775e-02 4.4637327048775551e-02
      6.5694180620398696e-02 2.1191461431789144e-02
      9.1729924382049549e-02 -1.3987801031859137e-01
      7.1443141764617302e-02 -7.5479303138916098e-02
      -2.1714166947706534e-01 4.9253510181934280e-02
      1.3117381528348841e-02 6.2949477225634820e-02
      6.4551015747456170e-02 -3.0471802874224251e-02
      9.9330674820445344e-02 1.5888663484024509e-01
      -6.0569166206639368e-03 6.3096037574360997e-02
      -2.6747631498518352e-02 2.1202355982235324e-01
      -4.1502567706055149e-02 -8.6322809417118937e-02
      5.5692058218867149e-02 -2.0486420358390733e-01
      1.6631887992559383e-02 -3.1102022701578007e-02
      4.5659648332338390e-02 6.4613809386430299e-01
      2.1834916533758841e-01 1.8660607260309985e-03
      -1.1699528003546251e-01 1.1637803555409787e-01
      3.1627940194068443e-01 6.9203535763663017e-03
      1.7271217120475404e-01 1.0976924877555126e-01
      -6.0853709342239125e-02 2.2687623249122674e-02
      1.0675710753155529e-01 -1.8583800803840190e-02
      -2.4048622120311818e-02 1.0409159339096553e-01
      3.7275352020111986e-02 7.2666994032576662e-02
      -2.9466060334051036e-01 4.3254070976378622e-02
      -8.5826439127237933e-02 -9.0812679411160765e-02
      1.0240712123099613e-01 2.8858463853248771e-02
      9.5080483404340541e-02 2.1101997228382810e-02
      -2.1840424870832317e-02 -1.1170813874589706e-02
      6.2715439968439590e-02 -2.0955160759833277e-02
      7.5664771478315518e-02 3.8690616779307400e-02
      -1.3851598409856961e-02 4.3429718902067052e-02
      -4.6107606971771464e-02 1.1702065202316574e-01
      -3.0304754381297865e-02 -9.7822767360808194e-02
      3.6609522285230262e-01 6.0132680276195442e-02
      -6.6457502998583393e-03 1.3367676985742752e-01
      -2.6871808227163171e-02 -1.2750017927443780e-01
      -3.3616975023740663e-02 -7.3309717490540938e-02
      -3.9923879376755556e-01 -2.0580720615195833e-01
      -1.2596451911579454e-01 -7.8548949142790800e-02
      2.8387410139937150e-02 5.4664772491691146e-02
      -4.7013198566592494e-02 -3.3406072332774421e-02
      -2.6267654521008427e-01 -3.0148223889850560e-02
      -2.5374927824330962e-01 -1.9680171492275723e-02
      7.1839679838857917e-02 4.9999072074529052e-03
      -7.5247324153755527e-02 1.6909004212444585e-02
      7.5154889002491121e-02 7.9106678568549138e-02
      -3.3544815669717239e-02 -7.2329975769470211e-03
      8.6480100088098963e-02 3.6772679554089582e-02
      1.2402767301257521e-02 -9.6771123249343144e-02
      1.6734567795328139e-02 8.5894884725586332e-02
      -3.1258071499872371e-02 4.6293473815008944e-02
      9.0874996202039524e-02 2.7624803866987461e-02
      8.3224366037133568e-02 3.8869240013690416e-02
      -1.2023143617006331e-02 -5.0468240253024399e-03
      9.0195922635323056e-02 5.1175862818845549e-02
      -1.7009517098491050e-01 -1.0472154656409122e-01
      -5.1395950271461349e-02 1.5609666635490207e-02
      -1.5576787912262871e-02 2.3825072562393662e-02
      -1.3112587951219872e-02 1.9431380304490506e-01
      9.4702712127712363e-02 3.0825827699156705e-02
      -2.6302829449199186e-03 1.5725086870228866e-01
      2.6239453935232460e-02 1.2662061916905323e-02
      -4.7116989435633673e-02 -1.7945112066890806e-01
      -1.1408275911961699e-01 6.0616877188361092e-03
      4.7023048350419705e-02 1.9568976747926173e-01
      1.7370593165731568e-01 6.8182345559791746e-02
      -1.5659492475093509e-01 -4.1036838344414704e-02
      1.8140181904461092e-01 -2.7580388433559779e-02
      1.1681015762585346e-01 -1.1878399936760431e-02
      -9.7266750916577466e-02 7.3312739794729803e-04
      -1.2730761870771705e-02 -4.1567069197813843e-03
      2.5714803785544634e-02 2.9267611237510854e-02
      1.0820335642241684e-01 -5.4384140089178884e-02
      -1.2673288529132812e-01 -1.0133947121066829e-01
      -7.6339818150704467e-02 -5.4504538269826548e-02
      -2.4602236327990143e-01 -6.4000211024805617e-02
      4.7185197837830137e-02 1.9307586170383008e-02
      -6.7041618602371497e-02 -4.9636120151638742e-02
      -3.0412159786803322e-02 -5.4990463128088876e-02
      1.1126703374910193e-01 3.4254990655921982e-02
      1.0402470472733891e-02 -4.2010657467169241e-02
      -2.6794355461821354e-02 3.5882728241205392e-02
      -4.4321425681778805e-02 -1.3182991257256379e-02
      4.0048547776043986e-01 -3.0129722392281257e-02
      1.9084057915567988e-02 5.3952061407958656e-02
      -1.9502361075343828e-02 -3.0265143002393812e-02
      -9.1691620860750913e-03 2.4443076851328660e-03
      -2.0080557684391820e-01 -8.2664183053466865e-03
      6.5407742541240396e-03 -1.3007544429490514e-01
      2.8918803672044684e-02 1.3787830958250635e-01
      2.5447514141239556e-02 -7.2909976059819373e-02
      -1.4960795007927979e-01 3.6378189719475110e-02
      1.8744545977332117e-01 -2.6012764969337125e-02
      8.8330056493508460e-02 -1.5667387242660111e-01
      -1.5587032111107879e-01 -7.8156452675370941e-02
      2.0896215768703815e-02 -1.4618536907328361e-02
      -3.3029598041772856e-02 1.1410218395702700e-02
      -2.5300354003815136e-02 4.8566555975906950e-02
      1.6996699759762125e-02 -6.5841641758459232e-02
      8.9257060267546068e-02 3.2918786798146998e-01
      -2.5386497154383287e-04 -7.5845098809293562e-02
      7.4829366160735447e-02 2.3437145888981683e-02
      2.3087105240027059e-01 -5.1594545623429432e-02
      -9.9401332978587803e-02 -1.6322726435714061e-01
      -2.3733568191834236e-02 3.1950866415352316e-02
      -1.9937716900411356e-01 -4.5416041129742894e-02
      1.0197700105683037e-01 1.0807676375572416e-03
      4.6033391656186945e-02 -9.4432182669770645e-02
      -7.0339746009738288e-02 1.2401218647227293e-01
      7.2514997319751556e-02 -6.7602886365826773e-02
      -3.5665927257990358e-02 1.8798390355707292e-02
      1.5978990739345228e-01 -2.8181121081943199e-02
      3.5277208743979840e-02 -1.9335064587365436e-01
      1.9870889265449280e-02 -3.5400327354954866e-02
      2.1692249702678490e-01 4.6617568962480938e-01
      3.3156929664002383e-01 4.0982788035237250e-02
      -8.8035563954573598e-02 8.6930703428566847e-03
      5.1493592644219585e-02 -3.7328696159401750e-02
      5.5171214166352518e-02 9.9803276652891196e-02
      5.9663800478530975e-02 -5.8728355215027686e-02
      -5.0367467289532092e-02 2.6093161641487565e-02
      7.7336163902891719e-02 6.3530717878965678e-02
      1.5186199027795896e-01 -1.2148955843828828e-01
      -5.8249337985277934e-02 -8.1622255555583778e-02
      -6.6685024735718995e-02 -9.2146401152192664e-02
      -9.5180344264318387e-02 -4.4043777517358291e-03
      -2.2455807561354558e-02 8.1100861935397867e-02
      -2.6071130168131011e-02 -9.2805439381480587e-02
      8.6942258627474719e-02 -1.1950651812433764e-01
      1.3097418519208259e-01 -1.9933658936270881e-03
      -2.2340598351272237e-02 -1.4551866704217049e-02
      -7.1443673995342169e-02 2.4455488657141536e-01
      3.2824740092756814e-02 -1.4070439276989288e-01
      2.3906021559690901e-01 2.5065639642320166e-03
      -1.1037894495892622e-01 1.6685042600591827e-02
      1.1842572639270740e-02 -2.0576305475081283e-02
      -9.3233479745136655e-02 5.8838597824864024e-02
      -1.2090239781598368e-01 -5.2759487615336054e-02
      -6.3150356283205672e-02 -1.9667592595985703e-01
      -1.8211944833394413e-02 -4.2398482457392745e-03
      -8.3381942278571333e-02 -1.7604257246836589e-03
      2.1196444341565712e-02 5.8241996174043083e-02
      2.8958977022720372e-01 -5.4237436690433946e-02
      5.8641953160627862e-02 -1.7520948503138889e-01
      -2.5261124394055923e-01 -5.4908259492292152e-02
      1.2630635845831259e-01 1.3205680209026818e-01
      -4.2669843736768145e-02 -5.0896269453954618e-02
      3.4365489135586826e-02 -9.0194613302298403e-05
      1.0104144000437860e-01 -2.1742277168158863e-02
      -3.5455420285411973e-02 4.6081374370814254e-01
      6.9365690077296691e-02 3.3886085699936792e-02
      1.0295279134671549e-01 2.1676719875219536e-02
      8.4441971401615995e-02 7.5629058400418836e-02
      -2.4029598807759844e-02 -1.6824263406304971e-01
      7.7643432869779977e-04 -9.9609044917202350e-02
      -3.9384040753962857e-01 8.7480517033596134e-02
      7.9348665796692447e-02 1.3464391582323038e-01
      1.4393318920823300e-01 -1.0793362793639297e-01
      -1.6400844474962267e-01 -9.1299740932021811e-02
      6.4702505491383358e-02 1.5812043637243486e-01
      -7.0190136483908011e-02 1.0248718218403138e-01
      5.9765554167974987e-02 -8.3226448563024372e-02
      1.5857753531363381e-01 -2.3713238276132903e-01
      -3.2555910403465560e-02 -2.1383211732309598e-02
      9.0817819173104594e-02 6.5471713562336153e-01
      1.9086658923478189e-01 1.1799440968343332e-01
      -1.4633036274847537e-02 1.1379507971247335e-01
      6.0678173305558025e-02 5.9736895278126721e-02
      -5.8511464734280115e-02 1.2281792573845234e-01
      5.9916755822484034e-02 -2.8055713010241567e-02
      4.6585617851040664e-02 1.1827077947612237e-01
      1.0799525695093452e-01 8.7489729822899154e-02
      6.1761623629180078e-02 -7.9604800713050275e-02
      -2.3111744008538826e-01 -4.2367125903436324e-02
      2.6475789073864064e-02 -1.0804490561755693e-01
      -6.5259105159223077e-02 3.2776441186542610e-03
      -7.4317241604854364e-03 1.5809651234940786e-01
      -7.2437885922112168e-03 -1.8149785456538737e-03
      1.3965876728901119e-01 -1.5806887737083897e-01
      3.3454806264501931e-02 -7.7119259834322246e-02
      1.2596353253421017e-01 1.6829794937230830e-02
      3.9820602834571867e-02 -1.7044767048003667e-01
      -4.4911494213663965e-02 -1.2403592366382013e-01
      -2.4211244633423858e-02 2.6205714085990869e-02
      -1.0344810320947107e-01 -4.8718676055613711e-02
      5.0344296714267987e-03 4.0605482925585336e-02
      -6.6405594618954483e-02 -4.0395092420001819e-02
      -1.1165137203321070e-01 -8.3313252393413542e-02
      -1.4291659145982771e-01 -1.8460812856859640e-01
      -9.6013722642788207e-02 8.5874046948923283e-02
      -9.2621726792406670e-02 9.9985030727863064e-02
      -3.9985594872443375e-01 1.2103577060417791e-02
      2.0093534150365300e-01 -1.1953902820220748e-02
      7.0849443359979558e-02 2.3848519235587076e-02
      1.8410222237936733e-01 1.0189400116735658e-01
      1.8171566614209403e-01 -5.7760486556996553e-02
      -6.4464642713329898e-02 -5.3295553431301261e-02
      -8.3006120208302614e-02 -1.2516867470845788e-01
      -7.2167997532236128e-02 1.8478382883569087e-02
      -1.1908754465163551e-01 -1.4440206313200657e-01
      2.0148661318521256e-02 6.3729847605263151e-02
      -1.7841367655768520e-02 -4.2371075399374201e-02
      2.0327571096274491e-01 8.4466794635382092e-02
      1.1186467886164364e-01 -3.8267256424859397e-02
      -1.5567058060089982e-02 -8.5873181240450513e-02
      -3.5536992002617490e-01 -5.4526875897718458e-02
      -6.6062674791191670e-02 -2.9779607085422016e-02
      -2.6646341411761122e-02 -1.9067329420086373e-02
      1.1273577597040427e-01 -8.2546617058292596e-02
      6.4781348290525722e-03 -1.7316782751766127e-01
      -1.3121437420828894e-02 4.8402976551716610e-02
      1.9853014663076649e-01 -8.2336230087515352e-02
      3.0040039652189741e-02 -1.3357497959593387e-01
      -6.1526014132809087e-02 -1.7114138335471238e-01
      1.2525836520089395e-01 1.5069386942111018e-01
      -2.6067960645078016e-02 1.3725349275186102e-01
      -5.2799799146461698e-02 2.6666045725006506e-02
      -1.0466569509087736e-02 -1.9306671455443434e-02
      2.2599426394125408e-01 1.4564236729704675e-02
      -1.1728734054594160e-01 4.9096215757932396e-02
      -5.8117635545195008e-02 6.4242376130294538e-03
      1.5324912200453402e-02 5.5556022759809073e-02
      1.0312966133547602e-02 1.0233590462382508e-01
      1.3557653102348461e-02 1.0570459468420619e-01
      -7.0689619358509606e-02 -1.0389620533993503e-01
      -5.7536571632813123e-02 -9.2654455579983169e-02
      1.8837304393217960e-01 -2.3473464287233192e-02
      -1.1070168749576613e-01 -2.5478058744220124e-02
      5.9447296715653186e-02 -1.6115934262068790e-01
      2.7039163451012371e-02 -1.9264951532004863e-02
      -4.4824338173306465e-02 -9.6833920823834348e-04
      -8.2660059786327608e-02 8.2604697249933190e-02
      -8.4289235237299961e-02 6.6022184270691665e-03
      -1.0990597525177177e-01 2.4177431706730711e-02
      6.5839173923629521e-02 5.4028395849666191e-02
      -9.8446482422822806e-02 -3.6867389866803171e-02
      1.6278469352446458e-02 4.2444177655449063e-02
      1.1635738370074696e-01 6.9214043537590031e-02
      -1.5495056969680052e-01 -3.2336182437271432e-02
      -4.5802203116004171e-02 -1.6434271880030375e-02
      -2.0246532366132355e-02 -7.5080219833145209e-02
      -2.6867987450265318e-01 8.7531831208637140e-02
      -1.6970130794657198e-01 -2.3912165012606568e-02
      7.9713102592041327e-02 -5.1582886872738036e-02
      1.1745725232909716e-01 -5.4006214750011397e-02
      1.2840481186989769e-01 1.2710955051613329e-02
      7.9904827671185008e-03 7.9021320596365033e-02
      -5.8215627867568072e-02 -5.0732564184745928e-02
      -1.6640410550235483e-02 -3.2829257849954739e-02
      -6.1813194392658720e-02 2.5251107154466040e-01
      -3.7703421221957217e-02 6.7134741021371458e-02
      3.3717907096848160e-02 1.2479510208960774e-01
      1.3096882544355876e-01 2.7009601394174687e-02
      7.3125809198648015e-02 -7.0226369807614000e-02
      4.9920899351557899e-02 -7.5579752946323603e-02
      -4.6917785376279497e-01 3.2850163023414140e-02
      2.3185509872532407e-02 8.9570535421029680e-03
      7.9500974244024913e-02 -5.0393490536533060e-02
      -8.2517294347077118e-03 2.0874386394499445e-01
      6.8319871752232234e-03 4.0047434575578661e-02
      -6.7900399531249545e-02 1.5430025072818856e-01
      -7.8665234777673829e-02 6.2645812149110672e-03
      5.2482982760591962e-02 -1.7468561543709735e-01
      -9.5327319955897272e-02 -6.4210940200008476e-02
      1.4588820910415570e-02 1.2935767513859014e-01
      1.7144534362935998e-01 -1.1874828779411857e-02
      3.5477659343743334e-02 -2.2066271340651637e-02
      2.3410973112494807e-01 -4.1918216700965447e-02
      6.7307473838540008e-02 7.7053345898129164e-02
      9.2905321143455458e-03 -1.3799028989481235e-01
      2.8272742907784112e-02 -7.2408955403731129e-02
      1.6108469398605224e-01 -4.0449314361009479e-02
      1.1289220954742803e-01 -1.0814549503610464e-01
      -1.4508692971668113e-01 -2.5033195668331204e-02
      4.6949023650202634e-02 -3.0564343592222900e-02
      -8.8752123535876803e-02 1.8679188711347196e-02
      4.1281291603614122e-02 -2.0331840015544396e-02
      -1.5619776912224650e-01 -7.7826377026520885e-02
      6.5295461153352377e-04 -2.2985488851040618e-02
      1.1103558302643043e-01 7.4443936040868477e-02
      3.4938578806743691e-02 -9.8265703789316497e-03
      -1.2332731147341890e-01 -3.4523895411921343e-02
      3.2922043614547120e-02 -1.0364279608382625e-01
      -3.5824033441528021e-02 3.1158629967434393e-02
      3.3987382237488199e-02 -9.7000555474718572e-02
      -6.3940167643279228e-02 -3.0631864314244805e-02
      5.9692803592532231e-03 -6.4372041390285656e-02
      -4.7600564175339963e-02 5.0180562555118338e-02
      -1.5562273517531861e-01 -9.8260254894472834e-02
      -1.0897288315832125e-01 2.0879495732863704e-01
      -6.9208776711589259e-02 3.9545942809449744e-02
      -2.9689335213084600e-01 9.5780282717679049e-02
      1.7994110035063374e-01 3.7732603014246816e-02
      -5.6488617345307754e-03 6.4405439224959435e-02
      -6.4563551338788217e-02 6.9425801363419692e-02
      1.7691823319621502e-01 -6.4814433573698775e-03
      4.0354420795806367e-02 2.7682174954030640e-03
      -6.6190083622581691e-02 9.3381415154228896e-03
      -3.7048691345509144e-02 2.0926796465548542e-02
      2.5439497356153071e-02 1.5409987181278453e-01
      -1.2326093082012587e-01 1.3727102777836061e-02
      1.1532037200145794e-01 6.5580661427252105e-03
      8.7081840262637947e-02 1.5530972168951834e-01
      -1.1442340178695466e-01 -8.5080488168247023e-02
      6.5454696124251893e-02 -8.9895505888225244e-02
      6.5139669140386727e-02 -2.6173366637618909e-02
      5.1910975535672393e-02 6.7658476559836353e-02
      6.8618608948705709e-02 -6.5750514418242686e-02
      2.3598447982027228e-02 1.0790972566535217e-01
      9.1673390491829286e-03 -1.0108944298873786e-01
      -5.4721034474501263e-03 -3.5425554681300701e-02
      9.6888300460400714e-02 -6.4823964338219962e-03
      2.3674315536200169e-02 -1.9230001509678804e-01
      -4.7404180855918174e-02 -1.5779202167511944e-02
      1.0381995470037091e-03 1.2398511875662008e-01
      2.0980768613149431e-01 9.1206162994515186e-02
      -9.4076074336414600e-02 -1.7364669250852800e-02
      1.6661271855408327e-01 6.2885049909996368e-02
      4.8485085824260338e-02 8.8720023815957191e-04
      -4.6394547781015288e-02 8.0282247201916568e-03
      7.7969700113406544e-03 1.7185587004668487e-02
      6.3517782840042489e-02 3.3025814668220695e-02
      4.1267808259353611e-02 -2.8415428820190380e-03
      -1.1961202743360455e-01 -6.1608215687383658e-02
      -4.2005618964296269e-02 -9.9078802337931218e-02
      -1.8711016427216154e-01 -3.2798857594275727e-02
      4.3515178648511038e-02 -7.7039151736242442e-02
      -5.4763513880083735e-02 -1.6763237759554801e-02
      5.3634096855734656e-02 -8.6887885782835378e-02
      2.1062804287574229e-02 -7.1169736542761472e-02
      -3.2097123133473848e-02 6.3005297187613690e-02
      -5.4519406290937891e-02 5.6692472158840809e-02
      -5.4277252666890236e-02 -6.5926061649665205e-02
      7.9864819514446628e-02 3.9862657331754169e-02
      -4.1523066902979897e-02 9.2245783908313145e-02
      -2.3876720416076687e-03 -4.0133600886753010e-02
      -6.6194132574425926e-02 -1.6004818939577774e-02
      -1.9948459689282455e-01 -6.8747846422723746e-02
      -1.0534902307760841e-01 -1.6786921399028898e-01
      -7.4810100522208753e-02 -3.2084226825833895e-02
      -2.3006498023061425e-02 -6.5718663987921269e-02
      -1.2814021202611786e-01 4.1282988939509088e-02
      -2.1724946587409449e-01 -2.5491969488293378e-02
      1.0020918207214306e-01 -2.8756365963182876e-02
      -1.2329722520847022e-01 -1.0470644919210505e-01
      1.3355884193150155e-01 1.2790100614379957e-01
      9.2957186751464208e-02 1.1954751625030861e-01
      2.1001476315392034e-03 3.3661050466892065e-02
      2.9788248677106971e-02 4.7863242838321496e-02
      -3.7536839636337408e-03 1.8325856752825337e-01
      -4.7874792688428550e-02 -5.3515641451245870e-02
      6.5465662973594713e-02 4.8692170424824890e-02
      1.3801355967505616e-01 -7.3132350880158861e-02
      2.6903798482795237e-02 -1.4910588411660594e-01
      1.0273392939703373e-01 4.2951896320231032e-02
      -6.3164864958357256e-02 -3.4368991967383432e-02
      5.0355041875836677e-02 -2.5795176817969164e-02
      6.3168415416395909e-02 -1.0745856871323177e-02
      -9.0162188094327828e-02 1.8188177749335671e-01
      7.8699225181065868e-02 -7.7684174366141168e-02
      -9.4243280771656682e-02 5.8549306882749633e-02
      -1.2062660431657667e-01 5.0172950611432204e-02
      2.8487403903167390e-02 -1.0302336943765469e-01
      -5.6942779350624272e-02 -2.3535843418739447e-03
      7.5441082599664727e-02 7.4121757186454529e-02
      1.0875402586572371e-01 7.0084889903592296e-02
      -4.5711011949772146e-02 5.8437614764675809e-03
      1.7052994004074934e-01 -1.5754985171104326e-03
      -3.5599749623247461e-02 3.7383363919865666e-02
      7.4162247777761814e-02 -1.0623377698068143e-01
      -3.5589603120623550e-02 9.3334916656463970e-02
      1.0063612259426487e-01 -2.0338370975349358e-02
      1.4711496771547634e-02 -1.2201062752375619e-01
      -3.6441726191461327e-02 -2.2223139982029100e-02
      -2.3508563507015173e-02 -1.3610767087434490e-02
      -6.7804061734062504e-02 -1.9366056052591851e-02
      2.5069186223750876e-02 -3.0840413678230660e-02
      -1.0857621989202662e-01 -8.3972235063311876e-02
      -4.1644074925188047e-02 3.2026692439836593e-02
      1.4877282111975957e-02 -4.1395181165808620e-02
      -1.4476172392538275e-04 4.7882679251933782e-03
      -7.1150953206335410e-02 1.4922183043856327e-01
      -8.1333426203490128e-02 -1.3209155638800903e-02
      4.9434123197829860e-02 -1.7802111268758157e-02
      -3.6538302281428021e-02 1.8957593726672051e-02
      1.0972225471634725e-01 -6.5165570981507812e-02
      -6.4086715128343102e-02 6.0856128313012978e-04
      -1.9692561085908053e-01 1.2036703243590531e-01
      -1.8939183756571235e-02 -2.2211149924392085e-01
      -9.3855963738245979e-02 2.3750380451726216e-01
      -7.3530014396091165e-02 -3.1264831974505149e-03
      -1.3505856472934913e-01 1.1282902795290774e-01
      -5.0945266524793885e-02 -1.0061949161918786e-01
      3.4589749551799095e-02 -2.3401786800003068e-02
      -3.4283448531693413e-02 -1.9511025708309010e-02
      5.6484331632094244e-02 1.5902409289794812e-02
      -6.6908988001539188e-02 3.3475402502434887e-02
      2.2721727235467844e-02 -1.3141386926526787e-02
      -2.3161427774073040e-02 3.5050309721609996e-02
      2.5555765976958234e-02 2.7111417647414378e-02
      -8.7193788384088242e-02 -4.6487707831882719e-02
      4.6502076204876605e-02 -1.0870173925720271e-01
      6.8764157221405955e-02 7.2003870802337250e-02
      -2.4102263068437834e-02 -1.8174165450991714e-01
      4.1913979244961243e-02 -5.9021996959533446e-02
      -2.0743443876498507e-01 4.9467992692109969e-02
      1.2407340687680431e-02 -1.5549991839599884e-03
      4.9290857132422795e-02 -1.8338992676298242e-02
      1.7254601644794955e-02 5.8895565016543791e-02
      6.6938037942584731e-04 -8.8555261198270743e-03
      -7.3388701474905102e-02 3.5642968789624280e-02
      2.0550730152145689e-03 -4.6391549517423740e-02
      8.9027776854353938e-02 -1.6171410710759460e-01
      -6.4584026428541372e-02 8.8250453039595590e-03
      1.6871950104339903e-01 8.1026107025758409e-02
      1.6589418242794365e-01 1.4160023338280536e-01
      -6.2802594204860090e-02 -2.1176416251756050e-02
      2.9977725852746007e-01 7.2889017862018792e-03
      -6.0274360466809028e-03 1.1107199910160506e-01
      5.0800215058148218e-02 -1.0024769104847717e-01
      -5.1267212928469863e-02 -1.2712705413274288e-02
      7.4551480659626190e-02 -8.0513030897421539e-02
      6.0107721664499097e-02 5.2062724641770829e-02
      -9.0862605320951570e-02 -3.2853246784621315e-02
      -6.3138047684559731e-02 -6.1394660352643751e-02
      -2.1669093088674127e-01 1.2126890448877338e-02
      -3.5842781838928021e-02 1.6231088094637216e-02
      -7.6866129694990404e-02 4.7229358977235965e-02
      -8.4471359337281657e-03 -3.7608787757909004e-02
      9.1623372917303741e-02 -1.1704187438830706e-01
      -1.0051629619073180e-01 1.2796344366116987e-02
      4.1949924187326959e-02 2.8625205996066122e-01
      6.6394618939538365e-03 -3.4058137202310934e-02
      -3.1133222407429304e-02 7.8312210903988214e-03
      -6.7391601924136443e-02 4.8834336754781132e-02
      6.4911941891656281e-03 -1.9547227700169929e-02
      -3.1061126392093671e-02 1.4015014997414322e-02
      -3.7262087908406821e-01 1.8048006371417918e-01
      -3.7771757026652260e-02 -3.2891400411285639e-02
      -9.2610538178053720e-03 -6.8962810075660855e-03
      2.4830689150809318e-03 -7.0770489850628962e-02
      -4.8467242351618381e-02 6.5264515052538136e-02
      2.1485413637080594e-01 -4.4172590759479838e-02
      2.4443091736975113e-02 9.0546524734253384e-02
      -1.5370555153869950e-01 -8.6042336585744464e-02
      3.6151177649209762e-02 8.4465946431654060e-02
      -8.4215976024850023e-02 -2.0568981667263373e-02
      2.1310981722503123e-02 -7.0866222267924578e-02
      -3.0709096662076218e-02 2.7418358567591700e-02
      2.1504726655602612e-02 1.3231215300389096e-01
      -8.5464140852642145e-02 4.0009018399683120e-02
      3.5353715084285774e-02 -6.6677729766216826e-03
      1.1214334118534983e-01 -4.1669424482480309e-02
      5.5102245347689011e-02 -1.4437428092796706e-01
      -1.4084167203412752e-02 -8.4325055120055878e-02
      -2.5303014088267328e-01 2.5111655300879780e-02
      5.9355673250210038e-02 2.7945995159480430e-02
      -3.5995415191638217e-03 6.4136473240899813e-02
      7.8861347772991308e-02 5.7066262393347181e-02
      7.2740788815714649e-02 -2.2812617394216795e-02
      -1.1536982250698026e-01 9.0334018293207280e-02
      3.7775626757399101e-03 -7.5302094908976547e-02
      6.4080045573559868e-02 -1.5552148937850843e-01
      -5.9591667726904995e-02 6.1870953635931918e-02
      1.1493999278984178e-01 1.1097319580380606e-01
      8.5345815373501624e-02 -2.7187644128859666e-02
      1.4442048227776233e-02 1.3419874669187468e-02
      3.2370681809129276e-01 -5.7831935676211192e-02
      -6.5063999425780811e-02 -2.7597710166645386e-02
      3.1351502798334145e-02 -1.3299640650239361e-01
      4.0482030302350838e-03 -5.3635268221555177e-02
      3.0858265152744261e-02 -7.0569391418525779e-02
      8.1618172501514791e-02 -1.6587046038327366e-03
      -2.1834884777248842e-01 -1.0391547187407854e-01
      -3.4476619805741980e-02 -7.2810057695057204e-02
      9.8044600998643955e-02 -9.1137720861675531e-03
      -1.5685642839334679e-01 -5.4794977171964306e-02
      3.2470379043687971e-02 4.3464245919470547e-02
      -5.9511850297278353e-02 7.7389473559540928e-02
      4.3061090968112177e-02 5.5646083782749892e-02
      -1.2290613269644877e-01 3.0927760545589798e-02
      -5.6139508693709206e-02 1.7640082579895833e-01
      -4.6342514239388261e-02 -7.6757249946644346e-02
      -8.7736716049009456e-02 1.3366633808404730e-02
      -6.6529119574037621e-02 1.9112115299083240e-01
      5.0473920849620754e-02 6.8381565936750334e-03
      6.7088552677880470e-02 3.8017931352882020e-03
      -3.9161717505663479e-01 -1.8744639799441595e-01
      -1.4848079518210888e-01 -7.9193002157708622e-02
      -2.0945676767525481e-02 4.0645116385519327e-02
      -1.0366436017909696e-01 -1.0042343156510628e-02
      -9.5935425022735804e-03 -6.4240132998703764e-02
      -1.2679147002464456e-02 5.7807353011135099e-02
      -5.1980948489968141e-02 -6.7354804069224743e-03
      1.8142726725607081e-01 8.2501878111809160e-02
      9.0129436106382951e-02 2.5637529824780538e-02
      -1.7867883885860570e-02 -4.6200241964654859e-02
      7.5682482151490427e-02 5.2545731004735551e-02
      6.1412623972777504e-02 -1.6559904404136603e-02
      6.3264678074068520e-02 -2.0614407119281886e-01
      -2.7897506012998726e-02 1.6802173893765739e-02
      7.4906142983813928e-02 -8.0425587999688741e-02
      2.0355780002401497e-01 -1.4085268277103274e-02
      -1.6133933064029712e-02 -6.5719602670281152e-02
      -5.3510141090171374e-02 -5.2189085930787790e-02
      -3.2169057244320443e-01 1.4343688724642225e-02
      -1.1897261358199741e-01 -5.0171418168872819e-03
      3.2746419981072125e-02 -8.4903082530464830e-02
      6.1001592065796077e-02 -3.8009216812561531e-03
      -1.5336340381868054e-03 -6.0389589271288291e-02
      7.4838908548912078e-02 4.8714277996276659e-02
      3.2766319094701554e-02 -6.0549186397965318e-02
      -3.1253085960018440e-02 -9.4112749160553066e-02
      6.3826702722770440e-02 -1.3181107692078361e-02
      1.2063233579337634e-01 1.6374110427329960e-01
      -1.4814475377186470e-01 3.4043349225948726e-02
      3.6042333613660438e-02 6.2276848743256313e-02
      1.6343608014183025e-01 -4.3685979437305726e-02
      2.0013361648267258e-01 -3.2753476984851821e-03
      -1.2297237358023478e-02 -2.2776322124273563e-04
      5.5186001609995122e-02 -4.3624380944218159e-02
      4.7274104179363854e-02 -2.9956241555068153e-02
      9.1349467635598480e-02 4.8726792958143188e-02
      -1.6051985128405494e-01 3.4006383528000922e-02
      3.9128067002636713e-03 4.7351611530616735e-03
      -1.8312104136563384e-01 -6.2501863357136769e-02
      1.2711537773125944e-02 -9.0650156502821044e-02
      -1.8075485199012951e-02 5.7687115267931570e-02
      4.0844592870755488e-02 -6.3466765456604374e-02
      -8.4352571124212856e-03 2.9502003682122854e-02
      -7.6185914487133702e-02 7.3757594957102102e-02
      9.0931634692573191e-02 1.5312960892878008e-01
      3.0026169537640982e-02 6.0407127682756419e-02
      6.1711023832136176e-02 -1.4096278595827875e-02
      1.0395182015425544e-01 1.1197351220586041e-01
      -6.5123063003262399e-02 4.2553386183676788e-02
      9.6886488279318922e-02 -6.1137384543993277e-02
      -4.9215298858306847e-02 2.2681316456632042e-01
      -9.2566694769929680e-02 -1.4008582179981055e-01
      3.7089211569693907e-02 -8.7576017680783443e-03
      -9.4042612936621195e-02 -2.8185795238967068e-02
      1.9915025672395920e-01 3.0524694463599606e-03
      2.4198166227299145e-02 -1.3078744762196507e-02
      3.2849378612998067e-02 -8.8037193153734872e-02
      -2.9065174860609228e-01 -1.4277525457734599e-01
      1.9329044555547092e-01 3.8768078266886899e-02
      2.5182972000655241e-03 4.3008247362147652e-02
      1.1902217322145116e-01 1.3084426706851745e-02
      1.0546846436344398e-01 4.8029246944810949e-02
      4.9481844006207976e-02 1.8217845126902446e-01
      -8.8745459435991765e-05 -4.4205469306081047e-02
      5.5214192184288108e-02 5.1204904330545878e-02
      1.8761337358301322e-02 5.4974998265468755e-02
      1.3411324351472348e-01 -1.3694479854260674e-01
      -4.1562814766582572e-02 -5.7282856071540801e-02
      -3.0843271603479300e-01 9.0583681840683161e-02
      -1.1917335893782188e-02 8.6128865414050043e-02
      1.2746963395867550e-01 -1.2486052012481914e-02
      5.3224223687844664e-02 5.4456329459063226e-03
      -7.2518450853467267e-02 1.0512723201862112e-01
      -3.4764463599306968e-02 2.2668598999575310e-01
      6.4382794420432916e-03 -4.2033212513340419e-02
      -4.2654917501389306e-02 -6.1256353987701476e-02
      3.5372239191219478e-02 -5.8032516612712012e-02
      2.1511518466795207e-02 4.6601520914525069e-01
      1.0211335876352026e-01 -5.6554276560640193e-03
      -1.2467764052768688e-02 9.9443861155797744e-02
      4.0778562174780381e-01 1.0910075054852550e-02
      -8.6948865632461875e-02 1.1955641131487293e-01
      2.3352929587406972e-03 4.9243548352011293e-03
      1.4619408034360434e-01 -4.0769296918022793e-02
      4.2008432750384753e-02 1.7810435153268495e-02
      3.6503098336017469e-02 -1.5948303319723314e-01
      -3.6074194511589930e-01 -1.7530043891320859e-02
      1.0284583114100402e-03 -2.1613444538964469e-02
      1.0594769419748921e-01 7.9282866978330105e-02
      -8.8226809467693651e-02 9.3555690755417587e-02
      7.5751576932076625e-02 -3.5977270407958332e-02
      6.9869905064579962e-02 -8.6960549184175867e-02
      -3.9735204153313122e-04 2.0553470976211463e-02
      2.0196119672445084e-02 -1.1473761133790777e-01
      -4.5816788360025909e-02 1.2453475181649240e-01
      9.1518384780115203e-02 -2.1762405983637672e-03
      2.7637764830158990e-01 -2.7144072212536990e-02
      2.8152078993622303e-02 8.4271099295645538e-02
      -1.0624678249011853e-04 1.5542622846347246e-02
      -3.4784223771553706e-02 1.3134593430311594e-02
      -2.5307022024255116e-01 -2.8564832841725812e-01
      -1.5956653847398417e-01 -1.4245633372541350e-01
      -3.6032482105028268e-02 5.8654131384894871e-02
      -1.0394117292208030e-01 -6.6783105261043432e-02
      1.3790154860009701e-01 9.0084629959043386e-02
      2.3019927803563764e-01 -7.2433208865893231e-02
      -9.1583032916504655e-03 -2.1323236979032503e-02
      -1.9962163490479201e-01 -7.6037987329904994e-02
      1.6100300990486685e-01 3.2336478962651093e-02
      -2.2218632281115730e-02 -4.2531938292768273e-02
      5.2723744846349197e-03 -2.2583916450537641e-02
      -6.9295041677072079e-03 -7.7605798962911865e-02
      -4.9757476320205385e-02 1.6384422936005386e-01
      -2.5858993365157198e-03 3.2392471026156540e-03
      -5.7733171007821771e-02 4.9259655332294011e-02
      1.5153883094980578e-01 2.8595555118395223e-03
      -5.0045105611652187e-02 -1.5122147776138217e-01
      3.6720321042984554e-02 -7.3559660114229472e-02
      -2.5378195651358948e-01 -1.0572335927554839e-02
      5.5559310568790835e-02 2.1684377901774021e-02
      8.8830226793237543e-02 -5.7104195566012490e-02
      -7.3061902184438449e-02 -7.2379338801297020e-03
      6.5614251278159647e-02 -1.3562190155200066e-02
      -7.8086921446877511e-02 1.6727542368940157e-01
      3.0505865158885193e-01 -1.6997024706507928e-02
      1.0624642775590060e-01 -1.1666349808324827e-01
      7.3418326379622437e-02 1.7597589865274366e-02
      1.6782576241201354e-02 5.1035382207753081e-03
      3.4236371280280981e-01 9.1771364219340290e-02
      1.1952885554597106e-02 9.0919236578394402e-02
      2.4692188801576845e-01 -7.7744649958539427e-02
      -1.1707302309809964e-01 3.2171116276517094e-02
      8.0402733907101689e-02 -8.3109896659701463e-02
      5.8523941243816463e-02 -5.7900135246874550e-03
      1.0869354390043029e-01 -3.0694754264566384e-02
      5.6752460541243471e-02 -3.8261760940160691e-02
      -2.8284966284634278e-01 -1.2600267400130323e-02
      7.7130423082045471e-02 -5.0322536433544091e-02
      1.4168528087692993e-02 1.3366970397196373e-03
      -2.3729298818253228e-02 4.4329782961260167e-02
      1.1909971779542951e-02 2.6107226372378226e-02
      1.3016356250644617e-01 -1.5490873028390936e-01
      3.3692465887534231e-02 -1.5071985560366064e-02
      -5.8003280985254681e-02 -1.0592361411295112e-01
      -4.1397193342751222e-02 1.7607552352687927e-01
      5.1985546109131198e-02 2.2198923226592039e-02
      2.3309167277702398e-02 6.2971356739977891e-02
      -2.5668563005011320e-02 1.9999600284319419e-01
      1.0231049493423074e-01 3.1086213451820756e-02
      4.6518042488257916e-02 5.3556043551868930e-02
      -5.9788156866416885e-02 -2.6669603182979718e-01
      -8.2955819666240604e-02 -1.4252330159377241e-01
      -7.5244798193772860e-02 8.4111694989753669e-02
      6.3707099091216912e-02 -1.0026226806816163e-02
      2.4880369691360898e-01 -5.8607278689992992e-02
      -4.9401724108906017e-02 -7.4120517076650128e-02
      7.8383353153645169e-02 -2.5139801351003545e-02
      -2.1672050580835572e-01 -1.9941979446620223e-01
      1.8207914116108361e-02 5.9565809339182079e-03
      -4.8255987781049892e-02 6.7946708324662694e-02
      1.8351829100180586e-01 1.3637218643325452e-01
      1.1651776604751458e-01 -1.3158628176252350e-03
      -5.2619905424456832e-02 -1.4293172496012101e-02
      4.2959056421763696e-02 -2.6716729190203133e-02
      -3.3108541077861368e-02 -2.8640352591509238e-02
      1.8970138764996639e-01 -9.4437742959674487e-03
      4.7321691762163354e-03 -1.8728967121871160e-01
      6.4801671139826933e-03 -4.7281797897880028e-02
      -3.5947899179562909e-01 5.8263339158449355e-02
      3.6445595412586372e-02 2.0217628120586327e-02
      7.7542413886842770e-02 -4.9400857433628757e-02
      -1.1096687343579835e-01 -3.9960708606991406e-02
      5.1156864553883061e-02 5.5444604128619686e-02
      -1.6781985877621466e-01 2.3182873079650657e-01
      -3.8271850880961196e-02 4.9321720712600971e-02
      -7.4592146990002703e-02 -7.4534232591410982e-02
      5.2714016970724947e-02 7.2545334324969846e-02
      1.5418718270856452e-01 4.6771771483812624e-01
      2.1639705443722748e-01 1.2039470352567239e-01
      2.9968660626295295e-02 -4.6860077847368571e-02
      1.8978859782618998e-01 -2.8262291875883642e-02
      -1.4064768173672648e-01 1.6215104002573877e-01
      1.2819524048979086e-01 -1.2354703304708453e-01
      5.4789165993187255e-02 -3.5485921669176405e-02
      -1.3923207881130446e-02 -8.5316952096114590e-02
      3.3446309380580339e-02 -2.5090305954991707e-02
      -2.2098113356419510e-01 -8.9169492064600953e-02
      3.2975021752140857e-02 -2.3021382510662679e-02
      -1.6171238316096501e-01 3.9723612131193617e-02
      -2.9629611572481947e-02 9.9115105340475490e-02
      -1.1125529963921013e-01 3.5851727296852820e-02
      -9.9875670806352942e-02 -9.8432928991744453e-02
      -2.4499834071379841e-03 -6.8670723572027137e-02
      -6.1746843399485336e-02 -4.8994509077964307e-02
      3.0377187038109609e-02 1.8834979921840594e-01
      3.2833029255876660e-02 -8.1467301765098060e-02
      8.7915816408558320e-02 9.5661679203023126e-02
      -7.5751803063662165e-02 1.3746718465808699e-01
      8.3969809774561047e-02 -1.5491547407670588e-02
      -3.6463917968459617e-02 -1.8998822264738612e-02
      -3.3073179188432056e-01 -3.0833929942554884e-02
      -2.6995125035565486e-02 -1.7749770846532037e-01
      1.4574786115786992e-02 1.2264681702818545e-01
      -4.1469105821341085e-03 -1.6273788819516577e-02
      -1.7496241573106727e-01 -2.7217181774764058e-02
      1.5354757301660157e-01 -8.1542849006833465e-02
      1.0903558302472919e-02 -1.0725580313991775e-01
      -8.4955847354017222e-01 8.9874089460676120e-03
      8.9768439910849679e-02 2.9569505154307483e-02
      -6.6606165674418669e-02 2.7073536786127041e-02
      -3.8733179256675111e-02 -4.2931778926929100e-02
      -7.0651690620678137e-02 -7.3642717828926341e-02
      -5.9917595829212640e-02 3.7927709064424442e-01
      -3.0395728853424727e-02 1.6839208129299944e-02
      5.5077226083394243e-02 3.3148288265984545e-02
      7.6203839113794372e-02 -2.8384515936429626e-03
      2.6859590367268558e-02 -4.8457349082393929e-02
      5.0310610586501672e-02 -4.4726235215424515e-02
      1.4322789759989690e-02 -1.3620412238831581e-02
      7.8174511041849942e-02 -9.5099146759012824e-03
      5.5879591412007629e-02 -6.4007364661318048e-03
      1.3076208479913658e-02 1.2926888042685619e-01
      4.6949292055255332e-02 -4.9283219886226450e-02
      -2.9304311906163328e-02 1.1134374739983824e-01
      -3.3405259094175133e-02 -8.1866841441150216e-03
      1.4403606862385105e-02 5.1038689595324031e-02
      -1.8347767338938361e-02 -1.0918072540656888e-02
      5.3053627721480527e-02 -3.7035572974013792e-01
      7.8871423356072459e-02 3.8876071178656886e-02
      -2.0928568829503592e-02 5.3785208713284335e-02
      3.1119578781665061e-02 -1.8303599283707374e-02
      1.9983589497346216e-01 -3.1929427886409234e-02
      3.5570338494261286e-03 -5.2039444923195656e-03
      5.3400385294860617e-02 6.9460737974549908e-02
      3.6863695867236632e-02 -3.2263204259032553e-03
      -9.0933502740410174e-03 -7.6177487656151149e-02
      -2.2297406505647158e-02 -3.4722901978087753e-03
      -3.3258735096149440e-02 -6.3187730097063952e-02
      -2.0122663832097341e-02 -6.5850991218466617e-02
      6.0916500620214711e-02 -2.1361843144979131e-02
      -1.1918119041972637e-01 6.6299666576889018e-03
      1.7466823445828686e-02 7.9555464213407583e-03
      3.9024598462082040e-02 1.1445951082328064e-02
      7.1918626549253573e-03 5.0929450817136485e-02
      2.1900100149555443e-02 2.2429214819526166e-01
      5.5006072735791126e-02 3.8467112567996961e-03
      6.3578641496266286e-01 2.2753901750218731e-02
      -4.5929100790764628e-02 -8.8378811188559621e-03
      -8.4972437319540059e-02 -3.4971998114577990e-02
      -4.0486616001335810e-02 -2.5936766729604582e-02
      1.4654896675450285e-01 -6.6979995413331855e-02
      -4.3194973778066616e-02 -7.0994423485587571e-02
      -6.9078736888781342e-02 -8.9661089436564798e-02</_>
    <_>
      -1.0599222921809164e-02 2.3806261002395825e-04
      4.3590872948416438e-02 4.5573702386139054e-03
      1.4801255961996039e-02 1.6836659549638124e-02
      -1.6395722173922326e-02 -1.3666063788983968e-02
      4.8965433684390654e-03 7.7218548478920736e-03
      -1.5374806266255018e-02 -2.9141367891023068e-03
      -6.2521678026253580e-03 -1.2535477964266534e-02
      4.9474053439487707e-03 -5.0259645495729532e-02
      1.0404220210575212e-02 1.7786437010119921e-02
      -1.3600904098867634e-03 -3.2978808096351939e-02
      -1.4457898453732396e-02 -2.8676918371709905e-02
      2.6034777173409164e-02 1.0051758763872327e-02
      2.0629830591447563e-02 4.6750932168033568e-02
      6.1199832195722732e-02 1.2377849213358267e-02
      -8.9779998883291814e-03 9.4170796464315351e-03
      7.0871668879888064e-03 -3.7593121936609027e-02
      1.9341771020354698e-02 8.6448715475249665e-03
      -1.6753091131806536e-02 -1.5334440886606675e-02
      3.1006925202846553e-02 6.0939347047574907e-03
      1.2564353091583715e-02 4.1254435296333720e-02
      -2.8219291415798937e-02 -2.4237798860307167e-02
      8.0683175956124172e-03 -7.0291218309818174e-02
      1.2335431315814887e-02 1.6107412369090416e-02
      -2.4114003174636713e-02 -3.4648983408510754e-02
      -2.3672763035456020e-02 4.0056244276715405e-02
      -1.5682789488348017e-02 -6.4283753367595257e-03
      1.1150083151778487e-02 -2.8329451834955235e-02
      -2.5931050564907486e-02 3.7964049998438991e-02
      7.4748515486310584e-03 7.6700909070226832e-04
      -2.2930868665925856e-02 -7.8022148619805000e-03
      1.3712046746773529e-02 -3.1016710099961726e-02
      1.2985165562496395e-02 -3.4587360066629029e-03
      5.6623485166892808e-04 2.3119558533028239e-03
      -1.2030100987029916e-02 1.2723831539214475e-02
      -2.5067679913731378e-02 -3.1404151397593907e-02
      6.5549729199740406e-03 1.7338268646259286e-02
      -1.4461111743865744e-02 4.7294146470686395e-02
      -1.9153466333633087e-02 -1.1761643367802872e-02
      -9.4341762264082106e-03 9.1350181459360375e-03
      -1.5272452973344551e-02 2.4364674385461679e-02
      -1.4667915263613484e-02 -1.3797583787346451e-02
      1.0587854043347278e-02 1.3224139695484399e-03
      -3.1155613826820082e-03 2.6294934966013615e-02
      6.3993416152490767e-03 1.6045439498385702e-02
      7.6327232482813851e-04 -1.5902250278558263e-02
      -2.5870932695461084e-02 2.3935087704958023e-02
      5.4335507418927173e-04 1.9324471606326755e-02
      -2.7795865653389503e-03 1.0937927426949733e-02
      -1.2066417212467146e-02 -4.1456215367408717e-03
      -1.1415451887251167e-02 -1.3074585623109730e-02
      -3.4206463131331168e-02 1.4138939193666659e-02
      -1.1320083792426954e-02 3.0197430822737903e-03
      -7.2458818662173062e-03 -3.8825141994366041e-02
      -3.8103026894848888e-02 -5.3018239075898468e-03
      -6.8673350634455722e-03 -3.8622964685336831e-03
      1.3369720176446272e-02 -2.5190175276202164e-02
      -6.9110683179570576e-03 -1.3430992424364461e-02
      -1.1826881681338686e-02 2.3713501275663792e-02
      1.7744185785888766e-02 -1.5305024468857642e-02
      -1.1513101735204213e-02 -5.3960286218903461e-04
      2.9248615066862282e-04 -2.5027348886046387e-02
      2.2978062834456608e-02 7.6193385588111057e-03
      -6.4344672633088757e-03 -4.0344328348045862e-02
      2.6280698885036181e-04 -1.6818369007065997e-02
      2.4106683949370468e-02 -3.7643864033883825e-02
      -3.9956503642466515e-02 -2.6945567746994338e-02
      -1.3673217689554817e-03 4.1573716900428744e-03
      1.6315328950232025e-02 -3.7512834224703168e-02
      -1.7178480195242991e-02 -4.4288435039071469e-03
      2.3831198603419439e-03 -2.3160651967671121e-03
      7.6075650938444537e-05 -4.9521883472834267e-02
      -7.4980135072718898e-03 8.7181212427978050e-03
      4.3044475222208563e-02 5.2110408665236125e-03
      -2.9888090674884821e-02 8.9853826092697525e-05
      2.6406214195866057e-02 -6.7005156889406231e-03
      -1.7684300630207886e-02 5.0692707155987520e-03
      3.4051002076110982e-02 -1.4757653701708773e-02
      -3.1136524393727866e-03 -1.7420247349581350e-02
      -4.4189048683649847e-02 3.3544113001775398e-03
      -2.9629616061763980e-02 2.0137988381272478e-02
      4.3347859416654321e-03 -3.3897461232894319e-02
      -1.1826035409971488e-02 -1.9913734754623019e-02
      1.7219968044027052e-02 -2.2776125309389317e-02
      -2.2375985891359428e-02 2.8820024786619897e-02
      -2.1421887908307492e-02 8.6659238303379606e-03
      2.0760652902515431e-02 3.5544910611776781e-02
      9.1105694172543654e-03 -2.0953098621360387e-02
      -2.3123832410887821e-02 -1.3807148174572001e-02
      -1.5282914154316728e-02 1.0998739555041293e-02
      -6.9631774406472167e-03 -2.7806311732270585e-02
      5.1739373287284975e-04 -1.9023204850750944e-02
      2.1980685169924588e-02 1.0594356860348503e-02
      -4.4021223507559118e-02 2.2824113711088858e-02
      -6.6606978918276637e-04 1.4191477757417300e-02
      4.3825825424240444e-03 1.6932704590627984e-02
      3.9536116396137137e-03 3.8037912463513061e-02
      -5.6912505926552861e-03 -1.6027693708969813e-02
      -1.5188904616580746e-02 -7.7424061532481592e-03
      5.4602377707106417e-03 -2.7593338655084728e-02
      -3.4858349030398972e-02 7.0213567369555212e-03
      -1.5489582960145876e-01 -6.6532896888208334e-02
      -1.8182153700583883e-01 7.6821723861035779e-02
      3.0444566350117292e-02 -2.6241226310429067e-01
      -2.1697213293502907e-01 2.1377404209178155e-01
      -6.1698779575985865e-02 -9.3885291008518945e-02
      1.4801022433025499e-01 -2.2581790248949313e-01
      -1.3527954954754587e-01 -9.7943663887677265e-02
      -2.7378238042364816e-01 3.1695459623754307e-01
      -3.7972544891379800e-02 7.1372271770232767e-02
      1.5896278541773010e-01 -3.9915930829817294e-02
      -1.4036850709144541e-01 2.0671260037236200e-01
      -6.1642678768891714e-02 1.7827338353469344e-01
      -3.6252079086555290e-02 2.5590158483874220e-02
      -3.9750561834484339e-02 -2.0657460097752262e-01
      -7.0421156248189884e-02 -7.1798775520881666e-02
      -2.2382480217507236e-01 7.2223712275773138e-03
      2.1450783368291657e-01 -1.3779757494921333e-01
      1.6652108849377767e-01 -1.1888563937731095e-01
      -1.3909740593534412e-01 8.0056288732234290e-02
      -1.0972104222867068e-01 -1.1191059902703135e-01
      3.5566431370001129e-02 -1.0141835949479257e-02
      -5.7871000908443881e-02 4.8711302968765968e-02
      2.2412405553969525e-01 4.2104014974073962e-02
      2.9167620111736398e-01 2.0684733639514316e-01
      -1.9988188016903871e-01 -2.1037812049196802e-01
      3.5123568657413472e-02 2.7942312627696719e-01
      2.9339395307685531e-02 -1.3869039120856333e-01
      1.7275104047739208e-02 1.7884328451528053e-01
      -1.7562608986636691e-01 -1.7480326479484956e-01
      -4.2379660391931182e-02 -8.3900931750520463e-02
      -1.9632768319682936e-01 5.6307754424194424e-02
      -3.8654034516885857e-03 -1.1193688340598610e-02
      9.6698573997624215e-02 -1.0696015925957690e-01
      -1.6380715712638172e-01 -7.0635636364551752e-02
      -2.5965050050717944e-02 -4.8379593030331049e-02
      2.5155533438651917e-01 -1.7080695599826565e-01
      2.7628302873793470e-01 -6.0776553648077984e-02
      6.2411568150291384e-02 1.8911075270185495e-02
      2.2547794710291454e-02 -1.0165383429078388e-01
      -7.1556176705911967e-02 -2.9424907902495950e-01
      6.4906740450866487e-02 7.2996631214690577e-02
      -1.0515459666691779e-01 4.6475704643539661e-01
      -1.2898974944206265e-01 -5.0325825516003300e-02
      2.3701876053374235e-01 2.4120091863187371e-01
      1.4485363052276995e-01 3.0912246677180971e-01
      -8.8758562832818869e-02 2.5164457236819060e-01
      3.5301666494802136e-01 1.2236343922404254e-01
      -3.7820180970678613e-01 -2.4496895141031744e-01
      -8.9587663995011807e-02 -5.9050002868136615e-02
      -7.5426485708568206e-02 -2.2446653650210893e-01
      -1.5097672233014937e-02 -3.4719196172665875e-02
      9.2134654795214630e-03 -2.3871788741919728e-02
      -1.8064273795135890e-02 -9.7853639753622702e-03
      -1.6525105474781948e-02 3.3186898985145777e-02
      -5.1825514462481528e-02 -2.6614286346656624e-02
      -4.3676019632700683e-03 -2.3914108375296558e-02
      1.8839063790940008e-02 -1.9780257208484048e-02
      -6.1038311718409656e-03 5.2324942533719436e-02
      -1.8846566679262010e-02 -8.5488152256161711e-03
      -9.1075562986682370e-03 -4.5043959810200492e-02
      -4.7051904992717102e-02 2.1753118234917670e-02
      1.0186249082206611e-02 -2.3272720303701824e-02
      -1.2687408775491444e-02 1.5979388883847388e-02
      -2.1875283627458313e-02 -3.8157336234038684e-03
      -1.7246496937107982e-02 1.6806478055632398e-02
      -1.6429950017933032e-02 8.0579299030561907e-03
      5.0244171234156448e-02 -1.4121362850898402e-02
      1.4409139930060219e-02 -1.3237486736313151e-02
      1.8221586498242220e-02 1.5243663446078453e-02
      -2.3283195558576154e-02 -4.4613183186138598e-03
      7.5826878311996892e-03 -1.8515610141716338e-02
      2.0542839026721400e-02 1.3610361014214518e-02
      7.6006436674253743e-03 -2.5268668927884621e-02
      5.1530619661679107e-02 9.3370699834357425e-03
      -2.7659561348961127e-02 -4.7932124503759284e-02
      -1.9883866864283641e-02 5.9112007510743018e-02
      -5.9926927613376306e-02 -1.5458313592816507e-02
      7.1842708344534286e-04 3.9629606294914604e-02
      1.5337233810623824e-02 -3.4466619644058644e-02
      -4.7059715790802363e-02 -2.8532285256233103e-03
      -6.0159631732843990e-03 3.9435175475992103e-02
      -3.9830536999833403e-02 -8.6034702963445429e-03
      -1.9022364671653212e-02 6.8813762690811365e-03
      1.9797735626418532e-02 -3.6090707239774339e-02
      2.6681557485750781e-02 8.5140803313670781e-03
      1.4389049851997061e-03 -5.7118249580242191e-02
      2.0279615790302991e-02 2.8105815030062851e-02
      5.3082238111398722e-03 1.0461801116308435e-02
      3.3836956313197997e-02 -3.9267444726330841e-02
      1.2348754411226555e-02 5.2836207550606504e-03
      -9.6619050979493762e-03 5.7499545389279091e-03
      3.5296251528079414e-03 1.5248506625074835e-03
      1.3394972466228847e-02 -2.9991836992314162e-02
      3.9913218595453881e-02 2.0719990269722027e-02
      -7.4026770263591925e-03 -2.2320236636524075e-04
      -9.8423352454854000e-03 1.8222255731055473e-02
      1.2815924243430844e-02 1.0501897199108020e-02
      -1.7197179966677863e-02 -4.0068238030647137e-02
      -3.9190956653009347e-02 -1.4144053985911408e-02
      -1.3741131386930611e-02 -1.9705658260714223e-03
      -6.1547275419071158e-02 -1.4530164820609309e-01
      9.8907894968786769e-02 -1.0533194444773859e-01
      -2.4102846865902396e-02 9.0102302825183569e-02
      9.6475492480430955e-02 -1.2115501565835679e-02
      -6.8444765320907805e-02 -2.9984000189296773e-02
      -5.3651350514545282e-03 -4.8798453234039424e-03
      9.6530988015054633e-03 -5.1087326453445863e-03
      2.3095858881953247e-02 -9.5765350509546723e-02
      1.2078571400642443e-02 4.1346102776817023e-02
      -1.7469160155558959e-02 -1.3741087836110413e-01
      6.4684389201682263e-03 1.0961352424910413e-01
      -6.0524881508989062e-02 -8.1020762485094683e-02
      2.2206385070259044e-02 2.0692925159846734e-01
      -6.6399570469123620e-02 8.4822268054915106e-02
      -6.6903668448903553e-02 1.2350587149607246e-01
      1.2787795042217509e-01 -1.7290318446461433e-02
      5.8161497133073703e-03 -8.3649925219488011e-02
      -4.4128114792055098e-02 1.1604092858037408e-01
      5.5414244188900001e-02 4.8869442980677087e-02
      -2.6729143165041103e-02 -1.4301406257152077e-02
      1.9874243674720213e-02 7.3414590030996443e-02
      3.9142044987301528e-03 -3.1855511016823476e-02
      -3.9679850701006138e-02 1.0744354801838949e-02
      1.8453670956034232e-01 -2.7224825054309648e-02
      -9.9640384861651110e-02 2.9807256766783922e-02
      2.3243404137782676e-02 -3.6645593734472272e-02
      -1.5574164010242289e-01 1.5815351197738096e-03
      -2.6629423865655637e-02 1.1284231557431045e-01
      7.7715217663536645e-02 -1.8882248444129834e-02
      -9.3606080233496050e-02 -1.2563284252690486e-02
      -1.3564250094789448e-03 8.3904999338390851e-02
      -3.2214545887032056e-02 4.1775154508200241e-02
      -3.8541313820073919e-02 9.6711547374389459e-02
      4.5825771079776138e-02 -1.0153270508052796e-01
      4.2413907048202165e-02 2.5065062694652664e-03
      -1.0584673183990759e-01 -1.2904122028214440e-01
      -1.0888995050791160e-02 1.1672422567684024e-01
      1.0714943376599481e-01 -6.8119751893627846e-03
      1.3108390905490560e-02 -1.6055354695403570e-01
      1.2467688656719389e-01 3.2363408283504258e-02
      1.2041862578942051e-02 7.4036734818486299e-03
      -6.8782199711758626e-02 -8.0303232122650559e-02
      1.1356756007862216e-01 -3.8170953289027053e-02
      1.9366876085437072e-02 -1.0500114009662145e-01
      -2.6638990382411753e-02 2.2689330649744415e-02
      -3.9936089663714598e-02 -4.8709983986249773e-03
      9.3694358675626092e-03 3.0826107690291940e-02
      2.1498726214113847e-02 1.5566453463712776e-02
      -2.3751278252235712e-02 6.7101386344470909e-02
      -3.7742382842731161e-02 -3.5574538676489235e-02
      -1.0055426401634635e-02 -1.8592859441108396e-02
      -2.4639572717143097e-02 6.4815832521238270e-03
      -5.0716985238885787e-03 -1.5363795781823727e-02
      -3.1869986563073133e-02 -3.2526982373621958e-04
      -2.8451527626650215e-02 1.1995434260094473e-02
      1.6582650470863075e-02 -3.7545847029711497e-02
      -1.8222711186401258e-02 -2.3352450962846681e-02
      -3.0353292718049733e-04 7.0651928342466655e-02
      1.1260932364486137e-02 1.6108966381310652e-02
      -8.1027165052507694e-03 2.5515076233007208e-02
      -3.6899422735860339e-02 4.2936313154669475e-02
      -1.3242644178104515e-02 -9.1448945203904623e-03
      -2.3194041901131054e-02 -2.3036359756273956e-02
      -1.1033763344925071e-02 -1.8766499410791063e-02
      1.4089284872710731e-02 -1.5758085520026680e-02
      -2.0792757363541063e-04 3.3507017610856747e-02
      2.4060086658650162e-03 -9.9966739215636251e-03
      1.6139663353732864e-02 -2.6040803492525553e-02
      -2.0838218038747441e-02 2.8955566439638290e-02
      -3.1117923071429208e-02 -1.4442307944148689e-02
      1.6291755226412536e-02 -8.3524478935252718e-03
      -2.1383296721638117e-02 3.9194527913628700e-02
      -6.9090362561243035e-03 -1.8537873407362621e-03
      2.0544299100641726e-02 6.0488910095086348e-02
      2.3311281647584507e-02 -4.3661994695429668e-02
      -3.2472825874131665e-03 -1.4281184035676419e-02
      -1.6859691166596712e-02 -5.1745593247697463e-03
      -1.2713618695377649e-02 -1.6657399790029281e-02
      1.8428557345172642e-02 -3.2025219695428257e-02
      -3.2424302322455009e-02 -4.3674309626732877e-03
      -2.0440966722625482e-02 1.6706741485713966e-02
      -2.8013662474695573e-02 6.0325638804254464e-03
      -2.0543840318465040e-02 -1.3365168079071031e-02
      4.9718346266995001e-03 -2.7050915607128204e-02
      2.7929968336979352e-03 8.2648288123133903e-03
      5.1517869096897484e-02 7.9788558115724759e-03
      7.1190670843131534e-03 -3.4045471733268690e-02
      7.0884402489906871e-03 -1.4667649018433957e-02
      1.8578288148639609e-02 3.1703636779429759e-03
      9.6557351843683612e-03 -4.0388753933144873e-02
      -3.6283643805687424e-02 -2.4112958085083288e-02
      1.9546276928942539e-02 2.5841127168034123e-02
      -1.9170481122924059e-02 -6.7321303587042419e-03
      3.1555726035514882e-02 3.3307539429010850e-03
      -8.3815255487357625e-03 3.4807227767503467e-02
      2.4016173791752686e-02 2.1652522168331953e-02
      -1.1866922552793629e-02 -3.5458478476999754e-02
      -6.2497819360787320e-02 -4.5364338024334325e-03
      -2.7648862357156970e-02 -1.2484509668268345e-02
      -3.0936684346861906e-02 -5.1210268661103639e-03
      -4.7488245841635982e-03 -3.9250335624647394e-02
      -2.1185760457064998e-03 -2.5120209157133356e-02
      -2.3715942700661991e-02 -3.6864399179742149e-05
      -6.9868955811883690e-03 1.7012831582692262e-02
      -3.3723757078038380e-03 1.3010110057059869e-02
      3.4090150459071551e-02 -3.0060490054019656e-02
      -3.0112572328114377e-02 -6.4899604305430443e-03
      -1.8855574980722666e-02 -4.1227800958798409e-03
      -1.7606304254388545e-02 5.1296747492286320e-02
      2.1582946910574052e-02 -4.9771231265538620e-03
      -2.1977227566123522e-03 6.9668897012682862e-02
      -2.7677956489430292e-02 -1.1110108342764944e-02
      -1.2627814754765376e-02 6.5363973798810746e-02
      -3.6817712912366581e-02 1.8213175810714119e-02
      -2.4501093259802806e-02 1.9879549530314691e-02
      -6.7956125027970413e-03 9.0018829350444851e-05
      -1.0720930332160971e-02 -2.3778218605634328e-02
      1.7326556634690758e-02 2.1910356453101798e-02
      -3.0296176607993840e-02 7.9116014620220949e-03
      -1.5267027216722738e-02 -7.7585750537178134e-04
      1.7366847030922342e-02 1.0307691678430434e-06
      -1.8830920150553754e-02 -7.7405997873222221e-03
      -2.6263242957862882e-02 1.9767316469211468e-02
