<?xml version="1.0"?>
<opencv_storage>
<opencv_ml_ann_mlp>
  <format>3</format>
  <layer_sizes>
    29 100 100 10</layer_sizes>
  <activation_function>SIGMOID_SYM</activation_function>
  <f_param1>6.6666666666666663e-01</f_param1>
  <f_param2>1.7159000000000000e+00</f_param2>
  <min_val>-9.4999999999999996e-01</min_val>
  <max_val>9.4999999999999996e-01</max_val>
  <min_val1>-9.7999999999999998e-01</min_val1>
  <max_val1>9.7999999999999998e-01</max_val1>
  <training_params>
    <train_method>BACKPROP</train_method>
    <dw_scale>1.0000000000000000e-03</dw_scale>
    <moment_scale>0.</moment_scale>
    <term_criteria>
      <iterations>300</iterations></term_criteria></training_params>
  <input_scale>
    1. -2. 4.4100704113860063e+00 -2.8884913001472281e+00
    9.9281833871689855e+00 -2.5584447261275605e+00
    8.7219026091069107e+00 -2.2005398087397627e+00
    9.2121371683388666e+00 -2.1155280085184041e+00
    8.4495172617951209e+00 -1.2502256346130407e+00
    1.7618721451148144e+01 -1.4739919574976421e+00
    3.2707472073156602e+01 -1.9121240169661151e+00
    4.2334064259389436e+01 -1.8588156754384040e+00
    5.1739586959467829e+01 -1.9891282070659764e+00
    6.1828920614941637e+01 -1.8900509867509956e+00
    7.4863207164414902e+01 -2.1303862379200806e+00
    8.1041081913361054e+01 -2.0076020050492129e+00
    7.8576411368489673e+01 -1.8626483460705310e+00
    1.0300594130472992e+02 -2.1580436956044013e+00
    9.7400634929499958e+01 -1.8197428756791736e+00
    1.2133568584658666e+02 -2.0036040044811512e+00
    1.2743759523766455e+02 -1.8317547458372296e+00
    1.5337632845992650e+02 -2.0351783833722261e+00
    1.8169939576503819e+02 -2.1202957769419486e+00
    2.0274218574822396e+02 -2.0924422126179802e+00
    2.2415001333549395e+02 -2.0976990582408401e+00
    2.2227018775587376e+02 -1.9546495919907887e+00
    2.4079718995038110e+02 -1.9333081070450493e+00
    2.9100998646788383e+02 -1.9794047731088988e+00
    2.8685880094517915e+02 -1.8519146542861789e+00
    2.8505985881545905e+02 -1.7979794697079958e+00
    3.4621205021642805e+02 -1.9157480503841497e+00
    3.2195068202709854e+02 -1.6757715701112739e+00</input_scale>
  <output_scale>
    5.2631578947368418e-01 4.9999999999999994e-01 5.2631578947368418e-01
    4.9999999999999994e-01 5.2631578947368418e-01 4.9999999999999994e-01
    5.2631578947368418e-01 4.9999999999999994e-01 5.2631578947368418e-01
    4.9999999999999994e-01 5.2631578947368418e-01 4.9999999999999994e-01
    5.2631578947368418e-01 4.9999999999999994e-01 5.2631578947368418e-01
    4.9999999999999994e-01 5.2631578947368418e-01 4.9999999999999994e-01
    5.2631578947368418e-01 4.9999999999999994e-01</output_scale>
  <inv_output_scale>
    1.8999999999999999e+00 -9.4999999999999996e-01
    1.8999999999999999e+00 -9.4999999999999996e-01
    1.8999999999999999e+00 -9.4999999999999996e-01
    1.8999999999999999e+00 -9.4999999999999996e-01
    1.8999999999999999e+00 -9.4999999999999996e-01
    1.8999999999999999e+00 -9.4999999999999996e-01
    1.8999999999999999e+00 -9.4999999999999996e-01
    1.8999999999999999e+00 -9.4999999999999996e-01
    1.8999999999999999e+00 -9.4999999999999996e-01
    1.8999999999999999e+00 -9.4999999999999996e-01</inv_output_scale>
  <weights>
    <_>
      -5.2982824678020235e-02 -5.2279698024913654e-02
      3.9336175969526120e-02 -3.6509622240002801e-02
      1.7505165009740257e-02 5.4416333079242860e-02
      5.8178105421765582e-02 -4.3638041559225342e-02
      -4.9883657115028110e-02 -3.1127462723946606e-03
      -1.4666329182064881e-02 -3.4147038120339437e-02
      4.5111381570145416e-02 4.8820162433999614e-02
      -4.5429959508082131e-02 4.9478480241037452e-02
      -4.0594589507541898e-02 1.8375603644527935e-02
      -5.5872890484395435e-02 -3.4230730379500938e-02
      -2.0058588997975205e-02 4.9761906448787523e-02
      1.5967058527210375e-02 3.6540517582050007e-02
      1.9249621332573134e-02 -9.5252095756664084e-03
      -2.8944271435175167e-02 5.7480582691289146e-02
      -6.5702887682962979e-02 5.2626432810338464e-02
      -2.7837163167993551e-02 2.5485935351764168e-02
      6.2318195344372343e-02 -1.3547315446277925e-02
      -2.6514682897564208e-02 -3.7468206222509862e-02
      -5.9591322222386264e-02 2.1581430952087596e-04
      -4.3972030623290928e-02 1.6300718409899967e-02
      3.6322736738051177e-02 -5.0884846599739644e-02
      4.7131122061006267e-02 -4.9939629329465364e-02
      3.9016121225456661e-02 5.0462822788745219e-02
      1.0826426748939298e-02 5.4399683508486715e-02
      1.8351738301167739e-02 2.2420251162232514e-02
      -7.8611851444699860e-03 -7.0140999327571230e-02
      6.6947822533326914e-02 -3.8606725763648757e-02
      6.0762391995243720e-02 7.1945217545846346e-02
      9.7325195495374418e-03 -2.1607756848591080e-03
      -2.5109047145697526e-02 2.6008911317219309e-02
      3.3778374529302602e-02 -1.3156227623972092e-02
      2.9101766201320257e-02 -2.1552400494151875e-02
      -4.6920851485025381e-02 -6.4965281185520890e-02
      -5.3497629255779840e-02 -2.6838737720555787e-02
      -4.1417917784196519e-02 -3.9349214264705487e-02
      2.1147804130439478e-02 7.3033785893724529e-02
      5.5788591327226716e-02 -2.0197913576705404e-02
      -5.5570564530094554e-02 7.2045739678218798e-02
      3.7857606949819080e-02 -4.6309237371573893e-03
      -8.2679557536717123e-03 4.1238559542180010e-02
      2.6293891874177286e-02 -5.6558489652001526e-02
      -3.3858455788350034e-02 2.9850960887899586e-02
      -1.1996291190313575e-02 -1.6185875930408808e-02
      6.0646229890198829e-03 -2.5699406331558712e-02
      -8.6641001560388349e-04 -3.1293069575135224e-02
      -3.7692082907251651e-02 -6.8480712845350898e-03
      -6.4181404075954754e-02 -2.7229207165882903e-02
      5.3285461262174490e-02 3.2357391669583818e-02
      2.5746401944359881e-02 -6.1523888006156470e-02
      -4.4030893097309537e-02 3.6349751277434270e-02
      -2.5787313403596929e-02 4.7444972670148834e-02
      -9.5512370501976984e-01 1.0938747204086149e-01
      -7.2064079412463506e-03 6.0050648434306950e-02
      4.6416727363749896e-02 4.3777050920772761e-04
      -8.2748331041754142e-01 1.4632692875766037e-01
      4.3211078680030733e-02 -1.1527016126153306e-01
      1.3089439387147159e-01 9.1352484819266552e-03
      -3.7825232112346854e-02 -1.3490441122616872e-01
      -1.3149367645436749e-01 -7.0029033510190367e-02
      -1.2747142837893723e-02 3.4835756156502040e-01
      -1.8902032669626767e-01 6.7263215399655921e-02
      7.6689473607159664e-02 -1.2208324630503453e-01
      7.3129731949123394e-02 1.3488760615022458e-01
      1.2677207863181125e-01 9.6003596680526757e-02
      -2.5338465270604821e-02 -6.3431415623400253e-02
      -1.6962093525225835e-01 -9.5809354899167976e-02
      1.5339994491620801e-01 -1.5599180591566010e-02
      -2.1616897985409018e-02 -4.6801577219653223e-02
      1.7542240210853455e-01 9.2488100178360927e-02
      1.7958293810839057e-01 -1.9363305062759226e-01
      1.0232183718837717e-01 2.5455679144275201e-01
      5.8962525600639561e-02 -1.6726344182150819e-02
      1.2740585634910415e-01 -7.1706484813488739e-03
      -1.5635577432946393e-01 4.1284319405203738e-02
      -1.1721575553922174e-01 1.9289122852551080e-01
      1.9455496960895030e-01 4.4977794373659570e-02
      -4.1395001885635260e-02 1.3362343025303436e-01
      -2.7479695229244552e-02 1.5349095073806407e-01
      2.0256417048212910e-01 -1.0412190032366352e-01
      1.3286522403810641e-02 -1.2986957139013400e-01
      3.8098977448771193e-02 1.3185568549043863e-01
      5.2156909845948202e-02 -2.7049922036378286e-02
      -1.3890720159533895e-01 2.0025652705784419e-01
      -3.2574538063892877e-01 2.5940914267265008e-01
      -1.0760608807033592e-01 -1.3371901015547463e-01
      -7.8971654416471443e-02 -1.4663631182671666e-01
      -3.0647435251188918e-02 -1.5799501329364746e-01
      -2.0343476921260573e-01 -2.4406454364986310e-02
      -1.0301494253516934e-01 1.1039702178773010e-01
      1.7015871027001109e-01 -1.2766055771007001e-01
      -1.9279326748993145e-01 -2.7431221549135233e-02
      -1.1251079006134970e-01 5.8174688400043827e-02
      -8.9871761515551873e-02 7.1749829159452286e-02
      2.9664956807726700e-01 7.3037375425050885e-02
      -7.0438465850508197e-02 2.6465069590459034e-01
      -1.8370656767822194e-01 8.6224581961567029e-02
      -1.6010634071620791e-01 1.2444654463195279e-01
      -2.3177373937207832e-01 -1.2933435780949451e-01
      -9.0142491654949752e-02 -1.7171707742946654e-01
      5.2412780861860173e-02 7.6287094999129168e-02
      -8.7235166885497178e-02 -4.2726086148347282e-02
      -3.7163132642657970e-02 -9.3279369345067684e-02
      1.9224080185922718e-01 -1.0542270731263843e-01
      1.7697516924444951e-02 1.3368570189966647e-01
      -3.5883408287105106e-01 1.5910377452935172e-03
      1.6558817707663911e-01 -2.3952256443965661e-02
      -9.6107355871361558e-02 -3.8886897395849586e-02
      1.6540105510900546e-01 9.1910651913476651e-02
      6.9965357962495672e-02 3.0210489233746494e-02
      1.8780481832713605e-02 -7.6924881918021652e-03
      1.3635258028178075e-02 3.5669566370847818e-02
      2.2839426853131825e-02 -7.0269207832174177e-02
      7.7105330538247571e-02 1.0112292353355339e-01
      -6.0106859136230373e-02 -3.3406014740724987e-01
      -2.7274933383314307e-03 -4.9965898248057951e-02
      1.1143134394123746e-03 -9.8936058957908732e-02
      -8.4994643792277655e-02 -9.4030827308895421e-02
      1.9966465800444467e-02 1.4370664752714438e-01
      1.7067097659423353e-02 1.1085826521614542e-01
      9.5882458598771092e-02 -2.2288749058167676e-02
      1.0495435986396325e-01 9.8942624899485479e-02
      -1.3196471897255842e-02 -1.1743772807003484e-01
      -5.8767912228987390e-02 -4.1348661020680039e-01
      -2.7231445908825116e-02 -1.3442041906555225e-02
      9.5371453603022932e-02 -1.0449032587712995e-01
      5.3594599559140546e-02 -6.6565415900108294e-03
      -1.0682517384243317e-01 -3.0377115491522198e-02
      2.5347037568656577e-01 -1.4817873690256948e-02
      -1.7315082445215801e-01 1.4649082917021203e-01
      5.1369190122086884e-02 -6.1377578129486202e-02
      -1.1720141147215171e-01 -2.2122319900661697e-01
      9.8386182805170058e-03 2.3483958773564090e-02
      5.8676006308868755e-03 1.1826471408770851e-01
      -2.8748093979963085e-01 -1.2763539919567501e-01
      -7.5414646602325247e-02 -1.0195896715522114e-01
      -3.0253158916249551e-02 1.1791884639064397e-01
      9.9220527997626300e-03 -2.9582139636548838e-02
      9.8988919312614027e-02 -9.2116768964763174e-02
      6.6382533450815864e-02 3.1041358725009113e-02
      1.6459811342516492e-02 -4.2115778643566290e-02
      -2.7162204400400652e-02 1.1571078435274795e-01
      -2.8743004196624290e-04 4.5242746204273365e-01
      3.8719884791281842e-02 -1.3891116745214277e-01
      1.3366986909325290e-02 5.3833788024344534e-02
      5.0231424664176336e-02 -1.1225009929258536e-01
      3.3014820703615118e-02 -3.1159939415991383e-01
      6.7234462843623916e-02 8.0665734454913041e-02
      -1.8208443918979708e-01 -1.1346281124982553e-01
      -1.9795705246561765e-01 -1.8721986473400604e-01
      1.0560572315229619e-01 -6.1235295068954781e-02
      -1.0022954135067792e-01 1.0015893609086403e-02
      -8.7872940759539331e-02 8.7022843191785340e-02
      2.1420401467878636e-01 1.4991479163882504e-01
      5.5498413971791734e-02 5.5242259253950786e-02
      -2.7977581216160802e-01 -2.2534416476377378e-01
      1.7780030793578835e-01 9.1962651317811714e-02
      -3.3432262987007841e-02 9.4895253659310036e-02
      -3.3009606185126904e-02 -2.6375702329064471e-02
      -9.0401954922217073e-02 -5.7061254292719576e-02
      -1.5894853106814069e-01 2.7142221202784539e-01
      6.5988150475689705e-02 4.3230745651877019e-02
      7.2453980054872719e-02 1.2143493868943443e-01
      -6.7753223394389920e-03 2.3635471419993722e-02
      1.2286417576018350e-02 -9.0856640177828532e-02
      -2.8918434091770286e-02 -1.1766174985806812e-02
      1.1936951350830441e-01 -1.2354709126233734e-01
      1.9183591895345450e-01 -6.9439750389153232e-02
      3.8251724877480402e-02 -1.9744159044700671e-01
      4.1272138961999445e-02 1.3475883915363890e-01
      1.7743577069497158e-02 -9.2225072481572107e-02
      -2.3830380742080409e-01 -8.0129825441074928e-02
      1.7136063153177568e-02 -1.5868001816846480e-01
      4.5907023270946264e-02 -1.9036829088775337e-01
      -1.2918846546396440e-02 1.4495804951551391e-01
      -8.2994311260072340e-02 4.4213524551097949e-02
      -2.0515768413410185e-01 -5.1148125815147674e-02
      -3.8960709674136845e-03 -1.2361898243104262e-01
      -8.5946587913198744e-02 4.3039785189927043e-02
      -9.2393186600659025e-02 1.4769008791677668e-02
      1.3732758109883775e-01 7.0523696413425666e-02
      -1.4664460298057302e-01 4.1105774905918317e-02
      1.7180536895854893e-02 3.8080675817890825e-04
      7.7258338757052236e-02 -2.0708760100831610e-02
      4.2515641975035651e-01 -9.3978609723511422e-02
      -7.0599978322862217e-02 -6.3311656362896887e-02
      6.6990256302887130e-02 6.6301722072520672e-03
      -1.9198916221700080e-01 1.1493715682032374e-01
      1.0673939523128720e-02 1.7291696192862888e-02
      -7.9856707998180024e-02 7.3779599906751304e-03
      -6.5801199230672430e-02 7.6209438185988548e-02
      -6.3995098627644215e-02 -1.0810020301185046e-01
      -4.5057386239603460e-02 -1.0004107989032783e-01
      9.6949569113821576e-02 4.9211853290090493e-02
      -6.5454614887425600e-01 -1.1033639902048377e-01
      -1.9516139976614666e-01 -5.7879306956938256e-02
      -5.8838407743121768e-02 -1.4895756317464542e-01
      -9.7728550711646184e-02 -1.8052129043821172e-02
      -2.0633133481495153e-01 2.1837990736514218e-01
      -1.2484360709550715e-01 -1.6393503241428156e-01
      8.1386415878497674e-03 8.3257351180947417e-02
      -1.3777853734057038e-01 7.3756651484523289e-02
      -7.9787710736319306e-01 -5.3581939004343916e-02
      -9.5255226547096047e-02 1.6253130664743390e-01
      1.1472667726875796e-02 -1.2003527462405385e-01
      -6.4320104977420661e-02 4.0936986803872963e-02
      -3.2028688900943192e-01 1.4073602396860441e-01
      6.3266594227063822e-02 -6.5231405708672377e-02
      -7.7174001452997354e-02 -7.7585740042855775e-02
      -1.9051196491714448e-01 -1.2059954721244327e-01
      -3.8739106658433498e-02 -3.8921764656825328e-02
      -2.2575619787536458e-02 1.4850458361372393e-01
      1.8312643415444457e-02 -8.5838220319453082e-02
      1.5141464324029422e-01 1.1225951571995421e-01
      8.3045485395638705e-02 -3.0872552979957985e-01
      1.2665373240103997e-01 -9.6037891072939842e-03
      1.3571108025620018e-01 -1.0364025289497045e-01
      7.7045655847668593e-02 4.9995789910993384e-02
      1.9510133581046252e-01 4.9331562554579111e-03
      1.2002356234706187e-01 -5.1493396419976705e-03
      5.6143592358656900e-03 -5.7330943471080378e-02
      -2.3090733518388927e-03 3.8678518009117577e-02
      -1.0944193531310498e-01 -1.4536714221744645e-01
      -1.3096093091579711e-01 -3.0626683370134405e-01
      3.7913705101907211e-02 6.3060976203884039e-02
      2.6211949283598812e-01 2.0335836841460386e-01
      1.6594617709883905e-01 -7.0473691970787025e-02
      -1.3162571855007624e-01 9.0404070733682271e-02
      3.2944801003700973e-02 2.5631539319578556e-02
      1.4373869991640140e-01 1.4425415717565668e-01
      -9.1286282445009942e-02 1.4886833229183671e-01
      5.0157561356574320e-03 1.5497320111922644e-01
      -2.1357330202407470e-02 1.6411803429984217e-01
      1.2926390619142286e-01 -1.2386957193356582e-01
      -8.4889302798732275e-02 1.0700557301814050e-01
      -2.1921419428202714e-02 3.9752374011138021e-02
      -1.1559479530272719e-01 -1.0726476316528380e-01
      1.0769603142095699e-01 1.7521161692093820e-02
      1.8669166251299912e-02 -1.3459704566421229e-01
      2.3057306077060441e-02 -6.9584797927345926e-02
      -6.0096213111246778e-02 -6.5274678986142989e-02
      4.8884183279820609e-02 -1.9725820190265250e-02
      2.5870316125637751e-02 3.0016963228788029e-01
      -3.0122003148123324e-02 -7.7021434113028212e-02
      8.5620834463271872e-02 -6.8323550840190719e-02
      -2.3114483306044603e-03 4.0263199082249325e-02
      -1.5071616493288459e-01 -2.0175456732108693e-01
      -6.1930072292382926e-02 2.3812089297966403e-02
      -3.4099510041599074e-01 -6.2624966348649669e-02
      6.0376322678445733e-02 -1.7296560202014130e-01
      -5.6294292856752005e-02 -1.1780107833504776e-01
      -1.7304312097336511e-01 -9.8192964049492196e-02
      -2.2952876608804415e-01 -2.9537211848955910e-02
      9.6181692048037601e-02 8.3970972623458682e-03
      1.4177859996146000e-01 -1.6682380399953442e-02
      -2.5910383798163853e-02 -1.3495573365821093e-03
      1.0978114518622221e-01 -1.0088088276951627e-02
      -2.0317022047009445e-01 8.3027927073940147e-02
      -2.3244028422440333e-02 9.4027137236200417e-02
      6.6939229839828154e-02 1.1290487324910481e-01
      4.9033911786380342e-02 4.2268038402100150e-01
      -8.3103056042480843e-03 1.2641152647857512e-01
      -5.0730140992327824e-02 3.0489230234630006e-02
      3.3794590178381413e-02 -7.7519594984947315e-02
      1.1046957172572835e-01 -5.0284460905274053e-01
      -2.2203477476693979e-02 -1.3328039980405257e-01
      -4.0294769274071378e-02 -6.9887743741241015e-02
      1.3743257453332271e-04 -1.6159410399289101e-01
      8.6989929649047837e-02 3.8615154961125518e-02
      -9.2286356976077327e-03 1.6997041888400044e-01
      -1.2281405137199683e-02 1.6194210254789482e-01
      1.2219777622700859e-02 5.1196878950397991e-02
      1.6834727382149806e-01 -2.9423352355177401e-01
      -5.7024431925309239e-02 -4.6004464448545462e-01
      9.9810772408194415e-02 1.1387235757020059e-02
      1.9228638991449454e-01 2.3224928621429680e-01
      3.5112889212145904e-01 -1.1721722848663914e-01
      -5.5017522175072990e-02 -3.0879984514306052e-02
      -7.8747496780880749e-02 -1.4473281920428205e-01
      -1.8574423154752717e-02 -5.0153125935834070e-02
      1.2463164499254548e-02 2.0004863388936908e-02
      -7.5338532445364717e-02 -1.7615514178831687e-01
      -6.9527423510151704e-02 1.9038409419108859e-01
      -1.8967158959155184e-01 -2.6776525721366223e-02
      2.1116660821922728e-01 5.9358323169915829e-02
      1.2798502029834372e-01 4.0394341490106504e-02
      -2.0980276875879347e-01 1.3834707548239769e-02
      9.1718666618269787e-02 2.7505656837634798e-02
      -1.0334180482327132e-01 8.5991225399156303e-03
      -6.3804545504878127e-04 -1.0810615221478624e-02
      -3.9541014541603282e-02 7.6757239842628888e-02
      -1.7010732392169256e-01 -8.1980430371871901e-02
      -8.5100341040230329e-02 -2.2758824445637105e-01
      1.6454057337047687e-01 -8.3788710586389176e-02
      4.2950041503721914e-01 -1.3798714199520870e-01
      3.2645490102539886e-02 3.9282169364954889e-01
      -1.3317121425231210e-01 -1.5476813383061758e-01
      -1.0052755672964742e-01 -6.6071565639957031e-02
      -4.1050129774960570e-01 -1.5893778119199280e-02
      -1.1208824664549910e-01 -3.5650853457683629e-01
      8.5521583421335146e-02 -1.4087797175101741e-01
      5.5477916343881474e-02 -8.0480628112255259e-02
      2.3019679775494524e-02 9.1861120335698238e-02
      1.5454169378099969e-01 -1.7108152795720794e-01
      -4.3126896440464628e-02 -2.4834583133299540e-01
      -5.4631024915793788e-03 1.5555855119363927e-02
      5.1930012494774591e-01 1.2881877666812863e-01
      -8.4035341340264441e-02 -3.6037928775281232e-02
      4.7265144314700705e-02 8.9689315838067427e-02
      1.4756912142814804e-02 -5.9229353313392068e-02
      -3.5742947085146880e-02 7.5668579134279845e-01
      7.8528066103979721e-02 1.0447811873833746e-01
      -1.2042135372673428e-02 -5.0909277325799265e-02
      1.2476282004166485e-01 -9.4252547750323740e-02
      -6.0542396102521087e-02 -9.9266027132340423e-02
      -1.7983099823582999e-02 4.2608963295515237e-02
      -2.3159547714861164e-01 4.3575964499536886e-02
      1.3917864257090035e-01 -6.2091232791978208e-02
      9.0661636539319357e-02 1.2405715643238190e-01
      -1.4065293266851214e-01 1.8466206169989945e-02
      -7.9845687857814776e-02 1.9610053553859930e-01
      -4.5235106939186809e-02 1.0478781040833045e-01
      -7.7468565078351634e-02 -9.6961148237834846e-02
      1.1682321438384502e-01 -1.9561206385683824e-01
      -6.9289465292570115e-02 1.1110896936134804e-01
      1.7562002982626987e-01 -2.0428119490628744e-02
      1.7707115284665620e-01 -5.1975147625438305e-02
      6.8967158426390840e-02 1.5526657793515769e-01
      9.8422625005243430e-02 -6.7031653035223210e-02
      -4.9551178121359354e-02 7.8598598866299579e-02
      -7.4896463818745734e-02 -1.7781911743659107e-01
      3.6430480561202981e-02 -1.4231912532923446e-01
      2.6777784536164200e-03 2.6394656681002857e-02
      1.4623490124683824e-01 -1.4080337975843010e-01
      -2.4777197862842626e-01 -4.6079157593219573e-02
      1.0165382892249820e-02 5.6534102313227752e-02
      -8.9633698653510341e-02 -1.2637418594911059e-02
      1.0732871858294661e-01 1.1470969273506859e-01
      -1.0093785889549443e-01 2.4117137540739727e-04
      9.8212175940660743e-02 1.5217554095133770e-01
      1.9470823308193166e-01 -1.5288585489744122e-01
      7.4743134608575054e-02 2.0838553645669781e-02
      -6.5920762113630335e-02 2.8063507925129716e-01
      1.3501522024838070e-01 -2.0063270524370888e-01
      4.1142920690371965e-01 1.8558327798926234e-02
      -1.2174918704183277e-01 1.3661137908513263e-01
      3.3129307428190632e-02 -2.5832865955379342e-01
      -9.6647437569095093e-02 6.0909146635846666e-03
      2.6622656787294068e-02 -2.9021294266625831e-03
      -2.5113012768953080e-01 -5.6307183979783418e-02
      -9.9649835178345705e-02 1.2707662423658092e-01
      -1.0538845728828986e-01 7.0076240781960536e-02
      -5.9017043988421562e-03 4.7187478462419864e-02
      2.6496124234982482e-01 -9.4428990724437695e-02
      2.4540058610122404e-02 -3.1494276276850024e-02
      -1.6678747138097161e-01 6.4770001909168803e-02
      5.0151418587719521e-01 3.6929111860097841e-02
      -2.3132755053601607e-02 2.0302111702998334e-02
      -1.3452104599721366e-02 -8.7679034085782689e-03
      1.5379932720941701e-02 2.2175488728560559e-02
      -5.3547055413841797e-02 2.1087631360479722e-01
      4.5265306895613724e-03 2.1570343011914728e-02
      5.0563170124241254e-02 2.8614646812152613e-02
      2.8116480475074021e-02 -4.6221807595176655e-02
      -3.9728988875151375e-02 -1.5977513669558099e-01
      4.2136473323309644e-02 -4.7914076652055021e-02
      5.8643601164882202e-02 -8.8749509157069847e-02
      -2.9970910050425232e-03 -5.7631375483123019e-02
      1.2234112063733973e-01 8.8022270274466033e-02
      2.5770801258087062e-02 -2.7206527299019474e-02
      -4.3617391749793941e-02 -6.4084304643052953e-02
      6.2132311238135805e-02 1.2015780104046550e-01
      6.4729674842227442e-02 -4.9533438997504276e-03
      -4.7491578206096147e-02 -7.7418684329465276e-02
      -6.8103342577847158e-03 -1.4865340075984856e-01
      8.0326131507665696e-02 2.3997105451420567e-01
      7.8511755525397606e-03 3.1393967539157436e-02
      -9.2302962262942444e-03 1.0365931353117587e-01
      1.9585048459890644e-01 -5.2970539706275237e-02
      -2.5017543638117638e-02 1.3860655311939113e-01
      2.2743668379989496e-02 1.5443315521588497e-02
      3.8592953981281715e-02 -6.7867583870760192e-03
      4.3586809728649020e-02 4.4564414733438494e-02
      4.8034508892297030e-04 1.9660338302601259e-02
      -1.7028185458672906e-01 -2.5330312526472921e-02
      2.1708723295105229e-03 -1.1732810810854415e-02
      -7.1061641553556210e-02 -5.2221088099517081e-02
      1.1658668873612147e-02 6.9731607274928831e-02
      -3.2668363708023444e-02 -8.0014265146039334e-02
      9.9637143057330776e-02 -4.7592052812981150e-02
      -3.2139211418126451e-02 -6.4560164223928691e-03
      -2.6905253363882792e-02 7.7746502118977105e-03
      -3.6286685859457740e-02 1.0421522575813515e-01
      -7.1555392514511360e-02 -1.8071512416297925e-01
      5.4781379353732992e-02 -4.5387894139177015e-02
      4.2467439102453493e-02 3.2974640612590378e-01
      9.8040385892272916e-02 -6.7521140399347812e-02
      2.8582932923475971e-02 7.8768679858198715e-02
      -1.9522544447458803e-01 -4.2449785163752064e-02
      -1.0076999794101590e-01 -6.0213065005034594e-02
      -1.5917178115310650e-02 1.2382280705660251e-02
      -8.7840576714929189e-02 4.2312237865156442e-02
      2.3216746228196503e-01 6.1427502952637547e-02
      2.0564495207729211e-01 3.2995025359060806e-02
      -7.9165961352960335e-02 6.0077397536901868e-02
      4.1582776139450478e-01 -6.0850658337807820e-03
      5.2891877034916719e-02 -7.6748347539980569e-03
      1.5693343450248570e-02 -4.5050191524136404e-02
      -2.4053570678640536e-02 -6.6142353101810394e-02
      3.2168496236511038e-02 -1.4959016652876418e-02
      -4.6575666399787566e-02 8.5121535846051991e-02
      -4.8590757259225438e-02 3.9219077986775907e-03
      -4.9170600535338189e-03 3.7832005869583345e-02
      8.8759177120714183e-02 -8.1167658182340355e-02
      -1.2377897823362352e-01 -3.8042667959070192e-01
      2.2546749872728849e-02 -5.7058506961247563e-02
      1.1971001806208083e-01 6.7371827660035105e-02
      -6.2081961945679498e-02 -8.7689361344809993e-02
      1.0784006333166843e-01 9.8959566951776406e-02
      -6.7376113749875845e-03 1.3948101495120569e-02
      9.5728772918916554e-03 -4.0153485054552469e-02
      -1.0562578676060467e-04 1.6276496367898965e-01
      1.3201174665139098e-01 3.6427668417832168e-02
      5.5571529623515255e-02 8.4065501181389959e-02
      -7.0901446960848852e-02 -4.6946531539663001e-02
      1.4147699469887562e-01 2.8518505924145943e-01
      -1.3667864649354383e-01 1.7418747646635768e-02
      1.1865783778924267e-02 6.2906127287626401e-02
      8.1408421416163487e-02 -2.2228942607806425e-02
      -9.2936190267298907e-02 1.1271298235463910e-02
      1.6487181765683263e-02 -5.6366348312339908e-02
      1.8084683975694524e-01 3.1986625404455314e-02
      1.1936788353677670e-01 -1.2048434628194908e-01
      -6.6066107412748223e-02 -2.3184764610944459e-03
      -1.9016329274885052e-01 -3.4700644505787442e-02
      -4.4902732603921684e-02 -9.0955893302186744e-02
      -8.2446032572416096e-03 5.0009592940241127e-02
      -9.6400080396887283e-03 -3.4012998017417924e-02
      2.6015620321757582e-02 1.0974081035158419e-01
      9.6447854285401688e-02 1.4599187156820051e-02
      4.2378921667537608e-02 -1.7173452327772513e-02
      4.8954017810302168e-02 5.2175824636152814e-02
      -5.6856766637827537e-02 2.9385216660414309e-01
      -2.4009544075756516e-02 -9.8783473342015982e-02
      -2.2089700117993046e-02 -4.5235045262366179e-03
      -2.6517387121259374e-02 3.0408309958615654e-01
      9.8110079355822707e-02 -6.7639975159694082e-02
      1.0498610505921284e-01 8.4453124079678244e-03
      -1.7571476104293518e-01 6.2322864423362101e-02
      -4.6365989253432209e-02 2.3299150535810657e-02
      5.6910207588919487e-02 5.6674075270563971e-02
      -5.1028202526350382e-02 1.3052640264079726e-01
      -3.3412176573730457e-01 1.9410820898578113e-02
      2.1780272918731181e-01 -5.9973184080355860e-02
      8.8609904208718143e-02 3.8775435578562362e-02
      1.1067062086002386e-01 4.4422146527420166e-02
      3.5972292629197228e-01 -8.3939460407645897e-02
      -9.5249367087441472e-02 4.7551708346648680e-02
      3.7487309765493720e-02 -1.3046756005612642e-01
      -2.4710493000037470e-02 -6.3599380767671090e-02
      -8.7715614194822072e-02 4.6608767625521491e-01
      8.0445472742676494e-02 7.7819959943864481e-02
      1.1653600759774074e-02 -1.1423412890397502e-01
      2.3273999502838021e-02 1.0314365446072938e-02
      -6.3403133788722033e-02 -1.5608620289607444e-01
      -1.7444041309569214e-02 -5.2917910578142123e-03
      8.0378287893436456e-02 -3.0137804028893669e-02
      1.4328438529879381e-01 4.9178346868280473e-02
      4.8855768011095445e-02 8.3491917473069444e-03
      4.1775704258808041e-02 1.5057989408936561e-02
      4.1131169195905773e-02 -9.7620920980226553e-02
      -6.4473784166355991e-02 1.7204882372934385e-01
      5.5935815559500592e-02 5.9693341021637161e-02
      -9.1336964509647428e-02 -1.3524435278555130e-01
      -5.6044448789047352e-02 2.0324998126997250e-02
      7.6571905812632249e-02 6.8202251671704239e-02
      -2.6642564462432045e-02 -7.1350356655629818e-02
      -1.0977981998543972e-01 1.4402533274938686e-01
      6.6548397413058583e-02 3.0584446037582681e-02
      9.3476312023727567e-02 3.2483163810525885e-02
      -8.0361105501070298e-02 5.4927384868617139e-02
      1.1402961944912095e-01 1.0629387099990741e-01
      1.1709615215514132e-02 -7.9639491434472520e-02
      -1.0787558369718132e-02 1.6496963805119013e-02
      -2.4036529691253716e-01 -2.8122988497573952e-02
      -6.0431001058619968e-02 -7.3884059464992425e-03
      -8.7348765128253250e-02 -6.6156130085774520e-02
      5.2326482452301273e-02 -3.8843091198660938e-02
      2.6073007698514953e-02 -1.0422506860560524e-01
      -3.5323209027178434e-02 -4.7789606228807291e-02
      4.3850497352363627e-02 -5.7020287521396394e-02
      2.9746812077108137e-02 -7.0007029467760475e-03
      -3.1502984884148433e-02 3.2433324790873891e-01
      9.6680471449432613e-03 -4.6058527614205633e-02
      2.7693625662460031e-02 6.8105956373456386e-02
      5.2004678631724276e-02 2.5437689451049889e-01
      -2.0520117571007683e-02 -8.0516428936171086e-02
      -4.4023279662241468e-02 6.3346430829208378e-02
      -3.4226835237493852e-01 -5.5998470155065330e-02
      -9.4790321593876473e-02 -3.5927696583372706e-02
      4.3977592505398205e-02 2.1870680610035432e-02
      5.1374385152672196e-02 -6.9855692558450269e-02
      5.0274614229622330e-02 1.6512430673763806e-01
      2.4857911472711053e-01 -1.2478156754985806e-01
      4.8115996956056076e-02 -2.5048590950891556e-03
      2.6014281907985878e-02 -3.3267069828047079e-02
      3.2628631968274968e-01 -1.7127891183280192e-02
      1.4661593421579404e-02 2.2346459127506841e-02
      3.1799531129030875e-02 -3.6843405303880958e-02
      7.3808228220792499e-02 -4.9954157375557390e-02
      8.9125693374126305e-02 4.1497121699764977e-01
      -5.6671271777422573e-02 -5.4615965575170344e-02
      -2.5994071482015428e-02 -9.7225558279053881e-02
      1.2384821288253178e-01 -4.7562806360023260e-02
      6.1317838107068836e-03 -3.1383204345482385e-01
      5.6925143575602567e-03 4.8783977168448879e-02
      -1.0351187951199584e-01 4.6589114017300155e-02
      6.5793539695892703e-02 6.5671312192282533e-02
      -2.9954196584754563e-02 6.0787621886677898e-02
      6.5002961600584927e-02 -8.4282921644159348e-02
      -7.1104100143512521e-03 5.7585416061221438e-02
      2.1687812580472445e-02 1.9289684116997985e-01
      8.4850290927991207e-02 -2.7551139937194651e-02
      6.1979363907202309e-02 -1.7206821926286378e-02
      -1.3048691024298759e-01 6.3655726712893101e-02
      9.2709653008043999e-02 1.7670530242143720e-01
      -2.7863706252495235e-02 7.8179236605926933e-02
      6.9009958808069455e-02 3.8423019528268827e-02
      2.8328243461947612e-02 -6.2971176814014512e-02
      -8.7860361696123324e-02 1.2962172934431465e-02
      4.7818632963631189e-02 -9.2876248667496678e-02
      2.8118253108855688e-02 -2.4941379198601642e-02
      7.7535304853314752e-02 -5.5601438310869424e-02
      3.8513661479703337e-02 1.0396563610795495e-01
      -1.1207640804423817e-01 4.0691879402937337e-02
      9.7840608320456490e-02 -7.0619316577914940e-02
      -1.1312852684304882e-01 -2.1045135346956352e-02
      8.0407222147358903e-02 -2.1606200434761889e-02
      -7.2761832361088307e-03 1.2062453880022438e-01
      9.4672293485991418e-02 9.6273608294982785e-02
      8.4138926851349535e-02 -7.3052842470630111e-02
      -7.9653562667198141e-02 -8.7229213980352924e-02
      -6.0679765398475569e-02 1.0108477144106996e-01
      -1.9070829614968008e-03 -1.9395714160188371e-01
      -1.2905057674378992e-01 9.6561077598697406e-02
      5.9366283137753341e-03 3.7118182454436888e-01
      3.6419711810094561e-02 -6.2342903999284993e-02
      -6.6870159552159230e-03 1.0011163370090098e-01
      -1.6666021751848240e-02 -3.1750656112631108e-02
      -1.2919355568322669e-01 1.2189951949091887e-01
      5.7270784821543755e-03 1.1918000644528727e-01
      -2.1524404725712792e-02 -9.0837177992834944e-02
      -1.7199527809445284e-01 1.4730469184509518e-01
      6.7936830932255998e-02 -4.2153284025984623e-03
      4.2643123983298392e-02 7.2538302464262433e-02
      -4.2954475940485010e-01 -9.3579655001713238e-02
      1.9934303449887156e-01 1.6256845443359663e-01
      9.9393096073398607e-02 1.1662565280817083e-01
      -8.5632185620030787e-03 9.0332367217796861e-02
      -4.8466556044787203e-02 -9.0455458660251731e-02
      1.4885339146394362e-03 5.2906399310955121e-01
      -8.8938151052116415e-02 6.0513885774841646e-02
      -2.7633933273538455e-02 1.2282328057548696e-01
      2.0550059371751430e-03 -1.0146064612072114e-01
      1.5109301953360514e-02 -2.1107511489217126e-01
      1.3215661485767949e-01 5.3544999063040548e-02
      -6.4030632133596360e-02 1.1351999094789912e-02
      6.6478176847037301e-02 -6.8319532780038664e-03
      1.3225064589485899e-01 -3.5156235333641928e-02
      -3.7016722268559503e-02 1.1208553654069778e-01
      1.5191424147563903e-01 -8.6039882581831206e-02
      -1.6619614077934633e-01 8.6016851439206857e-02
      4.3471782178633407e-02 -1.0663539413943654e-01
      -1.7349693291675607e-02 -2.4023248551632262e-01
      -1.2543728302448867e-01 4.4632672351802911e-02
      2.1683618890694806e-01 8.2010182151440736e-03
      1.0451975664108826e-01 5.1508583576084545e-02
      7.9198365760570599e-02 3.4783382941514035e-02
      6.2915570555352074e-02 6.3213506639981015e-02
      -6.3467862062808189e-02 8.8634380217060660e-02
      -5.6613123442453776e-02 -4.8810157108600670e-02
      -1.2619047735007266e-01 -2.9964169669803128e-02
      8.8785035717361585e-02 7.5636332313513924e-02
      1.4471360444227989e-02 -6.4310118584667189e-02
      -1.3390833429722121e-01 -1.8186304045167009e-01
      -8.3874138911769633e-02 -3.7763053437313614e-02
      2.7857673545738326e-02 4.7441649844403813e-02
      -6.3025760689835550e-02 7.0952809689244932e-04
      -7.4612541555749198e-03 -1.2388293083975298e-01
      3.1207793065324754e-02 -3.4554294339973042e-02
      1.1041097617461378e-01 -4.5487668386072246e-02
      -2.7579823460314998e-02 -6.4756506470900435e-02
      7.3111151448495343e-03 6.1271564181421365e-02
      -7.8362990438152896e-02 -2.0075597636493869e-01
      2.8630846042601288e-01 -4.6306756254584809e-02
      -1.5621495949062028e-01 1.0473559426747674e-01
      -2.2586704525665136e-02 -1.1097115019670967e-01
      -7.8437351321742219e-02 1.5967008614851608e-02
      -1.1031652661944213e-01 -6.1991081633258595e-02
      -1.2453342834364164e-01 -1.5746813256988307e-01
      -5.2870463335955430e-02 9.7486711901709711e-02
      -1.1505914750765106e-01 1.2311441536106926e-02
      -6.8203427821211929e-02 1.1033980362000802e-01
      1.4822274990010467e-01 -6.7853753518465940e-02
      -5.8068289777828436e-02 -5.2226972827918036e-02
      -2.4505318381596145e-01 -1.0448416545297196e-01
      2.3945929167456073e-01 1.2494058653027938e-01
      1.5344344481511740e-02 5.3730972711462710e-02
      -8.2596662912373928e-02 -4.6085791442476515e-02
      -3.8274770476761241e-02 5.1866378495362443e-02
      -3.0296918033710735e-02 1.8558764439736883e-01
      2.4054634326189598e-02 -2.4471303792553269e-02
      9.6714356297385069e-03 6.9340589299338661e-04
      1.5758696608172942e-02 -4.8093935839441306e-02
      7.7333579345120140e-02 -9.5493924249952775e-02
      6.6445558021957479e-02 4.7462796957959089e-02
      -7.6581117722491238e-02 -1.0726336449543934e-01
      4.7631954232781153e-02 -3.8075588938845349e-02
      4.6108342649840206e-02 -6.0347222570132343e-02
      4.3155311495767276e-02 4.3514125743781294e-02
      4.0878115730645426e-02 1.4022451058321006e-02
      -5.4211589226252327e-02 4.8631463189800529e-02
      1.0343133366494188e-01 -9.1204274806625810e-02
      1.0330759048051498e-01 -8.6577267725740509e-02
      3.7685718869029314e-02 -8.3192747139483991e-02
      -2.7590147050776605e-03 8.4782965413417552e-02
      -8.3148428827356430e-02 9.9482293080570730e-02
      4.9540914682446778e-02 4.8344330942788456e-02
      1.1771245638893627e-02 2.9347277184097166e-02
      -3.6927170700007048e-02 -1.3856958708375925e-02
      -1.4344612508699001e-01 -2.1465012119465384e-02
      -1.1386705367959599e-02 5.7466184828503741e-02
      1.0508491439699334e-01 5.6826435494637201e-02
      -2.3983584202651835e-02 -1.0237661813306741e-01
      -2.5986009101189901e-02 -2.0526800096413484e-03
      2.2373343197728830e-02 -7.9550376754830412e-02
      -9.9527031566894630e-02 -7.9966540865725688e-02
      5.6189005340725559e-02 3.0047563110296931e-02
      -2.3121741245505128e-02 -2.4491362062632246e-02
      9.2432822268273374e-02 -1.7769393184941404e-02
      8.0945482033128333e-02 -3.8340612456513087e-02
      4.3634385632582380e-02 -7.8010284792506809e-02
      8.8706028758690769e-03 3.5272806203057276e-02
      -1.1722473817668373e-01 -9.8319933479837196e-02
      -1.3208015458223742e-02 2.2096698367375364e-02
      -5.4557204388284729e-02 1.4746587738727468e-01
      5.2687146436344312e-02 -4.0631668917462567e-02
      6.3692299141688780e-02 5.9383984068444320e-02
      -1.6584316912065780e-01 -3.4928697811624755e-02
      2.9770282933665264e-03 -1.5681947865957813e-01
      -8.1844996039839871e-02 1.0874695756068901e-01
      -3.6518778520074367e-02 3.3210119062875160e-02
      -1.2292346024665224e-01 9.4264292570506197e-02
      2.4695066125898474e-02 4.9564130804993813e-02
      -2.2201851008405372e-02 2.6338284270923596e-02
      -1.0774573456760800e-02 -5.6989293450159871e-02
      1.0415940306414648e-01 2.8018754912163598e-02
      6.2142395319211161e-02 -4.9702332985212275e-02
      -8.2770447681292894e-02 3.3490226780209235e-02
      -5.0043548379542210e-02 -1.3641242595940271e-02
      -8.0603990414540409e-03 5.6180495448844344e-03
      3.6095585924780460e-02 4.5545073168912896e-02
      1.6894824063102342e-02 1.1923361733194630e-02
      1.0562787828052854e-01 -1.4597698468740442e-02
      2.6339027383614762e-02 2.3612166923065388e-02
      -4.7525917456063903e-02 -4.5581940956804512e-02
      8.1117229463690370e-03 3.6944402095256061e-02
      -7.1119579544333844e-02 7.4701603341465004e-03
      5.8088272420167911e-03 -3.3248973410217375e-02
      5.5487710396048592e-02 -2.8011372342159422e-03
      5.9566911738253708e-02 1.3344597831353762e-02
      -5.6150731428555652e-02 5.8299879032653892e-02
      1.6142994773664873e-02 -6.8209320021377310e-03
      7.6246093311611265e-02 1.4180138719924051e-01
      -1.9448393562538597e-02 7.6112808704790055e-03
      1.0832095759267064e-01 2.6432217261468649e-01
      7.6093161449386798e-02 6.4100036456004678e-02
      -6.6809823533586247e-03 1.0124555967584927e-02
      -2.1000938362515358e-02 5.6355480240286762e-02
      -3.7480627966773629e-03 5.4356958965503230e-02
      5.8499940819240800e-02 6.0393890918577359e-02
      -3.9163085577281945e-02 7.7042555084667882e-02
      -1.7692175128768896e-02 1.0290361017722600e-01
      -8.0099758336804994e-02 1.4835818143686761e-02
      -2.2914567720936022e-01 1.0742601849527324e-01
      -1.7804678956093410e-02 -7.5095102451378973e-02
      -1.3357385602814357e-02 1.9242369567941703e-02
      -6.3190058238365579e-03 1.2180558013707377e-02
      -1.1202434078731291e-01 -2.1937907144225815e-02
      2.2546554575398739e-02 -2.4336284470557395e-02
      -1.6371612058778438e-02 -8.0128315953384849e-02
      4.4524454949642061e-03 -4.8452576251736733e-02
      -3.1623326315244504e-02 -6.1246829321740959e-03
      -5.2116777521136450e-02 2.7611322897943464e-03
      9.6845710512021635e-02 -1.8619695202557088e-02
      2.8979961227562256e-02 1.9238437052510934e-01
      3.0033059172277280e-02 1.0102324946595208e-01
      1.7432352509717131e-02 -7.3147731152969353e-02
      9.3475260325609575e-03 -9.6695044409922631e-02
      -3.5192818229590209e-02 -7.8337150672471975e-02
      -4.6817508308636485e-02 -6.6129400632390520e-02
      -2.2745044272571551e-02 -5.0533483892720693e-02
      -1.9212171132575570e-01 -3.5615610987458817e-03
      1.6728331256539258e-01 5.2766379420537395e-03
      7.9474597835957089e-02 3.0876587097944566e-02
      -7.7546587659982957e-02 -5.2646815891787116e-02
      3.5207837646541458e-02 -1.6501781066570884e-02
      6.2606221405032914e-02 -3.5446279008133776e-02
      1.4705580923259420e-02 -1.7247696654802028e-02
      -6.9519278127278206e-02 7.3677879179550584e-02
      -2.8013756727272812e-02 -7.7066615372004349e-02
      -4.3848821271917603e-02 3.6769071920189120e-02
      -5.7762886531226430e-02 4.2281452402306650e-02
      7.0256859617503803e-02 -5.3928046305930392e-02
      1.2306232437435537e-01 -3.7887847941186557e-03
      -5.1874319918074036e-02 6.4012999769546566e-02
      -9.7665355161024869e-03 -6.4755760948092669e-02
      9.6556823348985146e-04 -5.6133419641404746e-02
      5.3949843634407815e-02 -6.6750118690209623e-02
      1.3163965200430419e-01 5.8780751789722883e-02
      -2.5610776094699132e-02 -5.2386008757175175e-02
      -1.4812136702606807e-01 -3.1541303074121008e-02
      1.2869695999069372e-01 -9.5667482395699957e-02
      -1.0308750883993117e-02 -1.4865911142950616e-02
      4.9708047496442578e-03 -6.8690400903178073e-02
      4.1253048349355836e-02 1.3326406144242328e-01
      -8.5526612837181812e-02 3.6363748476457396e-02
      -7.0828541217090188e-02 -1.8382800102439319e-02
      7.7180437261917451e-02 8.6997259758857734e-03
      1.0081883660596541e-01 -6.2350461764176440e-02
      -1.5206497989797416e-01 -4.0153766016962696e-02
      -4.4174675894130072e-02 1.6503281037012322e-02
      9.1502873834277507e-02 1.7908064883149017e-02
      -2.4354565354336468e-02 5.6373318770142492e-03
      -1.7747543603127536e-01 1.1039670069825598e-01
      -1.0408294156297890e-02 2.2468626374463448e-02
      -5.5402917340625690e-02 -1.8130541594156755e-02
      5.9109539724544892e-02 -7.7044892569832560e-02
      -1.2064463358730804e-01 3.4497410237003603e-02
      8.5751274801879160e-04 -1.4908510039931627e-01
      -3.8764699843583252e-02 -6.9380138308149222e-02
      -7.3575477223261312e-02 3.4728121278735763e-03
      -9.8605058086297062e-02 1.3709918804266813e-01
      -9.6163762235504741e-02 1.9584961718830646e-02
      -2.5629542450852211e-01 6.7984749248456655e-02
      6.8665879996333626e-02 2.0434145670835901e-01
      1.2205307762449430e-02 -6.3075217010836460e-02
      -6.1925066165613676e-02 -4.1651775324899776e-02
      -8.5460693640228708e-02 -5.7576956314402100e-02
      -8.4867594775732982e-02 -3.5897257104398790e-02
      3.3326238816674757e-02 -7.3799099230257613e-03
      -5.4245393720812961e-02 3.2664392582264529e-02
      -3.1160574946680780e-01 -1.5545226304265691e-02
      1.7035174469459977e-01 -6.9969501704340992e-02
      7.6499449413471893e-02 2.0032873319276345e-02
      -2.5038627839129496e-01 -8.2174673835705894e-03
      1.1867144719616229e-01 6.8224159009529592e-02
      -4.8378320830870396e-02 3.7099394781457337e-02
      2.9869604087738859e-02 6.5489417256034028e-03
      -2.9985464404763254e-02 -9.0570696338782480e-02
      2.7315406126264551e-02 2.9196432529368044e-01
      -9.3129565133869871e-02 -3.7627378153665562e-02
      5.6893248957762925e-02 2.6427561726754697e-02
      5.3731199293544030e-02 1.3652669799494373e-03
      9.6779056903594424e-02 -2.0803542482450832e-01
      8.9555369142989449e-02 -1.0941788817842961e-02
      -1.1340315735560869e-01 3.2978295007358681e-02
      5.0554595911405424e-02 6.9116375699898536e-02
      4.5171482616094903e-02 -5.5359095594583484e-02
      6.1648754900177218e-02 1.2212518645548678e-01
      4.8222570087647798e-02 3.9431936824049198e-02
      -7.0655063655641767e-02 1.0358900996374340e-01
      6.2148661280146400e-03 -8.7420649672858730e-02
      1.1934705850618392e-02 -1.6697926017977166e-01
      2.3301879662917791e-02 -3.9857193895277095e-02
      7.2808805794503204e-02 2.4715320299624946e-01
      1.1765565261823287e-01 6.1878876810306210e-02
      -8.7719626015193952e-02 1.0151643812941280e-01
      9.7760687546469702e-02 1.6220292589521651e-02
      8.7978236917197361e-02 7.4597062420799970e-02
      -9.7663902508505138e-02 5.7482714116847446e-02
      2.1953119052647137e-02 3.7069821880445220e-02
      -3.3770572492976630e-02 1.3937616627485397e-01
      9.2321915184981080e-03 3.4836346670105420e-02
      -2.9617989508605469e-01 2.0903474604360595e-02
      -8.4163666489434269e-02 -8.8755743881429233e-02
      5.5873287555102569e-02 4.3816429303715956e-03
      1.0515793931379509e-01 9.1870690533959090e-02
      -4.8206367838783043e-02 -7.8780492531374743e-03
      6.9723913683602506e-02 -4.2571288345344863e-02
      5.9363178188470263e-02 2.3694874580977739e-02
      -1.3178870027845497e-02 1.0074317647400246e-03
      -1.8444742325878678e-02 6.8840115733378740e-02
      -8.5655486544869389e-02 -1.0194465486607164e-01
      1.9301585178350952e-01 5.4954450766282414e-02
      -2.5687859408708774e-03 2.6108183958358527e-01
      1.8763344890861098e-02 -1.8415229454626272e-01
      -4.2230208473361758e-02 -4.4080485574719601e-02
      -1.7355306563688788e-01 -1.7160830295152296e-01
      -9.1025467744468333e-02 -1.0511915711703841e-04
      4.3209335477874831e-02 7.1438719951932836e-02
      -6.6770276419101368e-02 -1.8258613515532346e-02
      -2.1489900178444843e-01 1.5183929274069084e-02
      -8.4366553818013661e-03 -3.3515032294928124e-03
      4.0949157990258146e-02 -4.8587311444963005e-02
      -1.7324528932244745e-01 -2.8776269436086129e-02
      9.0941539510216093e-02 9.3978428640569545e-02
      -1.1932935752822548e-03 -4.4471980803218916e-02
      7.0751892287170187e-02 4.8671120914496414e-02
      6.8130094889878269e-03 -1.1818147616365210e-01
      -5.0645698601229899e-03 2.9463692012995696e-01
      -2.7672030156433909e-04 4.4105716015273869e-02
      9.7078149486890114e-02 -7.6759016852795316e-03
      6.6250358557214603e-02 2.6353778339643284e-02
      -1.7897555108016720e-02 -1.0368156385824180e-01
      7.6041906993471770e-02 6.6489926507731029e-02
      3.3371191329549292e-02 -1.0744712585909405e-01
      1.1767765057486085e-02 1.0787737094533295e-02
      -1.4910883959396397e-02 8.3100197611915907e-03
      -3.6815730429514769e-02 1.0921234922993142e-01
      9.3439541422829675e-02 3.4232351492143563e-02
      -2.7862709345685965e-02 6.7426223080769468e-02
      -2.1273743699031351e-02 1.7083760890548871e-02
      -1.1790944959848474e-02 -1.3686639341070639e-01
      -1.4103401818476410e-01 -6.1003286225259120e-04
      7.8861992263867017e-02 -2.3465515531423349e-02
      1.3714962497003433e-01 1.0992621200639680e-01
      -1.3583026480415900e-01 -3.1584708258905997e-02
      1.6072498693423190e-01 -1.4021889942926764e-02
      7.5171454096917570e-02 1.0509180591603289e-02
      -9.4436579997982051e-02 2.0127203713967527e-02
      -8.9610114183843251e-02 2.8332972658529045e-02
      3.3993686166509537e-02 2.0947532913489240e-02
      1.4280226522784462e-01 -5.8784403018319234e-02
      -1.7142159125916298e-01 -9.6927646880207566e-02
      -8.6669350529275213e-02 -9.3344066949517121e-02
      -1.1642172907478229e-01 -7.8691867679438740e-02
      3.3911340733660027e-02 7.3917479476086470e-02
      -8.0891858308747552e-02 -1.2547678834903753e-02
      -2.5855629375451872e-02 -2.2868588565109534e-02
      1.2776847642319494e-01 -6.1742252629920188e-04
      4.9756954422188866e-02 -6.3849564462657549e-02
      -2.4231850675666251e-02 5.3668552832984356e-02
      -5.5780503871453703e-02 -5.5709700852279401e-02
      3.1149153506509430e-01 -2.6018412769968708e-02
      -3.5299376197389036e-02 1.3410688288059605e-01
      -2.3010799324980988e-03 -1.9503875531248095e-02
      -2.1828256347706822e-02 2.2157935596912780e-02
      -2.0310000070075110e-01 -7.9666917484570596e-02
      2.7856330316645691e-02 -1.2231427125059614e-01
      7.3877210491739573e-03 1.3811423430019518e-01
      -2.8411435574842329e-02 -6.1139236159690892e-02
      -1.5413190053475054e-01 3.2210053083392684e-02
      1.9518059419604530e-01 1.8419614299052813e-03
      5.0845733157307678e-02 -1.1397821112872049e-01
      -1.0341426864728208e-01 -5.6169650970478747e-02
      -4.2152450133611227e-02 -5.8979031890692514e-02
      -3.7291425989277260e-03 -2.8438235150864591e-02
      -2.4737241093598272e-02 1.8131416769515855e-02
      1.0269419505967863e-02 -2.0864839429471413e-02
      1.0453772305439839e-01 2.1432171028512897e-01
      -2.6065976627925029e-02 -7.0879009788671163e-02
      8.3211665264307566e-02 -3.8941050810987150e-02
      1.3990464836174363e-01 -4.1783320835812779e-02
      -9.1965099997870531e-02 -2.9427342968314840e-01
      -5.2644609360380304e-02 3.2298286382440804e-02
      -3.3444873247097467e-02 -6.3171483561998198e-02
      9.4271598985689140e-02 -3.1426958240551611e-02
      5.8955703159817220e-02 -5.3273399630862590e-02
      -3.4418419652615044e-02 7.0651217688623189e-02
      6.0991141300883747e-02 -7.7005787111735877e-02
      5.3834077845717216e-03 -1.2072010211658955e-02
      -1.4590079573872011e-02 -7.2440450184863919e-02
      1.8814029584235063e-02 -1.2410448397052522e-01
      1.0439820781806271e-02 -2.8676290941108035e-02
      1.4202729522921392e-01 1.1213067426829001e-01
      1.2482191349490195e-01 2.1261193640983885e-02
      -8.0678884588649066e-02 2.9075422064745678e-02
      5.2094688853603173e-03 -3.4560091436671540e-02
      6.2530267099972975e-02 5.0559276869740016e-02
      4.6800446453168665e-02 -5.2805196216512501e-02
      -6.8060761703825579e-02 2.4185193972016621e-02
      9.6004243937777095e-02 3.6361123996134025e-02
      1.3720929462877551e-01 -6.1133521818245530e-02
      -5.9124953214284223e-02 -6.5736568738113427e-02
      -6.1269240190931926e-02 -1.0660033039973819e-01
      -4.5488679608560574e-02 -2.7443274045784078e-02
      -3.4390435788995741e-02 4.6465177120130464e-02
      -9.4812908911036074e-03 -2.2900668808390284e-02
      7.6124817244159620e-02 -4.2390472743754876e-02
      1.2795076921822929e-01 -9.5670526258685943e-03
      -4.0652565158171096e-02 6.6055658735334581e-03
      -5.3405205279618874e-02 6.5995975579303062e-02
      1.9602397070244956e-02 -1.7679016081652862e-01
      2.7963602292092893e-01 6.7407928805893983e-04
      -5.4931061776171589e-02 1.5032097981205908e-01
      1.3263225249825381e-02 -2.2507490815522908e-02
      -7.0640469842295495e-02 7.7633213485865840e-02
      -3.2217318455223104e-01 -3.9149066229438492e-02
      -4.4432643502905003e-02 -1.3943674989344559e-01
      3.7578347285428429e-02 -1.2602872008301099e-02
      -1.1125441896827722e-01 -1.0463251674661446e-02
      -6.8675890317719413e-03 1.2798141230311896e-01
      1.4627847725896778e-01 -4.5909955534898766e-02
      4.3079381107358039e-02 -1.0865496181222679e-01
      -3.0118268990703095e-01 -3.6645160473931813e-02
      2.7064258777349559e-01 8.1954527344028333e-02
      -3.6105636926364280e-02 -6.5878799680673700e-02
      4.4651979345486641e-02 -2.4946798855996124e-02
      1.2792021480976548e-01 3.5347233779282020e-02
      -3.7995271961737263e-02 4.4774836272814794e-01
      5.3686998723494167e-02 6.7110340640971697e-02
      8.8243244146392466e-02 -4.4117801253102780e-02
      7.4010071196597596e-02 6.6595557752121684e-02
      -1.7024550808856236e-03 -1.2232395399154132e-01
      -1.5728375801618885e-02 -8.2687204658040123e-02
      1.8578798252475439e-03 6.9471331301327183e-02
      8.6103442144951692e-02 7.5330787208174044e-02
      1.4653850853261999e-01 -7.8957908132663443e-02
      -1.6423112249614061e-01 -6.3410312090196194e-02
      9.6207711491638662e-02 1.1950968024668797e-01
      -7.7710809711863296e-02 1.4148518957133438e-01
      9.8535239054203791e-02 -4.3840792488173429e-02
      1.4921007789811444e-01 -1.0073993073529652e-01
      -1.1089393946101872e-01 -3.5441008502444631e-02
      6.6809439147899607e-02 2.9842496238309707e-01
      8.9039044217673322e-02 1.1769236797097789e-01
      2.0270108419011758e-02 1.0853738093892443e-01
      2.7190719067798192e-03 5.5346404270808558e-02
      -1.1589374396736948e-02 5.2193052840784966e-02
      1.2713526960929585e-02 -5.0897315548093243e-02
      -6.5049204667576516e-03 1.1098251639862025e-01
      1.3655238390072794e-01 4.6722455424997138e-02
      -8.8530582135098849e-04 -4.6092269374117180e-02
      -2.4070190513440451e-01 -3.9804187553741620e-02
      2.6486901515945072e-02 -1.2778994674337446e-01
      -5.6734340435164177e-02 -2.4331160743353317e-03
      -1.7212025246605294e-02 1.3694734585664226e-01
      -1.9558153091484353e-02 2.0480006891086949e-02
      1.2094575199056733e-01 -1.1137399220310495e-01
      8.2957423613450931e-02 -8.9423837449960575e-02
      1.1340138848965146e-01 2.2231874337398268e-02
      5.4778563603944341e-02 -3.7847634109207093e-02
      -6.7726221246400417e-02 -1.0339675106343590e-01
      5.9292755238046675e-02 1.0999302612238823e-02
      -8.9719844406337471e-02 8.1208600104120995e-02
      -5.7936086732714019e-02 8.8789500035950375e-02
      -4.0378239368835236e-02 -3.6825627500020650e-02
      -1.5603518553186677e-01 -9.3869805259320699e-04
      -1.0497978925866125e-01 -1.1796553779929286e-01
      -6.5235375289366904e-02 9.4795492342889892e-02
      -6.2438417855362978e-02 6.7920519633258167e-02
      -2.9042198823067650e-01 7.9538860759133301e-02
      2.9603416880663931e-02 -1.2725691373391374e-02
      6.6812108797459718e-02 -1.3906677455955732e-02
      -2.2733192051563136e-01 -1.4306606430859996e-02
      2.8794653138650544e-01 -1.4339967313439672e-02
      -6.2837147489598746e-02 -1.0841373498593239e-02
      -6.2538717170015384e-02 -5.4870069507005549e-02
      -6.8564817552585672e-02 -2.0411442409027744e-02
      -1.2947602535172412e-01 1.8919810193481892e-01
      5.6453433595405618e-02 4.6437416270049783e-02
      -1.1720383669098031e-02 1.0786673320553465e-03
      1.8489357739667378e-01 5.0142003038946385e-02
      1.0785898178714130e-01 1.3797711629831846e-01
      -2.5993686588617483e-02 -6.7600945043297847e-02
      -3.7590651801030071e-02 -2.9655321821375098e-02
      -5.7233819964463174e-03 -5.3874237204180393e-02
      -1.9813293268139322e-03 -4.0429652588964748e-02
      6.3264408001352052e-02 -1.9981515037754138e-02
      -1.2945654636504156e-02 -1.2425954137453951e-01
      -5.3744256898667832e-02 3.6654860571981106e-02
      4.3123045767727929e-02 -7.9288640618370237e-02
      4.7230847781710605e-02 -2.4240517051726276e-02
      -4.9137270240997427e-02 -1.1627481291219763e-01
      5.2511172217731550e-02 6.0666267535243255e-02
      -1.9150855486333808e-02 1.0202831174090943e-01
      -1.1713508309254977e-02 6.5070283886867669e-02
      6.3453007683626786e-02 -3.2147712246308482e-02
      9.1056556552986376e-02 4.8424098496513551e-02
      -4.8435164686501046e-02 5.0807794778247484e-02
      -6.9661984022694870e-02 -5.3460652919342211e-02
      -9.0247350969817064e-03 8.7905273651912780e-02
      2.5375144788288704e-02 2.8801453461342944e-02
      -2.2102689708089540e-01 6.4935783705884681e-02
      -3.5696102911401510e-02 -9.3821275091604248e-02
      1.9019794659429722e-02 -5.3664305202217877e-02
      1.1967479341080287e-01 9.6374357390697218e-02
      -1.1126173855432088e-01 -5.7331002858905612e-02
      8.1884115071263100e-02 -1.1094775826365895e-01
      4.9393127868724476e-02 -3.2016355723209433e-02
      -4.0928864737496247e-02 -5.2733550099767053e-02
      -9.9236674608753031e-02 1.1413489163227598e-01
      -4.1555230222918363e-03 -3.0932728220936724e-03
      -3.4201069873182721e-02 2.5295256845324259e-03
      6.3126583326739583e-03 1.1207878047191949e-02
      -6.3777958963055728e-02 -1.3143300943909933e-01
      -2.1497797061122991e-02 2.4598430657979883e-02
      -2.8237857649631964e-02 -1.8134709564464321e-02
      -1.2746876019798753e-01 -6.6166049721122916e-02
      -7.6477753309914520e-02 3.1674499607692336e-02
      3.6355057038552287e-03 -1.5764018685729131e-02
      -2.0907238958840796e-01 9.3794668194890810e-02
      -1.3232874577293339e-02 -1.3060412890226665e-02
      5.5295855051862568e-02 -1.0022904415974987e-01
      -2.0316448840922768e-01 -3.9882406815757526e-02
      2.3276542361987429e-01 -2.7499690094412419e-02
      4.9281426736333227e-02 2.5296984789857029e-02
      -4.5641036656553495e-02 -4.8163343236650176e-02
      -2.3585772147104157e-02 -4.0002951563553123e-02
      -5.4699461171904877e-02 1.7269437503557292e-01
      1.4992654240537334e-02 6.9394813311603978e-02
      7.5408314178599910e-03 3.2752444366691343e-02
      1.2868670009136418e-01 3.5943037053965808e-02
      5.4415836451532244e-02 -3.2245623709317411e-02
      1.0528749607728422e-02 -5.6185769686352222e-02
      -1.3071896465520233e-01 3.0166279763469098e-02
      2.3507810062001751e-02 4.0493683963353504e-02
      3.7967578837043749e-02 -6.4954890557255091e-02
      4.1893422997405283e-02 9.2519762599000591e-02
      -3.5907324395325811e-02 5.9270324423237569e-02
      -7.1593162615588832e-02 9.1686561554884818e-02
      5.9153646797854717e-02 2.7435796200326008e-02
      4.0794976458439172e-02 -9.8133905959505816e-02
      -1.0030981776154148e-01 -5.4983124119918507e-02
      -1.0481105662413460e-02 1.1475313376218919e-01
      1.0295520631458244e-01 2.6716422505047019e-04
      1.7118035839819013e-02 -3.7599637586428459e-03
      3.0039519007860310e-02 -2.3264040994698545e-02
      6.6946422801633265e-02 7.2233897988681295e-02
      -8.4520818808906818e-03 -7.9098818556325279e-02
      -1.5838224933686786e-02 -5.5358500810812152e-02
      9.4380576659304771e-02 -1.3829458977438567e-02
      1.0511469738383840e-01 -4.9509466047616982e-02
      -1.0499492257072293e-01 2.8811220961851181e-02
      6.2909515534546268e-02 -6.9801335645303239e-03
      -2.7910810129062116e-02 1.4004300598997051e-02
      3.9483681242765328e-02 7.7908690895013670e-03
      -1.4738242775106802e-01 -5.2501450651703994e-02
      1.7009758423545252e-04 -3.1937542216191786e-02
      9.1559871281718552e-02 2.6993912013828922e-02
      4.8894468846329774e-02 -3.9122470611184117e-02
      -8.4631541250665687e-02 1.7232546432171983e-01
      5.2139467312907924e-02 -7.4440310471914309e-02
      -4.9900358126192833e-02 4.6893428706672305e-02
      5.1813062555121130e-02 -9.2229739234506267e-02
      -8.6238988810403636e-02 -4.9553896747380755e-02
      -4.4335549173308729e-03 -8.0315248469796027e-02
      4.3397388395128834e-02 1.2541381676915164e-02
      -8.2538983071107810e-02 -7.4250486847166952e-02
      -9.4005192242600705e-02 8.5188469007251036e-02
      -6.5670430815933115e-02 5.8766383508777185e-02
      -3.7475936226194717e-01 9.5432038228819627e-02
      1.9426505929637244e-01 4.0251567418659415e-02
      -1.5482054214404666e-02 3.0140494677713077e-02
      -1.1927064884316803e-01 7.4922715019652475e-02
      1.5703309047807001e-01 -9.9796798340145709e-03
      4.7880504577152559e-02 -7.1135180973078051e-03
      -1.0111562407208392e-01 -1.8805569004474859e-02
      -6.3203573731307014e-02 1.0068857906705834e-02
      1.2422280420994389e-02 1.9562981248466721e-01
      -1.0125930346373258e-01 4.9889396460524489e-02
      1.1438643010512117e-01 -2.3911475274488701e-02
      9.2467466269371384e-02 1.3936458136450500e-01
      -7.5697179025529054e-02 -6.1733625600650543e-02
      6.2738510045262319e-02 -7.2216769796943137e-02
      4.9241567536542304e-02 -3.5316710878393248e-02
      7.5500750258205074e-02 7.8175675759074470e-02
      7.5409063718178806e-02 -6.9641570354351728e-02
      3.9578254368612328e-02 8.0107333789834825e-02
      -3.2368632967408897e-02 -5.8462034215638857e-02
      -2.3725562621482413e-02 -2.5034558941869432e-02
      -2.8862987064314158e-02 -8.5532672604465444e-03
      -1.6866989460107009e-03 -1.4864488006286344e-01
      -6.0708821696996082e-02 -1.6299300384112661e-02
      -4.9604924153007046e-02 4.1414458063188574e-02
      1.5162095309887780e-01 6.2461163070924704e-02
      -1.0823749684254277e-01 2.2900185824250548e-03
      7.9285269523208662e-02 6.9268159760490791e-02
      9.8560769272786911e-02 -1.1795187337159188e-03
      -1.1884821881691957e-01 1.5102841653398555e-02
      -1.7443603139746064e-02 2.9643725197217585e-02
      2.8704066561260292e-02 6.8175829332879856e-02
      6.1395373899412235e-02 -1.7041249088327208e-02
      -3.7585503340538825e-03 -4.0869089549249900e-02
      -2.7120002461745757e-02 -7.1668875597645801e-02
      -9.1222700555476086e-02 -4.5698453813139882e-02
      1.0768748763915796e-01 -4.8002975499579936e-02
      -8.4353443567669259e-02 -1.4705547790637638e-02
      7.7970238864139521e-02 -6.2285754094730916e-02
      1.4489321839632007e-02 -6.9473060464159547e-02
      -9.8744486053909254e-04 6.8036006328388368e-02
      -6.5425755431157334e-02 7.2480093544699725e-02
      -5.5270563536113829e-02 -1.0700054705823805e-01
      1.0871736105764553e-01 4.1302546558693205e-02
      -3.3028215754870117e-02 1.0193021356514215e-01
      -4.2188584898234335e-02 -1.3204259156939865e-01
      -8.2002306593902230e-02 -4.5049999007276777e-02
      -2.8900362039146832e-01 -7.9690867752470113e-02
      -1.2480357449974959e-01 -1.4349730612002148e-01
      -8.7756254213128854e-02 -1.8097434469897287e-02
      -2.0065234941823891e-02 -2.8011655249888849e-02
      -1.7488372009468670e-01 4.4093171133115970e-02
      -1.1493711086913694e-01 -2.6245322517190861e-02
      6.4944991950406206e-02 -2.5848583296648693e-02
      -7.2973473897089483e-02 -4.3350005565427153e-02
      1.4606718999693866e-01 7.5345120098205529e-02
      8.3517522783683157e-02 7.3702725163615979e-02
      3.2287830185573574e-02 1.8399280676264302e-02
      5.7276161623473799e-03 4.4207942535069544e-02
      -1.7079669642713055e-02 2.7682072409114783e-01
      -1.2337714182761103e-02 -1.2932453004383768e-02
      5.7458089403870038e-02 -5.8235386040924861e-02
      7.5473821287257242e-02 -4.6004458179485985e-03
      4.0263854097257148e-02 -1.9782698912193655e-01
      8.0236817183264988e-02 3.9990571285562562e-02
      -1.1810664956781597e-01 -5.7316970001043542e-02
      6.3434145430346450e-02 -3.3677983656092286e-02
      4.8646918647794538e-02 4.2968710001037851e-02
      -8.9478779270260780e-02 5.2477292144173932e-02
      7.9048688197343578e-02 -4.3204143583643551e-02
      -4.4291713077063602e-02 3.8973861111008888e-02
      -3.3210686038798364e-02 4.6454600711446269e-02
      2.4950577353857806e-02 -3.9317523048870671e-02
      -8.5033913662518515e-02 3.1643676952786408e-02
      6.9808980465847173e-02 -2.4187704141408691e-02
      9.2138664914212964e-02 4.1873705551642354e-02
      -4.5408041903989005e-02 4.2959011648332546e-02
      1.0548415535684713e-01 4.0076024072991517e-03
      -1.3423326873132645e-02 2.4357063687035451e-02
      3.3106930703948302e-02 -6.2239378324939386e-02
      -9.2121152996595110e-02 6.0170416398594127e-02
      5.8926658562283941e-02 -4.5741918013496974e-02
      3.2157974262530697e-02 -7.1068633099221581e-02
      -1.1053563262364563e-01 -1.0625500538971993e-02
      -2.1367498086810512e-02 -2.9380191262400467e-03
      -1.3748971166503240e-02 -4.4216831309251213e-02
      3.1605992959690903e-02 -5.7250956383369127e-02
      -1.1332821465123755e-01 -7.6972573959627213e-02
      -8.5143828492700746e-02 8.1165902490940953e-02
      2.6113314010524410e-02 -6.0005767265777776e-02
      4.3295739505770986e-03 1.1741414813436804e-02
      -5.2291799975168765e-02 1.4975091420122780e-01
      -3.3426415342364464e-02 -2.3362735818077261e-02
      4.0848525116397846e-02 -1.9748502393922819e-02
      -1.3983452646519734e-02 -3.5827943779423208e-02
      5.7210102551967040e-02 -8.9946829304192635e-02
      -4.6311700137202282e-02 5.4420635249718078e-03
      -4.7414287667025899e-02 7.9359998202797502e-02
      -9.3769613783057579e-03 -1.3863388003043636e-01
      -1.0124198914253571e-01 1.1058336663392980e-01
      -5.8326272357321303e-02 4.8061350968599342e-02
      -2.1819926578223364e-01 1.1281341843952679e-01
      6.8724666237592685e-02 -7.9039220192945903e-02
      -2.9834031733570797e-04 -3.4780512225590414e-02
      1.7254291417901198e-02 1.7566193702233800e-02
      7.6797809847801324e-02 -1.7229862216998678e-02
      -6.2427145732245094e-02 -5.9974742686474325e-03
      1.6263331564874781e-02 -4.9803675313413120e-02
      -2.3028235099370565e-02 4.5190312972818232e-02
      1.1992998915328259e-02 1.5407853417504924e-01
      -5.7920134219017316e-02 -3.9164796844666318e-02
      4.7349900216898153e-02 -1.7258842707628236e-01
      6.1724135834267051e-02 1.0189453670627135e-01
      -3.3162909833296859e-02 -2.1330530541323994e-01
      7.4452422906066615e-03 -4.2018603579830616e-02
      -1.3511591134849591e-02 5.8252210805016691e-02
      4.5110692536422137e-02 1.0251199504618657e-02
      3.6820476450480671e-02 -1.3433602220099409e-03
      2.1528277008833561e-02 2.5980177668557747e-02
      -3.6896755740064145e-02 4.2711104420242296e-03
      -4.8968899311660437e-02 -2.7674203012071612e-02
      -1.5954344616338793e-03 -9.9514721159673167e-03
      1.0341411111635150e-01 -2.0399810301801152e-01
      -9.7388262985209792e-02 1.8997386942890937e-02
      8.7217281579771558e-02 6.2538588531750386e-02
      9.6226072442446201e-02 1.1052511258936891e-01
      -5.2975659419755267e-02 -6.7242291193754852e-03
      4.0555302035693595e-02 2.4771997394776198e-02
      1.2686316878577623e-02 8.4406955411876844e-02
      1.9423387857654444e-02 -7.1720832308673599e-02
      -6.4911101703546359e-02 7.2844379674987369e-03
      4.6485755256410632e-02 -1.0724383541204494e-01
      6.4380023984645290e-02 7.2048885746299474e-02
      -6.3698546855287036e-03 -1.8453645970149590e-02
      -4.7554533287224414e-02 -6.8338452028887733e-02
      -1.2685696744269037e-01 5.8934401763655192e-03
      -1.7118021775091450e-02 9.0773701799468087e-03
      -8.1599240136531540e-02 9.0512579360156400e-02
      -2.2496003070526287e-02 2.4232638929674085e-02
      7.5964623943978460e-02 -1.4475595371099687e-01
      -6.2216696683183220e-02 2.8273599273484419e-02
      5.5449127017371390e-02 2.8184384571990062e-01
      2.9006427607709689e-02 -5.4705764489723856e-02
      -2.0092558156143206e-02 1.2267124057730472e-02
      -3.7923148972766510e-02 -7.9164650764670275e-02
      -1.7409318107787956e-02 -6.0496101855763366e-02
      -2.5570228371240664e-02 -2.1694620027022655e-03
      -1.3459550406492277e-01 9.5257974862757902e-02
      -5.0380308854066157e-02 -4.0190713808677989e-02
      -4.0037335289452710e-03 -1.0279332059084014e-02
      2.8219005007141033e-02 -5.4765378705266529e-02
      4.8805447156020622e-02 8.3897569785768941e-02
      9.5835884083918077e-02 -6.6159863204276220e-02
      8.7524414132527008e-03 5.1891361959513486e-02
      1.9950449590453802e-02 -7.4155454424742556e-02
      1.4448729414109013e-01 4.4905777582522122e-02
      -7.6126459351162676e-02 -5.0838957341190184e-02
      1.6629380311365443e-02 -6.1796027229788116e-02
      -1.2486525517898488e-02 4.9060577436809041e-02
      3.3129718463500220e-02 6.1008431173868061e-02
      -4.6439083190377449e-02 3.4714530719370196e-02
      -3.7025721959388805e-03 -5.4915581788194570e-02
      8.6081530055141880e-02 -8.5893004447943885e-02
      4.9507850459995117e-02 -1.1519728885431782e-01
      -3.4115157108733092e-02 -6.5870586674651468e-02
      9.2964770911269194e-03 6.2251106427377280e-02
      4.7776159906752581e-02 5.1343942343420726e-02
      -1.9215817316969176e-02 6.4575370128146209e-02
      6.7068197838468457e-02 -1.6619814215801484e-02
      1.2994755325874444e-02 5.6020896761307282e-02
      -1.2103250351664810e-01 5.1801788027066422e-03
      6.1852689539247677e-02 -4.7869444961114456e-02
      5.4270863575570233e-02 -1.9662388294529609e-01
      -4.4091177898480036e-02 5.4786991776542102e-02
      1.2433800140912703e-01 1.1289174084051351e-01
      3.0390240895120779e-02 -1.8171890666690924e-02
      6.3459037560737230e-02 4.9473781151003739e-02
      5.8165523827041030e-02 -7.5233268190865926e-02
      -1.1353316303599020e-02 -4.3180136468319037e-02
      -1.1429754603341837e-02 -7.7406883118050329e-02
      -3.5356388995863998e-02 -3.9901725028895607e-02
      -1.8188243060238373e-02 -3.4070441751947289e-02
      5.3885468292386260e-02 -3.0427132939095342e-02
      -8.4854761706089105e-02 -8.8737229582215749e-02
      3.2122288530696916e-02 -1.6146516853770155e-02
      1.1588543018304431e-01 -2.2200923650596439e-02
      -1.2753273837086956e-01 -2.1856573107451677e-02
      2.2493701922277260e-03 7.4850180625093687e-02
      -3.6063149444862067e-02 7.0577778612736175e-02
      1.0440471196681515e-02 5.2224157261096832e-02
      -9.8351525570757867e-02 -1.2221670205780083e-02
      -3.6279915353660819e-02 3.2687961061576348e-01
      -2.4701973168195994e-02 -9.3931746420951923e-02
      -7.9991064931626166e-02 1.2336521880637377e-02
      4.8927504020689159e-03 7.3602165081969220e-02
      6.8317959268154413e-02 -5.4891131597393221e-02
      7.6268307918647985e-02 -3.1758359385215727e-02
      1.1299517885006920e-02 -1.6049831789138633e-01
      -1.3503577355974858e-01 -7.2570133811005105e-02
      -2.9632506285387876e-02 -4.4815816231148246e-03
      -1.1377656176493027e-01 2.7358643020423672e-02
      -2.2007300612423009e-01 -4.0268442360312677e-02
      -1.1520304270417905e-02 5.2289807654658522e-02
      -5.1704508371312456e-02 -1.3032970016538350e-02
      1.5462219651711942e-01 1.1453579528295653e-01
      6.1497716039721699e-02 -4.5782172035602815e-02
      -1.1605302987045402e-02 -5.8916575772924515e-02
      8.1624954364788588e-02 1.7639292136553547e-02
      6.4776717033690173e-02 -3.4806457701618211e-03
      6.6038033854094472e-02 -2.2930980371934104e-01
      -5.2586736969113673e-02 3.3947785776741360e-02
      7.8635289576087397e-02 -1.3844709450424680e-01
      1.5802337160954985e-01 2.3715906670565029e-02
      -2.1117858194327693e-02 -8.9011929725176173e-02
      -8.0470238682194217e-02 -5.9944819009883923e-02
      4.2606336553462715e-02 7.1466079718741906e-03
      -9.6726512352834540e-02 -1.2805745718572376e-02
      4.0197657312856287e-02 -7.9070977743964890e-02
      8.3015864438992018e-02 -2.1777881493571585e-02
      -2.4000808695316556e-02 -8.5168504847940890e-02
      1.0799573649655583e-01 -1.6448524296768394e-02
      3.2991798515034337e-02 -5.5189470118093685e-02
      -2.7017964942296552e-02 -1.0133275609521165e-01
      4.5694420885183169e-02 -4.1795764879372380e-02
      4.1455214889589954e-02 9.7730761411377251e-02
      -1.2254618224075491e-03 2.5984393577414257e-02
      1.1161059796353746e-02 9.9712821428292658e-02
      4.2006455780858792e-02 -3.9509472259083238e-02
      1.2552743690946688e-01 -3.8296633366274747e-03
      -2.5832035139094503e-02 1.4289740687664940e-03
      5.0943507424571197e-02 -7.4351680134076767e-02
      4.1165409874334591e-02 -5.3082876913606608e-02
      4.9307351515286292e-02 1.2241004892062343e-01
      -2.0853194694587299e-01 7.4932320707545214e-02
      1.4011465654896207e-02 -3.0557775456750416e-03
      -2.1666175606779182e-02 -5.8516249450066470e-02
      -9.7031070612167980e-03 -7.6815115769575448e-02
      -7.7708428126108897e-02 6.9798520797129143e-02
      3.1676981595795919e-02 -7.5503482307359371e-02
      2.0136755890468174e-02 2.8428291170318493e-02
      -9.2360291360610441e-02 9.1478529797951763e-02
      6.8500807924827156e-02 2.5506076831381957e-01
      4.2416266914378990e-02 7.7497943761275792e-02
      -5.7120589149386218e-02 3.7517824300698096e-04
      9.5593730320089346e-02 1.3011774421905231e-01
      -7.8766900545136187e-02 -3.3820764024661651e-02
      8.8059000868887613e-02 -5.9591561651673980e-02
      -1.0800334645767984e-01 5.8422197773929957e-02
      -6.0816449287430706e-02 -8.5316991659486391e-02
      6.6783246538244190e-02 4.2410574420614520e-03
      -8.9763364941213231e-02 -3.2081532784542267e-02
      5.8569899977100728e-02 4.1707325056830793e-02
      9.1828279433724652e-02 -4.5592082136943657e-02
      -2.1889863254112773e-03 -8.8263999294410714e-02
      -3.1192373186889982e-01 -9.2517634070169802e-02
      2.5913406455726479e-01 -2.3651149468953178e-02
      3.8509438244594588e-02 2.8267611137177157e-02
      1.2408106805454142e-01 -8.1104308127793977e-03
      9.3534879027920403e-02 5.9381662626800544e-02
      3.7700104290673157e-02 1.3084719989552693e-01
      -2.5095686240818166e-02 -2.4068196120458660e-02
      4.9561808389862495e-02 -2.5666877769964722e-02
      1.0122605435896388e-01 5.5704181854667002e-02
      1.0745045135911109e-01 -1.5737385081946734e-01
      -4.6752582698873231e-02 -4.3242923097302377e-02
      -4.6287150073848399e-02 8.0360273340442198e-02
      3.8768471754311147e-02 4.5027186109338008e-02
      1.2288849889329745e-01 2.5768543130404969e-02
      3.3001635309978912e-02 8.0184432257875398e-03
      -5.6512473037540853e-02 6.3236876247287480e-02
      -7.8251462956536351e-03 1.6096668532783931e-01
      4.8532069668992393e-02 -1.8124278029253291e-02
      -1.1227527531018935e-02 -4.9179894787729453e-02
      -3.0101110535996352e-02 -5.1485467737138371e-02
      2.0954363856316438e-02 1.9818220963047112e-01
      9.8577083308594729e-02 -6.6655255359239435e-03
      2.2056215613203232e-02 1.2202609006856560e-01
      9.3931369347176275e-02 2.2101921043662869e-02
      -6.5107987898643915e-02 7.3094265304606637e-02
      -4.0700520107319831e-02 -2.1101656323054753e-02
      5.0797657533474407e-02 -6.3617566631772260e-02
      6.3401184444786957e-02 -3.3680601386114700e-02
      3.9776310577411935e-03 -9.1531332285099881e-02
      -3.0997581293200449e-01 -2.4522277629902813e-02
      -1.2659739117934820e-02 -3.8336699369107864e-02
      1.0962996650974705e-01 6.4195876463094284e-02
      -9.3622067698536163e-02 8.6618854025932238e-02
      3.7683206592865878e-02 -9.4878179414173563e-03
      7.7025381060342568e-02 -2.5504775357901679e-04
      3.3332944656517788e-02 -2.4472401249813792e-03
      2.3848279385819939e-02 -8.8180946992194212e-02
      -4.2101871112326307e-02 1.9709714551867771e-01
      9.2529355384802336e-02 -3.9993432924281418e-02
      1.0093890695921888e-01 -2.1913633057197877e-02
      8.1106017097959116e-03 1.4581480929035409e-01
      -3.1349627177080661e-02 -4.6442690349445336e-02
      -3.4997192600820209e-02 3.2865656291523680e-02
      -1.1165804586724376e-01 -1.6164346354940132e-01
      -1.1371704303720884e-01 -9.4604421305390166e-02
      -1.6142720794113115e-02 4.2734527922555360e-02
      -1.3355556669118837e-01 -6.2196021563516057e-02
      1.9552110557002528e-01 8.0716531980631612e-02
      1.7335342754553171e-01 -9.5884175685499132e-02
      -1.6634307939091486e-02 -2.3372116360601367e-02
      -2.5682985109150686e-01 -8.0902676624407213e-02
      1.8379495244409336e-01 -1.3048920139746595e-02
      -4.5776381621671712e-02 -7.1395333472345474e-02
      5.0997893880309682e-02 -1.7696644102412139e-02
      9.9618166793039691e-03 -6.0479294255526041e-02
      -4.0288536192933905e-02 1.1652572778402501e-01
      7.4959260375015721e-03 4.9357061656255122e-03
      -6.3018188640830544e-02 -3.7438294073009387e-02
      1.4121952718140118e-01 -7.5531303721854777e-03
      -6.4395127758046164e-02 -1.6177583054437436e-01
      1.4677497060206790e-02 -6.2830838061224664e-02
      -1.4722488798322147e-02 -2.3139993672400452e-02
      8.1256757886230532e-02 -3.4168794945915338e-03
      1.0391937458684486e-01 -1.2178386054321075e-02
      -6.0544806833934796e-02 9.6929301223937451e-03
      7.9588249976708075e-02 1.1464638397332460e-02
      -5.5421322914945802e-02 1.2089661090670292e-01
      1.1121665200213658e-01 4.7124114062165245e-03
      6.8142194370920658e-02 -1.4660093856906953e-01
      3.6101482394855833e-02 4.1494343224157404e-02
      4.5606082983509100e-02 3.0583712495729172e-02
      1.4747514986055002e-01 7.7515634237377548e-02
      2.0152332053639935e-02 1.0815496669228927e-01
      1.2203584471451299e-01 -8.9392605834844624e-02
      -1.1351501742005779e-01 1.1243934225881044e-02
      7.4923715932516496e-02 -8.3379035574170618e-02
      -3.5191196663507757e-02 -4.8557464334994388e-02
      8.8108737679121460e-02 -7.2176398343443415e-02
      6.2080341666086114e-02 -1.5624319507934702e-03
      -3.5685427633902994e-01 -2.9165985187010496e-02
      7.7702891926473991e-02 -5.0497484701339163e-02
      1.7679608106733639e-02 -5.1767572339709430e-03
      -2.7601719949305104e-02 7.8540666315150678e-02
      5.2859080191615098e-03 4.8704338197529770e-02
      1.0781818899240284e-01 -9.9934315037924340e-02
      3.9251842081310856e-02 -1.7746877417919363e-02
      -6.0219859405237552e-02 -1.1245845096786924e-01
      -2.3306992556828072e-02 2.7062186562733009e-01
      7.9540142936689373e-02 -5.8667451956407610e-03
      2.3738647386917339e-01 5.6538390640051957e-02
      1.9869433263568013e-02 2.2126849213882457e-01
      1.0365930632223240e-01 -6.1412127105486373e-03
      6.8662508342116693e-02 5.7600352986022473e-02
      -1.7844750789633038e-01 -1.7588306919195837e-01
      -6.4157648813852997e-02 -9.1498173465940524e-02
      -3.4582175688666394e-02 6.4177810660572973e-02
      4.3611386278523040e-02 1.3064471909705815e-02
      1.3649492386762108e-01 -5.9794204426044252e-02
      2.3204486411578084e-02 -3.0233561066006557e-02
      2.7440953997146019e-02 -2.1495070211976601e-02
      -1.1078021154384843e-01 -1.5277140152755481e-01
      -3.5767272200228073e-02 -3.0463153211285624e-02
      -4.8250726310702471e-02 -3.6860826320632071e-03
      1.5328853122245667e-01 1.1018062665572402e-01
      9.2977501957895767e-02 2.6186845097577523e-02
      -5.0693726779770285e-02 -6.1473624362001961e-02
      4.8389129333095811e-02 -2.9099075325440329e-03
      -6.0269217925201894e-02 -8.7856947211387634e-02
      1.2063507887515607e-01 3.2361427294072581e-03
      -2.4856202675145062e-02 -4.2027080660762506e-01
      -3.4254134815214866e-02 -5.1817416901559332e-02
      -1.3525876023462827e-01 4.1371867735868317e-02
      3.0520472248379223e-02 -2.8777608414020273e-02
      9.3858660209095723e-02 -4.8005477948265514e-03
      -8.2260472353012495e-02 -6.5263941099380288e-02
      1.0959729019026025e-02 4.1508837340137147e-02
      -1.2587666765702035e-01 1.1868772257209574e-01
      -8.0432133055979404e-04 1.5766748491063246e-02
      -4.1731871842018368e-02 -1.5954963396361538e-01
      5.1997739046941834e-02 8.9466999157203519e-02
      1.3111862326201698e-01 1.3090771322599720e-01
      1.4378664148762124e-01 8.9634962533720608e-02
      4.9664935932463572e-02 -3.8934903396476900e-02
      1.7383454022913199e-02 -4.9042319603517362e-02
      -1.2445169250047650e-01 1.2167781133737694e-01
      9.8834997934579782e-02 -9.0445224815719760e-02
      -5.5208189205412025e-03 -9.6376388498185139e-02
      -2.2344852677084071e-02 -1.0099595179607505e-01
      2.3479610729295785e-02 -5.2823244962218593e-03
      -3.5259403358522456e-01 -6.2594091919362438e-02
      5.9230875966224103e-02 -3.4384128752144492e-02
      -3.1473449275584236e-03 3.2647248662237636e-02
      -3.1009064302517441e-02 7.9264703276052173e-02
      -9.0193505547878555e-02 1.1054653120009024e-01
      -9.0603163815570598e-02 -5.9612436460405385e-03
      -2.4195160225845103e-02 -7.7043591813072410e-02
      -5.4103000100437663e-02 -2.9752368334898013e-02
      3.8444724431284071e-02 1.8589753564066416e-01
      7.8010063787100806e-02 -1.3933038545717963e-01
      2.0489195026923182e-01 7.9245890011706094e-02
      -5.0862090351473384e-02 2.0396761333350805e-01
      8.9241487293436894e-02 -5.9773172480119867e-02
      -1.7501422617493264e-02 -2.7201299549392231e-02
      -8.0167027337510147e-02 -7.4047899639592699e-02
      1.1678325188884637e-02 -1.3359806086822104e-01
      5.8766075970820994e-02 1.2714050196244567e-02
      -1.5575463587412042e-03 -8.2653455846631550e-03
      -1.2873381972674985e-01 -4.1707459058302927e-02
      5.7787015677396629e-02 -8.1670209626007947e-02
      -6.2752470828823731e-03 -1.1689511956141120e-01
      -7.7085585396870082e-01 2.0131952908310418e-02
      1.1249276219190960e-01 4.1792309575573852e-02
      -3.7371344319187975e-02 1.1939242561408122e-02
      -2.2035257700462135e-02 -1.5061832943723047e-02
      -6.7607729986712911e-02 -6.5878066300066401e-02
      -5.0949372062115354e-02 5.9005725478536974e-01
      -1.8455087729390351e-03 1.2645815933672727e-02
      4.4592079091517342e-02 1.3614483825113053e-02
      5.0252280845231673e-02 -2.0649504154986401e-02
      -3.3534362544545039e-03 -6.7559864377654169e-02
      4.9564212058240298e-02 -2.0073052464599405e-02
      -4.3040767015011153e-02 -4.1497093561439304e-02
      6.2350155564325611e-02 -1.3932691832462847e-02
      7.4986633624524748e-02 4.8613136654719865e-03
      7.5008267898338523e-03 9.0627444436201993e-02
      4.1436951122098643e-02 -4.4033875348919421e-02
      -3.5206255867105941e-02 8.5528929080187083e-02
      2.3461074815863965e-02 -6.4885951708743119e-03
      8.9331986317832436e-03 -5.7453852058193179e-02
      -1.8388029664605534e-02 -7.4822167186120603e-03
      9.5868809164996696e-02 -4.8987154804847402e-02
      7.3930122681423266e-02 3.5201096143229242e-02
      -1.5702968034561244e-02 2.6947243148989407e-02
      4.6519129625504148e-02 -1.0827608137412492e-02
      7.8717152117444789e-02 -1.4659730087091779e-02
      -4.8634433672137427e-02 1.7021693919119425e-03
      8.0250908976292959e-03 5.2578484277495660e-02
      2.8180484519819256e-02 1.9030781645210564e-03
      -2.7254122883145406e-02 -8.5791280536779965e-02
      7.9049415503337606e-02 -2.2019210246311652e-02
      -3.6128630914053987e-02 -6.4330066497887750e-02
      -6.2170439671811878e-02 -5.4748996776200411e-02
      6.6566494728750356e-02 -9.8052804178603570e-03
      -4.5387369618042107e-02 1.7050808470947039e-02
      2.6572508490814349e-02 1.3395179723824523e-02
      3.2448434369261703e-02 -1.1216158504819756e-02
      2.5011605470963712e-02 5.4017015953836879e-02
      3.9467539487944903e-02 1.1517390846599221e-01
      4.4149983183096077e-02 -8.0167831994441510e-02
      4.7761195225562508e-01 2.3110132177690403e-02
      -5.9489759218531703e-02 8.7438095063468359e-03
      -8.8242573321908449e-02 -2.0591518615279400e-02
      -3.0083117067731958e-02 -2.7200583068193371e-02
      5.3937913613603040e-02 -7.1183978358209998e-02
      -8.8740981074208625e-03 -4.4332837668250406e-02
      -6.8444599083593960e-02 -8.3951038216894300e-02</_>
    <_>
      -4.0349994374275916e-03 -2.5878764456119417e-03
      3.9024125130359133e-02 1.2439720248212306e-02
      1.7261740064094505e-02 8.7329205936243666e-03
      -1.9655945086611594e-02 -8.7337107867725555e-03
      2.6293121041841386e-04 1.2062120678221232e-06
      -2.9617580354651576e-02 1.2787307620491699e-02
      -3.9807981669123278e-04 -1.0213645109404111e-02
      1.5860764348985975e-02 -4.5203989150191984e-02
      -2.5160320313864413e-03 2.9356934352646447e-03
      5.2019577903957091e-03 -2.8382208900142220e-02
      -2.1133563109463172e-02 -3.9399255275182371e-02
      3.2352665080089410e-02 2.2477007510754064e-02
      1.2223997225505441e-02 4.5164493095159325e-02
      5.1492773436357067e-02 9.1865112976240398e-04
      -8.5129266522383732e-03 5.5198087369986455e-03
      -4.3604198407027122e-03 -3.6022760227607788e-02
      2.6770732008823916e-02 2.0049397750553727e-02
      -1.1561469513841295e-02 -1.8285052197532611e-02
      3.0463142240431101e-02 -2.3862538499593504e-03
      1.2055707065738599e-02 4.2141979405151977e-02
      -2.7050348183986155e-02 -2.3606755745124296e-02
      1.8768544123725174e-02 -7.0064274185412043e-02
      1.6956821477289982e-02 5.6820489521049481e-03
      -1.7991575777681422e-02 -3.0203825998267011e-02
      -3.7434197183344835e-02 3.3061928635638289e-02
      -1.0611835327580218e-02 1.5040170209298879e-02
      2.6508080417185779e-02 -3.0898787708584379e-02
      -2.9283470567355228e-02 4.7527219913010156e-02
      -7.2334968654604037e-03 -6.5361537497214389e-03
      -1.7383431313857518e-02 -1.0546114358874183e-02
      1.3955345111112264e-02 -2.5284299903920400e-02
      2.0857009239848189e-02 -8.8984115478547704e-03
      7.5287135312270201e-03 1.3999228554607635e-03
      2.0554490634775028e-03 1.0290671487057803e-02
      -1.3737365711867807e-02 -3.7887954787910079e-02
      2.1570171738030471e-04 1.1708491559128099e-02
      -3.4243286317771010e-03 4.6298707324130238e-02
      -3.4641940876315558e-02 7.8123325657906122e-03
      2.5769806804229385e-03 1.7787164779314441e-02
      -2.6706701302787537e-02 2.8067918567453838e-02
      -3.8287157014114978e-03 2.2605583935036578e-03
      1.1375409670826318e-02 8.7421465331889905e-03
      4.4137350650000073e-03 2.3383419381976370e-02
      1.3070306579078169e-02 3.0058054400725370e-02
      8.7963929481454164e-03 -1.9552784694380741e-02
      -2.1573137614494853e-02 2.1224753949066654e-02
      1.7502114906319689e-03 2.2321409169118126e-02
      -4.1139504838107761e-03 -1.2346761913805968e-03
      -3.4403452187034430e-03 -4.1407661024768592e-03
      -4.0162441638846415e-03 -1.4231625620604822e-02
      -2.7762584891228462e-02 1.1033903210846728e-02
      -1.9555616366854343e-02 1.8381354114382773e-02
      -2.0040345484955747e-02 -4.2203573798620775e-02
      -5.6422731560428117e-02 -4.1171021297210023e-03
      -4.0861278830330947e-03 7.8356826977729888e-03
      2.8007388538235575e-02 -1.4297784918101637e-02
      -2.9060908000637167e-03 -1.0064572378051147e-03
      -1.8176500523031335e-02 1.8524822169717840e-02
      2.6427522160883090e-02 -8.2106590386622161e-03
      -9.1029828919087334e-03 -1.1407348386496976e-02
      -4.3475027117315509e-03 -2.7078030363426400e-02
      1.1276567410162463e-02 4.4502012393407443e-03
      4.5224747081965043e-05 -3.7111908728891689e-02
      5.0114029950926280e-03 -1.5044687784388930e-02
      1.4792165460488492e-02 -4.7880571718736706e-02
      -4.7484970156884174e-02 -2.6866423324618648e-02
      5.5246903811328966e-03 -1.1083270193216168e-02
      1.0718743337878754e-02 -3.0526936899929524e-02
      -6.0592089098751431e-03 1.4790892560081294e-02
      1.2439927399101285e-02 -4.4913326526429334e-03
      -8.2692758361564769e-03 -4.1671154209419838e-02
      -4.3835810708926859e-03 1.4413427485518661e-02
      4.2676507299472463e-02 -1.1588242648385816e-02
      -1.4948625145441815e-02 -6.9134696491205475e-03
      1.1662219756618778e-02 -1.9829644295613204e-02
      -1.3152691705795324e-02 1.0640596957020285e-02
      2.9062311552137884e-02 -2.5419546700949602e-02
      6.2388320466428065e-03 -1.1969719242007071e-02
      -4.3217250554560771e-02 4.6251621576349653e-03
      -3.1551112613667338e-02 1.1918538159689809e-02
      -1.8588377195889332e-05 -2.5810335436413596e-02
      -1.5538223282574945e-02 -1.5887542391128297e-02
      1.7197678022658466e-02 -2.0219940682086591e-02
      -2.6603925686441612e-02 3.4261284316782971e-02
      -2.2389919056264560e-02 2.4921332249615426e-02
      8.5794153103735289e-03 2.1059394032367340e-02
      6.4755346044525998e-03 -2.0222611112924633e-02
      -2.5162894486512967e-02 -1.3342499324915371e-02
      -1.1270766199482248e-02 -3.3027709918324486e-03
      3.2689629443135018e-03 -3.4472886329506840e-02
      1.4079761065275686e-02 -2.6819376396206740e-02
      1.1488887417897891e-02 1.3663117595160887e-02
      -5.8807648085086234e-02 1.8739104938864819e-02
      2.4095324224318771e-03 1.6972358377207869e-02
      5.2798561834635051e-03 1.5925634615786936e-02
      9.5782467527603284e-03 3.1684303826795393e-02
      -2.5321383401659433e-03 -4.0548725415805228e-03
      -2.2997194884746695e-03 -2.0917281153265504e-02
      3.9634203935788419e-03 -1.9645725068136836e-02
      -2.1579574045897845e-02 -1.1155744172321624e-02
      -5.6663549677266917e-02 2.7195281809951805e-02
      -1.5841130849783605e-01 6.9844207239220260e-02
      -9.2593854885323928e-02 -1.6708665602564149e-01
      -2.3539630084143701e-01 1.1297224821091426e-01
      1.0572706112123836e-01 4.5602381841391660e-03
      1.4879013419130283e-01 -2.1150862197810305e-01
      -1.6370599386611800e-01 -8.0421970964765652e-02
      -1.8804728686966957e-01 1.7279920929850442e-01
      -3.7129783389474062e-03 5.2445629184962428e-02
      1.1799987190232263e-01 4.1639263770084013e-02
      -1.6697231372176140e-02 3.8039306584208052e-02
      2.7020363188585920e-02 2.2226295376178887e-01
      -9.0399386602713322e-02 7.0742047854971202e-03
      4.6111845972988626e-02 -1.5181760562206098e-01
      -9.6538214275476028e-02 -1.5783451278476335e-01
      -2.1868966043508056e-01 -3.2650220114093652e-02
      1.0344087807604072e-01 -1.1076416335287873e-01
      1.4295423757371295e-01 -1.4596141895040132e-01
      -1.1532228873978262e-01 2.1890627427491984e-03
      -2.1595796628567126e-02 5.1861175115819238e-04
      6.4602025224441528e-02 -5.9663835303636878e-02
      -9.8527144988494728e-02 -3.7562751455978330e-02
      1.2072862010796674e-01 2.0505008121273715e-02
      1.1123786234878739e-01 1.1032362680445763e-01
      -8.4453575428904373e-02 -9.4987483524433008e-02
      7.3227285261856789e-02 1.1085951746952498e-01
      1.5259184852195576e-01 -1.3253840078993961e-01
      5.8400428331635369e-02 9.8217785186483081e-02
      -1.4473012521918174e-01 -8.7487314892928048e-02
      4.7817955404873866e-02 -1.2289575263943449e-01
      -9.4031980694172679e-02 -7.3204102837295892e-02
      8.5919169180524446e-02 -1.1415120997345729e-02
      7.2418522987928183e-02 -1.1194939038817721e-01
      -1.0008684588854480e-01 3.4745408614218938e-02
      -1.3148709341881626e-01 -6.3884686664714405e-02
      1.7735211682040136e-01 -5.7654099512045691e-02
      1.9397786353967755e-01 -1.2344926762727572e-01
      8.7688159053865584e-03 -2.8893290494838172e-02
      -7.8179331793523571e-02 -4.8644632958990798e-03
      -1.3822653064121604e-01 -2.8421286434352500e-01
      4.9143629343852663e-02 4.8135709805957529e-02
      -5.4674863278592042e-02 3.9430299303091881e-01
      -1.5937879490558157e-01 -1.2678704930203464e-02
      9.9407433161942810e-02 2.8102974856750662e-01
      1.9123708174618398e-01 1.5676029672090561e-01
      -6.9566308594087148e-02 1.1453558459883530e-01
      2.8157597928031736e-01 1.5532841159296659e-01
      -2.2794866792087484e-01 -1.6549118033742877e-01
      -5.1161209169874142e-02 1.3381269146236718e-02
      -7.6055542010508032e-03 -2.0715639483843479e-01
      2.4611345170363406e-03 -1.5897512681231251e-02
      1.9846097533539910e-02 -4.2550800477788885e-02
      -2.2326284993107921e-02 -8.6499792274538443e-03
      -2.2619722780652302e-03 6.0168794745224735e-03
      -4.1312680809177459e-02 -1.9297699271438509e-02
      -3.5899028031349249e-02 -3.0656637249034920e-04
      3.3842524927709054e-02 -2.2003260916387223e-02
      1.7105333357461831e-02 2.4093069278922501e-02
      -2.7109183048184580e-02 -4.3024358767101659e-02
      -2.3726151793022471e-02 -3.1014266990955296e-02
      -4.1609130902625621e-02 -1.7677932706185812e-02
      2.2246427833300865e-02 -2.7903334955168661e-02
      -2.5194692901654644e-02 -2.1119662615775550e-03
      -2.8964391776626314e-03 -1.0410882237401595e-02
      -1.4993179501210560e-02 1.6627251825777772e-02
      -1.4437302224215760e-02 2.0139767893447461e-02
      4.2909546403441828e-02 6.5931796212672531e-03
      9.2529820269468144e-03 -2.6441532137433381e-02
      4.0613387606733081e-02 3.9195342357948833e-03
      -3.0459525799593858e-02 6.5238918146542889e-03
      5.3415071648953262e-03 -3.2129158284431844e-02
      2.3838831822191597e-02 -1.7786984903849013e-03
      -1.2932357178435156e-02 -1.9635270533463863e-02
      1.6178268181848709e-02 3.8320134153659122e-03
      -1.5611631407407974e-02 -3.6032378480601757e-02
      -1.9132955848428758e-02 5.5549385169457267e-02
      -6.3627300693573655e-02 -5.6722450758423396e-03
      9.6809128277278340e-03 2.9912598644474642e-02
      2.3856617153107735e-02 -2.5420054339589559e-02
      -3.7028592166949433e-02 5.8227730576590215e-03
      2.5748740801691587e-02 3.5416959352607427e-02
      -3.7565816490279798e-02 -3.2648627146406200e-03
      -2.5071095607197440e-02 4.7359535857055546e-03
      3.2015471748269679e-02 -2.5999116082479404e-02
      3.3236755962699177e-02 -9.2581782105615653e-03
      -3.4882306897834423e-03 -3.6280358173211104e-02
      1.5056630837344503e-04 3.4749529802606857e-02
      -6.3307993214353347e-03 1.3183006155117702e-02
      3.8491819185440701e-02 -1.7977827734188115e-02
      -3.2710842585317907e-03 4.1469069933386435e-02
      -1.9908907662841618e-02 -7.7059525901052505e-03
      1.7004578840675789e-02 -2.6675460876083329e-02
      1.5874392075914061e-02 -2.8493227799425851e-02
      3.4566055488858625e-02 1.4311725778290896e-02
      -1.0761561478660066e-02 -3.3089640520090467e-02
      -9.0801126211461185e-03 -2.5097090996390107e-03
      -6.9052073266576133e-03 9.5412725089962114e-03
      1.5404685454863806e-02 -3.0973415580497467e-02
      -3.8143138165319973e-02 -1.6334350523616870e-02
      -6.3081668495869351e-03 3.1851715651033299e-02
      -2.7647606269413771e-02 -6.0698779893925685e-02
      2.3745294594408682e-02 -2.0047642514010415e-02
      -3.3983273481092584e-02 6.8461096366626631e-03
      1.6480037115376378e-02 -2.1534482497824136e-03
      -2.4707686234342729e-02 -8.0556546233359234e-03
      4.1944345793245304e-02 2.2498940913270801e-02
      2.7070983583234072e-02 1.9698987896604138e-03
      -4.0036149564293223e-02 -3.8076355375037216e-02
      3.7601376952982109e-02 7.2896483222000446e-03
      1.3263364826108978e-02 -5.4555838492140331e-02
      -9.6477724516646698e-03 4.8666147004520266e-02
      -6.3181070875550915e-02 -3.7202334614389928e-03
      3.3780247351153259e-02 1.2102032607139804e-01
      -1.1550575918208107e-02 3.1298025993533519e-02
      -4.2463321159140054e-02 5.8505044383730276e-02
      1.7387287888326077e-02 -2.0101430673375949e-02
      3.8692923560812123e-02 -7.8489959686584829e-02
      -2.1733294618478703e-02 5.2917933166823243e-02
      2.5697917758995711e-02 3.5233782040817237e-02
      1.0846367212152829e-02 -5.1314036635425449e-02
      4.2521289801291688e-03 4.6059044842320894e-02
      3.9795111738105675e-02 3.9980729567126744e-03
      -2.2092988540116352e-02 2.7963128256831061e-03
      1.2141564290212725e-01 -2.4211306867974423e-02
      -7.0309344258555839e-02 -2.8750906148919623e-02
      -1.6922380381026786e-04 -7.1936510931343324e-03
      -7.2188630261242379e-02 -3.8043514965665250e-02
      1.0496598710928401e-02 8.2395322515987177e-02
      1.5569541743585007e-02 -8.3976847801808894e-03
      -1.4628212254405663e-02 -4.0041447113208860e-02
      1.6585186962266636e-02 6.2275100032657751e-02
      -1.8064260895576809e-02 1.1812417246900562e-03
      -3.4296606317939078e-02 8.3498387372580377e-02
      -1.5104842251485081e-02 2.0184555693811917e-03
      1.7020659305166063e-02 2.8197681407357587e-02
      -6.0331508547188530e-02 -6.8205243760921158e-02
      5.6444122611296011e-04 3.1704086011303596e-02
      9.0884915212144521e-02 2.1412407561485516e-02
      2.7720434858911638e-02 -7.0593460696058818e-02
      5.1925011016497574e-02 -1.3915911639541256e-02
      1.2415935565285448e-02 -4.0313138594833681e-02
      -8.4300484716611154e-02 -1.2200696481586110e-03
      1.5195322045908311e-02 -4.6539390456239421e-02
      -7.9940702489952051e-04 -6.7090926443067578e-02
      2.6940556387157030e-02 1.4914677741215557e-02
      -3.0550798802279077e-02 4.9602942001365667e-03
      6.7646582549408557e-02 3.0116206136677027e-02
      5.3758652985272225e-03 -2.5568857281327875e-02
      -1.8968734327419266e-02 6.2203192962770860e-02
      4.7678996808707245e-04 -3.2517360100122600e-02
      -3.0322147257975897e-03 -2.6128637931719129e-02
      -3.3112345239721820e-02 2.2033809790779853e-02
      -9.1678572558181806e-03 -8.5695316308095747e-03
      -4.2096371720113358e-02 1.6963885683726237e-02
      -2.2730070342437677e-02 1.0225596074680201e-02
      1.9551471217861705e-02 -3.6662961464972499e-02
      -2.4275083106027516e-02 -6.0443068236775274e-03
      -2.7072425369139052e-03 6.8972675911178144e-02
      1.0043820172859291e-02 2.6523630476069683e-02
      -3.1168080784727426e-04 1.9652039410595103e-02
      -3.2446003552692365e-02 4.1988411507784047e-02
      -1.5838831813102684e-02 -9.4317963996772159e-03
      -2.3262888629153093e-02 -2.8564796319468174e-02
      -8.0805479394487224e-03 -1.8036696893914798e-02
      8.7367768537071969e-03 -2.2483658953552178e-02
      -2.2309093406198276e-03 3.7647820450072214e-02
      -2.1143212252727138e-03 -9.5243312799735708e-03
      1.7283410347312091e-02 -1.2179790974922540e-02
      -1.6177481745252013e-02 2.9434564061284293e-02
      -2.4497310084245470e-02 -5.1700376919083697e-03
      1.6100020399662098e-02 8.0969557031018678e-03
      -2.2702886133752914e-02 4.2117386438371457e-02
      -7.8427211305886427e-03 -1.8862849402037581e-02
      3.1792999520503878e-02 5.8123008314226392e-02
      1.2703653297132774e-02 -4.7033591327346018e-02
      1.1839125783596000e-02 -1.0622664299601008e-02
      -1.3272501862118355e-03 -9.3260752125125454e-03
      -1.3296137912719351e-02 -1.4297490844231731e-02
      1.2061455926121267e-02 -3.6758664903950293e-02
      -3.3760539274806857e-02 -8.4335302024570718e-03
      -3.6604719933576994e-02 2.1989901566898569e-02
      -2.2238774736676466e-02 5.9164731926593011e-03
      -1.3650269782870064e-02 -1.5542420298944091e-02
      7.8938659028952585e-03 -3.2706617177221446e-02
      4.1084013556162147e-03 1.9845237124239672e-02
      3.9891188760999799e-02 -1.0107381089724836e-02
      1.4005655048373044e-02 -3.8270846763743330e-02
      -5.2588706759277883e-03 -1.2132564255761806e-02
      1.9028852380408367e-02 -2.7040967657330126e-03
      2.0224905204955620e-02 -4.2011847909935458e-02
      -1.7537538558568599e-02 -3.3157685860459086e-03
      1.2095087844092939e-02 2.9331587280891264e-02
      -1.6969999793959460e-02 -6.2679402100682931e-03
      2.9843620703551434e-02 1.2291356554114714e-02
      -3.4601593805028284e-03 4.9360005705595254e-02
      3.3075333097736012e-02 9.0615227342160862e-03
      -1.6056713621306798e-02 -2.6375354377774166e-02
      -6.0500183900865735e-02 -1.0980340077508810e-02
      -1.4632203617001705e-02 -7.2847770691620304e-03
      -1.7663334312018501e-02 -2.8804527781494654e-02
      6.1656138258675769e-03 -1.4400099309795382e-02
      -1.0996027840048762e-02 -2.2885523994914593e-02
      -1.3755471496333624e-02 -9.0733587317116914e-03
      -3.1061950783915805e-03 4.6050916403922258e-03
      4.8465780626140943e-03 9.6725126741721307e-03
      2.9826941498551855e-02 -2.7663211344281412e-02
      -1.9503474989184665e-02 -5.6202509302129711e-03
      -2.1297831999244576e-02 1.9905433453314332e-04
      -1.5588660189184105e-02 3.3313113938766244e-02
      1.1429643801013830e-02 1.6509025894634134e-02
      -6.4089982150901902e-04 5.1230855916605617e-02
      -2.5027860291775682e-02 -9.5183413684118579e-03
      -1.3388265632141318e-02 3.4989546237447038e-02
      -2.9010970334616921e-02 6.9832859068348864e-03
      -1.4335605833824766e-02 1.1416139665178682e-02
      -1.9618369808812101e-02 4.7913553275140746e-03
      -1.4159117001993305e-02 -1.4164087542888278e-02
      1.7584475881310492e-02 8.8309956747060128e-03
      -2.8590218822494427e-02 1.5191643223501348e-03
      -1.7037467036057647e-02 -1.4444511552699088e-02
      1.2381414158481527e-02 -8.4353645867002083e-03
      -1.7055631167824974e-02 7.9902056328625749e-04
      -2.7074252276663918e-02 2.4386977308561656e-02
