<?xml version="1.0"?>
<opencv_storage>
<opencv_ml_ann_mlp>
  <format>3</format>
  <layer_sizes>
    9 100 100 7</layer_sizes>
  <activation_function>SIGMOID_SYM</activation_function>
  <f_param1>6.6666666666666663e-01</f_param1>
  <f_param2>1.7159000000000000e+00</f_param2>
  <min_val>-9.4999999999999996e-01</min_val>
  <max_val>9.4999999999999996e-01</max_val>
  <min_val1>-9.7999999999999998e-01</min_val1>
  <max_val1>9.7999999999999998e-01</max_val1>
  <training_params>
    <train_method>BACKPROP</train_method>
    <dw_scale>1.0000000000000000e-03</dw_scale>
    <moment_scale>0.</moment_scale>
    <term_criteria>
      <iterations>100</iterations></term_criteria></training_params>
  <input_scale>
    1. -2. 3.8737087599393898e+00 -1.8391789582472853e+00
    9.1585613593658888e+00 -2.0630911072676565e+00
    1.0561828231769191e+01 -1.9615011356979257e+00
    1.2177709578616183e+01 -1.7761614539305475e+00
    1.3609147419812873e+01 -1.4712158049164592e+00
    1.7655250715761184e+01 -1.4555445290730569e+00
    2.2018570893821330e+01 -1.4553367524776142e+00
    2.8687158399071254e+01 -1.5676366444663035e+00</input_scale>
  <output_scale>
    5.2631578947368418e-01 4.9999999999999994e-01 5.2631578947368418e-01
    4.9999999999999994e-01 5.2631578947368418e-01 4.9999999999999994e-01
    5.2631578947368418e-01 4.9999999999999994e-01 5.2631578947368418e-01
    4.9999999999999994e-01 5.2631578947368418e-01 4.9999999999999994e-01
    5.2631578947368418e-01 4.9999999999999994e-01</output_scale>
  <inv_output_scale>
    1.8999999999999999e+00 -9.4999999999999996e-01
    1.8999999999999999e+00 -9.4999999999999996e-01
    1.8999999999999999e+00 -9.4999999999999996e-01
    1.8999999999999999e+00 -9.4999999999999996e-01
    1.8999999999999999e+00 -9.4999999999999996e-01
    1.8999999999999999e+00 -9.4999999999999996e-01
    1.8999999999999999e+00 -9.4999999999999996e-01</inv_output_scale>
  <weights>
    <_>
      -1.5762469153633352e-01 1.7902704064244837e-01
      9.1808110091421744e-02 -1.9214331757777872e-01
      -1.6665302925550277e-01 -8.7284018889604090e-02
      1.2443582268862155e-01 -1.5842784230188545e-01
      -1.8375584071112902e-01 -1.3294307002283343e-01
      1.2467337495508926e-01 1.7810611733445381e-01
      5.7004046490420950e-02 5.8286383548578576e-02
      1.1837546773415523e-01 1.5587892073523549e-01
      -1.2640071113611343e-01 -9.3383785724081153e-03
      1.9780532943484674e-01 1.2557893735175438e-01
      1.5303749175518463e-01 -1.2989233450293525e-01
      9.9555559053064471e-02 -2.2324286898476717e-01
      -1.6524546470031423e-01 6.8541126642746432e-04
      1.6942671273801174e-01 -9.9488243214617897e-03
      -1.6829997307861091e-01 -3.0420081726950290e-02
      -5.4415919255982284e-02 1.2583233838257829e-01
      7.0625838080653716e-02 -1.2229418774679893e-01
      8.7988921607592870e-03 -1.5525915083421521e-01
      1.4197845518936697e-01 2.8079097713524990e-02
      1.2790968203443751e-01 1.5256824150467602e-01
      1.0641213997818527e-01 1.0289856937126864e-01
      -1.4559384308065190e-01 -1.0237643481693036e-02
      -1.5303873705993373e-01 1.6345327781917243e-01
      -5.8782861935876264e-02 -1.6988348393658867e-01
      -1.3004942693273366e-01 5.1810077790068146e-02
      -1.2776998536922060e-01 7.4249161412943174e-02
      -1.3444706478175958e-01 -1.5861627796270505e-01
      -2.1465165827980479e-01 2.3659857475782570e-01
      -8.7396703220637598e-02 -1.2433962797164580e-01
      1.1840710078273207e-01 1.7523121391916147e-01
      -7.8793384345253348e-02 -1.6827932151658034e-01
      1.0889662495768616e-04 1.9837893559511288e-01
      -1.3046979733476272e-01 1.5687129644635792e-01
      5.3842452495710083e-02 -6.2058422415417813e-02
      -4.8975718552712259e-02 1.1612825661301969e-01
      -1.5163185405812579e-01 1.3908800314131203e-01
      9.4275757663844703e-02 2.4216520601781627e-01
      5.5478914125941817e-02 -3.1934711238210269e-02
      -6.9903795939998084e-02 -5.9536765688414983e-02
      -9.0537778055161888e-02 -5.5312942685681824e-03
      5.3350048330801689e-02 1.7922432645655609e-01
      -1.5287682159468902e-01 4.3775839426194521e-02
      -2.0189279400839519e-01 1.1079345421818070e-01
      6.0763344214647885e-03 1.6738607827909049e-01
      1.0659487138405639e-01 -5.3853692837169127e-02
      -1.0320718328281055e-01 -4.9861041090697222e-02
      -2.2242013680611061e-01 9.3203138455021289e-02
      2.8680023699012045e-02 1.6495711681775016e-01
      1.4809002692209591e-01 1.2582294318228360e-01
      -3.8819543301797266e-02 -4.0252961665693837e-02
      -1.0627470256401989e-01 -1.9434665681382188e-01
      -2.2036794355631198e-01 1.6393873220384142e-01
      -1.5275758576621618e-01 9.4026336550395467e-02
      -2.3742887401625606e-01 -2.2468772987054836e-01
      -3.0330135938190678e-01 8.6381544213356837e-02
      2.4372457011565779e-01 3.0050816878761433e-01
      -4.7582581253332284e-02 1.5254059702400807e-01
      1.5489438635889649e-01 2.9760874785717589e-01
      2.6125858734824658e-01 1.6249278661206923e-01
      -1.1667211913464177e-01 7.8354901437317270e-02
      -1.9583466827409068e-01 -4.1054440407104119e-02
      2.8229672790683502e-01 2.1870772078230358e-01
      -2.7807668346590525e-01 -3.3052557005405103e-01
      6.0754485011590913e-02 2.3561025453603518e-01
      -1.6420057635209320e-01 1.8602290127174856e-01
      7.3294507510110768e-02 1.7504946090987270e-01
      -1.3003752494240847e-01 -1.1014248283140633e-01
      3.7937267196285868e-01 8.6633738604632901e-02
      7.7260347772488880e-04 3.9285568437619645e-01
      1.8125763756214806e-02 -1.6080933478224443e-01
      2.2704664322192919e-01 4.3505520233160067e-02
      -2.4150482257271982e-01 1.5809536204779703e-01
      -2.0358731430789709e-01 -2.4255217541011667e-01
      2.6644527026517506e-01 6.2742423212329937e-02
      -4.4193444304868224e-01 -3.7517815357796896e-01
      -2.5420021258330699e-01 9.4116599833553263e-02
      -1.8477101010685473e-01 1.6543843607301700e-01
      2.6880947230315705e-01 -6.7095572037522186e-02
      9.0277446366696601e-02 4.5218661117143660e-01
      -8.3670183056668568e-02 5.5640191130707753e-04
      -1.9468995052447957e-01 -2.2857325179452492e-01
      -5.2749638354068740e-01 3.2096910884698243e-01
      1.8941336218558044e-01 1.4701892964052804e-01
      9.7924233991541654e-02 -2.5232459781759854e-02
      3.4785038233718507e-01 -1.0754888819079660e-01
      4.2141492042121825e-01 2.1593725867302072e-02
      1.3671665533979083e-01 -1.1065710367735625e-01
      2.9733197649781073e-01 1.2140001626629375e-01
      -2.3042144240179838e-01 3.7260060798808636e-01
      -2.7516143109625940e-01 1.3943513959318118e-01
      -2.1151567492324394e-01 5.9915424359686456e-03
      7.6315553789638044e-02 -9.6203299695333644e-02
      -1.6620601099528712e-01 1.0585124742215622e-01
      2.1515446513869560e-01 -2.8199450981858298e-01
      1.4785053477575633e-01 -7.7659206646649626e-01
      2.3168979841459722e-01 3.6064012066929895e-03
      3.5744446675921610e-01 -3.9159397567110732e-01
      1.9151424712845078e-01 8.3675523480516698e-02
      2.2031308607514827e-01 1.2611164746966474e-01
      4.4536080241377729e-01 -4.1323341393168866e-01
      -1.8248130363229872e-01 -5.3634828740554941e-01
      -1.5992793645326844e-01 -2.5927329852667724e-02
      9.4289204214962730e-02 -8.2750805483109771e-02
      -1.4619033177306257e-01 1.9375925481026279e-01
      -1.2134481854187133e-01 -2.3025225250087283e-01
      1.5922665433469754e-01 -6.2242791134244496e-03
      2.2943630576189747e-01 4.1822220739555338e-01
      -7.0742570559666651e-02 8.8522065324090037e-03
      -2.1854745004435033e-01 -8.0423392399115983e-03
      -3.8245468429456073e-02 -2.8021388465988822e-01
      1.8928606841125994e-01 2.0471234843820998e-01
      -1.1346627050495955e-01 5.1245973414831142e-02
      -1.3762392620234717e-01 -1.4379847893721881e-01
      -4.9769415376042320e-02 6.8951104747359909e-02
      -4.0304156171754768e-01 8.8952177752983641e-02
      2.0425882755715188e-01 2.3455639498665706e-01
      6.2060405526432924e-02 3.2154779747293277e-02
      5.0498032632733736e-01 2.0790165710811681e-01
      -2.1997781630223590e-01 9.7599124938006748e-03
      2.6770135851780402e-01 -2.8850936891593432e-01
      1.9657416519196361e-01 2.6317400453263823e-01
      2.2063098677623802e-01 -1.5509320672878460e-01
      9.4005648019385268e-02 2.1506955157772167e-01
      -2.4432646609113748e-01 2.7593157346158491e-02
      4.2888719450434945e-03 -2.3069031622243533e-01
      1.0020306468201956e-03 8.6201036964070998e-02
      1.2853248958537486e-01 3.0117766713092919e-01
      -2.4285880290321454e-01 -1.4083376877625964e-01
      5.3403008943611746e-02 1.0449170864095856e-02
      -2.0231783362435074e-01 5.8959121779502598e-02
      2.3101247936380925e-01 2.0268122004582734e-01
      -1.1176094869728366e-01 3.5546747248359639e-01
      -1.1625356642842405e-01 -1.1293147778564028e-01
      2.0126056833806769e-01 3.9905304698041565e-02
      1.7408594592878818e-01 -1.3640447459282409e-01
      2.7084611906822400e-02 -1.6788409488855827e-01
      6.0886507838837513e-02 -1.0822414786718283e-01
      5.8410064669098628e-02 2.8245216981927668e-01
      -1.4636480684719971e-01 5.8201931035410442e-03
      -2.2350145437307348e-01 1.8569036398674899e-01
      1.8018278093674037e-01 -1.6698073636332889e-01
      -2.2847268371112903e-01 -2.5461081962709220e-01
      -6.7137699983464708e-02 1.4267109381143511e-02
      3.3876339945852885e-01 -2.1044067959263066e-01
      2.3172142334981979e-01 1.9371105589102169e-01
      4.4800061001714475e-01 -2.0365720569080953e-01
      -6.5380792437399915e-02 -5.3669620725091383e-01
      -1.8305336402962882e-01 -1.6660184868658232e-01
      -1.2028164295902685e-01 1.3131581560778297e-01
      1.6980409598728893e-01 -3.2920166352810593e-01
      -3.2616992117707244e-01 -5.4350965664268380e-01
      -2.8717229041774567e-01 1.8576756084563587e-01
      1.0142762139191719e-01 3.0898458064949300e-02
      -7.4504456002905575e-02 -1.6552719978346675e-01
      -2.1005998241875340e-01 -1.2218998592197923e-01
      1.5570293892219719e-01 2.7133805664341937e-01
      3.4442155227623183e-01 3.4364910294756190e-01
      1.9775091755851310e-01 2.7992560934431698e-01
      2.4797600860754587e-01 -3.3872315617933108e-01
      -1.8749957344711871e-02 -1.9279985300381094e-01
      -6.2034503736412373e-02 -3.1300141612715514e-02
      1.7027455202614694e-01 -7.2763521657193631e-02
      -2.3963040200747093e-01 1.5101935742354969e-01
      -5.1498175762581283e-02 -2.0201322180485196e-01
      -3.5550755475929224e-01 -7.7513055335732495e-02
      3.2827983798264343e-01 1.0900627227058451e-01
      -5.7540946396535071e-02 1.9116358643778167e-01
      2.7333402464567647e-01 2.3660101207774847e-01
      -2.2835458772688114e-01 4.1656754330163454e-01
      -2.5998702294433162e-01 8.3442234698921629e-03
      -2.1895764455900171e-01 -1.2745107509512505e-02
      -2.4772338476769388e-04 -1.7140182845546376e-01
      -4.5977593820341459e-02 -1.3278037293699358e-02
      1.1121818855956886e-01 -1.5346857083654114e-01
      -3.4560743676189609e-01 -3.3431135721495814e-01
      -2.2093017361384595e-01 -3.2532306365464747e-01
      -1.5048735422584277e-02 2.5048312292208086e-01
      -5.8374980487838146e-01 -5.3717145193187092e-02
      1.0565956904184567e-01 4.6397189924801058e-01
      1.9108376221390659e-02 -1.6661098433648239e-01
      2.3495881295556573e-01 2.3869024460122282e-01
      -4.9905337167885139e-01 -3.8899507152985645e-02
      1.1118463736281473e-01 -1.9515652216730292e-01
      2.8952341683464544e-01 1.4527277605543276e-01
      2.4044374280415062e-01 1.5446894839083369e-01
      1.6869508832275953e-01 -3.6572334152174685e-01
      -1.4098274125035418e-01 1.4185309927997702e-01
      -1.0506323845456958e-02 2.1851381306820246e-02
      -1.1989411748149591e-01 2.2175767626701698e-01
      -1.6143495381116779e-01 -7.5603918995058778e-02
      -2.0669142691862208e-02 -1.3436870385578900e-01
      3.2449183752687495e-02 -3.7973275737816164e-01
      -5.8635326655419776e-02 -2.3333989902576721e-01
      1.7275720337745856e-01 -8.4898490181335759e-02
      1.7905694679809073e-02 -2.6714224452821922e-01
      6.1043139934087565e-01 1.9860946978297009e-01
      1.8501299423941514e-01 -6.6077941315026079e-01
      1.4786765849004424e-01 2.1556651692163756e-01
      1.7493561504610913e-01 -2.4322405838539013e-01
      3.1649454684411843e-01 -2.7460745448798840e-01
      -2.9569215616105488e-01 -4.6255086266429696e-01
      -1.4555957863605222e-02 8.1445134570782132e-02
      -1.6258631844072582e-01 -3.2244242952576829e-01
      -2.0353712178757197e-01 -1.7060172352662295e-01
      -2.8324205044269285e-01 -1.4029452351467461e-01
      -1.6007047193960100e-01 1.9018379917369035e-01
      -2.6283898535836248e-01 2.7616658477152367e-01
      2.8446110847319850e-01 3.0588724744895723e-01
      2.5232586283644093e-01 -9.2628623398965645e-02
      -1.4403569438249478e-01 2.9193688039462912e-01
      -4.8895489232838305e-02 -2.3993040381974770e-01
      1.7035296301316491e-01 2.1126043752974466e-01
      -1.4708781383324718e-01 -3.2558834857264418e-01
      -4.1291869469247000e-01 1.6469434949039005e-01
      -3.5971253081276267e-01 -1.0364362601179775e-01
      -1.1141716735254396e-01 -9.2186466211708201e-02
      -4.5672927733129343e-01 2.8911149060271446e-01
      1.3600851867649238e-01 2.8050220426656830e-01
      1.0059520003424123e-01 2.2552924712953074e-01
      -2.2547015932812173e-01 -2.2656215642685079e-01
      -1.0443444731360106e-01 -2.0622046855095463e-01
      -1.1070363468425526e-01 2.5078358672545037e-01
      6.9135487419496905e-02 -6.7062557819459190e-02
      -1.9850292628715634e-02 -2.0284512054682061e-01
      -4.4743318644212876e-01 -2.7123746249232622e-01
      -1.8971592512070976e-01 -1.7436580552823533e-01
      1.3821822706927758e-01 1.9396905060074729e-01
      -1.3172710496554496e-01 -2.4684020802089932e-01
      2.7738986802623578e-01 2.6213241172405072e-01
      1.6439197789113996e-01 2.3324466274114297e-01
      9.2406669303247937e-02 5.9004429243023349e-02
      -7.2169839565341087e-01 5.4996089184788644e-01
      1.3033222557972488e-01 2.1910750815879448e-01
      -1.6538080637625457e-01 -1.0529434463682980e-01
      1.4604380044068047e-01 -1.6026055618216731e-01
      5.9111595714551846e-01 -2.4464310058564420e-01
      1.2122597043545645e-01 1.5049611512664368e-01
      3.4495813506214168e-01 2.2654529523177988e-01
      -2.8037048382037028e-01 -1.8987439427286135e-01
      5.4340862458501220e-02 2.5283768217629082e-01
      9.8926681580860890e-02 -4.4533437911646961e-02
      1.1969621486726197e-01 -2.9056342131416935e-01
      1.4334576164701779e-01 -2.3317474898516871e-01
      -6.4198341050247104e-02 -1.0989983284761864e-01
      2.6648189697375024e-01 -5.4504494188913355e-01
      3.4698356181384210e-01 1.4513484129933762e-01
      1.4267433213617886e-01 -3.3088546156118109e-01
      -1.2239773458746873e-01 2.2397075697175500e-01
      2.1621325359039884e-01 7.8927096022706547e-02
      3.6918258070795656e-01 -1.8807147360612589e-01
      -2.4573851642050387e-01 -4.7745546869467698e-01
      -2.8564276717931775e-01 -1.6468055224627617e-01
      1.9970572615467197e-01 -1.6563589641081203e-01
      -2.3720119930951716e-01 3.3355434820225835e-02
      -2.2123901217208819e-01 -1.8737157607101226e-01
      -2.4651601287989292e-01 7.2676616518760132e-02
      -1.3878117009533161e-01 8.3280813003647458e-01
      -1.2462916689442310e-01 6.7163595377843888e-02
      5.6747653907121894e-02 2.3019902331904613e-01
      1.0085090581990563e-01 2.5127412172199692e-01
      -3.3470381085698225e-01 -2.3120345548876989e-02
      2.5158828160029173e-01 -1.5577876843650124e-01
      1.4280269731522299e-01 -1.2108459734857598e-01
      -4.2884031960721092e-01 1.8706920805224587e-02
      -1.2156304425318565e-01 2.2924163822995416e-01
      -5.1395746199306230e-02 2.2473807400336362e-01
      -4.4338730365904877e-01 1.7687951640692304e-01
      1.2756209875009383e-01 2.0973852381582175e-01
      -3.6526424835186494e-01 -1.1630680746445433e-01
      2.6567969284240797e-03 7.1871716412746610e-03
      3.5638939724263761e-02 -1.3335841218991648e-01
      -1.4578324670081724e-01 1.7225219987225895e-01
      2.6683978895940241e-01 1.7279613498503843e-01
      -7.1330096612873456e-02 1.4739879745972018e-01
      -7.4364207583046252e-02 -1.6606881989264805e-01
      7.4941855886071801e-02 1.9503047041516414e-01
      -1.9000268452636593e-01 9.9850212129979840e-03
      -1.1781382478005609e-01 8.2548078939358602e-02
      3.1780355261844306e-01 4.1948382408252832e-01
      3.2103736902792529e-01 -1.0082537658332312e-01
      1.5361178358792765e-01 -2.2213839542472613e-01
      -2.6988415399062105e-01 4.4369463242319518e-01
      -1.3560105116764293e-01 1.8199494563427676e-01
      -1.2207005660524835e-01 2.5774251320262931e-01
      3.0144386623071695e-01 1.1409604583400497e-01
      1.4305190999162390e-01 -3.2630756236722086e-01
      1.5988392034135310e-01 3.8790160747798258e-02
      4.7144175157834484e-01 -1.6257717798319521e-01
      6.0891579202833626e-02 2.2002369771507043e-02
      7.2703421764181320e-02 3.1473589194289464e-01
      -1.1569707708738912e-01 -1.3120947679174916e-01
      -2.2229862701996650e-01 -1.9980671933449551e-01
      -8.4690664585619080e-02 1.5950195065185555e-01
      -2.4158393236949710e-01 -2.7271834030573844e-01
      1.8468504817677788e-03 -2.6720504739342099e-01
      2.8100819847658193e-01 -1.7482709005289132e-01
      3.2017307371181719e-01 -1.6214972945969189e-01
      1.5339138845493522e-01 1.5627146743045781e-01
      -1.3407681240232808e-01 2.4908380054214311e-02
      -1.0000607119322778e-01 -4.8089781577989898e-01
      3.8634050315754939e-02 -3.1875157176502922e-01
      -2.5119478005920598e-01 -5.8949974508962874e-02
      -1.7548859654543121e-02 -1.5449998741504631e-01
      1.2844461278160307e-01 1.1029422975777020e-01
      1.2785898104336171e-01 -1.6553039676663597e-01
      -6.5614512131723549e-02 2.0794554309864643e-01
      -4.5048244646560244e-02 3.6045260707853949e-01
      -9.1676434679448058e-03 -8.7206760508330886e-02
      2.0591737073812247e-01 -4.6098107211506685e-03
      -3.1486520721423256e-01 1.3740492186387201e-01
      -1.6580538328913139e-01 -2.2457154400864046e-01
      -2.7576724577235704e-02 -1.3566365764981761e-01
      2.0764115051422168e-02 1.0293528522151001e-01
      -4.3993085778443436e-01 2.9426972268939189e-01
      -5.4442658264122173e-02 -7.3869797723476377e-02
      2.4502969052511558e-01 1.5624587936136242e-01
      -1.4224765704122488e-01 3.4703457045263059e-01
      3.2619664567190920e-01 -8.6000463380883199e-02
      -1.3366389787258168e-01 -7.0681907633231747e-02
      2.0700965152499615e-01 -2.0305640025568086e-01
      -1.6391994059909692e-01 1.4349001319258448e-01
      4.5578196367637498e-02 2.6786786894703551e-01
      2.6389587188170560e-01 2.2132507471339358e-01
      9.6519314685950611e-02 -6.9733589872917501e-02
      -2.3502376463445748e-01 1.0816867889587030e-02
      1.7856999428322481e-01 -1.4112636304895790e-01
      -2.6195511743861905e-01 2.2759282957919047e-01
      -4.3677488782762930e-01 5.8884283859051596e-02
      3.2567248125895915e-01 9.3184773515050945e-02
      2.4944577006973942e-01 2.0515740747197658e-01
      1.0291737883873806e-01 9.3752848192811544e-03
      -5.5132517576650675e-01 3.3636215852764861e-01
      1.1997271152664790e-01 -1.3785944075746789e-01
      -8.2348476920456243e-02 2.5347541880781493e-01
      2.4507958384018655e-01 1.1994998784494490e-01
      2.0239910087478016e-01 3.1339844816757269e-03
      -1.8448049182707948e-01 4.9085593776360611e-02
      1.7186743180072667e-01 -2.1855853428134056e-01
      -1.0083872439053862e-01 2.4498277209439612e-01
      -2.2210957865543146e-01 2.5808252606083659e-02
      2.4150752028002306e-01 1.5914575054343363e-01
      5.6404383341716872e-02 5.8653968672729768e-02
      -3.3265924930231693e-02 1.1019147358063015e-01
      -1.2443288410523459e-01 6.3137230096233288e-02
      2.7462789499640644e-01 -5.8842704738834274e-02
      7.8179207473886722e-02 2.3922344713891860e-01
      1.9851912546673012e-02 -5.8795593032286771e-02
      -6.8812047890436170e-02 2.9567353045060329e-01
      1.1797650303868588e-01 -7.1583599310443349e-02
      2.1721485162618384e-01 -3.9020332499746996e-01
      -2.1451000878434878e-01 -1.7078926472814321e-01
      -2.6948428663791874e-01 2.4420125417361874e-01
      -1.4669340391798116e-01 -2.5724112305601998e-01
      -1.9626369465136281e-01 -8.2702970329923714e-02
      -9.2997490972079044e-02 1.1405278361476377e-01
      3.9260077272726887e-02 2.1484838625996069e-01
      -4.5738399437885748e-02 3.4030786093971038e-01
      2.6547328241722623e-01 -9.2538261875003663e-02
      3.0063373659994003e-01 -2.3265093714609944e-01
      5.5689192753664185e-02 2.1307572462372046e-01
      -2.8601451804651068e-01 -2.6405865147228041e-01
      -1.9426589172976713e-01 1.3347297721184450e-02
      3.2460514168740691e-02 -7.9575165660527580e-03
      -6.1809925767863338e-01 3.1670324057533372e-01
      -2.4919972650268124e-01 5.9996369870937462e-02
      2.4400198279677079e-01 -7.7603504942223178e-02
      -1.2857327705696014e-01 2.6767505247358336e-01
      -8.6834903530835256e-02 -9.1869087936906277e-02
      -1.8541120891113930e-02 -1.5891118348008930e-02
      -7.0386223199500166e-03 1.1105714219111792e-01
      4.8636396262833692e-04 -2.4666217207821178e-01
      -1.5763952910358145e-01 -1.1623147034527151e-01
      4.5660309936934061e-02 5.9486944935327773e-02
      -3.0740592047951805e-03 -1.5438386140501645e-01
      -3.1654293712462794e-01 -6.7305451482789130e-02
      -7.7112001466766306e-02 2.1664331021840299e-02
      -1.2967954614602467e-01 -1.3966606970372017e-01
      -8.6089112046351035e-01 2.8644506408944848e-01
      -6.2941934218268394e-02 -5.5798913475168729e-02
      1.4208523161817674e-01 -5.4172309298199134e-02
      -1.3612881625669343e-03 1.1838447961127286e-02
      -3.7334250006520542e-01 2.6388464309860066e-01
      -1.4465537554764196e-01 2.1572858825143936e-02
      1.5180722009106040e-01 2.6424110460390782e-01
      -1.1630835368842565e-01 1.4395139394642034e-01
      3.6652846067010258e-01 -1.1837419310948255e-01
      -2.3017248034433618e-01 2.6934795613381379e-01
      3.8028934369564460e-01 -1.0193480390397409e-01
      -3.1805496000954991e-01 5.3120935248299229e-02
      -7.4211550826377704e-02 -2.6619059977280618e-01
      -1.1706789126120153e-01 1.4198482028390391e-01
      -1.1953489419785807e-01 -2.1494451558876504e-01
      1.0656270963982527e-01 -1.8870685991732361e-01
      6.1166781726176060e-02 -2.0254502475116135e-01
      2.1937981190232922e-01 -3.4589046969141896e-01
      1.5277832340543421e-01 1.2432942606643714e-01
      8.8668647728853967e-02 -3.0717470854687662e-01
      -1.3166969581351809e-01 -1.3650811047355045e-03
      1.0648880944559544e-01 2.4780968909493134e-01
      2.3794318782616494e-01 -2.8916538690612292e-01
      -2.0148760274358615e-01 -2.8060467200894718e-01
      4.2184977974456861e-02 1.4027854121710581e-01
      7.4718930675164080e-02 1.1888747586783296e-01
      5.3802793678590283e-02 1.1974603894864974e-01
      -1.9203582985147694e-01 7.6794857713039427e-02
      1.0480982293185266e-02 -9.1559766721794070e-02
      1.4731189114966997e-01 1.5123453339499041e-01
      9.9056343361689669e-02 2.0056235211869675e-01
      1.0065652358837106e-01 1.3980560554295862e-01
      -2.5214321553183400e-01 1.7528176300757634e-01
      -7.5258850226313831e-02 1.0060064916184046e-01
      7.8433790078393281e-02 -1.1057375666603395e-02
      2.5112904051807083e-01 -1.3063800376087617e-01
      -5.4161651729845717e-01 2.6515822979356715e-02
      5.4610819704495280e-02 -3.3176198861806522e-01
      5.3325476686562553e-02 1.7468766968621244e-01
      -3.5526444641551447e-01 2.9585219894670789e-01
      2.4861207627588908e-01 9.1580871275682880e-03
      4.0148194569302582e-02 -2.1385476091181094e-01
      9.2147248356904278e-04 -7.9455990010106267e-02
      -9.8267521700925134e-02 2.5013334732724872e-02
      -2.2424373410086601e-01 9.0104046468547389e-02
      2.5160923676230618e-01 -1.0093257046999846e-01
      -2.7033812942408109e-01 1.8445740081173709e-01
      -3.2413086626988113e-01 1.4461886042745026e-01
      1.6376055287893584e-01 -4.1359765470093277e-02
      1.0899854229446979e-02 8.5807128054565598e-02
      -5.2464396728429075e-01 -9.8799066861378307e-02
      -1.7771373459679937e-01 9.9036237840661609e-02
      3.4605716197589442e-01 -5.5852199471041516e-02
      -1.9475349539119860e-01 8.5536785490007206e-02
      1.1244431026633962e-01 3.1049643172685193e-01
      1.3015898983973306e-01 6.0304121278077404e-02
      -8.8931388062134437e-02 2.6806936755221067e-01
      -5.5797419371565446e-02 2.1725750615899816e-01
      2.4934347341149604e-01 -1.6195396730583314e-01
      3.5483407340594450e-02 -1.3357664289419399e-01
      3.7517780525234118e-01 -1.7361044909541842e-01
      1.3382311827226773e-01 9.5475208204971754e-02
      -3.0931233125972141e-01 2.0558566942923517e-02
      -8.1649419192063200e-02 -2.2128476580346942e-01
      -1.8302370428160161e-01 -2.1723787891668350e-01
      2.5211669499957529e-01 -8.2392955295186948e-02
      -1.0940230782956466e-01 -2.5932407247822026e-01
      -3.3335806332542836e-02 -5.4094693618099809e-01
      3.4651570311637320e-01 1.6240744334715360e-01
      -9.0574459845081431e-02 -3.2257665497635840e-02
      1.3391529458231224e-01 2.5778649495908851e-01
      -9.8907533980799895e-03 1.3920132107665217e-01
      2.6318600592285402e-01 -3.6115630929049769e-01
      -1.2626242434167462e-01 2.5530458168825138e-01
      1.5859364560468098e-01 -1.8368806237088781e-01
      -8.8177111226353397e-02 -1.5335704845524867e-02
      1.6374742059094005e-01 -3.0458183324916923e-02
      5.1053051128945467e-02 -5.6072638190376708e-02
      -1.6441153613931672e-01 -1.0598480283100245e-01
      -1.0593590715194073e-01 9.1846063245696719e-01
      -6.8612069605317211e-02 5.7859902830490167e-02
      7.7054035761797368e-02 -1.2578391099132524e-01
      -1.7177072740567717e-01 -7.4880568274434955e-02
      -7.7876054456955252e-04 -8.0339807036298810e-02
      1.9283887626202981e-02 -1.4284504689473082e-01
      -1.4877537888520431e-01 -6.9187942984901440e-02
      1.3095338178499738e-01 8.4554505223537679e-04
      2.9120628878455422e-02 5.3871018797838441e-02
      -7.5366353607383349e-02 -4.2712945705105330e-02
      4.3411091395290764e-02 1.7015438417746675e-02
      2.4445107904307633e-02 2.8143471939517568e-02
      5.8625429559743196e-02 5.8072347015520054e-02
      -2.0341809171952507e-02 -4.9817102808353386e-02
      2.1714132208327963e-02 3.2717991454150178e-02
      1.7565324341332525e-03 7.7175870857880864e-03
      -2.6750880664384885e-02 4.7466347172576921e-03
      1.0127297021791569e-02 -1.5190771310506369e-03
      -1.1322883767380562e-01 -1.6902440589461189e-02
      -4.5404186545228336e-03 1.2548861670402856e-02
      5.1328613383198711e-03 1.3409429307842592e-02
      -8.7065797012851068e-02 -2.3360967853299816e-02
      2.5133501167740477e-02 6.2779646600310032e-02
      -2.6575950910907063e-02 1.9561743189072493e-02
      4.7999854185727255e-02 1.0648100270219497e-02
      -2.6961090261365633e-01 -8.5741739437035183e-02
      -9.5740486053297134e-03 -6.8093938280013352e-02
      -7.0040547803431011e-02 -1.1323786478853440e-02
      1.8612070700455494e-02 -1.1192998128106561e-01
      4.6737638119194909e-03 1.3617632544796645e-02
      -9.1232292314499100e-02 1.2718813211051883e-01
      -2.1099477332255637e-01 -1.1801214094487913e-01
      9.1540328649559785e-02 1.3149053949226144e-01
      2.0183680298348994e-02 1.0584072267059878e-01
      7.5938885461488650e-02 -1.3596532505289713e-01
      7.8086182643308813e-02 -2.8853263412583405e-02
      -8.2980391861089936e-02 -1.1621148921380504e-01
      -9.9570712368572442e-02 7.9524601333100700e-02
      -1.0471765162592704e-01 -2.6205013745957945e-01
      -2.1039435813783572e-01 -1.0000188308002926e-01
      2.2394551040368668e-01 2.3313618006070055e-01
      5.8121132206673289e-03 9.2282171362664214e-02
      1.2834391313413382e-01 -4.3860782621158563e-02
      -3.2730868519149031e-01 2.6215779554212665e-01</_>
    <_>
      3.9236017664090524e-02 1.2397833175401820e-03
      2.4623821304495284e-02 6.9405755755865047e-03
      2.5535851050636456e-05 8.0071669175325495e-03
      -1.2495655357713825e-02 -1.8538828498531151e-02
      7.9371994966015765e-03 6.0583928873403272e-03
      -1.0849388663126900e-02 1.6455287448756958e-02
      -2.4916309426340037e-02 -8.3559068888113108e-03
      -1.1887199802784855e-03 1.2932138953116271e-02
      2.8223342147810945e-03 -1.3604752038489305e-03
      -2.5031526728998360e-02 2.5424465342204793e-02
      2.1210464191209772e-03 -2.5423286929268728e-02
      -2.5159893719665601e-02 -2.5028818231175977e-03
      -1.0948697265432983e-02 1.3670226011260795e-02
      -1.4302387136394513e-02 -1.3817323511807318e-04
      1.0801441940263822e-02 1.4369435544516628e-02
      -4.9265763971122305e-03 2.2179611955224002e-02
      1.3205446827813740e-02 1.0380359419183090e-02
      4.6866070517496807e-03 7.6445829101006466e-04
      7.6463764002075328e-03 -8.0301184852548373e-03
      -2.4676752954540450e-02 -1.7441977726339559e-02
      3.7842522357503926e-02 2.1970159171621696e-02
      -8.6735946142587114e-03 2.6383189439157215e-02
      -1.0583545607993036e-02 -8.6123884941598557e-03
      9.2915843428080722e-03 -1.1005766393198040e-02
      -1.5527286113622014e-02 1.7657393684789666e-02
      1.6890784821399043e-03 1.6284571909811581e-02
      -1.2830979533413783e-02 -1.9724897206297210e-02
      1.7032972534238102e-02 7.4532450905060608e-03
      3.3074453930100963e-03 9.2117112630226532e-03
      -6.3312632552225932e-03 3.9774929407470974e-02
      -5.3772504504836236e-03 -4.8561359542689975e-02
      -2.4541925740928241e-03 7.7878687572461762e-03
      -4.1863447139282367e-03 1.2462057053978537e-02
      -4.5928816279464952e-03 1.2626324361276898e-03
      2.1706048886414232e-02 1.5005442715856510e-02
      -2.6226700567526913e-02 -1.5477978769129480e-02
      -1.3098155581837367e-02 -1.4085364962924800e-02
      1.1246405268810157e-02 -1.8185378542003423e-02
      -1.6866066654683022e-02 -1.7456127455297933e-02
      -2.5501654692074879e-02 -2.4444626168591933e-02
      -8.7253305543685544e-03 8.6505890507805518e-03
      -4.6943558548638593e-03 3.0318428708078708e-02
      -9.5914660901507583e-03 -2.7908930814413572e-03
      5.4318609778327594e-03 3.3878742206495623e-03
      -2.4436840872468914e-03 4.1826071831049848e-03
      8.4852387179823411e-03 1.5407358853917570e-02
      -5.1381323364310747e-04 -7.7281444452406310e-03
      1.3878421278540158e-02 5.3539566211846122e-04
      -2.4506766989258650e-02 8.8144575679735679e-04
      -2.4019066550714459e-02 2.9016837545754012e-02
      -8.6437534185805673e-02 -2.3925354825033079e-02
      1.9945498496297516e-02 -5.5301977513665973e-02
      -5.0871283079036989e-02 4.8085028491423834e-02
      -3.2779335118298475e-02 2.8689132476896178e-02
      8.1056924743727915e-02 -1.3302141633711576e-02
      -1.3828515494779699e-02 -6.3110658456102614e-02
      -3.3872450779544290e-03 -5.5435214347325505e-02
      -5.4666647963702839e-02 -6.4333072947614395e-02
      6.4000591329994947e-03 -7.2813356775060803e-02
      4.8815187447447735e-02 2.2956971535442124e-02
      3.0902890531392713e-02 -3.3958422498401468e-02
      1.0784968074957744e-02 5.1580730527571256e-02
      1.6597923010199231e-02 -4.1951093284065280e-02
      -4.8205773057109075e-02 1.4546777434762709e-02
      5.6999942889902323e-02 -2.3111383881640496e-02
      -3.2913539453587201e-02 1.5133554886240764e-02
      2.5607117882895637e-02 4.0683857429409158e-02
      1.9433620377243943e-02 3.2439194255402828e-02
      7.1847245761665762e-02 7.2105601344689033e-02
      -9.7924813240900851e-03 -1.1649934654241618e-02
      2.2566222327332932e-02 -1.7061175996212680e-02
      6.3574526810028830e-03 2.3059072115190080e-02
      5.3043178881442402e-02 3.0773867531095581e-02
      -5.1543341661290411e-02 -2.8284892866297217e-02
      1.2038750035261046e-01 -2.2401050580712539e-02
      -2.7469504225328671e-02 6.2804831835964997e-02
      1.3733592661062829e-02 4.8323859762775173e-02
      -4.5269353993594975e-02 6.8147376005989343e-04
      2.7264960543647288e-02 -6.9578670325271368e-03
      8.6283701195210546e-02 1.6644640399220159e-02
      -3.4302263750980055e-02 4.1380396851206570e-02
      4.3844735798231190e-03 -3.8065566057799885e-02
      -3.0977493951487977e-03 -4.3730891024756089e-03
      9.3442654784724449e-03 5.5309840964812534e-02
      -5.3045992902761505e-02 -1.7926056015855531e-02
      -1.8581180284197571e-02 -2.4772755008508809e-02
      9.3444851841511481e-02 8.6403783512559798e-02
      -1.0401708589240385e-01 1.0227747042363279e-01
      -6.4284524768165208e-02 4.4172679313061805e-02
      -8.2618279000494607e-02 -2.5726902779379991e-02
      -4.1985514728577436e-02 -2.7261190337302545e-02
      -1.2469691065282117e-03 1.6041257205241636e-02
      -1.9358394951469994e-02 3.8797386580358362e-02
      1.5066807216352052e-02 -6.3905915731803913e-03
      -3.3979965587764123e-02 -6.0016333817991874e-02
      -2.9268268480939609e-04 -8.9029797822494650e-02
      5.3261410349079670e-02 -4.3807913535954526e-04
      -3.2515470231144178e-02 -2.9926576990957167e-02
      -4.8759339622395939e-02 -8.9486960128621271e-02
      4.2281119500283890e-02 -6.6199024840191611e-03
      -2.0718714999340585e-02 2.8760104266158687e-02
      3.1883531645291195e-02 1.0407610460794411e-02
      -2.8655887414223574e-02 1.4721063328694569e-02
      1.4785723806252083e-02 1.0809109048539083e-02
      -7.1660844087307043e-03 1.1170408990645791e-02
      -9.4392562219279101e-03 -1.5485071513599404e-03
      -8.3229280001543750e-03 9.1123083255802151e-03
      2.5339119830614699e-02 2.3253132744342604e-02
      -2.1911908123701973e-02 -1.7642368543224665e-02
      -1.0194619631320023e-02 -2.3049386979662009e-02
      -3.6545874123586992e-03 -8.1329778541375606e-03
      3.8579486834505539e-03 3.9902860199123022e-02
      -5.4001283316506225e-03 1.5126826739643115e-02
      1.5459908529215381e-02 1.3774564028612017e-02
      3.3915376169590068e-02 2.2261259232517514e-02
      2.4822484235570215e-02 -4.1740624498568558e-03
      -1.8097523717819003e-02 -6.2715151166032853e-03
      1.9891000375349233e-02 7.1849130968954676e-03
      -2.8361631867903647e-02 6.6121814843807612e-03
      3.2486648658126525e-03 -9.1707544787836617e-03
      4.2961487934130025e-03 -2.3893394135792851e-02
      1.4775997415105902e-02 8.6376439442063472e-03
      -1.7251060447246062e-02 -1.6355486041156893e-02
      -1.5007236958017645e-03 -3.8259495390496603e-03
      -1.9668578988123312e-03 3.5560327911555909e-03
      2.9583231218271718e-02 2.9878683578514802e-02
      1.7568277608220856e-02 3.5064365752468150e-02
      -1.2920981451257467e-02 -4.3838084023512325e-03
      -1.9095411060449062e-04 2.2555949983942274e-02
      -8.3409697908585732e-03 -1.0572876246856678e-02
      4.9774803813211000e-04 -1.2290631966079435e-02
      -3.2334205196551157e-03 2.0246159173216188e-02
      -2.5626891565501710e-02 -7.6194846056123772e-03
      1.2346514582989271e-02 -4.8455330037046607e-03
      7.3280959894804470e-03 9.9498076589274714e-04
      6.6674297953795061e-03 3.0095683595118453e-02
      9.9038895066383813e-03 4.2080160619773679e-03
      -7.0953693833649707e-03 4.9300005759819491e-03
      3.8647348406880000e-02 2.5670203778255522e-02
      -1.1178900615780822e-02 1.0398289203857039e-02
      2.7806784179649199e-02 1.3664157487076219e-02
      -1.9094148612927537e-02 -2.3329780893781047e-02
      2.2549191817186141e-02 3.1762038095112534e-03
      -1.4014372824602460e-02 7.7129397956579701e-04
      -2.3143286809384541e-02 1.9310248369354601e-02
      1.2969999318839647e-02 -1.8159608566705471e-03
      2.2303431234865594e-02 -1.3456073033648425e-02
      4.5848660523028217e-03 2.0103834664372735e-03
      1.0736721504824813e-02 5.8731090160505013e-04
      -7.6829600095737983e-03 -2.4434100429047913e-03
      1.8165812064947603e-02 3.4469444334949924e-02
      -2.5744542565727135e-03 1.3718026266215443e-02
      7.6088557515387820e-03 -2.1946831562712769e-02
      2.2465964072582577e-02 -5.6185239750561645e-03
      -2.8026438412586521e-02 -2.0176294235903190e-02
      -4.2282709863436701e-03 -1.3235040891587451e-02
      -1.3555659918635358e-02 2.1149625307266072e-02
      1.6049523854258674e-03 -8.5436812275930252e-03
      1.3705951067089805e-02 -9.7312525439914224e-03
      -1.8310932536533122e-02 -1.0005710142872484e-02
      -7.3470526321025773e-04 2.0700624768452357e-03
      -8.4838959069615232e-03 8.0694324733356741e-03
      4.1178810019198292e-03 4.1571724884665101e-03
      -1.0165010621029128e-02 1.7153141173228054e-02
      1.0229252900574840e-02 3.3959279052190885e-03
      1.0396531490123671e-03 -6.1788776154870790e-04
      6.9736837190201980e-03 -4.3971995425488956e-03
      1.2728900135146578e-02 1.1030549132250048e-02
      9.9480692959619862e-03 1.7556084277465096e-02
      -1.9957120958193925e-02 4.1047015187376436e-03
      2.5702975626411766e-02 -1.5639542449513093e-02
      -2.3918045137496850e-02 1.0293615289824086e-02
      -9.7209485415907532e-03 -2.0710282699200620e-04
      -8.9634484487644654e-03 3.0081901635566634e-03
      -1.3507031240599383e-02 -8.2690919770887356e-03
      1.9221535837893589e-02 -4.4226988973240391e-05
      4.6936508302009051e-03 1.6183402989184820e-02
      1.4054431690355773e-02 -1.1214742940196733e-03
      2.1212445666574965e-02 -2.8867548684371118e-03
      -6.9869894312400303e-04 -1.2959301407024552e-03
      2.0154244805064389e-03 8.4233974232679858e-03
      2.5663194675491160e-02 2.6210792928578742e-02
      -3.1777663995966915e-03 1.6691200646687409e-03
      -6.5491165233180415e-03 -5.7568381813958248e-03
      7.7858133549098384e-03 -2.1143756524034933e-02
      -7.0033799451787537e-04 5.8352828089307937e-03
      -1.8935186485885845e-02 -4.0947449972661927e-02
      5.1741566288163255e-03 -2.5121437263579828e-02
      1.6318395033003485e-02 -9.4475944244870266e-04
      1.0138896217862485e-02 1.1965913951543400e-02
      -1.1555778071910563e-03 2.2888807129928780e-02
      -4.5575306504870738e-02 -2.5587212846751856e-04
      1.8301100733038738e-02 -2.3231224667570820e-02
      2.8415282546775306e-03 5.2271215333257025e-03
      9.6631530420857141e-03 2.3882885653304507e-02
      1.1976106212093151e-02 1.8338914234261122e-02
      -6.0715983356877468e-03 -1.8390364086480336e-02
      1.6770407209827632e-02 -1.6593950110112034e-02
      2.3484135817280819e-02 7.4256973918479085e-03
      1.3070093691648610e-02 -1.3621578255738270e-02
      -1.4971388403416724e-02 -9.2730354286368576e-03
      -3.9944964112597911e-03 -2.2243483550721553e-02
      1.9918647898322300e-02 -1.5695594634498339e-02
      -6.8592963733988396e-03 -2.3950924462494340e-02
      1.4732716407420802e-02 -1.4947181379206191e-02
      6.5588365954888329e-03 5.6826145317764995e-03
      1.1956158454707152e-02 -2.2127159703656040e-02
      8.9440482946208247e-04 1.1106541400326788e-03
      2.9569519792353127e-02 -7.4701297931372328e-03
      2.3081387517862678e-02 6.7630432871603344e-03
      1.9908153385282304e-02 1.5487076733894772e-02
      -3.7782282304624462e-03 3.3608446948368086e-02
      2.6951751670922946e-03 4.8248297528948134e-04
      8.1736088177390195e-03 3.6930351248859689e-04
      1.6753524622989668e-04 -8.8315712162368668e-03
      9.2969420886133396e-03 -1.9277974387468328e-04
      -4.1475385291968730e-03 -3.4814596509864524e-03
      -8.8966502027233579e-03 1.9740837812353344e-03
      3.2032236907334116e-02 -5.3304034648502651e-03
      1.7370105001889385e-02 -3.4358451507109219e-03
      1.1546268413901231e-02 -4.3317430490406256e-03
      -8.2084743625242627e-03 -1.3530466729008848e-02
      1.0493661052894532e-02 2.3865768432522586e-02
      1.1667956314312828e-02 -1.0316215598113609e-02
      3.0929184134160164e-02 6.7168281755519794e-03
      -1.6878616034444904e-02 3.8290913057982988e-03
      -4.8210697160268332e-03 7.8590884340071707e-03
      1.5464680443595898e-02 -3.0086166468002570e-03
      4.4505954224715325e-03 1.2957842412350833e-02
      1.5817689809189991e-03 -1.5430324172084647e-02
      -3.0602219579662620e-02 -1.5537540122267592e-03
      1.4888995045303627e-03 -9.3018877387673025e-03
      -1.1204862080110907e-02 2.2661918171480604e-02
      -4.0066740238884737e-03 4.7795817978216401e-03
      3.5189738603750919e-04 7.2082262271768623e-03
      -4.1329526889810918e-02 -2.6857348691801685e-02
      1.3189483214540547e-02 6.3337152419090754e-03
      1.0618793719024770e-02 2.1628183508749919e-02
      -2.8155965737462225e-02 -1.5589036315874365e-02
      -4.4478713189505864e-03 -1.0555261237239122e-02
      -1.2359373083552843e-02 -8.2778736440820098e-03
      5.7733059801705310e-03 1.1165514486257754e-02
      -1.8989707713616178e-02 1.8659788618124978e-02
      -2.5532488676781743e-03 -1.0631797061158597e-02
      1.0459332385637669e-02 -2.7524627995732763e-02
      1.4765349581930329e-02 8.7525924264524664e-04
      1.3892337859368441e-05 -1.7632796881317605e-02
      -1.7713689878840436e-02 5.9317614062761861e-03
      -1.8182944484841080e-02 -1.8061836997699272e-02
      3.4362202273711971e-02 -2.3292940578962289e-02
      4.1874256844605315e-03 4.6853167426859639e-02
      2.0153558488178444e-02 -2.3472897786909135e-02
      -2.7159829435395591e-02 6.4661730572980591e-03
      -1.1795124293372273e-02 2.6458037681090257e-02
      -7.8758971433301756e-03 1.3376158909926268e-03
      9.5049528736446398e-03 -2.5171259508487111e-02
      -1.0260508488654277e-02 1.0602343066718709e-02
      -5.3210566273782720e-03 -8.1711910199699510e-04
      -2.1868409268090978e-02 4.1163871196643961e-04
      -2.8576462355403114e-02 4.0850995762559397e-03
      4.3267905195560289e-03 8.1350211387393439e-03
      3.1532495478460414e-03 1.2662277865318286e-03
      -2.8629752736493094e-02 -7.9145830945588462e-03
      -3.7649915835874627e-03 1.2221046439020784e-02
      -2.2524054953765699e-03 3.8869657791960437e-02
      -1.1750349801733435e-02 -2.5329991262132323e-03
      -3.5210175877067686e-02 6.2459351166723777e-03
      2.3837589354734512e-02 -9.1208692528186846e-03
      -9.1663939749366125e-03 2.0330810643825050e-02
      -3.6402377667777833e-02 -1.5366393195995759e-02
      1.0376754816221143e-02 -8.1227026620840498e-03
      -6.6240804630541723e-03 1.0314802527791114e-02
      -1.2618278149819967e-02 1.6681854678364898e-02
      -2.5611181575126825e-02 -3.3723635214773181e-03
      1.1518113351370226e-02 -5.3136302199901578e-03
      3.8283831156450822e-02 2.3591979500442103e-02
      3.4120597437641204e-04 2.4095659585366861e-02
      -2.4503796146609250e-02 1.1589148861232360e-02
      1.0189459815750763e-03 3.5134158347519900e-03
      -3.8632699751564321e-03 2.3313851062119043e-02
      2.3179221880589233e-02 -3.2814287499071267e-03
      -2.5447267359763572e-02 -4.8088130751452367e-03
      9.3042767307974766e-03 -3.8674948390772991e-02
      3.0919975935277094e-02 -7.1888850701294412e-03
      1.5685778519511161e-02 -6.9056363534367952e-03
      -1.2479055175373748e-02 -1.1604812383846619e-03
      5.9063562898228233e-04 -3.3242633675867092e-02
      -1.7389572131324939e-02 5.1703642385176546e-03
      -5.0850922612036198e-03 1.3943949871598858e-02
      4.5889369691617032e-03 2.5291325064347127e-03
      -2.0045736172597813e-02 1.1479404682295734e-02
      6.5495578761603735e-03 -7.6526191226872382e-04
      1.2736791152820401e-02 -2.6062939156676516e-02
      -1.2239203123434033e-02 5.7253451108700794e-03
      1.4650991863187440e-02 -7.7903244490221445e-03
      9.1093247951541459e-03 -2.2472623613473887e-02
      -1.3714666004653840e-02 -5.8796492310522249e-03
      2.4486031038135330e-02 1.5351441549399090e-03
      7.3932850697258912e-03 3.2566575716361998e-03
      -3.2726717963136011e-02 3.3363198908058597e-02
      1.0368173287640141e-04 4.5355926204617954e-03
      -2.1188560185530876e-03 -2.0285090576860187e-02
      1.1677913326521478e-02 1.2029834830409980e-02
      1.1029857000386551e-02 1.7980167451623118e-03
      -1.2811727688564506e-02 1.7484028179781778e-03
      -6.9512584842463020e-03 -2.8833777885527122e-03
      1.7836203706644339e-02 -8.6501535282731967e-04
      1.4431308735840339e-02 5.4335426022567527e-03
      9.5476586547788636e-03 -1.5110233173590737e-03
      4.5739820184350355e-03 1.8922808133446749e-02
      1.5752262375131793e-02 -2.9826604012536443e-03
      -1.1252112031358322e-02 4.4041875276967677e-03
      3.7371938104352746e-03 -8.4600066152429592e-04
      1.6194497311050646e-02 -1.3419921016394257e-02
      8.7017748753686931e-03 -1.5433901123180294e-02
      4.7231123152631912e-03 -1.2956289496580656e-02
      -1.6361859602517050e-02 -2.2039448008241763e-03
      2.1295912353332672e-02 1.1220173175792048e-02
      -5.4951719306217880e-03 2.4087358105178338e-02
      5.6113675008146865e-03 -6.7946475579215293e-03
      -5.1671209194372727e-03 4.2464919855851619e-03
      1.3760874142040622e-02 -1.6080033954854692e-02
      2.3894324612781142e-03 -1.2244766486201040e-02
      -1.5714564951558440e-03 1.6188852279633098e-02
      -1.0180909594013118e-02 -3.7114102366555433e-03
      2.0004731646771270e-02 -8.8894668887468959e-03
      1.3694074784862615e-02 -2.7661088195667510e-03
      -5.6653438514013138e-03 -2.3284604812159153e-03
      1.5720413809026241e-02 -1.5488885885596802e-03
      6.9184505877359869e-04 -2.7694807870075472e-02
      1.4432073408407556e-02 1.6179604740909285e-03
      9.9357953486593851e-03 -1.9429896150146817e-02
      3.4543808958910932e-02 -1.4606974348030724e-02
      1.3333258288924706e-02 1.0006282765064468e-02
      1.0795928829337356e-02 -6.0609671353886738e-03
      4.4074116642706237e-03 2.5687106052977290e-02
      -1.5096066388929888e-02 -1.3010257526853402e-02
      -1.2144083335235728e-02 1.5990820494992626e-02
      1.4776915679666901e-03 -5.0176424874559394e-03
      -1.7249966610911268e-02 -3.5000605082968171e-03
      -1.5517108009662431e-02 -1.6660585227200018e-02
      1.8890795287033395e-02 -3.7345359089912978e-03
      -2.3346781281710706e-04 -4.0440653693355625e-03
      -6.5830898539124376e-03 2.0313159145672738e-04
      2.5447531088676522e-03 2.8836247171373014e-03
      -1.2185031001160475e-02 -2.8953809315613250e-03
      2.3356487853681946e-03 1.3042572879687457e-02
      -5.4826209349022022e-03 -1.6508355515821603e-02
      1.7719844194500088e-02 -3.8829890386903334e-03
      -8.7887769633386310e-03 1.3166254872223945e-02
      1.8285275559776512e-03 -3.2251999562674098e-02
      -4.0217496406824871e-02 -1.1442555394763675e-03
      2.4229235500207971e-02 -2.3488801526943347e-02
      -6.9833906622404325e-03 -2.1648659675283762e-03
      2.1137123425681133e-02 -4.0814077123171224e-03
      -1.8464047257836865e-03 -1.3843367396104620e-02
      1.0777426012355418e-02 -3.9043076726488703e-03
      -1.9201897079897352e-02 5.4786563078499228e-03
      1.2724727455257101e-02 1.4445100884370702e-02
      1.8524351214737646e-02 6.2683372246327505e-03
      -4.4139590129952961e-03 2.2840362169223461e-02
      2.5263465843563419e-02 3.1856907672246676e-03
      1.0900236321287984e-03 1.3946920335686393e-02
      8.9989932770812818e-03 -7.1653753040235883e-03
      1.4663496901734878e-02 -3.0328646487182816e-02
      -7.9199122496161258e-03 -2.3420247547802149e-02
      -2.0229977983063103e-03 -1.9978560100162451e-02
      9.1390187464239370e-03 -8.7534207072236404e-03
      3.1546985627628539e-02 7.4248093328479429e-03
      7.3575238811356943e-03 -1.1380983165113497e-02
      1.1833694631103885e-03 9.1685769790133777e-05
      -3.2509883639485128e-02 -3.5760215801330496e-04
      2.5597979200515267e-02 5.4435483386688467e-03
      1.7857663386082506e-02 1.3745935154954944e-02
      6.1084062697545098e-03 -3.2101506740525525e-02
      -3.6406140589164360e-02 -3.7489290733981420e-03
      -6.0118431228569245e-03 2.0810649566738951e-02
      -1.1535922317811457e-02 9.7538289083720624e-03
      1.9072754837609460e-03 1.2680175145592509e-02
      3.2449563066533800e-03 -1.3335403411901614e-02
      -3.1111004245886479e-02 -1.1871247013954254e-02
      -2.2796143903796483e-04 -1.9110129841171535e-02
      3.7469240915952239e-02 6.3760479058240773e-03
      7.6588717625299205e-03 2.8463439260643941e-02
      3.5541392190743858e-03 -3.4321484122254692e-02
      -1.8900836360264343e-03 -1.9572643647565884e-03
      7.9284088900410873e-03 -1.7013072342705795e-03
      1.0004376354690377e-02 1.1656949001357140e-02
      7.1912631480355029e-03 -6.5180853314842635e-03
      2.7861439740412839e-03 -2.7743260981260360e-02
      -2.0865820923050265e-02 -8.4910163560787746e-03
      -2.2730721980182771e-02 1.5765576111500229e-02
      -3.0781403933168649e-02 1.7907160734193343e-03
      -6.1511430916868226e-03 -3.6974488689455920e-03
      6.0812121920579588e-03 -2.5224222609131115e-02
      -6.6017461784531649e-03 -1.8172393191463531e-02
      1.5883467831182840e-03 5.0597601526060545e-03
      -2.0539522036734748e-02 1.1588227193926435e-02
      1.2105109285364775e-02 2.6800061065422134e-03
      -3.4500044713922707e-03 2.4165553591905904e-03
      3.0387339353588960e-02 6.2574375060781111e-03
      -3.2080255132141177e-03 1.7354989678077066e-03
      -7.9579166908810613e-03 1.6843481506548113e-02
      -6.8088305878717540e-05 -1.4904067022121322e-02
      -2.4693473678643165e-03 -2.8713188095802384e-02
      -5.0641353919009518e-03 -1.0637876603968711e-02
      -1.7151868959315086e-02 -2.5163551705629215e-03
      -3.8069021508922449e-03 1.4799786867633447e-02
      1.5920148549979325e-02 -7.3871509220088671e-03
      1.5459730880729397e-02 -5.3191695181897336e-03
      -3.0473101423827878e-02 -3.6459876853170178e-03
      2.0366550176261509e-02 2.6209601159960627e-02
      -3.6079338024513027e-03 1.5406982827323458e-02
      -7.7835073311839798e-03 7.3841227467282789e-03
      -2.3071384228460074e-02 8.2747183335675264e-03
      -2.0405291280473695e-02 -2.4229956167426906e-02
      -1.0396588741117095e-02 -1.8775981158826033e-02
      3.8675887556471546e-03 -2.2094615783544665e-02
      -6.8931795800927839e-03 9.1215553147576418e-03
      2.8845252650473367e-03 -1.5709783951921633e-02
      -4.5341205701145213e-04 -1.9194090685077603e-02
      -1.3702084616502005e-02 -1.2382458245254566e-02
      -2.3320133995357706e-02 -2.2772056257100805e-02
      3.0630515809522149e-03 -1.7349224743552032e-02
      2.4849314930006357e-03 1.1784343587031091e-02
      1.2537439854728868e-02 1.3532197365509176e-02
      -1.4163141229321679e-02 2.9832603830916057e-02
      1.1087358676803215e-03 -5.8987553565499123e-03
      -1.7694040291215976e-02 -1.1289279691863293e-02
      3.8535459938993590e-03 -1.3698770627691726e-02
      8.2995137849394950e-03 7.7414433779442043e-03
      -5.7201666445043124e-03 3.6362053480969159e-03
      -7.6995538564412569e-03 -1.7488757584594814e-02
      -5.7658828498556242e-03 -1.8232069538718389e-02
      8.0679526526977186e-03 -2.1028411928871487e-02
      1.0971769123226366e-02 8.7150027347348627e-03
      -2.5206215180612539e-02 3.2759746937312007e-04
      1.0830841341554015e-02 -1.7049804239620141e-02
      -1.9544067948359060e-03 -1.3530321734297060e-03
      1.1881266523990033e-02 -3.6080184073916020e-03
      -1.5607152373909385e-02 1.8422565992882903e-02
      -2.3441041258943734e-02 5.4190407744255185e-03
      -3.2355455326454983e-03 -3.1826318587304028e-03
      -1.2219651612015391e-02 -9.8845456056100483e-05
      -7.8751901140920353e-05 4.3545038345747739e-03
      -6.9024431272812718e-03 6.0260120784049525e-03
      -4.2756711474687377e-03 -4.4040570859665276e-03
      1.0602594153530190e-02 -7.5817647260429614e-04
      2.4730276002618453e-02 -1.6495883033520529e-02
      -2.0734467256682303e-02 1.2912180754119684e-02
      3.8113924287375952e-03 1.9336351153258814e-02
      -1.9042235009565905e-02 1.7021225642862615e-02
      9.9604911543698504e-03 -2.0138326075950046e-02
      2.6526732007342665e-02 -1.2684590231739712e-03
      -2.2247649931387677e-02 -1.8042821104206845e-02
      -5.2088433740813322e-04 -8.2037272320169639e-03
      -1.3240841642416583e-02 2.9072788958936942e-02
      7.9973043636820621e-03 2.6970859392232378e-02
      -2.5631669159210764e-03 -6.3705120874640638e-03
      -2.7573366690925236e-02 1.6035175235374483e-02
      1.2160602985906472e-02 -8.2095663788128541e-03
      -3.1076888241632877e-02 5.5532178913697740e-03
      -7.8154244895714403e-03 1.6684948006785091e-02
      8.3501172875443536e-03 -1.1382934232134342e-02
      -6.3011603778246709e-03 1.3013029425361901e-02
      2.1740024283028736e-02 -1.8101359232309967e-02
      -5.8525399022995818e-03 8.9084028598277864e-03
      3.7012922792772920e-03 1.3837394275040167e-03
      -1.4894145875652735e-02 -1.9472462841014022e-02
      3.1530970282561937e-04 -2.5997344826826536e-02
      2.1553327699112119e-02 -9.6174668231400907e-03
      8.6571346944077990e-03 2.8344787668059993e-02
      -1.9820268786054047e-02 -8.7783734182277622e-03
      -1.4086525739299133e-02 -3.8068233251372526e-03
      -3.5709466326564937e-02 4.6250719849776321e-03
      3.4558831434536259e-02 9.9213440414216529e-03
      1.0788527936776746e-02 7.6991947202060523e-03
      -1.8415434377233798e-02 -3.4267433209367831e-03
      1.8499455866728860e-02 -1.7632820439321368e-02
      4.1215141904838151e-03 -6.1985407574492437e-03
      -2.4064691410634245e-03 -3.4851682428691756e-03
      7.6314491687026493e-03 2.7617413641098296e-02
      4.8634550553241776e-03 -1.9360573969559074e-02
      -1.4001555988887476e-02 -7.0390654954156934e-03
      2.0890600900231949e-03 -1.4487928015515667e-02
      2.5217531041729392e-02 2.8974110036366890e-02
      -8.1527920211490849e-03 -3.7442727509056646e-02
      -2.4895894694100590e-03 -2.0921716998284795e-02
      -2.4464188945163374e-03 -9.8777399348035154e-04
      -1.0540928609486785e-02 1.6921275395659675e-02
      1.9322487944944806e-02 2.2282627482378692e-02
      1.8996442574492577e-03 -2.0873881339205130e-02
      4.3171524511443314e-03 -9.5051070340851206e-03
      -8.5889159173944995e-04 4.4870964801877241e-03
      1.7203207364909497e-02 2.4877922309932625e-02
      2.6206170458049891e-02 2.1600647201048897e-02
      -1.1629310547897919e-03 -1.1640628635920105e-02
      1.9527401365856043e-02 -1.2351678926923290e-03
      1.5702115881895327e-02 8.8201365680974277e-03
      -3.1522727428256021e-02 6.5561631548105882e-03
      1.9551813005836112e-03 1.8722029704800386e-02
      4.6092406589114772e-03 -1.3839604617993160e-02
      -3.2434395391921496e-03 3.5938837756952511e-03
      1.4631454557393394e-02 2.1226478403631333e-02
      4.1705731540977765e-03 -6.3628919315485925e-03
      -7.5095568040421008e-03 -2.2783904696164033e-02
      1.7965696711406873e-03 -9.0644336184123337e-03
      -1.5913521448845454e-02 6.1558424744215948e-03
      -2.1916715320608463e-02 -2.3193864861245283e-03
      -2.0447701215788208e-03 7.9917812362533622e-03
      8.9033573658067935e-03 1.3340888159727511e-02
      -2.8206490644975490e-02 1.0850958348842277e-02
      -9.7757057281576080e-03 -4.2422877856374474e-03
      -1.1025265206554429e-02 3.4090648354632566e-03
      3.3943544735594279e-02 1.0729051471553961e-02
      2.1061522095738885e-02 1.6361469976722972e-03
      -1.1844387343598693e-02 5.4996203935678157e-03
      1.1250560042591943e-04 -1.5937498134091521e-03
      2.9983687494803600e-04 1.9791607800160919e-02
      -1.4641297027248477e-03 -8.7003873958660764e-03
      3.0813806249128622e-03 -1.2487217264639187e-02
      1.0045514314681958e-02 1.5568397448403026e-02
      1.0132927784914061e-02 -5.3318065582904012e-04
      -1.5799118415086837e-02 1.2386707703759256e-02
      8.2584616597670968e-03 1.4426123860533538e-02
      1.3639228277302191e-02 3.1747104409254920e-02
      5.7460511276500562e-04 1.3737363950635599e-02
      -2.0796631832694382e-02 3.2020096371249613e-03
      1.2073373224674085e-02 3.1881459357268691e-03
      2.9429659827958272e-02 -1.7843232848660240e-02
      -1.2788430213458131e-02 -1.5604550293935513e-03
      1.3698847962195542e-02 -1.3778949489941156e-02
      -2.1814702756025699e-02 -1.1070451159974489e-02
      -2.4771991770314361e-02 2.4151847404607781e-03
      1.5577058831084321e-02 1.1212582020079572e-02
      -2.8799128054589777e-02 1.5906962306453061e-02
      1.6372199964592386e-02 -2.0351706697843145e-02
      -2.2229987898875887e-02 -2.1850824918304767e-02
      -2.7585146531796181e-02 -1.0784209804783141e-02
      -1.0037285038170076e-02 2.2196754005755916e-02
      -1.1302776389096028e-02 -1.5453407658013204e-03
      -4.2873295218418622e-02 3.5503595232968892e-03
      9.1829787203440635e-03 -1.8355234491818355e-02
      -1.5618966456119874e-02 -5.7472485448925310e-04
      -3.3796027354151500e-03 2.0496558880087185e-02
      3.3580021068091409e-02 -5.7996097189505708e-03
      -1.5014199281403641e-02 -2.5736280165586985e-02
      7.3489624602896583e-04 3.7398617924566595e-03
      -9.6548994853565794e-03 -1.0153939152851449e-02
      -7.8219922455793275e-03 -5.3626419442056889e-03
      1.0189066666721489e-02 -9.4557879686341054e-03
      -5.1599739086672690e-03 -8.2268410262263982e-03
      -5.3678890465751747e-04 1.8846321876479260e-02
      1.1662407755211705e-02 5.3371006042249260e-04
      -7.7254047290725844e-03 -1.7135854084913204e-02
      -1.0744557099146767e-02 1.7733225990106283e-03
      1.1012376146859218e-02 -2.7538309782795600e-02
      -2.2019629366516032e-02 4.8554571647227551e-03
      -6.7400678050992891e-03 9.6125392059418727e-03
      -1.6053621457217254e-02 -6.6548499794746394e-03
      -1.0760074348753087e-02 4.3771438657663727e-03
      2.1267116458222192e-02 -3.4938932498266004e-02
      6.8324486987934568e-03 -1.1254643722490016e-02
      -9.2832590974896104e-03 8.6016706831682724e-03
      -2.1546487629306044e-02 -1.7849406943925572e-03
      1.4881280982290327e-02 1.8135692197294381e-02
      2.3103105925147163e-02 -1.1956574512409386e-03
      -2.1174706414420785e-03 -9.0065432854606938e-03
      -3.4342921813419404e-03 -1.1942257839106020e-02
      1.2019022998984380e-02 -1.5795154014030307e-02
      9.4164916682625069e-03 -4.7706452564049030e-03
      -7.6211318341057200e-03 -1.0621478492916012e-02
      1.9716330320114447e-03 2.0459488887665726e-03
      -9.2655391413096581e-03 -1.6313727663921463e-02
      2.0222256649896658e-02 -1.1846354914969409e-02
      -2.5217597429295968e-02 -8.1573855072900447e-03
      8.3873118803301470e-03 -1.3812231362438867e-02
      7.0601213244081062e-03 1.2465373667976622e-03
      5.1764869776612108e-03 -5.6851609667413552e-04
      -1.2418356202584508e-02 -2.6149488160290275e-03
      -7.3127989913078029e-03 -5.6772793848717598e-03
      -1.0195288329846189e-02 4.0555388562027589e-03
      -3.5396977973503720e-03 -4.7406995449297161e-03
      -2.5545672514655258e-02 -5.5435288107712460e-03
      -1.4793064544005596e-03 -7.3485849067843646e-03
      -1.0538853695441403e-02 -2.8805435083191579e-02
      -5.5955344818475888e-03 1.8994436102176299e-02
      8.3013556315298005e-03 -9.6479052700781456e-03
      1.1085225156581426e-02 2.3401667665738046e-02
      1.9539883122852652e-03 -5.1783929873017876e-03
      -2.1111935730498674e-02 -2.5298965879253974e-03
      2.4130235331751983e-03 2.3166178568548225e-02
      -3.9332089240870028e-03 -1.6895647604577041e-02
      -1.8047783018129246e-02 2.0921940202000062e-02
      2.9434673062042139e-03 -1.0137616065233890e-02
      -8.3340099137631258e-03 -1.6888866824125791e-02
      9.5854618588184295e-03 -1.1838004515013436e-02
      -2.2285087458814083e-02 1.9977237425957521e-02
      -1.2001243499025179e-03 -2.2423135132480843e-02
      1.3279119484708132e-02 1.6082352110153950e-02
      -1.7239034814114734e-02 4.6061596705558689e-03
      -2.1677642846085921e-02 -1.9923509966191414e-02
      8.0385966124138595e-03 -9.5060446058915470e-03
      -1.1824843614481228e-02 -9.2497620766542766e-03
      1.4107577541547022e-02 -1.6474976828919505e-02
      -6.3912871714478818e-03 -1.8373181289716236e-02
      6.6534905871274636e-03 -3.3740784470304853e-02
      7.0742713906704494e-04 -3.5955772820007552e-02
      1.0920327505405189e-02 -3.3297297717597193e-02
      3.0202573190961125e-02 7.7947690064493723e-03
      9.8162062679987509e-03 1.3668121072750939e-02
      -3.2732525707123442e-02 2.5657841438166511e-02
      7.3644788963045165e-03 -5.4075494242978315e-03
      9.9689027194033815e-04 1.4150148558435370e-02
      5.4625307301717295e-02 9.7883010824034600e-03
      4.5709324693938271e-02 -2.9728030309202805e-02
      2.6097008628311630e-02 5.7146162582430160e-03
      3.9739130480009287e-02 -4.5269883759680692e-03
      2.1656999921920505e-02 2.2066137497191867e-02
      -3.0464060464610210e-03 -9.3545253922848546e-04
      2.1377149731761930e-02 -1.4260939891499491e-02
      -1.8230177972787278e-02 -2.2499560949233565e-02
      4.3489852906066972e-03 4.6962684387965338e-03
      1.3601607957938931e-02 4.9664721954477360e-02
      9.2736848933644700e-03 1.4721654614549891e-02
      4.0158982473617556e-03 1.8304203459081868e-02
      4.1104095677002173e-03 3.6415628528023172e-02
      2.2649737501020319e-02 -3.6146253346174442e-03
      5.1381277011544593e-03 -1.5741658225797294e-03
      5.1438563162976611e-02 -1.1290473596156106e-02
      -2.2119419472461072e-02 -1.1833220838583852e-03
      2.5850195122611299e-02 -1.7198416433117234e-02
      9.4146175630684097e-03 3.7265102378207147e-02
      -3.1975493547105958e-02 6.3632523346924090e-03
      -1.1211155310782775e-02 -7.6534330463785966e-03
      -3.3234014040231505e-02 -1.5993488687409737e-02
      2.3866129131174592e-02 -1.2896920415227683e-02
      -3.1897940438564275e-02 -2.3628936456447244e-02
      -7.1712278394172133e-03 -2.5607921436850214e-03
      -1.8775006481154589e-02 1.1812023949628703e-03
      -2.0869128044091634e-02 4.2982179638832035e-04
      -3.2555547329375135e-02 2.5900128788629278e-02
      1.1668663046492426e-03 3.7979713768429742e-02
      -4.1677091982491614e-03 2.7834914372990956e-02
      -7.1340162157275538e-03 -2.0520511927284917e-02
      1.5448536978589493e-02 -6.9849640330625993e-03
      5.5714586331029247e-03 5.1904669413778881e-04
      -1.6747554948219517e-04 -1.0687410726528802e-03
      -3.5841186911767998e-02 -4.0568822293463851e-03
      4.6105132463730499e-02 -4.5164358726470205e-02
      -1.2953153185256183e-01 1.4655000905957416e-01
      6.3208872971057327e-04 -1.2565246364523533e-02
      -2.4303273984223928e-01 1.5466984756845778e-01
      -9.9143090037091403e-02 4.4860204353007464e-02
      1.8043734866222377e-02 -1.4466308241313269e-01
      5.3677076249950779e-02 -9.4545311138231655e-02
      -1.5437999531296631e-01 -8.5591727841193996e-02
      -7.2954881448044143e-02 -2.1270217152170998e-01
      5.8477623266097824e-02 -8.7367050081888609e-02
      3.1747262223617255e-02 -3.4246896057220288e-03
      6.7432415535749246e-02 1.3443140663209566e-01
      -4.8518718088071282e-02 1.1197472520094222e-01
      -1.3039748932168797e-02 3.5196775154229851e-02
      -3.5531817795829562e-02 8.2359822927115536e-02
      9.2291424876663877e-02 6.1245899309161023e-02
      -5.6904315795055964e-03 -5.3018362770663824e-02
      -9.1648843148764536e-02 -1.0069877950482968e-01
      6.3575187370489145e-02 -6.3449933838094982e-02
      9.7402682575665187e-02 1.5985660334280280e-01
      -1.1179374987805457e-01 -5.1364811079760882e-02
      9.3512483578710573e-02 -2.0604190728470784e-01
      -8.6563218300456744e-03 7.2817747043458766e-02
      -9.4127896318720629e-03 6.9605155030491875e-02
      -1.7616565876020659e-01 -4.6191714172438844e-03
      7.2395585743549179e-02 -1.3418480486418728e-02
      7.7304567058387050e-02 1.6227205893546043e-01
      2.0934062269615034e-01 2.8933219003901184e-01
      1.4319665018561859e-02 1.1793108219091517e-01
      1.3300607779976101e-01 -9.7384787449878676e-02
      9.2420947785264870e-02 -1.5966363392558493e-02
      -6.0316916196065766e-03 8.2670685865886717e-02
      6.7077155426128521e-02 7.4822518197817198e-02
      -4.5621504497465562e-02 -1.2966020429404375e-02
      -1.2634263624915343e-01 5.9572860842485004e-02
      -4.5930325108249279e-02 -1.0625683792439498e-01
      -5.5122003145516872e-02 -7.9730117344037205e-03
      4.7207183484515802e-02 -7.9295461826640434e-02
      -2.5593924808117535e-01 -6.1211190856767628e-02
      3.7557481494008109e-02 1.5202733539694124e-01
      -1.8331236482763405e-01 1.1130028122029627e-01
      -1.2112024772311660e-02 1.5967563392245237e-02
      -2.3102914617907003e-01 -7.4051420270862631e-02
      5.6274755762898428e-02 1.8872042881799344e-02
      1.7995931119813069e-02 1.5674245062986913e-01
      1.1734906421312358e-02 2.1664728428576102e-04
      8.4152766686647021e-02 -8.3228897967903420e-02
      9.9729760164265352e-02 -3.0112839961361732e-02
      5.2116877030421158e-02 -9.6202630260445898e-02
      3.1311357734612855e-02 -1.3264579764544882e-01
      6.6206154301963499e-02 -2.4408315137567103e-02
      1.4962986555016773e-02 1.7686061351262040e-02
      4.3620934731831351e-03 2.2221607085918717e-02
      -1.5007301415401682e-02 1.4737800229033328e-02
      9.4300259111683941e-03 1.5805633193745901e-02
      -1.4321425225913622e-02 1.3198312870853822e-03
      2.1030610710490588e-02 -1.2530474427864285e-02
      3.3065461407624499e-03 -1.1700207563083058e-02
      1.4748079588858395e-03 -1.9640217725293220e-03
      1.6799942728367788e-02 1.9268945761494887e-02
      1.5268112627674749e-02 1.5157939551491855e-03
      -1.6054543743336902e-03 2.3684188282028840e-02
      5.9401062993899379e-03 2.5155168963125456e-03
      -1.7749249449973477e-02 9.7964398900707052e-03
      -1.2476675458535005e-02 1.6479125516746736e-02
      -6.0479639802430516e-03 2.3914236410086543e-02
      -6.3537111114214768e-03 1.3769265043661223e-02
      -1.6374468018210124e-02 -5.2543823129972142e-03
      -1.4617091709569135e-02 7.0497675123194908e-03
      -5.0085531195957610e-03 1.2296831556498657e-02
      -1.9964586346921255e-02 4.6560143010312641e-03
      1.0657608026594004e-02 -1.0110330133131999e-02
      7.4370174446189508e-03 -1.2297833381974361e-02
      -2.0839536993884113e-02 -1.7399551533773316e-02
      1.2381224441670530e-02 -2.2807384960167584e-02
      -2.3542171803173736e-02 4.2055700460766387e-03
      -8.4800228206147032e-03 2.2799588719590497e-02
      2.0532850929553044e-02 2.2298630865325873e-02
      -4.7899311424930103e-03 -1.4672743288828436e-04
      -3.4742630505219083e-03 -2.5091294854158418e-03
      -1.3168921897210287e-02 2.2023208172575824e-02
      -8.4702750551006120e-04 1.8529141972470443e-02
      -1.0124315776628831e-02 -1.8230357178520594e-04
      -1.4348556953643716e-02 -1.4707416754918696e-02
      -7.5917307829101799e-03 3.6522009541954722e-03
      -2.0836841471151040e-02 1.5178627406832330e-02
      -2.7151862824280550e-03 -6.3300982416117334e-03
      7.8673584024522101e-03 -1.3862860301817225e-02
      -9.2599489195642687e-04 5.1229923887077811e-03
      3.2533373445135308e-02 1.9438316938039643e-02
      -2.4915308297483913e-02 1.1951501672625120e-02
      1.2750800184110483e-02 -5.2933062198024230e-03
      -8.7573058296233144e-03 -8.1934487898540943e-03
      -9.3114085970646965e-03 -1.4169216302309958e-02
      -9.0337465044798750e-03 -4.0724982255882624e-03
      6.7206640954712840e-03 1.2207051319154372e-03
      -6.2574968341252320e-03 -1.1439357872989574e-02
      2.1093428190347055e-02 -1.5025320461797255e-02
      1.7000947940992151e-02 -1.7049809352352181e-02
      -5.0475186296536465e-04 -7.0512080875707384e-04
      4.2433483215723513e-03 -8.8362341965231763e-03
      -3.3740814911840479e-02 -7.1953660888137037e-03
      1.5435593732550715e-02 -9.1163662865868956e-03
      -3.4642638652168504e-03 2.7276189627172775e-02
      -1.5328739570415261e-02 -3.1648105187540667e-03
      -1.5448529011570688e-02 3.1557095323457199e-02
      -8.2073264478358162e-03 1.5571740405013057e-02
      -2.6423344915950921e-02 -1.9842350475725239e-02
      1.1731367376502013e-02 -9.4542742487202357e-03
      -7.3763877991936538e-03 -3.4166884289603419e-02
      -2.3633437270388462e-03 1.0677924425829986e-02
      9.5554207219277158e-03 -1.1451137783245453e-02
      -1.0976058645059402e-02 -4.8089986568993180e-03
      3.4678784345581466e-03 -8.3767558764427045e-03
      -1.4286654779720289e-02 -1.3609349267430529e-02
      2.8219935991064392e-02 3.0120528455468316e-02
      -1.6477888739835553e-02 3.0129241283822421e-02
      2.2851484085252886e-02 3.9619102678906663e-02
      3.3182520200302115e-02 -1.2047510034898542e-02
      -2.3670013043198841e-03 7.3374283041902754e-03
      -9.0093860821483709e-03 -6.6404402165394323e-03
      1.2785207527628729e-02 -1.6800246596091124e-05
      -8.4139811560421818e-03 8.5897373012086570e-03
      1.5505291363138692e-02 1.5722732567668981e-02
      1.2500183853928417e-02 -8.6225381485459211e-05
      3.1579804833914246e-02 1.5269645072108914e-02
      1.8465743581311665e-02 1.0412019058259930e-02
      4.7255746213371646e-03 -5.2316206957752943e-03
      -3.8257224698773802e-02 -2.5612711811174450e-02
      1.9140225912153478e-02 -1.1024423307139481e-02
      4.3419202705802457e-03 2.2616891652296807e-02
      1.4488393871407142e-03 1.0379275811060206e-04
      -1.4126709952690827e-02 -1.2724910951715877e-02
      -2.1846103068275352e-03 2.3871030090277384e-03
      1.2461396405369659e-02 -6.4835934185612240e-03
      7.4803628044625703e-03 1.1354764886898508e-02
      -1.3569177804788645e-02 3.1048375219577826e-03
      4.0067208965826322e-02 -8.0116409918381728e-03
      -9.1686137346113031e-03 1.4121293770899821e-02
      -4.7369394826175262e-02 2.0324380970678235e-02
      6.6329354180540163e-03 -1.5129648744256058e-03
      -2.8476871650313030e-02 -9.4637519391664170e-04
      1.5932540709517998e-02 7.9517156860486223e-03
      2.7674910174803552e-03 -2.9225218638782982e-02
      9.9560149772214973e-03 -7.8950227701675684e-03
      -6.3549691279366043e-03 -2.2843334924057481e-03
      1.9920252506741683e-02 1.0844072892421148e-03
      -2.1124165832568545e-03 -7.2314049679445512e-03
      -2.6199942311750525e-02 4.0708072527648456e-03
      -1.8362784416561626e-02 2.0868424821606696e-02
      1.6333633282656586e-02 1.1368709990595546e-02
      3.5640639641102184e-03 -8.2401561421801411e-03
      -2.1030780654391450e-02 -3.2296909428800465e-03
      1.3183177225209028e-02 2.7191476437242530e-02
      9.8836635592895357e-03 1.9827438511553195e-02
      1.6617765651622884e-02 -3.3648183651607405e-02
      7.6924188672797969e-03 -1.4434240306432177e-02
      2.2573978639496877e-02 -1.0718291151563204e-02
      -3.5766698653000764e-02 1.3036186649170740e-03
      7.7063383217959294e-03 -6.2361758895071830e-04
      5.6151374396825526e-03 -3.4528120900590729e-02
      -2.1154102731990990e-02 -2.0333428423830388e-03
      3.2681346424208182e-02 1.7370087684815069e-02
      1.1459654598534515e-02 -1.4055731449128124e-02
      -1.5792735439562625e-02 -1.6801005805758225e-02
      -2.8371938979597066e-02 -3.7745909779567217e-02
      -2.4408605161374938e-02 -1.8545897019091814e-02
      -1.7226983307223978e-03 -2.8286379035769312e-02
      -1.4029128562929812e-04 7.5485343713754772e-03
      3.5301477595203891e-02 -1.3898761077084758e-02
      -2.3672610933400356e-03 1.9153911389921188e-02
      -1.6788695851872114e-02 5.1910936878009012e-03
      5.1186398746559687e-03 -8.4815828521616937e-04
      -2.4288064225063415e-03 6.9218645443615001e-03
      5.5020802811765676e-03 -4.4153223905799141e-03
      4.9420581317968643e-03 -2.9011019105250377e-02
      -1.4361366437379156e-02 -3.8386125503494545e-02
      7.5029436771988662e-03 3.0500206919239017e-02
      -1.2356484951928325e-02 -1.0624278194627074e-02
      8.3727007069017111e-03 5.3084715611045963e-03
      3.2740729491124694e-03 7.5126274606815702e-03
      -2.3132969845034240e-02 1.3000474760485397e-02
      -1.3442782451789587e-03 5.5972053786673267e-03
      -1.8722513717099244e-02 4.0268704284793346e-03
      5.8193970314405069e-03 6.2447783190499430e-03
      -1.0191139669893323e-02 -2.7577999565193571e-02
      1.1762658914185839e-02 2.8636349130283463e-02
      1.3721546156207686e-03 1.3105865849637908e-03
      1.2909338961818735e-03 2.2105554205327612e-02
      1.2020834952386813e-02 1.7647288130166711e-02
      -4.8061111699393899e-03 -6.1147778833520686e-03
      4.2555943875443869e-03 -1.4568714181026208e-02
      1.0513422349383419e-02 -3.5781332485093797e-02
      -2.0273295848807389e-03 1.6238347980181637e-02
      1.0445313330328542e-02 -1.3374089428683789e-02
      -4.3655328834278171e-03 -3.0178424423100342e-02
      -3.3040983917041612e-02 -1.5281558215669323e-02
      -1.7055889933754342e-04 4.4997033619253890e-02
      -1.4254155078187572e-02 5.7766715391624158e-03
      -1.0795733586279293e-03 -3.4048875750131283e-02
      1.2459496855666676e-03 6.2896624846446314e-03
      4.2853764067651082e-03 2.2962595913579995e-02
      -1.6908328498890502e-02 -1.6189901052336295e-02
      9.2616546798031264e-03 -7.2344192597357639e-03
      -1.5623071310472265e-02 -1.5488070967581966e-02
      3.0656370630702947e-02 1.3493386528746872e-02
      -1.2286742944792794e-02 -1.0785118375270224e-02
      5.9176337935771400e-03 9.4138319673999372e-03
      -2.9590636107030698e-04 6.3791010652911439e-03
      -9.5903580298642970e-03 5.5773628841239457e-03
      2.1285655235981062e-02 3.8725547710893074e-04
      2.0968639211464746e-02 -1.1691800876532529e-02
      1.5558046600162235e-02 -3.5873287507939867e-02
      -2.0108044930857796e-02 -2.2187622552367236e-02
      -9.5842732951841696e-03 -9.7517002844560701e-03
      -4.7171873845618752e-02 3.8946817395348207e-02
      -2.0559842282736586e-02 1.9141116437398152e-02
      -2.8782993231130588e-03 -3.4288737446974589e-02
      -2.0849153881734719e-02 -4.1968158230670083e-04
      3.7305341295703529e-03 -3.7766761091322472e-03
      4.7270982683726365e-03 -3.4475151873297263e-02
      1.3539558374253647e-02 -9.5165577439269280e-04
      -2.8990516201696678e-02 1.4938877413450093e-02
      -2.0402770461793295e-02 -8.3484453931770945e-03
      -6.5186500926896615e-03 -4.9256715726930196e-02
      2.8937693384947671e-02 -3.8576093674278007e-02
      2.2926456559132003e-03 -5.4937810822718123e-04
      -6.4360151611975369e-03 -1.2947553138759988e-02
      6.8210014868228816e-03 -8.2836077347192040e-03
      1.7303572428035128e-02 -2.1963928859598844e-02
      -4.1376888034646515e-02 5.1747699984743031e-02
      1.1029156370115621e-03 -4.7344207399225118e-02
      -2.5787285459724679e-03 4.6737615504305260e-03
      1.3006864365789642e-02 -3.2982093723780449e-02
      2.1688144768569947e-02 -4.1347935839781074e-04
      2.7414917797732696e-02 2.3328095822398372e-02
      -9.4969770297748685e-03 1.3166075110698845e-02
      -1.5183594614345472e-02 -1.0879225095744469e-02
      -2.8282056160159924e-03 -2.4124657215338369e-03
      -2.7201293354457683e-02 -8.1708405308641291e-03
      -5.0258193407770970e-04 -1.5586227134183986e-02
      -2.2451767032528824e-02 -1.0681857498722691e-02
      3.1771226438500298e-02 2.0404726063101716e-02
      -1.2298464177119052e-02 -4.7195250588736685e-02
      -1.6908851542405675e-02 -3.6245548713263430e-02
      5.3231212817450906e-02 2.4245348200427458e-03
      1.4084644918708890e-03 1.3827565446332684e-02
      -2.2841845598198390e-02 3.7632253753836940e-04
      -2.1861044026888429e-02 2.1004142527033476e-02
      -5.3473924673539137e-03 4.6315467146704013e-03
      -3.5882031227715709e-02 4.4939075074030284e-02
      1.2473536502325528e-03 -6.9314038995846438e-03
      -3.1977551059242963e-03 8.5395207427003128e-03
      -2.2029306286944231e-02 9.2235485686526144e-03
      -1.3737062566254484e-02 1.5765716654908724e-02
      1.8243624393789591e-02 -1.1618047352921211e-02
      -5.2480546775792161e-03 7.8412326430152106e-03
      5.1381328905219237e-03 -2.1024843823479293e-02
      1.0472982316101437e-02 -2.8620588195079115e-02
      1.8729594017497207e-03 -1.8607457519140932e-02
      -5.9144384922029227e-03 1.4321187153441581e-02
      9.9818808159542732e-03 -2.0946953591276785e-02
      -1.9854160005779511e-02 -2.4927868266483473e-03
      1.0953122789960064e-03 1.4888817087509864e-02
      -4.5624168201983967e-03 -1.7135373978264484e-03
      1.9625884556921006e-02 1.2853421768124131e-02
      1.4555321807595455e-02 -1.3041046719220262e-02
      2.1268766091498702e-02 -2.3516646954930977e-02
      2.1403777809157611e-02 -1.1182412459175149e-03
      1.6979279839374278e-02 3.1732801978251429e-02
      -2.0583602238380457e-02 -2.0820557635510582e-02
      5.4470511175910502e-03 1.8707022893434174e-03
      -2.2559409667224015e-02 -7.1497164616508220e-05
      1.6087421768681439e-02 1.7869237736060320e-02
      -7.6877354709353517e-03 -1.8054768606404027e-02
      3.0337868036567579e-02 1.5333182942057143e-02
      -7.1165155894902382e-03 1.4882787043121874e-02
      1.7672091696727191e-02 4.2482474475775099e-03
      -9.5000727495194379e-03 1.3605865705396143e-02
      2.8448419668610926e-02 2.9797405493185328e-03
      7.7250044990585225e-03 1.0120952757798084e-02
      1.6219494440586939e-02 2.7293149125935586e-04
      -9.1156140423773353e-03 1.7538771704148512e-02
      -1.7282115427565914e-02 -7.4160289885417553e-03
      1.0361578418587137e-02 2.3310013940123685e-02
      2.0468796882300074e-02 2.0901412474948547e-02
      -3.3282695326453650e-02 -2.1213356238136739e-02
      6.0371852214688663e-03 -2.3453085983116004e-02
      -8.5513591652017877e-03 1.5692418644419490e-02
      -3.0374985794606183e-02 -8.7544644975402468e-03
      -7.0302687754047466e-03 -2.4891729638019392e-02
      6.9708345927079569e-03 2.0244788539475439e-03
      -1.8677404639354186e-02 5.9711115695485041e-03
      1.2887136330567203e-02 2.2536300689230174e-03
      -8.3653086007926362e-03 2.0218763235349792e-02
      1.3847227295854725e-02 -2.5995907122435811e-03
      1.8684481988222437e-02 -3.2424564888840879e-02
      -2.1839980040569414e-02 -1.7276068783372528e-03
      -1.9008229069660220e-02 -1.2765777228923181e-02
      5.1581349857412525e-03 -7.8252031239398109e-03
      -6.3933398770474352e-03 2.2946148104930002e-02
      -9.7681390398283389e-04 -1.7407219915413556e-02
      -1.1724419618906166e-02 1.6523910117925193e-02
      1.9099908889356580e-02 -2.1347933832766765e-02
      6.5711805082019851e-03 1.2249893291804775e-03
      1.1436417169547953e-02 -1.1113073029971188e-02
      3.6602996829885159e-02 2.4006921566287448e-02
      2.2284119212976336e-02 3.9130618678758708e-02
      4.2195380255604449e-04 2.2775275889006290e-02
      -2.4118164287792680e-02 -3.9826504261159597e-04
      -3.6065793373413750e-02 -4.7591541684728421e-02
      -3.6918673841560001e-02 -7.7406408220990963e-03
      1.3987802438233554e-02 -2.4475166060870412e-02
      5.1712078389399901e-03 -1.5537994310752791e-02
      -4.0777814773795889e-03 -2.1085954371827066e-02
      -2.7886167035867503e-02 -1.7938475081425216e-02
      8.7449038444090757e-03 4.0174148259228500e-02
      2.6760966565708966e-02 4.7349439562519528e-03
      -3.4363416984847364e-02 -2.8248119466369277e-03
      -2.4247071134892786e-02 -4.4171521690416361e-02
      3.4947887666964576e-03 -2.3974543314304844e-02
      -8.4072691260970132e-03 3.1648347650986078e-02
      1.7927391410430347e-02 1.1011376811745660e-02
      -2.6118967431374610e-02 -2.8145867414843321e-02
      -6.6767870970200621e-03 -2.4456080647421688e-03
      -1.7317647356170311e-02 1.8829813174647738e-02
      -5.6943662742712483e-03 -1.6411048971412549e-02
      -5.2061326839625633e-03 -3.5362526385990162e-02
      1.2403619565362583e-02 -2.8224413330024370e-03
      -3.9754373476770646e-02 1.5921896929177674e-02
      -2.2957356372579524e-02 1.0689016897044020e-02
      1.9939389736467446e-03 -4.1858464744313128e-03
      -2.8506403353874436e-02 2.7601723096359613e-02
      -3.9366761272280434e-02 -3.3109055367387570e-02
      3.6970082346604878e-02 -6.1835210899394222e-03
      2.4188319938346130e-02 2.8413417217014396e-02
      2.9398473763612664e-02 -8.3132568979582874e-03
      -2.3524709412052806e-02 2.9387933071221253e-03
      2.9459891662490734e-02 5.3670804136278125e-04
      2.5785435281018263e-02 -3.7642402441792656e-03
      2.7211280086959760e-02 2.4019087879403843e-02
      3.7395094949594344e-02 6.9381238202328582e-03
      1.7492477407710681e-02 -2.7860776513510422e-03
      7.1233354577968392e-04 -2.3295350484972509e-02
      4.5087929742259588e-03 -4.4776145556737496e-03
      1.3942612352325164e-02 8.9199368604297950e-03
      -2.5867733601497946e-02 2.0228126881852191e-02
      -1.4378180413426074e-02 3.7032681892013301e-02
      -9.5671357778530624e-03 1.5655530013585269e-02
      2.8150346621898588e-02 1.5253692676247153e-02
      -2.4234368085803752e-02 1.3272434959124398e-02
      -1.0515727981520931e-02 1.4603429671011194e-02
      1.3428944394875951e-02 -1.5923906773214043e-02
      -2.0586083688635737e-02 7.9703709837197247e-03
      1.2809479460686531e-03 3.5157910450918008e-03
      1.5943589382002459e-02 -9.5568553634769026e-03
      -5.1691558247756149e-03 -2.2450715487851474e-02
      -7.4769401014021337e-03 -1.5483201809240520e-02
      -2.0824767915305891e-02 -2.4886481931599504e-02
      -7.9823969484924349e-03 6.0261119791061560e-04
      1.3443499629057968e-02 7.7881244166079998e-04
      1.6864172816935918e-02 -1.1435331792145922e-02
      -1.9347877208968356e-02 -6.9365298461572771e-04
      1.6702203522998386e-02 1.4828758944197508e-02
      2.5788057633527133e-04 4.3437449827024013e-03
      -3.4147561807512843e-03 -1.1746388414143985e-02
      -1.0803617009680874e-02 8.6092842681128219e-03
      1.6851148001450596e-02 -1.1359193157792697e-02
      4.1379924340208618e-03 1.3728426636942268e-02
      4.1477767968852728e-03 2.5877375603676159e-02
      -7.3501819189942131e-03 6.6024235746236408e-03
      1.7483080040388423e-02 -1.4722854384923510e-03
      6.5218940026518938e-03 1.4423440737786558e-03
      -4.1475815020637404e-03 1.5488041010328185e-02
      -1.2881333338252339e-02 1.1609719518694378e-02
      2.1539277274119417e-02 -1.4905113540803983e-02
      2.3480476792604368e-02 9.2058568273227444e-05
      6.8521886345759633e-03 1.9402771937797013e-02
      3.1391839925480371e-03 2.2746147378844154e-03
      -8.5133996969571964e-03 -1.8153967675565066e-02
      9.2454895196988403e-03 2.3478092637985531e-02
      -1.1460161140705099e-03 3.4250440405573109e-03
      1.9868443110450506e-03 -6.3302213614714400e-03
      1.6978562314274966e-02 -1.8842283648586001e-03
      6.6052793705545574e-04 3.0058753719963364e-02
      -4.0516289068070824e-03 1.7417779687313704e-02
      -6.8070009135588177e-03 -2.7575979588732639e-02
      5.5376502315206905e-03 3.7289481495874129e-03
      -5.0580731108078696e-03 -1.1167752080095326e-02
      -3.3295515979031416e-02 9.1679154703533539e-03
      -2.4876547338669484e-02 -2.0592657806079433e-02
      -2.8022893183636973e-03 -6.6371889197870014e-03
      -2.2670451043170118e-02 7.2325702886503187e-03
      1.5981751240396538e-02 -3.8198897238158305e-03
      1.1452795341263066e-02 1.0885647133570295e-02
      1.4178325766276614e-02 5.3898498336260687e-03
      2.3876270953671824e-02 -1.1745355573815824e-02
      -9.1254037115231657e-03 2.5010664840710520e-03
      1.0630479256319233e-02 6.7151956821851471e-03
      2.3122376166388797e-03 -1.9064415759697438e-02
      -4.9096520335862389e-04 3.1875425015008796e-04
      -2.1878115588905997e-02 1.4068465210235354e-02
      -1.4410233233582738e-02 -3.4528676220929935e-02
      -3.2615054268006531e-02 1.0259983003692987e-02
      7.4953857360132237e-03 -9.4333614166573192e-03
      6.5741117472542738e-03 -3.7352425080590568e-03
      -2.0732176150347132e-02 4.7272020289022233e-03
      -2.0110665255530548e-02 6.8661216375969138e-03
      -1.3376033085960056e-02 -2.0913518662485781e-02
      2.0664140312743811e-02 -2.7496071412961461e-02
      -4.1158032200018747e-03 5.6626970146181161e-03
      2.8266627543940378e-02 1.3586020276252428e-02
      2.7835488987438778e-03 1.5982740140037938e-03
      -1.6342490231400077e-02 1.7881063428356561e-02
      1.7396501179339250e-02 2.2834661059591609e-02
      -2.6020728595118484e-03 2.2003714968798993e-02
      -2.0207545950115997e-02 1.1971690222954709e-02
      4.8130009426531782e-03 -1.5734192770522060e-02
      -7.1283122324504828e-03 -5.5882264480080525e-03
      1.9508530529138143e-02 4.7040535778895397e-03
      -3.1919148583939775e-03 -3.2591387115655161e-03
      3.0716662752969148e-03 -1.0667062339583247e-02
      -7.4272121736694945e-03 3.2577013113603468e-03
      -5.9972922457806280e-03 4.3261168296520680e-04
      -3.9188348056753506e-03 -1.6594939693576848e-02
      1.8626286624298664e-02 5.0994307654552325e-03
      -2.1884562858076086e-03 3.5616606502258563e-02
      1.4354477312299890e-02 2.9014716063508049e-02
      -1.0239277524829813e-02 2.0702951662202401e-02
      3.1635416280788260e-02 4.5089417630797156e-03
      1.5759664582652672e-02 1.1931265355790871e-02
      -1.6274517421736310e-03 1.1711397489936634e-03
      8.8197750705491691e-03 -3.3680696551481571e-03
      7.3073176862907315e-03 3.8777970409254051e-03
      -1.1213789132813453e-02 9.1477521147099951e-04
      1.5212948788876400e-02 -1.5750155598019833e-02
      -3.3575453536432080e-03 1.3063690953603328e-02
      -4.3557566483191186e-03 -2.3536531205907270e-02
      -7.0145110219549398e-03 5.8987675441535105e-03
      -3.8238515792997425e-02 1.3229554377806776e-02
      -9.9432912721695715e-03 -1.2998942060786444e-03
      -1.6614941567177091e-02 -4.9159118982142211e-03
      -1.7266819333977397e-02 2.7092418438814141e-02
      1.1486540941639213e-03 -2.5592909529609242e-03
      -1.6906373046292760e-02 3.2066196961880483e-02
      1.7147732999022107e-02 1.6322544730792327e-02
      2.9114577609856227e-02 -2.7877610412887489e-02
      -1.2075741262158131e-02 -1.4849805136498568e-02
      1.7317763366155602e-02 9.0992377191038490e-03
      -2.1750543117076256e-02 -2.4409994596816854e-02
      4.5403545277628203e-03 1.7224787653464559e-02
      -3.4289428847251738e-02 8.8699317195452959e-04
      6.1313309748227815e-03 -1.9404728486857443e-02
      -1.6954257804262234e-02 2.6013086473315919e-02
      -9.0241948514703380e-03 1.6728422877516174e-02
      2.9227799635242872e-03 1.7442373063316710e-02
      -5.8628055149852155e-03 -4.2252547757347025e-03
      -2.0364440243198736e-02 -1.2700551297164018e-02
      2.2126144890796975e-02 6.2618302552223930e-03
      5.0873157633425353e-03 -6.2720432827081240e-03
      -6.2774850442581850e-03 3.0844440069524588e-02
      1.6466737634362766e-02 -2.6016393120135393e-02
      -2.8107007376566299e-02 -3.0932363942112535e-02
      -2.1771354604615073e-02 -2.0882514751297447e-03
      2.9771911845453379e-03 1.9108734583271704e-02
      3.0642653912525846e-03 1.5244326051702521e-02
      -1.8218906683068036e-02 4.2118171205724642e-02
      1.7243016154849466e-04 1.9758343972177579e-02
      7.7686984616799244e-03 1.8988113176446227e-03
      -8.6400217926531440e-03 2.2519120583950735e-02
      -3.7653093283305287e-03 -3.8196461060312339e-02
      3.2506229660826377e-02 -1.3255336233667122e-02
      -2.6295393050093877e-03 9.0761876677913304e-03
      -3.7407981490637991e-03 1.8051666578157752e-02
      -2.3634968148081761e-02 -9.9203281518019416e-03
      9.7459696720539977e-03 1.1995862312279840e-02
      3.6330039299424965e-02 6.0846956313982004e-03
      1.2557821102632085e-02 -3.9505615349048825e-02
      -1.2383316446205803e-02 -1.6875685189127437e-02
      2.5230015349808834e-03 -2.9319467649168051e-02
      -1.4044621460973725e-02 9.6954326939902892e-03
      -1.5934815796720184e-03 -6.6026507686615830e-03
      -7.6474459640723984e-03 -2.1333664210721425e-02
      -2.4974415198080822e-02 -2.6128978812193539e-02
      1.2356480979301860e-02 -7.5857340186613331e-03
      2.6603100465617091e-02 1.6459401730353398e-02
      -2.0650951308009799e-02 -3.2106318945143240e-03
      2.7267548939769855e-02 -1.4543946574943076e-03
      -1.6662277766419216e-02 1.7693151271470046e-03
      -1.3939865829298266e-02 -9.5647673347259276e-03
      -2.6178581926049306e-02 -2.1323369289899911e-02
      -2.9545273381924544e-02 1.6218127882120077e-02
      3.4571527094372181e-02 -2.1726698919618710e-03
      2.4760530874334123e-03 -1.1156912665779456e-02
      7.9357424773805994e-03 -2.1651317076609083e-02
      1.1445919434653553e-02 -1.2137633604331986e-03
      -4.5949199450834640e-03 -5.9368199618790836e-03
      -3.8113106945856699e-02 6.9273710085204707e-03
      -6.6639708583445343e-03 -7.7054312345715987e-03
      -4.2374374259404489e-03 3.7150760889018189e-03
      -1.4153300172118157e-02 2.1334382992748625e-02
      -1.4334488452969925e-02 2.7700880591345255e-02
      2.3671321820176398e-02 1.4012326691410457e-02
      -2.4482465967718206e-02 1.2365959424729251e-02
      -1.7430238154795972e-02 1.2595960132439847e-02
      1.5546643933631041e-02 -2.3337710658535724e-02
      -4.0752348691700897e-03 -1.5575919027636307e-02
      -1.2370864103720835e-02 2.4883063256434406e-03
      1.7140353599744160e-03 -9.1391165651946646e-03
      -1.3501152123477047e-02 -1.4825208427737095e-02
      -3.3745989982445185e-02 1.9113197642595621e-02
      -7.3598284078186032e-03 -2.3709364089875676e-02
      -2.2056453506893270e-03 1.4474318204458620e-03
      -3.1202158173257721e-03 -7.0356701166997175e-03
      -1.2146983233856845e-02 6.5329093463896530e-03
      -2.2802838537742849e-02 4.2718111752881906e-03
      -1.1136267085818635e-02 1.3851871004074225e-02
      -8.4481930566740367e-03 -1.5192381671345682e-02
      -1.4344242669019258e-02 -1.2743484627839922e-02
      4.6457943307383013e-03 1.3255867814854742e-02
      8.3041367044572011e-04 -3.1704468698251907e-02
      9.7290743454838350e-03 9.9634265756903505e-03
      1.3795615102103661e-02 3.5175965632526167e-02
      2.8022624634678160e-03 3.3178335884329717e-03
      -2.3022990511195555e-03 -1.0829952390972623e-02
      -1.7859352125598259e-02 -9.6602735171569237e-03
      3.1304443250786296e-02 3.1683397321354643e-03
      2.6331871910027192e-02 -4.6881855251423117e-03
      -2.0331508932798739e-02 6.3787703468936828e-03
      9.3070960024930101e-03 -2.4492815005818284e-02
      -1.5165291269220223e-02 3.7738341883996419e-02
      1.4915153144022048e-02 -2.2018032637258454e-02
      -3.2065103315525863e-03 -8.4487740755327875e-03
      -3.0799577474769732e-02 -3.3083075314622450e-02
      -6.2034403372687816e-04 8.4191764152083993e-03
      -6.0192080654333539e-03 2.3233458937088346e-02
      -1.2718888889007107e-02 -1.2885906386836902e-02
      9.7831367011217349e-03 1.8501897352099182e-03
      -3.0890206675772827e-02 -1.4142050138026864e-02
      -2.9387751118240987e-02 1.3528398362828925e-02
      1.7988809164492237e-03 6.1837116956195599e-03
      2.3111710258356531e-02 7.2652542033340350e-03
      -1.8543829033132425e-02 6.0863168258204481e-03
      -2.6677582824275120e-03 -1.6395843273355887e-02
      8.0773248470295701e-03 8.1916713965441233e-03
      2.6757949747455680e-02 1.6942267230332642e-02
      2.1209622519843596e-02 2.8995882191013893e-02
      -1.7045513686518025e-02 -1.5142542629358713e-02
      2.1613368491921687e-03 1.1241767317959452e-02
      1.3369499227201003e-02 -6.3964732285103371e-03
      -3.0670853502078297e-02 3.1296366450132874e-02
      6.1383728192452414e-02 2.3149023057532046e-03
      -1.9441814993295153e-02 -2.0701505068791315e-02
      2.5579354050023984e-02 -9.2273696637560042e-03
      -4.2070497805127144e-03 -3.8574284153688077e-02
      -1.3625307543121199e-02 -1.1554436263666500e-02
      -1.4769731236136773e-02 6.5932364562019475e-03
      1.8974141679064371e-03 -3.1893007514658782e-02
      -1.6734197346701840e-02 5.8005853438925104e-03
      2.7026453377780355e-02 1.0109906309806623e-02
      3.4024127882364960e-02 2.0483329588581158e-02
      -3.7945512438627531e-02 1.7328979808533349e-02
      3.9106614033377916e-02 -1.1189890346891237e-03
      -3.7105379932611182e-03 -7.0925032402139711e-03
      -4.8280235120882302e-03 -4.4720547580609209e-03
      -1.4049774417670378e-02 -2.7447698692452775e-02
      -2.8076033843179294e-02 -1.8372726091178244e-02
      3.9595701024600326e-03 -4.0192600639570746e-02
      -1.7325820466125907e-02 6.9532472795060512e-03
      1.4604968424142361e-02 -2.1199530447493096e-02
      2.3523737878021804e-02 4.6088240081305050e-03
      -1.8797953679444757e-02 1.8098100658998612e-02
      -2.3503000004502384e-02 -2.0857527646788880e-02
      -3.9250751813530479e-04 1.1650585362150946e-02
      -1.0263172787236062e-02 1.8419237174443742e-02
      2.9806339241682093e-03 -1.5490429639828504e-03
      -2.1883392228310743e-02 -3.9645475665395634e-02
      1.4513697082953292e-03 -2.7327170603647795e-03
      3.2597892316767837e-02 1.0486029308045465e-03
      -2.0883977460020861e-03 -1.7102326425164474e-02
      7.5873402701119594e-03 -4.4267173914241242e-03
      -4.1547855399198651e-03 -1.1025357384260999e-02
      2.2245038826528708e-02 2.0407425995404252e-02
      2.6225688165415047e-02 2.0630198460928149e-03
      -1.7107621401340756e-02 2.7082112446098410e-02
      -1.2817981791199154e-02 1.3181580291819100e-04
      -2.8094322483595533e-02 4.4427195555454945e-03
      8.6772039829240283e-03 -1.8082909915559334e-02
      4.4562108774195940e-02 -3.2273470375592431e-02
      3.5758029042050692e-03 -3.6099721393608238e-02
      -4.5623618872824697e-03 -3.3436191585733258e-02
      -1.1105579874012776e-02 -9.7545403086342873e-03
      -2.8345443584880087e-02 2.9721822098772287e-02
      -3.5537708932490218e-02 6.0621606476169900e-03
      -1.1159094524661489e-02 1.0791024569303023e-02
      9.1163322057451063e-03 -2.8158704266205828e-02
      -1.6188355833028755e-02 -2.6583711209828654e-02
      1.0378188447080224e-02 1.9177960611509910e-02
      -5.8069318346886320e-03 2.7125151419260609e-02
      2.5428078582487700e-02 1.1357391888281599e-03
      2.4711921672544927e-02 8.1984318431455663e-03
      9.4467116437027734e-03 5.1286998931124499e-03
      -9.9234245819629797e-03 4.4530350155583872e-03
      -1.6653206796127052e-03 -3.2715845919763106e-02
      1.0395459603546039e-02 -2.0360732534005697e-02
      1.7581130421993132e-02 -1.6694984656904631e-02
      8.6519954559129090e-03 7.7350716768155667e-03
      2.1628604764884891e-02 -1.3917699812687562e-02
      -2.2804003217914863e-02 2.5198447094255463e-02
      -3.2459877772330011e-03 9.8394663596946576e-03
      7.9136209083371391e-04 -1.2723162568102400e-02
      -2.4763836705215734e-02 -1.3866293675520728e-02
      1.8135753361583320e-02 1.7982226434587489e-03
      -3.0608095107691490e-03 -1.8222136803076175e-02
      2.5505042032693444e-03 -1.9723023709978024e-02
      6.6040721386424776e-03 -9.6663883010085268e-03
      -3.9594174416880313e-05 -3.1518176786214498e-02
      2.0815851675274683e-02 -3.1064355394251012e-02
      1.3580965914128268e-02 -8.4023723074398565e-03
      2.3309928595449288e-02 -3.7130120293754291e-03
      1.4585997742138961e-02 -9.5723192780868271e-03
      -1.4715497382910583e-02 -1.1686225093248940e-02
      -1.2846727672929933e-02 -1.2456579793175750e-02
      -4.6995893134365420e-03 -1.0601375651235929e-02
      -5.2523756862445960e-03 -2.1446623447099827e-03
      9.7956897414707041e-03 -1.3978293313368716e-02
      -6.6590206093121218e-05 -2.4564921698884867e-02
      3.8911483868011090e-03 -5.6785588390070810e-05
      -1.3952298617058772e-02 -9.9590491990502999e-03
      -1.5610018492332961e-02 4.5438282807430935e-03
      3.9437827279254992e-03 1.1213953585604507e-04
      -6.9360382127797542e-03 -1.7056572061040994e-02
      -3.5561697605346215e-03 7.5494696214677276e-03
      2.1653895818040444e-03 -3.8648120226023640e-03
      9.8640375874375404e-03 -1.5849983361723854e-02
      -6.8298463613166176e-04 -1.6150292425744905e-02
      9.4402460369750023e-03 -1.3137958826796520e-04
      6.5075002698789536e-03 2.2460815426597183e-02
      7.2126750160952510e-03 -2.3823652329271132e-02
      1.3447599251042138e-02 6.3273509380470669e-03
      1.1135233338230195e-02 9.6762847010059168e-03
      1.9905259577867922e-02 -5.7269680096580624e-03
      -2.6597692973688448e-02 1.4598350884809682e-02
      -2.4865975849991152e-03 1.0358543643048768e-02
      1.1568899422565447e-02 1.3913589591856968e-02
      4.7235038852728528e-03 1.4840531552947234e-02
      -1.8563544132107548e-02 8.0030803941013307e-03
      2.7722848487035715e-02 -2.1690976322699035e-05
      -1.8108067529850301e-02 3.7494566027792338e-02
      -1.4703498904826780e-03 3.6233346518567422e-04
      1.1455501381776425e-02 7.9364663658504607e-03
      7.8335866053096906e-02 2.4220329144086079e-02
      -9.0376024892446186e-02 -4.7067247764591369e-02
      1.6861204299611837e-02 3.7171943958045059e-02
      -3.2742800519838078e-02 -4.4295975164859232e-02
      1.5298272511414149e-02 -4.4543679299403227e-02
      2.3507025848517782e-03 -4.0806508308985349e-02
      1.7518931288267894e-02 -1.8832911123663556e-02
      -8.2558063283599867e-02 -5.3638865394323818e-02
      9.1723874181842566e-02 6.9201276111376553e-02
      1.0534427453628142e-01 2.4286493633058563e-02
      -3.5503372671589532e-02 5.4207495963950560e-02
      4.4619269657972166e-02 2.4133148199638001e-02
      3.4674656877199790e-02 3.1467848704295004e-02
      3.0969744264021256e-03 1.6953736913056478e-02
      -5.4182054217106507e-02 1.4382974142920244e-03
      -3.2560398637172826e-02 -7.2227111495894697e-02
      -5.4104044100620356e-02 -5.9025884271312258e-02
      -1.7026741639609148e-02 -4.8031617811496868e-02
      9.7080323832625423e-02 -2.1761991664943595e-02
      9.0781323131452485e-03 1.7873857100922874e-02
      -3.6180915201375979e-02 -1.9970141571391521e-02
      -6.8389498437488844e-02 -2.9782713652627857e-02
      2.0372760131875940e-03 4.6375517517437848e-02
      -1.6626788343429691e-02 -1.2265865391227156e-02
      -8.5136188931059752e-03 -7.3302984369615992e-02
      -8.1367740172210740e-02 -7.8323921093760601e-02
      1.9172330292000883e-02 7.6692591648667999e-02
      6.3220173569097371e-02 3.3829810615843017e-02
      -4.9918433358352486e-03 -2.1558355075712091e-02
      -1.3625181864860137e-02 -8.7750636042242488e-04
      -1.8523175676842012e-02 8.3568848494848455e-03
      3.9420937509928998e-02 3.6811105863692128e-02
      6.7240463230132275e-02 2.6271793782017716e-02
      -3.8694472251503499e-02 1.6377444397361364e-02
      4.2469496872168310e-03 -5.9335121601488829e-02
      -5.6885103485351918e-02 -3.2449798608590243e-02
      2.3159991044645247e-03 -4.2713057720303087e-02
      8.0133047496445578e-02 -4.7139752678446105e-02
      2.5385550167632762e-02 -3.8234062537492161e-02
      -3.5752223562022331e-02 -4.1931972128750147e-02
      -4.1931256773743125e-02 -2.6850958706911395e-02
      -5.2370842082680433e-02 2.3059081315808409e-02
      -7.3259199101440867e-02 1.1012096341672290e-02
      2.3535494015694061e-02 1.4326921618942169e-02
      3.0806913203749689e-02 -8.9594848042834296e-02
      -1.2937192627636904e-02 -6.0802826202707938e-02
      1.2123064996099947e-02 -1.2086078535784682e-02
      -1.6867371116216227e-02 3.5516204289622676e-02
      4.7617842439864819e-02 -5.6092784827692165e-02
