<?xml version="1.0"?>
<opencv_storage>
<opencv_ml_ann_mlp>
  <format>3</format>
  <layer_sizes>
    9 100 100 7</layer_sizes>
  <activation_function>SIGMOID_SYM</activation_function>
  <f_param1>6.6666666666666663e-01</f_param1>
  <f_param2>1.7159000000000000e+00</f_param2>
  <min_val>-9.4999999999999996e-01</min_val>
  <max_val>9.4999999999999996e-01</max_val>
  <min_val1>-9.7999999999999998e-01</min_val1>
  <max_val1>9.7999999999999998e-01</max_val1>
  <training_params>
    <train_method>BACKPROP</train_method>
    <dw_scale>1.0000000000000000e-03</dw_scale>
    <moment_scale>0.</moment_scale>
    <term_criteria>
      <iterations>100</iterations></term_criteria></training_params>
  <input_scale>
    3.3005905332724086e+02 -5.0115025457240864e+02
    1.2274557085305362e+00 -1.6457542577256785e+01
    6.9491071963260631e-01 -1.8655105528671752e+00
    2.0076218884374191e+00 -2.9008259931076115e+00
    1.2941064150621819e+00 -9.4018040333423215e+01
    1.5368862246264623e+00 -7.6391863505230684e-01
    7.0431240593968547e-01 -6.3084998951485485e+00
    2.0159006982415106e+00 -3.5287682629113504e-01
    1.0286925707746780e+01 -5.8645090354483120e-01</input_scale>
  <output_scale>
    5.2631578947368418e-01 4.9999999999999994e-01 5.2631578947368418e-01
    4.9999999999999994e-01 5.2631578947368418e-01 4.9999999999999994e-01
    5.2631578947368418e-01 4.9999999999999994e-01 1. 0.
    5.2631578947368418e-01 4.9999999999999994e-01 5.2631578947368418e-01
    4.9999999999999994e-01</output_scale>
  <inv_output_scale>
    1.8999999999999999e+00 -9.4999999999999996e-01
    1.8999999999999999e+00 -9.4999999999999996e-01
    1.8999999999999999e+00 -9.4999999999999996e-01
    1.8999999999999999e+00 -9.4999999999999996e-01 1. 0.
    1.8999999999999999e+00 -9.4999999999999996e-01
    1.8999999999999999e+00 -9.4999999999999996e-01</inv_output_scale>
  <weights>
    <_>
      -1.7466766555566332e-01 1.8937298990402618e-01
      1.0738450695736564e-01 -2.0235256011406705e-01
      -1.8238614145281704e-01 -1.0529872897578910e-01
      1.1892775873726344e-01 -1.7795608051504369e-01
      -1.9895534522412298e-01 -1.4467958442617387e-01
      1.4188024072506480e-01 1.9822281028147523e-01
      7.2960968412278365e-02 5.9536386247449696e-02
      1.3887261103465204e-01 1.7591554895471626e-01
      -1.4390218114454661e-01 -2.0314727496756418e-02
      2.1712152137860402e-01 1.3085901287229426e-01
      1.6581750947325971e-01 -1.6084831156670018e-01
      1.1706034558725163e-01 -2.7102931725669999e-01
      -1.8073996946259355e-01 1.6576560316466449e-03
      1.7891014152381413e-01 -1.8176078510179886e-02
      -1.9178653264881701e-01 -4.1827787350638648e-02
      -4.6247182546357360e-02 1.2995402914109486e-01
      7.7730532233412697e-02 -1.2096494189693038e-01
      5.2379142349730139e-03 -1.5395134975541516e-01
      1.5547454797754412e-01 3.1738545493348778e-02
      1.3163657496678124e-01 1.7728904154047714e-01
      9.1967133239728230e-02 1.0470615779371284e-01
      -1.6084567798389954e-01 -1.5159052427918705e-02
      -1.6808645463110458e-01 1.7308007200230155e-01
      -7.4766125745652126e-02 -1.9815986094310856e-01
      -1.4838438877723176e-01 4.1192101890936569e-02
      -1.5035105620681552e-01 6.3824754309034351e-02
      -1.8108287919570756e-01 -1.6866891337918161e-01
      -2.5267920314206865e-01 2.8590594813020981e-01
      -9.6894735798884787e-02 -1.2175965388932465e-01
      1.3850075480839705e-01 2.0099294134550347e-01
      -8.5942428276890817e-02 -1.6901205533096844e-01
      -4.6591274043682723e-03 2.1877077544397061e-01
      -1.4112234365557064e-01 1.6466933655119198e-01
      5.4083236829699115e-02 -7.4704486110980794e-02
      -6.4425171799813261e-02 1.4172261540812958e-01
      -1.5245055748710348e-01 1.5151664801845025e-01
      1.0983729110899718e-01 2.9454609365163875e-01
      5.8381444619978150e-02 -4.5061550111059313e-02
      -8.3448235597881504e-02 -7.8284009065847732e-02
      -1.0266083682412658e-01 -2.8333039365790527e-02
      5.5191665790090001e-02 1.9479663309421508e-01
      -1.6606366719973459e-01 3.4633458096367836e-02
      -2.1436071142473334e-01 1.0928978183602420e-01
      2.4924091276596377e-02 1.7607471227890206e-01
      1.2311616141234243e-01 -6.0790313999815541e-02
      -1.1146841171850178e-01 -5.0807356849465551e-02
      -2.3389597273243010e-01 8.9497689708477698e-02
      2.7130171115562447e-02 1.7360252717902802e-01
      1.6489084924623906e-01 1.2771075564532064e-01
      -3.5512262274229683e-02 -4.2734155212203931e-02
      3.5272217434866866e-02 2.9980656290529900e-02
      -1.0121135132419677e-01 1.0935058211425293e-01
      -1.4117949715480146e-01 1.2854864843044511e-01
      -1.3201873598781683e-01 -1.7307142444528034e-01
      -1.5564474756740790e-01 1.0669692053502522e-01
      2.1428625293699247e-01 1.4499925286021381e-01
      -3.1426026155376117e-02 9.9654266304058645e-02
      7.7001396695100893e-02 1.6165183370949759e-01
      1.2532493307545567e-01 1.3795107580866778e-01
      -3.5921108694809162e-02 3.9798219230378906e-02
      -1.2431982326769400e-01 3.0072570918292527e-03
      1.4904406560247677e-01 1.8143003128881682e-01
      -1.8745655999604893e-01 -2.1891201453529571e-01
      1.1751825021512945e-01 1.7321593541562771e-01
      -6.5903261243412600e-03 1.5440460994060320e-01
      2.2541800237920930e-03 8.6743985754965225e-02
      3.5518161499568622e-02 -1.9474248826681542e-01
      1.4169650808975548e-01 -2.7324045326864489e-02
      4.5551228566703607e-02 2.7245840014236467e-01
      3.5593439073885506e-02 -7.3007406532480029e-02
      2.0144725131792873e-01 5.0187546600222455e-02
      -1.6740520950154364e-01 9.3853316093413061e-02
      -2.1930720591607042e-01 -2.1147155462431813e-01
      2.3108909825775273e-01 6.4670736216040012e-02
      -1.5605199497291097e-01 -1.8904115732626248e-01
      -1.7841630038850165e-01 1.0306171644412250e-01
      -1.1488783010388050e-01 3.3684058312082613e-02
      8.3388533025835422e-04 -2.8311242483673112e-02
      -4.6045004087530064e-03 2.0447991470904864e-01
      -1.6160799054628278e-01 -2.2381589537382365e-02
      -1.7467817289875659e-01 -1.8557870417742670e-01
      -2.0162105958071230e-01 3.5229258274721439e-02
      1.3136311860616071e-01 1.0453621438945240e-01
      9.3566391991560929e-02 -9.9845098674157667e-02
      1.8751089994311951e-01 -1.1739000518277248e-01
      1.4996370376558812e-01 1.2695774057820985e-01
      9.0942954346031807e-02 -1.1849676559393020e-01
      8.8968913445369016e-02 1.0868999758123481e-01
      -1.3063922418793780e-01 2.6715665835113539e-01
      -1.3400709245534026e-01 7.4113877336991166e-02
      -1.6956353097006152e-01 3.6509343089151561e-02
      8.3113575593047578e-02 5.0742299158292072e-02
      -1.3405728801389263e-01 1.0980486573121261e-01
      1.7650337081873774e-01 -1.4558503262577099e-01
      4.9127651242444219e-02 -1.9687890474410763e-01
      1.7508091975336829e-02 -2.2750674711892405e-02
      2.0606402952689665e-01 -1.7445042379096926e-01
      1.3967973166247274e-01 -1.1910960928674736e-02
      1.5718422726715764e-01 7.9669107443989737e-02
      2.2166717639643713e-01 -1.5367736708292726e-01
      -9.0416303571797516e-02 -1.5509589741698199e-01
      -2.9774731265877461e-02 -4.8935970275481536e-02
      5.0354132708078196e-02 -5.2698170139727406e-02
      -8.9622405640406869e-02 1.5620998489081711e-01
      -6.7288365288100296e-02 -1.7098418228194839e-01
      1.1982541106624918e-01 -8.9778315343566215e-02
      1.4909665475530126e-01 2.0319993008777160e-01
      -8.3688582727549615e-02 -4.1991756217743800e-02
      -2.6029736979226109e-01 7.5883149578233663e-03
      8.1739341057187557e-03 -1.9733898863385022e-01
      2.0006991353806064e-01 1.8684220040972890e-01
      -1.4801395302504003e-01 6.9592590393780490e-02
      -7.9766938733382586e-02 -1.1609283880601690e-01
      -3.6602322746964150e-02 4.0332529148932518e-02
      -2.0210935633691032e-01 8.6181856372455595e-02
      8.8391866020162135e-02 1.6093495464786467e-01
      1.2572257880678250e-01 -3.7787496664658159e-02
      2.1304491728163219e-01 1.5229653449448882e-01
      -1.1563476294376264e-01 -5.6948644282351378e-02
      2.1790924291093558e-01 -2.1106915317216721e-01
      2.0214903251221536e-01 1.9473069152074693e-01
      2.0413652447732836e-01 -1.0103182383649664e-01
      6.1785741182571921e-02 1.5308226929761448e-01
      -2.1877251145818646e-01 2.2828663799804326e-02
      3.7476346080781091e-02 -1.1348541100924781e-01
      3.1636023326599291e-04 1.1965408071791020e-01
      1.6506067730315305e-01 1.9342958155639134e-01
      -3.7520028901045374e-02 -1.4702508353931626e-01
      1.1262902775115081e-02 -3.8467963776246825e-02
      -1.5831669699177053e-01 4.4191415878812763e-02
      1.5820012743207776e-01 1.6226472066466543e-01
      -9.8205869211856270e-02 1.1017473851501297e-01
      -1.1588348122120502e-01 -6.9193497034894330e-02
      1.3098536916305351e-01 -3.3442202856370090e-02
      1.0883109273729863e-01 -1.4513728380130780e-01
      -4.1955599269210393e-02 -7.7527931029869560e-02
      5.8853628896202236e-02 -9.6976988085579502e-02
      -2.9328284903466346e-02 2.4403082053760020e-01
      -7.4868095775163832e-02 -8.7134673868112869e-02
      -1.0112601525246252e-01 1.9677240588173928e-01
      1.4885648589504613e-01 -1.2826663850990838e-01
      -1.8058580542524497e-01 -1.5383091549410385e-01
      -4.7376235342494979e-02 4.1268705293448496e-03
      2.7115666661160054e-01 -8.9506354199963181e-02
      1.4873689895358391e-01 1.3712474240405442e-01
      1.3076082808872580e-01 -2.0889279346802139e-01
      -1.1008707787292256e-01 -1.2550160268590746e-01
      -1.7493525496574450e-01 -1.8423932813428209e-01
      -1.3113285614198739e-01 1.3058024005049176e-01
      4.5879691933341810e-03 -1.0496523358342411e-01
      -1.7296570607725342e-01 -1.4725423695624695e-01
      -1.2866389869361775e-01 1.0989565219435182e-01
      1.1704866122445061e-01 8.4787830551030299e-02
      2.3687168304458675e-02 -1.1862335264223309e-01
      -8.2121377027014414e-02 -6.1415101241039348e-02
      1.0540523248435327e-01 1.5855210245894918e-01
      2.7529261690381629e-01 5.1721601399446746e-02
      9.4633214898822024e-02 1.7719492727320504e-01
      1.2818788320422678e-01 -2.4391705728707502e-01
      3.1521784818614701e-02 -1.5941428775392391e-01
      -1.7938975721938911e-02 2.2233012575395847e-03
      1.3314288805827432e-01 -9.8685474813094795e-02
      -1.4183373993873141e-01 2.2147710743422411e-01
      -1.0283418736381214e-02 -2.4858606785241444e-01
      -1.5476928241733873e-01 -7.6336957018443771e-02
      2.4614360144352751e-01 2.1041237728164432e-02
      3.0614129403993925e-02 9.9762949151477043e-02
      6.4735808040477461e-02 1.2420946457846020e-01
      -1.4585732361518072e-01 2.9675178917403805e-01
      -2.2525390179741903e-01 1.1499717266257009e-01
      -1.9314951790552634e-01 1.1858695416882510e-02
      3.6729033485367914e-02 -1.9067286890187379e-01
      -6.1321066999870930e-02 -8.5017030581872651e-03
      1.2358922494615304e-01 -1.0165572683534546e-01
      -1.2815605561138266e-01 -1.6388251929742306e-01
      -1.5401999072006611e-01 -2.6328404108669690e-01
      -4.9842877832698054e-04 1.0573366947614890e-01
      -2.7434258267235628e-01 -7.8852670077475609e-03
      2.7421742886867662e-02 2.6220593777039974e-01
      1.2130990410028679e-02 -1.8127117923839386e-01
      1.7095390118726217e-01 1.5326831980367550e-01
      -1.1152563389928140e-01 2.0632545164645214e-03
      7.4156471027694126e-02 -1.6445212348392416e-01
      2.0889956703136087e-01 6.2749398825053218e-02
      7.7738076353498081e-02 1.3324101319760850e-01
      2.4941230070114812e-02 -2.2007449764380588e-01
      -1.1497058706081877e-01 9.1919972414456305e-02
      -7.7509464791273214e-02 -3.6117946535260501e-02
      -1.4299201658866556e-02 1.3174330546964327e-01
      -6.6333201951252821e-02 -1.3963655877543871e-01
      -3.3105759552838655e-02 -7.6760109204566815e-02
      8.3724566798676001e-02 -2.1704668237515690e-01
      -6.7196634410768327e-02 -1.3331669651648009e-01
      9.6875605437394000e-02 3.3299433982604147e-02
      -8.9142615062511352e-02 -1.0223855049188757e-01
      2.5332508522803820e-01 1.2193644177083691e-01
      5.8004033401524581e-02 -1.9926924244758062e-01
      1.4783238569965712e-01 1.2444191250340218e-01
      9.3216244072776802e-02 -2.6175264285008309e-01
      8.8257868689143898e-02 -8.8886032624685071e-02
      -1.5568517925088496e-01 -1.0463712918134120e-01
      1.0325238836758911e-01 3.6021851590130112e-02
      -1.6865060177551242e-01 -2.4854706466327248e-01
      -1.0439445541353526e-01 -1.3933205205768284e-01
      -1.5251350266351141e-01 -9.5042678711494924e-02
      -1.4345192464199083e-01 7.1139763015448471e-02
      -2.3507525490901834e-01 -1.3288348539451995e-02
      1.9849066638874230e-01 1.8143987657337976e-01
      8.8679084497045826e-02 -7.8943546313250693e-02
      -6.2910337933949484e-02 1.9906823764453194e-01
      5.3085121500370848e-02 -1.6037645101138756e-01
      7.1897331738267817e-02 2.0308314028418084e-01
      -1.0575452130841745e-01 -2.3327435894927948e-01
      -1.2475651188236593e-01 1.1176910582643844e-01
      -2.0160293405510205e-01 -9.1963765531624483e-02
      -1.7325912692157547e-01 -1.5390792384742963e-01
      -2.8789439601423039e-01 1.3272591383117138e-01
      -4.2891375836026015e-02 1.8195514703115293e-01
      1.7179154698569318e-01 1.1991621853771504e-01
      -1.8693439133183681e-01 -1.4860194671356616e-01
      -8.3516889078549525e-02 -1.6230404298371859e-01
      -5.5527757752495563e-02 1.8528808953973577e-01
      -6.4552802463205602e-03 -7.9237837168895875e-02
      -2.7433451054700724e-02 -1.7436709690962565e-01
      -1.7882872568407016e-01 -1.5326715934327609e-01
      -1.5409009669906118e-01 -1.2689396162741537e-01
      1.9878208207895715e-01 8.9945182146772606e-02
      3.4547522785081795e-02 -2.2465311074368516e-01
      1.9102602755251744e-01 7.8421486619509317e-02
      5.5727221686040225e-02 2.2385746978976007e-01
      5.5660048569209621e-02 6.1720240073335229e-02
      -2.0076021081598339e-01 2.4151405096335121e-01
      8.2786113582623833e-02 1.8300552491872382e-01
      -1.6697339437173342e-01 -1.9609832872996827e-01
      3.4802306463139018e-02 -1.6594061981466449e-01
      3.4477687644641908e-01 -1.1489366995872309e-01
      9.9573189618097996e-02 1.0753005246696520e-01
      1.0761229446999739e-01 2.4118629404249636e-01
      -1.8696676526306102e-01 -2.4381594603487594e-01
      1.3018235670148409e-01 2.0230089282423522e-01
      9.1844406693966540e-02 -5.2640097963838166e-03
      1.1853056645739368e-01 -1.5461452054127015e-01
      1.2492202500024185e-01 -1.8767765709902670e-01
      -4.0207053022630578e-02 2.2864971978432420e-02
      1.7152581329702354e-01 -1.4404673683286093e-01
      1.1772457480094303e-01 8.3800888719114161e-02
      3.0675235846677341e-02 -1.1147864760870703e-01
      -1.3835141969403886e-01 1.0176869502949512e-01
      1.5316234866859818e-01 7.3566510907283264e-02
      1.7901112592440993e-01 6.0655324180330830e-02
      -1.1728153429283979e-01 -1.6469730228332791e-01
      -1.5190838428895409e-01 -1.7004628215536238e-01
      1.9122238578153741e-01 -5.9309161402038672e-02
      -1.3777533671621481e-01 8.4365645392298957e-03
      -1.0547370878381900e-01 -1.1582943126941435e-01
      -2.1423056939108370e-01 -3.5968342981402002e-02
      -1.0587407217167545e-01 2.0899403461683433e-01
      -1.6302290467438108e-01 2.2374957695146611e-03
      -5.0873605805662976e-02 1.8691427490539028e-01
      1.7251813889863218e-01 1.0447314672783446e-01
      -2.1930143766794105e-01 5.3140909955910115e-02
      1.7751943181138308e-01 -1.5619132171676411e-01
      1.1376388985729882e-01 -3.6441017528215484e-02
      -1.4147922652084213e-01 -1.1820067384931079e-01
      2.5662797367780550e-02 1.7885532967069284e-01
      -1.2605565584243239e-01 1.4217009364095187e-01
      -2.7414334839889443e-01 1.8854497381304583e-02
      1.4085688487988440e-02 1.4820983958325948e-01
      -2.7228853173799622e-01 -7.7985681792890421e-02
      -3.2052778084385163e-02 8.9031644965787957e-02
      4.6096541769467439e-02 -1.0794853741576504e-01
      -7.8789212160341363e-02 8.9526351488690120e-02
      1.5228837403545634e-01 9.8942837042880732e-02
      -4.2187207645024635e-02 1.3764951567089448e-01
      4.0115957253904697e-02 -8.4403560401165673e-02
      4.2426497983777255e-02 1.8671090259000853e-01
      -1.1581782153728606e-01 -7.1905265289295070e-02
      -2.8481386587806079e-02 6.4291354917518806e-02
      1.8226592092998795e-01 2.4164347766347374e-01
      1.6465377400130290e-01 -1.5959929490979161e-01
      9.9297630637124532e-02 -1.8247758920091259e-01
      -7.6005675468581946e-02 1.1519138443587770e-01
      -1.3335597712505257e-01 1.3985793279635711e-01
      -1.0203205690389003e-01 1.3195577496226332e-01
      1.6393762112859916e-01 7.7524069941657101e-02
      -3.6647429524058729e-02 -2.0517164101972216e-01
      1.4864864609324457e-01 1.1535469022430023e-02
      2.2910564839120812e-01 -1.1746401173953759e-01
      1.4796439825193639e-01 -4.1389030739739152e-02
      1.6309470481531566e-01 2.2698343756084141e-01
      -1.1449847503428794e-01 -1.0819225972341123e-01
      -1.5138645852462160e-01 -7.0619078977394570e-02
      -8.9194143285404592e-02 1.3904377514592539e-01
      -2.0478896729661050e-01 -1.3238722670784531e-01
      -1.2704209198063207e-01 -1.2101518058288989e-01
      8.0324353838411772e-02 -1.9796665737525504e-01
      1.8151350681016029e-01 1.4647259445910469e-02
      1.4627921646577088e-01 4.3550946298754271e-02
      -1.5143701712061336e-01 -3.6931591758894738e-02
      -2.4436686380803854e-01 -1.9103156174554276e-01
      1.3773739086289064e-01 -1.2419282499616396e-01
      -1.3516885289362965e-01 -9.6390646625039419e-02
      -3.6928170509599734e-02 -6.6631390139031244e-02
      1.7066883736986943e-01 9.5102432466793244e-02
      1.9308839368462494e-01 -1.1344330203474169e-01
      -5.3351666791527440e-02 9.9623368738625331e-02
      -3.5084826529999148e-02 7.9962528848696118e-02
      -5.1623580583385842e-02 -1.0846446701330525e-01
      9.9832981433018969e-02 -2.1721625628418759e-02
      -2.3155721751293926e-01 9.1274836750084177e-03
      -8.3936504956362637e-02 -1.6846012239101243e-01
      -6.9899341150119212e-02 -1.7221210979067739e-01
      1.6864969045881008e-03 1.4255216108606128e-01
      -7.4337860034187200e-02 1.6151811065797464e-01
      2.2742065960873532e-02 -6.7805842263863311e-02
      1.5144390153155265e-01 9.0484293446624189e-02
      1.4231995351925070e-02 1.7848010567688727e-01
      2.4347305722416060e-01 -1.1686051047027754e-01
      -4.5758643411855288e-02 -1.4767425353079594e-02
      1.6412476440297716e-01 -1.3088324971890533e-01
      -1.3133996546530341e-01 1.4491992865768116e-01
      9.9252292023704947e-02 2.1212897408262840e-01
      1.8431192045603495e-01 1.7081343916143213e-01
      1.0787780551069596e-01 -6.0562312942911437e-02
      -9.5255784829883283e-02 6.1438480713640206e-02
      1.5607311511181407e-01 -1.2786392814262934e-01
      -2.4981511317142374e-01 1.5448803660002738e-01
      -8.1941305919596780e-02 9.5201046638977091e-02
      2.1261531215936580e-01 -3.5278400486001622e-02
      1.1849248600129673e-01 2.0644221692868517e-01
      6.6046455767192952e-02 2.1453179765210221e-02
      -1.5429887720462374e-01 1.2724135384220656e-01
      1.1481276076118142e-01 -1.6043272840617867e-01
      -8.4682905637715924e-02 1.3842876774372279e-01
      1.3748024465615302e-01 9.5984747213325117e-02
      4.9902493274444959e-02 1.0222439618960277e-01
      -1.8787368297138607e-01 4.4808838870712436e-02
      -6.2353201961107850e-02 -2.0660982992312285e-01
      -1.4252520848717060e-02 1.9201604284207191e-01
      -1.2466034240686448e-01 -1.0002331109337842e-02
      2.3820911322718966e-01 1.6287237537766242e-01
      1.1145775430996195e-01 1.5873417000408407e-01
      -3.8361712041521875e-02 1.0224175612489017e-01
      -9.6791474641632777e-02 1.7122184355269018e-01
      1.5827667483151703e-01 1.5238277208699200e-02
      -8.5040570717889050e-02 1.8261412854773476e-01
      -2.3764269401007117e-02 4.7803564951199813e-02
      -6.7114854696005671e-02 1.7969065619249677e-01
      9.2319428210396182e-02 -1.2939002238435413e-01
      4.9746193696801354e-02 -1.0908505230719220e-01
      -8.7998036339644967e-02 -3.8909838985382726e-03
      -1.4278103120884164e-01 1.8593916163180313e-01
      -1.4018112940379737e-01 -1.6534053043839869e-01
      -1.4418007837642297e-01 -8.4662172732819771e-02
      -2.7035532113279751e-02 1.3296897107251951e-01
      4.3530637133712545e-02 9.2411069214154526e-02
      -5.0099695097071399e-02 1.5629678623487600e-01
      1.8648003508483130e-01 -1.1103792121689504e-01
      1.7044292631233987e-01 -2.1084052863685848e-01
      1.1266398338946197e-01 9.9051738710643572e-02
      -1.7469981172919674e-01 -1.9589533354859304e-01
      -2.1166444126142342e-01 2.2040746102549517e-02
      1.1857220961023224e-02 3.2588653011178761e-02
      -2.0700801901676794e-01 2.1511633062897756e-01
      -1.4836191756157449e-01 8.7759334868211872e-02
      1.5805572108760968e-01 -1.2093354591489025e-01
      3.8782178549360002e-02 1.0307870609000946e-01
      -1.8240960310007717e-01 -1.0960447220497595e-01
      4.1830044738866111e-02 -1.8418991255952962e-03
      -2.5204046992001912e-02 1.7357778976883853e-01
      5.6657259086767157e-02 -2.1589169224697549e-01
      -8.6671942092474558e-02 -1.5412643478717078e-01
      2.8350511139236421e-03 3.1983925213193909e-03
      1.0091783655282332e-02 -1.2937037285094133e-01
      -9.5438255274711045e-02 -2.7467992988891968e-02
      -9.2646373028351742e-02 7.0891919026255079e-02
      -8.3144209351042636e-02 -1.8928814274582928e-01
      -2.3293910257602551e-01 2.9221413736649648e-01
      -9.9431520944663551e-02 -1.1178202093075462e-01
      3.3949813735407113e-02 -9.5315584524051422e-02
      -2.0704454908330401e-02 6.4041501378740906e-03
      -2.1949458704946544e-02 9.4650483610730390e-02
      -1.4911354344682631e-01 4.3158321975489324e-03
      1.5024114718744533e-01 1.5150142505565264e-01
      -1.4889055318341105e-01 9.9610817264627283e-02
      1.7267341599944561e-01 -7.5969302266246271e-03
      -2.2465509488519000e-01 2.5077653184516774e-01
      1.9705379113211302e-01 -4.3325960089093660e-02
      -2.1665289044340297e-01 8.6404714707740467e-03
      9.8372737096001153e-03 -2.4556383833960543e-01
      -1.2112785351107366e-01 1.3298654387113845e-01
      -7.2223441034723487e-02 -1.1701112111775948e-01
      9.0024935819128585e-02 -1.6677181743808178e-01
      7.0309314927599245e-02 -1.0756155757103267e-01
      1.2200943085135958e-01 -1.0148093228657162e-01
      2.4097511229743174e-02 5.9665840558728124e-02
      4.1759563964300861e-02 -2.0718855386871024e-01
      -1.2111205723466377e-01 -9.9262246458447279e-02
      5.3888417322715966e-02 2.0217700157217677e-01
      9.5805825559705668e-02 -1.1750735752201860e-01
      -1.0486212510543474e-01 -1.0253551324757962e-01
      1.3092182257790944e-01 8.6888597679213600e-02
      6.5073644722051432e-02 1.5285258546881306e-01
      1.0021037858222705e-01 9.6206087885561120e-02
      -9.3598885671968848e-02 9.1441081637325505e-02
      2.1022881721459611e-02 -1.6158968401761056e-01
      1.4540408575594335e-01 1.6855417008459642e-01
      4.6927161788483877e-02 1.3324759036226660e-01
      -1.7515573812826632e-02 1.0770081235882820e-01
      -1.8066187931556693e-01 8.8142374557733882e-02
      1.6398531343704607e-02 1.3375709024106028e-01
      3.8055373922395816e-02 -2.4639793925955202e-02
      2.2685752902937104e-01 -6.1518800101968502e-02
      -1.4892938896623864e-01 -6.1884316539039592e-02
      1.2399752321635334e-01 -2.9227720369986354e-01
      -2.7298541229354448e-02 1.1113055972380342e-01
      -1.6810554114610579e-01 1.4642209464874861e-01
      1.0224527705516986e-01 -2.6090127494543335e-02
      8.9282806302546078e-02 -2.1349881046418084e-01
      -3.4590432789137128e-02 -1.2482336132405540e-02
      -6.8314970581880449e-02 2.9184766445617769e-02
      -1.5483760962235982e-01 5.0782255884257915e-02
      1.8458264282537040e-01 -1.4153230405639486e-01
      -2.4121158874615792e-01 1.5212834309565373e-01
      -1.5709883548840900e-01 1.8826311824018077e-01
      1.4453053586718775e-01 -1.8080895572756786e-02
      3.9036428069157775e-02 1.7924506818397520e-02
      -1.5727251430705597e-01 -7.5796306401966787e-02
      -2.1207020022020728e-01 1.3942786595779810e-02
      2.2648639093636092e-01 -6.6581239893229852e-02
      -1.8661234178041958e-01 8.3852358440983724e-02
      1.6214553093385276e-01 1.0490692587188508e-01
      1.1097684537563254e-01 4.4450824050260199e-02
      -7.9345663924900209e-02 1.6240807843818894e-01
      -1.0040137739155391e-01 1.6050077131371326e-01
      5.5204520431662338e-02 -7.0215242000765982e-02
      2.4927743700221456e-02 -1.1291152641292519e-01
      1.6894230888347786e-01 -1.1415732382631509e-01
      1.8671602643369986e-01 4.0832377598869353e-02
      -2.0153820901042302e-01 7.6427027702259910e-03
      -6.6777496031720410e-02 -1.8975040598014567e-01
      -1.2963237574973224e-01 -1.1987193066596269e-01
      2.2296366997466280e-01 -7.2432628710537003e-02
      -8.1061969697520386e-02 -1.4611074074009398e-01
      -1.0994910351887330e-01 -1.8069916410279113e-01
      2.4756975851678822e-01 1.0666610818284701e-01
      -1.2037187371391946e-01 7.5917299558715470e-02
      1.1352312057322883e-01 1.4185466104491981e-01
      -4.1860400351527577e-02 9.4993905865026887e-02
      9.7691298016414657e-02 -1.5101942096243626e-01
      -1.0058260876606373e-01 4.7796144330038107e-02
      1.0267822743797374e-01 -1.2252501957021388e-01
      -6.8850769735235809e-02 -2.6014368733019790e-02
      1.1018410917981912e-01 -2.3209418102896843e-02
      3.6302507732574950e-02 -5.2164791325604559e-02
      -1.1623628849119390e-01 -8.8781622188643217e-02
      -7.4329702123646563e-02 7.0729605649281047e-02
      -3.7477795302529190e-02 3.7975920586208578e-02
      3.1474492751573088e-02 -9.8651505619563748e-02
      -1.1782948113090119e-01 -7.1369422679733133e-02
      4.3230890552125902e-03 -5.5882206146688547e-02
      -5.6061167120871214e-03 -1.0371459247414366e-01
      -8.6852650082174410e-02 -6.8979089759862125e-02
      -1.9891246639310887e-02 -6.6972752820139330e-03
      2.1529464135013941e-04 3.6065439006068963e-02
      -4.1075391826420414e-02 3.4660354685060032e-03
      -4.2398308291897394e-04 3.9483316420835968e-02
      5.7512452694726095e-02 1.1553806311981897e-02
      4.4329545171811278e-02 2.5573541238743946e-02
      -1.4631906001224215e-02 -2.6608591002202062e-02
      2.1773959144371934e-02 2.3189183428318445e-02
      2.1036878350979922e-04 8.2691929269998431e-03
      1.4716000595863508e-03 1.2837464338205609e-02
      1.6840913165802051e-04 -7.2288933523631397e-03
      3.4933166502174430e-03 1.3894098181999933e-03
      7.3693843606745602e-03 8.2944704904002291e-03
      -1.2730730745971169e-02 6.0408448331183556e-03
      -8.2160752258228411e-03 -9.3833477552669601e-04
      7.0858184305249835e-03 9.5268063370536407e-03
      -2.7987330451899144e-02 1.2191592033304808e-02
      4.2540773802619898e-02 1.5826863547709940e-02
      -1.5295532801114345e-04 3.3455069875077306e-02
      -5.7609248113994855e-03 -4.4270794795832097e-02
      -4.4039137602306704e-02 -1.8896793912689858e-03
      1.4927431399415266e-03 -7.0079026257985746e-02
      -5.1418412415170554e-02 -1.1868847980416153e-02
      -7.4306917274459788e-02 1.0126837010135277e-01
      -1.0897059220329308e-01 -7.8947285722211921e-02
      6.2700440988689515e-02 9.9057299669468829e-02
      3.8210859868301546e-03 9.9031322603420985e-02
      5.2001529835999045e-02 -9.4492184200061460e-02
      3.9170069675246666e-02 -3.2873425637634741e-02
      -4.4302062725318371e-02 -9.5211998211098478e-02
      -7.6453784089568363e-02 5.2909754929904650e-02
      -6.4513476072575779e-02 3.5721128739871669e-02
      -3.3794820483962179e-02 -7.2001140732020005e-02
      1.5336890531523351e-01 5.9999294933578903e-02
      -2.7087612469756804e-03 6.0476037470589106e-02
      9.8012604224218314e-02 -2.2516590776904471e-02
      -1.8429616078523681e-01 9.0565637140042968e-02</_>
    <_>
      1.1708707665607625e-02 -1.4921389715463582e-03
      1.2943707673006205e-02 2.3338309257353789e-02
      -1.4795875627614238e-02 3.8706916605006032e-02
      -3.4460645650558668e-02 -4.8234454901114427e-03
      4.0447356372686018e-02 -2.4597123960829071e-02
      1.4891858100496336e-02 -8.0113914185244561e-03
      -1.6555289327930552e-02 -1.3087859680584107e-02
      -2.7970836969756125e-02 -1.0016239567474459e-02
      2.4325906825136249e-02 4.4268079009712686e-03
      1.8920117357956591e-03 -2.4581585333798645e-02
      -2.2880415860057127e-02 -7.8294149020276312e-03
      1.2037398863612370e-02 1.1303757120823122e-02
      -4.1682801713306371e-03 6.9411915860925740e-03
      -2.8132499115424880e-02 -1.2905807305643880e-02
      3.6732114217072191e-03 -1.6699493699185150e-02
      -3.2255874669693402e-02 3.0259642992260295e-02
      1.4717483850744902e-02 1.1469872048290224e-03
      -1.2123117486765951e-02 -4.7455236773021083e-03
      3.2712960354058546e-02 -1.6300175850529057e-02
      -1.4971661277759757e-02 -3.3998614667910690e-03
      1.2428397555945854e-02 4.3957747203355593e-03
      -1.5003388636194003e-02 2.6229471162429682e-02
      -9.0525378862344186e-03 -6.4466327711971434e-03
      1.6718888441550729e-03 -2.5189364198064862e-02
      -6.6511131274780795e-03 -2.0107440884949723e-03
      -3.4547948568218162e-02 -2.2934166904029327e-03
      3.7571573130199824e-03 9.2213388074365507e-03
      2.1011324337514459e-02 2.6291463153420062e-02
      -9.6200251474997476e-03 -2.4468644323182489e-03
      -1.0239069471942898e-03 3.0425244340433092e-02
      -2.8319928041571848e-02 3.5751417736338354e-03
      -1.5267770999041612e-02 1.5999215611653565e-02
      -1.1113294703391780e-02 2.4997008731257993e-04
      -1.1565475761508933e-02 -1.4534075579569403e-03
      -1.4040498728678473e-03 9.6986992162033327e-04
      -1.0447815675502608e-02 -1.0127799710289509e-02
      -1.0175868614310231e-02 1.5773667163586649e-02
      -4.4834508355344931e-03 -4.6928560775941859e-03
      2.3081874943259015e-02 2.9675719003033039e-02
      -2.9568863848703747e-02 -1.9962435996085926e-02
      -9.5958576175450214e-03 -1.9476729914336308e-03
      -9.7246856060024152e-03 2.2191702141415781e-03
      -1.6294243319217205e-02 2.5181035095983479e-02
      9.2758298931414161e-03 -6.7083689227280937e-03
      -2.9046509462941164e-03 -1.8282360071821317e-02
      -2.2809754106524943e-02 -1.7360612700306362e-03
      3.5834900585616475e-02 2.6025354652532157e-02
      1.4638832187931579e-02 -7.6857749700301329e-04
      -1.2356545087632715e-02 -3.3886821996563385e-02
      -5.6544258353723696e-03 2.2639797053533538e-02
      -5.5846527741805312e-03 -4.5736551186389106e-03
      -6.5084893265723786e-03 -3.0462811998477290e-02
      8.0161826435302102e-03 4.8694985430839371e-03
      4.2366159871365626e-03 -8.5815030420622104e-03
      1.4326353158399004e-02 -3.7102245865738245e-03
      6.8331211958136519e-03 -1.7933335468456772e-02
      1.3293918314552757e-02 1.2467497800513843e-03
      -1.6038064222646540e-04 -9.5271107268475284e-03
      -1.3606968700862688e-02 -1.5681613041211209e-02
      -1.7146794856822623e-02 2.7880674017880157e-02
      -7.2005431283110356e-03 -1.1432444623696504e-02
      3.7360494616601120e-03 -2.1273521199920143e-02
      1.0838811814744635e-02 -1.0409621231206022e-02
      1.9053358837848992e-03 1.9454671771620056e-02
      1.8449122286675056e-04 4.8269438804201701e-03
      -3.1375141502348596e-02 -5.7468047916140845e-03
      9.0172441735093399e-04 9.9013858213202310e-03
      -1.3521623503158574e-02 9.0378757980311818e-03
      6.2256361403666286e-03 2.2434102520067112e-02
      -1.5199916061793757e-02 -5.7069074454458172e-03
      1.3008570916538894e-02 -5.8522980428787575e-03
      -6.9358930662444520e-03 1.9851806782991911e-02
      9.5684277639193735e-04 -7.4475508572423776e-03
      -2.5090991901885667e-02 -2.0771996215315326e-02
      -3.2658672050162914e-04 2.5183817668866706e-03
      -1.0043924680223438e-02 2.3001046753393279e-02
      -7.9605616785336994e-03 7.6528159203101192e-03
      -8.4409615299195131e-03 -1.0082019424380435e-02
      6.4362633403178948e-03 -1.6447652471816978e-02
      7.0926672618143250e-03 1.8234906643395311e-02
      1.0517181538689739e-02 -1.7460807821737881e-02
      1.3335080555663606e-02 -1.0075262986269538e-02
      -9.4753797923147042e-03 6.5614460020407142e-03
      -1.2683398611764161e-04 1.5988171080178557e-02
      -1.4981639152714905e-02 -6.6165397238608821e-03
      4.8798035475405895e-03 -5.1790761881839757e-03
      -5.0722682159605216e-03 5.4646553441143652e-03
      -5.0186416460498203e-03 1.5026448615144712e-02
      -2.0146170381450123e-02 -2.0622550122846892e-02
      -2.9743020660508282e-02 -3.8036759373256154e-03
      1.8534486387722859e-03 -1.7252841063121319e-02
      8.9609880359959367e-03 -1.4877619524833095e-02
      -1.1899683299202745e-02 -1.1499894673357651e-02
      4.0742767576008821e-03 -6.8482305287405213e-03
      4.2304987062056229e-04 -1.8513411520338321e-02
      2.3156357238887048e-02 -1.3745281106938468e-02
      -8.3138673863486783e-04 -1.9883557806388622e-02
      1.1321400592835611e-02 -1.2012589441326585e-02
      1.8235981945439027e-02 -1.5507957510681920e-02
      -7.5221261806308120e-03 2.4697053535705287e-03
      -1.7146325165265302e-02 2.0664264146140185e-02
      1.5977485140078244e-02 -1.9475203256670320e-02
      -1.7051581576475187e-02 1.3331548046030938e-02
      2.0312143399540860e-02 -5.7391983621961793e-03
      -2.3103167103674356e-03 2.4116627636525133e-02
      -2.3564126293491423e-02 1.4463530457235073e-03
      -5.0739620068047456e-03 1.2755762840309594e-03
      1.2201586819979659e-02 2.1862819408875581e-02
      -1.1329739099424082e-02 -1.0915375400755260e-02
      1.5976113350402520e-02 -6.2561389476435301e-04
      7.5631061314962627e-03 -5.1975389159295048e-03
      3.5547200599641993e-03 2.6773048666205425e-02
      -1.1864311857726960e-03 -4.5884338368811922e-03
      2.0200833241862087e-02 1.0216626540139044e-02
      1.0694596336603001e-02 3.2018879023896579e-02
      3.5335418042186082e-03 -1.2916792557830792e-02
      -2.2204897161563569e-02 -8.6325890392611685e-03
      2.2936914525210898e-02 8.5097403535642231e-03
      -1.1458786077545306e-02 1.1813500954226036e-02
      1.1634697783083186e-02 -2.6013593580047022e-02
      1.1161616088958080e-02 -2.5534774639245493e-02
      -1.3235979116326775e-02 5.3716497772026070e-03
      -1.3704026739299329e-02 2.3140267095932022e-03
      -1.9966657245973291e-03 -1.5703420537331689e-02
      2.2052054327690116e-02 -1.9539275234352480e-02
      1.8101795565128673e-02 2.2048534203299986e-02
      2.0193862598951975e-02 2.9006450237319542e-02
      -1.8768892900719474e-02 -2.0173456078080798e-02
      8.0727737886124411e-03 2.3203673231634345e-02
      -1.2065626149682505e-02 -1.3895279423209951e-03
      6.5948072073665172e-04 -1.8285048973140910e-02
      7.0625806407099423e-03 1.6100457846590182e-02
      -8.2717334415894185e-04 -1.5880866181564517e-02
      2.1306628857308711e-02 5.6145795309425640e-03
      2.2056838571713019e-02 8.2741471012204510e-04
      -2.1622323371432331e-03 2.9581729361843508e-02
      2.0343969622658525e-02 -9.4262125174416939e-04
      1.1286954290802984e-02 5.6275062088552335e-03
      -7.6971375186812147e-04 1.1074733662331218e-03
      -9.3586006704728924e-03 -1.3294105062103137e-02
      -7.6493256734473495e-04 1.3525016255837177e-02
      -1.0560615016231824e-02 -2.6363989000176571e-03
      -5.4210929444077592e-03 -2.6097998888663269e-02
      -1.4664135660126150e-02 -3.9013689977537912e-03
      -3.5825288576878589e-03 -1.5160408902990150e-02
      2.3396438068725642e-02 -1.3092216876029602e-02
      1.0262816104590208e-03 -1.6319513322567380e-02
      -1.1224817393240057e-02 2.4532820529882753e-02
      4.0609806689354015e-03 -3.8054358681132702e-04
      -1.7077031083759436e-02 7.5908049397653303e-03
      1.4090756711355184e-02 7.8836443552735089e-03
      8.0920381854115448e-03 1.7091114131821111e-02
      1.4863287314145841e-02 -1.2593286678649267e-02
      1.1796008764110437e-02 1.0771544977418522e-03
      -1.5505395325670119e-02 -1.2026583441803247e-02
      -5.0778872064794461e-03 -1.8263418565223458e-02
      -1.7982176908211522e-03 1.4712361614763832e-02
      -9.8532354463511784e-03 -1.4019771680009068e-02
      2.0512038006447266e-02 -9.2274970652697266e-03
      -8.2883182168532327e-03 -2.5841750740896043e-02
      -1.3006770184215404e-02 -1.7214444531411018e-02
      1.0642094028069355e-02 4.3667802829439363e-03
      3.5766895955447447e-03 1.8097986233721094e-03
      -1.6228736951177346e-02 7.8968497738368913e-03
      4.6987424753088649e-03 -1.8327454548342777e-02
      -1.6510853343313512e-02 2.1264769420884306e-02
      2.4822374029686092e-02 1.5260380192365980e-02
      -1.4104489492573159e-03 1.8904934459022124e-02
      1.4493435556652758e-02 4.5831868267497281e-03
      -9.0126377172111902e-03 1.8489333468147042e-02
      1.4914309869488829e-02 6.5052126677337275e-03
      -1.6972790342841375e-02 3.7663320672202379e-03
      -1.6389627121369320e-03 6.5385475544759775e-04
      9.6829661021502443e-03 -1.4035209351896073e-02
      4.5136714853690205e-03 -1.3853738615249108e-02
      -7.0681382769706581e-03 -1.4360772282211305e-02
      -1.0015723668493404e-02 -1.0814269447757962e-02
      1.2566816775942864e-02 5.8454035791459383e-04
      7.5741879937828611e-03 -5.4390384972635101e-03
      6.6647393665724584e-03 1.1344947572673993e-02
      -1.2367420639050034e-02 1.9205997685725409e-02
      1.1772548731960221e-02 1.7629199028653130e-02
      -2.1688733271525494e-03 2.1057259648220045e-03
      -1.4824061835674270e-03 -4.1760673702537863e-03
      1.8731009251883911e-03 -7.8399938002585365e-03
      -2.2019413123869442e-03 -8.3295098652895055e-03
      5.9760079952470154e-04 -1.4185451375805411e-02
      7.6255295734353242e-03 5.8306973229073562e-04
      2.0689398320219834e-02 5.4733417867240978e-03
      6.0725928761847132e-03 -1.2300762632837888e-02
      -1.6903122645957572e-02 9.3201646176972568e-03
      -2.0015042554286055e-02 1.0561268218877767e-02
      1.1267175989132414e-02 -8.4577087606162813e-03
      3.0619647230470982e-03 -1.0522756677258218e-02
      6.5305930501823326e-03 1.2947051673491850e-02
      -1.2104655358812109e-02 -3.1180057900260317e-03
      -5.5165745606514834e-03 -9.4375508524785611e-03
      3.3481261977638035e-03 -2.5126768072359838e-02
      5.7084936426555401e-03 1.9057859554452868e-03
      2.4049173330232480e-02 -5.0876352067170680e-03
      7.6840398763632183e-03 -1.8034832406801761e-03
      -1.4858998853689935e-02 -9.9496167616694407e-03
      2.7620042117493904e-02 -1.1702130041812869e-02
      -1.2464642006094309e-02 -3.1823625273581888e-02
      7.5522304553436812e-03 -2.8361648450561050e-02
      2.4208202697311675e-02 4.7670543060699747e-03
      1.6880495944734654e-02 -1.3089850832317392e-02
      2.2678471759390519e-03 2.4787798280902322e-03
      3.7001392686467960e-02 1.2842201441444727e-02
      1.6988624810822150e-02 -1.1552364462872384e-02
      -7.7903720647044903e-03 2.3542508712837473e-02
      1.4429168346480763e-02 1.7151006815875235e-02
      1.0740287918853556e-03 1.3978461175499897e-02
      1.5333559758850687e-02 -3.1260882615635898e-03
      -2.4809943044245792e-02 -1.0178219717432673e-02
      -5.1171211729131409e-03 -2.5988848083240896e-03
      -1.2263674721216230e-02 -1.9914407088036379e-02
      -3.0631186122397007e-02 -8.4101810647420443e-03
      2.6528863259155933e-02 -2.5186766168177346e-02
      1.6195548047542269e-02 5.9392700980732353e-04
      7.4027215523131970e-03 -6.0912032812684893e-03
      -1.5771024429061059e-02 -1.0767945191810556e-02
      -9.5601656684153359e-03 1.2646259248736679e-02
      1.4525367144645727e-02 -2.2359643773510685e-02
      -9.6342799463086898e-04 4.2528101759694917e-03
      -2.8803512436880830e-02 -1.4102209902485395e-02
      -5.6059615663475518e-03 8.5251949360421828e-03
      3.4501439990129973e-02 8.8917332188393587e-03
      -6.2529965606519782e-03 -3.4722153654560268e-03
      -2.0398532389466643e-02 -9.4176442933840594e-03
      -2.9780577310366992e-02 -5.8592454224445385e-03
      -1.8875631241126567e-03 7.0155193542248669e-03
      -1.4985830856980109e-02 1.9802499217649143e-02
      -1.3577645659993091e-02 -3.0701352097643893e-03
      5.1755648022782964e-03 8.7351334853320393e-03
      -3.3811848973107454e-02 -2.5169380027139001e-02
      -1.2364206587562040e-02 -1.0794584379914120e-02
      3.4049014255698846e-02 -3.0993695729261616e-06
      1.1178564983855021e-03 -1.9807349884010398e-02
      -1.9995213453090879e-03 -9.4550344044912280e-03
      -4.7601321810088132e-03 -1.1465442777790014e-02
      4.0978603347955542e-03 -3.6246073648981531e-03
      -1.8729977096381557e-02 1.1770097123846551e-02
      -6.4311674034055674e-03 -1.1086385662708035e-02
      2.8098876285786261e-02 -2.1396275098158359e-02
      1.1248446516778947e-02 5.3684876206641311e-03
      -2.6614590591871865e-03 -1.3276773044168943e-02
      -4.3600419177743117e-03 4.5293538166612766e-03
      6.4150333292579001e-03 -1.3713818482951289e-02
      2.7511814004987024e-02 -1.2174006720492349e-02
      2.6585628466723205e-02 1.9850691591757938e-02
      9.3852258771797859e-03 1.9420228274153141e-03
      -4.5982196744311912e-03 1.7900578190956050e-02
      -2.2116229190398184e-02 1.6703421736234139e-02
      -7.4338226262699566e-03 -1.3992528936121429e-02
      2.8306467409067514e-02 -2.6824415164342818e-02
      4.0686411839646859e-03 7.3807157309912419e-03
      -1.8614727133182442e-02 -1.4783199486422647e-02
      -1.7673913199167242e-04 2.2297517629011141e-02
      -1.2061469645652316e-02 -2.7003215630318825e-02
      -3.7732146229073095e-02 1.4614814221136530e-02
      3.5772829205954398e-02 -3.7443173687773702e-03
      -1.9335333613611731e-02 1.4525733359640677e-02
      -1.0928739979832790e-03 8.1822019251107710e-03
      -1.0304598428154819e-02 3.7463005203943302e-03
      -2.1321928922889383e-02 -1.7415168383340251e-03
      -2.2842108685896933e-02 1.5775176667282022e-03
      -2.4263087163114471e-03 -1.8483353097744397e-02
      -2.5748107941433941e-03 -6.4543098159970027e-03
      -1.7619896306866931e-02 1.5118460479838929e-02
      -1.0345829843619781e-02 8.3267469656844555e-03
      -1.0291017630408694e-02 -3.6585937454035634e-03
      -2.0792821655158066e-02 1.5563288223010157e-02
      -1.3142590070422090e-03 -6.7677947962626502e-03
      -6.1882172327111943e-03 -7.6009475452241916e-03
      -8.7415480373862747e-03 -1.0238263224530742e-02
      -1.4642855591165554e-02 1.8334494614443690e-02
      2.1983924095870713e-03 2.7694329311440391e-02
      -1.9013302002739835e-02 -1.1651459138101721e-04
      -5.5104777090517233e-03 2.0016331840058802e-02
      2.2772960503994297e-03 1.6630026332823851e-02
      -1.8968617802934701e-02 1.3031625252788817e-03
      1.4431147858726258e-03 -1.9079241842237228e-02
      4.9444107855096788e-03 -1.0687443051757665e-02
      2.8302346798727966e-03 -1.2105757168834887e-02
      -1.5461576979922974e-02 -1.6024355536806659e-02
      -4.8285738077107551e-03 -2.3334663107478622e-02
      1.1421787660073904e-02 -6.1600450841599015e-03
      3.7182368327538615e-02 1.9138613510490819e-02
      7.3978352346460259e-03 -7.9677911222711655e-03
      -1.9386630736514067e-02 -4.7310552930619589e-03
      8.8753565518519921e-03 -5.6325274785754909e-03
      7.8054791766910972e-03 -2.5818793186741626e-03
      -7.8884884645073813e-03 4.5952303694232165e-03
      1.2416003566541363e-02 -1.3584438331388829e-02
      -1.8253388156714453e-02 -3.0034791754759569e-02
      1.1814483869118013e-03 6.3545303930435644e-03
      2.3101889772671733e-02 -1.3279403229941793e-03
      1.1151546979166684e-02 -4.8402644666942383e-03
      -7.7802607691367168e-03 2.7815250968852134e-02
      1.0099929963455753e-02 4.9517119681918441e-04
      -1.5128361165272022e-02 -1.0516979280605975e-02
      1.8252783429364018e-02 1.4873935496909789e-02
      6.7822618275617313e-03 -6.2056055578013532e-03
      -1.0385001721902187e-02 -1.3150524312569696e-02
      5.3555976943754045e-03 -5.6633102835520546e-03
      2.0951176533717232e-02 -2.5505479734803231e-03
      6.8059244415582427e-03 -8.7509408501458747e-04
      2.1222096982760390e-02 1.0736063967407910e-02
      1.4519842786123760e-02 7.7602863228864978e-03
      -3.0624754205761662e-03 5.6069339066887828e-03
      2.5048539517061883e-03 -1.8353012915308274e-03
      6.0215440171605449e-03 7.6368320226031612e-03
      1.5308471525266695e-02 -1.5917744823805591e-02
      -1.2852666535369899e-03 -2.2544244616510532e-02
      -1.6744280427121194e-03 -1.7317052766250961e-02
      -1.6408276159573680e-02 -1.6942482914300335e-02
      8.1850346322209864e-03 5.1609541386357771e-03
      1.3750831444460047e-03 1.4546014924155533e-02
      1.1344530394014261e-02 -4.2229546962801231e-03
      -9.5073420206411765e-03 2.9014608287296559e-03
      7.4840158795372791e-04 -1.6396828308907749e-02
      -7.8658782336614996e-03 -1.3148817979230457e-02
      -1.9444111242026174e-04 1.3107211589748159e-02
      -2.2472626284036953e-02 -8.0195492154187826e-03
      3.2575212525292612e-03 -2.0270104779539281e-02
      1.4456854988647624e-02 7.8307006022617469e-03
      7.9097318041682994e-03 7.8406648451643402e-03
      1.0239825636226611e-02 -6.6363451834721230e-03
      -5.2452379321867295e-03 -2.8601242944072534e-02
      7.5664694634989555e-03 4.1657778131936087e-03
      1.6498504874070744e-02 -9.0970582998319369e-03
      2.9286764949000163e-02 -1.1499377162998948e-02
      -1.5351513176571667e-04 1.0636552976677547e-02
      9.4527596601455943e-03 -1.2109557962293833e-02
      2.9302720080925833e-03 2.2437949669317985e-02
      -2.4316112533646111e-02 -1.7247064637600965e-02
      -1.1077667682702433e-04 1.0725173443721174e-04
      1.7508262469811575e-02 -5.2307758251634376e-03
      -1.4448961355308385e-02 -1.4194632482650534e-03
      -1.2905779225384837e-02 -1.8802314763448812e-02
      1.0025792934592234e-02 -7.5321052408316375e-03
      -5.1489117746271003e-03 -7.4802327354140385e-03
      -6.7954992280083422e-03 3.1928709337352345e-03
      1.1474678615561330e-02 9.2389047124664437e-04
      -1.5704999907027863e-02 -2.9574907777446963e-04
      9.0701874627048106e-03 1.5917239453981089e-02
      -4.3930143745328403e-03 -9.4158122365136203e-03
      2.7348720465003994e-02 -1.0246883031287745e-02
      -3.6641922439292454e-03 1.1584531869203683e-02
      -2.9536229405656166e-02 -2.1451991603585671e-02
      -2.6743550813118109e-02 9.8213377829183234e-03
      -5.1975283105147032e-03 -8.4676129847942073e-03
      -2.4230642658360134e-02 2.0115886635020511e-02
      3.9905904954483797e-02 -2.0170142164860339e-02
      1.2068277277461147e-02 -3.1257013914526656e-02
      3.3821247445151100e-03 -4.0125471630609614e-03
      -2.1756413862312706e-02 -4.5827061065902095e-03
      8.8396645593324108e-03 2.4122114611297143e-03
      9.4994636101411283e-03 -1.8610326526696062e-02
      -7.0916665879831343e-03 1.9876795902953562e-02
      3.3659455422104780e-02 5.0683359232165711e-03
      -9.8374134196344970e-03 7.6584834181092970e-03
      -8.6414577542586572e-03 -1.2399910045895744e-02
      1.7471976922359727e-02 -2.8359388552547202e-02
      -1.8899245973286082e-02 3.9582270444995989e-04
      -9.2592360877634622e-04 -2.1154948213603409e-02
      -1.9785301766906703e-04 -4.4996753526255250e-03
      3.2170801566267310e-02 9.6570104018737953e-03
      -5.3296511064784184e-03 -1.9590391550720211e-02
      8.1160901581577155e-03 -1.2248121233239378e-02
      -2.0850060389357956e-02 1.6104407941725716e-02
      2.1598266730545910e-02 -4.9528913211899540e-03
      2.9094900355187514e-03 -2.7180717318325562e-03
      1.2861613330245868e-02 -3.0975530554618588e-02
      -2.7312496695286018e-02 1.1677744040070130e-02
      1.1468213052139018e-02 3.0845673015996496e-02
      -1.8632721980324680e-02 2.5509722269353000e-02
      -1.1437429159621619e-03 -2.7109834154362871e-03
      6.5523070073985742e-03 -2.1099652281476936e-03
      -3.5049082430033920e-02 4.2194066209392733e-03
      -2.1627548260834836e-02 -1.0773790771169592e-02
      1.4782671101011413e-02 -1.1898398605547453e-02
      9.4710484262913886e-03 2.7452419397337544e-02
      -3.7787951106647267e-03 -2.6147857606094799e-02
      9.1634953762944442e-03 6.1365324439311558e-04
      1.2284065060710829e-02 9.3688953156867739e-03
      -2.7204466988555994e-02 2.1113765307708723e-02
      2.2285367529823429e-02 2.9556212471293763e-02
      -8.2184436038561324e-03 -1.4260240623597015e-02
      -1.3239874347605854e-02 -7.3789942473846369e-03
      -2.6817474156739574e-02 6.9490664449515149e-04
      -1.8026261853357282e-02 6.7226902811181538e-03
      -1.0739447993919175e-02 -5.7072605879147460e-03
      8.6213769375928073e-03 -1.9356804511934843e-02
      -1.4275126803962531e-02 -2.3173636791268482e-02
      1.6883866030929236e-02 1.7524817436112689e-02
      -1.3445306888064484e-02 -4.1244641108661396e-03
      1.4913222456800686e-02 -1.1503362108173199e-02
      -4.2118411599214060e-03 1.2476239156872829e-02
      1.4482311074863233e-02 -8.0544390795050345e-03
      -7.4444678237052270e-03 3.3260521416198872e-03
      -1.1331775939453798e-02 4.0341041124223022e-02
      -1.4713577777454750e-02 -1.0961340310012550e-02
      1.5818138787611041e-02 -3.6281745108460647e-02
      1.3682460728156583e-03 -2.3041290334176220e-02
      -1.2046156756780290e-02 -1.2842755564872103e-02
      -2.5199477012076046e-02 -7.3677613335657987e-03
      3.3559651560434535e-02 -4.7322594564704456e-03
      4.1801184014457232e-02 -2.6097543768076353e-02
      -4.2406428600057541e-02 7.8197756938680170e-04
      4.2435093290800370e-02 2.9712899384540869e-02
      2.2970689198655125e-03 9.9598476923482490e-03
      -1.5130599968140382e-02 1.7700791186558834e-03
      -2.8525534915935111e-02 -1.2756778704562733e-02
      -4.2185482867269197e-02 -1.5751976767751131e-02
      -3.2850571887632920e-03 -1.5208109289160115e-02
      -6.4427268424863812e-03 -2.3533208960929204e-02
      1.3039182727877831e-02 5.2625073103844382e-03
      1.2442530032035940e-02 -4.4563661316499434e-03
      -1.1495241095511513e-02 -2.0343568289416386e-02
      -2.1396555068529506e-02 -1.7462558720441664e-02
      -1.7720151282574356e-02 -1.2819437662531071e-02
      7.2194912968139811e-03 -3.0648896380539820e-02
      2.2131977644793865e-02 -4.3349579746553690e-03
      -1.7885237487824505e-02 -2.8458424698438866e-05
      -9.2384953284036786e-03 3.3837371998713832e-02
      2.9195752500530202e-03 8.8108560974242114e-04
      -2.3561874865163427e-02 -1.7664012962381979e-02
      1.3214012909317991e-02 -1.4061346943522726e-02
      -9.9214700675003004e-03 4.1708077133851454e-02
      -9.1092484699874868e-03 1.9506311811618405e-03
      -6.9952610147058121e-03 -1.9603013900432727e-02
      -1.3013807817143485e-02 -1.3736900575402926e-02
      -3.6031835441847995e-03 -2.5409381304189380e-02
      1.0855790685229426e-02 2.3970455398563731e-03
      -9.3422323649511758e-03 2.0819969767324406e-02
      4.0685623304383082e-03 -3.8094268391737338e-03
      5.7823868931782575e-03 2.0307028626552492e-02
      3.3057304013050888e-03 -1.7777984071829331e-02
      -3.1310249599449030e-02 6.6569184816371091e-03
      -1.7892489114889810e-02 3.2160178447341774e-03
      -1.4570971416497925e-02 7.8126807955665543e-03
      -8.7589159276653013e-03 -6.3051862229037544e-03
      1.2693222648037098e-03 -2.0824205123070563e-02
      -2.7489355026788943e-02 -1.6567522271811991e-02
      7.9220412391979717e-03 1.1984652428205376e-02
      3.1000616989978439e-03 -2.5336019226008368e-03
      1.8451989029443817e-02 -3.6590019266474379e-02
      -3.6889122338792935e-03 1.3174896180004577e-02
      -1.1708837035606037e-02 -6.7807697055463044e-03
      -1.7026566297164442e-02 2.6383641474976249e-02
      1.0999868625843155e-02 6.3101829707915081e-03
      7.9194189736223834e-03 7.4186747685298735e-03
      -2.2470197632381344e-03 -2.4625130721884412e-02
      7.6566664682395126e-03 -2.1742904432749045e-02
      -2.2359380626268462e-03 1.7609311186520156e-02
      -1.5622449153377731e-02 4.1638368828939070e-03
      1.6638494003004350e-02 -3.6386950535633091e-03
      -1.5090694008333076e-03 -1.4470758974674227e-02
      -7.7960861223210923e-03 -1.0963867676662277e-02
      -8.0391204246303650e-04 1.2912877412005816e-02
      -3.9707918546297955e-04 1.5836961212953124e-02
      -1.1705002208315179e-04 -1.9320702444637974e-02
      -7.5002171875015551e-03 -2.2256631287854527e-02
      -8.3288351395900044e-04 -2.4049982879952290e-03
      9.4536767608647335e-03 2.1691601694202093e-02
      -1.1427188850305532e-02 1.8909834057014166e-03
      3.1380002268721389e-03 -3.0397046929069655e-02
      1.5070140707515917e-02 -1.0695837127511726e-03
      7.3069291860878530e-04 -1.8689523909524721e-05
      1.0513069745174207e-02 1.8023192718461485e-02
      -9.9292194483610006e-03 -1.3632341856875650e-03
      3.1977112606054400e-04 -1.7737097750543548e-02
      -1.4632315746594078e-02 -8.9733657630665722e-03
      -7.0652384001721200e-03 -1.0951231646535921e-02
      6.6080867530954532e-03 1.6841332182733243e-03
      -1.4845322761161562e-02 6.4736920315678244e-03
      4.7410144813622547e-03 -2.2324924256883719e-02
      1.8313763088376650e-02 -5.9357969459314730e-03
      -2.6778481938140322e-02 3.5499404654192004e-02
      -8.5433435542335426e-04 2.1563578540037324e-02
      4.1888220702213808e-03 -1.5777000725857908e-02
      -2.1927402603272538e-02 -4.5908216150403070e-03
      -1.6480667949506880e-02 -1.5707450995521656e-02
      2.4812440504974054e-02 1.6661956665989311e-02
      1.3384819200320247e-02 -4.1372544801344478e-03
      -7.5613581709805776e-03 2.8323543028656653e-03
      1.7113482316189133e-02 2.5964899643869048e-02
      -1.9655803758489902e-02 -2.7939729698506738e-03
      3.3138682752352319e-03 3.8612567572112720e-03
      1.5893997768945713e-02 -2.2667021063888727e-02
      -5.0833189161611043e-03 1.9842196617809719e-02
      4.3347905302652005e-03 -6.9001795396481215e-03
      9.6469858614930733e-03 1.2997169315105345e-03
      -7.4912662111079357e-03 -7.4108139824016856e-03
      1.7132661654534385e-02 7.7510638098834675e-03
      8.8029778474691331e-03 -1.0266267216507082e-02
      2.9104607789624927e-03 -1.2910049461083128e-02
      -5.5136502677083444e-03 4.7297998901697494e-03
      7.6258100261612791e-03 5.3634180157073191e-03
      1.2374875431388734e-02 -1.2182548440076648e-02
      6.4623011332942083e-03 -1.6441411148602906e-03
      1.4399558747315090e-02 2.2374301497895259e-02
      5.7097853456209548e-03 3.9910120603601322e-03
      -8.2128543860423668e-03 -1.9386656429826704e-02
      1.0236466474991726e-02 -3.9741071369674020e-03
      -1.2386085432619065e-02 1.5512239928750393e-02
      -2.5872908758296734e-02 1.4189571355500614e-03
      -9.4774018638911425e-03 2.0249006675471864e-03
      2.1751287693193002e-03 6.2556744328384653e-04
      -2.1998008102581321e-02 -4.7364543498471688e-03
      -1.5775339988913097e-02 -7.4957342615134112e-03
      -1.0876104042857755e-02 -3.4730979858566811e-03
      2.2288833073229604e-02 7.9219135137351699e-03
      9.7902412689295365e-03 1.8785572058702675e-02
      -2.8600737499081892e-03 1.6783344863095344e-02
      -1.2184334983935063e-02 4.7361766391997807e-03
      -8.2473961523564059e-03 7.1991019018919893e-03
      1.8385341712091996e-03 -7.4576420792609264e-03
      2.0366821383802506e-03 2.9335200004981504e-03
      1.6221184541502003e-02 1.5470802810930872e-02
      8.7619099982659855e-03 -6.1588778818948836e-03
      -2.4560016328262807e-03 -1.4435926506391227e-03
      8.9354225357813795e-03 1.5661822407317838e-02
      7.1907529419327756e-03 2.4109607129260659e-02
      -1.0069823360582861e-02 -1.4820888133347752e-02
      -2.2385259533009846e-02 -3.2878917041595989e-04
      2.1316963836994643e-03 2.8200678372256033e-04
      2.2856927828891774e-02 -1.9327766597982063e-03
      -1.2689817370818243e-02 -1.0357572734835643e-02
      9.6899024155883454e-04 -1.6205344655559149e-02
      -2.5186676238197744e-02 -1.5322916026129464e-02
      -1.5483883841158695e-02 -1.3874959156110575e-03
      2.1346340754932077e-02 2.8019852983160360e-02
      -2.4029610176993531e-02 1.0534540997265793e-02
      1.8076166674366203e-02 -1.3532962834793050e-02
      -1.1526342959080969e-02 -1.3731160631580624e-02
      -2.7090563926035021e-02 -1.8911838557635830e-02
      -4.3031586636679319e-03 9.7907346500019712e-03
      -1.6109147678840030e-02 -5.6049545487864083e-03
      -2.1787586538111012e-02 9.5884003417797941e-03
      7.2188596053902893e-03 -2.1723254815665605e-02
      -1.9480527912776123e-02 -1.2981069853639856e-02
      1.3172010109777903e-03 2.0400788990523267e-02
      2.4930861853338687e-02 -6.2325398547562177e-03
      -2.6638843139973147e-02 -2.2685322300642602e-02
      -4.0754465375265787e-03 5.6126601620608524e-04
      -1.5452244531665797e-02 -9.3994137841101012e-04
      -1.4334959868999733e-02 7.3249682358667162e-03
      3.4950834615209272e-02 4.9323913511676214e-03
      -2.2443287364784670e-03 -1.2769105802437329e-02
      6.3874793099384522e-03 7.0610809313681301e-03
      2.3684016714095733e-02 -9.8636436546444429e-03
      -3.6874509862655516e-02 -5.6073347128950436e-03
      -1.9972775423078092e-02 1.6851949613298313e-02
      3.8727886328196871e-03 -1.9576780425823437e-02
      -2.2098822788296866e-03 1.5704271547962629e-02
      -1.8451740756832813e-02 1.1916954879321189e-02
      -3.9148247712447737e-02 1.9092106222702205e-02
      -1.6141192548162131e-03 5.8818840798863844e-03
      -5.2593737331870252e-05 -4.0930914001634539e-02
      5.3879266356247823e-03 3.0112086615483179e-03
      6.7535301204678560e-03 2.1139642385701866e-02
      -1.9586700386540513e-02 1.8033462038244349e-02
      3.1732175495191917e-02 4.1060204475036038e-03
      1.2312843624153443e-02 -3.5083815952014381e-03
      7.4590483073914988e-03 -1.4956232121207044e-02
      -2.2893940297980926e-02 -9.3020045273077556e-03
      9.8057082367946128e-04 -1.6749727482383972e-02
      1.7827147830876938e-02 -3.1110542275061088e-03
      -2.5765297316039776e-03 -1.1121716304469446e-02
      -5.2937325429409966e-03 -2.7074405303711114e-03
      -8.3122048103826118e-03 -3.6397952263908036e-03
      -2.7649915257009100e-03 1.6086836978028763e-03
      -8.3608638605011895e-04 -2.5202115394628871e-05
      3.1852312803647437e-03 -1.9586830916549679e-02
      1.2708418125941794e-02 -4.2974506790850516e-03
      1.3418120364680508e-02 5.1643848045431352e-04
      -2.2751004459968992e-02 -3.8954617611871756e-03
      1.1002711431286951e-02 -3.5309262416134288e-02
      -4.5332609858390226e-04 4.7763030558757363e-03
      2.2211307022738480e-03 5.2733632254495155e-03
      -2.8662351194123883e-02 -9.6212892505026914e-03
      1.0987846705992515e-02 -5.5948273368043692e-03
      -1.5659946778361602e-02 -2.7315970529914895e-02
      -2.0672101348603585e-02 -1.1107936997391476e-02
      2.1661928348215845e-02 -2.8211936002142328e-02
      4.9063080723707421e-03 -2.6092995817721715e-03
      1.1145888663939786e-03 -8.0613997110807675e-04
      -1.3266791524567821e-02 3.1622911164085293e-03
      -2.0314740894075874e-03 2.5936251312926827e-02
      5.8720201247160131e-03 -2.8259846899439636e-02
      -1.9439754023329633e-02 3.1428887880524628e-02
      3.9815618093678911e-03 1.0207829798563666e-02
      1.1479946414849567e-02 -3.8534649693047151e-03
      -9.6313674857721725e-03 -3.4199983722330164e-02
      -1.0843943644951870e-02 1.5983628311041626e-02
      5.8515858098638473e-03 4.6737691228278055e-04
      1.9647140161873243e-03 1.8097702838655579e-02
      5.0643991432681688e-03 1.8175409302449801e-02
      -2.7354241236442551e-02 -3.3293134454953389e-02
      1.2331937073075909e-02 -6.7624849081660268e-03
      -1.8533830885330761e-02 -1.7900830447849760e-02
      1.0160542063747719e-02 -1.2357606771412006e-02
      -1.7549983238050255e-04 -1.9497052599473780e-02
      1.1215669484286242e-02 -2.1886712549951361e-02
      3.3091081967634040e-03 -2.5254302293222348e-02
      1.2413445467534799e-02 -1.3837267096644405e-02
      1.9702945114242840e-02 4.1154106779182440e-03
      -4.7078033140415393e-03 1.0634585754074805e-02
      -1.7923115724561144e-02 -1.3666080167334184e-02
      -5.1988620719972583e-03 -1.2034652263033322e-02
      1.0237892774942163e-02 4.2934683946399916e-03
      -2.9999789676266758e-04 3.1768729113649308e-02
      2.6261646672902949e-03 -1.7519575034154362e-02
      1.1850766055977938e-02 -3.8316930562831506e-03
      1.3359402435664245e-02 -7.9538218109843437e-03
      1.3878603362157493e-02 2.8811102484885527e-03
      -1.3276373925316536e-02 -2.0074082734918446e-02
      3.2375275989157438e-02 -1.6357446721407199e-02
      -3.2880751129662988e-02 -9.3561977570940091e-03
      -1.8212846241505039e-02 -5.0485922082937817e-03
      1.1466737875954616e-02 8.9315361183477399e-03
      -6.6891780844281542e-03 -1.4633966981753247e-03
      3.2487501368128105e-03 5.2855833854209052e-03
      7.1859354726673151e-03 1.4398574237838560e-02
      2.8780434959464397e-02 -2.7047856673451860e-03
      -1.4680376512173161e-03 -3.2411845074468731e-02
      1.5750964610535316e-02 2.3362246452503128e-02
      -9.8367316962455278e-03 -2.8434334765188276e-02
      5.8359097309896614e-03 -1.4685153562319327e-03
      1.7984375166297088e-02 9.6940477489813846e-03
      -1.7900846733278967e-02 1.0838938896876077e-03
      1.4847251158548713e-02 1.4826266486815409e-02
      -2.1224219209685414e-02 -1.2499668799265045e-02
      3.6876800666806480e-03 -3.8414742565474121e-02
      -5.0177393383004339e-03 -3.3622967616343938e-02
      -1.0111871451888471e-02 -2.6805324768868526e-02
      -2.1447593369944666e-02 -1.8467086415159480e-02
      -3.4600249104017732e-02 -1.0459345236902488e-03
      -1.2293198341627487e-02 2.3431044426030181e-02
      -1.0167481792431876e-02 -1.4405335290529745e-03
      -1.6689121092178894e-02 1.4195590568174210e-02
      3.5847773144100266e-02 -2.8080757995608455e-02
      2.2045645363709707e-02 -1.3002248278935851e-02
      -2.7504067524803645e-02 -1.5164816180860812e-04
      8.1339209596837849e-03 8.3250771023796787e-05
      -1.3685119848761192e-02 9.6483612082598619e-03
      1.2663439790697010e-02 -3.9106856514733021e-03
      -2.2225409534282779e-02 -1.3813150231896200e-02
      5.5511347272578018e-03 2.8756802682032780e-03
      -1.8275524013927534e-02 -1.5736451045051936e-02
      1.8912380187418545e-02 1.4264586212958110e-02
      -4.9173691769193481e-04 2.3640359597934878e-02
      3.5243476011127110e-03 1.7256280821724389e-02
      1.5700954884446698e-03 1.4218511880115274e-02
      -3.6975535112066492e-03 4.9933621253405924e-03
      -3.6547454523983766e-03 -1.0840554393997830e-02
      -1.9700046843409071e-02 -6.7731751375843816e-03
      2.7043467660174701e-02 5.1588998587033356e-04
      -2.4964546286597569e-02 -5.1730585627226367e-05
      -1.3426896111362975e-02 -2.4761011208590471e-02
      2.4382999160570112e-02 -1.3109751291771885e-03
      1.7817944906781461e-02 -2.1925303855514326e-02
      3.2386678959062092e-03 3.6675112763148183e-03
      8.3270113571748822e-03 2.4889769117117197e-02
      1.4153545761451976e-02 1.0621468597770684e-02
      -3.6543026553621308e-03 2.8196892669537836e-02
      8.2238812963969631e-03 1.5240941053320797e-02
      -2.8509194786227113e-02 -5.6019859540113928e-03
      1.4456249079580893e-02 -1.4164942822379751e-02
      3.4065396904290515e-02 2.0659264223396825e-02
      1.1722155862461656e-02 -3.7694861046600474e-03
      2.4890968395016342e-02 1.8263643416420651e-02
      -5.1913063930708533e-03 -3.5752286344405138e-03
      1.1620372567221237e-02 -1.4764857677714743e-02
      -2.1656454546034629e-02 -2.7787758785901628e-02
      1.7006269606891378e-02 1.1647322185217529e-02
      1.5875516706712847e-02 -5.4271783462580200e-03
      1.5941095025727277e-02 1.6281389614663444e-03
      6.5747118225929577e-03 -5.3691885024310087e-03
      8.7680573709606295e-03 2.9322547716593367e-03
      2.5733716187241965e-02 -1.6181279105993655e-02
      -4.2908620535721583e-03 -1.4948413352834661e-02
      2.6546240726322500e-03 5.1024891151009010e-04
      -1.7935327239352572e-04 2.4066195261699959e-02
      -1.6529134210786469e-02 1.5259735771747763e-02
      -3.8257790236166929e-03 -4.8942450454929291e-03
      2.6339688084229807e-02 1.0443158917078142e-02
      -1.0965467265068911e-02 -1.7883215189599660e-03
      7.4223843404740810e-03 -1.6575937594836474e-02
      -9.3309845819535466e-03 1.6472198226642660e-02
      1.1259530275202760e-02 -5.5974813632694003e-03
      -1.4945712420137213e-02 8.4909203851326019e-03
      -1.9649794127057979e-03 1.6564502702097913e-02
      -1.5125796850172821e-02 9.2941157777132015e-03
      -1.2435974540929384e-02 -1.8528814533025118e-02
      -4.6475193716294626e-03 1.7639366603154485e-02
      -1.1841717960730807e-02 -3.0643696397206776e-02
      2.2013460132854813e-02 9.1442467391028050e-03
      1.2293154372494165e-02 9.2354380562535993e-03
      6.0831358769367864e-04 -1.0874093504862438e-02
      2.8903592717699367e-02 1.1725803803048038e-02
      -2.5233188937270459e-02 2.9206692765411504e-02
      -1.6688914554849522e-04 4.3068291500047689e-03
      7.2560779312137013e-03 -6.8026561810395191e-03
      1.5822162948170480e-02 2.1566623798778224e-02
      6.2711059641066614e-04 1.2921687393688659e-02
      3.7552254824083893e-03 3.0694079873110729e-02
      1.9997786493402187e-02 6.7556550002196283e-03
      -1.6435762802640520e-02 -1.7760713711618163e-03
      -1.9690432328715788e-02 1.4440622087752656e-03
      -5.5748035635438996e-03 1.7604489773420554e-02
      1.1713849994787349e-03 3.3952754445729566e-02
      9.8598149719258069e-03 1.2765630209175040e-02
      -9.9484293525215935e-03 1.1665017860280661e-02
      1.1036978940528767e-04 1.7872797292468802e-02
      -1.8562753066635837e-02 1.7362908398314034e-02
      -1.6814078569240810e-02 -6.7574236705403399e-04
      1.4098919664534774e-02 7.4305671665535356e-03
      1.2827382082387973e-02 -1.7876358108953130e-02
      -1.0022347095898785e-02 -1.6237705765728298e-02
      2.2755852463948682e-02 -1.1536510779137933e-02
      -1.7109385900334961e-02 1.3657815377906295e-02
      8.4761313400852686e-03 2.8802720229938277e-02
      3.8552293589416190e-03 -4.5852837156440916e-03
      -1.8334416864843904e-02 -2.2159395462391696e-02
      4.1500507965915772e-04 1.5770402886170504e-02
      -1.2144387634525189e-02 2.2013659116865501e-02
      1.1209987549131368e-02 -8.4348528015087357e-03
      -7.6230939129368598e-03 -1.4906809488820977e-02
      -3.5673604716943614e-03 -9.8087505289121569e-03
      1.1374479147916904e-02 3.1905822948406276e-03
      -9.9619140663991350e-03 2.4222417403570822e-02
      -7.1263882560423175e-03 -6.2873364726119662e-03
      1.2903698486233293e-02 -1.3314706066673643e-02
      1.0051325118366821e-02 1.4836646970437675e-02
      1.2848783784028045e-03 -9.4304748252832405e-03
      -1.0996188731594430e-02 4.8710290457866850e-03
      1.0006182962853558e-02 5.9678514361576074e-04
      7.8004092803322196e-03 1.1495165208990995e-02
      -1.1552679023422090e-02 -2.3897552837441494e-02
      -9.5478643929792512e-03 -1.0598195445539877e-02
      -1.2427544646141891e-03 7.5095732090371490e-03
      4.7811292312946617e-03 5.2596918367862769e-04
      4.3090307301555931e-04 -2.9378627418077573e-02
      7.4264487544893013e-03 -8.9248734460993066e-03
      -1.5572066786148172e-02 2.0413832718677753e-02
      -7.7540712390504101e-03 -1.2557689049356504e-02
      1.3465791733664851e-02 3.6864136123539309e-03
      5.9414142713492138e-03 6.7269444989190340e-03
      2.0732258724687175e-02 1.3695070595945546e-03
      2.6243401062837928e-04 -2.0123306502283528e-02
      -4.6146429600369188e-02 2.8671472450585614e-02
      1.0643197348214578e-03 3.3872236381317443e-02
      -2.1843121119676841e-02 4.0240451997170338e-05
      3.6150333379357476e-02 1.7038733831705410e-02
      -1.6927895269658648e-02 -1.3160177935907985e-02
      -3.3393662105559691e-02 1.6258377264371713e-02
      -9.0482888350451110e-03 -7.5548518304255621e-03
      -1.6631752936193827e-02 -2.3080046362527164e-02
      9.7975952254775915e-04 1.6806945863218285e-02
      4.4731381609810642e-03 -9.5167047458978877e-03
      1.5338376576502437e-02 4.1182282549008027e-02
      4.3462594216431657e-04 1.4113292926335055e-02
      1.3085518928189075e-02 2.1892758050146292e-02
      2.3778171034169123e-02 -2.1659453429244732e-02
      -3.0320096972870612e-02 -1.1933221165542388e-02
      -1.2010346347930056e-02 -4.0160721330719405e-03
      1.0237206571561042e-02 8.1141108536763804e-03
      -8.2152207701288137e-03 8.0595793157291640e-03
      -7.0252361101065712e-03 -3.9387590619198842e-03
      2.0712844486404258e-02 1.2584827719423207e-02
      -2.4583158811350456e-02 3.3676889958953599e-02
      3.0300118908629190e-02 -5.4704153536394053e-04
      -1.0944104548188475e-02 -1.1615463802877533e-02
      -1.7463462676621220e-02 -2.3540310714091406e-02
      1.1722663969002140e-02 -1.1072632373794177e-02
      -2.4185134567553678e-02 2.0979516972279674e-02
      1.9137908192055408e-02 -3.9379527421432886e-02
      -5.6873891807680300e-03 1.0196318228332187e-03
      -5.4203559245665171e-03 1.3912151878777361e-02
      5.0669946779133921e-03 -2.0575471004963809e-02
      2.0927334690257045e-02 1.2860327982386765e-02
      -9.6498911478315481e-03 7.7069621606332484e-03
      -2.0201483426361098e-03 -4.2697740494990075e-02
      3.2307875252257340e-02 -2.4184750993925294e-02
      -2.2351204327890960e-02 -1.1904426906347800e-02
      2.5530849977681864e-02 1.4413374189384964e-02
      -2.2132074052724792e-03 5.9302851075868643e-03
      9.2945964969353267e-03 -6.3059929075553502e-04
      1.2940132338915434e-02 -3.9605795656185910e-02
      5.8566186894304191e-03 -1.6422041882157817e-03
      1.4546814535811084e-03 3.1816693780600293e-02
      3.3734308724716507e-02 3.4259714776028433e-02
      -1.5368536163173678e-02 -2.2671411262776709e-02
      -8.6793135805967158e-03 9.6332498817856601e-03
      8.4610345691371585e-03 4.9258275091671057e-02
      -4.5270625486615589e-04 1.1067659257128593e-02
      3.2294250822975101e-02 -7.0108183011899187e-03
      -9.1211583583310427e-03 6.8103561949720646e-03
      2.4229542772096616e-02 3.1916797149500506e-02
      8.0841901370168907e-03 1.5125104508868061e-02
      -1.3881102317762227e-02 -2.4118183301570669e-02
      8.5366791620894340e-03 -3.2012288806253998e-03
      2.1708817748099813e-02 -1.5163211283075082e-03
      -1.8585143097050394e-02 2.4041460868375227e-03
      1.9705656483706537e-03 1.0039985318311587e-02
      -2.2978094194583687e-02 -3.0619505626052868e-02
      -3.5827532651823958e-02 -9.9833843303261584e-03
      3.1734200269649578e-02 -1.9189642341705406e-03
      7.6761103425393423e-03 1.2473364593654333e-02
      8.5168374453466038e-04 -7.1131150906516422e-03
      -3.7786793239263421e-02 -3.3337895810602175e-02
      -2.4754062232224150e-02 -1.3361729339814528e-02
      -4.0867386429094812e-03 -2.3090314503145110e-02
      -1.3195471484444603e-02 -7.7307936871927026e-04
      8.8648344955741427e-03 -3.0713883727440133e-02
      -1.2485744802879482e-02 3.6344961877878633e-02
      -1.7703383418679667e-02 2.1669360608198303e-02
      1.7709090640555952e-02 -3.6113057440757784e-03
      -1.6668189173405443e-02 -6.9176175050737155e-03
      2.2146571109095476e-02 -8.9685645264169275e-03
      -2.6903400414715270e-02 -1.4610085638821338e-02
      -9.4865978210757398e-03 -4.5221103945417007e-02
      -6.8507395776220836e-03 4.8148070671444471e-03
      4.2790819196167063e-03 -3.9034618614792096e-03
      1.6243699205950167e-03 -8.0548818717899040e-03
      -1.1907214676472702e-02 1.9498643067495915e-02
      -1.2203362371367328e-02 -5.2703099219847836e-03
      -3.5603236504013957e-03 9.2051109363954862e-03
      -2.1819026352573455e-02 1.7320269713532212e-02
      -7.2148745584910499e-03 -2.9376009695465440e-03
      -1.8589145338527939e-03 -1.3705409671099032e-02
      7.4708443862089762e-03 1.8297287834793678e-02
      -1.3475412915838671e-02 -2.3717940405055888e-02
      2.0184611251195892e-02 5.4914796180961000e-03
      2.8311434025062900e-02 4.5798300194259418e-03
      -1.2679055159585338e-02 -1.4243071143547626e-02
      8.8948585971417998e-03 -2.2331370241561933e-02
      2.1102735250092319e-02 -3.6848149288683206e-02
      1.0333098014532202e-02 1.4610819879519883e-02
      7.5392276277004219e-03 -9.4629165448356888e-03
      7.4024721756189686e-04 -7.1020985739293756e-03
      -3.3217220534348960e-02 -1.5491456334990980e-02
      -2.0680422268413216e-02 2.6863621591868905e-02
      1.6572742525638735e-03 -1.4819664685250816e-02
      5.6856386747801977e-03 -9.9455390677335807e-03
      -1.5614454953306591e-03 2.0421803092087028e-02
      -6.9033262587084223e-03 1.1912960425565992e-02
      -7.5053848020537571e-04 2.4220579338004804e-02
      5.5484284947352226e-03 1.7612479144353062e-03
      -1.9609373764882990e-02 -1.0017351909574945e-03
      2.0696851827688788e-02 -3.8884227132484229e-04
      5.0683822026783849e-04 -9.4366817710342787e-03
      2.2370662834244144e-03 9.8202933613341578e-03
      9.1727779595778183e-03 -9.1853090068211331e-03
      -1.3185763408784192e-02 -3.4639073849542100e-03
      6.2390959367611366e-03 -2.2914185531603813e-02
      7.2790360465648128e-03 -5.1681429207191361e-03
      1.4548187212564992e-02 -1.0426577737275221e-02
      -1.2450664754125481e-02 6.8051259695610794e-03
      -1.3273967781099719e-02 3.1505495315263146e-03
      1.8712019606356455e-03 9.1246509518260691e-03
      1.7244527555282572e-02 2.0981463441985270e-02
      1.1484872697294977e-02 -2.5621555264858004e-02
      -1.7345591812562389e-02 -5.9877204272242388e-03
      -9.3117506112876947e-03 -5.9266614996496018e-03
      6.5918083932243934e-03 5.0221229516918169e-03
      -2.4055984244587547e-03 6.3782390929377963e-03
      4.8654165213225771e-03 3.8993556590606214e-03
      -1.4922099209674257e-02 -1.7111042195654992e-02
      7.3604495881012368e-03 -1.6952226179253540e-02
      1.0828689914775192e-02 -8.8187079821651047e-03
      -1.2695681881342050e-03 2.6320276855812228e-03
      -1.1870462619249084e-02 -5.0660248233409550e-03
      1.8779826770382729e-02 8.3739235440360386e-03
      9.2237606941621940e-03 -8.3427448572448853e-03
      -1.9057807692332725e-02 2.4642787193724286e-02
      -1.0149974811269421e-02 -1.4060567089827359e-02
      5.7367906512583462e-03 2.7998666440164500e-04
      -1.8046704748011944e-02 7.5829573453290334e-04
      -9.7917155267747118e-03 -9.0529614785098064e-03
      -2.8073243920237454e-03 1.0830749390747281e-02
      -1.1876033286622815e-02 5.2575468727634475e-03
      -1.4187541933780126e-02 3.9188185050126377e-03
      -2.4007269283444172e-02 -9.2952171366488760e-03
      2.0536515146200116e-02 2.9470808864664664e-02
      -2.2885448119242952e-03 1.1208262410348191e-02
      7.9549143725335635e-03 -1.7156834351797660e-02
      1.4823205699132098e-02 2.1440398812076103e-03
      1.8170562573377246e-02 6.9902044565066318e-03
      -6.9260694513996563e-03 -1.9938923053612556e-02
      1.0939626229110690e-02 2.8231813454958572e-02
      -1.9004680452268812e-02 2.4265822601398219e-02
      1.2232796093955287e-02 5.3991440865550928e-03
      -8.9342107586356731e-03 -5.4993800640295394e-03
      -1.2432168946031686e-02 6.5712546775467651e-04
      1.4144919018387046e-03 1.3452639122843713e-02
      1.4537036127085734e-02 -1.4695515892336692e-02
      -5.8410900329748635e-03 1.3433539540122519e-02
      -1.0329143154806026e-04 -1.5548913368651905e-02
      6.6895392346898756e-03 7.0411539133144619e-03
      2.2538834989208486e-03 1.4363910774109843e-03
      -1.0920106933369035e-02 2.6312802274319699e-02
      1.1011486881773457e-02 -9.9150898185759052e-03
      2.7016902434342138e-02 -8.5389335356317909e-03
      -8.9328986636137732e-03 -1.3585974939626568e-02
      -1.8903623692647208e-02 2.5434919873877641e-02
      1.3711940604377285e-02 -2.1594885523984676e-02
      -3.4534492422466020e-02 -9.0855535964032945e-03
      2.9563518536314982e-03 1.8080404912159630e-02
      4.9092813635915507e-03 1.0502632998267902e-03
      2.7929576840976449e-02 1.4054659003617676e-02
      3.5897861720120661e-02 -2.1188030391292013e-02
      2.5728841117493555e-02 -1.9289672960250172e-02
      2.7500266225222506e-02 6.8243485963950942e-04
      6.2696331079115542e-04 2.7750191076476721e-02
      -1.3570933796574548e-02 -1.7486999921157823e-02
      4.3326219480122634e-03 1.4101967888986369e-02
      -1.9367600153295198e-02 -8.2168164247282995e-03
      1.6982137920961312e-02 1.4270470885240171e-02
      6.2335103587971346e-03 1.1254806585874906e-03
      1.2941065711817053e-02 2.9991041176469752e-02
      5.0912129319792969e-05 1.0810183261553381e-02
      3.8978927344219885e-03 -1.2679785654545753e-02
      -9.0659502406180703e-03 -1.9272451579254422e-04
      2.6104606383240910e-02 2.1230093063435790e-02
      2.4603758051025184e-03 -1.1203855362505026e-03
      2.4663857687727445e-02 -1.1819054201731488e-02
      7.2581231852635280e-04 1.1951350164721514e-02
      -1.9432402170858992e-02 6.3505389575452638e-03
      1.2469455530648528e-02 1.6692237731009626e-02
      2.4941563525164790e-02 2.0667956663014648e-02
      -3.1955523737845007e-02 -1.7661728398509078e-02
      -7.1230112570458085e-03 -2.9989325628296572e-02
      1.2639292816552903e-02 4.0928036790658130e-03
      -3.4008193417971469e-02 -2.7748678564657257e-02
      1.5748195829756239e-02 -1.7755625324152671e-02
      1.9929505626769654e-02 7.5653622989175356e-03
      -1.5007353451012081e-02 8.0183088112246465e-03
      1.5813043413819144e-02 -2.9399267254655989e-03
      -6.8755421513856723e-03 2.0697017401970930e-02
      4.0120524540371736e-03 9.1242754999973242e-03
      2.4814837107347137e-02 -5.8711404723753554e-03
      -3.1453190667012923e-02 -6.8017264250776564e-03
      -1.8292998522165448e-02 -3.1181737590779929e-03
      5.7424541695644113e-03 1.3255406181539267e-02
      -1.1241942351692152e-02 8.9852697460012891e-03
      -2.0663019973742036e-03 -8.9283610004299539e-03
      -2.9448650490023326e-03 -8.0868437850268749e-03
      7.6345961707065596e-03 6.6774574198458702e-04
      3.6705220792982471e-03 -6.5206985256057405e-03
      -1.3207533287376881e-02 4.6696777403893519e-03
      1.1636429870862693e-02 2.8323031684359058e-02
      7.9872853467677515e-04 1.9953682585293175e-02
      -1.7054437771726616e-03 -7.1400136900567198e-03
      -1.9767920898042291e-02 -1.4422004794665469e-02
      -2.7945409479703896e-02 -4.7711355767790656e-03
      -9.2227676231027410e-03 -1.9960081521915498e-03
      -1.0629691218131756e-02 -9.2086680591708225e-03
      1.4493323757840031e-02 -5.2194204353293019e-03
      7.1814755451929000e-03 4.4274314772579804e-03
      -7.6818024319486328e-03 -3.7130205025746646e-03
      1.9286315426539830e-02 2.0649603602881112e-02
      1.6444653912483422e-02 1.3054847488655617e-02
      -7.8870272628142890e-03 -1.2190919440228855e-02
      -1.8079954250998648e-02 -1.7833353445203440e-02
      -9.6334546201283285e-03 -1.5873529477148738e-02
      6.9579946587037776e-03 2.4855936169980327e-02
      1.9115941006506668e-02 3.7791776675001288e-03
      -1.6240134133424150e-02 -6.5018245158460358e-03
      -1.1260757260634255e-02 1.1178727769161791e-02
      3.9540135961975307e-03 1.7254424753915053e-02
      9.0363864901693014e-03 2.7957257554277032e-03
      3.5161064036712398e-03 -2.7474466685434101e-02
      1.2862417705514479e-02 -6.4652857114873546e-03
      -1.3950111447171584e-02 1.4855917333136020e-02
      -2.9792621220760089e-03 4.2366663203188193e-03
      6.8397375269602526e-03 -3.3483102867850356e-03
      -3.9725634445361944e-03 1.5871381932908324e-02
      -1.9668686900212663e-02 -1.3492721297804025e-02
      1.7635031906205068e-02 8.3324829839750147e-03
      2.5758916913597107e-02 1.8511125005993449e-02
      6.9270790310067441e-04 -1.9996808217305248e-02
      1.1453335037332872e-03 -1.8888683640960132e-02
      1.2234416182787772e-02 -2.4127136875913631e-03
      -6.1057185864607641e-03 -1.2518576300215106e-02
      -7.7447245354466390e-03 9.0827936865561353e-03
      1.5435852638797327e-02 2.3968576948550802e-03
      4.5204538976705644e-03 1.6459960888158716e-02
      2.4223380129896306e-03 -2.2307854610503171e-02
      1.1310143370406506e-02 2.0523669672142673e-02
      5.9074431692982439e-03 -2.6424100209749019e-03
      -6.9561708116895118e-03 -7.4417811059331361e-03
      -2.7792557645752530e-02 9.0646823413608503e-03
      -8.2814899867810678e-03 -4.7186528951434736e-04
      9.2651324533780440e-03 1.5981217702549108e-02
      -8.1645757547432057e-03 1.2083369985160842e-02
      -2.2236680975697906e-02 2.6184199480554522e-02
      4.2233588325390056e-03 -2.4322096510993391e-02
      -2.3680038931906466e-02 -1.7778080819814336e-02
      1.6898983889445329e-02 3.6118893181198096e-03
      2.6562638641967562e-02 -1.1270074487306908e-02
      -7.4418812563354191e-03 -1.9739995353877455e-02
      -8.7872848228260844e-03 -8.1199206329400034e-03
      -1.4233695806834342e-02 -3.6272104361536666e-03
      -1.9750061346255704e-02 -5.7008058052377773e-03
      1.0722253271946288e-02 1.0480574372288994e-02
      3.5848841770169664e-02 -5.3099875782871755e-03
      -3.5224199357151237e-02 8.9653108215785181e-04
      1.2328506932586636e-02 -5.7176631123822723e-03
      -5.8573851784428166e-03 -1.6555500803644412e-03
      -1.2786788444241240e-03 5.3596465661483860e-03
      -3.4329615878384831e-04 2.1524201356436451e-03
      1.1455469270383486e-02 -2.1254023402201366e-02
      1.7075121974004480e-02 2.1346513619091442e-02
      4.9667502203152650e-03 3.7938065423561727e-02
      -7.6199734745860323e-03 -2.1442312419967410e-02
      2.6542400580554865e-02 -1.5227864544879011e-02
      -2.0077519691307668e-03 1.0614352292071879e-02
      -2.0298942110980986e-03 1.5393406125300834e-02
      -2.9774774092512727e-02 2.0502591293010658e-02
      2.4950924952280355e-02 -1.4659093606668335e-02
      4.5396163214536912e-02 1.4485959538341744e-02
      1.6355836241089602e-02 3.3702341577894236e-02
      -1.2685089326021496e-02 -9.6756399906236142e-03
      -9.3547580791699368e-04 -5.2191157847601179e-03
      5.2588808794723019e-03 1.7200206546371884e-02
      8.5648664983018780e-03 -1.0839284735807224e-02
      2.8453543649890841e-03 -4.4340779404297382e-03
      1.5280445713248089e-02 -1.6585000504964947e-02
      1.9517035726804639e-02 2.9825226082444485e-02
      3.2164707950674805e-03 1.3025234963673934e-02
      3.5025016996186997e-03 -1.0493466131606137e-02
      -3.3543849804106110e-03 3.5399184074877046e-03
      -9.9324149882752955e-03 -1.3641516180580269e-02
      -5.1182914711009039e-02 9.0673852280748440e-04
      -4.5944981259325246e-03 2.8252782445320468e-04
      8.1914785875314925e-03 1.0747789661257110e-02
      -3.2112379319411084e-02 5.4147581509983141e-03
      1.3299630408060490e-02 -2.2339446695443920e-02
      8.7082167404930223e-03 8.7493036445592982e-03
      1.6386237851337943e-02 6.0966803580595318e-03
      4.1452194625247442e-02 1.4544995043398694e-02
      -8.0261577205115609e-03 5.6152972100050047e-03
      6.7694928464269114e-03 2.9918404952369998e-02
      8.5499327030868107e-03 -1.7698740777678697e-02
      -1.9828536325863188e-02 -8.7342981480996763e-03
      -1.8673841722828894e-02 2.8351803984421140e-03
      -2.6554572390203091e-02 -1.8963585505350419e-02
      -2.0566404503722224e-02 2.3049454403741895e-03
      8.2593112495786582e-03 -9.7718371572373709e-03
      2.1825804093704004e-02 -1.6281732767410555e-02
      -5.3638012031393669e-03 1.4344461762221179e-03
      -5.0288313417653149e-03 1.2835753261495121e-02
      -2.0122237579114348e-02 -1.1220472587615373e-02
      2.7416630699434178e-02 -1.5790535454133163e-02
      5.6302163973192629e-03 -2.1657142840660157e-02
      7.1459917606352856e-03 1.7635401612438754e-02
      2.3352394928763624e-02 1.8160875665997880e-03
      -1.3376408281799231e-02 1.4523041717378456e-02
      1.2652631793708203e-02 9.2690454163536842e-03
      -9.9364007016727249e-03 1.6816621741855677e-03
      -2.4624293384181588e-02 1.3358612923156874e-02
      1.1846435286125567e-02 -2.1905754819889531e-02
      -2.0510344223074375e-02 -4.1293273970946015e-03
      2.5480948185102700e-02 -1.0591908790821577e-02
      1.2469672642624796e-02 2.9649398348731422e-03
      -1.3306079846735470e-02 -7.2560000419407819e-03
      -1.1665082687087989e-02 -6.8864900804220769e-04
      -7.7936365500910912e-03 -4.5459586723265314e-03
      2.7914832509156181e-03 -1.7515422377212504e-02
      9.2254844713438987e-03 1.3105924299215380e-03
      -2.5369931549602171e-02 1.4877476918227207e-02
      8.2015381910134303e-03 3.0737151666866296e-02
      -5.2719588238489337e-03 2.3213899928911604e-02
      1.6214007213897146e-02 9.9187427357452437e-03
      1.0352551961233521e-02 4.7838848055401688e-03
      -1.2563941627745536e-02 1.2633870753336052e-02
      3.7007355799271594e-03 1.2667615045082960e-03
      1.5441843270244022e-03 1.1899795832713618e-03
      -7.8486502804229648e-03 -5.4849092705061544e-03
      7.1195439357256236e-03 -2.0456295230338858e-02
      8.9854454101281032e-03 1.8040950069157319e-02
      -1.5168167895981704e-02 -5.6041081183229920e-03
      8.9780625150009136e-03 6.8598425056337438e-03
      -1.2932532924184604e-02 1.8952504297798271e-02
      9.3103737987235962e-03 4.1392383905628979e-03
      -7.1192942221909652e-03 -6.3410674040576230e-03
      -1.3908663616636561e-02 1.6103518765451810e-02
      -4.5264390362076030e-03 1.0201030999632611e-02
      -1.6101965412763122e-02 2.0846770657104399e-02
      1.5311139232715588e-02 1.1676353284237887e-02
      1.2588004289132246e-02 -1.7906026459369426e-02
      4.2866416558844048e-03 5.9350781171203593e-03
      1.3694295779915574e-02 2.0580737172301668e-02
      -1.2331388584697239e-02 -3.2212213054789912e-02
      7.1701520450222038e-03 8.6318311564431618e-03
      2.7160075850455274e-02 3.9339530390814998e-03
      -1.5307733754335659e-02 3.5857727743470948e-03
      1.9803566957526456e-02 7.5261707590769085e-03
      6.7062413037971419e-03 -1.1222634505445740e-02
      -3.5085966557826857e-02 8.5996559941714980e-03
      7.2719322193191037e-03 1.6848985447026520e-02
      -1.1838703918821952e-02 3.2021000436315080e-03
      3.9419862928203438e-02 2.1718569161220162e-02
      8.9782961945174700e-03 2.5623475022333517e-02
      -2.2588571379827588e-02 3.2303130198419031e-02
      -1.5700896255418033e-02 -9.4481705922675602e-03
      -2.5053454360480416e-02 -4.1721563089220176e-02
      -1.2191752767592748e-02 3.6677781786850196e-02
      2.9324963003630793e-02 2.7964740597612808e-02
      -5.5999379081151501e-03 9.6902957767327040e-03
      3.9431952422082674e-03 9.2619760423134027e-03
      -9.4450657230404460e-03 -3.3271407026846211e-03
      -2.6179921645736416e-03 -1.7586726460379461e-02
      -2.8938116468008604e-02 -1.7956190343271434e-03
      3.6220926116062721e-03 -1.6220392898886458e-02
      1.7184272485803391e-02 -3.4585099548840835e-03
      -8.7917898858913268e-03 -4.4645877648127209e-03
      -2.6333825419786468e-02 5.4165236701166127e-03
      -5.9184256770826284e-03 1.4563487669662627e-02
      -5.5407229439763978e-02 2.8281753323637183e-02
      2.6793598688444397e-02 -2.1519329380641314e-02
      -7.8079909247526424e-03 -3.7220018424323063e-02
      2.3256862757071298e-02 -1.1394017071621333e-02
      -7.3639425546098312e-03 -2.4628487081082590e-02
      -3.9259652754863990e-02 -7.6619384732635101e-03
      7.1924228267513527e-03 -3.0775329121046389e-02
      1.7044730584542849e-02 -7.7327735409808600e-03
      -2.2356335749254660e-02 3.3126740945127403e-03
      -1.3142279576403034e-02 -2.1648901124220622e-02
      3.1477756216420780e-02 3.1270342128564828e-03
      -2.3363362326075773e-02 -2.5917108926768713e-03
      -1.8174345721548215e-02 -3.7627517022739795e-02
      4.1307540791561660e-02 -4.7528632421643062e-02
      2.6248203849555181e-02 -4.2648190106475553e-02
      -7.2913151396322316e-03 -8.9487912608232668e-03
      -3.6145650771947763e-03 1.6267765303933063e-02
      2.0171797044529569e-02 -1.3948150858001872e-02
      8.5496109418287617e-03 -7.0938845459074347e-03
      1.0354478607792560e-02 -8.5658924846504642e-03
      1.2453763745109050e-02 2.6263482612351122e-02
      1.6874357962749522e-03 2.3573185676685562e-02
      -4.2574970800936890e-02 -6.5064802069152664e-03
      1.1999906565438322e-02 -9.5176470916505428e-05
      2.6040630183771656e-02 2.7741204697882490e-02
      -1.3788135463688218e-02 8.3413660011043209e-03
      -3.1231414145624081e-02 1.9103785094671352e-02
      3.1698096291105371e-02 5.6891659486462494e-04
      -3.4152478268436801e-02 3.4117808575345208e-02
      -2.8710698268365076e-02 1.8589648386328938e-02
      2.4675017018658554e-02 -1.6565237147589701e-02
      -1.3526627707487707e-02 -2.4166409814180067e-02
      -1.5480151989215554e-02 -1.1344739983666637e-02
      -1.2833189917961904e-02 -3.0188783437262175e-02
      -5.1591474030171303e-03 -2.4926124733355051e-02
      -1.6029412919374417e-02 2.0505453501282581e-02
      1.8323425122516925e-03 -2.5942590505531087e-02
      1.8821512220984274e-03 1.2953228237453013e-02
      1.9136889392994847e-03 -1.4625032562497258e-02
      -1.5787474130917030e-02 9.0009593583377026e-03
      -1.7684919761798364e-02 -4.1768482539111841e-03
      -2.4701062814007659e-02 2.0024412396935934e-02
      -5.1948893729368666e-03 -6.8767553380299237e-04
      -8.0239193094576028e-03 -1.1536279973919676e-02
      1.9077955413796182e-02 2.2508850049042732e-02
      1.7148919376491665e-03 -2.4739758268345166e-02
      8.5814420332015386e-03 9.0178594207213636e-03
      1.7274882055000926e-02 3.0516863961045429e-02
      1.6578404799154744e-02 1.8052121337052546e-02
      -1.7859844320877354e-03 -1.8759485534278281e-02
      1.4844210352508245e-02 -2.2019246544428862e-02
      2.0341702973194670e-02 5.2596329288870092e-03
      3.1052457143330370e-02 -6.3886175503601325e-03
      -2.7849607524194818e-02 5.5431771134546682e-03
      1.4699483723543828e-02 -2.7706131188911267e-02
      1.8694855684645202e-03 4.1096712886578596e-02
      5.0862722842609960e-03 -9.9664185850199555e-04
      -5.2138478269157804e-03 -1.9264089620277567e-02
      -1.9774066138833059e-02 -3.3314843096060344e-02
      -1.1162722402679930e-03 1.6532036345722385e-02
      -1.3050258688599799e-02 2.3080942208842280e-02
      -1.9941747481958115e-02 -2.0587060274304202e-02
      3.7441288752860333e-02 1.6957888740102293e-02
      -4.7349035234037648e-02 8.7009928714475160e-03
      -4.0926084646055905e-02 2.6315291956401379e-02
      -1.7960814876967362e-02 -1.1918455884950559e-02
      7.3345969614803505e-04 -2.3257806988252229e-03
      -1.1078684876529375e-02 1.5198754089097252e-02
      -9.4284432825693792e-03 -2.8024276209091888e-03
      1.2128526116335678e-02 7.2038813621990681e-03
      2.0886309088635268e-02 -6.6182760199846357e-03
      1.1814516558734320e-02 -1.1477671462233610e-03
      -1.4666143438704649e-02 -1.1287833197122881e-02
      -7.1595807666910731e-03 1.5906306914099826e-03
      -4.8342293488040427e-03 -2.0117557112514669e-02
      -1.6565901525294253e-02 3.5296695326798543e-02
      1.5489577079328116e-02 1.1508043936740188e-02
      4.3320805249782721e-03 -1.1065798133637525e-02
      -6.3959923265002596e-03 9.7029138698052075e-03
      -1.9425890591834385e-02 -7.1935497990705663e-03
      1.7770966005263660e-03 -1.7200746992244487e-02
      -8.1393752765034563e-03 -8.2710584387510819e-03
      -5.8786806969243080e-03 -3.0251621371194314e-02
      -1.4664515370895555e-02 -4.6442746652462221e-03
      1.6628219039973996e-02 -9.7646820616462023e-03
      1.8874544065126491e-02 -1.3859134820474370e-03
      -3.0524727127891952e-02 1.0078020367890381e-02
      4.0418774460482268e-02 6.3632189161085331e-03
      -1.3182115016317050e-02 -1.7292418068018272e-02
      -2.0339500978147330e-02 -6.4877167636917749e-03
      2.8265499827230338e-04 -2.9018443641529716e-02
      -3.4190335669055869e-02 1.0174068262520824e-02
      8.0640550268980468e-03 -2.6931494561482906e-02
      -1.8736397826663458e-02 1.3928340031068904e-02
      9.0103467856351392e-03 -1.4202509259653698e-02
      8.9988501635123140e-03 5.3687519568147981e-03
      -1.6880171214570572e-02 9.2009988797578414e-03
      -5.5944973210246660e-04 -8.7264185277340072e-03
      5.6147231457222236e-03 1.8842500324915852e-03
      -2.0833951922005437e-02 7.1122008938699823e-03
      1.7103841012768028e-02 4.0329142776573731e-03
      -6.9630332285839638e-03 -2.0661614938531594e-02
      1.7297811505935772e-02 -2.0430392282277192e-03
      1.6778739433206371e-02 1.0929321629373186e-02
      -4.1762369560308819e-03 -2.7376698142395160e-02
      1.7898818723930014e-02 7.8573199165826149e-04
      -5.4727047089352188e-03 1.5437094750174789e-02
      -3.1160888022229425e-03 1.8842482348246675e-02
      4.9811973309548379e-03 -1.2949217890726497e-02
      -1.0532755456883940e-02 2.3256213126321909e-02
      -2.4989081922809436e-02 9.7761185301202171e-03
      -1.5692961297402323e-02 8.3388116561095727e-03
      2.0486874679576321e-02 6.9131304224888314e-04
      -3.0042430219842302e-03 -1.0210776742005259e-02
      1.2004121374135446e-02 8.8609656934242071e-03
      -1.6358465254926267e-02 -2.1459339502752167e-02
      -4.2553149578352639e-03 -1.1059534194629341e-02
      -2.4330237993471650e-02 1.2497156099250508e-02
      -1.8292540372268996e-02 2.1130002817912323e-02
      -1.3039287364179038e-02 5.8109691379143735e-03
      -3.5724542729487219e-04 -2.2563941642367927e-02
      -2.8437766755631682e-02 -3.4263017663611700e-02
      2.4552488947698910e-02 3.0581610355278961e-02
      2.9693844027826126e-03 2.8606770237972223e-03
      2.0560037036817008e-02 -8.8903531934004625e-03
      2.7448811252824445e-02 1.2570798645569153e-02
      2.9338589442175586e-02 1.6356459079235985e-03
      -8.4243352660257065e-03 4.5606991833627101e-03
      1.8093225708818250e-03 -4.3794898610185051e-03
      -5.6917247757693893e-03 -3.2639261185498786e-02
      -3.2577878031702398e-03 -1.7424576721185438e-02
      1.1673532770352086e-02 7.9844129072196030e-03
      1.3312201916499337e-02 -2.2493572271305828e-02
      -2.8036367801935979e-02 -5.9776003038691143e-03
      1.2705294017091438e-02 2.2574771665483100e-02
      3.9421316871382497e-03 -1.1568338395376342e-02
      -4.3872987410083435e-02 -7.5312525483685637e-03
      2.8592566283854922e-02 -1.7283925105931779e-02
      -1.5546912357914837e-03 6.3063975236997711e-03
      1.3402075254286742e-02 -6.9096795043472551e-03
      -1.0267931898636994e-02 -8.6254550088750992e-03
      -2.0818986433234158e-02 -2.9280306466059624e-02
      1.6354075417261721e-02 -3.4006926578057602e-02
      -4.2697276522625028e-03 -2.3722255269597817e-02
      2.2374801208831511e-02 -1.3949251448166451e-02
      6.6983723270820335e-03 4.2642660702244583e-03
      -3.9817024541451869e-03 -6.5513157798426942e-03
      -1.8895086286947117e-02 -1.4902027411785829e-02
      -2.0266377272517056e-02 -5.8676614687626256e-03
      5.9920393747140447e-03 -1.9372524173919131e-02
      -7.7070346214209670e-04 -1.8478182356194112e-02
      -1.6414418863553881e-02 -3.2910916658831280e-02
      4.9969838789030311e-03 -1.0162963481723212e-02
      9.5395150531510271e-03 5.6562527766996660e-03
      -1.4653209828145167e-02 -2.0063357636383145e-02
      -2.0091874160051517e-03 1.5021492320859220e-02
      -1.0762989410070751e-02 -1.3023149905914884e-02
      5.1501319088750851e-03 1.5488594701446591e-02
      8.9054803288838593e-04 9.3459165278323986e-03
      -2.1637584311704573e-02 -1.1151545633484222e-02
      5.0260369551126272e-03 -1.0567938966742392e-02
      -5.2937878772642676e-03 -1.9410074893499177e-02
      7.9831682961844057e-03 -3.9593796394472918e-03
      1.8662321331712941e-02 -4.4410323384025070e-02
      2.2413899540401572e-02 1.3580697883656782e-03
      -1.6365877150117697e-02 -1.2278226446018732e-02
      2.8815839213657615e-03 -2.0231236244981438e-02
      -2.7393937500584734e-02 1.9456420237325023e-02
      -2.8068775339242071e-03 -1.4783211315204552e-03
      1.0986010350388924e-02 2.7847820036881188e-02
      2.1991368928093984e-02 8.1575755391055608e-03
      -1.9911235789852551e-02 -1.6078081632621571e-02
      1.0952631778210497e-02 -1.2723394380662126e-02
      -8.3018310703296821e-03 1.8353695092506356e-02
      3.3421362363027452e-04 4.3509193681121909e-03
      2.3583403603641192e-02 2.6807921712441788e-02
      1.7838278049711952e-02 2.7047658718385024e-02
      -1.5504840212525576e-02 -1.7428944099041457e-02
      -1.0234878288924979e-02 -6.8199266163905007e-03
      -1.0818314868595602e-02 9.5475935193938734e-03
      3.1579876357590055e-03 -1.3237263062355051e-02
      -6.9934839998262756e-03 -2.0201264521043889e-02
      1.1924535240454899e-03 1.8466820804582521e-02
      -1.0120328679936518e-02 -7.2271727188700091e-03
      1.2281398925206804e-02 2.0369105688899197e-02
      -4.5456881791625442e-03 2.6447317016140691e-02
      8.2890294809202791e-03 1.0790605126137500e-02
      -1.7563935065073519e-02 -2.7230263538717153e-03
      -8.0528578312043676e-03 1.8409175916452594e-02
      -1.6171930901828162e-02 2.2326651931638901e-02
      8.1417373297936247e-05 4.0603473438249875e-02
      1.8758480560635515e-02 1.8133670931874710e-03
      -2.7224611495154840e-02 -1.3915612242831081e-02
      -7.0853209976035727e-03 -1.3047728327982787e-02
      1.4217758177645612e-02 -1.2848349217473623e-02
      -2.7963501234578216e-02 -1.0856677569491177e-02
      2.7845581601571509e-03 3.5198856153285398e-03
      8.8125894431759569e-03 8.6624423891783556e-04
      5.9593059716683263e-03 -1.3651208570798717e-03
      -1.1802928199789314e-02 -3.5107062034935763e-03
      -1.8468045169702265e-02 -1.5619890856961489e-04
      1.5769513290359825e-02 -5.7318428595958129e-03
      1.6171433202012513e-02 1.3434545213921064e-02
      1.8514283860415624e-02 2.2513202935628807e-02
      -9.0265092245982188e-03 -5.5134429022183126e-03
      -1.0367519066462282e-02 2.9814698956976471e-02
      2.0611243794311281e-02 -1.4859853203253164e-02
      -5.8334297726626780e-03 2.3237100903845665e-02
      -1.0162016761729453e-02 1.6132468870602375e-02
      -7.9896331831095582e-03 -6.6204437688889718e-03
      1.2927365725668435e-02 -5.3578086084761012e-04
      -2.9885126844859843e-02 -2.4959212647678478e-02
      -2.2736140104898719e-05 -3.5616863664723823e-02
      1.1781600330695899e-02 -3.4314935907923186e-02
      3.5906764042326449e-03 -6.6460609174558496e-04
      -7.6136729860067356e-03 1.1830205813519720e-02
      1.2943496985658305e-02 -2.4057570503785517e-03
      -3.0357415101726959e-02 1.4464170757584240e-02
      -9.8434288999697094e-03 -4.9108670829546988e-03
      9.3742011918499617e-03 8.0395499813868641e-03
      -2.4034779188999494e-03 -9.1345972627349930e-03
      -1.0912658818423059e-03 8.0914591248226198e-03
      -7.6309112392766998e-03 -2.3481500279837777e-02
      1.5830737032564983e-03 -1.2367970538731806e-03
      2.1107102969494019e-02 -2.8626216044325323e-03
      -2.4979185283198351e-02 2.3438254925696868e-02
