<?xml version="1.0"?>
<opencv_storage>
<opencv_ml_ann_mlp>
  <format>3</format>
  <layer_sizes>
    19 100 100 100 10</layer_sizes>
  <activation_function>SIGMOID_SYM</activation_function>
  <f_param1>6.6666666666666663e-01</f_param1>
  <f_param2>1.7159000000000000e+00</f_param2>
  <min_val>-9.4999999999999996e-01</min_val>
  <max_val>9.4999999999999996e-01</max_val>
  <min_val1>-9.7999999999999998e-01</min_val1>
  <max_val1>9.7999999999999998e-01</max_val1>
  <training_params>
    <train_method>BACKPROP</train_method>
    <dw_scale>1.0000000000000000e-03</dw_scale>
    <moment_scale>0.</moment_scale>
    <term_criteria>
      <iterations>500</iterations></term_criteria></training_params>
  <input_scale>
    1. -2. 4.3669280382522953e+00 -2.8721728380990781e+00
    1.0007395140933410e+01 -2.6019248412839771e+00
    8.7173537541554822e+00 -2.2047265267731397e+00
    9.1847218515081330e+00 -2.1023835493937835e+00
    8.3942494460448476e+00 -1.2214912979658838e+00
    1.7441631761742617e+01 -1.4600062832741652e+00
    3.2733809033548376e+01 -1.8886198367846596e+00
    4.2066175670960320e+01 -1.8044764717845396e+00
    5.4679686583487538e+01 -2.0481679999253561e+00
    6.2355274001657143e+01 -1.9023858669937486e+00
    7.5015743517359965e+01 -2.1380224951401918e+00
    8.0511790893824184e+01 -1.9845581727854198e+00
    7.8682816822381497e+01 -1.8528978535823901e+00
    1.0779852112105296e+02 -2.2166908670513776e+00
    9.4979402908541260e+01 -1.7533266892717059e+00
    1.2286547320819359e+02 -1.9745335727664755e+00
    1.2523144392981425e+02 -1.7783117988215824e+00
    1.6249808771112188e+02 -2.1135820439423703e+00</input_scale>
  <output_scale>
    5.2631578947368418e-01 4.9999999999999994e-01 5.2631578947368418e-01
    4.9999999999999994e-01 5.2631578947368418e-01 4.9999999999999994e-01
    5.2631578947368418e-01 4.9999999999999994e-01 5.2631578947368418e-01
    4.9999999999999994e-01 5.2631578947368418e-01 4.9999999999999994e-01
    5.2631578947368418e-01 4.9999999999999994e-01 5.2631578947368418e-01
    4.9999999999999994e-01 5.2631578947368418e-01 4.9999999999999994e-01
    5.2631578947368418e-01 4.9999999999999994e-01</output_scale>
  <inv_output_scale>
    1.8999999999999999e+00 -9.4999999999999996e-01
    1.8999999999999999e+00 -9.4999999999999996e-01
    1.8999999999999999e+00 -9.4999999999999996e-01
    1.8999999999999999e+00 -9.4999999999999996e-01
    1.8999999999999999e+00 -9.4999999999999996e-01
    1.8999999999999999e+00 -9.4999999999999996e-01
    1.8999999999999999e+00 -9.4999999999999996e-01
    1.8999999999999999e+00 -9.4999999999999996e-01
    1.8999999999999999e+00 -9.4999999999999996e-01
    1.8999999999999999e+00 -9.4999999999999996e-01</inv_output_scale>
  <weights>
    <_>
      -8.5151453084512774e-02 5.1105702281021029e-02
      -9.0417060044156991e-02 5.9340028229589760e-02
      -9.4961789959090118e-02 5.4044030004972446e-02
      2.6088545135658767e-02 5.0322522767863836e-02
      -6.2470031890959218e-02 8.0057607543741555e-02
      5.8912642384791249e-02 5.4224128901823376e-02
      -7.9642766019585143e-02 9.7716002521208892e-02
      -8.5106944912930041e-02 -1.9658836790470976e-02
      3.1299004302821939e-02 3.5567625035468503e-03
      7.3790168935351994e-02 5.6847055027048884e-02
      5.1445202716620092e-02 -6.9686154648284038e-02
      -7.0907783831018950e-02 -2.4178219150151045e-02
      -6.4621354425354383e-02 -7.6924569192700770e-02
      -6.3164422309967480e-02 -9.3799923178375044e-02
      -4.0813828403485096e-02 5.7876697027407546e-02
      -3.0069184394714229e-02 5.4695146675656522e-05
      -7.3826337826576105e-02 2.4971859293706312e-02
      -2.8060562854650722e-02 -5.0904769850824781e-02
      3.2028201955376326e-02 2.3387292288719125e-02
      -3.3855203794342731e-02 -4.8150232435065977e-02
      2.2075404090656021e-02 -8.4980913266494373e-02
      -9.6997472821043138e-02 2.2316128552806376e-03
      5.5474787663914588e-02 -4.2138118172378128e-02
      -8.8960300509884765e-02 1.6002932863934619e-02
      8.1287039566425218e-02 -1.3386968229646192e-02
      7.5661223373504491e-02 -4.1979277770153776e-02
      -7.4546219463866520e-03 2.5534542659832449e-02
      -9.7694719292053145e-02 8.5423076909338674e-02
      -5.4046248208967328e-02 -7.0932155918293271e-02
      -8.3174417017368690e-02 -5.4780723403319315e-03
      5.8572456603520867e-02 -3.2135074788053282e-02
      9.7786714001757979e-02 6.3389078153651399e-02
      8.9060914214900241e-02 -1.1945622352474580e-02
      5.6635585164858344e-02 7.6425458330676372e-03
      7.3359689479319326e-02 1.6579264643087725e-02
      -9.6667162894555139e-02 8.6019870419150782e-02
      2.8564186367027091e-02 -7.9501641410204549e-02
      2.5820045835357342e-02 -1.1597831550849322e-02
      9.9907568819461043e-02 3.9338924253189661e-02
      9.9050890244670162e-02 2.7322629724949466e-02
      -3.0759226659038741e-02 9.1900406590027420e-02
      -1.9076326461888674e-02 -7.4915048628769160e-02
      1.5315722595577947e-02 7.0812603512460326e-02
      5.9057290544438723e-03 -3.4533077061451214e-02
      1.2566184799044186e-02 -4.1603450113964976e-02
      5.3998234456382271e-02 9.1415882585024782e-02
      2.2012317006565845e-02 4.2298231782311166e-02
      9.6042328630218152e-02 -1.5893225732484518e-02
      -6.7965100530895925e-02 9.0891205436189185e-02
      9.6805771522125272e-02 -8.1721808975944610e-02
      -1.0693894166807223e+00 1.1943413148124646e-01
      -1.8638688234775330e-01 -1.5004339765078414e-01
      -2.3636115517549514e-01 1.5403460639529026e-01
      3.7400531792371877e-02 1.7221217940290748e-01
      2.6429666463776785e-01 1.6726584742132945e-03
      -6.1985881068970704e-02 7.7298507381249229e-02
      -2.4985461752800467e-01 1.5378373579827348e-01
      -1.2089080875783624e-01 8.4381918667603986e-02
      5.9999868627233728e-02 1.6961282425749544e-01
      1.2185590147523501e-01 -4.8738201571047982e-02
      3.5746559759955304e-01 -1.1098035963567741e-01
      -1.5001736462262447e-01 2.3612184557311922e-01
      -1.5772876783572198e-01 -2.2071318649394328e-01
      5.0716274940894399e-03 6.8751155399170627e-03
      1.0347466124608911e+00 -2.3808632460067997e-01
      -1.8408213237508225e-01 2.3210433920162679e-01
      2.1408343179414674e-01 9.7520513385669305e-02
      2.0423225066460643e-01 8.0371936586370527e-02
      6.2004622265526978e-02 4.0511977979844530e-02
      -1.8854437766651141e-01 -3.7466674782738406e-03
      -2.2496975157820256e-01 3.7760102027613533e-02
      -3.3518373425391934e-02 1.0389844311475696e-01
      -2.4623261120234330e-02 7.8915369182736950e-02
      1.2674721129576813e-01 1.9082268899601254e-01
      1.7998876893613489e-01 6.6539647595594137e-02
      -2.2649728603533772e-02 -5.3295193054825607e-02
      3.8091086079765496e-01 -1.3638499663249004e-02
      1.1293150739606914e-01 1.0478649624902181e-01
      2.2202398963631823e-01 3.3094007133510295e-01
      -4.1396498271739780e-02 -3.8568603542833058e-01
      1.6976526583375406e-01 -1.6135920562975450e-01
      -8.4281275743483958e-02 3.7948175837468001e-01
      -1.9554985072572903e-01 -3.0252608241215317e-01
      2.5035464444254257e-01 -1.1227861316123788e-01
      -3.2262239094007145e-01 -1.6028918476343029e-01
      1.8679028285865856e-01 2.0746073530103776e-01
      -2.8774270416597535e-02 -2.9546369116756344e-01
      -3.6656418922556541e-02 2.6417461590313784e-01
      2.8961243659550936e-02 -1.7306919917170935e-01
      -1.0348928689861364e-01 -1.9407873229375205e-01
      2.2022360526409136e-02 -1.5201820983579517e-01
      1.3698495035758082e-01 -3.9717805333110992e-02
      2.1663711243573897e-01 7.1571406055561629e-02
      5.4783316421378431e-02 1.0712891317705078e-01
      -2.6500703482373250e-01 -1.7676532770424289e-01
      3.1232629982807908e-01 -1.3595713686514260e-01
      -3.4664459772274797e-01 1.2341452304363934e-01
      -1.3445851803699872e-02 -5.7402082477377978e-02
      -3.0943511561778231e-01 -1.9307987424054987e-01
      5.4140807939839133e-03 -3.1843309300597189e-01
      1.0995911255910359e-01 -3.4397908572235070e-01
      8.2164672500189315e-02 -5.2964295922166421e-02
      1.3464801134030700e-02 1.6308429332713266e-02
      2.4522131759300819e-01 -5.5085953221042469e-02
      -1.8924653450651144e-01 7.2746772683265043e-02
      1.1967379881567512e-01 -1.4705642520248502e-01
      -1.1426365621116184e-01 -1.0144214409127424e-01
      -2.7062849947040735e-01 1.7834287594025502e-01
      6.1174873707668970e-02 2.9292822026110804e-01
      -2.1661418826506254e-01 2.5936461577128378e-01
      3.0104421379848012e-01 2.4256546625243380e-01
      1.4756828020240698e-01 -1.6135166672319326e-01
      7.1311022499646423e-02 1.1367629730918749e-01
      -4.5135428511360251e-02 -6.2703892561971689e-02
      -1.4289996156920451e-01 -1.1850546559520063e-01
      6.6016320846379378e-03 -3.5705102103859065e-01
      -6.9209232440916632e-02 1.1852543264811789e-01
      1.9941731497427173e-01 1.6070763911202511e-02
      2.2698076051102044e-02 5.0150102814177644e-02
      -8.2414756924039836e-02 -9.7782047617369208e-02
      1.5341211554069212e-01 -2.5934242075190928e-01
      2.6339101400430741e-03 1.9927509092389939e-01
      1.4914544500103097e-01 3.0396613300428654e-01
      -4.7776834865961043e-02 -1.3432306857195089e-01
      -9.0711936721917810e-02 7.0086200327640763e-02
      2.1056971879583726e-02 -9.1025477803340277e-02
      7.4425797933841253e-01 -7.2939990648404340e-02
      7.3563444392329591e-02 -2.3256188360781138e-01
      -2.1612054802956415e-02 3.7668878438899561e-01
      1.3704549010067377e-01 2.8605002014209398e-02
      2.1102805352621690e-01 1.2351132741365781e-01
      2.1330799263019715e-01 -3.1801496351646370e-02
      -9.0241450807396123e-02 -3.1224249969464613e-01
      -8.5668664320256244e-02 -6.4769179665701004e-02
      -7.1298272598543141e-02 -1.4697053842958541e-01
      -7.8169085135544145e-02 -6.0600303635549385e-02
      1.8576582659081728e-01 -6.0468422311324398e-02
      -1.2637393323260843e-01 1.8989541928765494e-02
      1.0743716924422400e-01 1.9107376640369041e-02
      -2.4945521808763257e-01 -1.5968297154299801e-01
      5.4001483295679699e-02 2.5770778439943642e-01
      4.2495035689393557e-01 7.6383655574021381e-02
      -1.4127513161132044e-01 8.7777571666392981e-02
      -1.5267389421867247e-01 1.8026110726009534e-01
      -1.7627075563002412e-01 -1.0679686325965994e-01
      -2.0353192159309616e-01 -1.0763178868102699e-01
      -3.7633972776605594e-02 1.0205179857721844e-03
      8.4463688991402053e-02 -1.3089622307659890e-01
      5.8805252334701567e-02 -1.5262478148054995e-01
      -1.0692832651607298e-01 -3.1015139943230086e-01
      -5.1651010163363986e-01 -6.7154926105208212e-01
      1.0222481536580687e-01 -4.8346592974469443e-02
      4.0096324684642113e-04 8.3111290389986367e-02
      4.0092081706452198e-01 1.5103420626681133e-01
      1.2085313221586015e-01 -2.2182607269139076e-02
      1.8752220225317375e-03 2.1434324413082698e-01
      -2.9291131369410872e-01 7.1266617342241947e-02
      -1.5625933202315800e-01 2.3384466811369939e-01
      5.7003422384665423e-02 1.5672860928615237e-01
      -2.6499162174566430e-02 -1.6726394549010939e-01
      -7.7034260532964804e-02 -1.0160791279971482e-02
      -1.9561164876067677e-01 1.4827089349717268e-01
      -1.7734489640865947e-01 -2.6439287024692754e-01
      3.2015458256086260e-02 -2.1050148541299310e-01
      -3.3433918888404757e-01 -2.4775118584921464e-02
      1.0807860507964557e-02 -2.3278588873774636e-01
      1.5055845395976314e-01 3.1758855114791201e-01
      1.6206079962536954e-01 1.0702723684830845e-01
      2.4838133708640575e-02 6.3549744666872632e-02
      -5.6420490667149978e-02 -1.4587935982867700e-01
      -6.5994259379467277e-02 4.1959692117035565e-03
      -1.3627561907698618e-01 1.0803683531839499e-01
      -1.2426166246990748e-01 3.6454271038908120e-01
      -7.9057078853445345e-02 1.5693176502253250e-01
      1.4344893019840405e-01 1.9182849015935052e-01
      2.9376709032060361e-01 4.3373307209598921e-02
      8.2496458907486392e-01 -3.9346115542286716e-02
      1.3005788939045851e-01 3.9581475385301879e-02
      1.3743053812544027e-02 -2.0205195038640142e-01
      -2.9427563844670462e-01 3.1497964019257990e-01
      -3.0176450355169412e-02 -3.1932478459807739e-01
      9.4522466109098603e-04 -1.2037294992255826e-01
      3.6930148293921002e-02 1.2966375400317717e-01
      4.6321383974570814e-02 3.5298284860514458e-02
      6.6688442769662515e-02 3.3282717354150711e-03
      -2.2387716031820742e-02 2.6864201064703896e-01
      1.6209605589379275e-01 2.7628830083995870e-01
      1.3256855707639742e-01 -1.6143359622967740e-01
      5.2342934480373284e-02 3.0992610095951369e-02
      -1.9318819300686449e-02 -1.5267946496866161e-01
      -5.8439418984039690e-02 -1.6485230141657720e-01
      7.2909099097090840e-02 1.7921226869061066e-01
      -1.7927175999130579e-01 1.2485080082145233e-01
      1.1570020043364516e-01 2.5650184685324934e-01
      -5.2676501577968916e-02 1.4367687921348932e-01
      -1.1971361788616641e-01 -1.2388811800294221e-01
      2.2925865922859781e-01 9.7742040377979414e-02
      2.3106728178448276e-03 1.1181033577496184e-01
      1.3055874561436803e-01 2.1685886608293298e-01
      -8.5381650073095006e-02 1.8880759195869556e-01
      -4.6177646065130118e-01 3.3467564062690219e-01
      -1.8364345092595039e-01 -1.6366445611338884e-01
      -1.0118087789239925e-01 -2.3071123615830053e-02
      -4.2927255155252989e-02 4.6567893255006737e-02
      2.0373742529326614e-02 -4.7933924447049470e-02
      -3.0541095295990330e-02 -2.5586781872196075e-02
      -1.4125686591813283e-01 -5.2657688549195662e-02
      -3.7624541069165846e-01 -1.6266754790922064e-01
      4.8176249821974645e-02 1.8734555026102104e-01
      9.7307973758895938e-02 -1.1149880515807532e-01
      -2.1148037604217341e-02 7.3184120798712032e-02
      1.0411866033065079e-01 -2.1566539378202066e-02
      -1.5267209979143082e-01 -1.6066013558274955e-01
      2.8201703226226565e-01 -7.5288966209817565e-02
      5.1470706468220395e-01 -1.6394452441570345e-01
      1.2968513542377924e-01 3.1966238759338667e-01
      6.9451214832166389e-02 5.2318148068051018e-02
      2.2748090211367650e-01 1.1330135934244398e-01
      3.6180522466265568e-02 -8.2872914351016486e-02
      -1.1138314850013102e-01 -5.7909479097961692e-04
      7.0296682258641260e-02 3.3783605151712491e-02
      8.9001722749179141e-02 4.7086608734210889e-02
      1.1545377481572308e-01 4.9878730249178055e-01
      -1.0618458733273893e-01 -1.7734319631081155e-01
      1.0097856562048609e-01 -6.7514561793443381e-02
      -2.1012399530878875e-01 1.5830345259789949e-01
      -1.6750332907837334e-01 -6.0675985587750537e-02
      7.1625272821821837e-02 9.7677202547694783e-02
      6.1151756712343006e-02 1.9239462798170753e-01
      4.4315902354482573e-02 -3.0409172281035246e-01
      2.8204493667522640e-01 -2.1061629316114810e-01
      -1.6003992355945226e-01 -1.9470393205145896e-02
      1.0047498587996002e-01 -2.8547929192833721e-01
      -2.0425034756149996e-01 -1.5559296901606580e-02
      -8.5736683765147009e-02 2.7689822746261332e-03
      -4.0103848312988320e-02 -1.0806588542042825e-01
      5.3068597869995071e-01 9.6846765830617618e-03
      1.5335694899090950e-02 1.5323230932217483e-01
      6.6069166527821507e-02 1.0121666519681352e-01
      -2.1087465325295865e-01 4.7105969416854909e-02
      6.6099976943617217e-02 -2.2614178810343749e-02
      3.3205361170329711e-02 -1.8044368584413360e-02
      1.4182674129763559e-01 2.6448996859839119e-01
      -2.4268717136912288e-01 1.1960840857763341e-01
      -2.3319576309677287e-01 -1.8790097140900094e-01
      4.2261717864865912e-02 -2.0482723339435566e-01
      -2.3732270729139505e-02 -1.1805874667388518e-01
      6.9984868590668242e-02 -2.7363749158329959e-01
      1.1721868882720422e-01 -1.1278375454921094e-02
      -1.3775422999074993e-01 -8.1143668505752636e-02
      1.6452954735176889e-01 -6.9555909133739402e-01
      1.1116064220701243e-01 -2.5534341625327756e-01
      -5.3330132583472863e-02 -1.2237716500348468e-01
      1.7814645061841053e-01 -6.2009025509461899e-02
      -4.9816035282839788e-02 2.0103799016877213e-01
      -2.5810968615901286e-01 1.3288556258058243e-01
      -9.7725878014190651e-02 -9.6846473032546398e-02
      -1.8137549461226726e-01 5.3775000088627081e-02
      -1.0253229115704464e-01 1.3568140696653685e-01
      -2.4669147674598735e-01 5.9630645290158775e-02
      8.1376240954282322e-02 5.3974066138752573e-02
      8.6348605875371465e-02 -4.6127381735378108e-02
      -7.0923191480785179e-03 2.6527062055515423e-02
      -1.7753624478094879e-01 3.5908581244110158e-02
      4.1857019601424994e-01 5.0242179327120058e-02
      8.5118969741600548e-02 6.5491578171732545e-01
      -1.5637131688591771e-01 -1.8021824796964826e-02
      3.8643033573175478e-01 5.8497668885702462e-03
      1.0918162347054525e-01 2.1286862305414414e-01
      4.1039584002788766e-02 1.6967083714291187e-01
      -2.0425074234459984e-02 -2.8775072938678875e-01
      -1.2008236945676909e-01 -1.5124691089199382e-01
      -8.5241239528007051e-02 3.5724820179689520e-01
      5.2668352560800852e-02 4.8236947613529049e-02
      -2.8691287319297227e-02 -3.1411680534886033e-01
      1.8133405749906745e-01 5.1778664224922683e-03
      8.6449925073678280e-01 -1.6707125961608721e-01
      6.0478890568369033e-02 1.1637761643766259e-01
      2.8308152249842966e-01 2.0601338749001621e-01
      -1.0517893928662499e-01 -7.2738471072209640e-02
      6.8826502404169598e-02 2.7983941494559494e-01
      1.0829964840219417e-01 5.8126104590483418e-01
      7.1045021282023516e-02 5.1275209551392299e-03
      -4.2916862471014880e-02 -6.3904327544669112e-02
      -3.2126217607127011e-01 1.7339642396432833e-01
      1.7775484549265166e-01 -1.3303184681758443e-01
      4.4110288674842102e-01 9.7108623972995078e-02
      7.7548189659616212e-02 2.7467600782452090e-01
      -3.4005021264247808e-02 1.2239731200714157e-01
      -1.4131790900681093e-01 1.2425782846214126e-01
      2.1241542351420820e-01 -4.9549512715574137e-03
      1.9113226392251051e-01 -1.9621909391695391e-02
      8.0664581939254118e-02 4.1445219877523792e-01
      6.0631212528646193e-02 5.0526359989839786e-02
      -2.6039822029561144e-01 1.1824987425143865e-01
      -1.2526230414357575e-01 4.2004013344049906e-02
      5.0867538536852157e-02 -6.9436545087197751e-02
      1.2248335733164473e-01 2.3655976647725042e-02
      -1.1658960921437994e-01 1.5728572779788919e-01
      5.3740541580041871e-02 1.2397882020228877e-01
      2.1273929389490673e-01 -1.2604446624661232e+00
      -1.1174241674010801e-01 1.0082731646700943e-01
      1.3481208938703815e-01 -2.1997764916860327e-02
      9.5885621880424654e-02 3.0820946335821456e-02
      6.1161310213103573e-02 -2.0668363588817165e-01
      -6.5144346495529165e-02 -2.5881188849642023e-01
      1.5865073931031731e-02 -1.7625712271691013e-01
      -1.1402039148845536e-01 3.7543292271376805e-01
      3.0667040633131082e-02 2.6762935876760119e-01
      -1.2503178725940171e-02 2.1759657956710918e-01
      -2.8292023868344972e-02 2.6105542965735553e-02
      4.2343873987310965e-01 2.5958004755245890e-02
      -1.0820149268417721e-01 1.4774782456705604e-01
      -2.4804738024009113e-01 -8.7532684313039177e-03
      5.6831987372415538e-01 7.1000315629896241e-02
      7.5462751678626871e-02 2.4676347333545806e-01
      4.9842667670303403e-02 5.5423664977552231e-02
      1.8391194795522814e-01 7.2867655761494024e-02
      -2.6822535766062954e-02 -3.2124500215301034e-02
      -2.6175851257206686e-02 -2.5606994915954223e-01
      2.1184357535520240e-01 -1.0094050206745155e-01
      4.7955932351350448e-02 -4.3181458358905883e-02
      1.6587971918860886e-01 1.6298859266033081e-01
      -1.3484356996326954e-01 -1.0258000561020432e-01
      1.3950410752749684e-01 -1.6028807624301145e-02
      -5.1167597200955347e-03 1.1040102785424191e-01
      1.6395920685621782e-01 -7.8441056178662934e-03
      -1.0355744891725724e-01 1.6427763119897831e-01
      1.3282274302009894e-01 3.4144709666253611e-03
      -7.5658367864348625e-02 5.1990245751330176e-02
      2.2716630737745125e-01 4.3988297858527224e-02
      6.5645193389675283e-02 1.1058337914055867e-01
      5.5874771616920373e-02 -1.0049600322739718e-01
      1.8574284846826178e-01 -7.0688052742104615e-02
      -6.9943365218046574e-02 -6.3083396645184558e-02
      1.0613705047596598e-02 -1.6234258226216686e-02
      2.8881423918772980e-01 -2.5800925350097870e-01
      -4.9532316009598662e-02 -2.6150145600394819e-03
      3.3531829197838155e-02 1.8116538533901058e-01
      3.8824987728459728e-02 -5.6751630941136395e-02
      -6.9811330222275510e-03 6.2226261970179664e-02
      4.0926174721714659e-01 -1.3545722656988887e-01
      -1.3803706466223842e-01 4.0760422188280153e-02
      -1.2581664313838595e-01 -3.6411118274536532e-02
      -1.8491514299233214e-01 -1.5037057734667830e-01
      2.1986386411826289e-01 7.9767236900226399e-02
      1.1240226985597243e-01 -9.0233741877198872e-03
      1.4950605730020691e-01 -2.9634352908136574e-01
      1.0781756127938816e-01 -2.7047723119064726e-01
      -1.5011896969513935e-01 -1.2956037359485392e-01
      -2.3564019099853897e-01 -1.0027956406408129e+00
      -1.4335187477265357e-01 -7.9094245358425033e-02
      -2.4897261811361301e-02 -2.9873386373485229e-03
      4.1764188235832223e-01 1.5913482636931423e-01
      4.2146493742200107e-02 -6.7932293654147614e-03
      -1.2493649858154880e-01 -2.3789292430470349e-01
      -1.5967594757902676e-02 -1.9947710872185775e-01
      -2.0012073146386836e-01 5.4353098211420237e-01
      5.1844588546888261e-02 1.1288775863717869e-02
      6.5968763458044533e-02 8.2067689712468972e-02
      4.1759990167202068e-02 -8.7766561112382013e-02
      1.4835281567835282e-01 -4.2106606177994381e-02
      -1.0435970962344233e-01 -2.6285993933662086e-02
      -1.2020605412474528e-01 -6.1366053798126756e-02
      -1.7909893390340784e-02 5.6060787180591473e-02
      2.9111560757568974e-02 4.6811976586872828e-01
      -1.1778470334612701e-01 1.5307374627175335e-01
      -8.3930018667848529e-03 3.9144598511940645e-02
      1.7620618371877554e-02 9.5691711237773619e-02
      -1.4910049552312210e-01 -5.7248445251041037e-02
      -4.1340525043954433e-02 -2.4099374655849184e-01
      4.7134423120409795e-02 3.5246970464867529e-02
      8.0465520873216734e-02 2.1918170808963941e-01
      -9.4480267670907739e-02 -5.5844098774181172e-02
      4.7864123769232811e-02 -6.7124398480558470e-02
      -5.8541695712776100e-02 1.4706569523877114e-01
      4.4585527819923010e-01 -1.3469369945405696e-01
      4.5097252963657089e-02 1.0379697492085260e-02
      1.0954069942521640e-01 5.0771796969815194e-02
      1.1364591097715328e-01 -1.5805291632856547e-01
      1.5071200888058922e-01 -4.2747853649872256e-02
      -4.8459120508769611e-02 4.1518143768505639e-01
      1.1625325642025612e-01 -1.1340998462272325e-01
      5.0965389899459104e-02 1.3701246741322284e-01
      -3.5199185901549065e-02 6.7536466905095153e-03
      1.6873973721408050e-01 -4.8204989230328205e-02
      5.4703395259195618e-02 -1.4369190023876549e-01
      5.5774208665058590e-02 1.6912475045711720e-01
      4.4257091769103155e-02 -3.6930530536670114e-02
      -1.7477031458328355e-02 -6.4327667680964653e-03
      1.1307387367711376e-01 9.2534874357012506e-02
      3.3660499440268854e-01 -1.1552881362401259e-01
      5.8232215438138682e-04 2.4487524628705876e-02
      -5.9964153166133558e-02 9.1554367783630936e-02
      -1.3792490065194856e-03 -1.3624505635130607e-01
      7.8756007339056341e-02 -6.8510327399461703e-03
      6.8327191989163413e-02 3.2841180970396726e-02
      1.8093975623028491e-01 -5.0169280979526311e-02
      -1.2286000172690537e-01 -1.3229241842679415e-01
      -2.1200945480095817e-01 -7.7402927022773987e-02
      -9.1775324331417024e-02 -4.1626944623294404e-01
      -4.6767367702786118e-02 7.2724791580255854e-02
      -1.0320103945282870e-01 1.1326925154284025e-02
      2.4953792342432035e-01 1.0173292650144482e-01
      -6.1543921887631949e-02 -8.3902419524000016e-02
      -1.1192434250489091e-02 -1.1339221296856872e-02
      1.2969715562497391e-01 -1.2445329509237840e-01
      8.6476933387605759e-02 1.6726965272629060e-01
      -3.3882327402390916e-02 1.2571669805099595e-01
      6.1905704279424635e-02 2.1748379632073444e-02
      1.3216312753354597e-02 -1.2310562377720123e-01
      2.2942367058280075e-01 -1.7652566212151319e-01
      -8.8490042452119028e-02 9.4716869820424154e-02
      1.9474501020597793e-02 -5.2096951266455395e-02
      -3.3761449841837843e-01 1.8632152713585273e-01
      -1.5585340992685012e-01 6.3607026648966380e-01
      7.6657123903652577e-02 -7.4208553020273661e-04
      -1.3628555965932185e-01 -2.4011254099312079e-02
      1.2248383104448204e-01 1.4193095187638446e-01
      5.7907415964406544e-02 -1.3506430059616473e-01
      -9.8939075239640739e-02 -2.4857990057274673e-01
      8.1659543458015751e-02 5.4194284064877758e-02
      -8.5748810422060340e-02 2.7137192065196425e-01
      -9.9513007755394858e-02 1.5623207042340539e-01
      -4.9092584869772721e-02 5.0573670580741123e-02
      1.9266662432932552e-01 6.6520272398790117e-02
      7.1659660112560519e-01 -9.6498875794022179e-02
      4.8473246840695858e-02 -1.5581563222248396e-01
      -9.7380705757431213e-02 -1.6696365069025557e-01
      3.3625743613920338e-02 2.5244471496459292e-01
      4.2915081417102124e-02 -5.5416276204010551e-01
      1.0238798212486377e-01 4.4097174112524279e-01
      -1.0792988573238074e-01 -7.0408931319497825e-02
      1.7102794304781549e-01 -1.8721974737839114e-01
      -3.7480834391479756e-02 -1.5041523109154270e-01
      2.4167563783727664e-01 4.3274052840473302e-02
      3.2189988506307388e-01 -8.9915535218981962e-02
      1.1648188354292616e-01 -8.4835911469594044e-02
      9.0017596779102232e-02 -2.3448133249223103e-02
      -7.8640980981982730e-02 3.2085094688062046e-02
      1.8743498644704573e-01 2.8117862352882630e-02
      -1.4322255258170410e-01 6.1880408517099597e-02
      -9.4210890565326527e-02 -1.0711095401100459e-01
      -9.6588234280392066e-02 5.6270073972673046e-04
      1.6785811148110130e-01 -1.3177618844666053e-01
      1.8496610781176734e-01 1.3704969042069795e-01
      1.7997186984129479e-01 1.9331724156031863e-01
      2.3758366025672523e-02 -1.4418750295634777e-01
      -1.4171772647708686e-01 -1.9168031324128948e-01
      2.1950788237811887e-02 -1.5670103977827195e-03
      -2.9857405761025402e-01 -5.5891877648051469e-01
      9.0119897505381453e-03 -1.4647618501349693e-01
      -6.2694591869597971e-02 1.8142850105119529e-01
      4.3588685805133726e-01 1.0915293127515144e-01
      3.1332366551137643e-02 1.3847571087733077e-01
      -8.4311407273696612e-02 -1.1030225821092272e-01
      9.9846136065758311e-03 -8.8116829997422676e-03
      -1.3283723696170452e-01 3.9042826535581659e-01
      8.5893225398559675e-02 3.8148902746484699e-02
      -1.3161976574487408e-01 4.3471212780614221e-02
      -4.8885946084094731e-02 7.5025501271186276e-02
      2.6816575679956556e-01 -9.4434950861499375e-02
      -1.2294391922871686e-01 7.0068201859203455e-02
      -5.9919242112675269e-02 -1.3669798826671103e-01
      3.1850997963417704e-01 -1.1856095438623332e-01
      1.2143750423806270e-01 6.0526675925668616e-01
      1.0473413197154514e-01 -1.5491133199502497e-02
      1.2109086308148673e-01 -1.1395558293361047e-02
      -8.1163349828054357e-02 -1.4766232206373733e-01
      3.8035448356902965e-02 -7.4939963674179558e-02
      1.2593526128730134e-01 -2.4481971752003534e-02
      3.1923947555911091e-03 -4.4958146969958451e-02
      -7.9415132806463160e-02 2.3801331946518198e-01
      5.2727061026150428e-02 5.0349196779218286e-02
      1.9727534517428008e-01 -1.7481375810330912e-01
      4.0790459485889684e-02 3.4527379733437842e-02
      3.7909099069680852e-01 -7.6311313393344585e-02
      8.3902420552887311e-02 -3.9430881102011733e-02
      3.2356259049625764e-03 7.7310874976394231e-02
      -6.7613166558468746e-02 -1.9409170047691693e-01
      -5.3457772605889825e-02 -3.2742884323227966e-01
      2.2477096272339056e-02 4.1598683506254169e-01
      -9.8451281403098057e-02 -1.8796113696217975e-01
      -6.7395812750359788e-02 3.6429829490663014e-02
      -3.0164295695679681e-02 -9.1566088915619293e-02
      7.3246565580530942e-02 -9.4945546728385510e-02
      2.2307995800931629e-01 -5.7248847013493830e-02
      -9.0901252909867711e-02 -8.7181910579824468e-02
      -3.8330145721175816e-02 1.9532482246665106e-01
      -1.3645431914581635e-01 -1.2013782977471274e-01
      2.5104814014508636e-01 -8.9017490537766253e-02
      8.9830628090116858e-03 -8.1360197430335957e-02
      1.3229571967043097e-01 3.9510609568123599e-02
      -8.3829185392736039e-02 -7.7439595447580958e-02
      4.3428678900096999e-03 2.2740056751751636e-03
      1.9038999402258425e-01 -2.5298110006933158e-02
      -9.1445731105267228e-02 4.8083465791822384e-03
      1.7748285180164902e-01 8.1901418553545116e-02
      -2.4797023259925510e-02 -2.2230671047118838e-01
      -2.3184565013939614e-02 -1.7947490043707146e-01
      -1.4573993172353633e-01 -4.3811473365122883e-01
      -5.7165457638091083e-02 -9.0309729400850650e-02
      -8.0712355181174103e-02 7.7372172456700125e-02
      1.9776758938901218e-01 1.7625279386804116e-01
      6.5411039884153449e-02 -3.0672569259439245e-02
      -1.5155334930852363e-01 -1.3405823371913858e-01
      -4.9230841201764093e-04 -6.1956905348727193e-02
      -3.4642974481272119e-02 2.5562578369226485e-01
      -1.2504941436956848e-01 -7.7879477091667343e-02
      4.3217729929525682e-02 1.1070827279980491e-01
      7.0881211603577160e-03 -4.7585936566984073e-02
      2.7895704725948972e-01 -7.3721822275894730e-02
      -2.6897566342191197e-02 2.9897425872082307e-02
      -1.9696785650895826e-01 1.5795123215351514e-01
      -1.5100743132251185e-01 1.4046766491617471e-01
      -4.9536672571603067e-02 5.3826104178794243e-01
      7.2836925485298881e-02 -2.5377808531236334e-02
      8.3649018330757816e-02 1.1021194027972007e-01
      1.9098554882974800e-01 -7.0949053131065523e-03
      -2.5649368687023839e-02 1.0382739774155698e-02
      9.5758624296765738e-02 -7.9027135376168664e-02
      5.2807488277289601e-02 7.5307667122577596e-02
      -5.1345735398290245e-02 7.1665753786981160e-02
      1.9198528200037618e-02 1.5014261219154754e-01
      9.6724848669351604e-02 -1.1670078187654483e-01
      8.7303076157751014e-02 -3.3868503086364944e-02
      -3.0563200257158470e-02 -4.1737797379247349e-02
      1.1149668076687699e-01 1.2273297111490794e-01
      1.4174623895361313e-01 -8.2119340141771066e-02
      -2.6854316397907616e-02 1.1402235820615975e-01
      5.1432240520329464e-02 -3.2106127669954437e-01
      1.0298797322740527e-01 3.2192301529485845e-01
      -1.0066429355898988e-01 1.7083480335570628e-01
      1.0550645148661093e-01 1.1913935111806731e-01
      6.5719957181243793e-02 -3.8523669756320940e-02
      1.8567240205330318e-01 -7.1893110297960888e-02
      1.6282930771680540e-01 4.6591097040161643e-02
      6.9378353366749024e-02 5.7108318402343906e-02
      -1.5873955959984321e-01 -5.9440421979820517e-02
      1.0070854756647533e-01 -9.6906095552639224e-02
      5.6383909819661800e-02 -8.8778336570257951e-02
      1.8366173526959209e-01 -9.7291816639805490e-02
      -1.4693936527151005e-01 3.4084027722357979e-03
      4.1307857300805641e-02 6.7329624047931663e-03
      2.9124093042736297e-02 -7.7516722945003919e-02
      1.1404214155436485e-01 -4.8846821393000502e-03
      2.5586399022835622e-02 5.4201741414813251e-02
      -5.5008358419412597e-03 -1.8280984949485399e-01
      -4.9417062506153894e-02 -1.7359844782134026e-01
      -3.8735216286741286e-02 1.9613703600513047e-01
      -2.2710930947098701e-01 -5.4009622811900937e-01
      4.4683946373581501e-02 -4.2309782468813513e-02
      1.2063500793122331e-01 1.5270236516655766e-01
      -1.7688446982777332e-02 1.8010008931346028e-01
      1.4589611239577530e-01 -9.3813896547077242e-03
      -4.2124596338465360e-02 -5.3704890021679268e-02
      -9.2337043357234236e-02 4.3255821389422341e-03
      3.3278601957929345e-02 4.8283917129464067e-02
      -1.4260982061367822e-01 3.0294632499896376e-02
      1.6006925967531624e-01 -8.1559143008546262e-03
      7.4925527777816220e-02 3.6751313621694458e-03
      -1.7172252045260159e-02 4.3896286332684664e-02
      -1.3781648626520712e-01 1.2040052430229338e-01
      -4.6419586378866062e-02 2.7108897176681072e-02
      2.5282116502221663e-01 7.2965485786741960e-02
      -1.5435618484406050e-01 2.0091627940917442e-01
      7.4977289096795907e-02 4.6911745447093582e-02
      -2.9384729421368647e-02 1.2339411835093778e-01
      -6.3808005471949453e-02 7.2113069599931995e-02
      1.4413173666395451e-01 -9.3150709782981733e-02
      8.7489752523077932e-02 -7.6437704618953087e-03
      1.1975704392963303e-01 -1.2943160705518861e-01
      -1.0318600211708867e-01 1.1627594011416878e-01
      -1.9125170836254432e-01 3.5121514752432192e-02
      9.9612634581704995e-02 -2.1550574749517645e-01
      1.7308598119837013e-01 1.8253193105570992e-01
      2.2107897702068227e-01 -9.4147043737745448e-02
      4.2873704783575356e-02 9.0106754135773445e-02
      1.1835497172025040e-01 2.7228077030422321e-01
      -1.6892158061541457e-01 4.1284338116888301e-02
      -1.2403120116210763e-01 1.9219910728605691e-01
      -4.5189307244355228e-02 1.0606944592686039e-01
      6.2711808669932478e-02 4.0385474739957211e-02
      2.2006828403119051e-02 1.0198165839121147e-01
      -1.1965707034907422e-01 -1.8501754069307633e-01
      1.3664956883343335e-01 6.1849187580022072e-02
      5.1183494024761023e-01 -4.1224743015806850e-02
      4.4457856683832286e-02 5.8811119707425287e-02
      -8.1206789891248896e-02 4.1075718765810683e-02
      1.4256255063068796e-01 -5.2150654795870936e-02
      1.8334684142646357e-02 6.7619226892398155e-03
      1.7509549809876923e-01 -2.0957243213487957e-02
      -2.0127775002136242e-01 -6.5904054782484345e-02
      -7.9944703677969173e-02 -6.3741008259669855e-03
      -1.3799006777257641e-01 -1.8222995252178617e-02
      -7.1754424938999181e-02 1.2174359275052087e-01
      1.1614105235524191e-01 1.8260448814628041e-01
      -6.8218615885329542e-02 7.4094836341306231e-02
      1.3700769745374999e-02 -3.4736581262990063e-02
      -1.1847682434721483e-01 -1.4299309775888117e-01
      -1.2680437011568271e-01 -9.3460081838935352e-02
      -3.8336293870119088e-02 9.7975809232637795e-02
      -8.3677365164151876e-02 -4.4748449031196416e-02
      1.8263535579151055e-01 1.6328270458915103e-02
      2.1955284140221265e-03 -1.4810660781507481e-01
      9.8836635530768116e-02 1.7435484595730077e-02
      -3.6039482055176361e-02 5.0874782110689534e-02
      2.8549588560430880e-02 2.3877052737369558e-01
      3.7779055108609995e-02 1.2038782734619678e-01
      4.1431159070468467e-02 -1.3997672223460200e-01
      1.7512459262018976e-01 -9.0710738007295358e-02
      1.3916962349995896e-01 3.7803767054359380e-02
      -6.6387325692456492e-02 1.3896267773734433e-02
      9.1218836335383802e-02 -5.8494782113660208e-02
      1.9401029472729761e-01 8.5456657909674296e-03
      1.2700191523971605e-01 1.7044729687664409e-01
      -5.4113403431428488e-02 2.3352143566884288e-02
      -7.5259199258721474e-02 -9.4891723659973268e-02
      -5.7287870911429187e-02 9.7679867450334704e-02
      -1.7210154381315450e-02 7.4869426711738227e-02
      -9.9081691336592476e-02 -1.5145171397610815e-01
      -3.9112808385164269e-03 -8.1124150623748087e-02
      -2.0903012948316432e-03 -8.6054403134340415e-02
      -1.3012622870454893e-01 -5.0700670795866459e-02
      2.7936571780714185e-02 -6.0806423444728676e-02
      4.0976187963152708e-02 4.5459775985763534e-02
      3.4110490568850255e-01 1.1656664489062177e-01
      6.5833318961860635e-02 2.9761875922326993e-02
      2.1224940262739491e-02 5.7285407300532595e-02
      -1.5460393232659753e-04 -1.8289902812841713e-01
      -2.2148133296642347e-02 -3.8332367150991704e-02
      -9.7262548883142882e-02 3.0419256773533282e-01
      3.7371357846978019e-03 1.2900912711719340e-02
      1.4131167764296521e-01 -1.2531360083642465e-01
      1.3000282793023490e-01 1.0369489384474505e-01
      3.3301610170794492e-02 2.0552510220242216e-02
      -1.5780918563380519e-01 -1.1827207291033667e-01
      -8.7186112103556021e-03 -8.3746596172667109e-02
      -7.2256856455282403e-02 2.4353300005708354e-03
      1.0556907966904078e-01 -7.0717465052704695e-02
      6.1039905863229715e-02 -6.5464833892347821e-02
      1.5275705056946678e-01 -3.1444789211154206e-02
      -2.7908066839451524e-02 6.7372899183937976e-02
      -9.5266601022476916e-02 -1.4312826583831167e-01
      -3.0902020600997258e-02 -7.9453780995347584e-02
      1.1964869705529946e-01 -9.0530031976198092e-02
      5.2942177225734070e-02 1.5571490172654401e-01
      5.8366494696540497e-02 -2.2108403747800803e-01
      -1.8740154931776193e-01 1.4126442782422449e-02
      -8.0129159808407652e-02 -7.6711512047391281e-02
      1.4447174677970448e-01 2.0614637053996449e-01
      8.7800013283750644e-02 -4.9245396746355689e-02
      1.2055198476644234e-03 8.5506375956747496e-02
      -1.0326518412784436e-01 1.4077264505458326e-01
      -1.7564479029000699e-01 -9.9953408868546159e-02
      3.6075339085588992e-02 1.0280770303001067e-02
      1.3591597100298375e-01 -2.9431920171663333e-02
      1.0022751863493952e-01 3.6601811737540795e-03
      4.8409375501776770e-02 -1.9391662613704660e-02
      1.3347476813384049e-01 -4.5767363504247253e-02
      -6.0984435661397260e-02 -1.1785741600292056e-01
      -4.3806041884441364e-02 -5.6481650572123551e-02
      -1.2412343463934122e-01 -1.4390083992423369e-01
      1.3213008328997183e-01 3.7381123336233002e-02
      1.5128180518438686e-01 -6.7832869249418670e-02
      1.4644123362412326e-01 3.3672751282305857e-01
      -9.2267429480731078e-02 -9.5159758995381379e-03
      -1.3288824590168041e-02 -1.8676845376796214e-01
      5.5150342437898396e-02 -7.2058236389139413e-02
      1.2203407396733572e-01 -6.0809150135160472e-02
      -5.3901770394470520e-02 -3.3670823693633350e-03
      -1.1374310254331645e-01 5.3837520463010310e-02
      -6.6957804770957169e-02 -8.4895608199092878e-02
      -8.4033201767217278e-02 8.1510024917984647e-02
      -1.2074589673920090e-01 3.1676420255144160e-02
      -3.1275677229063735e-02 -8.5754925575016877e-02
      -3.1207923949157762e-01 7.4877196590210235e-02
      3.0644237630998630e-02 1.1014813128309790e-01
      -8.6084907981823101e-03 -1.6045156740521360e-01
      -8.8087278911420347e-02 9.9328464517126014e-02
      -1.0322620149367208e-01 -2.1963548316208928e-01
      -1.4060725888242553e-01 -1.0812672311352410e-02
      -4.7288082329325774e-04 -9.8399030804890292e-03
      1.3316793826779000e-01 -6.1087578187591487e-02
      4.6313212333298132e-02 8.4795034311688819e-02
      5.6215697243901241e-02 5.0309491571894405e-02
      2.4616502500009349e-01 6.4344193744193742e-03
      7.7178028766563045e-02 7.7699874210440945e-03
      -1.2245090564002933e-01 1.1360634895549679e-01
      1.0875888112008132e-01 -6.7985366626464941e-02
      -1.0054723899484111e-01 -1.0037971003571677e-01
      -9.3406253732513253e-02 2.6753870825151518e-03
      -1.0184596078136225e-01 8.6006909793490457e-03
      1.3675341681639258e-01 4.1714060760490779e-02
      1.7123730316699506e-01 -5.6588873903477735e-04
      -4.3181103752888556e-02 9.4186652905703119e-02
      1.8460039053538994e-02 -5.7284638257491839e-02
      -2.3740294094029470e-02 -6.0922479728992965e-02
      -4.3351226086626511e-02 2.6370822775227586e-02
      4.6409860436352847e-02 3.3435846945241224e-02
      -6.1288155848010832e-02 1.3872134428164409e-01
      -7.7884718228306365e-02 -7.7055035065099808e-02
      -2.5358121746084251e-02 7.4133897435846533e-03
      1.7563527515895933e-01 1.5077426786794024e-01
      -7.9598179509879727e-02 9.5674891850949448e-02
      -6.7291799922522988e-02 1.0385020307523067e-01
      -1.3956131404283892e-01 8.3878202058750392e-02
      -5.5659353569063638e-02 1.1373695688987437e-01
      9.6017035966023775e-02 1.1732293627906683e-01
      8.7411594406847523e-02 -5.8505783323953113e-02
      -5.4978910053661866e-02 1.1146381828621527e-01
      -2.4518099214265822e-02 -1.1318833704517993e-01
      -6.4599549879764032e-02 -8.4796161171949394e-02
      -4.5865078627453535e-03 -6.5736326666840261e-02
      4.3345083807029908e-02 1.8465519306440199e-02
      5.4246267924959686e-02 2.1188100657384312e-01
      7.0852892422961486e-02 -1.5133023606321389e-01
      -7.4461386616660699e-02 -1.0538374318806465e-01
      8.7009897139573161e-02 6.3760103208057875e-02
      -1.7494340153268906e-01 1.5553582204209576e-01
      1.0735698604494621e-02 -8.3137185863873860e-03
      -1.4653247793119870e-01 8.9285547453833339e-02
      -3.4047953110447081e-02 2.2683644346223851e-03
      -3.0218944966844559e-03 5.1750000690794183e-02
      2.1943539571491817e-02 2.0036605481940237e-01
      9.1421752570427797e-02 2.7074426762785257e-02
      4.8325974231539320e-01 2.0660353539194276e-01
      1.1805726301994802e-01 -6.6180673798286224e-02
      1.2152696909723641e-03 -9.3543870949567079e-02
      1.1053024795496651e-02 1.0419726279557923e-01
      -1.0958390441499698e-01 -1.2399786794188487e-01
      -9.8837117148299236e-02 2.0724065947734441e-01
      -6.1629267167981394e-02 -1.9691951413798103e-01
      -1.5466186955934191e-03 -9.4009175998844133e-02
      9.2188096415411706e-03 8.5035905315517774e-02
      4.3546921190377223e-02 1.4085771359659124e-01
      1.5726445808546627e-01 -2.9946675646625360e-02
      -2.2334349371837224e-02 -7.0797291044887439e-02
      -1.6909119587153265e-01 -1.1428751643148807e-01
      -1.0306377667241884e-01 6.7883312807824212e-02
      4.1139560982220577e-05 7.6818491421001668e-03
      1.7379784999552339e-01 -1.3818500563181355e-01
      8.9676187157888540e-02 7.2339742663784262e-02
      -1.5788089219708026e-01 -1.1638479807729449e-01
      8.4266577590363920e-02 -1.0782135130077937e-01
      -8.3647507707166099e-02 7.6083065907048691e-02
      -1.4728918548982892e-01 1.0079771829692910e-01
      1.1989936819076569e-01 -3.5625332558604013e-02
      -6.1050523601878286e-02 -1.6558411526467626e-01
      -8.0586771161522158e-02 4.8665320780819366e-03
      -2.2799005725951271e-01 -3.1406397167183936e-01
      -2.2242721487296682e-02 8.9231912335469635e-03
      3.3733498705795513e-02 -5.3059286795894715e-02
      2.8165392957234131e-01 4.7591857555702041e-02
      5.8129567925420220e-02 1.1514040131521814e-02
      3.2295550713910002e-03 -1.8336035602197681e-01
      -8.1653796211243995e-02 -7.4928702042870415e-02
      2.2611369088990558e-03 3.2963357419676215e-01
      5.7694120134786260e-02 1.3040919735177373e-01
      -1.8745532141544573e-02 6.4240086228452120e-02
      -6.6512533532963034e-02 4.2134990953797906e-02
      1.9815724079698446e-01 4.8947448120332977e-02
      -4.6642201131646098e-02 1.1951449440749069e-01
      -9.3377031670156110e-02 5.5357484476536774e-02
      3.7151223177927367e-01 -4.9077252068962539e-02
      -8.0118267658389031e-02 5.8923834789867169e-01
      -4.9722286759574580e-03 1.2165077902514691e-01
      8.5569530423525261e-02 -1.4583142696297788e-01
      3.4887617316783893e-02 -7.4716078879167480e-02
      4.5947762945185031e-04 6.0524986272027619e-02
      -1.6116142821247445e-02 -1.0011654316398556e-01
      6.1294024549976713e-02 -1.2958756735694094e-01
      -8.0127344915856477e-02 -2.9408547422837064e-03
      -1.1327145487273256e-01 3.1428669788889071e-02
      -2.5846321224127559e-02 -2.5567227711880380e-01
      -1.2205928443395424e-02 4.4948932457810585e-02
      9.4059779486303452e-02 -1.1897154642808506e-01
      6.6885523350666790e-02 1.0956878942204075e-01
      -1.5195590949263107e-02 3.3262981417885124e-01
      5.2877776452470167e-02 -2.4237707637893136e-01
      -2.2707832378869159e-02 -5.7941993240452089e-03
      -9.4270727608627314e-02 1.3018300894651563e-01
      -5.0513289374183895e-02 -7.9871255673753763e-02
      4.1507289744881257e-02 3.0507280268839386e-02
      -2.0280651055451679e-01 1.1053214746339064e-01
      6.4933835101917648e-03 6.0358992162141668e-02
      9.4002716328638353e-02 -1.1978013557147087e-01
      -2.9967369627300271e-02 1.3052362056034625e-01
      -1.3271558168261535e-01 4.3098802399357733e-02
      -1.1048191489393230e-01 -2.0978437088195516e-02
      1.0531511250968978e-01 5.0164775221098669e-02
      1.0796696075213684e-03 -1.6786220967242538e-01
      1.5854998159717204e-01 -1.5792141891672388e-02
      -9.5334088642971590e-02 -3.8356586239953298e-02
      -1.2826101779886571e-02 -4.9001582863649924e-02
      3.2138869958096852e-02 -9.1459390804561558e-02
      -5.9591317263077197e-02 -2.5197644428606090e-02
      1.8737712826260836e-01 -1.5879128047637450e-01
      1.4983662597388950e-03 -9.9999366738818429e-02
      -6.3802789352009864e-02 -2.9025233257901778e-01
      -9.0323969181334340e-02 -2.7166578235736633e-01
      -5.6471002001010469e-02 1.2801078135486451e-02
      1.1105296699110310e-02 1.0320788007083392e-01
      3.2795436627744028e-02 -5.8424249089442208e-02
      1.4525428574522440e-02 1.8123269338463137e-02
      -1.5405239177602748e-01 -1.0885571161432379e-01
      -3.7982256567007822e-02 1.2674651004103665e-01
      -1.3759193510104226e-01 5.3292576483861105e-02
      1.7660041681951880e-01 -1.5573367773193366e-02
      2.5958087905666668e-02 -8.5770912048488412e-02
      8.5178721792741274e-02 1.2135428893595276e-01
      1.0158625361483445e-01 2.5061908016674327e-03
      -1.1816142820098135e-02 -4.8726263799261607e-02
      1.0541522848349681e-01 2.0976892914766152e-02
      5.0575679829571252e-01 2.4465174323400680e-02
      1.6276372076972252e-02 3.9368126815336751e-01
      -5.7039487703520193e-02 1.5403660809195935e-01
      7.1111644153171380e-02 6.1290334642711303e-02
      1.5192033425859813e-03 -1.1183614185984468e-01
      7.9767525373616893e-02 -3.9752180122542100e-02
      1.2798140381724873e-01 5.1215645476128606e-02
      4.1752190996011629e-02 9.2732730673100075e-02
      -3.6428172519541183e-02 2.3303715471404213e-01
      -6.2258214563435728e-02 6.5689196149914378e-02
      -2.1697473727580997e-02 -1.3001292704614045e-01
      6.6967936580728124e-02 -1.6185658515198445e-02
      9.0893661640380749e-02 4.1488980095940611e-02
      -4.7402625427057872e-02 -1.2105800969784109e-02
      9.8168657499075433e-03 1.3124927107979076e-01
      2.1446348412168657e-02 -2.8560328159320407e-02
      -2.0148526499535628e-02 -4.5797424152430495e-03
      4.0100851874401763e-03 1.6571328442602759e-01
      -1.3532089579682275e-02 3.9051512663093452e-02
      -3.2827072518857470e-02 5.3028121778417640e-02
      -7.5744105933275461e-03 -1.3735319658296133e-01
      8.6452535767545594e-02 -5.0440071960591915e-02
      2.2401288159169708e-01 -1.5177407441947594e-01
      6.0520008221219897e-02 1.7402168613501459e-01
      -1.6912626608484166e-01 -2.1030974457189114e-03
      -1.0572085802612449e-01 5.4679839046950680e-02
      1.0604133780467079e-01 5.8710435143088130e-02
      8.4691343635216382e-02 5.2206852410966641e-02
      8.8977797138881667e-02 4.6990833967818349e-02
      -5.1512246457429356e-02 -5.4653697243405061e-02
      -1.7435415547659203e-01 -1.4518918846298376e-03
      -4.2309988444236564e-02 -1.1888029989404966e-01
      -4.7634451552466199e-02 5.9243377913883274e-02
      8.5972039267857445e-02 -5.7777559630398212e-02
      1.0568216633388612e-01 -1.4519360007252832e-01
      -1.8726831684918249e-01 -9.5170108437316617e-02
      -2.0738206082327379e-01 -3.8218747611149745e-01
      -1.2185694276401808e-01 -9.2972286236115934e-02
      9.1106259924933999e-02 1.1814545191755339e-01
      1.5878975750618046e-01 5.6876151427132683e-03
      -9.1961335451219581e-02 1.2214788534599065e-02
      -1.8238467486889581e-01 -2.8316356179927931e-02
      -6.5382882901145856e-02 1.2179634840329746e-01
      -4.5945521266739691e-03 1.1160183155543535e-02
      1.0147694553789317e-01 -1.8770695384100308e-02
      4.4995633944945615e-02 1.1509860213104436e-01
      -4.6349678424787363e-02 -4.0763898607577460e-02
      7.3438255015903051e-02 -4.9488977391608464e-02
      -4.5124357286524773e-02 -4.2967669909522600e-03
      -1.4141708204065673e-01 1.9695443668263901e-01
      2.4096818284689955e-01 -7.0838793226291497e-02
      -6.8879811487719727e-03 7.0025522034638588e-01
      3.8748653109933889e-02 1.3317218264733563e-01
      1.2534944192736833e-01 2.7276465242771799e-02
      1.5337340999058158e-01 -3.9639823108498312e-02
      -2.6607295888153193e-02 -1.7951206347119941e-01
      1.2480855821034678e-01 -1.3182652866012143e-01
      -9.0514277078243027e-02 -3.2269523729939652e-02
      -5.1209349486381867e-02 1.5272066035062046e-01
      -1.9352496633465119e-01 -3.5176851639619519e-02
      1.3765517645838507e-01 -2.1803827585845198e-01
      3.2573433067206781e-02 4.3713463744799903e-02
      1.2572308648116187e-01 2.1195247913336077e-02
      -3.0928891951958932e-02 -3.9682655249057199e-03
      9.1814173814862302e-02 2.3762745406627611e-01
      -1.2122962928891085e-01 2.2428439558483866e-03
      3.8558134992295240e-02 8.6457683375606928e-03
      4.2968432317248173e-02 2.5823257714446141e-01
      7.2558345432684704e-02 7.2703533537597495e-02
      6.3174526164582662e-02 1.3504294066533015e-01
      -8.8252454456875823e-02 7.8685893170781767e-03
      -4.1981729940113580e-02 8.6276872271422375e-02
      2.4374013187163499e-01 5.1670387726866572e-02
      -7.7749371771191469e-02 2.3479000629373567e-02
      -4.6892570674400946e-02 1.0631359237315277e-01
      -9.9759191219812263e-02 4.0766247497047568e-02
      1.4694768526068080e-01 -1.1090008825191952e-01
      7.9013016696310515e-02 -1.2793165466560105e-01
      3.3458286047283500e-02 1.4938957753415799e-01
      -1.2668312826733702e-01 9.2181605958040924e-02
      -1.2235137811688972e-01 -2.0741105289816039e-01
      -5.6473754131432886e-02 -3.6259930886065957e-03
      1.7599060556398139e-02 1.6159556562811467e-01
      6.7325186902335174e-02 -2.7178824546526664e-01
      9.5258629828338270e-02 -1.0795881003393272e-02
      -6.2424454348581834e-03 7.8869694173609575e-02
      -1.3129426044348252e-01 -2.9551691701970784e-01
      6.4327854506819909e-02 3.3892249994396766e-02
      9.6187445475954536e-02 -1.7437266145985511e-01
      8.6384256316155289e-02 1.3711796591988043e-01
      -1.8519531879815553e-02 -3.7511971012904885e-03
      1.0235394665713249e-01 -7.4618568795372431e-02
      -9.2781236024982987e-03 -9.6297531115409743e-02
      -1.7027702294284522e-01 1.2541316598282368e-01
      1.0032898102577127e-01 -1.8626901700202272e-02
      -5.3274989496885056e-02 2.3023131938912793e-02
      2.5213744479709217e-02 3.3538902954699600e-02
      3.8207283543990909e-02 6.0587220837553607e-02
      1.0055159909292376e-01 2.1900276424066330e-02
      1.0410645800933796e-02 2.1370299515220903e-02
      -7.3281704417124754e-02 -3.9105904460026000e-02
      1.2005487758267325e-01 3.7556157875770252e-01
      -7.2306807549307198e-02 8.6278507626917661e-02
      1.3194691672045405e-01 -9.3128751921826305e-02
      -2.0716308504410887e-02 -6.4548295146297646e-02
      2.1132969996815604e-02 -1.4789009358586869e-02
      -6.7126365508961214e-02 -1.5822064201339345e-01
      -4.6495114151001743e-02 -1.2855520732134521e-01
      -6.9866377601369448e-02 7.8057390258341422e-02
      -6.3069120748901267e-02 7.2935425690804339e-03
      -7.4872646354180545e-03 -1.2458767038644976e-01
      -5.7162574290676477e-02 1.0948628355982380e-01
      -6.7031986733230353e-02 -6.3570020674344044e-02
      -1.2670240868094576e-01 1.2916971346249664e-01
      -2.5082970956399196e-02 3.0706115883352153e-01
      -5.9984313428466760e-02 -6.0531538093263060e-02
      9.6353097523129219e-03 7.5181190370090648e-02
      -2.7939508375673322e-03 2.9295443002584703e-01
      9.2055589203289004e-02 2.1570524652034715e-02
      1.5401647249571834e-01 1.0406076623630767e-01
      -8.1302921772347617e-02 -2.7393779273100081e-02
      1.0740058627391342e-02 7.8267422806632292e-02
      -9.1271787091500661e-02 3.4569088236949652e-02
      1.0876913727654569e-01 6.2910745004667035e-02
      -1.2864573545800120e-01 1.2733704440960983e-01
      -9.9071061103718303e-03 4.9825506336113032e-02
      -6.8283015971227684e-02 -7.5034607397613098e-02
      1.3472475572401424e-01 -1.0691842625238690e-01
      6.6994086388907512e-02 1.0639567638977249e-01
      2.3836785438847256e-02 -2.5842477229758881e-02
      -2.0999492390920019e-01 -1.2370396850030044e-01
      1.1406919228164652e-02 1.4052278518039253e-02
      1.0684130850851013e-02 1.1528804607613150e-01
      -5.9814559117659767e-02 -2.7620035111048535e-01
      -1.2488002807528753e-01 -1.1974721918785511e-01
      -6.5959183733158913e-02 -1.8596130728849586e-01
      -8.1035442821445236e-01 -5.4979480057317831e-01
      -1.2133775801480350e-01 -2.7873080558461435e-02
      -4.6979007502886215e-02 -3.1372852131310091e-04
      1.9176862392002625e-01 5.3131849314154322e-02
      -6.4733753926857875e-03 -2.6820865801033773e-02
      -1.0027213802843739e-01 -5.0413978546516768e-02
      -6.7105563666068124e-02 -2.7780517787470448e-03
      1.5412212913071281e-03 1.2618408874353462e-01
      8.2699998080248763e-02 1.1016935800127911e-01
      5.1001375153910261e-02 -3.3733209916193704e-02
      8.8736006296095113e-02 1.0399682842840126e-02
      1.6900597423070535e-01 -1.7188714166732542e-02
      -2.4178288276388873e-02 -1.1603651549376514e-02
      -1.2136455705701470e-02 6.2704341199460584e-02
      -4.6586908559506840e-01 -4.6837189681795170e-02
      -4.6102490705872613e-02 -5.1854499552575084e-01
      5.1949147951519031e-02 1.8449839587633136e-02
      1.7834647509830371e-02 6.3197440477353204e-03
      -2.6710193570218775e-02 3.6893323557171856e-02
      -2.5837754246498271e-02 -1.6552137238411476e-02
      -1.8054422826816349e-02 -1.2903844535812094e-02
      1.3903063169517362e-02 2.1302312220079934e-02
      1.0066011000886350e-02 -8.1646221339532740e-02
      4.0866580387902224e-02 -9.3552188560744268e-03
      5.4517078073450763e-02 -1.2146281692793280e-01
      7.1963466522153727e-02 -8.4320418274813503e-03
      1.4924939020229472e-01 -1.0438982345304311e-02
      2.1821541531781483e-02 1.1977358128465704e-02
      1.9234707917310575e-02 2.8729206780799865e-01
      -6.6057518305254088e-03 -2.3873764706215739e-01
      -2.0139422638791083e-02 -1.6370759432876283e-01
      -4.4744676202223749e-02 -9.3425538033090297e-02
      6.0544215609055034e-03 -4.6134418440519000e-02
      -3.7782102809132118e-04 -5.0263133662661358e-02
      -1.0637126553676464e-01 -4.1133928441166430e-02
      2.4480833123430672e-02 3.8011220032469116e-02
      9.1899294298400810e-02 -9.9405018186701929e-02
      -3.5956848983597758e-02 1.1086950409324886e-01
      -5.5843801236428507e-02 -4.5337649304835283e-02
      -1.9532444813320352e-02 1.3221713083687147e-02
      6.5668599000549416e-02 2.8936422703586668e-02
      1.4198016897458923e-01 -3.6911963945777712e-02
      7.0789778067052236e-02 -4.2090469223683299e-02
      -3.8193060027129744e-02 1.6813412859479855e-02
      -6.6105093284684405e-02 -9.6986889433381532e-02
      1.0976834040277257e-01 2.3694216006199944e-02
      -1.1005377630266122e-02 -3.4593684349814177e-02
      -1.7415532158410331e-02 -6.5946742808549771e-02
      -5.9595702704742778e-02 -3.1930857593832310e-02
      -4.4861348057946539e-02 -2.6338106775335091e-01</_>
    <_>
      6.6412671893550476e-02 -1.3038239983909614e-01
      -1.8494459802015484e-01 4.3792432647168061e-02
      -1.4690314002742874e-01 -1.7445536820279334e-01
      2.3777911210016583e-02 4.6176849893731897e-01
      5.6603566268095824e-02 -1.2863265018844414e-01
      3.4001993077986831e-01 1.2382785500218449e-01
      -1.3382903886870734e-01 -2.4708747866125905e-01
      -2.1611038240414930e-02 -1.8428442583761664e-01
      3.1804122512546712e-01 2.1453915245840025e-01
      -2.0300072847195097e-01 -1.7347737515226941e-01
      1.6052950061410227e-02 -1.2501059402192374e-01
      -2.6454799922259260e-02 2.4264976552448733e-01
      2.9301001424778424e-02 -2.2167870714498267e-01
      3.8711164258408662e-02 3.9057299185281119e-01
      6.9344470068957831e-02 3.8639792927002153e-01
      3.8149374817215739e-02 2.0322187936589332e-02
      -5.0011909389220642e-02 -3.4251600995972513e-02
      -3.3160672502727012e-01 2.2232633516668601e-01
      -8.2796910294496609e-02 -2.7131696813202738e-01
      2.1082365965759095e-01 -1.7069537298595075e-01
      5.2207304500253746e-04 4.7895765520887632e-02
      1.2652756400828324e-01 -2.4768594686271353e-01
      9.2858784469896552e-02 -3.0162548428507852e-01
      2.4716251973166989e-01 3.5767578587358517e-01
      1.9867888883988219e-01 7.2750563159084181e-02
      8.4571730505823978e-02 -1.1844428486448587e-01
      3.3236919748378807e-01 -2.1158954881921874e-01
      -1.0968549423161139e-01 2.6285868019078493e-02
      -1.6378738597062245e-01 -2.7464094130237510e-01
      4.6668725373858820e-02 2.2749063084506551e-02
      1.0256494112030042e-01 -2.2041262114685223e-01
      -8.2203437774763646e-02 -1.7161200540186372e-01
      3.4979257422929794e-01 -1.9725974710892799e-01
      -2.1917492693880544e-02 2.3717719169176379e-01
      1.9349474990787502e-01 4.1377968734626375e-02
      1.6076873302227027e-01 2.6928807375782704e-01
      -2.8745240074643863e-01 -1.1994596790445032e-01
      1.1349516522064451e-02 4.5114134432823388e-02
      -6.4491689542216834e-03 2.0902197690300053e-01
      2.3174599259506445e-01 2.4128923554900661e-01
      1.4497942285890686e-01 2.4080579848726166e-01
      -5.3708039199707000e-02 7.5462603537374551e-02
      -3.9913203220962833e-02 -2.5555141390124075e-02
      -4.4312371389154814e-01 -1.8067572878204738e-01
      1.4404732589412769e-01 2.0028831179906495e-01
      -8.2587538780617031e-02 -1.7450277129988162e-01
      -6.0812286961192126e-02 1.9502786141664971e-01
      -5.0848150938536875e-02 2.7350956804951576e-01
      -1.7923848483265347e-02 2.2989784567656427e-01
      -8.2927035520325793e-02 2.6549418518512960e-02
      2.5084307391116295e-01 1.6658655402276251e-01
      -1.5135035207216074e-01 -5.1775932231770405e-03
      -2.3521619965231991e-01 -2.9100567224943443e-02
      8.2663887873654751e-02 -4.7303728961886136e-02
      -9.1051101810542504e-02 -2.4256485980604349e-02
      2.9708660860271810e-02 -4.9814922336289542e-02
      4.4216371985126735e-02 2.4863326895757520e-01
      2.2228993167642352e-01 1.1247088541431999e-01
      1.2437355293470879e-01 1.8117589606103240e-01
      2.9047780534444765e-02 9.4896212685329967e-02
      -4.6237170975377811e-03 4.4503787827591800e-03
      1.3416098743558519e-01 7.3594021513371716e-02
      3.8734850396006541e-02 -1.9157763249068910e-01
      -3.9076339735581840e-02 -1.1270201763456476e-01
      -5.1580894393205554e-02 6.7003441574344111e-02
      -1.1610197602432554e-01 6.3394520096757501e-02
      6.1151504975746666e-02 -1.0966503171253268e-01
      -9.5590124675326377e-02 -1.5159019799898116e-01
      7.0981427968347166e-02 3.6408699001005013e-01
      -6.1452924273353714e-02 6.4156405132045652e-02
      2.2010686496050361e-01 -2.9716623065314363e-01
      1.4797355534041731e-01 4.0366436033932629e-01
      1.4931637835733697e-01 -8.1758269906625727e-02
      2.2392378349201013e-04 -3.7985378189868538e-02
      2.4656527216959406e-01 1.8916455912838395e-01
      -9.3223813583512047e-02 -2.4509644825496069e-01
      1.3468648079892151e-01 1.7537235846234564e-01
      8.4722162121343508e-02 -1.2621771753139738e-01
      1.9268071412568227e-01 -1.1364211691196049e-01
      2.1038295517916467e-01 -4.3843325560716606e-01
      1.4112089113582377e-01 -7.6082006002179126e-02
      2.6738413480818981e-02 3.2218661250923921e-03
      4.2184343309067472e-02 -1.7261724578808851e-01
      -1.9899938142240906e-01 2.3164379879429992e-01
      1.3804681902882615e-01 9.1681228159531825e-03
      8.7119829926606634e-02 -3.9696104749645345e-01
      -1.3663602922334395e-01 1.8120034520752121e-01
      -2.3438254336197503e-01 1.1608448641068572e-01
      -6.7181216732466909e-02 1.7316345378479852e-02
      2.0548463082053679e-02 4.4617668771801393e-02
      1.0670192579433803e-02 1.8789338751622880e-01
      3.9364459950466162e-02 -5.9729018941247727e-02
      -2.2244047190589381e-01 -1.4520044291550430e-01
      -6.0571654003661890e-01 -2.1647495695385450e-02
      2.8579157628539464e-02 6.3307053764293686e-02
      -5.4953587143492286e-02 -4.0999762905034709e-02
      2.3516651773832545e-01 6.1623292611142272e-02
      1.6194253226491306e-01 -1.4423302315052083e-01
      -9.6235507647267511e-04 3.7972865669275463e-02
      6.2448824265006656e-02 2.1098318137487201e-01
      -1.9176152867030824e-02 2.1247629945608339e-02
      1.3194440561196188e-02 2.0908651681439135e-02
      4.8995380543637369e-02 -3.9957260631092506e-02
      -1.0561747976295350e-02 -3.7723196506966941e-02
      -7.5771541839962280e-03 1.9997664251990847e-02
      -1.5921256002460398e-02 -1.4298442522245429e-02
      3.7837811270130424e-02 4.0678651986713395e-02
      9.2965306424560770e-03 -2.8907210613980435e-02
      -4.2713252390952423e-02 -5.3684545739451445e-02
      -6.0657838083545176e-02 2.4867814369009763e-03
      -1.6570980071128526e-02 5.7199251183641412e-03
      -5.3903987398417237e-02 -5.7523338861130736e-02
      -8.1489322462978808e-03 4.9231754458132646e-02
      -9.4372007270771656e-03 -6.2129248015339880e-02
      -6.7653610909864294e-03 -7.4303320633216791e-02
      -2.8259955102297535e-02 -1.4354330553546469e-02
      5.1638322845121952e-02 -1.7500892671965359e-04
      6.7508284494726137e-02 -3.4357858022197742e-02
      8.3520397764636472e-03 2.1173695385730912e-02
      -1.6583227824765834e-02 1.0391212565592065e-02
      -5.8749873795983102e-03 5.5789221335191446e-03
      1.8379454592681091e-03 1.0685198101499834e-02
      5.3100450618694957e-02 -9.3574561388988731e-02
      1.0462017232385042e-02 -4.5156199439881722e-02
      -2.7020940320555232e-02 2.4824865886633261e-02
      -3.1353294462435406e-02 2.2540234113823693e-02
      -8.9371238104221332e-02 3.3326714466577111e-02
      4.3277669884628230e-02 2.0268173023816987e-02
      -7.5551983095492005e-03 2.7411790380254996e-02
      -2.5887948668590472e-02 -1.1307443517317951e-02
      -5.5777615923661435e-02 5.3923764306919218e-02
      -1.1088616216658156e-02 7.8493829845782209e-02
      -3.5897354720230645e-02 4.6211844534848570e-02
      -8.6499330802145454e-03 -4.2704322548809764e-02
      9.0772429664319441e-03 -4.7517907554419272e-02
      -4.2906368901015290e-02 -5.2437298442537139e-02
      3.4183522260048151e-02 -2.1082431943241242e-03
      -1.7571003562349110e-02 -5.2488012373527095e-03
      2.2380685331413543e-02 -3.9286420390424473e-02
      -2.8178145859716890e-02 1.6580726741386657e-02
      -6.3906442455431367e-02 -1.9299050378270278e-02
      4.0980756810165581e-02 -1.3457638674262746e-02
      -4.3951675634150526e-02 -1.5802650818592483e-02
      -4.1787620061341887e-02 9.9387854624689558e-03
      1.9295280312807656e-02 1.7800277442851509e-03
      5.8666132104677159e-02 6.0906950925714402e-03
      3.0212300931450622e-02 -1.5155304046678406e-02
      -6.2644484679053808e-03 -2.1084879728689433e-02
      1.6222733003107614e-02 -4.1247626554806217e-02
      3.1917108114952547e-02 -2.1469094981465084e-02
      5.5056193767197455e-02 2.4142214851935451e-02
      3.4205812320781022e-02 7.3527067035358169e-03
      -5.5686780503947736e-02 -1.2181667935256367e-02
      3.0699279773818072e-02 -4.2529007792441904e-02
      -3.6056713344272837e-02 -1.7026994645146898e-02
      -8.6314962557253931e-04 1.3711419086517174e-02
      1.9849566158383930e-02 4.4852080869770335e-02
      7.8021657370995409e-02 3.2905458611324011e-02
      -3.3822008476283021e-02 7.9423078275849147e-03
      -1.1847299215880324e-02 3.6929257661242249e-02
      -2.4838247221972469e-02 7.3922639845099940e-03
      4.5388114547558568e-02 -2.0909244527731938e-02
      -1.2715895517166693e-02 -1.0676271133625943e-02
      2.3910407907042856e-02 -5.9126135647334641e-02
      -3.0891831502954433e-03 4.4825327552074469e-03
      -2.7770285721177866e-02 -1.0477914800871371e-02
      -1.1933065342760519e-02 -1.6392740202896591e-02
      -5.0774748144596779e-03 -3.6575505738788733e-02
      3.2510856144764302e-02 4.1369709436649880e-02
      -4.8416133256672683e-02 -1.5239258875778055e-02
      -8.7955823644719003e-03 -1.1959343316316418e-02
      -4.7029823242185277e-02 4.3433337307375711e-02
      1.1082021129327380e-02 -1.7707673253432595e-02
      -2.4484828887014025e-02 -1.4509866399618944e-02
      2.1292630007340257e-02 -7.3316072048180535e-03
      -4.0273175403652793e-02 -3.1546715318729684e-02
      1.0819899207100895e-02 1.1150229550597326e-02
      -3.6879945674901354e-02 -3.1600658171753115e-02
      2.7106014167351901e-02 -2.3171059580933503e-02
      -3.8927393381122414e-03 -6.2017848443165578e-03
      -3.5947274612315697e-03 2.6586330203578631e-02
      -2.1991425683765026e-02 6.1266247159508347e-02
      1.0867005784288944e-02 -1.9206077246850861e-02
      -3.6741860535269601e-02 1.7875977529783923e-02
      3.4248698507373450e-02 -1.0827074396658951e-02
      1.4690940773531480e-03 -3.9729672569940283e-02
      1.6937489914333269e-02 1.1240068061834613e-02
      -8.1627631350296229e-03 -1.2908419613384867e-03
      7.7396505799285861e-04 -5.1174789092327665e-02
      1.1036154033606744e-02 -3.9641247738944488e-03
      2.0181352972199414e-02 2.8141413409146104e-03
      3.2631254956121777e-02 1.0952660397490264e-02
      -1.8695634210408117e-02 -2.0690203617248323e-02
      -2.0244187965076246e-01 -1.8074144934974518e-02
      -7.7516308536130984e-03 -3.0451919638719370e-02
      -1.2329842468366903e-02 4.0843821658594652e-03
      7.2144646464313003e-03 -4.1916864125307901e-02
      2.0057210286847930e-02 -3.6378761938882474e-02
      5.5158022252280369e-03 -8.6651931485827761e-03
      -1.7933100853037516e-02 4.2190037150619530e-02
      2.2194218231548438e-02 2.1734019544947428e-02
      4.3360471113433427e-02 3.0770060563079987e-02
      2.4190592211417925e-02 9.6443898267430626e-03
      2.4335367086219012e-03 -4.0247563143485571e-02
      -1.9852612143878099e-02 3.0629328565143043e-03
      1.5471892133366182e-02 3.3741440945865469e-03
      -2.4853065972552015e-02 2.5160152796980782e-02
      1.3428465956622403e-02 -1.2709128295810359e-03
      -5.7274200338161704e-02 -1.5953599001226554e-04
      -1.5687607641021440e-02 -2.7887407553354973e-03
      -1.0040254420506472e-02 -1.7417951365960221e-02
      2.8688711555241303e-03 -4.4217570929948005e-02
      -1.0014968292670824e-02 9.3977355439797561e-03
      -2.1052325428489380e-02 -5.6514696710849091e-02
      1.7018571270300237e-02 -5.5839825764183448e-02
      -3.3093233654923976e-02 9.9442740841519089e-03
      3.3128106434866585e-02 -1.1432863198703576e-02
      -1.1629811485678565e-02 -3.4514460174891702e-02
      1.1439770109487997e-02 6.2794727980500620e-02
      -2.3905479444641716e-02 -1.5131132215868753e-03
      2.6382863691780525e-02 -2.6620806994047157e-02
      2.4221643639699489e-02 5.1245397088716976e-02
      4.0672472257740309e-02 -3.8169407377467053e-02
      -8.4684613093999137e-03 -1.8970967871065138e-02
      3.2139930258521618e-02 4.0590484587260875e-02
      -3.3720643981358239e-02 -1.3038282564379058e-03
      -3.3226079058482606e-02 4.0236826740351665e-02
      7.1348698963097784e-02 -2.8855369406122981e-02
      3.0071111883470333e-02 -3.3776744082682622e-02
      -1.4857899188044607e-02 -2.2502048102961688e-02
      -1.5381960341890089e-02 -1.6637267355186367e-02
      3.5942076001361498e-03 1.8697236858516608e-02
      2.7199028760337782e-02 -2.8196460068312335e-02
      -3.2790195562103733e-02 -3.6278168473525127e-03
      2.3182018107874600e-02 -4.1021233129322071e-02
      4.5630552210056781e-03 -7.2000415872372561e-02
      2.0703104556567702e-02 4.3760925558757512e-02
      -5.7182862454821896e-02 -1.2020665070226986e-02
      -1.2380535634217525e-04 -2.0058341790432060e-02
      1.4507957034337875e-02 -2.4182445458637687e-02
      -1.6187689893778924e-02 1.8112048510948817e-02
      -1.4269526322849987e-02 -4.6484334459873336e-02
      1.3958378495107400e-02 -3.2955779890067649e-02
      -1.1265902609141067e-01 1.7914146377830717e-02
      6.1476150556581746e-03 -3.7781463708931311e-02
      1.5263589640019896e-02 1.6108809173765871e-02
      4.9688053295154785e-02 2.4718429333069773e-02
      -6.3688538740360812e-03 -5.8644897313921687e-03
      9.5111436104216018e-03 -6.5037877120771971e-03
      2.5942674511688166e-02 1.1764000205604778e-02
      9.2254737918568593e-03 -6.4841524959575580e-03
      5.4868462557497114e-03 -3.2674459081089069e-02
      -4.9848372162731289e-02 -1.6537050407371145e-02
      3.7219968429771781e-03 6.0041782826005058e-02
      -6.6454234094329323e-02 -5.8322530665049589e-02
      -6.2209028273239798e-02 -1.7843396622666399e-02
      -9.0608206484634798e-03 -2.1796987274053221e-02
      1.3041991008998135e-03 -1.2763703588929521e-02
      3.5580208756366923e-02 1.1561202608175968e-02
      -7.5857660159522151e-04 -4.1729924737103047e-02
      3.6543353030841900e-03 3.7727782569416881e-05
      -6.0231128704285465e-02 -2.1394465564347612e-02
      -5.7959918602094304e-02 -3.3981177389450744e-02
      -6.6284490698083854e-03 3.1816391358875297e-02
      -1.2335305504455291e-02 6.0851449385140470e-02
      1.2811877891723290e-02 4.6285469144841773e-02
      -5.3869679302105929e-03 -1.2997658792758167e-02
      -4.6035305874781836e-02 1.1569435977747185e-02
      -7.6454566954180167e-03 -7.5575209056134227e-02
      -9.0919625286842154e-04 4.8663855329853553e-02
      -2.2694340736838466e-02 -2.8781811347109994e-02
      -1.9034663962107259e-02 -6.7840320758413619e-02
      -3.0086698401012860e-02 6.7454534112431380e-02
      -2.8221635315148947e-02 4.1128503864722894e-02
      -5.0330636049686645e-03 3.0447209054660987e-02
      4.8315067810739333e-02 2.2868982646291123e-03
      5.9130736714042467e-02 -2.3237337893838320e-02
      -2.5514490576048220e-02 -3.9506290188640554e-02
      -1.2956521068360104e-02 -5.1147797087013003e-02
      8.1237075718661317e-03 4.2116357728441689e-03
      3.8332534114597819e-02 -5.2653129429281976e-03
      -4.6340625692191266e-02 3.0609712974922647e-02
      4.8252456176922871e-02 -4.5703209525180893e-02
      -7.5018151169464926e-03 -1.8365975989917800e-02
      2.7560418119461673e-02 -2.1598331812649432e-02
      1.9406122138981872e-02 2.0551788930841003e-02
      -6.8712653752190317e-03 -4.1601990314177079e-02
      5.1505063862105774e-03 3.0147178344973651e-02
      2.5162639451423115e-02 -4.3630025308556537e-02
      -1.7542072799559733e-02 2.6414940746090809e-02
      4.2538915563806484e-02 1.1075744294676736e-02
      3.1107543108325922e-03 -1.4580779108155103e-02
      7.8681976436250647e-02 2.2688180626121247e-02
      9.3736184585919952e-02 1.3863458786915540e-02
      -2.3139297162234453e-03 3.7675210875717700e-02
      -4.5854761646103290e-02 -3.2565633412697345e-02
      -1.3935668048101866e-02 2.9104025205165109e-02
      -6.6542221063736126e-02 2.0753399412544993e-02
      9.3721150794390459e-03 3.8249404672349843e-02
      4.0570063932110899e-02 -4.5977633687928350e-02
      -2.0871515210193779e-02 1.4033904530515765e-02
      -1.2412203841169513e-03 1.0241703993268207e-02
      2.2960067119103394e-02 2.8654250611173642e-02
      2.3212157154896090e-02 6.4722900021627047e-02
      -8.5267110675634430e-02 -7.4924874718571940e-02
      -6.5105048585954367e-02 -2.9606772099491304e-02
      -7.0019666945275505e-02 6.6044356074693826e-03
      -4.2868961436302817e-02 -3.8665824314035077e-02
      -1.3719012092994786e-02 4.1810208068685892e-02
      5.4636328492216321e-02 -8.9945622201469122e-02
      2.8549387036143944e-02 -1.0848941415122014e-02
      -8.0059813945063396e-02 -3.8110073596604767e-02
      -8.2627326051632297e-02 -1.4659800166964247e-02
      -4.2260522086445739e-03 -3.7248198654270641e-02
      -4.9145324865639370e-02 -2.9904022286300125e-02
      -1.1387494224259949e-02 1.3178033037482387e-01
      1.4564937328082709e-02 -1.0794981129746450e-01
      -3.8783788747574037e-02 -2.0231929704117468e-02
      -3.0531655044970644e-03 -2.4571328631537825e-02
      -3.2496770294544344e-03 9.7194435591014219e-02
      1.2027872527745420e-03 -4.9737750419300661e-02
      5.5795958737767236e-02 -6.6576899710419135e-02
      2.6222270272983485e-02 1.7933904956013130e-01
      -2.5514802946072293e-02 3.2794469065617740e-02
      4.6007652841078037e-02 9.4288846455121283e-02
      9.6969109010299238e-03 3.5364040975457149e-03
      -8.3063190072405896e-02 7.4274950829809651e-03
      4.6815410749017287e-02 -2.5885046994252162e-02
      -4.9830532304835591e-02 4.1783477346061929e-02
      1.8228659153157967e-02 3.4433062208656898e-02
      -2.3472284644591574e-02 -2.0714989831549867e-02
      4.1197459812419644e-02 3.6202731569110469e-02
      8.5895552424794755e-02 -4.6015872308941129e-02
      -4.2876531979339848e-02 -2.3852113425387383e-02
      6.1076554925263166e-03 -6.2742832048303374e-02
      1.2725890567214989e-02 -5.2041002179356054e-02
      -2.9929089738125678e-02 -3.1293768994169794e-03
      -9.5549590868015399e-02 4.2973892715354463e-02
      -5.8888912493873749e-02 1.6938059876299264e-02
      -6.8621301586434383e-02 -5.5600937950422294e-03
      -4.0827104040572257e-02 6.8211103765869696e-02
      -4.8198131980191003e-02 -6.6058309829858525e-02
      1.9351231947518677e-01 5.5315256152291686e-02
      3.1999845005380895e-01 6.1236799448263463e-02
      -1.7467931699872551e-02 -4.1430956841154665e-02
      1.5723928588703667e-02 6.6922225087410331e-02
      3.7854033654201230e-02 9.2997532502850727e-02
      -1.6272876219205867e-01 1.0964152610937423e-02
      -3.2196155905457553e-02 2.3790722481031715e-02
      8.5233861060222529e-02 -1.3326249140779384e-01
      -2.6200722368201135e-02 -9.3674266244067016e-03
      -9.2784700098938249e-04 -2.6727996883386368e-02
      9.8391337873744850e-03 -4.8551720995141302e-02
      -7.6233041426283735e-03 5.7047319297108802e-02
      -7.3627989034914007e-02 -5.6266744691270236e-03
      -1.7228466938718951e-02 -3.2576790129474453e-02
      -2.2604162463073850e-03 -3.3207691073114672e-02
      -1.4351202563901723e-02 5.5676445033325833e-02
      5.2181636536475666e-02 2.1493256903208736e-02
      2.0935335341230082e-02 -6.8210810898129498e-02
      3.3533807952926931e-02 -4.0274539474387588e-03
      -1.7707020528443081e-02 1.8676624452759201e-02
      -9.8924986487509605e-03 -4.4003884243844583e-02
      -1.7246944938775872e-03 6.6594824473721240e-02
      -3.0410871965942918e-02 4.5085067450787886e-02
      -1.0382514758573677e-02 4.7304722490276646e-02
      -6.4814959287293236e-02 -2.9532112508348113e-02
      -1.3715635383280265e-02 7.8242907492805259e-03
      2.5895748708923236e-02 -2.0888413841505533e-02
      6.8184887705933186e-02 6.0836526488130031e-02
      -6.5926044197432030e-03 -3.1171840254503813e-02
      -1.7524772045730958e-02 -4.0536036634107125e-02
      3.7259588709549651e-02 5.6264352548454508e-02
      -4.8280449436138136e-02 3.2229080851804259e-02
      1.7627436194640578e-02 2.8626742418898055e-02
      8.5492508919187471e-02 -4.5500580967990617e-02
      2.0418699726279181e-02 3.0309968439113006e-02
      -3.0858819136471965e-02 -1.6394010573098881e-02
      -5.6618339602435105e-02 -5.1227220453700636e-02
      4.0986546431965795e-02 -2.2326571554558645e-02
      1.2028604336909591e-02 -4.0028279510479339e-02
      -3.3337025772997818e-02 -3.1857661983341563e-02
      5.2494835841759818e-02 -2.3375085298455233e-02
      1.1045691333442815e-02 1.6182548412048737e-02
      -3.8287829823855056e-02 -7.8180883530961816e-03
      4.5525746639470198e-02 4.6990897235897220e-03
      -4.0225092680384232e-02 -4.1506749846347994e-02
      -2.3681521480790623e-02 6.7221890763163620e-03
      1.2605047619751789e-02 -5.6255455746802088e-03
      -2.8502620955227344e-02 -3.2245377413636971e-02
      5.8726569518912355e-03 2.3005351510026664e-02
      -1.6382464280868165e-02 -1.8577205433373468e-02
      9.8057596727789506e-02 2.0940873291084329e-02
      5.6792056457251862e-02 1.3116518210119336e-03
      -4.9527860740946873e-02 3.3008046312225800e-02
      -1.9592309528092707e-02 -1.5745449872737217e-02
      1.8825226261373552e-02 3.5933211128287970e-02
      -1.2256978834748392e-02 -5.5530528391464955e-03
      -2.8565041464834059e-02 6.2555182686911135e-03
      -1.6299109827224843e-02 -6.3985889490791772e-02
      1.2023942638279951e-02 -1.5406547178549713e-02
      -6.5055810919345508e-02 1.1854053376868337e-02
      -7.0798522340185244e-02 -1.8631254376620800e-02
      -5.2485343377664520e-03 6.5088648549068831e-02
      -2.9541163496305645e-02 -2.9190827338378685e-02
      5.5860675307338745e-03 -2.1723822927197291e-02
      -6.9087457232727117e-03 -8.0671859672719979e-03
      -1.1436803019234585e-02 -6.7797936584018245e-03
      6.8824299020243659e-02 1.3052762555747251e-02
      -3.9634522358994569e-02 -3.6097842775820482e-02
      2.3702314470670422e-03 -2.2996215209695968e-04
      -3.8182993165630653e-02 6.3060870551127329e-02
      -4.0428598713499776e-02 -3.3239953155726323e-02
      3.5330814672972664e-03 2.5257478402674907e-02
      -1.3413807966500643e-02 8.3952057733040139e-02
      -5.9475395604703810e-03 3.5997192040948929e-02
      -2.2609614441816302e-02 -2.0751027601239370e-03
      -5.5238811476327816e-02 2.3771769793245679e-02
      -6.7238179083167629e-03 -2.7200436527991121e-02
      2.3971545012052578e-02 3.8272111882122720e-02
      8.3581660910991996e-03 -2.1935356870520152e-02
      1.2638117235755959e-02 -2.8481423791520639e-02
      2.1625000597173049e-02 3.3288755202847520e-02
      8.3389250298268863e-03 7.1155319684305066e-02
      2.0411285597155479e-02 1.8369146450973352e-02
      4.8739773982036320e-02 -3.2791035858032225e-02
      4.6226708677828882e-02 -3.5587509370115693e-04
      -6.5427461978260715e-02 -3.9538168202260335e-03
      -4.2283565643747585e-02 -2.7632545021843036e-02
      3.7766096636304446e-02 -1.8353586028931501e-02
      4.4150279971783606e-02 1.6407318492440193e-02
      8.4968903722316275e-03 -6.1037114118867877e-02
      3.4853502241124892e-02 -2.9518663704979579e-02
      -1.3450564285686794e-02 8.3586356184711663e-02
      1.8673220765379937e-02 -5.9166229405141499e-03
      9.4309280541097322e-03 4.0089401333347815e-03
      -4.3368915597725703e-02 -5.3246543448651269e-02
      -2.2753460920030954e-02 7.2056147774463453e-02
      7.6464978958284613e-03 2.4721718227917962e-02
      -4.2531086787816891e-02 4.3759941095834629e-02
      4.7567900011103781e-02 5.9886650093734270e-02
      2.2314637617021862e-02 -7.8690581034046459e-03
      3.9205614384309917e-02 -2.1585996693888336e-03
      2.5573522737042467e-02 -2.0602650749831579e-02
      -1.6122525664925565e-02 6.9773343157261483e-02
      -3.0255881656804182e-02 -2.9559820009150795e-02
      4.0189317369852713e-03 4.2533053886877684e-02
      -2.7387017757871317e-02 3.3342895653267327e-02
      -1.2533963867207709e-02 2.1992134860162924e-02
      1.5559628066046568e-02 -1.7026923269988798e-02
      -5.9903863261638240e-02 -2.7436558925616240e-02
      -3.8976811079043652e-03 1.7268296282020468e-02
      4.9580496891120630e-02 -4.4316429516686193e-03
      -4.3680295299313499e-02 8.1608047452206844e-03
      4.2758194814574046e-02 2.7190515609183723e-02
      1.6142016675442426e-02 1.4330555140041371e-02
      3.4180817278799340e-02 -3.0212122268017082e-02
      -3.6804287247486210e-02 -5.8043789800670736e-02
      -4.5311454114702887e-02 -3.8762058133003312e-02
      -9.3608507254750537e-03 -3.5969891305169276e-02
      -2.8580847709233997e-03 1.0996667044834568e-02
      -3.3431847420118337e-02 1.5900494280663556e-02
      -3.4030827211603061e-02 1.3843372926093389e-02
      -8.3951165992115686e-03 -1.4634080502751518e-02
      1.5170763668712329e-02 -4.0559755597640600e-02
      7.8205166976474741e-03 -2.1079706620463490e-02
      8.6471063416059639e-03 2.8082668701510813e-02
      2.8620920907790552e-02 -1.0898519113265259e-03
      9.8944365011334016e-03 -2.3614570048820147e-02
      1.9858208987284773e-02 1.0226424816914574e-02
      -1.9757209040176662e-02 3.6639508871070807e-02
      1.7954105574835325e-03 -6.6992185115756483e-02
      3.0953450974119767e-03 5.4898997044149295e-03
      4.0429459708392623e-03 -1.2063409854061388e-02
      -5.0056619410377756e-02 6.8031834133777625e-03
      -1.0198000109653818e-02 4.2999335390051144e-02
      -2.5288052073821364e-02 -1.5706147388520855e-02
      2.0895423476845060e-03 3.0322620131954081e-02
      -4.0412960894851163e-02 2.6670372796571921e-02
      -2.9806865543823256e-02 5.4715260233731279e-02
      -3.2487557346953549e-02 3.7423396518139881e-03
      1.6790308766610012e-02 -1.1815981975100233e-02
      -4.6144757300000824e-02 2.8352797037973325e-02
      3.4287370168012726e-02 -1.5109516354609603e-04
      -1.0946351399139607e-03 -3.6424926266754878e-03
      -1.6506660093889524e-02 1.8086436226152417e-02
      1.9775382666704401e-03 -2.9086367551225744e-02
      2.9598558411907758e-02 -1.9433902802514540e-02
      -1.8232076848121250e-02 1.6478772427870922e-02
      -3.2928487197867382e-02 6.3141395239645747e-03
      -2.3869536710428040e-02 -3.4940082105975802e-02
      7.7384560828979883e-03 -9.0216904429283153e-04
      -1.1392633358765130e-03 -9.9012251113718124e-03
      7.2525929601135908e-02 -7.7811531086013829e-03
      1.8638441950456993e-02 2.0091024292149796e-03
      5.7224176479448802e-02 1.5050099689716288e-02
      -1.4465017233481032e-02 1.8818947151632282e-02
      -2.8609110751452834e-02 8.9940298283556173e-03
      -1.5757427932578760e-03 -3.2396741155189611e-02
      1.6930142743071693e-02 -1.3849505803112642e-02
      3.7615875375312025e-02 2.3801145118870638e-02
      1.5367987161222086e-02 1.8017515428003332e-03
      -2.5481066239917433e-02 6.0396515670353229e-02
      1.2407107335507700e-02 -4.3812292121460539e-02
      -3.3361448715307052e-02 3.0571395212949520e-02
      -8.7918892828699486e-03 -1.4064808017798297e-02
      -1.0354225129974189e-02 4.2946314331705690e-02
      4.2638592350697960e-02 -2.5886641595164487e-03
      -4.1771048863223893e-02 -2.1852380611934265e-02
      -8.4852813293094572e-03 2.4529251743895652e-02
      -1.4566991430956038e-02 -5.1797599993320355e-03
      -1.5107020219677423e-02 -1.4407128476539586e-02
      3.4989785494300402e-02 7.8229859322272652e-03
      8.1448424269876286e-03 -6.6289171778257161e-02
      -1.2162168982431649e-02 -4.3025145904701821e-02
      1.1707103070014711e-02 -1.0983499936791789e-02
      1.5176783637888273e-02 3.6696727361640785e-02
      4.1379877821498393e-02 -1.9683716060098409e-02
      1.6834255903965204e-02 5.5473348752082603e-02
      -4.9098894452833830e-02 -1.1366618746772965e-02
      1.6584729527090912e-02 -1.5513264982460978e-02
      -1.3776060969787932e-03 4.0752133910083761e-03
      -6.7540664734377425e-03 -7.5349823592228957e-02
      -2.1876876872764926e-02 -1.6264637507091187e-02
      -2.8619578919199751e-02 1.5898760176432915e-02
      -3.0187047378610894e-02 1.9742888590030410e-04
      -1.3094753177803689e-02 2.2737596680649882e-02
      3.3482067781288802e-02 4.8816720413809804e-04
      6.1161030199973196e-02 -3.2005497847302965e-02
      -2.2473334419006829e-03 1.2732112028966242e-03
      -2.8609479031278463e-02 1.0204122783386814e-03
      -8.5552731064735751e-03 1.0409456757347323e-01
      -1.7870638738555728e-02 -2.6068808588073358e-03
      -1.3864178417110289e-02 4.4323657639491390e-04
      -2.9404787306949809e-03 -4.6921643166472841e-02
      -2.7786337480275685e-02 -1.3398823941769562e-02
      3.0527835778461344e-02 3.6371830930247193e-02
      -4.6919228692874876e-02 2.9919646325602210e-02
      3.8570183416658507e-02 -5.7526168457188248e-02
      -1.8333322605850209e-02 -1.0866988567574010e-02
      -1.3187340395768072e-02 3.7225255782104972e-03
      1.5324265039744505e-02 -2.6411110346424523e-03
      -8.9025835493289004e-03 -8.7880249127496139e-03
      -1.6558997117523699e-01 3.4843391688213253e-03
      -1.1161767729271238e-02 -2.0437957613527740e-03
      5.8357915477236059e-03 -1.1629986180428908e-02
      8.6634532572969231e-03 -1.9175401694343470e-02
      1.2590197569219013e-02 -4.0907692604621355e-03
      -3.3856354980548358e-03 -2.1977927227276563e-02
      3.3360676110804247e-02 3.2040762783327265e-02
      -2.4684960962632660e-02 -5.3264830346721637e-02
      -9.2427585810120477e-03 1.1433580325728543e-04
      2.2285131591156242e-02 -5.8440456128336579e-02
      -2.4517765994617753e-02 1.8536980291717766e-02
      3.5691381833283908e-02 6.7400951995197300e-02
      -1.6662762155826443e-02 -6.2151738237196941e-02
      8.0047281073276758e-02 -4.1532516349258433e-02
      -2.9426466866032435e-02 -9.3044699689935978e-02
      1.0527603919406112e-02 -3.3437235674082896e-02
      -2.7366544234551801e-02 -4.1191603050177272e-02
      -2.6550509937694644e-02 -1.8573577887103166e-02
      -7.0149778955633887e-02 3.1190670003262821e-03
      -4.7257125783306729e-02 5.2663880869200055e-02
      -2.9823958319418864e-02 4.9983755266913316e-02
      1.2531117880246370e-02 -2.8220014207164506e-02
      3.9838843299604784e-02 -2.0825659076080739e-02
      9.0665853582041229e-03 9.3508962220434380e-02
      8.1834915742170819e-02 -5.9410991964944536e-03
      -6.8795147631033879e-02 -5.5057863816580732e-02
      -1.2545308326243757e-03 -4.2751431080417955e-03
      -2.4937939347694369e-02 3.8046089051523506e-02
      -3.2260243396064495e-02 -2.2195681833622447e-02
      -4.7829644047877297e-02 -1.2749877231266843e-01
      3.4162546158574399e-02 -1.7646700492134763e-03
      -3.9158506877058422e-02 -1.5829020841978941e-02
      6.1342824601457707e-02 3.6186740361596220e-02
      2.5106916350705045e-02 -1.9319267136556104e-02
      -2.5009929850638293e-02 5.0214494715200890e-02
      -1.6632065285866613e-02 2.2669173240396454e-02
      -4.5079821202223735e-03 -2.1635655999178972e-02
      -2.9182219374497088e-02 2.0577332207623152e-02
      -2.8958235723603950e-02 5.9819571022681380e-02
      -5.4696815101460350e-02 1.0236580633205448e-01
      2.1010488386924698e-02 -3.0980536529014446e-02
      -4.3649384737535553e-02 1.0467990503916020e-02
      3.4715691830260261e-03 3.3688600338331390e-02
      2.6045982535326796e-02 -9.2192858949411732e-02
      4.4507325545690028e-02 1.7134013918450600e-02
      3.5296843542763828e-02 -1.8805440807687007e-02
      -4.3107983539531144e-02 4.9191335243375434e-02
      -1.3009021573741363e-02 -1.1897681445654276e-02
      5.6836089639117793e-02 1.6275574639556273e-04
      -1.0660080255661021e-01 -3.0585229591691208e-02
      2.1313526286685414e-02 -4.5347332978204598e-02
      3.1792236595665171e-02 6.2992865998403397e-02
      -3.7344237073196097e-02 -3.1840256397562175e-02
      -3.4098686493652742e-03 1.2637183536414736e-03
      -1.5181302202352731e-02 1.3204739051937595e-03
      5.5723278039125523e-02 -3.4099456828340334e-02
      1.4944654903954630e-02 -1.1145503987273337e-02
      -1.1223974753210152e-02 1.4270612285531710e-02
      4.4493064830657798e-02 -1.9869778814358842e-02
      3.4478584063860049e-02 -8.1777158637873992e-02
      -2.6470783626125160e-02 -7.2725487327604740e-02
      3.8109298887166881e-02 -3.5436492654330173e-02
      -3.8451156695681596e-02 2.5709226328203740e-02
      1.9252707695462654e-02 5.1636491651335749e-02
      2.7416632594886230e-02 6.5764714958247789e-02
      2.9032950343140088e-03 4.0000437299784683e-03
      1.2048443115222107e-02 5.4993524008534578e-02
      -1.0115178743634740e-02 3.4087679611055945e-02
      6.4862045584726205e-02 -1.8988479689967936e-02
      4.9242377038061114e-02 1.3068708569841869e-03
      2.2767041194233503e-02 2.1245839301420951e-04
      2.6201138872577540e-04 -1.2914528629487974e-02
      -9.9790508696778191e-03 -8.7960950001701697e-03
      -1.3199174257894765e-03 -4.0687786773296292e-02
      -3.4293998183388665e-02 -1.2521257525985678e-02
      4.9345202089672441e-02 3.3293352736077815e-02
      4.8620574408574039e-03 -1.9305711460629201e-02
      -6.7949904267885436e-03 4.9743087929053860e-02
      -4.7246025756908498e-02 1.3701632638538619e-01
      8.1080925263024711e-02 3.0684670944300725e-02
      -1.8115767429742382e-02 -3.1647033562982235e-02
      -3.0796589890394661e-03 2.0870878684891066e-02
      -5.2432559639586623e-02 -3.1520832122450833e-02
      -2.8259704292439864e-02 3.4261423699068268e-02
      -2.3374776475176360e-02 -1.2726160620376740e-02
      2.0428906496245191e-02 8.6775182670731539e-03
      -9.3261886614914111e-03 -8.6532962010887112e-04
      2.0719142280493447e-02 4.1346261182313514e-02
      -5.9828520973970380e-02 2.6931327943384904e-03
      1.3953859022727970e-02 -5.2972185736467068e-03
      9.1042814580345102e-03 -3.9210617448338411e-02
      -2.0489719082897432e-02 1.8829782882571710e-02
      -3.1115927799740786e-03 -3.9766953162899028e-02
      4.1038068891329433e-03 2.6174924502361800e-02
      7.4291278338053874e-03 -6.6568316165467781e-02
      -2.3388525168007761e-02 -1.4720890492971955e-02
      5.6100822154372905e-02 -8.5535466114504036e-02
      -1.3166031532954791e-03 -8.6131551444535367e-02
      5.0493721562850447e-03 -2.8051923948096134e-04
      -6.1677598801659524e-03 3.5325028868228053e-02
      -1.2220167863383086e-01 3.6349489086027385e-02
      8.3682931487475375e-03 -3.5514180670672302e-02
      6.0857389699580246e-02 3.5591422947653426e-02
      -3.8705706480343075e-03 -7.5738434854726200e-02
      5.8037913535462941e-02 -4.4586913325592573e-02
      -6.8006909547772484e-03 7.3937725464770388e-03
      -3.9566150300861677e-02 1.6574041666830328e-02
      4.6024317869909973e-03 -1.5271902418446974e-02
      -5.1123729502370726e-03 1.2379550450853333e-02
      -4.5572684164096933e-02 -7.0347643928428075e-03
      3.9799533367481842e-02 3.7239499616239881e-02
      7.4586338241914227e-03 -2.9123407813953412e-02
      -1.0865700246745842e-04 -3.6115098060390011e-02
      2.2691303081734698e-02 -1.1443584330732372e-02
      8.8615701309515751e-03 -5.9948001386693171e-02
      4.2681795434787234e-03 4.3480872397626508e-04
      -3.6538623071285511e-02 -2.0280568205478283e-02
      -6.0331808486388687e-02 -3.0776792234621215e-03
      -5.9825611614429626e-02 1.4821358022230842e-02
      -3.3216299765392240e-02 3.9044967184397955e-02
      1.1435523246399978e-02 4.5510853863717879e-02
      1.3550779061615696e-02 4.1357106914507981e-02
      3.1741125293400653e-02 -1.6016089920348923e-02
      -1.4793566905768480e-02 2.7951480532749800e-02
      1.5438397545308041e-02 2.2326199334299600e-02
      -4.3538646238068142e-02 -7.6961039738191503e-02
      -1.9533134076855245e-02 -2.8476534047877131e-02
      -1.0173537972466261e-03 -2.2146533932530608e-02
      -2.7681603533775630e-02 -7.2232897910257235e-02
      -6.5249401049667921e-02 -4.9743400029891298e-02
      4.1338767518437264e-02 3.2282489522213194e-02
      -4.9735183215691477e-03 -2.4505123364354012e-02
      2.2336240103272009e-02 5.7432355354576345e-02
      4.9852324437125201e-02 -1.7507016745069826e-02
      -2.7656394030074812e-02 3.7369310884402727e-03
      1.2675072025658625e-02 -5.0860787294678515e-02
      9.3286074877986560e-06 1.4006591505933592e-03
      -1.3976962098966579e-03 1.6508323685771008e-02
      -2.5595336526152736e-02 1.4195940452601337e-02
      3.7706156406578706e-02 2.5895659400331648e-02
      -6.3904303997467041e-05 -1.3501109722880735e-02
      2.6925121086814625e-02 -2.4301936623430657e-02
      -3.0330795132941228e-02 6.5613576749142477e-02
      -5.5743606925530769e-03 -6.4537907076218579e-02
      3.1323449096434565e-02 9.0431153768292458e-03
      3.3963853320062042e-02 -4.2301606131181453e-02
      1.2924836544899437e-03 4.5531385882519017e-02
      8.5697778433167886e-03 2.6888979803771855e-02
      3.0480899568989205e-02 1.0067057826169332e-02
      -3.5579799402663329e-02 -2.8688039515936480e-02
      -4.1621708044972491e-02 -3.4028357918755282e-02
      4.2019114930577667e-02 3.3529958233978675e-02
      -2.9997256171136390e-02 -3.4000625870649483e-02
      -4.0103978640430173e-02 3.8224238814835089e-02
      -6.1890265021931181e-03 6.9369506251979060e-02
      5.8327611997452629e-02 -2.6362986261270725e-02
      -8.2849850375341680e-04 2.5113240043504032e-02
      3.1992914968174531e-02 1.0431692154807689e-02
      5.6301121540322678e-02 -3.6934154893295636e-02
      1.1136837802842131e-02 -1.0907368961468351e-01
      -5.4833518306998035e-04 -2.8071088148348333e-03
      4.1427668248823611e-04 -1.7767465686823195e-02
      -7.2965136674062311e-03 3.4236666560688613e-02
      2.9299945636761738e-02 1.5024404608280388e-02
      3.2681170591457406e-02 1.0554179165222957e-02
      1.8321501667688010e-02 -3.7186451146305595e-02
      -9.1255588913027569e-02 1.1815610060074448e-03
      -2.5620900790660324e-02 4.5972298589439277e-02
      -1.7147883616003314e-02 -1.5589783267000933e-02
      -4.0538846550588696e-02 1.1701985005773676e-02
      3.6012633572240306e-02 -4.8140635488633570e-03
      1.2023901820298437e-02 1.5501477440723069e-02
      7.5127276400902953e-04 -3.7600926685812962e-02
      -7.2638359669861506e-03 9.4614957297414380e-04
      -5.1931988533920979e-04 1.8978422791227779e-02
      3.3110630734255644e-02 -5.2345180108913730e-02
      1.5119961844334647e-02 1.4931908655802566e-02
      -5.0938656556296265e-02 2.9947947565950265e-02
      -9.1292538951431593e-02 1.2641180001904296e-02
      8.9678644382555336e-02 -1.8026859929779537e-02
      -2.4087645475382590e-03 2.7563280421708379e-02
      -4.3396449826458190e-02 -2.8949420065014147e-02
      2.5356655331040916e-03 5.3838356768364142e-03
      -1.9638837393035513e-02 5.3920344808680645e-03
      -9.4225419026783594e-02 -6.5834847961836196e-03
      -1.5701667604457788e-02 -9.7758733035757606e-02
      -1.9368864555937681e-02 5.0306357345974537e-02
      -2.7261657115401065e-02 1.3743025314183180e-02
      -1.1759680704595318e-01 1.8423793915932078e-02
      1.1898764115870248e-02 1.5894502489765771e-02
      -2.7409778691897601e-02 -3.4802484637921599e-02
      -5.9712104143489131e-03 -5.0681268107941012e-03
      7.1938010216182971e-03 5.2899098004402581e-03
      2.7122748690003157e-02 -8.0093538480083784e-02
      3.1554561973182807e-02 -1.1624786095781015e-02
      4.3977606285292493e-02 -9.5482352109737448e-02
      2.2194736306106820e-02 -6.1793138183952746e-02
      2.5677104522056175e-02 -3.1825947371193618e-02
      3.8218823809188590e-02 -1.9268567482013770e-02
      4.0577828639340330e-03 1.4220550367775714e-03
      -2.6159773435302147e-01 -1.7970091580351774e-02
      3.7890377666664102e-02 5.1332348259429880e-03
      1.1906896355687851e-02 -1.9823371492887210e-02
      4.8158468377027131e-03 -6.7645911308883491e-02
      5.1990888959558633e-02 2.2776990344626356e-02
      6.9503065450439525e-03 -1.4912796967921190e-02
      -3.6476283200029221e-02 1.4180724498352292e-02
      2.9990886125304761e-02 -1.3333542927583092e-02
      4.5286794223013530e-02 1.0220182963098321e-02
      1.5950700910737504e-02 4.3774470085985916e-02
      -1.8656405265191502e-02 2.5222276677928212e-02
      -1.5524587238128679e-01 -4.9587186732222378e-02
      -1.0003018868791978e-01 -1.7426103174812600e-02
      -6.4601081721084239e-02 9.1074020706133913e-05
      -1.2310189319322439e-02 4.4517107455615927e-02
      -5.2717440292415436e-02 3.4661505121627544e-02
      3.4039306330616387e-02 -5.2877866538891302e-02
      5.4587471280681366e-02 -2.6133962202251022e-02
      -1.0221779109522038e-01 -7.8197865750972567e-02
      -1.8909374275439910e-02 -4.4084387047535867e-02
      -1.5849787278382859e-02 -8.3314159451948547e-02
      -5.0568696238710652e-02 -3.4951989304040899e-02
      -4.3509882922606997e-02 8.1278353599184894e-02
      -3.3071383797034858e-02 -5.3741956263269455e-02
      -3.6233112437585341e-02 8.1954153333168214e-03
      3.7094611611525941e-02 -3.8442144498371201e-03
      8.2107952030308646e-03 8.7851605517503817e-02
      -3.6209926735175152e-03 -6.4168158509520512e-02
      3.6594806835162107e-02 -1.0369135983011245e-01
      3.4764371697150610e-02 1.8077099325153184e-01
      -9.9390036775989732e-02 5.5050965858346089e-02
      -1.8269464287189695e-02 6.4383260991592126e-02
      4.0138396532790103e-02 2.8244589732951508e-03
      -8.6774234502474124e-02 2.1292414214299844e-02
      5.8515300217553877e-02 -7.8345615245002748e-02
      6.2099379709356336e-03 -5.9453586017828484e-02
      -1.7804800088042385e-03 7.2048360599562086e-02
      -5.8807560318024289e-02 -4.7543581760492733e-02
      1.6187246832760564e-02 6.3967751116645946e-02
      3.8882301870202515e-02 -8.7552307922498226e-02
      1.9324700209021647e-02 -7.7860275177241952e-03
      8.1442418613284842e-03 -1.0794282855048008e-01
      -2.1733971452689346e-02 -3.1776027054467804e-02
      -1.1188914536077812e-02 1.8554468271616196e-02
      -8.5492307087493072e-02 3.3801829774642453e-02
      5.9478412501286016e-03 -3.9214072875177731e-02
      -8.6845542913635082e-02 -5.3052716158702239e-02
      2.0668183425333660e-03 4.9951107404294370e-03
      -7.0385358272638421e-02 -8.5734268518679491e-02
      2.7329243517859486e-01 5.5622425814923562e-02
      1.5282546021396126e-01 6.5942722713084656e-02
      -7.5940865149035142e-02 -4.1901893443425868e-02
      -8.4254427657202144e-04 2.7148959176440564e-02
      3.3874719713807379e-02 7.8208759808172490e-02
      -1.5464227313767592e-01 -4.3414928829538034e-02
      -7.2879444163104906e-02 3.9766118084136298e-02
      9.0200646191472098e-02 -1.1600690547247312e-01
      1.8308007219132380e-02 8.2633837304644207e-03
      1.5886414860211050e-02 -3.3416883815055621e-04
      -3.2520783210534879e-03 7.4422280678666422e-02
      4.9737366766675631e-02 1.5636536513072005e-02
      3.5493215532962129e-03 -6.3014158616182276e-03
      2.1889804230236478e-02 -2.9324637591538152e-02
      -4.2391134047778049e-02 -8.3420762868063117e-03
      1.8866957485796931e-02 1.1176291801598548e-02
      1.9731848229107639e-02 1.4073283621746062e-02
      4.2669742146748409e-02 4.3659835312523949e-03
      -1.1040989149674666e-02 -2.1187673955688196e-02
      -4.9873846553324741e-03 6.9955978396912324e-03
      2.0874730070060077e-02 1.3241818712823985e-02
      -7.3676710076334747e-03 6.0193960983965858e-02
      1.3388503165177432e-02 4.2537794096721383e-03
      8.8679788217138553e-03 1.3474318081509461e-02
      -1.4281132719121952e-03 -1.6220770749194764e-02
      -1.9774554995963381e-02 -1.1485196675830830e-02
      -2.6908084419565440e-02 3.3066632309870884e-03
      -2.9442184085060226e-02 -3.2578204569503662e-03
      3.1407915131855847e-02 -3.2658237225942244e-02
      3.4831507808428044e-02 -1.8281987029451812e-02
      -7.0649869435603058e-02 4.1629999204691903e-02
      1.6395575576404545e-02 -4.8340753458620362e-03
      3.3335701531771865e-02 -3.8376501683589567e-02
      1.4893216646879264e-02 -2.7296771553465974e-03
      4.8487415019326061e-02 -2.8323576732550301e-02
      1.1017030511803510e-02 -1.8950037074231176e-02
      3.6595893911978560e-02 3.1536298975438372e-03
      1.6542218669834172e-02 -1.7728985156900814e-02
      2.6141273941484484e-02 -1.4612214008843277e-02
      5.2176967093534585e-04 -1.8211088834099665e-02
      3.2422766931246502e-02 4.4755237454970048e-03
      -6.6377386104399779e-03 -4.3539331781309596e-03
