<?xml version="1.0"?>
<opencv_storage>
<opencv_ml_ann_mlp>
  <format>3</format>
  <layer_sizes>
    29 100 10</layer_sizes>
  <activation_function>SIGMOID_SYM</activation_function>
  <f_param1>6.6666666666666663e-01</f_param1>
  <f_param2>1.7159000000000000e+00</f_param2>
  <min_val>-9.4999999999999996e-01</min_val>
  <max_val>9.4999999999999996e-01</max_val>
  <min_val1>-9.7999999999999998e-01</min_val1>
  <max_val1>9.7999999999999998e-01</max_val1>
  <training_params>
    <train_method>BACKPROP</train_method>
    <dw_scale>1.0000000000000000e-03</dw_scale>
    <moment_scale>0.</moment_scale>
    <term_criteria>
      <iterations>500</iterations></term_criteria></training_params>
  <input_scale>
    1. -2. 4.3669284910100572e+00 -2.8721729849844198e+00
    1.0007395702987935e+01 -2.6019251005378212e+00
    8.7173513757717735e+00 -2.2047260160171858e+00
    9.1847208954027124e+00 -2.1023833347081675e+00
    8.3942504514359211e+00 -1.2214913874752107e+00
    1.7441639224291080e+01 -1.4600067686711844e+00
    3.2733794388362476e+01 -1.8886191982869818e+00
    4.2066178065434656e+01 -1.8044764519016476e+00
    5.4679687846290605e+01 -2.0481679317011845e+00
    6.2355263853120732e+01 -1.9023853717895880e+00
    7.5015744527707639e+01 -2.1380226733948446e+00
    8.0511808823880372e+01 -1.9845585358026818e+00
    7.8682820291371598e+01 -1.8528981985285897e+00
    1.0779856483753515e+02 -2.2166915732466621e+00
    9.4979424341916243e+01 -1.7533271145820848e+00
    1.2286555015806627e+02 -1.9745342931118113e+00
    1.2523142165909752e+02 -1.7783114445012651e+00
    1.6249804079690176e+02 -2.1135812396738580e+00
    1.7704276563635733e+02 -2.0206090410234103e+00
    2.0661910497350149e+02 -2.1277859402316177e+00
    2.1940100562229222e+02 -1.9764673165555235e+00
    2.2927666689256998e+02 -1.9679638945513018e+00
    2.4925542547009030e+02 -1.9286345723469389e+00
    2.9567635335931470e+02 -1.9642828595418542e+00
    2.8243706513390629e+02 -1.8114067846341955e+00
    2.8928086889372520e+02 -1.7652272878350677e+00
    3.6810082207184996e+02 -1.9447188716370225e+00
    3.2054123988706829e+02 -1.6222871340696872e+00</input_scale>
  <output_scale>
    5.2631578947368418e-01 4.9999999999999994e-01 5.2631578947368418e-01
    4.9999999999999994e-01 5.2631578947368418e-01 4.9999999999999994e-01
    5.2631578947368418e-01 4.9999999999999994e-01 5.2631578947368418e-01
    4.9999999999999994e-01 5.2631578947368418e-01 4.9999999999999994e-01
    5.2631578947368418e-01 4.9999999999999994e-01 5.2631578947368418e-01
    4.9999999999999994e-01 5.2631578947368418e-01 4.9999999999999994e-01
    5.2631578947368418e-01 4.9999999999999994e-01</output_scale>
  <inv_output_scale>
    1.8999999999999999e+00 -9.4999999999999996e-01
    1.8999999999999999e+00 -9.4999999999999996e-01
    1.8999999999999999e+00 -9.4999999999999996e-01
    1.8999999999999999e+00 -9.4999999999999996e-01
    1.8999999999999999e+00 -9.4999999999999996e-01
    1.8999999999999999e+00 -9.4999999999999996e-01
    1.8999999999999999e+00 -9.4999999999999996e-01
    1.8999999999999999e+00 -9.4999999999999996e-01
    1.8999999999999999e+00 -9.4999999999999996e-01
    1.8999999999999999e+00 -9.4999999999999996e-01</inv_output_scale>
  <weights>
    <_>
      -5.2982824678020235e-02 -5.2279698024913654e-02
      3.9336175969526120e-02 -3.6509622240002801e-02
      1.7505165009740257e-02 5.4416333079242860e-02
      5.8178105421765582e-02 -4.3638041559225342e-02
      -4.9883657115028110e-02 -3.1127462723946606e-03
      -1.4666329182064881e-02 -3.4147038120339437e-02
      4.5111381570145416e-02 4.8820162433999614e-02
      -4.5429959508082131e-02 4.9478480241037452e-02
      -4.0594589507541898e-02 1.8375603644527935e-02
      -5.5872890484395435e-02 -3.4230730379500938e-02
      -2.0058588997975205e-02 4.9761906448787523e-02
      1.5967058527210375e-02 3.6540517582050007e-02
      1.9249621332573134e-02 -9.5252095756664084e-03
      -2.8944271435175167e-02 5.7480582691289146e-02
      -6.5702887682962979e-02 5.2626432810338464e-02
      -2.7837163167993551e-02 2.5485935351764168e-02
      6.2318195344372343e-02 -1.3547315446277925e-02
      -2.6514682897564208e-02 -3.7468206222509862e-02
      -5.9591322222386264e-02 2.1581430952087596e-04
      -4.3972030623290928e-02 1.6300718409899967e-02
      3.6322736738051177e-02 -5.0884846599739644e-02
      4.7131122061006267e-02 -4.9939629329465364e-02
      3.9016121225456661e-02 5.0462822788745219e-02
      1.0826426748939298e-02 5.4399683508486715e-02
      1.8351738301167739e-02 2.2420251162232514e-02
      -7.8611851444699860e-03 -7.0140999327571230e-02
      6.6947822533326914e-02 -3.8606725763648757e-02
      6.0762391995243720e-02 7.1945217545846346e-02
      9.7325195495374418e-03 -2.1607756848591080e-03
      -2.5109047145697526e-02 2.6008911317219309e-02
      3.3778374529302602e-02 -1.3156227623972092e-02
      2.9101766201320257e-02 -2.1552400494151875e-02
      -4.6920851485025381e-02 -6.4965281185520890e-02
      -5.3497629255779840e-02 -2.6838737720555787e-02
      -4.1417917784196519e-02 -3.9349214264705487e-02
      2.1147804130439478e-02 7.3033785893724529e-02
      5.5788591327226716e-02 -2.0197913576705404e-02
      -5.5570564530094554e-02 7.2045739678218798e-02
      3.7857606949819080e-02 -4.6309237371573893e-03
      -8.2679557536717123e-03 4.1238559542180010e-02
      2.6293891874177286e-02 -5.6558489652001526e-02
      -3.3858455788350034e-02 2.9850960887899586e-02
      -1.1996291190313575e-02 -1.6185875930408808e-02
      6.0646229890198829e-03 -2.5699406331558712e-02
      -8.6641001560388349e-04 -3.1293069575135224e-02
      -3.7692082907251651e-02 -6.8480712845350898e-03
      -6.4181404075954754e-02 -2.7229207165882903e-02
      5.3285461262174490e-02 3.2357391669583818e-02
      2.5746401944359881e-02 -6.1523888006156470e-02
      -4.4030893097309537e-02 3.6349751277434270e-02
      -9.8147514839904360e-02 -4.4018789486215092e-02
      -5.9509625686854462e-01 -2.7497340108464195e-02
      8.1054628305374781e-03 1.7841888648628453e-02
      4.2569015680932076e-02 -1.4316497747003468e-01
      -7.0343652021211109e-02 -2.6895360212123749e-02
      6.4472372433938352e-01 -7.5023660163610950e-02
      -2.0152584778692473e-01 -2.8926210397948428e-02
      -1.9345638365923548e-01 -8.8886476840889861e-01
      -1.9046424620515559e-01 2.4400754367533217e-01
      -9.0160238663021114e-02 2.5935101439108027e-01
      -1.7186493264187030e-01 2.0129560618080623e-02
      2.4055572724232897e-02 -7.2493167131847669e-02
      -3.3323883658277285e-02 1.3788009055529121e-01
      6.1343769120117220e-01 1.4662177907152815e-01
      7.8969394996407177e-02 -1.7974204764235513e-01
      6.5560323909583884e-02 -1.3735994448155953e-01
      1.2089752645817635e-01 -1.2110982362186123e-01
      -6.7716088250054027e-02 2.0238800985577146e-01
      5.0977513265764229e-01 -3.2244645995114313e-02
      6.4249834614205725e-01 1.6962748751981244e-01
      9.6201835090569936e-03 1.6099859835291674e-01
      1.0659404686925387e-02 9.7172079033666300e-02
      1.6434224157252478e-01 7.7283501509340963e-02
      1.0365935834717890e-02 -2.6151696291821219e-01
      3.7155179008156250e-02 -2.2035363835506309e-02
      3.4460279845775058e-02 -1.5703029599681045e-02
      -4.2994009771346764e-02 -2.5627201966839586e-02
      7.4054783522504941e-02 -8.5477665224871404e-03
      4.7580829462473613e-02 -8.9378122970517462e-02
      -3.5050487424458120e-02 -6.5374414312111889e-03
      -4.5168971361487231e-02 1.4711086748225238e-01
      -4.3581713088765531e-02 -1.7830687971556278e-01
      -7.8704241136249006e-02 7.6481200151993486e-02
      -3.9179428448559692e-02 1.2678891401402434e-01
      1.4687980710182771e-01 -1.4019736180521386e-01
      -6.3612635867292833e-01 -5.2198096433477392e-01
      -6.5334932412582222e-03 -1.2341416669698460e-01
      -5.3859976274446997e-01 5.3325871692919774e-02
      -4.1204445231195638e-02 1.0564086387932227e-01
      1.1259285237027222e-01 3.5551881933050346e-02
      -5.0340032796982646e-02 -8.4440191106268575e-02
      2.4921830751702539e-03 6.2359542092650606e-02
      -1.0424758751904688e-01 -2.0654188751067309e-02
      9.2623638928516605e-02 6.8846323684566321e-02
      1.7671597221482679e-01 5.5599434009271274e-02
      -1.2925054920796247e-01 8.3714467347032057e-02
      1.4045703523472461e-02 1.5824535189046557e-01
      -6.6982357663923506e-02 5.2849540634291765e-02
      -1.8261891697699269e-02 -1.0281937630900724e-01
      7.0634932321763322e-02 2.3775097144850715e-01
      -5.0953322146667082e-03 -7.9990486463819566e-03
      3.5419591502174114e-01 2.2214509520105025e-02
      3.0953645802791859e-02 -4.8928509767172647e-02
      2.0080464051958680e-02 1.0790981947062608e-01
      -6.3361888222286510e-03 2.2303404554642001e-02
      -4.8523609940913320e-01 1.1462805985539506e-04
      7.9333393797007934e-02 -7.0312790393257663e-02
      9.4909238105953586e-02 3.4757831523862132e-01
      -8.2776790699596189e-02 1.5048530915346650e-01
      -2.8633968194212837e-03 2.3659656616370986e-01
      3.1907589548303222e-02 1.0129928781266875e-01
      1.1325505371430522e-01 -1.5058911739512204e-02
      2.4411763099561890e-01 -3.8095225758789680e-02
      -1.9839135184131226e-01 -1.0969317829388732e-02
      -6.8341584239295667e-03 -5.0065895459214686e-02
      -1.0569666019112295e-01 -2.6806503065909965e-01
      -8.0718343223855987e-02 -1.9432600065294370e-01
      1.6798027789628778e-01 1.9346402486673933e-01
      5.9510606132978316e-01 9.8834332086314716e-02
      5.0676695230045754e-02 2.6537055382457220e-01
      1.2803691386187971e-01 -3.4009691007562001e-02
      1.2884922751235672e-01 9.4062384665367357e-02
      -9.6027140548126472e-02 -5.1718942991847394e-01
      -1.2433631030814456e-01 1.4029572395191622e-01
      3.4502380636113644e-03 2.2306584308038908e-02
      -5.0012183945201544e-03 -8.7846713788389555e-02
      1.0902715301702749e-01 2.5965982193100329e-02
      -8.4081609663504905e-02 -8.9899162270336546e-03
      -6.8377524211574670e-02 4.8010241322015527e-02
      1.1779940953038241e-01 -7.8317422155548932e-02
      -1.6037210955457826e-01 -7.4128327339928093e-02
      -1.7564611209764938e-01 9.6565514061066476e-02
      -5.1685439980571742e-02 4.8554886604176324e-04
      -4.7784883990210124e-03 -4.6699641688612771e-02
      -1.5952108121350841e-01 -8.4775772807197627e-02
      -6.7854304225669548e-01 -2.1586076864074041e-01
      1.1839097504643506e-01 4.1204975631866037e-02
      1.9200102723431087e-01 3.3287482810793995e-02
      -4.2613958153643335e-02 3.8637037102529415e-02
      3.3372098685209052e-02 -3.9761501603826480e-02
      4.1633441477381940e-02 1.7331243259899520e-01
      -8.0186633253056139e-02 1.5077148666213594e-01
      -5.2959166501466474e-02 -1.9145100295135148e-01
      2.0573384700082402e-02 -1.2651823661024469e-01
      2.6802207803366568e-01 -4.2332189481792454e-01
      -1.7275671515432500e-01 -6.8455608820357727e-02
      -2.8483703259896381e-02 2.7244961218135605e-02
      -1.4228696529658402e-01 2.6715781310491935e-02
      -7.6347417209511007e-02 -9.2497342566264934e-02
      1.8817378880449129e-02 3.2844282584620310e-01
      -1.3567120126364743e-01 7.7544985841480563e-02
      3.6421985252537037e-01 3.7217488253198767e-02
      5.9923512783647624e-02 1.0462841669006219e-01
      -4.2094626642222481e-03 7.8731626820728484e-02
      -1.3690840150556211e-01 -1.2482677189626709e-01
      -8.9300171693159264e-02 9.7691412438170866e-03
      1.6868789915670337e-01 -1.1767559376311494e-01
      -1.3678515752389327e-02 -3.7610274860512344e-01
      -1.5598908093617822e-01 -1.9176539266919819e-02
      -6.2662407736813600e-02 4.7374835321928904e-01
      -3.8213274516644281e-02 -7.6844268237393583e-03
      1.6185254908252716e-01 -4.9329567489139262e-02
      2.8695314951365271e-02 6.3615702935679364e-02
      1.0152024156807134e-01 2.3654689844551192e-02
      -4.4029632535848703e-03 -7.9375309379181389e-03
      -3.7102439267793656e-02 -2.2509700637859151e-01
      3.7043566058399952e-02 -1.6214435890472878e-01
      3.9862713940588557e-01 -7.2655467872601770e-02
      1.6688095344815312e-01 8.0963919706793508e-02
      -6.6608444803489611e-02 -7.1538813256354916e-02
      -1.4627485840234850e-01 -1.4131513265104871e-03
      -2.7956498272077863e-02 -8.9408411687628333e-03
      -4.1965203215838548e-02 -3.4903611324177941e-01
      1.2328250997440804e-02 3.4834327756748351e-01
      -1.1150349514682296e-01 -1.2958442649052587e-01
      -1.3574808224704227e-01 3.8612554971614393e-02
      1.3819992646992132e-01 -6.8721441106790893e-03
      -1.1064858695939603e-01 -4.4469202072972731e-02
      -2.9573309784678248e-02 -3.7323985816705464e-02
      8.3831493448458444e-02 5.1936194928378226e-02
      1.7617915278232368e-01 6.2756438788705293e-02
      1.7906480336508192e-02 2.9374622598472198e-02
      7.3533352473283964e-02 1.6507573833718082e-02
      7.6644747233909502e-02 -2.9926026919753955e-02
      2.7726080439685257e-02 -1.1720839013812308e-01
      -5.4116868482643121e-01 -3.8230596956341491e-02
      -8.6222584205698533e-02 1.6627778803845070e-01
      7.8912383256808305e-01 -3.6716436743777961e-02
      -2.5072260057037143e-01 -1.1704552739749461e-02
      -5.9713375512777715e-02 7.4627143491484471e-02
      1.1257251453230935e-02 -2.2547716107117791e-01
      2.9046864992119366e-03 4.7271358751584225e-02
      1.6215563219246831e-01 1.3295252070684369e-01
      -7.6836062229057103e-02 -1.3638045420220257e-01
      -1.9537816705371458e-01 -3.0575206111556646e-01
      -4.4415865672077275e-02 -2.9022676121241747e-02
      3.1777228804119449e-02 4.6620708056871019e-02
      3.0697538344835382e-02 -1.7021053600711700e-02
      3.9918326259938498e-02 9.1076399031698868e-03
      1.5096921142426001e-01 3.4506702325044736e-01
      1.0699753397005600e-02 -2.5345773470280837e-02
      -4.9369453748897535e-01 -9.1555043680886433e-02
      -2.9826989306808299e-02 3.8766345252783482e-02
      -2.6362472645651727e-03 -1.7321320342957056e-01
      5.0496454308179048e-02 3.6552602143360549e-02
      2.6750542645319253e-01 5.1192381179697346e-03
      1.6003541121031478e-01 3.7691227270465651e-02
      -5.3730869537982041e-02 -1.6262717584751929e-01
      3.8227291521892540e-02 -3.9421069750492040e-02
      -1.9614201121083932e-02 -4.4609202339358206e-01
      -4.0900810875794372e-06 2.7772653611678636e-02
      -1.4568627745675883e-01 7.3400256264760481e-03
      2.2564959950174079e-01 8.1245721328209883e-02
      3.4133102319045011e-01 -1.1733315346186515e-02
      2.9214430528550711e-01 -3.9459229841265778e-02
      1.2982797437798188e-01 -1.7434385986317388e-01
      3.5590667742942818e-02 3.0681238722512112e-02
      1.2548632233518315e-02 5.0577241905101496e-02
      3.7308344622612094e-01 -1.5975980670343318e-01
      1.9582370924345566e-01 1.9987755819639193e-02
      7.0963852825612808e-02 2.8942966375221164e-02
      -1.3077816916613297e-01 2.3557774160357972e-01
      4.5063637359219248e-02 -3.9741703927799715e-01
      5.8605042308456118e-02 2.1812263100653703e-02
      1.5334946862519386e-01 3.5311655827282865e-02
      3.0045015219752044e-02 -5.6700279544854348e-02
      -6.1750214242106478e-02 4.1170448549139906e-03
      3.4076259352154997e-02 -1.9390580694555284e-01
      1.3056665759357593e-02 6.6837068309265599e-02
      -6.4775885106242492e-02 8.4637306135434992e-02
      2.0098517775443003e-01 1.9958988451011708e-01
      2.6548096703888646e-01 -3.0871197058708166e-02
      2.9804320335264315e-02 -9.9736543294591477e-03
      1.2159065599055023e-02 7.9461594800525961e-02
      1.0094310449190408e-01 9.2181545802017248e-02
      -9.6256309848217647e-01 -4.9407413005766276e-01
      1.5570537290025693e-01 -6.5939248527530941e-02
      -2.1305904809701492e-01 1.9014285865420751e-02
      3.2688592473901601e-01 1.7495460794515211e-03
      -4.3515897677856470e-02 2.7546414209948616e-02
      2.4301726074506856e-03 -6.9150595401122117e-02
      1.1450721127901768e-01 8.0605945075067548e-02
      5.5602105559706502e-02 7.3960840570254482e-02
      5.7255536663484277e-02 2.4492531754753393e-02
      7.5358010355956170e-02 1.6148220010489658e-01
      -9.4583189390614733e-02 -1.2750123769741848e-03
      5.6635030723327873e-02 3.1863411361996628e-02
      -2.8705730168916661e-02 2.2352253575519039e-03
      5.7212909163127969e-03 -6.7335351446661057e-02
      5.3437153097835526e-02 -4.0649314523668090e-01
      2.4861719960191878e-02 2.3393687759182959e-02
      -4.8180067747265076e-01 -9.5002148776433343e-02
      -8.3481703917380828e-02 6.7655434325506483e-02
      7.3823880262723837e-02 1.5889688669374912e-02
      1.4961887850166005e-02 -3.5785246660058306e-02
      2.6625595577006644e-01 1.6202645085268752e-02
      -2.4323606339167098e-01 -1.1971817233557159e-02
      3.7477364595118356e-02 1.2856940120514898e-01
      -4.3285007110944893e-02 1.3280841039391401e-02
      3.4469746173123803e-02 2.3015294872959066e-01
      7.5078903976891334e-02 -1.9983382289972384e-02
      -6.6911817780922714e-02 1.5836474893502421e-02
      1.1280393742286572e-01 -8.3523469342255685e-02
      -4.7170548412837111e-02 -8.9670266554852759e-02
      8.0168174255491081e-02 3.3690876316402503e-02
      9.2743089955366828e-03 -2.1542849335673633e-01
      -7.8982497870317067e-02 -2.7944385203075378e-01
      3.3940030747627242e-01 3.1586584694960979e-01
      -1.8497689428198127e-01 6.6124311198075825e-02
      4.3569286517917076e-02 -5.7203741770311803e-02
      -1.9235092349502432e-03 -5.6873693004781296e-02
      6.2367399155773870e-02 -4.1771691219484139e-02
      -4.9792725766080001e-02 -2.3348221921810944e-01
      6.7198132639838815e-02 5.9533745552518313e-01
      -3.1796778446445254e-03 -3.3828831896835478e-02
      2.5069367378248834e-02 -4.3374172853045234e-02
      -3.5725875594012830e-03 -9.0655160713780727e-03
      -9.6587605902202528e-02 -1.9507047466530875e-01
      -1.8985751591225099e-03 -2.9887167216264672e-02
      2.7397869876094858e-02 1.2208985470488662e-01
      -2.0072852100781635e-01 -2.6531184143183031e-02
      2.5091631879258561e-02 1.5997711853571442e-01
      2.4464194017956461e-02 9.4188794011024397e-04
      5.6035213875223172e-02 3.5287116303300864e-02
      -3.2071444362726416e-02 8.5498459059742515e-02
      -6.5269467899465061e-01 -4.4666946158255355e-01
      1.1130648761028880e-01 1.1853638480298573e-02
      -3.1192781364197336e-01 -5.7800596394659932e-02
      1.0915403353362313e-01 -3.6226000318645736e-02
      -6.0041110066072947e-02 -2.1813165968604428e-02
      -1.0807880679788658e-01 9.8826141831234574e-02
      -2.9247606116833743e-02 -1.7260683912517080e-01
      5.6965562057987196e-01 -5.2986141263735277e-02
      1.5221202139851567e-01 -3.9391140982907545e-02
      -9.8209984450767299e-02 2.2606691983161653e-01
      2.1828288899731301e-02 -5.8962007971704429e-02
      1.3009213779337513e-02 -1.5380631127378488e-01
      6.5815972218303959e-02 -4.1686701552498866e-02
      -1.4961551652896371e-02 4.7408138595331779e-02
      1.7088924230556485e-01 1.1841278665437854e-01
      1.0723806738915671e-01 -7.8162496152803018e-02
      2.3956397129894329e-02 1.0604345858200619e-01
      5.1542740132959092e-02 -7.2365927237303493e-02
      -1.2266798780157784e-01 3.9516210102088410e-02
      3.3552417277859486e-02 1.0503836687182036e-01
      5.8551284301856754e-01 1.2965237513956945e-01
      -3.5302004162774792e-01 -1.0871025834775065e-01
      -2.1149335685384123e-02 -1.7462690547875973e-01
      -1.2553700511846996e-01 8.8121736231205491e-02
      2.7533950918579939e-02 7.7808048511990524e-01
      -3.2285621948723441e-02 -8.1021389834252631e-03
      8.3972064302767005e-03 4.9173203318578079e-02
      8.8661668954037112e-02 -6.2907589558694035e-02
      1.2569564385421816e-01 1.7998491082297161e-01
      2.1732428339619178e-02 1.4012330651737617e-01
      -6.8463415286597010e-02 -3.1307257475458911e-01
      -8.3966958890841811e-02 -1.8181870874118256e-01
      7.7517822446268106e-02 2.1431097520093564e-01
      -1.6347447330293211e-01 -9.9048354837660474e-02
      1.8174714394523100e-01 1.4472390487935186e-01
      1.3024923484119921e-01 3.5403166982695182e-02
      1.1083704704211743e-01 7.9385559056209545e-02
      -2.0810271934753558e-02 -2.1993112671803483e-01
      -5.4825510681056604e-03 7.0014174738671531e-01
      9.6320781975151690e-02 -1.0481937898213642e-01
      -6.7790729940990946e-02 5.1829430005416080e-02
      -7.5668109263329134e-02 1.3178598372124672e-01
      -9.4734395843083991e-02 -1.0527940773189570e-01
      -6.5527880268254790e-02 -2.2664926145183003e-02
      -3.9508945467797665e-02 -2.2557564994123905e-01
      3.5151192256698088e-01 3.9311666198615973e-02
      1.0293139544644572e-01 -7.0136951768875355e-02
      2.6934129904232468e-02 -2.1137642281813643e-02
      3.9400547229859653e-02 -7.4966711159363014e-02
      -3.4851132532664794e-02 -8.4415876291333756e-04
      -1.8397202727759054e-01 6.2642161051192524e-02
      5.7442210913156065e-02 6.4828032174157030e-02
      -1.2916360415140563e-01 4.4730903842797515e-02
      8.9792335880044441e-02 1.2737853656989567e-01
      1.0198017257619803e-01 5.5717553596043572e-02
      7.2411134809887215e-02 -6.6795719071665857e-02
      3.4855050725110200e-02 5.6767215211933487e-02
      -4.6948512491123119e-02 6.6144493689988440e-02
      -5.5148622137428653e-02 -1.0352540701823171e-02
      6.4541345523344770e-02 7.7663104717567488e-02
      1.9715350621587799e-01 -6.3848989145133664e-02
      4.7251193779539735e-02 -2.4318180111322928e-02
      -1.5061188159136369e-02 2.8485640800513891e-02
      -3.4445057069323777e-02 7.2056241085025577e-02
      2.5850672275906220e-02 1.9775628354068531e-01
      -1.7826856568070155e-02 2.1453933825710009e-02
      -4.0776308690296847e-01 9.7839948702084054e-02
      1.8938031453701688e-02 -7.2991617051311297e-02
      1.8890818365247045e-02 -1.7033282529826141e-01
      4.2874739166464115e-02 1.0150837039333228e-01
      1.6741020099501214e-01 -1.0011706656599102e-02
      -4.4742011642686719e-01 6.1794795409310134e-02
      -3.6910619584440738e-02 -4.7923713195417644e-01
      3.1268379041909988e-02 1.2894456610783681e-01
      -4.7281309478285245e-02 4.1881892823201639e-01
      -2.4484193291365267e-02 -1.9749954993159562e-02
      -3.2864914084191892e-02 5.4660820428768291e-02
      1.0584914821454024e-02 -2.6441181359781893e-02
      3.1814696994399386e-02 9.9109387312067518e-02
      3.0675377456300126e-02 -1.7517484081142339e-02
      8.5624434045626557e-02 -1.0249109226569234e-01
      1.2575180187300710e-02 -9.7188269645321429e-02
      2.4711575789611670e-01 5.9453088002858694e-02
      2.6572117661063027e-01 -8.7509376515478174e-02
      2.4473948829887922e-03 5.3389280821859335e-02
      1.1967279729025861e-01 9.4973678575529560e-02
      1.0922437283515590e-01 2.0030475044606708e-01
      -3.4180580370342807e-02 -1.1361739040340732e-01
      9.6164705652346475e-03 8.4204522789169164e-02
      1.7703649795600275e-02 4.0693259599721532e-02
      7.3196878068760721e-03 3.5816632450606845e-02
      -5.5347350832664677e-02 1.1981505523817945e-01
      5.5923669942985380e-02 -6.2258491714755601e-02
      3.2476790621500072e-02 7.5349696675940242e-02
      3.8086057376112793e-02 -6.4025370689542171e-02
      9.9812169699516409e-02 3.2287501409359140e-02
      4.7363094548072734e-02 -6.7539514892562838e-02
      -6.5273393021584997e-02 7.4345235088380410e-02
      -3.0194792238176383e-02 -8.7885113741026583e-04
      4.3964756752591420e-02 9.7118337189281874e-03
      -2.3811153564694360e-01 -5.4816029767319097e-01
      1.1045674642648706e-01 -3.7135109367982646e-03
      -1.4818915555651066e-01 -5.5467005616023177e-02
      1.7708209303932920e-01 1.8660144435593336e-02
      -2.9456703218879547e-02 4.2482497426078944e-02
      -3.0970465437874930e-02 -6.0097603717709905e-02
      -1.7582144488119310e-02 -6.1380853712892931e-02
      4.8274775834437356e-01 -4.3949820836707718e-02
      1.7292658615926951e-01 8.4268742000077682e-02
      1.3887020377403669e-01 2.8767264295779843e-01
      1.8214651777564878e-01 5.4726566205987023e-02
      9.4340382664669462e-03 4.8362966133946188e-02
      -6.3017619153852844e-02 -8.4431867553173036e-03
      -1.3463580603585906e-02 -1.6642540507390034e-02
      2.6535898254158724e-02 -2.1688581301250007e-01
      1.5631545896587141e-02 2.2004887656498370e-02
      -1.2317403862318348e-01 -8.2444329157640890e-03
      5.8944666401036939e-02 2.9787406630349422e-03
      -4.1588125945497732e-02 5.1002038217318763e-03
      4.9741264853831124e-02 -4.2441099736739055e-02
      -2.3690349250355192e-01 4.8743513268633798e-02
      -3.6944341046994350e-01 -2.1097364842542290e-02
      -6.4690093089951800e-02 -5.1298103514793603e-01
      -1.2901171197122968e-01 1.0108482457173891e-01
      3.8349270497778391e-03 -2.7702027119948408e-01
      -4.8529808425207266e-02 8.7981049896587893e-02
      -4.3558891156885340e-02 6.0752826402772957e-02
      -1.4584930974305379e-02 -1.5256991242017376e-01
      -5.0422210118510258e-01 -2.4565767829094653e-02
      -4.8380009849641518e-02 -2.3376669915000866e-02
      1.1607742949466450e-01 1.3635370233166142e-02
      -2.3207482294883522e-02 -1.9087262896876583e-01
      2.9856193431949124e-01 -1.3766889798203069e-01
      -2.5032963870151181e-01 3.0554853785371944e-02
      -1.1734461355790007e-01 -1.8655499799527647e-01
      3.3321753846782591e-02 1.2577903082231751e-01
      1.9007199022017393e-01 2.2587697438176921e-01
      -1.0324317141150421e-01 -2.1815923949488358e-01
      -1.6615527082175427e-01 2.7567907974901684e-01
      2.2209301038163369e-02 3.1245575829806881e-02
      -9.4477826278835914e-02 -4.3757288562622593e-02
      -1.2973727835523838e-01 7.6474304865442086e-02
      -1.4648943809277379e-01 -4.9608681627941596e-02
      -1.8215285220803335e-02 4.2214785754555902e-02
      -8.8059090316226548e-03 -1.0321307047149289e-01
      7.5185674633781896e-01 8.9956315366741688e-02
      2.8138321003549899e-01 -2.0552102245206361e-02
      -8.6088720420653103e-02 -4.1310523697055693e-02
      4.5753914266448793e-02 -1.2145036946289546e-01
      -2.3808399997354783e-02 -1.1235411469129612e-01
      -2.1584335715497818e-01 -2.3383695415179759e-01
      -2.3418725720338068e-02 -1.4554981178884444e-02
      3.0440373383956398e-01 3.9631449476348349e-02
      2.5537316099698837e-01 1.2074172363381219e-02
      1.0905585901596679e-01 6.3798403048617350e-02
      9.3581375959917487e-02 2.2481959172113451e-02
      -9.3145532053996352e-02 7.3272508313072110e-02
      4.0245332175894843e-01 -1.2272869694196234e-02
      -2.4331991038244019e-01 -1.0562997737866196e-02
      -1.6534472831273461e-01 3.8263823673826408e-01
      2.7775223282547251e-01 -8.5015442076384617e-02
      6.5095916947222485e-02 1.0256557044116110e-01
      -6.9461252740078111e-02 -9.6123161254512510e-03
      -1.3222039130706042e-03 6.5090744749602024e-03
      -9.0262489283618755e-02 4.5439631007598535e-01
      5.8108234101154434e-02 1.2525333996926517e-02
      -1.5974595550338860e-01 1.5844706993419336e-02
      1.7060903788868664e-02 -2.5394955374381731e-02
      1.2150280856218594e-01 6.1407127839076349e-02
      1.1875287956690450e-01 -4.6905349014368020e-02
      4.5241019335861714e-02 -2.7097445296161506e-02
      -4.7369307813759259e-01 8.7013760834837126e-02
      -3.9806073317903125e-02 -7.3549913439187842e-01
      -2.7273925328726596e-02 -2.0313065394393946e-02
      -6.1834190403313165e-02 -4.1154556031135076e-02
      7.3368682014433861e-03 5.4140307575747143e-02
      -7.7626276707187289e-02 -2.4916916746409234e-02
      -5.8196789853139683e-02 -5.6491319238967018e-02
      1.8892398292581528e-01 -6.8524838908348040e-02
      6.7702032348199132e-02 -2.3603475999598573e-02
      1.4475598777637046e-03 -2.4748075010059284e-01
      3.3354418363777096e-02 -5.1461863239526798e-02
      1.9124864015729046e-01 8.0762169235300107e-02
      1.1564918362554678e-01 -6.9263917382281673e-02
      2.0515844410463541e-01 -1.6052119484990027e-02
      -8.3553380330097252e-02 5.1564100047904085e-02
      8.0736105259670995e-02 2.0227963386820641e-01
      8.5412283768242937e-03 -3.2350325756226839e-01
      -8.8702654627530967e-03 8.0603152953181850e-02
      1.3911182896145219e-01 -1.8443481120700350e-02
      -6.1502602471659826e-02 -5.2685716274691007e-02
      -2.0872537841848937e-01 5.7328579596700541e-02
      8.7304927446867020e-02 7.9902956137774289e-02
      1.0887196924315963e-01 1.0239464493010761e-03
      -1.4931172429049275e-01 7.0394176252715934e-02
      2.9462485976019298e-01 1.2072967437496958e-01
      8.3489532152711224e-02 -7.1614138478280853e-02
      4.5386283079990441e-03 -2.8402690449719305e-02
      -4.9484822689869784e-02 6.0224836961291824e-03
      2.5136685403328519e-02 2.4862099844715650e-02
      -2.5609603359388849e-01 -1.5057774527210788e-01
      1.7930841388901342e-01 -1.4873650568400443e-01
      -2.0711557897013755e-01 -3.7392458089877595e-02
      8.6648428473449918e-02 -1.8438300259029032e-02
      1.1152009230570184e-02 -2.5997882987995154e-02
      -1.5744893099314834e-02 -4.7324784175604127e-04
      -2.2236132724786320e-02 5.1396394453162082e-02
      3.6749693455616755e-01 9.3800717358527089e-03
      1.9501740390345218e-02 1.0603204243426272e-01
      1.3361161751414952e-01 2.3599121432110809e-01
      2.0784978727501111e-01 5.8733263001188883e-02
      -2.7268232579940835e-02 4.4317896532876204e-02
      -5.7076659787044036e-02 4.5298038947890716e-02
      -2.9019487808839468e-02 3.2433979148194715e-02
      1.0171224033470680e-01 -9.6119464126971768e-02
      1.2689176441466731e-02 1.8164416143919651e-03
      -1.4558084531852047e-01 5.5654019478892820e-02
      4.3367170519701549e-02 -3.8616309076611198e-02
      4.7154143608173965e-02 2.6278604080891381e-03
      -1.1363257881815964e-02 -8.9416699448574402e-02
      4.7130519877116200e-01 -2.3334441399545956e-02
      -5.9120597645926765e-01 -4.3087761735812738e-03
      -5.1946045653056298e-03 -3.3300863330660985e-01
      4.8242380821939004e-02 8.0751784049803668e-02
      8.4768862309870185e-02 2.7999232311712901e-02
      -9.3959650723977439e-02 -5.2752693536690369e-02
      5.7842666026165068e-03 -4.9108486080623910e-02
      8.0036680507388630e-02 -8.6235492156767305e-04
      -1.3112355492380476e-01 -4.8525175529110683e-02
      -2.6572998724906011e-02 3.4577499586639006e-02
      6.8144564899666374e-02 -4.5237025985022057e-02
      4.9718374665621137e-02 3.5807990424176109e-02
      1.3223033385454130e-01 2.6069146012177840e-02
      -2.5774761673312047e-01 -6.1128676373715968e-02
      5.7028479447783095e-02 -8.0347262399300928e-02
      -2.5258266755956355e-02 1.2311515453616373e-01
      1.7401017134669011e-01 3.1541567693767168e-02
      5.0192944284710569e-03 -6.8086971769857785e-02
      -9.8901856493320825e-02 1.9033437344353127e-01
      -3.5371153662302937e-02 -1.9614446096067700e-02
      -1.2391063289964560e-01 2.8928598281838976e-02
      -2.3652021328835381e-02 3.0798322592808878e-02
      -1.4282914889751436e-01 -1.9959037032606325e-01
      -4.3543893718921589e-02 7.5029131436652220e-03
      5.4119809607678156e-02 -3.8760332487928283e-02
      1.3513286642865840e-01 1.9702915282564158e-02
      1.0281980784487495e-01 -3.4010876531279132e-04
      2.0834347148796797e-02 8.1020697731841021e-02
      1.3833689698564224e-02 -8.4720768413125858e-03
      9.1253180792885996e-02 -8.5844633612301519e-02
      -2.1312323839520073e-01 -1.9709861542629104e-01
      4.7080168224640631e-02 -6.7905499524774024e-02
      2.7916443803739666e-01 7.4297302086792791e-02
      8.8056285429229095e-02 3.7729498286633162e-02
      3.3652574997216279e-02 -6.3334794669248941e-04
      -4.5925816789201733e-02 -9.1561727888636368e-02
      -1.9676490990814970e-02 -2.2283637249593286e-02
      4.9282515164476698e-01 -6.8829199124166851e-02
      2.5137156064114628e-03 9.6506863395079440e-02
      -1.1124358872942958e-02 1.9608107290287466e-01
      1.2033785571198792e-01 -1.4478617900518718e-02
      1.4636581518536942e-03 8.4769478785212168e-02
      1.7063337698364059e-02 -5.4027957487693776e-02
      -5.9334878047969533e-03 5.5455308204192789e-02
      6.4463445908030104e-02 -3.9884198142745783e-02
      -4.6806416212403563e-02 -6.2927690807842482e-02
      5.5316525665697433e-02 1.7472089258290122e-01
      1.4636346376964579e-02 5.3565662934329664e-03
      -2.3769784648281617e-03 9.9702667370526118e-02
      -6.3385585191770510e-02 3.0707786625435662e-02
      2.4417350268028101e-01 3.1827973810695789e-03
      -2.1019544531643367e-01 -2.7134351809544363e-02
      1.7494150865567980e-03 -3.6947773013341917e-01
      -1.2527010368851318e-01 1.1636232849063979e-02
      2.0614905200164783e-02 4.4860885906385983e-01
      -1.2967812429168468e-01 -4.2158243449863381e-02
      -9.5901704498150150e-02 -3.1455366082678793e-02
      -5.6453593840385214e-03 3.5256902744565832e-02
      3.1159841993936527e-01 1.1043398169547151e-01
      2.7919213603321424e-01 1.8904640793895554e-02
      1.4990119406292739e-03 -5.7502323068754753e-02
      1.8698060815658835e-02 -7.4256205740265063e-02
      1.0052997421110350e-01 7.9800507608954130e-02
      3.2994289648428465e-01 5.2159545334771580e-02
      2.6009051673903988e-01 -1.1592520245243501e-02
      -8.6590719422711376e-02 9.0708752037230930e-02
      4.0261639140297199e-02 -1.1699453960955163e-01
      4.7898064151838778e-04 -1.7440329305163144e-01
      6.3664633976028310e-03 4.8803204612870515e-01
      6.1114276864079553e-02 -6.5260130966846311e-02
      7.1612777115036594e-02 8.6462865104458220e-02
      -1.8431097143675551e-01 -3.0797621781818919e-02
      1.5049882758264330e-01 -9.9767505238504917e-02
      -4.0241556313852914e-02 -5.4523771290065734e-02
      1.0097544025598041e-02 -1.9364009505320373e-01
      -3.6996840759610522e-01 -3.4264028526768221e-02
      4.8681212551477927e-02 -6.9087649554373978e-02
      2.1609781402442456e-02 7.8421075236398602e-02
      -4.6409872286027144e-02 -4.3291270887835742e-02
      -2.6813274157202353e-02 -1.4643586954467776e-02
      -2.3355744046057580e-01 2.5445725006276931e-01
      -4.5470203914712203e-02 9.2515815159876405e-02
      -1.0992147771844167e-01 -4.1952438744649490e-02
      -2.1040637219785349e-01 3.0806675619289379e-02
      3.5064296644939891e-03 -2.3025791600397999e-02
      -5.5050202657652494e-02 -8.0487476185481313e-02
      1.0649349208958174e-01 3.0117352150571475e-02
      1.8759534038479495e-01 2.5918689006228658e-02
      -3.7205792066321353e-02 1.8282443907953444e-02
      -1.0655103179839596e-01 -1.4168900441036231e-01
      -3.6796930380801032e-03 -5.3411666693753121e-02
      -1.8916088649949356e-02 2.0137559196384595e-03
      6.8791980033650977e-03 -8.6020271152566219e-03
      -1.0707612719547911e-01 -4.9619472739914572e-02
      3.1433526634504230e-02 2.2206233942664780e-01
      -6.1463412363749484e-02 -6.8232738236388172e-03
      -1.6627224269029331e-01 5.5580285394794947e-02
      4.6073644489791593e-02 -9.0030323590976472e-02
      -4.1861327457621882e-02 -1.2925613720245152e-01
      -1.7648916557796063e-02 -2.9400243711382467e-03
      3.2031232444404883e-01 -5.6510974642126231e-03
      -9.8996789278946798e-02 1.6198777163023356e-02
      -5.5665616343103165e-02 -2.5329182526081323e-01
      -1.5789160599192370e-01 2.4399888992414569e-02
      7.4765248826462556e-03 2.7880747160889408e-01
      3.6474155346471283e-02 -6.0265544307969668e-02
      -2.3030364111253407e-02 2.7508542796833620e-03
      -7.6173170196466612e-03 -1.6204222777821419e-02
      -1.4967607225751372e-02 -9.9789405764022426e-02
      1.1968294050343729e-01 4.4632610047215367e-02
      2.6442585343516890e-02 -5.1072152835730529e-02
      4.1958035722385705e-02 -2.3733001679599744e-01
      2.0735530101381391e-01 1.4253520728052102e-03
      2.3470846352835623e-01 -5.4163694749848598e-02
      1.2201613469267554e-01 5.2650851505755610e-02
      -2.4866129685793929e-02 1.2870828346983024e-01
      1.1422276740357225e-01 -6.2088814074622599e-02
      4.5888805099269472e-02 -5.6427474417179005e-02
      9.6477835760949593e-02 6.9787601185639328e-02
      -6.9252213506604307e-02 -5.6160346888495027e-02
      -4.4494554944634952e-02 9.5796132163166792e-02
      1.1069121978709216e-01 2.3112178916129121e-02
      -2.4051687047390766e-01 -9.0636908193287402e-02
      -4.9480300797110174e-02 -1.2337211379190675e-01
      -2.8374702515163934e-02 -9.4578526558056625e-02
      1.1400868247822062e-01 7.7527369130695203e-02
      3.1478956213811932e-01 -1.3608750548720094e-01
      -3.6650560109928933e-02 5.8494551778066773e-03
      -6.8564854120704908e-04 -1.0721496127345036e-02
      3.2390482981074067e-02 -5.5632578821256676e-02
      -3.8637886113312050e-02 6.2848876405944054e-02
      3.2429984796609551e-02 6.8276437657138256e-02
      -1.4783483207214381e-03 1.6003951625953167e-02
      2.3589979987882989e-01 6.1649069004517380e-02
      6.9403044584460560e-02 -7.1410420956667109e-02
      -4.3770218963276658e-03 -1.3107575372763178e-01
      6.4010449420562165e-02 -1.1174464362861143e-01
      -4.9322660852964273e-02 -3.8160941330155525e-02
      -4.9321592420218267e-02 8.4013899414433657e-02
      2.8418314932028021e-02 1.0290349222637776e-01
      1.0797862989821341e-01 -2.9921409816816583e-02
      1.0893147102452588e-01 1.4723751240251970e-01
      4.4369917529532094e-02 4.7293805559114731e-03
      -3.2891789841954467e-04 -3.5540617514061811e-02
      -2.1590141973790392e-02 3.6049681254109700e-01
      1.3513089844806625e-02 -1.3238252122226317e-02
      -4.3680026516404902e-01 -5.6588745404807954e-02
      4.1487342785825110e-02 2.2232303832448848e-02
      -2.7319118420640946e-02 -3.3519554129393378e-02
      7.3061416425743625e-02 -4.8182347173823296e-02
      2.8496772913173496e-01 4.0974287326015824e-04
      -2.6494244020375107e-01 -1.3872684611348997e-03
      -7.7361684898683308e-02 -2.4181803171973146e-01
      -4.2382407426396873e-02 3.1264239347992488e-02
      -3.8255817159847248e-03 -4.0110281400762721e-01
      9.8311162163791280e-02 2.4298737730794048e-02
      -8.3579713658942525e-02 6.6469010916010013e-02
      -5.9397743533948499e-03 -2.9454150140899926e-02
      3.4097527250146908e-01 8.3007670574975333e-03
      8.0272740460061581e-03 -1.7919042526416608e-02
      1.2068840188619294e-01 2.2463479021271271e-02
      -5.4532426070276876e-02 -8.6059631434234174e-02
      -1.7672721709357631e-02 -1.8524996485027624e-02
      -4.2006773775901984e-01 -7.7428690900256295e-02
      1.0141928328031942e-01 -1.0605628036509110e-01
      -5.5226950331567042e-02 6.2262458797582521e-02
      -1.4460190531110970e-01 1.4996440631491736e-01
      9.8826723440622752e-02 1.5291021095450066e-01
      2.2911051008526532e-02 -9.1077663115940247e-02
      1.0568186690494542e-01 1.0962508675703839e-02
      6.7787416689874508e-02 4.1275914409315988e-02
      -1.4095938369525590e-01 3.3168545192182008e-04
      6.5340741491767371e-02 -3.2914582394464108e-03
      -1.8005526166461287e-02 1.0980168589675798e-01
      -1.9034055266339129e-02 5.7921198458366747e-02
      -6.7423096748976154e-03 1.3305428033576022e-01
      9.2202717946119700e-02 6.7105223197195349e-02
      8.9125583793571890e-03 2.7274357412498651e-03
      -5.4749807739766669e-02 6.5521026460437582e-03
      2.5973758112422893e-03 -3.5604493642546295e-02
      1.8323270192311203e-01 -7.0752526409964780e-02
      -2.5438813139606279e-02 -2.7437451729953318e-02
      1.5363014722633178e-01 -6.0756810587818344e-02
      1.3795572055863015e-01 -4.1173794522847112e-02
      1.8676420206996860e-02 -4.7036027101298970e-02
      5.6857363013324218e-02 4.2530078721611748e-02
      5.0079553553734571e-02 6.2055052612346735e-02
      -2.4816430095445333e-01 5.6523255662408622e-02
      -7.0722813597356465e-02 5.8755657566593879e-02
      -2.0213891632989242e-02 4.5200149409545387e-01
      2.2384524908828790e-01 2.4655754939150138e-02
      1.3855880204248863e-01 9.7219915355271618e-03
      -2.7326164776307508e-02 -5.2486598778364722e-02
      -5.7278208276180860e-02 1.9871031931571342e-02
      -3.0753098542013631e-02 1.9623119541758702e-01
      -3.5096662502519159e-02 -4.7617866318972232e-02
      -9.0016325851907122e-02 -1.2859590130402204e-01
      2.7104103442223960e-02 3.0458814900070508e-02
      6.8030737661570626e-02 5.1618422734646931e-02
      -8.3659427892299770e-02 -7.7212129778765681e-02
      -1.9426007597631761e-01 -5.4259091566335078e-03
      -2.8425000092411867e-01 -1.3673530327830504e-02
      5.2480991553645509e-02 -7.8240570718322551e-04
      -4.2507686146801033e-02 2.3373751660394640e-01
      -3.2779800621929943e-02 -2.6053745084629060e-01
      4.4671941706789460e-02 8.0918273413682230e-03
      -6.9894630736634170e-02 1.0782029118825941e-01
      4.0233541444366139e-02 -7.9275457628751544e-02
      4.3730092323048919e-01 6.6363179159036820e-02
      -1.5622470233489252e-01 9.0415564899445550e-02
      3.7145482966788719e-02 -2.6915500962195148e-02
      5.0905022996956380e-02 -1.3163201564366198e-01
      3.6263202413086998e-01 -1.0689781864357172e-01
      2.7378166683209576e-01 -3.8350239279423518e-03
      -2.1237511947199608e-02 9.9832445916418877e-02
      -1.4575941209926588e-01 7.4998309291094023e-02
      1.5495630136757688e-01 9.5980368727643484e-02
      -6.0696349079991378e-02 -1.2476390062590366e-01
      3.4486782748266706e-02 6.7158200324731951e-02
      1.3241026226165697e-01 -2.6860559172455199e-02
      -6.3406011998735717e-02 1.9044946277813470e-02
      -7.9993631370279150e-02 4.0162562944704702e-02
      1.2015053068402280e-01 -6.7788640715760861e-03
      -4.5327159784062905e-03 2.6650564803540645e-02
      -5.6315376253864131e-02 4.5067173947375777e-02
      -5.6741111285226305e-02 9.9534365100315877e-03
      -1.6115892542380498e-02 3.1833194107835422e-03
      -1.2873744899405249e-02 -1.7462120318260846e-02
      3.8771419907903122e-02 -1.1140597751851200e-02
      -3.2684475150540786e-02 4.0639828245331751e-02
      -1.0833963407230617e-01 -1.7719385291768366e-01
      7.7455074585126849e-02 -5.4305508644841377e-02
      3.8648006749256153e-01 -4.4140506647840382e-02
      -3.8972814497505996e-02 -1.2464243364242721e-01
      -8.7795917724272331e-03 -3.4334096846741886e-02
      -1.4027867354637492e-02 3.4916163242569964e-02
      -2.6706931855312664e-02 -3.4300496010894091e-02
      3.0848633512023310e-01 -1.4084491904022285e-02
      -9.0145927677745277e-02 4.6347885483100572e-02
      9.4201211984873523e-02 1.5634281748747466e-03
      1.2493330505433241e-01 -3.2545133392364034e-02
      -1.9203640079509351e-02 -2.0800690020227979e-02
      -7.6751404159378658e-02 -2.7001558083057882e-02
      -1.0602209421428369e-02 -3.5783615970131293e-02
      7.8917884245556263e-02 2.3621633241751952e-01
      -1.9478570070406466e-02 4.0351299511708662e-02
      -4.9389252276149775e-01 -1.2740698460192704e-01
      9.7171195020196582e-02 -5.4058668924350010e-02
      2.4092987227460977e-02 3.4937117573719853e-02
      7.3421339553519380e-03 4.0347432353754306e-02
      1.3267159549593005e-01 -6.3719986559735093e-03
      -4.5330013196718888e-01 7.9895834836943416e-02
      4.1591222238170404e-02 -2.6044539684539098e-01
      2.4061369611593594e-02 1.0014863821566569e-01
      -4.7267953162738040e-02 1.0951919449073071e-01
      -3.3458235919910324e-02 -7.4581437730065550e-02
      2.4074596671033885e-02 4.1487086744403677e-02
      1.9884073824617515e-02 3.4819659204132776e-02
      2.9685411177612142e-01 -1.7306720852662119e-02
      1.2039201761657103e-01 -2.7003562565208722e-02
      -1.3433213653779866e-01 -8.9230114370256863e-03
      -6.3504398216411555e-03 4.1574632589789905e-02
      3.9713905522331644e-02 1.4155603780895174e-02
      2.7919124277242935e-01 3.1668706501499354e-02
      2.0201053945623360e-01 1.3751087989098204e-01
      4.2038090459275722e-02 1.3801447328260547e-01
      7.9265110669532665e-02 8.3902634461591075e-02
      1.2741869208477375e-02 -1.6302053127565230e-01
      9.1821676313575545e-02 1.9851364023254628e-01
      6.6869909586424262e-02 7.0707236437829571e-02
      -2.1799994634708369e-02 2.9084223236295399e-02
      -2.1046248354624592e-01 6.2274045177023236e-02
      1.1228853038956799e-01 -1.0342636083187810e-02
      1.9718264648121858e-02 1.0230213015600947e-01
      -5.3354230707316840e-02 6.0885858903522203e-02
      3.8112697944242852e-01 4.1239737685912201e-02
      -1.2278317184016731e-02 5.2682442435659844e-02
      -1.1620111199517109e-01 7.2597985816978655e-02
      -2.2935257583912527e-02 1.8165813121875894e-02
      -7.6128910016105056e-02 -4.6680746689763922e-02
      -2.7641109291592181e-01 -6.1521432826022493e-01
      1.7008159543196108e-01 -4.6375781167039623e-02
      -2.8641977207399322e-01 -9.0518881251564431e-04
      2.1028958202118225e-01 -1.3940437341124570e-02
      4.3146185346541736e-02 7.1359783879863387e-02
      2.9324113684216113e-02 5.4457345360910341e-02
      8.4227519578075907e-02 -6.4042708711055815e-02
      2.9742539459125700e-01 -8.5451936643456960e-02
      1.6231870747839470e-02 1.0988531306587554e-01
      1.9492934276444182e-01 2.5983882392231689e-01
      1.2402646467899546e-01 -7.0399303288833551e-02
      1.4583181613478581e-02 -6.2230878076385700e-02
      4.5798078193584800e-02 -2.4947888754899433e-02
      -9.6170779246260968e-02 4.3419723422442526e-02
      6.0650601231179761e-02 -3.2097277391541675e-02
      5.4393230695931660e-02 -7.5263458638262698e-02
      -1.9401597249474359e-01 -1.2319640340223247e-02
      1.3378926692020386e-03 -2.2705138608760521e-02
      8.4056512400265630e-03 -5.5991163090414270e-02
      6.6923954258259241e-02 8.1576684248699932e-02
      2.8365270406837967e-01 3.0353386120606535e-02
      -1.8234143751603216e-01 4.0100968885508501e-02
      9.7649996280418871e-02 -1.7684047030310082e-02
      7.6719911921654324e-03 3.6285849477343028e-02
      -1.9665081947522985e-02 1.2405373019926452e-01
      4.3666184894626786e-02 5.9700984639952520e-03
      2.2147344482985262e-03 4.3933831821121372e-02
      -1.7422662398783977e-02 -1.8719040242229510e-02
      3.9774673562775142e-01 9.9824243228858994e-02
      1.6357911133709688e-01 5.4592966370486419e-02
      2.2278636150991263e-01 -5.7384767413247377e-02
      -5.5900824008340566e-02 -7.8849028474967123e-02
      -5.2089198546032946e-03 7.5667346712196742e-02
      4.0275661850271392e-02 3.9669866603741805e-02
      2.2190739050357192e-01 -1.4361536793724181e-01
      6.0391111821651005e-03 1.1389958885357979e-01
      -5.8377906087564088e-02 1.4721393655978451e-01
      -2.5725933255748155e-02 -1.9903627973828643e-02
      -1.7147668737386559e-02 1.1672881801801946e-01
      1.9744605419686489e-02 2.0383036542144062e-03
      1.4459306082004106e-01 3.1778397735866763e-02
      -1.6737644664458648e-01 -2.0197313302832184e-02
      8.7686980050376992e-02 -1.2871744636948365e-01
      2.4536421080137802e-02 -3.0838715712661641e-02
      -7.9470739419640599e-02 -1.9484079072677837e-02
      1.4019361617513116e-02 4.1680177827912473e-02
      2.8509553711688906e-01 -4.0020869407192503e-02
      9.5027509988959216e-03 -1.9728048469168279e-02
      -8.1401608289425262e-02 -3.8050479821976776e-02
      -9.6319559131358368e-02 -2.7142450921884497e-03
      -2.0062977670837326e-01 -8.5050939655089489e-02
      9.2935745325806521e-02 3.4384443120136186e-02
      -4.0765848189373705e-01 8.3230772753933799e-02
      -7.0382693401656688e-03 4.6064383851283620e-02
      3.3789117579350700e-02 8.4776154261605192e-03
      1.9715839041620055e-03 -2.3216311314004704e-02
      4.4621696592327231e-02 -3.7835738272751045e-02
      1.5803773303316429e-01 3.5087930863579850e-02
      1.7726422377960013e-02 1.4820767675619540e-02
      -1.0116785033149353e-01 2.1019644134221407e-01
      2.3385768127723670e-02 8.1569536195132148e-03
      2.3631079550006137e-02 -1.5594499544545693e-02
      -1.0548092735250197e-01 5.7869090917052725e-03
      4.8875501796872313e-03 -2.7027090255973764e-03
      5.4100515011500129e-02 1.2911078459265496e-01
      2.9561104706784538e-02 -6.1045392320035946e-02
      -4.3670946166800240e-01 5.3128045024534602e-02
      6.9997028478298556e-02 4.0119580774721830e-02
      2.1823907472026675e-02 -1.9474646341854317e-02
      3.0994341005219923e-02 -2.6308725915614863e-02
      2.4602542856505712e-02 -2.8683418376577730e-02
      -1.5769895553084223e-01 2.9378756090074343e-02
      -4.4475460897580713e-02 -2.3870011385584894e-01
      -6.2909350564500201e-03 5.4908516929128175e-02
      5.1750267103406321e-02 1.1352289613138845e-01
      -7.9484656088495420e-03 -1.0750096974110900e-01
      1.7433760413755404e-02 3.0255672732257131e-02
      1.1153077734193767e-01 -3.1985045385672831e-02
      -2.5235879318988241e-02 1.1871892346311721e-02
      6.0717884200193688e-02 5.1021322190325194e-02
      1.3388545331894713e-01 -1.7843211267308318e-01
      3.2309135545189605e-02 2.9628853879812515e-03
      1.5566310649006165e-01 1.0493832744310758e-01
      5.1577447221049538e-02 5.4752415732466989e-02
      2.3555688562428653e-01 -8.9775687085869582e-02
      -5.1550363359489926e-02 -1.1152581111418629e-02
      -2.7432877736527399e-02 1.5391583441011802e-02
      3.2405704740414168e-02 1.9990319414101346e-02
      6.0113150759535688e-02 3.1364315114101893e-01
      5.1454348797439403e-02 -1.8193420868942670e-02
      -1.6910961789386469e-01 -1.7519579576081436e-02
      -1.6994414042855399e-01 1.9120410885749256e-02
      -1.6686676832609929e-01 -1.5295473770504905e-01
      1.9373628164592316e-02 2.7659720637511702e-02
      2.0911013557021439e-02 -1.1964148857674708e-01
      2.2439464009974136e-01 5.9515134284857871e-02
      1.8602718465895032e-01 4.2918358356238202e-02
      4.5989033560985285e-02 -5.9676605478742956e-02
      3.0191970352835197e-02 -3.1311857698887037e-02
      -2.7788701809945925e-02 -8.4130853468655994e-02
      -2.2641862201765769e-01 8.4501646963163854e-02
      6.8416282274737349e-03 7.3352317529095268e-02
      -7.4337811303262363e-02 -9.7859025582297428e-03
      2.6721749911770470e-01 -1.1531214685137889e-02
      5.6947658282947247e-02 8.7951575475050614e-02
      -5.3730837901973173e-02 -7.0582984361843765e-02
      -3.6556547276138589e-03 1.6616984425146173e-02
      4.5337385449449746e-01 -8.7619011481621684e-02
      6.1148485546192323e-02 2.9586978898335781e-02
      -1.1960788366433756e-01 2.7982838880503402e-01
      1.8550881374382558e-01 -2.3332624827014037e-02
      -2.3869480249699988e-02 3.8012056630035485e-02
      -3.9928872413889489e-02 4.3177598912087521e-02
      -7.1009198399231361e-03 8.4149257598817879e-03
      9.4343718793847356e-02 -1.0052072739328881e-01
      -5.9927727939213693e-02 3.3566652298635313e-02
      -3.9625777526230821e-01 6.7586503911475734e-02
      4.1286133103831370e-02 -8.5921955657502277e-04
      1.2707479359350590e-02 -4.0983162166216280e-03
      -2.2472584419662493e-02 7.3766320318097989e-02
      1.6455695223940414e-01 1.6876378373532990e-02
      -1.3233002684729755e-01 -6.7316663452569592e-02
      2.4000431933339190e-02 -3.5960413989090056e-01
      4.7749478566018876e-02 8.8729920107582183e-02
      -9.4040629334210101e-03 4.2392817076216988e-01
      2.9375861734068580e-02 -4.9300623089073077e-02
      4.0428970291225677e-02 -1.3588411907532211e-02
      7.5275744331709360e-02 8.3323593227613513e-02
      9.0222514259349851e-02 -1.0638227479303973e-02
      4.8632555832309264e-02 1.2870760500669629e-02
      3.0134017752485139e-02 1.8417029858054112e-02
      2.7012095315392459e-02 4.4533204141857130e-02
      2.4963175565264745e-01 3.4522469635407206e-02
      -2.0510733579323474e-02 -7.7073834512284695e-02
      1.0726309406391762e-02 3.7161653412406614e-01
      -2.2930293591998049e-02 2.1585841554483767e-01
      8.4021726976301128e-02 5.8803366488996162e-03
      2.9585735035650710e-02 -6.4023062396743491e-02
      5.2386813964944313e-03 2.9075655803127648e-01
      -7.1609578649082474e-03 -1.4559303414835386e-02
      -1.0142498210178287e-01 8.7288584859663024e-02
      -4.1915858068886230e-02 5.7366608071197603e-02
      -5.8719481507551199e-02 -2.5311337716787991e-03
      -6.4997183195436934e-03 -6.3472724795693797e-02
      3.1930047564320524e-02 -6.8939574392364006e-02
      1.3246862867774056e-01 1.7368290737822320e-01
      -4.2123920006462534e-02 1.3101830680188949e-02
      -4.2882974984253031e-02 9.1027240916835256e-02
      -5.7932739665580574e-02 -8.4993327812610871e-03
      3.1378890852456605e-02 -6.3647796459487468e-02
      -1.3148865479098966e-02 -5.7862164444679350e-02
      3.0417477421311376e-02 1.1329924547783629e-01
      1.0297761730212512e-01 -5.1580023252026257e-02
      2.2996521897950281e-01 -5.1668979471205717e-02
      -1.7024966792364041e-02 -1.9720565311629332e-02
      6.7996446077818407e-02 -4.0030897200094562e-02
      1.1307588562485621e-01 -1.3248672913904133e-01
      3.8797314944346395e-01 -6.6847198998194246e-02
      7.6805053855943120e-02 4.7039903264731210e-02
      1.9044415846679452e-01 8.6180012094163053e-02
      5.6687293591902665e-02 3.8438577148895620e-02
      1.2296449395390421e-02 -7.6236547682501904e-02
      8.3101955512823969e-02 3.0753081219486247e-02
      -4.8903226630024450e-02 7.5213165352424532e-02
      8.6706368468010692e-02 -1.1126920541999442e-01
      -4.9881126191730152e-03 9.4076218833852337e-05
      5.4377502374063295e-02 2.5397987059480417e-02
      -1.3038633655592475e-02 -4.0876298714031456e-03
      9.8880581187261646e-02 -1.0608380266695670e-01
      8.3549049613135237e-02 3.7176847734111729e-02
      4.6511888709086130e-01 -8.7724201519413791e-02
      -1.1462464006714805e-01 4.0180814964144294e-02
      -5.2348559088593351e-02 -1.4365366851485420e-01
      6.2500914948045475e-04 -4.8010558691976186e-02
      -8.4385059841999968e-02 -9.2188219132413152e-02
      3.8185593796377149e-02 -7.2361735320998974e-03
      -7.8137458963474196e-02 3.9962604708148858e-02
      1.2775839514220383e-01 5.1789992520505833e-02
      7.2021883906874939e-01 6.2780397602605646e-03
      -8.3748196726483246e-02 -2.8522332670949283e-02
      1.1451600078216093e-02 -9.2033181788071558e-02
      -3.1228918989507127e-02 -8.1236397471359773e-02
      1.0545995658823938e-01 1.5974317143319050e-01
      3.5154549972714744e-01 -1.5509931890827683e-01
      5.4342705598205782e-02 -2.0606902082012654e-01
      -5.6881202058095985e-02 -6.2054971645445663e-02
      -1.0185947410873579e-01 -3.9033889014267785e-03
      9.5525256438706740e-02 1.1736069257466123e-02
      2.0544057751396266e-02 -1.0635453048905760e-01
      1.3568031875885361e-01 -6.2897576226088672e-02
      3.4247261569016391e-02 1.1700307651709664e-01
      -1.2798288389957937e-01 3.4749024672305520e-02
      4.9139274857515888e-02 -2.4189325011956911e-01
      1.4839357721511318e-01 3.4147781500424676e-02
      -6.7362323857276835e-02 4.8956052459994834e-02
      -1.3748810100251763e-01 5.9402632046674638e-03
      -2.0264209039704950e-01 -9.8941410435048824e-02
      1.2771754855970865e-01 7.8969806416023580e-02
      -8.1027019460561400e-02 4.4541456757756573e-02
      8.3104713834600708e-03 -2.8250883781271451e-02
      2.1902846109243759e-01 -3.2569762406925756e-01
      1.5983168222622679e-01 -4.2914138840763005e-02
      -9.1926072414093313e-02 7.2265140630451197e-02
      1.5019272627571142e-01 -7.6800770431427426e-02
      9.6686013610445196e-02 -1.3981350916092882e-02
      -5.9626907081694970e-02 -1.2270852524804615e-02
      -7.2021457717254669e-02 2.6485587207360608e-03
      -1.8140321091874911e-01 1.0647432165923605e-01
      1.0106481656927541e-02 1.4413603172672654e-01
      -1.2669927422904839e-01 -1.3918196567517002e-03
      7.1014637147583284e-02 -2.8821766829365467e-02
      -1.7395622261156167e-03 6.0134499246315337e-02
      -8.0817164471544994e-02 -6.2481524458873804e-02
      -9.2939155112309824e-02 -7.9285633553777518e-02
      7.2047674513789864e-02 -2.5667898942302271e-03
      2.7915303652646110e-02 -3.8863307524840719e-03
      -3.5682458618824103e-02 7.4135195409338800e-02
      3.7628142735695543e-02 1.0785871794805344e-02
      -1.9364780964399898e-02 -1.2497383733202837e-01
      1.4779674835939413e-02 7.1989964868899678e-02
      5.1136805571947419e-01 -9.0047454153444187e-02
      -5.8491019108320136e-02 1.2269073257163549e-02
      -9.9402816770005203e-03 2.5578061121236128e-02
      -4.6878669521359967e-02 -3.9664219321180832e-02
      -4.1490602966799982e-02 5.6345264115293126e-01
      2.7183071237921755e-02 -2.6736954138697727e-02
      1.7710972039074874e-03 4.9300473309756135e-02
      1.4589741781450599e-01 4.7631899991265214e-02
      7.6407055568326343e-01 1.1914890703163651e-01
      2.1475714419195052e-01 -8.0785483060550483e-04
      3.0195086785274189e-03 -1.6998651507742282e-01
      -4.5280186975555810e-03 -2.8060378911811128e-03
      6.6791294747440520e-03 7.8844836964478346e-02
      -9.7281365428449104e-02 6.7332815935410822e-02
      8.0517175263525118e-03 2.5884378059402087e-02
      -5.2289215588258865e-02 1.8770980021940933e-01
      1.3829408580806621e-01 7.6427968526699766e-02
      3.0781072605109375e-02 -1.0669452805312266e-01
      3.6249728645784948e-02 1.5896704987694937e-01
      -9.3478740890409695e-02 -4.0420563325276493e-02
      8.0685061205343384e-02 6.8065534345082279e-02
      -1.0042285344270332e-01 -2.7382043596375261e-03
      7.4226245161034751e-02 -9.5209981839512625e-02
      4.7425374520862814e-03 4.9566090322289130e-03
      4.3115387933137780e-02 -7.4208833266986296e-02
      -4.9165451457499496e-02 -1.1345233530576804e-02
      1.7625086571801571e-01 -7.4406965541882170e-02
      1.1576993361260972e-01 -1.7665618723065067e-02
      1.9970711323567477e-02 -4.3998330078637321e-02
      1.3457833419004757e-02 9.1339719558754168e-02
      -1.0553823081546186e-01 2.2540745227872053e-01
      1.0705874672652699e-01 2.8175005067332670e-02
      -3.5391188289123277e-01 -5.5271363028024670e-02
      7.0698855949718462e-02 7.7752453999045429e-02
      2.5739104620114608e-03 3.2455931993715346e-02
      3.7225790106131841e-02 -4.0085062760937630e-02
      3.5663866694839771e-02 -9.3816832636375511e-02
      2.6920496441627726e-02 8.2079460615482585e-03
      -2.0166655072025995e-02 9.7900794587677364e-02
      2.1005370056871028e-02 -7.4073316929791674e-02
      -9.9917650684290329e-02 5.9950605182833867e-03
      3.0048768575494784e-02 -9.9634805874474680e-02
      9.4597713782584442e-02 3.8471414076270360e-02
      -4.1883232735056432e-02 -9.9910459851465169e-03
      3.8549979251390726e-02 1.0661213540437152e-01
      -6.6489919643056465e-03 1.9982769873967521e-02
      6.1068682545696119e-02 9.3170873060432410e-02
      1.8842052801102870e-02 9.0671555170496031e-03
      -9.0267507316067041e-03 2.7350879960804996e-02
      3.7408604874791557e-02 2.8720668963826607e-02
      -7.2893983459770287e-02 5.2206877490256756e-03
      -8.9197544752455914e-03 -1.4651831777939502e-02
      -1.1339301053237306e-01 -3.5644843394373649e-01
      -5.3872592897976024e-02 4.1909320758057464e-02
      8.2987989587679483e-03 1.7002607873777889e-01
      -8.4979557193747113e-02 3.3185854004919316e-02
      1.7534399840234780e-03 2.9293627732587819e-02
      1.1793673035350920e-01 5.3586885079613407e-02
      3.6120631746731435e-01 9.1010266747315431e-03
      1.1353133596223755e-01 -5.2482764679707035e-02
      1.5722519616575120e-01 -1.4138952852997186e-01
      3.4670615062883353e-02 -2.1593605061998401e-02
      1.9161214470119312e-01 6.6524553009907714e-02
      2.0622740039024381e-01 2.6212538977063046e-02
      1.0983358260246390e-01 -1.2805515611674159e-01
      -2.6166646298587896e-03 -7.1449203692106680e-02
      -6.5568657767798424e-02 4.3314384730888051e-03
      -4.6197143307757454e-02 -1.8127277954563181e-01
      -9.1688430913082399e-03 2.2907449170352909e-01
      -2.2068484560265902e-02 7.8710077821461909e-03
      3.9431630396943584e-02 3.5400227030735589e-03
      -1.0218919187985760e-01 -3.4484004504080241e-02
      5.6133420501106659e-02 -5.1928124764270646e-02
      3.7202274735625429e-02 -1.3803957217162807e-02
      -9.4382533519822509e-02 -6.0664932697235725e-02
      5.2556161261571623e-02 3.3943122374732668e-02
      1.7941299863233093e-01 4.9508739026917555e-02
      -5.6242004213686365e-02 -6.7785410012756704e-03
      6.5301447967495724e-03 -4.0698274571095407e-02
      3.7428010124328059e-02 -6.8129602578282253e-02
      -1.6530638756220620e-01 -1.7231378526242558e-01
      1.1999081508529466e-01 -2.9986524231613953e-03
      -9.4306271635629615e-02 2.2336950677177333e-02
      1.4940419047374301e-01 -2.8473053637972714e-02
      -7.4385616786615122e-03 3.5393037859584600e-02
      3.9196413267129776e-02 5.9140331502835763e-02
      -2.4864301503556441e-03 3.8341513393745294e-02
      9.7645653049463974e-02 -2.4863621725489959e-02
      9.3468650622697311e-02 4.3068858519311658e-02
      -1.8023471794277008e-02 1.3525763630528603e-01
      1.6174296762736626e-01 -6.8669940889030834e-02
      -1.3841921624100213e-02 -3.4857967005543604e-02
      -9.5380141329104634e-02 -5.9305361528062372e-02
      -3.4187132754325208e-02 -4.9256511750102649e-02
      -4.5816805440220595e-03 -5.2859457937380928e-02
      -2.8257207668187848e-02 -4.6769191974552780e-02
      1.3703874348103887e-01 -1.1097660666493927e-02
      -2.5988009559573144e-02 -3.6860594001241961e-02
      5.2599262718795066e-02 -1.3831400439670311e-02
      5.1095784870644012e-04 4.2633353910295019e-02
      1.3042442245329383e-01 -3.2894028130129489e-02
      -6.8281776947649933e-03 5.0392570695409360e-02
      8.0699581935909513e-04 -1.7358927144287323e-01
      -2.2198092510762015e-02 1.1529473838450488e-01
      2.3150719152106047e-02 2.2729298779421730e-01
      -7.1292379542332779e-02 -2.7458270763283298e-02
      -2.2214525382214859e-02 -5.2479166209699710e-02
      8.5633675932464015e-02 -1.1032676092361899e-02
      2.1169675662794363e-01 7.2532231367650399e-02
      3.5182299356724922e-01 7.7491669098896151e-03
      4.1896341743290046e-03 -1.2838054164834986e-01
      -3.9347369682653094e-03 -8.1158452551612748e-02
      -6.1880076530264366e-02 1.3305629967942731e-01
      1.1775905808111468e-01 1.6332718721982092e-02
      1.0695664883090013e-01 -2.4001803242528397e-01
      7.7236437717253179e-03 1.5937802567959891e-01
      1.5909272533870127e-02 1.7091135866182844e-01
      8.6953824112347613e-03 -9.9994576840059246e-02
      -3.1773265320676904e-02 1.1587074676824748e-01
      2.6704681833717853e-02 -1.4409338471268233e-02
      6.6266833676598830e-02 3.8171747602573788e-02
      -7.2598250056942256e-03 -9.1036545188624175e-03
      5.8148452382125806e-03 -1.3305763134564008e-01
      4.5727919093718011e-02 -7.3131935065821857e-02
      1.4601777376188101e-02 -8.7922023834753615e-02
      1.0009288311124280e-01 1.3398281345542065e-01
      1.5073744898724059e-01 -9.8673953286548460e-02
      -5.5927263067550304e-02 -2.8944096815272366e-02
      -2.4049674381621967e-02 2.4216223563015678e-02
      6.3653607474320655e-03 8.0269917423685371e-03
      -3.9976864495943804e-01 2.0069613329888186e-01
      3.9108250624953482e-02 -4.1466721075611133e-02
      -1.9802574265014891e-01 -3.6913629052970787e-03
      -6.1519071478669279e-02 8.0469756322351232e-02
      -3.3648596452094705e-02 9.4946754458044656e-03
      -5.1321855793119873e-03 -1.8173336766163270e-02
      -3.3221757184680981e-03 6.0535777560447201e-02
      1.3933483239180680e-01 6.3112382817480828e-02
      6.8513976981075808e-02 3.6160391522850492e-02
      -1.5059110711725709e-01 -1.5038381092492295e-02
      -3.4655519690048452e-02 -3.7330242417210585e-02
      5.3126876676859751e-04 3.0604440298782030e-02
      -7.0944274114713102e-02 1.4266448257059481e-02
      -1.5910852219454057e-04 -5.7794899310966270e-02
      -6.9517637206268620e-02 9.5655490353481004e-02
      -8.9385631859083076e-02 5.9149364837839023e-02
      1.2612641952378645e-01 5.6659787938859091e-02
      6.8304303498702715e-02 -1.0490326173547115e-01
      5.1756237125696212e-03 -4.0685404105631713e-02
      6.2203136950842539e-03 -4.9292206013344692e-02
      2.5810597797496421e-01 3.2235248184147768e-02
      -3.6518660256740498e-02 -2.7655475980016369e-02
      -3.2596355470448084e-02 -1.2635397653582169e-02
      -1.5024674994524903e-02 1.5847014824750894e-01
      6.4481248419156978e-02 1.0129008604383634e-02
      -5.2225663112079213e-02 -3.0506327016891266e-02
      2.0918278374275508e-02 -8.6839018425838119e-02
      1.2089534923342683e-01 -3.1229866051165475e-03
      -7.8891506519959451e-02 -6.6623949157155271e-03
      -3.4373732458946635e-02 -1.4221940045399065e-02
      6.9761861365405978e-02 -9.2992284493166072e-02
      4.0817218778040253e-02 -5.0143860629712503e-02
      9.2371781234985670e-02 1.4955362589149163e-01
      3.2091694557112643e-01 -5.1212360071720324e-03
      4.0759896441205611e-02 -1.9552994955017172e-01
      -9.3313303071598006e-02 -3.5006592947828735e-02
      -3.9956408780531819e-02 1.0774313913100600e-01
      3.3626868931317708e-02 -2.5409330546073106e-01
      -7.1952426772987216e-02 3.4895125969750967e-01
      8.6647316466952840e-02 3.6722222047582895e-02
      3.9485371000620328e-02 2.8399501149737955e-02
      -2.2889916709287097e-04 -3.6451762102267089e-02
      -1.0890154387599067e-01 -1.7102170602551012e-01
      8.6046453226508376e-03 6.3552445352349662e-02
      2.4757523183885074e-02 -8.8206489564816984e-02
      -1.2260978052384978e-01 7.2883340752582390e-02
      1.5518908497101497e-01 -3.8350689953173860e-02
      1.1558533495961948e-02 1.3996768242230628e-02
      2.8178314816489306e-03 -1.6747233126955734e-02
      -8.5421762033822419e-03 -6.5095852554809708e-02
      -3.8658720175098515e-01 -1.2472138006850181e-01
      5.1023296269988840e-02 7.8079230909331984e-02
      8.1372545297646787e-02 5.3168308098075885e-02
      8.4322904791394537e-02 -1.0655841429609035e-02
      7.9782614808014435e-02 -7.6672676348792223e-03
      2.0846015001214118e-02 2.6636626686323130e-02
      6.0196625851373635e-02 8.8888050364043014e-02
      3.2074000831442913e-02 9.4156216827831658e-03
      -2.7146009110342914e-02 -5.0611825508037007e-02
      -2.5805617739976505e-01 -3.4246183628921505e-02
      2.5780116336263370e-02 -2.9820620986338017e-02
      -2.0433979338979495e-02 -3.3074919499661487e-02
      -1.3847940896067643e-01 4.5493498776240412e-02
      2.1435307592826296e-02 3.4782100117725756e-02
      1.9746525273594551e-02 -1.4529423137772982e-01
      3.4620325442943571e-02 -1.9609049053077705e-02
      -1.0250108764905327e-01 1.6221259096881005e-02
      4.4965589410550240e-02 -1.7156598246968996e-02
      -7.0337395363973196e-03 3.7930376552874158e-02
      -1.1212858194263456e-01 1.6662750609640824e-02
      2.3512254664447316e-02 3.9870973045509600e-02
      -7.7118479544408688e-02 -5.1690599867277316e-02
      4.5507616099931390e-02 1.5314051196356623e-01
      -3.0092498186520416e-02 8.3301911511112464e-02
      3.3503140141066444e-02 1.7399612041128065e-01
      -6.3767194648493675e-02 4.8607520474069528e-02
      1.8330858349469993e-02 -5.0759497362897178e-02
      1.8334859108330481e-01 -4.7651290355843146e-02
      1.6538296534681221e-01 2.6302706154742880e-02
      7.5640559930856763e-02 -4.3489730760884783e-02
      -2.5222818873336939e-02 -1.9838233953869075e-01
      4.5458440428880406e-02 7.2483133748989348e-02
      7.7742106810862230e-02 1.0732734400649491e-01
      1.4601756538200888e-01 8.2474047231468992e-02
      4.9362923577241612e-02 3.0205623247295954e-01
      -1.2612543891581549e-01 -1.0947378898451661e-02
      1.2677180254853249e-01 5.4914721214182047e-02
      7.9091254892487610e-04 -3.4217977836944641e-01
      2.0422624195885780e-02 2.6538759971338510e-01
      -1.4006258968087687e-02 -1.2572378385234981e-02
      -8.0584634239533742e-03 -1.1072731050522869e-02
      6.9346778555755273e-02 4.1099072218008105e-02
      -7.4635840588232569e-02 -6.1829066963327408e-03
      -1.2420897411761897e-03 -8.7543234467137049e-02
      3.1304401062654121e-02 -4.4975844437927862e-02
      9.2158161934409802e-02 1.5376925024019038e-02
      -2.7737434946440102e-02 2.7056241444902072e-02
      2.3533201022246892e-02 -6.3639491056393799e-02
      -1.7898445780436183e-02 -1.3979724982304587e-01
      -4.2644538473089556e-02 -4.2653397556283154e-02
      -3.0035717534863571e-01 -3.1727863514541255e-01
      2.8660686700107681e-02 3.2821534614352638e-02
      1.2727838783307396e-01 3.3866285567258771e-02
      2.2235751910196618e-02 1.2771440609922052e-01
      -2.3182093944856978e-02 2.7885223556078108e-02
      -8.7332002704791328e-02 -2.7189046347463622e-02
      -4.2981445979274656e-03 4.8161664083833655e-02
      2.2134614252438324e-02 -1.8029083794757109e-01
      2.6828917857547138e-02 -5.7420078486922826e-03
      8.8368161461924000e-02 1.0622128438969083e-01
      9.9288052510258393e-02 5.1461087710368801e-02
      7.1517406622248637e-03 -5.3248442849724638e-02
      2.8638944991329240e-02 -1.5306036768760302e-02
      -7.4267456914255292e-02 -6.7917204177388904e-02
      2.4963744783886698e-02 -1.5585958523321014e-01
      -8.7048878849259291e-03 -6.2990556498097469e-02
      -6.5083751282353886e-02 -1.2260599278714782e-01
      -2.2674587605188892e-02 1.3050815722900353e-02
      6.9259501871101565e-04 -1.6455965736664532e-01
      1.1480462387613698e-03 5.9765785060305908e-02
      7.3471203782114275e-02 4.1943112644041061e-02
      -2.2139662588289036e-01 2.6932058331423512e-02
      5.7080918117758193e-02 1.3476012248171831e-01
      7.4330600197081237e-02 1.5478899575142929e-01
      6.4209648749180281e-02 -1.6183635802655144e-01
      -1.4583109760468690e-02 7.8281310843113447e-02
      4.6154870909819005e-03 -1.0221153838584626e-02
      1.2986489919890118e-01 -6.7800515286255691e-02
      1.6102039127141815e-01 4.3181347168884235e-02
      -1.4246978179808790e-02 -5.7051256110603507e-02
      5.8663807151700824e-02 -1.1016361376098859e-01
      -6.5334690607141255e-02 -4.8426213918511013e-02
      1.6371892634874978e-02 8.4850549499740607e-04
      3.9357482421666123e-01 -4.3304534239599318e-02
      1.4538310716229974e-01 -5.2966694984785412e-01
      1.0834405539640718e-01 6.9722499037555910e-02
      8.5409140532513944e-02 9.5142252362081584e-03
      -2.1287798026184530e-02 -1.1191728885982345e-01
      -1.1057791247617325e-02 7.8947819636241673e-02
      1.4878039354960654e-01 -2.0275655018292512e-03
      8.2810720159025297e-02 -8.9402610867397536e-02
      -6.3037272242496431e-02 6.0265227436049285e-02
      3.2211412344854889e-02 -3.6453198253317531e-01
      7.9755711301496002e-02 -5.6048537415016144e-03
      -4.2928647429234239e-02 1.0510431410088704e-01
      9.1911035621777146e-02 -4.0376569077105212e-02
      1.3270788466108882e-01 -3.2537730805027337e-02
      5.1800216839630965e-02 7.5587421533292861e-03
      -5.4939385907853612e-02 1.5427868514950847e-02
      4.9232705397045167e-03 4.4208100324340978e-02
      -1.8461328487309650e-01 -2.9885860197524594e-01
      8.5564570367716530e-02 -1.0937369806168776e-01
      -1.8918670674771260e-01 7.6303715811101194e-02
      1.1595582847600569e-01 -3.2108273421681308e-02
      9.6827835700013534e-02 4.6032488173396599e-02
      -8.0306649404097541e-02 1.7356325549906654e-01
      3.9117722711564121e-02 1.4552144716471083e-01
      -1.0272916293587651e-01 7.8974249913350447e-02
      -3.6819134143127416e-02 -2.1337920139398260e-02
      -1.9780301132250347e-01 1.7776476813938136e-01
      -1.2175785258366141e-01 2.4780428138600108e-03
      1.1966790727929860e-02 -1.9663477872119996e-02
      -9.5281741893747759e-02 8.8198157675979633e-02
      -4.5161400206519667e-02 -4.1169135370338061e-02
      -1.4879778805852702e-02 -5.1558458343696087e-02
      -2.8643735292995867e-02 -5.7492765027027243e-03
      -3.4095284553462046e-01 8.1363577328193090e-03
      -3.2853049358597307e-02 -1.0238132273934124e-02
      -5.1028560115484465e-03 6.0798272089388067e-03
      -3.0151782232213844e-02 -3.5795904027618536e-02
      -4.9960980576643797e-02 -4.7289329039469682e-02
      -4.3539830776130545e-01 2.4459458611537192e-02
      8.9054933121787264e-02 1.5592060682061859e-01
      8.4639945048793450e-02 1.5531870112537383e-01
      9.6209993541057373e-02 2.9364324221769361e-01
      -6.6160296435986102e-02 -7.1261142164570329e-02
      1.7915873603076560e-02 1.6241177789430381e-02
      8.1356829043776946e-02 8.0434583541432389e-03
      -9.3584953760494610e-02 7.9819349446415652e-02
      1.0933210264419130e-01 2.9359737921015011e-02
      -8.4667563372240920e-02 -7.7484833224862049e-02
      5.7353415998206616e-03 7.3137906910527822e-02
      9.3289147753490773e-02 4.5474977782211982e-02
      1.9397165666954147e-01 5.1214607552355317e-02
      1.0931903542461983e-01 2.7412293016507439e-01
      3.3966896963749993e-02 1.9173403834535613e-01
      8.1688619076270091e-02 1.3794929473199849e-01
      -5.6626798952803162e-02 -1.4811256013197860e-01
      -3.6366504436375346e-02 -2.4407029532765537e-02
      -8.8430317758192989e-02 3.3524046575956118e-02
      2.7671675646829649e-02 -3.8971782221313880e-02
      -1.0882882259787789e-01 6.4479946878480965e-02
      5.1429462265024213e-02 6.3537124461049435e-02
      -3.7477205959973885e-02 -2.7189690130281943e-03
      -3.6755461517024308e-02 2.4071798216155498e-02
      -2.6582004724815989e-03 1.1163066471171303e-02
      1.5487743000461388e-01 5.3934822043729139e-02
      -3.3002941051510089e-02 -6.9691062455107922e-02
      -3.5409948710813877e-02 -3.4978440377168386e-02
      -6.7467053516395398e-02 -1.5059372911451940e-02
      -2.5198471552272833e-01 -9.3924267016471233e-02
      6.7924583620227385e-04 6.0889968478559431e-02
      -8.4881881824961106e-02 -6.8716946848890736e-02
      1.5973463035757951e-01 7.3432435879970401e-03
      2.6680242449253974e-02 2.5720029972815181e-02
      2.2159964434433129e-02 -4.0073595494429418e-02
      -1.6608924611479441e-02 -7.1210451719140144e-02
      2.7783016553096018e-01 -1.3080878303648219e-01
      4.0121429284267491e-04 -7.1693174150714259e-02
      6.6737204572927145e-02 6.6302279426679669e-02
      -6.8481751700785022e-03 1.0629189027420561e-02
      -2.3245205708942999e-02 4.4591371198648292e-03
      -2.5450872937538355e-02 -5.5574717184778681e-02
      -5.7949535260469247e-02 4.8113829058145083e-02
      -1.4620546822359515e-02 -3.8338193199126416e-02
      -2.4797029325001774e-02 -2.9089466875836217e-02
      -2.5663533626597806e-01 5.1374551375559900e-02
      6.4820479542035195e-02 -4.6523209788218459e-02
      -2.2410866610707725e-02 5.8768367183786085e-02
      -6.3396089859277985e-02 3.6394229414958283e-02
      -1.6849081154427484e-01 -2.1886260488938884e-02
      -2.7511045716244520e-01 -6.4567974475470635e-02
      1.9628304987274418e-02 -1.2620133615321524e-01
      1.8373727524614693e-04 8.1108585766556940e-02
      -1.0238608349986420e-02 2.5556299836418794e-01
      -8.5156543636839364e-03 -2.1592238026961075e-02
      9.5275749343814962e-03 1.1754670496390237e-03
      1.2236534473353555e-01 -4.3996210501873127e-02
      4.9894137864711766e-02 1.4398248251217258e-02
      -7.4170849948814094e-02 -2.1750600157054583e-02
      -7.9735526700977277e-02 -1.6041098976519810e-01
      2.2823645552546595e-02 1.4589620571685811e-02
      1.5855586598214902e-01 8.0454245011276404e-02
      -3.7004964656335335e-02 4.5086816213734483e-02
      2.0356276822307684e-01 3.2329014439349918e-01
      -5.2501402536533570e-02 1.1010005292676479e-01
      1.0158779850019219e-01 1.4355089782093797e-01
      6.2292247297150868e-02 -1.0048646520423637e-01
      3.6545109436171182e-02 1.9593831274299175e-01
      -7.9357522271058120e-02 -6.7944671944557222e-02
      -2.3953598885778478e-02 1.8761620365357640e-02
      4.3055714205165255e-02 1.1240384396134319e-01
      -2.3775624195163446e-03 -4.1180884935883406e-02
      -4.8142217803931429e-02 -3.0707147557324926e-02
      5.3496028560035692e-02 -2.4855568223171809e-02
      -6.1752956181825087e-02 1.9415986781177664e-02
      3.2573338518926034e-02 2.1700511730541272e-02
      -2.2339531297495161e-03 1.4982641684383041e-02
      -2.9770688762823731e-02 1.6365487208172113e-02
      3.2640467350849170e-03 1.4938933052336803e-02
      -5.3169775279943285e-03 1.3947359002855952e-01
      8.1819962098195462e-02 5.8926124228340621e-02
      1.2218803588756486e-01 -3.7872142860507135e-02
      2.0435154330201918e-01 -8.0450325929804278e-02
      2.0630071833372187e-02 -3.2806550598758102e-02
      -1.0171231078037708e-01 -2.6274259061250419e-02
      -2.1390224909486825e-02 4.6750529111395746e-02
      1.2568525578141168e-01 -7.1664058089133759e-02
      -1.6519296798879965e-02 -1.3970762868023919e-03
      2.2684976650342631e-01 1.2560350748281035e-01
      1.7701032546400269e-01 4.1083277053805468e-02
      3.7682717927416273e-02 3.6704676169837594e-02
      6.7562360645300953e-02 -3.7146058370590380e-02
      1.2729724850351997e-02 1.6641023431803407e-02
      -9.5174653610751239e-03 -5.4103872832060064e-02
      5.6312966178070079e-02 8.5780885049103223e-02
      -4.4860832244844184e-01 -1.0528895772583147e-01
      8.7734153921281310e-02 -2.1505901857545143e-02
      -3.6854819200418556e-03 2.3370282147688742e-02
      -3.7851134818263528e-02 -5.8098008367361412e-02
      1.7303950944275551e-01 -1.9944527511827601e-02
      -2.9646829306411343e-01 2.7523426060322927e-02
      1.1282667207717657e-01 4.0102189399296517e-01
      1.6862658588010365e-01 1.9062998478307017e-01
      -1.3278254473240601e-02 -1.2257594360433912e-03
      9.0833094543260204e-02 -1.0255101233987747e-02
      1.7298312863550526e-02 -1.4709379759944952e-02
      1.5735052058100837e-01 -2.3043978277423650e-02
      -2.8882679771355874e-01 7.5364047934604481e-02
      3.5430778555902015e-02 1.4384360911987675e-02
      -8.0951369037874282e-02 -6.7687125498507666e-02
      3.3304231654350702e-02 5.6242527651104504e-02
      3.2240829608911274e-02 -1.1821371653959172e-03
      2.3097711064403728e-01 -7.1634405236147447e-02
      -1.7035258703184029e-02 -6.9942024120160706e-02
      -1.2890097214051571e-01 1.4150884916650447e-01
      5.1845376234754971e-02 1.8113701226906370e-01
      -1.3398925092441305e-02 -6.7348942868072137e-02
      -1.2203761479506079e-02 1.8115937664104312e-01
      -2.4868324936427297e-02 5.5548348349299219e-02
      6.7700263453136705e-02 1.4366770869549950e-02
      4.1552254264713998e-02 -2.6455415015573958e-02
      -1.9562266940521411e-01 -2.4532907167910484e-01
      -7.9131271346173274e-02 4.1525899852477025e-02
      6.9863580580383847e-02 -9.0607191392829495e-02
      1.5611064494362732e-02 1.2344430038286294e-01
      9.0687312761906169e-02 1.8926475139201749e-02
      -3.8976894023506653e-02 -2.7014867745157257e-02
      -2.6233726576008622e-02 -2.4267160546474927e-02
      2.2057738088528692e-02 2.9364950177334568e-02
      -4.3762630326962682e-01 1.1091064126149543e-02
      2.5333142343337535e-02 1.1018691181088917e-01
      -1.1627721509535152e-01 3.6001406315124704e-02
      5.0971632751260557e-02 -1.8674306918128457e-02
      -1.1127807008983083e-02 -4.5164769760868764e-02
      -3.0597174386588722e-03 -2.7226165909508701e-02
      3.9793940387719766e-02 -7.9835913648456575e-02
      3.8324102838236951e-01 -8.8404035696312319e-02
      -5.9808925004360879e-02 -1.8817836429379936e-03
      -1.9843521916126711e-01 2.6117469851002112e-01
      -1.0954281524352984e-01 -2.9733982398661263e-02
      -6.5586804517924591e-02 -5.4434468384361438e-02
      -4.6962688193554702e-02 4.7025585629835186e-02
      4.8237673465606042e-02 -3.9206595190321783e-02
      -2.9703741866327960e-02 -5.3989269289310367e-02
      -1.1569037402024909e-01 3.1674421285578380e-01
      2.3427056001606589e-01 -5.7491448652577028e-02
      -3.7197522356169493e-02 -6.2821043543739505e-02
      2.0411835508748796e-02 -2.0566346129481061e-01
      -1.5183051992218369e-02 -1.6878173024592757e-01
      3.5241415101288459e-01 -2.3650011118479047e-01
      -1.3162213959605609e-02 -8.9132766745481831e-02
      8.1555883777085114e-02 -7.4265257854928568e-01
      -1.3723464721443449e-01 -2.0520206432855670e-01
      1.5290840703167385e-01 4.5581926228513936e-01
      -8.6067680206807079e-02 1.0524304804970980e-01
      -4.2707455916516018e-01 -4.7307736013650875e-02
      -1.0215754271410081e-01 3.7897726175068924e-02
      1.9274665842095576e-01 -5.8400966058615436e-03
      1.0795855665895389e-01 -1.3832001362104315e-01
      2.5766822849201204e-01 2.4453191960018386e-01
      1.0124516137058566e-01 -9.2070718481492092e-02
      -1.5432871199789380e-01 1.1866745038057414e-01
      5.9911896410144294e-01 -1.2629384331654780e-01
      -3.0751640103356798e-01 1.2348570102979511e-01
      -4.1038843199105987e-02 -2.2500020969991355e-01
      -9.4656919564710007e-02 1.8446225164683799e-01
      3.0292105804857733e-01 2.8748263597295520e-01
      -7.5917625972541647e-02 3.7083456199928821e-01
      8.0056451392484226e-02 1.0590287096126569e-01
      -2.1112575727638022e-01 -2.4097057318794073e-02
      -4.2477189765265694e-01 9.1869619317250656e-02
      -1.0621386940674168e-01 -2.1335362310745107e-01
      2.0753479398000788e-01 -5.9075402468819017e-02
      1.8545211249284552e-01 1.3703485483272371e-01
      6.5681943129516118e-01 5.4114663467192167e-02
      4.2247434047094035e-01 -1.6499400058200403e-01
      3.5405516877051721e-02 9.9605249935333429e-02
      -1.2367973773933245e-01 5.5166994815117984e-02
      8.8562224525156504e-03 2.2345858804393975e-02
      6.2625826995137357e-02 -4.3014226262880040e-01
      -3.7816688913813901e-02 -3.2242026671646451e-01
      -7.5686270093193531e-01 1.6715076519773342e-01
      -2.5152349816858283e-01 -3.2880345783213888e-02
      -1.0784407909681179e-01 -2.9969068636045457e-02
      7.1167936569618784e-02 -4.0573974370819513e-02
      1.3492868190735389e-02 1.1642452684577025e-01
      -8.7518493977798775e-02 -3.1369308336568411e-02
      4.4765608561197978e-01 2.1894851701544465e-01
      7.9832251518430417e-02 -4.3035203550451362e-01
      4.6633821488080662e-01 2.5014320560137704e-01
      1.7033948077944946e-01 -1.4760587600829608e-01
      1.6528556741481265e-01 -2.4507755156841246e-01
      -1.0730928018925301e-02 -1.5835012228965645e-01
      -2.2840272451958459e-02 5.5940742548166278e-01</_>
    <_>
      6.1016114209607419e-01 -6.8542144361339052e-01
      4.0481876337123801e-01 5.1790000395163460e-01
      7.5904398116899074e-01 8.7111217912652061e-01
      -8.8704566364475257e-01 3.0217678277125518e-02
      -1.5808579996355945e-01 -8.2699640923344842e-01
      -4.7122754005178230e-01 -8.7776016839674698e-01
      4.0034601279445708e-01 -7.1778604334076079e-01
      -9.0404597359759697e-01 -8.1962118378147819e-02
      -7.4086747692978050e-01 -4.9244107939757092e-01
      -1.7080837889296732e-01 -3.9052897712614443e-01
      -4.7925711579881197e-01 8.3448395782412615e-02
      1.2525276004764885e-01 1.1123102041447335e+00
      -3.0869830503773293e-01 4.5686861135763812e-01
      -8.1195690581986302e-01 3.6787295327940112e-01
      1.0825582977932324e+00 -5.8583747761819693e-01
      1.5500813510169370e-01 5.2238220180951672e-02
      6.8947972322403306e-01 -3.2357343251926013e-01
      -6.1732323678467149e-01 7.9990074972685121e-01
      -1.6188727634766373e-01 9.1968887961599644e-01
      -6.5250410642677492e-01 -8.3768463110505920e-01
      -6.5418603551928145e-01 -5.9782137255270332e-02
      2.5340403428976266e-01 4.1587150785309418e-01
      -3.6513607105562912e-01 -2.5698517889017064e-01
      6.5366286778155513e-01 -5.4132412501798000e-01
      2.3894252805535385e-01 -8.8260270655624173e-01
      1.6867111485278023e-02 -4.4786537982304864e-01
      5.1744886541782942e-01 3.6776720074742214e-01
      1.7202742000459328e-01 5.3027000145479442e-01
      -4.8181078507490005e-01 -1.9968369555209492e-01
      -5.3776444431538706e-01 7.7009685841305198e-01
      2.4414676235361230e-01 2.5399946352161062e-01
      7.9336326137019159e-02 5.9058483942672234e-02
      4.3459383585000660e-01 -9.5611491554099814e-01
      2.4369227725017059e-01 -7.2361199026642134e-02
      -4.0601288457432561e-01 6.5204126115061622e-01
      -7.7818112770219647e-02 -4.8755755857580085e-01
      5.8158247250225314e-01 4.1857548634366176e-01
      -6.3958590618276989e-01 5.8497794937594894e-01
      2.9649587868619653e-01 -1.6344288686639819e-03
      -1.7121442236526388e-01 -3.5669641935039093e-01
      6.5066163061916338e-01 4.9324713570350487e-01
      4.1526447241676034e-01 5.7978422766620519e-01
      2.4792717298020622e-01 -7.2089965612511941e-01
      3.8765452234070147e-01 -5.5064643695988680e-01
      -9.7574177868481216e-01 -9.1808295223211367e-01
      6.4743778214995029e-01 9.3940472518193791e-02
      -9.3945395669279219e-01 5.0187468554347470e-01
      -4.5322578967953764e-01 1.1661606394855102e-01
      -7.5378344753368959e-03 9.5733379425057175e-01
      6.0965503069091476e-01 -2.2808111798430350e-01
      8.1151744875638299e-01 -5.2619723083741421e-01
      -6.5854815659419752e-01 -3.0404860243956949e-01
      5.2390496857036495e-01 -2.8795538593574904e-01
      7.4324100570090490e-01 -4.7581548932137857e-01
      1.0197334809210636e+00 -1.9631630582128631e-01
      -5.5080120385637144e-01 -7.7492861395705559e-01
      9.5095899189295907e-01 6.6181967721643364e-01
      4.4432746835788267e-01 5.7404744608207414e-01
      5.3479585891898584e-01 1.2867749687205658e-02
      -1.6067787541824752e-02 -1.9214752124119905e-01
      4.2790929081985979e-01 -4.6927273329459740e-01
      -5.3987959700727539e-01 8.1237720392650237e-01
      8.3309163489361671e-01 2.1843799825231824e-01
      1.3968019970857118e-01 -9.7587150512649945e-01
      -1.0845946007790368e+00 7.3883137052172854e-01
      1.9702985949446655e-01 1.3363242311191037e-01
      4.7870873508088585e-01 1.8663961588126673e-01
      7.5137125913305591e-01 -7.5765748811015665e-02
      -9.7991046779200297e-01 4.4781299055211737e-01
      9.3959400997575382e-01 -4.1767187163362945e-01
      7.9836435515832482e-01 -3.7625502504528635e-01
      -5.1237823667362614e-01 -2.1094765512379329e-01
      -6.9389786833187583e-01 1.2227198838902903e-01
      -8.9672715303943773e-01 -4.0217997807956468e-01
      3.3875040663629891e-01 -4.3459274169954432e-01
      -1.4552489740490762e+00 1.6245281540320782e+00
      9.4224681685744383e-01 1.7386378682111353e-01
      2.9909597602694726e-01 -7.1718248211343649e-01
      3.8310721066080677e-01 -6.2869019362777423e-01
      -1.2132277766417976e+00 -7.1576411819873775e-01
      -3.4209190011967194e-01 -5.8956770213517140e-01
      -8.1681875639498691e-01 7.3821103585432313e-01
      -3.7787844142503452e-01 -9.0887767778777317e-01
      5.5954905739837413e-01 -6.7675017870252330e-01
      7.3358432352764713e-01 -6.0283758444244073e-01
      3.2322976631936906e-01 4.4079451751243043e-01
      9.8064655160044545e-01 -9.3303190144635406e-01
      -7.9507786549955706e-01 9.5034720761224478e-01
      1.9330170631401380e-01 -4.1547424072458711e-01
      9.7404534399449716e-01 -9.6586355754880926e-01
      2.4265249110979933e-02 -7.3383648552601843e-01
      -9.8213565282092652e-01 -1.1038308931206488e-01
      -3.7478025281436794e-01 -5.1186913521768551e-01
      5.3213417081774506e-01 -8.5048843494722715e-01
      -8.7657716167742405e-01 -5.9208006333311836e-01
      3.5188122346329409e-01 -4.9458886467334273e-01
      1.0806999629906233e+00 -1.1647995685771420e-01
      7.0218275688824661e-01 -1.3286313741659126e+00
      -8.0775141079609403e-01 -3.2213766217454831e-01
      9.3320021446608514e-01 -1.5741295548587933e-01
      2.9761613807529236e-01 -4.3388462593897709e-01
      -9.6973205405774132e-01 5.3165064376101234e-01
      -5.9956280851358852e-02 -1.3230966208649822e-01
      -5.7027427881104709e-01 -1.9752088009300903e-01
      8.3630648553546372e-01 -1.0324369246703483e-01
      -7.8876525309851642e-01 -8.8188525049466315e-01
      4.1211691307638293e-01 -8.7580283552781346e-01
      4.6883997090651858e-01 -3.0539067880531146e-01
      -1.7128672764158079e-01 6.9727486286522877e-01
      3.8135786886252043e-01 -2.3378048277863026e-01
      -5.0605743833082439e-01 -6.7235098472255383e-01
      8.1530332780083736e-01 9.8518405979847679e-01
      -7.0746226888438582e-02 4.8141100676513360e-01
      8.7658901024075253e-01 4.3211286061658871e-01
      6.5781531312521813e-01 8.7025634599231383e-01
      -9.0007653902377471e-02 -4.7888985711578635e-01
      1.2232971216219336e-01 4.4503317759234079e-01
      3.3585453591234937e-01 -2.9533716295202772e-01
      -4.4467944542764282e-01 4.5634699762441427e-01
      2.6330502131455458e-01 -6.0178482835373981e-01
      6.7769394506679770e-01 8.5058558132267115e-01
      -1.5877548767388078e-01 8.9354933117660351e-01
      -1.8613030196668820e-01 -6.0634548816383298e-02
      7.3851988009219705e-01 -1.5513908303024568e-01
      -6.3211359109497600e-01 -1.3990389883005511e-01
      -7.6743532537312154e-01 6.2994610340569357e-01
      8.9106155100354401e-01 2.9423454823774392e-01
      -8.4646033804715159e-01 1.9214731711434463e-01
      -1.4114742623495599e-01 4.9260825412814158e-01
      4.0814624951836831e-01 4.0691985585469009e-01
      4.6527483294755695e-01 -7.4716676273166349e-01
      -3.0337009194476957e-02 -4.9093813879756032e-01
      -1.9585165490274820e-01 3.5909473893155880e-01
      7.6460391943810768e-01 -9.6623163061970563e-01
      6.1076711953502216e-01 -9.1153605681290917e-01
      -1.9676509287813440e-01 9.3898076680984055e-01
      9.3860010492154156e-01 -5.7944861509617174e-01
      -5.8483383528945143e-01 9.5894553984299791e-01
      3.5097803069055589e-01 -1.4571811556836267e-01
      7.1481715088703779e-01 -6.6971193445086485e-01
      -9.5246699959591696e-01 -5.3261432500032735e-01
      5.4637153505163127e-01 9.9995953981172492e-01
      -2.0476697467468200e-01 4.4444021851949017e-01
      -4.1947510678182298e-01 4.2897810057133268e-01
      -7.4345656649745928e-01 3.3112920822268349e-01
      3.8927601579185750e-01 -5.1301110619921819e-01
      -9.5235631371264129e-01 5.9644558157837446e-01
      -3.6229633163915122e-02 6.3179804592044253e-01
      1.4306582564840514e-01 -7.0996296472061926e-01
      -1.5417907684346280e-01 -2.9637165539643845e-01
      -4.2365912818584311e-01 8.2752849841142162e-01
      -3.9645288789440813e-01 1.4067267304524539e-01
      -2.2659972185214075e-01 -4.6149257595226933e-01
      -1.3898560653565750e-01 -3.7075104221124694e-01
      7.1585162118882850e-01 -3.5889440890925284e-01
      -6.4725651854811689e-02 7.2181094351037334e-01
      7.0890210633912765e-01 -1.0010193673959011e+00
      5.3696595474115272e-01 -6.4179584588429572e-01
      4.8509620467748489e-02 6.5827477628342046e-01
      -9.5349183906884838e-01 5.7556478201342201e-02
      -3.9605358528691231e-01 3.2496937422352162e-01
      -7.9797684843178651e-01 -3.1603263361826495e-01
      -3.1203726801828502e-01 -8.1648916624577850e-01
      2.6976405401623832e-01 -1.0640222391563579e-01
      6.5572795060033540e-01 8.0371866190850028e-01
      3.8530580211579746e-01 2.0353665132336867e-02
      -7.4086988602744430e-01 -5.5701827691862515e-01
      -8.2907045990805261e-01 -3.8410728988888482e-01
      8.8247658817553221e-01 4.2440813889514449e-02
      2.9679222132492850e-01 -7.6005896287757824e-01
      2.5566403883616062e-01 8.3220541331539011e-01
      1.0552700082726160e-01 2.8644678448675553e-01
      -7.4168016792211588e-01 5.6365260488441538e-02
      -5.8528613390245654e-01 4.9335041861391637e-01
      -2.8356210403404508e-01 8.7058132829970736e-01
      -9.6777525276293153e-01 -2.4199792502021911e-01
      4.5968484006381777e-01 -1.1569666207332270e-01
      3.4547236316819030e-01 5.1171025813040072e-01
      -5.0576384815975750e-01 -9.9335470572762918e-01
      9.4016021397208238e-01 7.7572758159761612e-01
      -1.8201432257056595e-02 -1.2309460759923947e+00
      8.2640200919939677e-01 6.4983713445886992e-01
      1.2294245529347528e-01 -1.2554937126451496e-01
      -1.9586721623368425e-01 -2.8850910965610854e-01
      -1.0917536730735999e+00 -9.4573631377554546e-01
      7.5567435866139454e-01 -1.1538551973837488e-01
      3.3398657194520881e-01 -4.1966692183440069e-01
      -2.8166563117691035e-01 4.5968547110471952e-01
      -1.2751893316265786e-01 5.3415017902395800e-01
      2.0567011158350459e-01 5.2187255243740927e-01
      2.4096391886632013e-01 -1.0601657081923062e+00
      -5.3449722277165068e-01 -3.4017421411091475e-01
      1.4600811834431726e-01 6.9596354575633246e-01
      1.0417140605593989e-01 -4.6340034870334446e-01
      7.7354628553045102e-01 8.3730829213808172e-02
      -5.4216195546102486e-01 9.8652180094206732e-02
      8.0901689170745528e-02 -1.6730468392308173e-01
      1.1418762137204026e+00 -6.5220357131102391e-01
      2.3005180690766594e-01 7.5618307202692678e-02
      -6.0347282333770602e-01 -4.8307998895093918e-01
      3.5055122559430474e-01 -9.1373307133343684e-02
      -5.7285322807952244e-01 -2.6985755373732256e-01
      9.0515675767064230e-01 5.0330274368035821e-01
      2.5464064354863741e-01 -1.3209604108991543e-01
      -7.5770178106377639e-01 -9.0126087767481722e-01
      6.1018613751977424e-01 7.2832441021819105e-01
      7.3471856732116925e-01 -1.6629440299345613e-01
      -6.3830627839796983e-01 9.5031905398695515e-01
      1.0020676045730135e+00 6.8330222832944199e-01
      -2.7021002376341818e-01 1.7401034054138267e-01
      -1.9085955904057111e-01 -5.2820716961768233e-01
      -8.8031596140352486e-01 -6.4168632877814213e-01
      -3.0949948479059308e-01 7.7881494557294129e-01
      5.8949843274076497e-01 9.2397459443503183e-01
      5.0738166858424716e-01 -3.0407225716895364e-01
      -6.1480947021167709e-01 -8.7624127651877659e-01
      3.5975060921726321e-01 6.9790748071994291e-01
      6.2533187778729782e-01 -2.2556290707153218e-01
      -8.1591420186951355e-02 3.9357847048950229e-01
      -9.5732377123287726e-01 -9.8913357800482027e-01
      -7.4277545867377537e-01 3.4236071890262365e-01
      9.5266535416278986e-01 -8.4151754680624899e-02
      -8.3996653570439206e-01 -9.6891332469773150e-01
      -6.3090264668805940e-01 1.7484753413743170e-02
      3.0196472687224823e-01 -5.9383673795832226e-01
      -6.3086032309473872e-01 -1.0372653459151164e+00
      4.4082166836089348e-01 -4.4088755751339259e-01
      -5.0087937268788307e-01 -9.9453465756580051e-01
      3.6025068842122948e-01 -4.8044705509989100e-01
      5.7190404712998166e-01 5.6380181736812668e-02
      3.6007179971121994e-01 6.1238216448626959e-01
      -5.5498266520615147e-01 5.0762016443884450e-01
      -4.9231949121020475e-02 5.7811219663352964e-01
      -7.8572216167657372e-01 8.1795692948362053e-01
      5.1600607564625167e-01 9.4322826125403691e-01
      -1.0281171874502069e+00 4.7713240962358711e-01
      -2.8492499608856992e-01 -4.0788607319447256e-01
      7.7663592919293833e-01 -1.2219186623176501e+00
      -8.9129362899725140e-01 -7.2698535195410641e-01
      -1.2185868021610075e-01 4.0413936374026005e-01
      -3.0619918713833427e-01 8.2836006136985318e-01
      6.1638522502270643e-01 3.1629925222897759e-01
      7.9773649542815928e-01 -2.8051100025849252e-01
      3.9794922494621526e-01 -3.8522544928754832e-01
      -5.1472595345852368e-01 -6.6545531702811589e-01
      7.7434566508484393e-01 2.1561850788588552e-01
      1.6596767946137259e-01 -4.7395585772183507e-01
      1.5753976132257275e-01 -8.3653590819774570e-01
      -2.2844459935478423e-01 1.9151258667250390e-01
      -4.2261724333102574e-01 -9.2485998713059292e-01
      5.3702974807662596e-01 5.9738884702689038e-02
      -7.9978302583051919e-01 2.9143341739224676e-01
      9.4487740191107672e-01 -7.0431111461364515e-01
      7.4306118144871580e-01 4.9455119562604188e-01
      -6.8064613671805640e-01 4.7943585666402844e-01
      -6.3165076682959198e-01 -2.8789140811423208e-01
      -6.7098045221569691e-01 4.7786694519662531e-01
      -3.9507062169862628e-01 6.8126385398403799e-01
      -1.1753141024927889e-01 9.5799349101822351e-01
      1.0485327562278865e-02 2.0917468333617240e-01
      6.7932286625930663e-02 -9.6433887916785710e-01
      9.7857873637104598e-01 8.5802226816374838e-01
      -8.2523172589827554e-02 6.8409423078420262e-01
      -7.8950589194294640e-01 -8.7185421477493841e-01
      9.4524192884405545e-01 4.7150979822292965e-01
      -1.8799236192897786e-01 -7.7661565435195057e-01
      -4.6124218140696832e-01 -4.1950085231196604e-01
      -8.9635844909356377e-01 3.5072019157870160e-01
      -1.2796616793272483e-01 -2.5812176774562857e-02
      2.1798279583546001e-01 -8.8576367911692611e-01
      -9.7983874180769903e-01 8.2271042457094712e-01
      4.6230759838838030e-02 9.9964715787319114e-01
      -5.6477042223353931e-03 -6.4889234706342303e-01
      2.4609472182913647e-01 -3.3803612419672213e-01
      6.4178652673594727e-01 9.8252141304958307e-01
      7.9786764566653179e-01 -3.0501838926879965e-02
      -4.2072089624021403e-01 3.8717213848252807e-01
      -9.2795704821046843e-01 6.6468882120547390e-01
      -3.3907888805657932e-01 6.0540316263643468e-01
      7.4861058217818621e-01 1.6227030685031316e-02
      -3.9718863463600429e-01 -3.3760476766168052e-01
      -1.9457735829102765e-01 -3.0401509252291214e-01
      5.8212322147171003e-01 -6.9114315159978768e-01
      -7.9423041342809045e-02 -1.1518174504654907e-02
      -7.7967018307299751e-01 7.0396330980121102e-02
      -5.7264660582691640e-01 -7.4139865956419382e-01
      3.2644512702626616e-01 -4.0291661161490855e-02
      7.8771074027938692e-01 8.2739591887065023e-01
      -9.0983729598805174e-01 -2.0161164526815578e-01
      7.9639777480257723e-01 -2.1369313734957709e-01
      9.9025785306344913e-02 -7.3273356991389726e-01
      -8.6909422533695446e-01 -8.7967342538662030e-01
      -8.9298862890546216e-01 3.4415133899116540e-01
      -4.1542865471147883e-01 1.5314709632262186e-01
      1.5904033735020165e-01 -4.4101119467111588e-01
      -2.7263678349255310e-01 -6.2035062273311448e-01
      8.1019229598223252e-01 -1.2645354101757689e-01
      3.6653964763361230e-01 -2.6078071309014361e-01
      -8.8098251369038949e-01 -2.3642471747778518e-01
      3.3241685977461521e-02 8.9206192568790432e-01
      -1.9431311690530313e-02 6.1200553705361471e-01
      -6.8324646450438797e-01 6.7297286677005563e-01
      -6.4216776886256732e-01 -9.4673992585677702e-01
      -1.5660118367390308e-01 -7.9501266718389652e-01
      5.7829577959912248e-01 -7.7463144806492645e-01
      -8.0823221686739022e-01 -7.0831048169450128e-01
      5.6648320687639822e-02 2.3879246558697662e-01
      3.9756371579520300e-01 4.2456091394906026e-02
      5.6932852761575470e-01 4.5210622971207021e-01
      -8.4429833766533691e-01 -4.9062439447493451e-02
      -6.6922072576440506e-01 -2.3535179457079780e-01
      -3.1784939749200330e-01 9.1588703017168016e-01
      -7.5404457418076859e-02 -9.2405263304890461e-01
      -3.5045057833939047e-01 9.2586156853072796e-02
      -1.6978053072645147e-01 -5.6837469525900985e-01
      1.5299836156763325e-01 -9.2954395289228686e-01
      3.7469265362914822e-01 4.3359565362533969e-01
      -3.6339210287733698e-01 1.4485563850280059e-01
      -5.0366849200259259e-02 -8.7449402904727258e-01
      4.9976140245332734e-01 3.5626377409391152e-01
      -4.0752096433607060e-01 -8.3160634537109912e-01
      4.0111892741133731e-01 9.2101812521538329e-01
      -2.4183968410584308e-01 -7.8161028010016287e-01
      -7.3272708326266910e-03 -1.4220665430680684e-03
      -9.2089620737066036e-01 4.9454487919295093e-01
      2.6363781197213298e-01 6.2125290498477059e-01
